<?xml version="1.0"?>
<opencv_storage>
<my_svm type_id="opencv-ml-svm">
  <svm_type>C_SVC</svm_type>
  <kernel><type>RBF</type>
    <gamma>1.</gamma></kernel>
  <C>1.</C>
  <term_criteria><epsilon>1.1920928955078125e-07</epsilon>
    <iterations>1000</iterations></term_criteria>
  <var_all>200</var_all>
  <var_count>200</var_count>
  <class_count>2</class_count>
  <class_labels type_id="opencv-matrix">
    <rows>1</rows>
    <cols>2</cols>
    <dt>i</dt>
    <data>
      0 1</data></class_labels>
  <sv_total>22</sv_total>
  <support_vectors>
    <_>
      3.09837330e-03 7.74593325e-03 2.32377998e-03 4.64755995e-03
      4.64755995e-03 4.64755995e-03 1.00697130e-02 3.87296663e-03
      2.32377998e-03 2.32377998e-03 6.97133970e-03 1.39426794e-02 0.
      7.74593325e-04 1.31680863e-02 3.09837330e-03 3.09837330e-03
      5.42215351e-03 0. 0. 7.74593325e-03 7.74593325e-04 3.87296663e-03
      6.97133970e-03 1.31680863e-02 5.42215351e-03 7.74593325e-03 0.
      1.54918665e-03 3.09837330e-03 6.97133970e-03 2.32377998e-03
      2.32377998e-03 1.47172734e-02 1.08443070e-02 7.74593325e-03
      1.54918665e-03 0. 2.32377998e-03 5.42215351e-03 9.29511990e-03
      4.64755995e-03 5.42215351e-03 1.54918665e-03 2.32377998e-03
      4.64755995e-03 1.62664596e-02 7.74593325e-04 2.32377998e-03
      5.42215351e-03 7.74593325e-04 1.54918665e-03 6.19674660e-03
      7.74593325e-04 7.74593325e-03 7.74593325e-04 0. 1.23934932e-02
      1.85902398e-02 1.54918665e-03 0. 3.87296663e-03 4.64755995e-03 0.
      7.74593325e-03 6.19674660e-03 4.64755995e-03 8.52052681e-03
      4.64755995e-03 5.42215351e-03 3.87296663e-03 7.74593325e-04
      9.29511990e-03 1.54918665e-03 2.32377998e-03 3.87296663e-03 0.
      2.32377998e-03 8.52052681e-03 6.19674660e-03 4.64755995e-03
      7.74593325e-04 6.97133970e-03 3.09837330e-03 2.32377998e-03
      3.87296663e-03 7.74593325e-03 3.09837330e-03 1.54918665e-03
      7.74593325e-03 9.29511990e-03 1.54918665e-03 9.29511990e-03
      6.97133970e-03 1.54918665e-03 3.09837330e-03 8.52052681e-03
      1.54918665e-03 1.54918665e-03 7.74593325e-04 1.31680863e-02 0.
      3.09837330e-03 5.42215351e-03 2.32377998e-03 3.87296663e-03
      2.32377998e-03 8.52052681e-03 7.74593325e-04 1.00697130e-02
      4.64755995e-03 2.32377998e-03 1.62664596e-02 3.87296663e-03
      2.32377998e-03 4.64755995e-03 1.16189001e-02 3.09837330e-03
      1.54918665e-03 4.64755995e-03 2.32377998e-03 9.29511990e-03
      2.32377998e-03 1.54918665e-03 2.01394260e-02 1.54918665e-03
      5.42215351e-03 5.42215351e-03 3.87296663e-03 7.74593325e-04
      7.74593325e-04 8.52052681e-03 4.64755995e-03 6.97133970e-03
      1.00697130e-02 7.74593325e-04 4.64755995e-03 3.09837330e-03
      1.39426794e-02 2.32377998e-03 6.19674660e-03 6.19674660e-03
      2.32377998e-03 6.19674660e-03 3.09837330e-03 1.08443070e-02
      4.64755995e-03 7.74593325e-03 1.54918665e-03 2.32377998e-03
      7.74593325e-04 3.87296663e-03 2.32377998e-03 7.74593325e-03
      3.87296663e-03 0. 6.97133970e-03 0. 9.29511990e-03 8.52052681e-03
      1.16189001e-02 1.54918665e-03 6.97133970e-03 2.01394260e-02
      3.09837330e-03 3.09837330e-03 1.00697130e-02 6.97133970e-03
      1.08443070e-02 2.32377998e-03 0. 1.54918665e-03 3.87296663e-03
      3.09837330e-03 1.54918665e-03 6.97133970e-03 3.87296663e-03
      4.64755995e-03 6.19674660e-03 7.74593325e-03 2.32377998e-03 0.
      5.42215351e-03 6.97133970e-03 3.87296663e-03 3.09837330e-03
      6.19674660e-03 3.09837330e-03 5.42215351e-03 3.09837330e-03
      1.00697130e-02 5.42215351e-03 1.16189001e-02 4.64755995e-03
      1.85902398e-02 2.32377998e-03 4.64755995e-03 5.42215351e-03 0.
      3.87296663e-03</_>
    <_>
      1.22249394e-03 3.66748171e-03 4.88997577e-03 3.66748171e-03
      6.11246983e-03 2.44498788e-03 8.55745748e-03 9.77995154e-03
      3.66748171e-03 7.33496342e-03 6.11246983e-03 8.55745748e-03 0. 0.
      7.33496342e-03 4.88997577e-03 4.88997577e-03 0. 0. 0.
      6.11246983e-03 0. 4.88997577e-03 1.34474337e-02 3.66748171e-03
      8.55745748e-03 6.11246983e-03 0. 2.44498788e-03 3.66748171e-03
      2.44498788e-03 0. 1.22249394e-03 0. 7.33496342e-03 0. 0.
      4.88997577e-03 3.66748171e-03 3.66748171e-03 7.33496342e-03
      6.11246983e-03 4.88997577e-03 1.22249394e-03 2.44498788e-03
      4.88997577e-03 1.22249397e-02 1.22249394e-03 1.22249394e-03
      1.22249394e-03 2.44498788e-03 2.44498788e-03 6.11246983e-03
      3.66748171e-03 8.55745748e-03 1.22249394e-03 0. 1.71149150e-02
      1.83374099e-02 2.44498788e-03 0. 2.44498788e-03 1.58924218e-02 0.
      6.11246983e-03 1.22249394e-03 4.88997577e-03 1.58924218e-02 0.
      3.66748171e-03 0. 0. 1.46699268e-02 1.10024456e-02 4.88997577e-03
      9.77995154e-03 0. 6.11246983e-03 9.77995154e-03 3.66748171e-03
      8.55745748e-03 0. 6.11246983e-03 1.10024456e-02 3.66748171e-03
      9.77995154e-03 4.88997577e-03 0. 7.33496342e-03 1.22249397e-02
      3.66748171e-03 7.33496342e-03 1.34474337e-02 2.44498788e-03
      2.44498788e-03 4.88997577e-03 7.33496342e-03 2.44498788e-03
      6.11246983e-03 0. 1.22249397e-02 0. 1.22249394e-03 1.22249397e-02
      1.22249394e-03 2.44498788e-03 0. 7.33496342e-03 2.44498788e-03
      1.34474337e-02 2.44498788e-03 4.88997577e-03 3.66748171e-03 0.
      3.66748171e-03 1.22249394e-03 3.66748171e-03 1.10024456e-02
      4.88997577e-03 7.33496342e-03 2.44498788e-03 1.22249394e-03
      8.55745748e-03 0. 3.30073349e-02 4.88997577e-03 4.88997577e-03
      1.22249394e-03 3.66748171e-03 0. 0. 1.10024456e-02 4.88997577e-03
      2.44498788e-03 7.33496342e-03 2.44498788e-03 9.77995154e-03
      4.88997577e-03 1.83374099e-02 4.88997577e-03 4.88997577e-03
      6.11246983e-03 3.66748171e-03 3.66748171e-03 1.22249394e-03
      9.77995154e-03 3.66748171e-03 1.22249397e-02 3.66748171e-03
      1.22249394e-03 6.11246983e-03 1.22249394e-03 1.22249394e-03
      8.55745748e-03 0. 7.33496342e-03 2.44498788e-03 0. 2.44498788e-03
      6.11246983e-03 1.22249397e-02 0. 7.33496342e-03 4.88997577e-03
      1.22249394e-03 6.11246983e-03 1.10024456e-02 6.11246983e-03
      7.33496342e-03 1.58924218e-02 0. 2.44498788e-03 0. 8.55745748e-03
      1.22249394e-03 3.66748171e-03 4.88997577e-03 8.55745748e-03
      2.44498788e-03 3.66748171e-03 1.22249394e-03 0. 1.22249397e-02
      2.44498788e-03 1.22249394e-03 3.66748171e-03 1.10024456e-02
      2.44498788e-03 1.10024456e-02 1.22249394e-03 8.55745748e-03
      3.66748171e-03 7.33496342e-03 1.22249394e-03 1.71149150e-02
      1.22249394e-03 3.66748171e-03 1.22249394e-03 2.44498788e-03
      8.55745748e-03</_>
    <_>
      7.28597445e-03 9.10746807e-04 7.28597445e-03 6.37522759e-03
      7.28597445e-03 2.73224036e-03 1.27504552e-02 5.46448072e-03
      1.82149361e-03 9.10746807e-04 5.46448072e-03 1.00182146e-02
      1.82149361e-03 1.82149361e-03 6.37522759e-03 2.73224036e-03
      3.64298723e-03 3.64298723e-03 2.73224036e-03 4.55373386e-03
      6.37522759e-03 9.10746807e-04 9.10746807e-04 3.64298723e-03
      1.27504552e-02 7.28597445e-03 5.46448072e-03 5.46448072e-03
      1.82149361e-03 1.82149361e-03 3.64298723e-03 2.73224036e-03 0.
      4.55373386e-03 1.00182146e-02 2.73224036e-03 2.27686707e-02
      2.73224036e-03 6.37522759e-03 2.73224036e-03 9.10746772e-03
      1.82149361e-03 1.82149361e-03 1.82149361e-03 1.82149361e-03
      5.46448072e-03 1.27504552e-02 4.55373386e-03 9.10746807e-04
      9.10746807e-04 7.28597445e-03 1.82149361e-03 1.82149361e-03
      3.64298723e-03 5.46448072e-03 2.73224036e-03 2.73224036e-03
      9.10746807e-04 9.10746772e-03 3.64298723e-03 9.10746807e-04
      9.10746807e-04 1.82149361e-03 1.18397083e-02 6.37522759e-03
      2.73224036e-03 9.10746807e-04 3.64298723e-03 2.73224036e-03
      1.82149361e-03 1.82149361e-03 2.73224036e-03 3.64298723e-03
      1.82149361e-03 2.00364292e-02 4.55373386e-03 5.46448072e-03
      2.73224036e-03 8.19672085e-03 4.55373386e-03 3.64298723e-03
      7.28597445e-03 2.73224036e-03 7.28597445e-03 5.46448072e-03
      6.37522759e-03 7.28597445e-03 2.73224036e-03 1.00182146e-02
      8.19672085e-03 1.18397083e-02 6.37522759e-03 0. 1.82149361e-03
      5.46448072e-03 5.46448072e-03 1.36612020e-02 1.82149361e-03
      1.82149361e-03 9.10746772e-03 1.09289614e-02 8.19672085e-03
      9.10746807e-04 2.73224036e-03 9.10746807e-04 2.73224036e-03
      1.82149361e-03 6.37522759e-03 3.64298723e-03 3.64298723e-03
      5.46448072e-03 8.19672085e-03 2.09471770e-02 1.82149361e-03
      3.64298723e-03 4.55373386e-03 7.28597445e-03 9.10746807e-04
      2.73224036e-03 9.10746807e-04 3.64298723e-03 5.46448072e-03
      2.73224036e-03 5.46448072e-03 1.82149361e-03 1.82149361e-03
      1.82149361e-03 9.10746807e-04 2.73224036e-03 1.82149361e-03
      5.46448072e-03 8.19672085e-03 3.64298723e-03 1.45719489e-02
      2.73224036e-03 5.46448072e-03 1.45719489e-02 9.10746807e-04
      1.45719489e-02 3.64298723e-03 4.55373386e-03 7.28597445e-03
      9.10746807e-04 3.64298723e-03 1.82149361e-03 8.19672085e-03
      1.82149361e-03 8.19672085e-03 6.37522759e-03 0. 0. 1.82149361e-03
      9.10746807e-04 8.19672085e-03 1.82149361e-03 1.82149361e-03 0.
      8.19672085e-03 7.28597445e-03 2.73224036e-03 1.00182146e-02 0.
      9.10746772e-03 1.54826958e-02 3.64298723e-03 4.55373386e-03
      1.54826958e-02 1.18397083e-02 2.27686707e-02 6.37522759e-03
      9.10746807e-04 9.10746807e-04 2.73224036e-03 1.00182146e-02 0.
      5.46448072e-03 2.73224036e-03 5.46448072e-03 9.10746807e-04
      1.82149361e-03 4.55373386e-03 9.10746772e-03 2.73224036e-03 0.
      1.18397083e-02 4.55373386e-03 4.55373386e-03 5.46448072e-03
      6.37522759e-03 4.55373386e-03 9.10746772e-03 1.82149361e-03
      3.64298723e-03 5.46448072e-03 8.19672085e-03 9.10746807e-04
      2.73224036e-03 1.09289614e-02 2.73224036e-03 6.37522759e-03</_>
    <_>
      5.83941583e-03 1.45985391e-02 7.29926955e-03 4.37956210e-03 0.
      1.45985396e-03 8.75912420e-03 2.91970791e-03 2.91970791e-03
      2.91970791e-03 1.45985396e-03 4.23357636e-02 0. 0. 1.75182484e-02
      0. 0. 1.45985396e-03 0. 2.91970791e-03 7.29926955e-03 0.
      4.37956210e-03 1.45985396e-03 1.31386854e-02 5.83941583e-03
      1.02189779e-02 2.91970791e-03 1.45985396e-03 4.37956210e-03 0.
      4.37956210e-03 0. 1.45985396e-03 1.60583928e-02 7.29926955e-03
      2.91970791e-03 1.45985396e-03 4.37956210e-03 1.45985396e-03
      1.31386854e-02 1.45985396e-03 4.37956210e-03 0. 1.45985396e-03
      2.91970791e-03 4.37956210e-03 8.75912420e-03 1.45985396e-03 0.
      5.83941583e-03 4.37956210e-03 4.37956210e-03 1.45985396e-03
      7.29926955e-03 1.45985391e-02 0. 1.89781021e-02 2.33576633e-02
      2.91970791e-03 0. 0. 4.37956210e-03 0. 1.31386854e-02 0. 0.
      2.91970791e-03 1.45985396e-03 2.91970791e-03 0. 2.91970791e-03
      4.37956210e-03 2.18978096e-02 1.16788317e-02 1.45985396e-03
      1.45985396e-03 0. 4.37956210e-03 1.45985396e-03 1.45985396e-03
      1.45985396e-03 4.37956210e-03 8.75912420e-03 2.91970791e-03 0.
      1.16788317e-02 1.45985396e-03 7.29926955e-03 2.91970791e-03
      4.37956210e-03 0. 0. 1.45985396e-03 0. 0. 2.91970791e-03
      4.37956210e-03 1.45985396e-03 2.91970791e-03 1.45985391e-02
      2.91970791e-03 0. 0. 2.91970791e-03 2.91970791e-03 1.45985396e-03
      4.37956210e-03 2.91970791e-03 1.45985396e-03 0. 4.37956210e-03
      1.72262773e-01 0. 4.37956210e-03 0. 4.37956210e-03 1.45985396e-03
      4.37956210e-03 1.45985396e-03 5.83941583e-03 4.37956210e-03
      2.91970791e-03 5.83941583e-03 4.96350341e-02 1.45985396e-03
      5.83941583e-03 0. 2.91970791e-03 1.16788317e-02 2.91970791e-03 0.
      2.91970791e-03 0. 1.45985396e-03 5.83941583e-03 2.91970791e-03
      1.45985396e-03 4.37956210e-03 0. 0. 0. 1.45985396e-03
      4.37956210e-03 0. 1.02189779e-02 1.45985396e-03 8.75912420e-03 0.
      0. 0. 1.45985396e-03 0. 1.45985396e-03 1.45985396e-03
      1.45985396e-03 1.45985396e-03 2.91970791e-03 0. 0. 5.83941583e-03
      1.45985396e-03 1.02189779e-02 2.91970791e-03 1.45985396e-03
      1.45985396e-03 5.83941583e-03 0. 1.31386854e-02 1.45985396e-03
      5.83941583e-03 0. 5.83941583e-03 7.29926955e-03 0. 1.45985396e-03
      1.45985396e-03 1.45985396e-03 0. 0. 0. 2.91970791e-03
      2.91970791e-03 5.83941583e-03 1.16788317e-02 4.37956210e-03 0.
      1.02189779e-02 1.02189779e-02 0. 1.16788317e-02 0. 2.91970791e-03
      0. 1.16788317e-02 0. 8.75912420e-03 8.75912420e-03 0.
      2.91970791e-03</_>
    <_>
      0. 0. 0. 0. 4.83091781e-03 4.83091781e-03 0. 0. 4.83091781e-03
      1.44927539e-02 0. 0. 0. 0. 0. 0. 9.66183562e-03 0. 2.41545886e-02
      0. 1.44927539e-02 0. 0. 4.83091781e-03 0. 0. 0. 0. 4.83091781e-03
      0. 0. 0. 4.83091781e-03 2.41545886e-02 9.66183562e-03 0.
      4.83091781e-03 4.83091781e-03 0. 0. 0. 9.66183562e-03 0. 0.
      9.66183562e-03 9.66183562e-03 1.44927539e-02 0. 0. 3.38164233e-02
      4.83091781e-03 0. 0. 1.93236712e-02 2.41545886e-02 4.83091781e-03
      0. 0. 9.66183562e-03 0. 0. 0. 9.66183562e-03 0. 4.83091781e-03
      4.83091781e-03 0. 1.44927539e-02 0. 0. 4.83091781e-03 0.
      9.66183562e-03 0. 9.66183562e-03 4.83091781e-03 0. 9.66183562e-03
      4.83091781e-03 0. 0. 0. 0. 4.83091781e-03 9.66183562e-03
      4.83091781e-03 4.83091781e-03 0. 4.83091781e-03 0. 4.83091781e-03
      0. 0. 0. 0. 4.83091781e-03 1.93236712e-02 4.83091781e-03 0. 0.
      4.83091781e-03 0. 4.83091781e-03 4.83091781e-03 0. 0. 0. 0. 0.
      4.83091781e-03 0. 0. 4.34782617e-02 9.66183562e-03 0.
      1.93236712e-02 0. 0. 0. 4.83091781e-03 0. 0. 4.83091781e-03 0.
      2.89855078e-02 9.66183562e-03 0. 4.83091781e-03 1.44927539e-02
      4.83091781e-03 0. 3.38164233e-02 0. 9.66183562e-03 0. 0. 0. 0.
      6.28019348e-02 0. 0. 4.83091781e-03 0. 0. 1.44927539e-02 0.
      4.83091781e-03 3.38164233e-02 0. 0. 0. 4.83091781e-03 0. 0. 0.
      1.44927539e-02 0. 0. 4.83091781e-03 1.44927539e-02 1.44927539e-02
      0. 1.44927539e-02 2.89855078e-02 0. 9.66183562e-03 4.83091781e-03
      0. 0. 4.83091781e-03 0. 0. 0. 4.83091781e-03 0. 0. 0.
      2.41545886e-02 0. 0. 4.83091781e-03 0. 4.83091781e-03
      4.83091781e-03 1.44927539e-02 1.44927539e-02 9.66183562e-03 0.
      1.44927539e-02 1.44927539e-02 4.83091781e-03 0. 4.83091781e-03 0.
      9.66183562e-03 0. 0. 9.66183562e-03 0. 0.</_>
    <_>
      0. 5.40540554e-03 2.16216221e-02 5.40540554e-03 0. 5.40540554e-03
      1.62162166e-02 0. 5.40540554e-03 0. 0. 1.08108111e-02 0. 0.
      1.62162166e-02 0. 0. 0. 5.40540554e-03 0. 1.62162166e-02 0.
      5.40540554e-03 1.08108111e-02 1.08108111e-02 5.40540554e-03
      1.08108111e-02 0. 0. 5.40540554e-03 0. 0. 0. 1.08108111e-02
      1.08108111e-02 0. 5.40540554e-03 5.40540554e-03 5.40540554e-03
      5.40540554e-03 5.40540554e-03 1.62162166e-02 0. 0. 2.16216221e-02
      0. 0. 5.40540554e-03 1.08108111e-02 0. 0. 0. 5.40540554e-03 0.
      3.78378406e-02 5.40540554e-03 0. 5.40540554e-03 0. 1.62162166e-02
      0. 0. 1.62162166e-02 0. 0. 1.08108111e-02 5.40540554e-03 0. 0.
      5.40540554e-03 1.08108111e-02 5.40540554e-03 5.40540554e-03
      5.40540554e-03 0. 0. 0. 1.08108111e-02 1.08108111e-02 0.
      5.40540554e-03 0. 0. 1.62162166e-02 0. 1.62162166e-02 0. 0.
      5.40540554e-03 0. 2.16216221e-02 0. 0. 1.08108111e-02
      5.40540554e-03 0. 5.40540554e-03 0. 0. 0. 0. 5.40540554e-03 0.
      5.40540554e-03 1.08108111e-02 0. 5.40540554e-03 2.16216221e-02
      1.08108111e-02 1.08108111e-02 5.40540554e-03 1.62162166e-02 0. 0.
      0. 0. 5.40540554e-03 0. 0. 5.40540554e-03 1.62162166e-02 0. 0.
      5.40540554e-03 0. 0. 5.40540554e-03 1.62162166e-02 1.08108111e-02
      5.40540554e-03 0. 1.08108111e-02 0. 1.62162166e-02 0. 0.
      3.78378406e-02 5.40540554e-03 1.08108111e-02 5.40540554e-03
      1.62162166e-02 0. 5.40540554e-03 5.40540554e-03 1.08108111e-02 0.
      0. 0. 0. 0. 5.40540554e-03 0. 0. 0. 5.40540554e-03 0. 0. 0. 0. 0.
      1.08108111e-02 0. 0. 1.08108111e-02 5.40540554e-03 1.62162166e-02
      1.08108111e-02 1.62162166e-02 1.62162166e-02 5.40540554e-03 0. 0.
      0. 5.40540554e-03 0. 5.40540554e-03 5.40540554e-03 1.08108111e-02
      0. 0. 0. 0. 0. 4.86486480e-02 0. 0. 5.40540554e-03 0. 0. 0. 0. 0.
      0. 0. 5.40540554e-03 1.62162166e-02 0. 0. 0. 5.40540554e-03</_>
    <_>
      0. 0. 1.95121951e-02 0. 0. 0. 1.46341464e-02 0. 0. 0.
      1.46341464e-02 9.75609757e-03 0. 0. 0. 0. 9.75609757e-03
      9.75609757e-03 1.46341464e-02 0. 0. 4.87804879e-03 0. 0. 0. 0. 0.
      0. 9.75609757e-03 0. 0. 0. 4.87804879e-03 3.41463424e-02
      9.75609757e-03 0. 0. 0. 9.75609757e-03 0. 0. 0. 0. 0.
      4.87804879e-03 1.46341464e-02 4.87804879e-03 9.75609757e-03
      4.87804879e-03 1.46341464e-02 0. 0. 4.87804879e-03 1.46341464e-02
      2.92682927e-02 0. 4.87804879e-03 4.87804879e-03 9.75609757e-03 0.
      0. 0. 4.87804879e-03 0. 9.75609757e-03 0. 4.87804879e-03
      1.95121951e-02 0. 0. 0. 0. 4.87804879e-03 0. 4.87804879e-03 0. 0.
      0. 4.87804879e-03 0. 0. 0. 1.46341464e-02 9.75609757e-03 0.
      1.46341464e-02 4.87804879e-03 0. 0. 9.75609757e-03 0. 0. 0. 0. 0.
      0. 1.95121951e-02 0. 4.87804879e-03 4.87804879e-03 9.75609757e-03
      0. 9.75609757e-03 4.87804879e-03 0. 4.87804879e-03 0. 0. 0. 0.
      4.87804879e-03 4.87804879e-03 7.31707290e-02 0. 2.92682927e-02
      4.87804879e-03 0. 4.87804879e-03 4.87804879e-03 0. 9.75609757e-03
      0. 1.46341464e-02 1.46341464e-02 2.43902430e-02 4.87804879e-03 0.
      4.87804879e-03 1.95121951e-02 0. 0. 1.46341464e-02 0.
      1.46341464e-02 4.87804879e-03 0. 1.46341464e-02 0. 2.92682927e-02
      0. 0. 0. 4.87804879e-03 0. 9.75609757e-03 0. 0. 4.39024381e-02 0.
      0. 0. 0. 0. 1.46341464e-02 0. 4.87804879e-03 4.87804879e-03 0.
      4.87804879e-03 0. 4.87804879e-03 0. 9.75609757e-03 1.46341464e-02
      0. 4.87804879e-03 0. 4.87804879e-03 0. 4.87804879e-03 0.
      4.87804879e-03 0. 4.87804879e-03 0. 0. 0. 2.43902430e-02 0.
      4.87804879e-03 0. 0. 4.87804879e-03 9.75609757e-03 1.95121951e-02
      0. 4.87804879e-03 0. 9.75609757e-03 4.87804879e-03 9.75609757e-03
      4.87804879e-03 0. 0. 9.75609757e-03 0. 0. 0. 0. 0.</_>
    <_>
      0. 2.84697511e-03 1.42348753e-02 2.84697511e-03 3.55871883e-03
      3.55871883e-03 1.31672602e-02 2.13523139e-03 4.27046278e-03
      2.84697511e-03 3.20284697e-03 2.31316723e-02 7.11743778e-04
      3.55871889e-04 8.18505324e-03 1.06761570e-03 1.42348756e-03
      6.76156580e-03 3.91459092e-03 1.06761570e-03 7.82918185e-03 0.
      2.13523139e-03 9.25266929e-03 4.98220650e-03 5.69395022e-03
      3.55871883e-03 0. 1.42348756e-03 1.06761570e-03 7.11743778e-04
      1.06761570e-03 1.77935942e-03 1.35231316e-02 8.89679696e-03
      3.55871883e-03 1.06761570e-03 0. 8.89679696e-03 3.20284697e-03
      7.11743766e-03 3.55871889e-04 1.42348756e-03 1.77935942e-03
      8.89679696e-03 4.27046278e-03 6.40569394e-03 4.62633464e-03
      2.49110325e-03 3.55871889e-04 1.77935942e-03 3.55871883e-03
      2.13523139e-03 1.06761570e-03 3.91459092e-03 2.84697511e-03
      5.33807836e-03 8.54092557e-03 4.59074751e-02 3.91459092e-03
      2.49110325e-03 3.91459092e-03 4.62633464e-03 0. 5.33807836e-03
      1.42348756e-03 3.20284697e-03 2.13523139e-03 2.84697511e-03
      2.13523139e-03 3.91459092e-03 2.49110325e-03 3.55871883e-03
      4.62633464e-03 3.55871883e-03 2.49110325e-03 7.11743778e-04
      3.55871883e-03 2.84697511e-03 1.77935942e-03 1.77935942e-03
      3.55871889e-04 8.18505324e-03 6.04982208e-03 3.91459092e-03
      6.40569394e-03 6.76156580e-03 2.84697511e-03 2.20640562e-02
      2.24199295e-02 7.82918185e-03 2.13523139e-03 2.13523139e-03
      1.06761570e-03 4.62633464e-03 4.62633464e-03 7.47330952e-03
      9.60854068e-03 3.55871889e-04 0. 6.04982208e-03 2.49110325e-03
      5.33807836e-03 3.20284697e-03 1.42348756e-03 3.55871883e-03
      3.55871883e-03 7.47330952e-03 2.49110325e-03 2.49110325e-03
      3.91459092e-03 7.47330952e-03 1.95729546e-02 2.13523139e-03
      1.42348756e-03 1.42348756e-03 2.84697511e-03 3.20284697e-03
      1.06761570e-03 3.91459092e-03 6.04982208e-03 4.27046278e-03
      4.98220650e-03 1.77935942e-03 1.70818511e-02 6.04982208e-03
      3.55871883e-03 4.98220650e-03 1.77935942e-03 1.77935942e-03
      3.55871889e-04 7.47330952e-03 7.11743766e-03 4.27046278e-03
      2.84697511e-03 1.06761570e-03 1.53024914e-02 2.13523139e-03
      6.76156580e-03 3.55871883e-03 5.33807836e-03 1.77935942e-03
      2.49110325e-03 5.69395022e-03 2.49110325e-03 6.04982208e-03
      7.11743778e-04 5.33807836e-03 2.49110325e-03 1.77935942e-03
      2.84697511e-03 4.62633464e-03 4.98220650e-03 1.28113879e-02
      3.91459092e-03 5.33807836e-03 2.84697511e-03 0. 6.40569394e-03
      8.18505324e-03 1.85053386e-02 3.20284697e-03 4.27046278e-03
      5.69395022e-03 2.13523139e-03 4.27046278e-03 6.04982208e-03
      7.11743766e-03 6.40569394e-03 9.96441301e-03 0. 3.91459092e-03
      1.06761570e-03 1.70818511e-02 1.42348756e-03 7.11743766e-03
      6.40569394e-03 4.62633464e-03 2.49110325e-03 1.77935942e-03
      1.06761570e-03 0. 1.92170814e-02 3.23843434e-02 1.77935942e-03
      2.13523139e-03 6.04982208e-03 3.91459092e-03 4.98220650e-03
      3.91459092e-03 1.85053386e-02 2.13523139e-03 5.33807836e-03 0.
      1.92170814e-02 2.49110325e-03 1.06761570e-03 5.33807836e-03 0.
      9.60854068e-03</_>
    <_>
      7.20461074e-04 2.88184430e-03 7.92507175e-03 2.16138316e-03
      8.64553265e-03 7.20461074e-04 1.51296826e-02 1.44092215e-03
      4.32276633e-03 3.60230543e-03 1.44092215e-03 9.36599355e-03 0.
      7.20461074e-04 7.20461085e-03 4.32276633e-03 5.76368859e-03
      3.60230543e-03 4.32276633e-03 0. 9.36599355e-03 1.44092215e-03
      1.44092215e-03 1.44092215e-03 7.20461085e-03 1.44092215e-03
      6.48414949e-03 0. 2.16138316e-03 1.15273772e-02 2.88184430e-03 0.
      5.76368859e-03 1.44092217e-02 7.20461085e-03 5.04322769e-03
      4.32276633e-03 1.44092215e-03 2.88184430e-03 7.20461074e-04
      5.04322769e-03 0. 2.16138316e-03 2.88184430e-03 2.16138316e-03
      7.20461074e-04 4.32276633e-03 1.44092215e-03 7.20461074e-04 0.
      2.16138316e-03 1.44092215e-03 1.44092215e-03 2.16138316e-03
      2.88184430e-03 2.88184430e-03 1.44092215e-03 7.20461085e-03
      8.64553265e-03 1.44092215e-03 6.48414949e-03 7.20461085e-03
      5.04322769e-03 0. 7.20461085e-03 1.44092215e-03 2.16138316e-03
      4.32276633e-03 0. 2.16138316e-03 2.88184430e-03 2.16138316e-03
      6.48414949e-03 9.36599355e-03 1.36887608e-02 4.32276633e-03
      7.20461074e-04 8.64553265e-03 3.60230543e-03 7.20461074e-04
      2.88184430e-03 7.20461074e-04 7.92507175e-03 4.32276633e-03
      3.60230543e-03 2.16138316e-03 7.92507175e-03 5.04322769e-03
      7.92507175e-03 1.22478381e-02 4.32276633e-03 7.20461074e-04 0.
      1.44092215e-03 1.44092215e-03 5.04322769e-03 5.04322769e-03
      2.88184430e-03 2.16138316e-03 0. 5.76368859e-03 0. 6.48414949e-03
      1.44092215e-03 0. 1.08069163e-02 2.88184430e-03 4.32276633e-03
      2.88184430e-03 4.32276633e-03 2.16138316e-03 4.32276633e-03
      1.36887608e-02 0. 1.08069163e-02 2.16138316e-03 4.32276633e-03
      2.88184430e-03 1.44092215e-03 6.48414949e-03 5.04322769e-03
      4.32276633e-03 1.08069163e-02 6.48414949e-03 2.52161380e-02
      3.38616706e-02 3.60230543e-03 0. 2.16138316e-03 2.16138316e-03 0.
      9.36599355e-03 5.04322769e-03 3.60230543e-03 2.88184430e-03
      7.20461074e-04 1.80115271e-02 7.20461074e-04 2.52161380e-02
      2.16138316e-03 2.88184430e-03 9.36599355e-03 1.22478381e-02
      2.88184430e-03 7.20461074e-04 7.20461074e-04 1.44092215e-03
      6.48414949e-03 7.20461085e-03 3.60230543e-03 7.20461074e-04
      3.60230543e-03 2.01729108e-02 2.88184430e-03 4.32276633e-03
      1.58501435e-02 2.16138316e-03 0. 2.88184430e-03 5.76368859e-03
      1.87319871e-02 1.29682990e-02 2.01729108e-02 1.08069163e-02
      1.44092215e-03 2.16138316e-03 1.00864554e-02 7.20461085e-03
      7.20461085e-03 1.44092215e-03 7.20461074e-04 2.16138316e-03
      3.60230543e-03 5.04322769e-03 2.88184430e-03 5.04322769e-03
      5.04322769e-03 4.32276633e-03 7.92507175e-03 0. 0. 1.44092215e-03
      7.20461085e-03 1.51296826e-02 1.08069163e-02 4.32276633e-03
      3.60230543e-03 2.88184430e-03 1.72910653e-02 6.48414949e-03
      1.51296826e-02 0. 2.88184430e-03 0. 1.22478381e-02 6.48414949e-03
      5.04322769e-03 7.92507175e-03 3.60230543e-03 5.04322769e-03</_>
    <_>
      0. 4.01234552e-02 0. 3.08641978e-03 3.08641978e-03 6.17283955e-03
      0. 0. 3.08641978e-03 0. 0. 6.17283955e-03 0. 0. 0. 9.25925933e-03
      9.25925933e-03 1.23456791e-02 3.08641978e-03 0. 0. 0.
      6.17283955e-03 1.23456791e-02 0. 0. 9.25925933e-03 0. 0.
      3.08641978e-03 3.08641978e-03 0. 0. 3.08641978e-03 4.32098769e-02
      0. 1.54320989e-02 0. 3.08641978e-03 3.08641978e-03 3.08641978e-03
      0. 3.08641978e-03 0. 9.25925933e-03 3.08641978e-03 0.
      3.08641978e-03 0. 0. 3.08641978e-03 0. 0. 3.08641978e-03
      6.17283955e-03 0. 0. 0. 3.39506194e-02 0. 3.08641978e-03 0.
      6.17283955e-03 0. 0. 0. 9.25925933e-03 0. 0. 0. 6.17283955e-03
      3.08641978e-03 9.25925933e-03 3.08641978e-03 0. 0. 0.
      3.08641978e-03 0. 0. 0. 0. 0. 0. 3.08641978e-03 0. 3.08641978e-03
      0. 9.25925970e-02 1.23456791e-02 3.08641978e-03 0. 0.
      3.08641978e-03 0. 0. 1.85185187e-02 0. 1.23456791e-02 0.
      4.01234552e-02 0. 0. 1.85185187e-02 0. 3.08641978e-03 0.
      3.08641978e-03 3.08641978e-03 3.08641978e-03 1.85185187e-02 0. 0.
      0. 0. 3.08641978e-03 9.25925933e-03 0. 9.25925933e-03 0. 0. 0. 0.
      0. 0. 0. 0. 1.23456791e-02 0. 0. 0. 0. 9.25925933e-03 0. 0.
      3.08641978e-03 1.23456791e-02 0. 4.62962985e-02 0. 0.
      3.08641978e-03 0. 3.08641978e-03 6.17283955e-03 0. 0.
      3.08641978e-03 0. 0. 0. 0. 0. 3.08641978e-03 0. 6.17283955e-03
      1.23456791e-02 0. 1.17283955e-01 3.08641978e-03 3.39506194e-02
      3.08641978e-03 9.25925933e-03 9.25925933e-03 0. 3.08641978e-03 0.
      0. 0. 2.16049384e-02 0. 0. 0. 3.08641978e-03 0. 3.39506194e-02
      3.08641978e-03 0. 0. 3.08641978e-03 3.08641978e-03 0.
      6.17283955e-03 1.54320989e-02 0. 6.17283955e-03 3.08641978e-03 0.
      0. 6.17283955e-03 0. 0. 0. 0. 1.85185187e-02 0. 3.08641978e-03
      6.17283955e-03 0. 0.</_>
    <_>
      0. 3.44827585e-03 2.06896551e-02 3.44827585e-03 0. 6.89655170e-03
      3.44827585e-03 0. 3.44827585e-03 1.03448275e-02 3.44827585e-03
      1.37931034e-02 0. 3.44827585e-03 6.89655170e-03 3.44827585e-03 0.
      6.89655170e-03 3.44827585e-03 0. 2.06896551e-02 0. 3.44827585e-03
      3.44827585e-03 1.03448275e-02 1.37931034e-02 0. 0. 3.44827585e-03
      0. 0. 0. 0. 1.37931034e-02 1.37931034e-02 0. 0. 0. 0.
      3.44827585e-03 1.03448275e-02 6.89655170e-03 3.44827585e-03 0. 0.
      0. 3.44827585e-03 3.44827585e-03 0. 0. 0. 0. 3.44827585e-03 0.
      3.44827585e-03 0. 0. 0. 3.79310325e-02 3.44827585e-03 0. 0.
      1.03448275e-02 0. 2.06896551e-02 0. 3.44827585e-03 0. 0.
      3.44827585e-03 3.44827585e-03 3.44827585e-03 1.37931034e-02 0.
      1.03448275e-02 3.44827585e-03 0. 0. 1.37931034e-02 3.44827585e-03
      0. 0. 1.03448275e-02 1.03448275e-02 3.44827585e-03 6.89655170e-03
      3.44827585e-03 0. 3.79310325e-02 3.44827585e-03 6.89655170e-03
      3.44827585e-03 0. 0. 0. 3.44827585e-03 1.03448275e-02
      6.89655170e-03 0. 0. 1.37931034e-02 0. 3.44827585e-03 0. 0.
      1.03448275e-02 6.89655170e-03 0. 3.44827585e-03 0. 6.89655170e-03
      1.03448275e-02 2.41379309e-02 0. 0. 0. 3.44827585e-03 0. 0.
      1.03448275e-02 1.37931034e-02 3.44827585e-03 0. 0. 0. 0. 0. 0.
      6.89655170e-03 0. 0. 6.89655170e-03 6.89655170e-03 6.89655170e-03
      6.89655170e-03 0. 6.89655170e-02 6.89655170e-03 2.75862068e-02
      3.44827585e-03 6.89655170e-03 6.89655170e-03 0. 6.89655170e-03 0.
      6.89655170e-03 6.89655170e-03 1.37931034e-02 0. 0. 0. 0. 0.
      3.44827585e-03 3.44827585e-03 3.44827585e-03 0. 0. 3.44827585e-03
      1.03448275e-02 2.41379309e-02 6.89655170e-03 1.03448275e-02
      1.72413792e-02 0. 3.44827585e-03 2.06896551e-02 3.44827585e-03
      6.89655170e-03 3.44827585e-03 0. 3.44827585e-03 0. 3.44827585e-03
      0. 6.89655170e-03 1.37931034e-02 6.89655170e-03 0. 3.44827585e-03
      3.44827585e-03 0. 3.44827585e-03 0. 1.37931034e-02 1.37931034e-02
      3.44827585e-03 6.89655170e-03 0. 3.44827585e-03 0. 0.
      1.03448275e-02 0. 2.06896551e-02 0. 3.44827585e-03 0. 0.
      6.89655170e-03</_>
    <_>
      0. 1.54494382e-02 2.80898879e-03 4.21348307e-03 1.54494382e-02
      7.02247210e-03 2.80898879e-03 2.66853943e-02 1.40449440e-03
      8.42696615e-03 1.26404492e-02 9.83146112e-03 0. 1.40449440e-03
      2.80898879e-03 2.80898879e-03 1.40449440e-03 1.40449440e-03
      2.80898879e-03 1.40449440e-03 7.02247210e-03 0. 1.40449440e-03
      4.21348307e-03 9.83146112e-03 4.21348307e-03 2.80898879e-03 0.
      4.21348307e-03 1.40449440e-03 1.40449440e-03 0. 0. 1.40449440e-03
      1.40449442e-02 1.40449440e-03 1.40449440e-03 2.80898879e-03
      5.61797759e-03 1.40449440e-03 2.80898879e-03 0. 0. 1.40449440e-03
      1.40449440e-03 2.80898879e-03 1.68539323e-02 5.61797759e-03
      2.80898879e-03 1.12359552e-02 1.40449440e-03 1.40449440e-03
      5.61797759e-03 2.80898879e-03 9.83146112e-03 0. 0. 0.
      2.66853943e-02 0. 1.40449440e-03 1.40449440e-03 9.83146112e-03 0.
      4.21348307e-03 2.80898879e-03 0. 5.61797759e-03 0. 2.80898879e-03
      4.21348307e-03 1.40449440e-03 1.26404492e-02 8.42696615e-03
      5.61797759e-03 1.96629222e-02 0. 1.40449440e-03 2.80898879e-03
      2.80898879e-03 1.40449440e-03 0. 1.40449440e-03 4.21348307e-03 0.
      4.21348307e-03 5.61797759e-03 0. 0. 5.61797759e-03 8.42696615e-03
      4.21348307e-03 0. 5.61797759e-03 7.02247210e-03 2.80898879e-03
      1.96629222e-02 2.38764044e-02 4.21348307e-03 0. 1.54494382e-02
      2.80898879e-03 4.21348307e-03 4.21348307e-03 4.21348307e-03
      1.40449440e-03 4.21348307e-03 1.40449440e-03 0. 1.40449440e-03
      4.21348307e-03 2.80898879e-03 9.83146112e-03 5.61797759e-03 0.
      1.26404492e-02 1.82584263e-02 4.21348307e-03 4.21348307e-03
      5.61797759e-03 5.61797759e-03 0. 9.83146112e-03 0. 0.
      1.40449440e-03 0. 2.80898879e-03 1.40449440e-03 0. 0.
      1.40449442e-02 0. 7.02247210e-03 0. 0. 8.42696615e-03
      5.61797759e-03 7.30337054e-02 2.80898879e-03 2.80898879e-03
      1.40449442e-02 0. 2.80898879e-03 4.21348307e-03 2.80898879e-03
      2.80898879e-03 9.83146112e-03 0. 2.80898879e-03 1.40449440e-03
      2.80898879e-03 4.21348307e-03 1.82584263e-02 2.80898879e-03
      8.42696615e-03 1.40449440e-03 0. 2.24719103e-02 5.61797759e-03
      1.54494382e-02 2.80898879e-03 1.54494382e-02 5.61797759e-03
      2.80898879e-03 4.21348307e-03 2.80898879e-03 1.12359552e-02
      1.12359552e-02 5.61797759e-03 0. 1.40449440e-03 0. 8.42696615e-03
      0. 5.61797759e-03 0. 1.40449440e-03 4.21348307e-03 0.
      1.26404492e-02 0. 5.61797759e-03 0. 9.83146112e-03 5.61797759e-03
      7.02247210e-03 4.21348307e-03 1.40449440e-03 2.80898879e-03
      2.80898879e-03 1.40449440e-03 4.21348307e-03 0. 5.61797759e-03
      1.40449440e-03 1.40449440e-03 0. 0. 2.38764044e-02</_>
    <_>
      0. 1.82926822e-02 3.04878037e-03 0. 0. 6.09756075e-03
      6.09756075e-03 6.09756075e-03 0. 1.21951215e-02 9.14634112e-03
      6.09756075e-03 0. 0. 3.04878037e-03 3.04878037e-03 0. 0.
      6.09756075e-03 0. 0. 3.04878037e-03 3.04878037e-03 6.09756075e-03
      6.09756075e-03 0. 1.21951215e-02 0. 0. 0. 0. 0. 0. 6.09756075e-03
      6.09756075e-03 3.04878037e-03 0. 3.04878037e-03 3.04878037e-03
      3.04878037e-03 3.04878037e-03 1.21951215e-02 0. 0. 3.04878037e-03
      3.04878037e-03 3.04878037e-03 1.21951215e-02 3.04878037e-03
      3.04878037e-03 3.04878037e-03 6.09756075e-03 9.14634112e-03 0.
      9.14634112e-03 0. 3.04878037e-03 1.21951215e-02 2.74390243e-02 0.
      0. 0. 4.57317047e-02 0. 9.14634112e-03 0. 0. 0. 0. 0. 0. 0. 0. 0.
      3.04878037e-02 1.82926822e-02 3.04878037e-03 9.14634112e-03 0.
      3.04878037e-03 0. 0. 0. 0. 0. 0. 3.04878037e-03 0. 9.14634112e-03
      3.04878037e-03 3.04878037e-03 3.04878037e-03 0. 0. 3.04878037e-03
      0. 6.09756075e-03 1.21951215e-02 0. 0. 3.04878037e-03 0. 0. 0. 0.
      0. 0. 0. 3.04878037e-03 0. 0. 9.14634112e-03 9.14634112e-03
      3.04878037e-03 0. 6.09756075e-03 6.09756075e-03 0. 0.
      3.04878037e-03 3.04878037e-03 0. 3.04878037e-03 0. 0.
      3.04878037e-03 0. 0. 6.09756075e-03 3.04878037e-03 0.
      3.04878037e-03 0. 6.09756075e-03 0. 0. 6.09756075e-03
      3.04878037e-03 8.53658468e-02 0. 9.14634112e-03 0. 6.09756075e-03
      9.14634112e-03 3.04878037e-03 0. 1.21951215e-02 3.04878037e-03 0.
      0. 0. 0. 0. 9.14634112e-03 0. 0. 3.04878037e-03 0. 2.43902430e-02
      0. 1.28048778e-01 6.09756075e-03 6.09756075e-03 2.43902430e-02 0.
      3.04878037e-03 2.74390243e-02 3.04878037e-03 0. 0. 0.
      3.04878037e-03 0. 3.04878037e-03 0. 0. 5.48780486e-02
      6.09756075e-03 0. 0. 6.09756075e-03 0. 3.04878037e-03
      2.13414617e-02 3.04878037e-03 0. 0. 6.09756075e-03 3.04878037e-03
      3.04878037e-03 9.14634112e-03 0. 0. 0. 1.82926822e-02 0. 0.
      3.04878037e-03 0. 6.09756075e-03</_>
    <_>
      1.09677427e-02 9.03225876e-03 5.16129052e-03 4.51612938e-03
      1.29032263e-03 2.58064526e-03 1.22580649e-02 1.29032263e-03
      2.58064526e-03 0. 3.22580663e-03 1.03225810e-02 3.22580663e-03
      2.58064526e-03 5.16129052e-03 2.58064526e-03 2.58064526e-03
      1.09677427e-02 2.58064526e-03 4.51612938e-03 1.54838711e-02
      1.74193550e-02 5.80645166e-03 5.16129052e-03 1.61290336e-02
      1.48387104e-02 2.58064526e-03 9.03225876e-03 1.29032263e-03
      5.80645166e-03 0. 2.58064526e-03 1.93548389e-03 1.29032265e-02
      9.03225876e-03 1.29032263e-03 3.22580663e-03 0. 9.03225876e-03
      5.80645166e-03 8.38709716e-03 5.16129052e-03 0. 3.87096778e-03
      1.93548389e-03 4.51612938e-03 3.22580663e-03 1.03225810e-02
      1.29032263e-03 0. 9.03225876e-03 3.87096778e-03 3.22580663e-03
      2.58064526e-03 4.51612938e-03 2.58064526e-03 1.29032263e-03
      2.58064526e-03 4.51612938e-03 1.93548389e-03 1.29032263e-03
      6.45161315e-04 3.22580663e-03 1.61290336e-02 5.16129052e-03 0.
      1.93548389e-03 6.45161315e-04 4.51612938e-03 9.67741944e-03
      6.45161315e-04 1.29032263e-03 5.16129052e-03 3.22580663e-03
      9.03225876e-03 6.45161315e-04 6.45161327e-03 5.80645166e-03
      5.16129052e-03 1.29032263e-03 1.93548389e-03 5.16129052e-03
      6.45161315e-04 7.09677441e-03 8.38709716e-03 5.80645166e-03
      3.87096778e-03 6.45161315e-04 1.48387104e-02 8.38709716e-03
      3.22580663e-03 3.87096778e-03 0. 3.22580663e-03 5.16129052e-03
      3.87096778e-03 5.80645166e-03 8.38709716e-03 1.93548389e-03
      1.93548389e-02 5.16129052e-03 1.29032265e-02 1.93548389e-03
      7.74193555e-03 4.51612938e-03 4.51612938e-03 3.22580663e-03
      3.22580663e-03 1.93548389e-03 0. 3.22580663e-03 3.16129029e-02
      1.35483872e-02 1.29032263e-03 8.38709716e-03 2.58064526e-03
      5.16129052e-03 5.16129052e-03 1.29032263e-03 4.51612938e-03
      3.87096778e-03 0. 3.87096778e-03 5.80645166e-03 1.93548389e-02
      5.16129052e-03 7.74193555e-03 2.58064526e-03 1.93548389e-03
      1.09677427e-02 5.16129052e-03 3.22580663e-03 3.87096778e-03
      2.58064526e-03 1.09677427e-02 3.87096778e-03 1.93548389e-03
      1.29032263e-03 5.16129052e-03 3.22580663e-03 1.93548389e-03
      1.29032263e-03 1.93548389e-03 5.16129052e-03 1.93548389e-03
      5.16129052e-03 1.29032263e-03 6.45161327e-03 3.87096778e-03
      6.45161315e-04 3.87096778e-03 9.03225876e-03 8.38709716e-03
      5.80645166e-03 2.58064526e-03 3.22580663e-03 2.58064526e-03
      4.51612938e-03 2.58064526e-03 1.29032263e-03 5.80645166e-03
      1.93548389e-03 3.22580663e-03 6.45161327e-03 3.22580663e-03
      1.93548389e-03 2.64516138e-02 7.09677441e-03 1.61290336e-02
      2.58064526e-03 3.87096778e-03 1.29032263e-03 1.03225810e-02
      3.22580663e-03 2.58064526e-03 2.58064526e-03 2.58064526e-03
      2.58064526e-03 1.29032263e-03 0. 1.29032263e-03 2.58064526e-03
      4.51612938e-03 3.87096778e-03 1.93548389e-03 1.29032263e-03
      7.09677441e-03 1.93548389e-03 3.22580663e-03 3.87096778e-03
      1.16129033e-02 2.58064526e-03 3.22580663e-03 9.67741944e-03
      1.41935488e-02 2.58064526e-03 1.29032263e-03 1.93548389e-03
      8.38709716e-03 4.51612938e-03</_>
    <_>
      1.94331985e-02 2.42914981e-03 6.47773268e-03 1.61943317e-03 0.
      1.61943317e-03 4.04858310e-03 4.85829962e-03 0. 8.09716585e-04
      4.04858310e-03 1.61943324e-02 1.05263153e-02 3.23886634e-03
      4.85829962e-03 3.23886634e-03 4.04858310e-03 1.61943317e-03
      3.23886634e-03 2.10526306e-02 2.99595129e-02 4.12955470e-02
      3.23886634e-03 1.61943317e-03 1.86234806e-02 4.12955470e-02
      8.09716585e-04 0. 3.23886634e-03 7.28744920e-03 0. 0.
      8.09716585e-04 8.09716585e-04 0. 0. 0. 1.61943317e-03
      3.15789469e-02 4.85829962e-03 8.09716585e-04 8.09716585e-04
      2.42914981e-03 5.66801615e-03 8.09716585e-04 2.42914981e-03
      4.85829962e-03 4.04858310e-03 0. 1.61943317e-03 1.78137645e-02
      2.42914981e-03 1.61943317e-03 1.61943317e-03 3.23886634e-03
      8.09716585e-04 8.09716585e-04 2.42914981e-03 1.61943317e-03
      3.23886634e-03 2.42914981e-03 2.42914981e-03 0. 4.04858310e-03
      2.42914981e-03 4.85829962e-03 2.42914981e-03 2.42914981e-03
      8.09716585e-04 5.66801615e-03 0. 8.09716585e-04 3.23886634e-03
      6.47773268e-03 0. 3.23886634e-03 1.05263153e-02 4.04858310e-03
      5.66801615e-03 2.42914981e-03 1.61943317e-03 7.28744920e-03 0. 0.
      5.66801615e-03 1.78137645e-02 3.23886634e-03 7.28744920e-03
      1.61943317e-03 3.23886634e-03 1.61943317e-03 4.04858310e-03 0. 0.
      4.04858310e-03 4.04858310e-03 4.85829962e-03 2.42914981e-03
      1.61943317e-03 9.71659925e-03 5.66801615e-03 1.78137645e-02
      2.42914981e-03 3.23886634e-03 1.61943317e-03 2.42914981e-03
      2.42914981e-03 3.23886634e-03 1.61943317e-03 2.42914981e-03
      5.66801615e-03 8.09716620e-03 2.83400808e-02 2.42914981e-03
      1.05263153e-02 2.42914981e-03 4.04858310e-03 7.28744920e-03
      3.23886634e-03 0. 4.85829962e-03 8.09716585e-04 6.47773268e-03
      7.28744920e-03 1.37651823e-02 1.61943317e-03 1.70040485e-02
      8.09716585e-04 3.23886634e-03 5.66801615e-03 1.61943317e-03
      1.61943317e-03 1.61943317e-03 2.42914981e-03 1.37651823e-02
      8.90688226e-03 8.09716585e-04 1.61943317e-03 2.42914981e-03
      5.66801615e-03 5.66801615e-03 8.09716585e-04 2.42914981e-03
      3.23886634e-03 8.09716585e-04 8.90688226e-03 4.04858310e-03
      4.85829962e-03 6.47773268e-03 0. 4.04858310e-03 2.42914981e-03
      1.13360323e-02 5.66801615e-03 0. 2.42914981e-03 0. 8.09716585e-04
      7.28744920e-03 3.23886634e-03 0. 2.42914981e-03 8.09716585e-04
      1.61943317e-03 8.09716585e-04 1.61943317e-03 2.51012146e-02
      4.04858310e-03 1.78137645e-02 2.42914981e-03 1.45748984e-02
      1.61943317e-03 9.71659925e-03 1.61943317e-03 8.09716585e-04
      7.28744920e-03 2.42914981e-03 0. 0. 2.42914981e-03 2.42914981e-03
      1.13360323e-02 8.09716585e-04 8.09716585e-04 8.09716585e-04
      8.09716585e-04 4.85829962e-03 1.61943317e-03 4.85829962e-03
      1.61943317e-03 1.05263153e-02 0. 1.29554654e-02 7.28744920e-03
      4.85829962e-03 6.47773268e-03 8.09716585e-04 0. 2.51012146e-02
      9.71659925e-03</_>
    <_>
      1.24362241e-02 9.56632663e-03 4.14540805e-03 1.59438769e-03
      2.86989799e-03 3.50765302e-03 3.82653065e-03 2.55102036e-03
      1.91326533e-03 1.59438769e-03 1.27551018e-03 7.01530604e-03
      9.56632663e-03 6.05867337e-03 3.18877539e-03 1.59438769e-03
      2.86989799e-03 4.14540805e-03 1.91326533e-03 1.24362241e-02
      1.46683669e-02 9.88520402e-03 5.42091811e-03 4.78316331e-03
      4.14540805e-03 3.38010192e-02 3.18877539e-03 6.69642864e-03
      2.55102036e-03 5.73979598e-03 0. 4.14540805e-03 6.05867337e-03
      6.69642864e-03 6.05867337e-03 2.55102036e-03 3.82653065e-03
      1.91326533e-03 7.65306130e-03 5.10204071e-03 4.78316331e-03
      3.50765302e-03 3.82653065e-03 3.18877539e-03 1.91326533e-03
      3.50765302e-03 6.69642864e-03 5.10204071e-03 1.59438769e-03
      1.27551018e-03 9.24744923e-03 5.42091811e-03 4.46428545e-03
      2.23214272e-03 5.42091811e-03 9.56632663e-04 1.27551018e-03
      4.14540805e-03 4.46428545e-03 2.55102036e-03 7.33418344e-03
      2.55102036e-03 6.37755089e-04 1.75382644e-02 6.05867337e-03
      3.50765302e-03 1.91326533e-03 1.27551018e-03 2.23214272e-03
      4.78316331e-03 2.23214272e-03 3.18877539e-03 5.42091811e-03
      3.18877539e-03 1.59438769e-03 1.91326533e-03 7.01530604e-03
      5.10204071e-03 7.01530604e-03 4.14540805e-03 5.10204071e-03
      4.46428545e-03 2.23214272e-03 1.08418362e-02 2.86989799e-03
      8.92857090e-03 4.78316331e-03 8.92857090e-03 5.73979598e-03
      7.97193870e-03 7.97193870e-03 1.59438769e-03 6.37755089e-04
      5.42091811e-03 1.59438769e-03 6.69642864e-03 4.14540805e-03
      4.46428545e-03 3.18877539e-03 7.01530604e-03 5.42091811e-03
      7.33418344e-03 1.27551018e-03 5.10204071e-03 9.24744923e-03
      5.42091811e-03 1.59438769e-03 6.05867337e-03 3.82653065e-03
      1.59438769e-03 3.50765302e-03 4.46428545e-03 3.02933659e-02
      1.91326533e-03 4.46428545e-03 4.14540805e-03 2.55102036e-03
      5.42091811e-03 4.46428545e-03 1.91326533e-03 4.78316331e-03
      4.14540805e-03 4.46428545e-03 4.14540805e-03 2.42346935e-02
      1.02040814e-02 9.24744923e-03 2.23214272e-03 6.05867337e-03
      9.56632663e-04 3.82653065e-03 3.82653065e-03 3.50765302e-03
      6.05867337e-03 6.05867337e-03 3.50765302e-03 2.55102036e-03
      3.18877539e-03 1.27551018e-03 6.37755077e-03 5.42091811e-03
      2.23214272e-03 7.97193870e-03 2.23214272e-03 3.82653065e-03
      7.33418344e-03 3.82653065e-03 6.05867337e-03 6.37755077e-03
      9.56632663e-04 1.59438769e-03 8.29081610e-03 8.29081610e-03
      4.46428545e-03 1.91326533e-03 3.50765302e-03 2.23214272e-03
      8.92857090e-03 2.55102036e-03 1.59438769e-03 1.27551018e-03
      4.78316331e-03 2.86989799e-03 4.14540805e-03 4.46428545e-03
      8.60969350e-03 7.97193870e-03 8.29081610e-03 1.05229588e-02
      3.18877539e-03 3.18877544e-04 3.18877539e-03 6.37755077e-03
      3.82653065e-03 9.24744923e-03 2.86989799e-03 4.14540805e-03
      2.23214272e-03 1.27551018e-03 3.18877544e-04 3.82653065e-03
      6.37755077e-03 7.33418344e-03 3.82653065e-03 3.82653065e-03
      2.55102036e-03 7.33418344e-03 3.18877539e-03 7.65306130e-03
      3.50765302e-03 1.14795920e-02 1.59438769e-03 5.42091811e-03
      7.33418344e-03 5.42091811e-03 6.37755077e-03 1.27551018e-03
      1.27551018e-03 7.01530604e-03 5.42091811e-03</_>
    <_>
      0. 1.64473685e-03 4.11184225e-03 3.28947371e-03 4.93421033e-03
      2.46710517e-03 4.93421033e-03 5.75657887e-03 2.46710517e-03
      1.64473685e-03 8.22368427e-04 1.15131577e-02 0. 8.22368427e-04
      6.57894742e-03 2.46710517e-03 3.28947371e-03 7.40131596e-03
      4.11184225e-03 0. 2.46710517e-03 1.06907897e-02 2.46710517e-03
      7.40131596e-03 2.46710517e-03 3.28947371e-03 6.57894742e-03 0.
      8.22368427e-04 9.04605258e-03 1.64473685e-03 3.28947371e-03
      6.57894742e-03 8.22368427e-04 9.86842066e-03 4.93421033e-03
      1.64473685e-03 1.64473685e-03 7.40131596e-03 4.93421033e-03
      4.11184225e-03 4.11184225e-03 1.64473685e-03 1.64473685e-03
      3.28947371e-03 1.64473685e-03 1.06907897e-02 3.28947371e-03 0.
      6.57894742e-03 3.28947371e-03 5.75657887e-03 2.46710517e-03
      4.11184225e-03 4.93421033e-03 3.28947371e-03 2.46710517e-03
      2.71381587e-02 4.35855277e-02 2.46710517e-03 1.64473685e-03
      3.28947371e-03 2.46710517e-03 1.64473685e-03 5.75657887e-03
      1.64473685e-03 2.46710517e-03 4.11184225e-03 2.46710517e-03
      4.11184225e-03 8.22368427e-04 2.46710517e-03 1.06907897e-02
      1.64473685e-03 4.93421033e-03 4.93421033e-03 1.64473685e-03
      3.28947371e-03 4.93421033e-03 7.40131596e-03 1.64473685e-03
      3.28947371e-03 9.86842066e-03 9.86842066e-03 2.46710517e-03
      6.57894742e-03 1.39802629e-02 8.22368427e-04 6.57894742e-03
      2.63157897e-02 6.57894742e-03 2.46710517e-03 1.15131577e-02
      8.22368427e-04 1.64473685e-03 1.64473685e-03 5.75657887e-03
      2.46710517e-03 4.11184225e-03 0. 1.31578948e-02 9.04605258e-03
      8.22368450e-03 8.22368450e-03 1.64473685e-03 3.28947371e-03
      8.22368427e-04 9.86842066e-03 8.22368427e-04 3.28947371e-03
      6.57894742e-03 8.22368450e-03 2.05592103e-02 4.93421033e-03
      8.22368427e-04 4.93421033e-03 1.39802629e-02 1.64473685e-03 0.
      1.64473685e-03 1.64473685e-03 5.75657887e-03 4.93421033e-03
      8.22368427e-04 0. 9.86842066e-03 1.64473685e-03 4.11184225e-03
      4.93421033e-03 0. 0. 8.22368450e-03 0. 9.04605258e-03
      2.46710517e-03 2.46710517e-03 8.22368450e-03 2.46710517e-03
      9.86842066e-03 1.64473685e-03 3.28947371e-03 8.22368450e-03
      1.64473685e-03 1.64473685e-03 4.11184225e-03 4.11184225e-03
      1.64473685e-03 4.11184225e-03 6.57894742e-03 6.57894742e-03
      1.64473685e-03 8.22368427e-04 4.93421033e-03 1.23355268e-02
      4.11184225e-03 1.23355268e-02 2.46710517e-03 0. 1.56250000e-02
      1.64473685e-03 1.64473690e-02 4.93421033e-03 4.93421033e-03
      5.75657887e-03 4.11184225e-03 1.64473685e-03 4.11184225e-03
      4.11184225e-03 4.93421033e-03 5.75657887e-03 0. 2.46710517e-03 0.
      9.04605258e-03 2.46710517e-03 4.93421033e-03 1.64473685e-03
      4.11184225e-03 4.11184225e-03 2.46710517e-03 6.57894742e-03
      8.22368427e-04 1.97368413e-02 8.22368427e-04 8.22368450e-03
      3.28947371e-03 4.93421033e-03 4.11184225e-03 7.40131596e-03
      4.93421033e-03 3.28947371e-03 4.11184225e-03 6.57894742e-03 0.
      2.54934207e-02 1.06907897e-02 3.28947371e-03 3.28947371e-03
      8.22368427e-04 1.23355268e-02</_>
    <_>
      2.74725282e-03 1.64835174e-02 2.74725282e-03 5.49450563e-03 0.
      8.24175868e-03 8.24175868e-03 5.49450563e-03 0. 2.74725282e-03 0.
      3.02197803e-02 1.64835174e-02 8.24175868e-03 1.37362638e-02 0.
      2.74725282e-03 5.49450563e-03 0. 0. 2.19780225e-02 1.09890113e-02
      5.49450563e-03 0. 1.64835174e-02 1.64835174e-02 5.49450563e-03
      5.49450563e-03 2.74725282e-03 0. 0. 0. 0. 8.24175868e-03
      2.19780225e-02 2.74725282e-03 0. 0. 2.74725282e-03 0.
      8.24175868e-03 2.74725282e-03 0. 2.74725282e-03 0. 2.74725282e-03
      5.49450563e-03 2.74725282e-03 0. 5.49450563e-03 1.64835174e-02
      8.24175868e-03 2.74725282e-03 8.24175868e-03 1.09890113e-02
      2.74725282e-03 0. 8.24175868e-03 1.37362638e-02 2.74725282e-03 0.
      2.74725282e-03 2.74725282e-03 2.74725282e-03 8.24175868e-03 0. 0.
      0. 2.74725282e-03 2.19780225e-02 0. 0. 2.74725282e-03
      8.24175868e-03 2.74725282e-03 0. 5.49450563e-03 8.24175868e-03
      5.49450563e-03 2.74725282e-03 0. 1.09890113e-02 0. 2.74725282e-03
      0. 8.24175868e-03 2.74725282e-03 0. 5.49450563e-03 8.24175868e-03
      2.74725282e-03 5.49450563e-03 0. 2.19780225e-02 0. 2.74725282e-03
      8.24175868e-03 8.24175868e-03 8.24175868e-03 2.19780225e-02
      1.37362638e-02 1.37362638e-02 0. 0. 8.24175868e-03 0. 0.
      8.24175868e-03 0. 2.74725282e-03 8.24175868e-03 1.09890113e-02
      2.74725277e-02 0. 5.49450563e-03 0. 0. 2.74725282e-03 0.
      2.74725282e-03 0. 2.74725282e-03 2.74725282e-03 8.24175868e-03
      1.09890113e-02 5.49450563e-03 2.74725282e-03 0. 0. 1.92307699e-02
      1.37362638e-02 2.74725282e-03 2.74725282e-03 2.74725282e-03
      8.24175868e-03 1.09890113e-02 5.49450563e-03 2.74725282e-03
      2.74725282e-03 0. 2.74725282e-03 0. 2.74725282e-03 5.49450563e-03
      0. 8.24175868e-03 0. 8.24175868e-03 0. 0. 5.49450563e-03
      2.74725282e-03 2.74725282e-03 1.09890113e-02 0. 0. 0.
      2.74725282e-03 0. 0. 2.74725282e-03 0. 0. 2.74725282e-03 0.
      2.74725282e-03 1.64835174e-02 1.37362638e-02 1.64835174e-02 0. 0.
      0. 1.64835174e-02 2.74725282e-03 0. 5.49450563e-03 5.49450563e-03
      0. 0. 0. 0. 2.74725282e-03 1.09890113e-02 0. 0. 0. 0.
      2.74725282e-03 0. 2.74725282e-03 8.24175868e-03 2.74725282e-03
      5.49450563e-03 1.64835174e-02 3.02197803e-02 5.49450563e-03 0.
      2.74725282e-03 0. 1.37362638e-02</_>
    <_>
      0. 2.94985250e-03 2.94985250e-03 5.89970499e-03 0. 2.94985250e-03
      1.17994100e-02 2.94985250e-03 0. 2.94985250e-03 1.47492625e-02
      1.17994100e-02 2.94985250e-03 0. 8.84955749e-03 0. 0.
      5.89970499e-03 2.94985250e-02 0. 1.17994100e-02 0. 0. 0.
      2.94985250e-03 8.84955749e-03 2.94985250e-03 0. 0. 0. 0. 0.
      2.94985250e-03 0. 1.47492625e-02 0. 0. 0. 2.94985250e-03
      5.89970499e-03 2.94985250e-03 2.94985250e-03 0. 0. 2.94985250e-03
      0. 1.17994100e-02 5.89970499e-03 0. 1.17994100e-02 0. 0.
      2.94985250e-03 0. 1.47492625e-02 5.89970499e-03 1.17994100e-02 0.
      8.84955749e-03 1.47492625e-02 2.94985250e-03 8.84955749e-03
      2.94985250e-03 0. 5.89970499e-03 2.94985250e-03 2.94985250e-03 0.
      0. 8.84955749e-03 0. 2.94985250e-03 0. 2.94985250e-03 0. 0.
      2.94985250e-03 0. 5.89970499e-03 2.94985250e-03 5.89970499e-03 0.
      5.89970499e-03 0. 2.94985250e-03 2.94985250e-03 5.89970499e-03 0.
      0. 0. 1.17994100e-02 0. 2.94985250e-03 5.89970499e-03
      1.47492625e-02 5.89970499e-03 1.76991150e-02 0. 0. 5.89970499e-03
      8.84955749e-03 0. 2.94985250e-03 2.94985250e-03 1.17994100e-02 0.
      5.89970499e-03 0. 1.47492625e-02 2.94985250e-03 0. 0.
      1.47492625e-02 0. 2.94985250e-03 0. 5.89970499e-03 8.84955749e-03
      5.89970499e-03 5.89970499e-03 1.17994100e-02 0. 8.84955749e-03 0.
      2.06489675e-02 1.47492625e-02 8.84955749e-03 2.94985250e-03
      5.89970499e-03 5.89970499e-03 2.94985250e-03 3.24483775e-02 0. 0.
      2.94985250e-03 0. 1.76991150e-02 0. 1.47492625e-02 0.
      2.94985250e-03 2.94985250e-03 5.89970499e-03 0. 8.84955749e-03 0.
      2.94985250e-03 1.47492625e-02 0. 0. 8.84955749e-03 2.94985250e-03
      0. 1.76991150e-02 0. 1.47492625e-02 0. 0. 1.76991150e-02
      1.17994100e-02 3.24483775e-02 0. 2.94985250e-03 2.94985250e-03
      2.94985250e-03 2.06489675e-02 2.35988200e-02 5.89970499e-03
      8.84955749e-03 0. 0. 2.94985250e-03 5.89970499e-03 2.94985250e-03
      5.89970499e-03 5.89970499e-03 1.17994100e-02 2.65486725e-02 0. 0.
      0. 0. 0. 0. 2.94985250e-03 2.94985250e-03 1.17994100e-02
      1.47492625e-02 5.89970499e-03 2.94985250e-03 5.89970499e-03 0. 0.
      2.94985250e-03 5.89970499e-03 0. 5.89970499e-03 0. 0.
      2.06489675e-02</_>
    <_>
      0. 3.87596898e-02 7.75193796e-03 0. 1.55038759e-02 0.
      1.55038759e-02 0. 0. 0. 0. 7.75193796e-03 7.75193796e-03 0.
      7.75193796e-03 0. 0. 7.75193796e-03 1.55038759e-02 0.
      7.75193796e-03 7.75193796e-03 7.75193796e-03 2.32558139e-02
      1.55038759e-02 0. 0. 0. 1.55038759e-02 7.75193796e-03 0. 0.
      7.75193796e-03 0. 7.75193796e-03 0. 0. 0. 0. 7.75193796e-03
      7.75193796e-03 1.55038759e-02 0. 0. 1.55038759e-02 0.
      3.10077518e-02 0. 0. 0. 0. 1.55038759e-02 0. 0. 1.55038759e-02
      7.75193796e-03 1.55038759e-02 0. 0. 0. 0. 0. 0. 0. 0. 0. 0. 0. 0.
      0. 0. 0. 7.75193796e-03 0. 0. 0. 7.75193796e-03 2.32558139e-02
      7.75193796e-03 0. 0. 0. 0. 0. 0. 0. 7.75193796e-03 0.
      7.75193796e-03 0. 7.75193796e-03 0. 0. 0. 0. 0. 2.32558139e-02
      2.32558139e-02 7.75193796e-03 1.55038759e-02 7.75193796e-03 0.
      7.75193796e-03 7.75193796e-03 0. 0. 0. 7.75193796e-03 0. 0. 0.
      1.55038759e-02 3.87596898e-02 0. 7.75193796e-03 7.75193796e-03 0.
      0. 0. 0. 7.75193796e-03 0. 7.75193796e-03 2.32558139e-02
      1.55038759e-02 0. 0. 7.75193796e-03 0. 0. 0. 2.32558139e-02
      7.75193796e-03 0. 0. 0. 1.55038759e-02 7.75193796e-03 0. 0.
      7.75193796e-03 0. 7.75193796e-03 0. 7.75193796e-03 7.75193796e-03
      1.55038759e-02 0. 7.75193796e-03 0. 7.75193796e-03 0. 0. 0. 0.
      7.75193796e-03 0. 0. 0. 7.75193796e-03 0. 0. 0. 0. 0.
      1.55038759e-02 2.32558139e-02 7.75193796e-03 7.75193796e-03
      1.55038759e-02 0. 0. 7.75193796e-03 7.75193796e-03 0.
      7.75193796e-03 2.32558139e-02 7.75193796e-03 0. 0. 7.75193796e-03
      0. 0. 0. 0. 7.75193796e-03 7.75193796e-03 0. 0. 7.75193796e-03 0.
      0. 1.55038759e-02 1.55038759e-02 2.32558139e-02 0. 0. 0. 0. 0.</_>
    <_>
      0. 5.61797759e-03 1.12359552e-02 0. 1.12359552e-02 0.
      1.12359552e-02 0. 0. 5.61797759e-03 1.12359552e-02 3.37078646e-02
      0. 0. 0. 5.61797759e-03 5.61797759e-03 0. 2.24719103e-02 0.
      5.61797759e-03 0. 0. 5.61797759e-03 0. 0. 5.61797759e-03 0. 0. 0.
      0. 0. 0. 0. 1.12359552e-02 0. 0. 0. 0. 0. 5.61797759e-03
      1.12359552e-02 0. 0. 0. 0. 1.68539323e-02 0. 5.61797759e-03 0. 0.
      0. 0. 0. 5.61797759e-03 0. 5.61797759e-03 1.68539323e-02
      1.12359552e-02 0. 0. 0. 1.68539323e-02 0. 1.68539323e-02
      5.61797759e-03 0. 5.61797759e-03 0. 0. 1.12359552e-02 0.
      5.61797759e-03 5.61797759e-03 1.68539323e-02 0. 0. 0. 0. 0. 0. 0.
      0. 5.61797759e-03 1.12359552e-02 0. 0. 0. 5.61797759e-03
      5.61797759e-03 5.61797759e-03 0. 0. 5.61797759e-03 0.
      5.61797759e-03 2.24719103e-02 0. 0. 5.61797759e-03 2.80898884e-02
      0. 2.24719103e-02 0. 0. 0. 5.61797759e-03 1.12359552e-02 0.
      5.61797759e-03 1.12359552e-02 1.68539323e-02 0. 0. 0.
      5.61797759e-03 0. 0. 0. 1.68539323e-02 1.68539323e-02 0. 0.
      5.61797759e-03 2.80898884e-02 0. 5.61797759e-03 1.12359552e-02
      5.61797759e-03 0. 0. 2.24719103e-02 0. 5.61797759e-03
      5.61797759e-03 0. 2.80898884e-02 0. 3.37078646e-02 0. 0.
      5.61797759e-03 5.61797759e-03 0. 0. 5.61797759e-03 5.61797759e-03
      5.61797759e-03 0. 0. 0. 0. 0. 0. 0. 1.12359552e-02 0. 0.
      1.68539323e-02 1.68539323e-02 2.24719103e-02 0. 5.61797759e-03
      1.12359552e-02 0. 5.61797759e-03 1.68539323e-02 0. 5.61797759e-03
      1.12359552e-02 0. 0. 0. 1.12359552e-02 0. 0. 5.61797759e-03
      1.12359552e-02 5.61797759e-03 0. 0. 0. 5.61797759e-03
      1.68539323e-02 0. 5.61797759e-03 1.12359552e-02 0. 5.61797759e-03
      5.61797759e-03 1.12359552e-02 1.12359552e-02 0. 5.61797759e-03
      3.93258445e-02 5.61797759e-03 0. 5.61797759e-03 0. 5.61797759e-03</_>
    <_>
      2.52206810e-03 8.82723834e-03 1.00882724e-02 1.26103405e-03
      3.78310215e-03 1.26103405e-03 2.52206810e-03 1.26103405e-03 0.
      5.04413620e-03 7.56620429e-03 2.14375779e-02 2.52206810e-03
      2.52206810e-03 7.56620429e-03 2.52206810e-03 1.26103405e-03
      1.26103405e-02 2.52206810e-03 0. 3.27868834e-02 6.30517025e-03 0.
      1.26103405e-03 5.04413620e-03 7.56620429e-03 6.30517025e-03
      6.30517025e-03 2.52206810e-03 0. 0. 6.30517025e-03 0.
      7.56620429e-03 1.13493064e-02 0. 0. 1.26103405e-03 1.26103405e-03
      1.26103405e-03 2.52206810e-03 0. 0. 1.26103405e-03 0.
      3.78310215e-03 2.52206810e-03 1.26103405e-03 1.26103405e-03
      1.26103405e-03 8.82723834e-03 3.78310215e-03 2.52206810e-03
      1.26103405e-03 1.26103405e-02 2.52206810e-03 0. 1.00882724e-02
      2.01765448e-02 2.52206810e-03 0. 3.78310215e-03 7.56620429e-03 0.
      8.82723834e-03 1.26103405e-03 0. 3.78310215e-03 1.26103405e-03
      1.26103405e-02 0. 2.52206810e-03 5.04413620e-03 2.01765448e-02
      6.30517025e-03 1.26103405e-03 2.52206810e-03 2.52206810e-03
      6.30517025e-03 1.26103405e-03 2.52206810e-03 1.26103405e-03
      8.82723834e-03 3.78310215e-03 3.78310215e-03 6.30517025e-03
      7.56620429e-03 0. 8.82723834e-03 6.30517025e-03 8.82723834e-03
      2.52206810e-03 5.04413620e-03 1.26103405e-03 0. 1.26103405e-03
      5.04413620e-03 1.13493064e-02 2.52206810e-03 1.26103405e-03
      7.56620429e-03 7.56620429e-03 1.26103405e-03 1.26103405e-03
      7.56620429e-03 2.52206810e-03 3.78310215e-03 5.04413620e-03 0.
      1.26103405e-03 2.52206810e-03 1.26103405e-02 3.27868834e-02
      3.78310215e-03 1.89155117e-02 2.52206810e-03 3.78310215e-03
      5.04413620e-03 0. 2.52206810e-03 2.52206810e-03 0. 2.52206810e-03
      7.56620429e-03 2.52206810e-03 3.78310215e-03 5.04413620e-03
      1.26103405e-03 3.78310215e-03 1.00882724e-02 3.78310215e-03
      3.78310215e-03 2.52206810e-03 2.52206810e-03 5.04413620e-03
      3.78310215e-03 7.56620429e-03 5.04413620e-03 1.00882724e-02
      1.26103405e-03 2.52206810e-03 3.78310215e-03 2.52206810e-03
      5.04413620e-03 1.26103405e-03 6.30517025e-03 1.26103405e-03
      1.51324086e-02 1.00882724e-02 7.56620429e-03 1.13493064e-02 0.
      6.30517025e-03 2.64817141e-02 1.26103405e-03 1.38713745e-02
      1.26103405e-03 0. 2.01765448e-02 6.30517025e-03 8.82723834e-03
      1.26103405e-03 3.78310215e-03 2.52206810e-03 1.26103405e-03
      3.78310215e-03 1.51324086e-02 1.26103405e-03 6.30517025e-03 0. 0.
      1.26103405e-03 1.00882724e-02 1.76544767e-02 3.78310215e-03
      7.56620429e-03 1.26103405e-02 2.52206810e-03 1.26103405e-03
      2.52206810e-03 0. 0. 8.82723834e-03 1.26103405e-03 5.04413620e-03
      0. 2.52206810e-03 2.52206810e-03 7.56620429e-03 3.78310215e-03
      2.01765448e-02 1.26103405e-03 1.26103405e-03 0. 1.26103405e-02
      2.52206810e-03 2.52206810e-03 5.04413620e-03 1.26103405e-03
      2.14375779e-02</_></support_vectors>
  <decision_functions>
    <_>
      <sv_count>22</sv_count>
      <rho>-1.0010197763390336e+00</rho>
      <alpha>
        5.4469145252256801e-01 6.1679125908665455e-01
        1.3089080358787050e-01 2.8674710284985966e-01
        2.6140419705455881e-01 4.7783621691051531e-01
        7.3896656809238875e-02 2.7744690719247278e-01
        1.4199967658351414e-02 8.0792094917155305e-02
        2.9692902740911448e-01 3.3674078483791425e-01
        6.6117600749135697e-02 1. 3.3137401926758087e-01
        1.2897731707658759e-02 1.9124417743935077e-01 -1. -1. -1. -1.
        -1.</alpha>
      <index>
        0 1 2 3 4 5 6 7 8 9 10 11 12 13 14 15 16 17 18 19 20 21</index></_></decision_functions></my_svm>
</opencv_storage>
