<?xml version="1.0"?>
<opencv_storage>
<my_svm type_id="opencv-ml-svm">
  <svm_type>C_SVC</svm_type>
  <kernel><type>RBF</type>
    <gamma>1.</gamma></kernel>
  <C>1.</C>
  <term_criteria><epsilon>1.1920928955078125e-07</epsilon>
    <iterations>1000</iterations></term_criteria>
  <var_all>200</var_all>
  <var_count>200</var_count>
  <class_count>2</class_count>
  <class_labels type_id="opencv-matrix">
    <rows>1</rows>
    <cols>2</cols>
    <dt>i</dt>
    <data>
      0 1</data></class_labels>
  <sv_total>20</sv_total>
  <support_vectors>
    <_>
      2.74725282e-03 1.64835174e-02 2.74725282e-03 5.49450563e-03 0.
      8.24175868e-03 8.24175868e-03 5.49450563e-03 0. 2.74725282e-03 0.
      3.02197803e-02 1.64835174e-02 8.24175868e-03 1.37362638e-02 0.
      2.74725282e-03 5.49450563e-03 0. 0. 2.19780225e-02 1.09890113e-02
      5.49450563e-03 0. 1.64835174e-02 1.64835174e-02 5.49450563e-03
      5.49450563e-03 2.74725282e-03 0. 0. 0. 0. 8.24175868e-03
      2.19780225e-02 2.74725282e-03 0. 0. 2.74725282e-03 0.
      8.24175868e-03 2.74725282e-03 0. 2.74725282e-03 0. 2.74725282e-03
      5.49450563e-03 2.74725282e-03 0. 5.49450563e-03 1.64835174e-02
      8.24175868e-03 2.74725282e-03 8.24175868e-03 1.09890113e-02
      2.74725282e-03 0. 8.24175868e-03 1.37362638e-02 2.74725282e-03 0.
      2.74725282e-03 2.74725282e-03 2.74725282e-03 8.24175868e-03 0. 0.
      0. 2.74725282e-03 2.19780225e-02 0. 0. 2.74725282e-03
      8.24175868e-03 2.74725282e-03 0. 5.49450563e-03 8.24175868e-03
      5.49450563e-03 2.74725282e-03 0. 1.09890113e-02 0. 2.74725282e-03
      0. 8.24175868e-03 2.74725282e-03 0. 5.49450563e-03 8.24175868e-03
      2.74725282e-03 5.49450563e-03 0. 2.19780225e-02 0. 2.74725282e-03
      8.24175868e-03 8.24175868e-03 8.24175868e-03 2.19780225e-02
      1.37362638e-02 1.37362638e-02 0. 0. 8.24175868e-03 0. 0.
      8.24175868e-03 0. 2.74725282e-03 8.24175868e-03 1.09890113e-02
      2.74725277e-02 0. 5.49450563e-03 0. 0. 2.74725282e-03 0.
      2.74725282e-03 0. 2.74725282e-03 2.74725282e-03 8.24175868e-03
      1.09890113e-02 5.49450563e-03 2.74725282e-03 0. 0. 1.92307699e-02
      1.37362638e-02 2.74725282e-03 2.74725282e-03 2.74725282e-03
      8.24175868e-03 1.09890113e-02 5.49450563e-03 2.74725282e-03
      2.74725282e-03 0. 2.74725282e-03 0. 2.74725282e-03 5.49450563e-03
      0. 8.24175868e-03 0. 8.24175868e-03 0. 0. 5.49450563e-03
      2.74725282e-03 2.74725282e-03 1.09890113e-02 0. 0. 0.
      2.74725282e-03 0. 0. 2.74725282e-03 0. 0. 2.74725282e-03 0.
      2.74725282e-03 1.64835174e-02 1.37362638e-02 1.64835174e-02 0. 0.
      0. 1.64835174e-02 2.74725282e-03 0. 5.49450563e-03 5.49450563e-03
      0. 0. 0. 0. 2.74725282e-03 1.09890113e-02 0. 0. 0. 0.
      2.74725282e-03 0. 2.74725282e-03 8.24175868e-03 2.74725282e-03
      5.49450563e-03 1.64835174e-02 3.02197803e-02 5.49450563e-03 0.
      2.74725282e-03 0. 1.37362638e-02</_>
    <_>
      0. 3.87596898e-02 7.75193796e-03 0. 1.55038759e-02 0.
      1.55038759e-02 0. 0. 0. 0. 7.75193796e-03 7.75193796e-03 0.
      7.75193796e-03 0. 0. 7.75193796e-03 1.55038759e-02 0.
      7.75193796e-03 7.75193796e-03 7.75193796e-03 2.32558139e-02
      1.55038759e-02 0. 0. 0. 1.55038759e-02 7.75193796e-03 0. 0.
      7.75193796e-03 0. 7.75193796e-03 0. 0. 0. 0. 7.75193796e-03
      7.75193796e-03 1.55038759e-02 0. 0. 1.55038759e-02 0.
      3.10077518e-02 0. 0. 0. 0. 1.55038759e-02 0. 0. 1.55038759e-02
      7.75193796e-03 1.55038759e-02 0. 0. 0. 0. 0. 0. 0. 0. 0. 0. 0. 0.
      0. 0. 0. 7.75193796e-03 0. 0. 0. 7.75193796e-03 2.32558139e-02
      7.75193796e-03 0. 0. 0. 0. 0. 0. 0. 7.75193796e-03 0.
      7.75193796e-03 0. 7.75193796e-03 0. 0. 0. 0. 0. 2.32558139e-02
      2.32558139e-02 7.75193796e-03 1.55038759e-02 7.75193796e-03 0.
      7.75193796e-03 7.75193796e-03 0. 0. 0. 7.75193796e-03 0. 0. 0.
      1.55038759e-02 3.87596898e-02 0. 7.75193796e-03 7.75193796e-03 0.
      0. 0. 0. 7.75193796e-03 0. 7.75193796e-03 2.32558139e-02
      1.55038759e-02 0. 0. 7.75193796e-03 0. 0. 0. 2.32558139e-02
      7.75193796e-03 0. 0. 0. 1.55038759e-02 7.75193796e-03 0. 0.
      7.75193796e-03 0. 7.75193796e-03 0. 7.75193796e-03 7.75193796e-03
      1.55038759e-02 0. 7.75193796e-03 0. 7.75193796e-03 0. 0. 0. 0.
      7.75193796e-03 0. 0. 0. 7.75193796e-03 0. 0. 0. 0. 0.
      1.55038759e-02 2.32558139e-02 7.75193796e-03 7.75193796e-03
      1.55038759e-02 0. 0. 7.75193796e-03 7.75193796e-03 0.
      7.75193796e-03 2.32558139e-02 7.75193796e-03 0. 0. 7.75193796e-03
      0. 0. 0. 0. 7.75193796e-03 7.75193796e-03 0. 0. 7.75193796e-03 0.
      0. 1.55038759e-02 1.55038759e-02 2.32558139e-02 0. 0. 0. 0. 0.</_>
    <_>
      3.09837330e-03 7.74593325e-03 2.32377998e-03 4.64755995e-03
      4.64755995e-03 4.64755995e-03 1.00697130e-02 3.87296663e-03
      2.32377998e-03 2.32377998e-03 6.97133970e-03 1.39426794e-02 0.
      7.74593325e-04 1.31680863e-02 3.09837330e-03 3.09837330e-03
      5.42215351e-03 0. 0. 7.74593325e-03 7.74593325e-04 3.87296663e-03
      6.97133970e-03 1.31680863e-02 5.42215351e-03 7.74593325e-03 0.
      1.54918665e-03 3.09837330e-03 6.97133970e-03 2.32377998e-03
      2.32377998e-03 1.47172734e-02 1.08443070e-02 7.74593325e-03
      1.54918665e-03 0. 2.32377998e-03 5.42215351e-03 9.29511990e-03
      4.64755995e-03 5.42215351e-03 1.54918665e-03 2.32377998e-03
      4.64755995e-03 1.62664596e-02 7.74593325e-04 2.32377998e-03
      5.42215351e-03 7.74593325e-04 1.54918665e-03 6.19674660e-03
      7.74593325e-04 7.74593325e-03 7.74593325e-04 0. 1.23934932e-02
      1.85902398e-02 1.54918665e-03 0. 3.87296663e-03 4.64755995e-03 0.
      7.74593325e-03 6.19674660e-03 4.64755995e-03 8.52052681e-03
      4.64755995e-03 5.42215351e-03 3.87296663e-03 7.74593325e-04
      9.29511990e-03 1.54918665e-03 2.32377998e-03 3.87296663e-03 0.
      2.32377998e-03 8.52052681e-03 6.19674660e-03 4.64755995e-03
      7.74593325e-04 6.97133970e-03 3.09837330e-03 2.32377998e-03
      3.87296663e-03 7.74593325e-03 3.09837330e-03 1.54918665e-03
      7.74593325e-03 9.29511990e-03 1.54918665e-03 9.29511990e-03
      6.97133970e-03 1.54918665e-03 3.09837330e-03 8.52052681e-03
      1.54918665e-03 1.54918665e-03 7.74593325e-04 1.31680863e-02 0.
      3.09837330e-03 5.42215351e-03 2.32377998e-03 3.87296663e-03
      2.32377998e-03 8.52052681e-03 7.74593325e-04 1.00697130e-02
      4.64755995e-03 2.32377998e-03 1.62664596e-02 3.87296663e-03
      2.32377998e-03 4.64755995e-03 1.16189001e-02 3.09837330e-03
      1.54918665e-03 4.64755995e-03 2.32377998e-03 9.29511990e-03
      2.32377998e-03 1.54918665e-03 2.01394260e-02 1.54918665e-03
      5.42215351e-03 5.42215351e-03 3.87296663e-03 7.74593325e-04
      7.74593325e-04 8.52052681e-03 4.64755995e-03 6.97133970e-03
      1.00697130e-02 7.74593325e-04 4.64755995e-03 3.09837330e-03
      1.39426794e-02 2.32377998e-03 6.19674660e-03 6.19674660e-03
      2.32377998e-03 6.19674660e-03 3.09837330e-03 1.08443070e-02
      4.64755995e-03 7.74593325e-03 1.54918665e-03 2.32377998e-03
      7.74593325e-04 3.87296663e-03 2.32377998e-03 7.74593325e-03
      3.87296663e-03 0. 6.97133970e-03 0. 9.29511990e-03 8.52052681e-03
      1.16189001e-02 1.54918665e-03 6.97133970e-03 2.01394260e-02
      3.09837330e-03 3.09837330e-03 1.00697130e-02 6.97133970e-03
      1.08443070e-02 2.32377998e-03 0. 1.54918665e-03 3.87296663e-03
      3.09837330e-03 1.54918665e-03 6.97133970e-03 3.87296663e-03
      4.64755995e-03 6.19674660e-03 7.74593325e-03 2.32377998e-03 0.
      5.42215351e-03 6.97133970e-03 3.87296663e-03 3.09837330e-03
      6.19674660e-03 3.09837330e-03 5.42215351e-03 3.09837330e-03
      1.00697130e-02 5.42215351e-03 1.16189001e-02 4.64755995e-03
      1.85902398e-02 2.32377998e-03 4.64755995e-03 5.42215351e-03 0.
      3.87296663e-03</_>
    <_>
      0. 4.90196096e-03 1.22549022e-02 2.45098048e-03 2.45098048e-03
      2.45098048e-03 7.35294167e-03 1.96078438e-02 0. 4.90196096e-03
      1.22549022e-02 7.35294167e-03 0. 0. 1.47058833e-02 2.45098048e-03
      7.35294167e-03 0. 0. 0. 4.90196096e-03 7.35294167e-03
      2.45098048e-03 9.80392192e-03 2.45098043e-02 7.35294167e-03
      1.71568636e-02 0. 2.45098048e-03 0. 1.22549022e-02 2.45098048e-03
      2.45098048e-03 2.45098048e-03 9.80392192e-03 2.45098048e-03 0.
      2.45098048e-03 4.90196096e-03 2.45098048e-03 2.20588241e-02 0.
      4.90196096e-03 0. 7.35294167e-03 0. 1.47058833e-02 2.45098048e-03
      4.90196096e-03 9.80392192e-03 0. 2.45098048e-03 0. 4.90196096e-03
      9.80392192e-03 0. 2.45098048e-03 4.90196096e-03 1.96078438e-02 0.
      4.90196096e-03 7.35294167e-03 0. 0. 1.47058833e-02 0.
      7.35294167e-03 1.22549022e-02 0. 9.80392192e-03 0. 2.45098048e-03
      1.22549022e-02 4.90196096e-03 4.90196096e-03 9.80392192e-03 0.
      2.45098048e-03 4.90196096e-03 0. 0. 0. 7.35294167e-03
      9.80392192e-03 2.45098048e-03 9.80392192e-03 7.35294167e-03 0.
      2.45098048e-03 2.45098048e-03 2.45098048e-03 2.45098048e-03 0.
      2.45098048e-03 4.90196096e-03 7.35294167e-03 7.35294167e-03
      4.90196096e-03 0. 2.45098048e-03 4.90196096e-03 0. 4.90196096e-03
      1.47058833e-02 0. 4.90196096e-03 0. 2.45098048e-03 4.90196096e-03
      1.71568636e-02 2.45098048e-03 4.90196096e-03 1.96078438e-02
      2.45098048e-03 0. 0. 7.35294167e-03 7.35294167e-03 0.
      1.22549022e-02 2.45098048e-03 4.90196096e-03 2.45098048e-03
      2.45098048e-03 4.16666679e-02 2.45098048e-03 1.71568636e-02
      7.35294167e-03 4.90196096e-03 0. 0. 2.45098048e-03 0. 0.
      1.47058833e-02 0. 1.22549022e-02 0. 1.22549022e-02 0. 0.
      1.71568636e-02 2.45098048e-03 4.90196096e-03 2.45098048e-03
      9.80392192e-03 2.45098048e-03 4.90196096e-03 0. 4.90196096e-03 0.
      7.35294167e-03 0. 4.90196096e-03 0. 2.45098048e-03 2.45098048e-03
      0. 0. 4.90196096e-03 2.45098048e-03 4.90196096e-03 7.35294167e-03
      9.80392192e-03 0. 2.45098048e-03 1.22549022e-02 7.35294167e-03
      1.71568636e-02 4.90196096e-03 0. 0. 2.45098048e-03 4.90196096e-03
      0. 0. 0. 4.90196096e-03 4.90196096e-03 1.96078438e-02 0. 0.
      1.22549022e-02 0. 4.90196096e-03 7.35294167e-03 2.45098048e-03
      4.90196096e-03 0. 7.35294167e-03 9.80392192e-03 2.45098048e-03
      1.22549022e-02 0. 4.90196096e-03 4.90196096e-03 0. 9.80392192e-03
      0. 0.</_>
    <_>
      0. 2.17391308e-02 1.69082116e-02 0. 9.66183562e-03 4.83091781e-03
      1.20772943e-02 0. 1.44927539e-02 4.83091781e-03 2.41545890e-03
      2.41545890e-03 0. 0. 4.83091781e-03 7.24637695e-03 7.24637695e-03
      7.24637695e-03 4.83091781e-03 0. 4.83091781e-03 0. 7.24637695e-03
      7.24637695e-03 0. 0. 1.44927539e-02 0. 4.83091781e-03 0. 0. 0.
      7.24637695e-03 4.83091781e-03 1.20772943e-02 4.83091781e-03
      2.41545890e-03 7.24637695e-03 4.83091781e-03 0. 1.20772943e-02
      2.41545890e-03 0. 2.41545890e-03 2.17391308e-02 2.41545890e-03
      1.44927539e-02 9.66183562e-03 2.41545890e-03 0. 0. 0.
      4.83091781e-03 0. 2.41545890e-03 0. 7.24637695e-03 2.41545890e-03
      0. 0. 0. 7.24637695e-03 9.66183562e-03 0. 2.17391308e-02
      2.41545890e-03 2.41545890e-03 2.41545890e-03 2.41545890e-03
      2.41545890e-03 1.20772943e-02 0. 9.66183562e-03 0. 1.93236712e-02
      0. 0. 2.41545890e-03 0. 0. 0. 0. 2.41545890e-03 0. 1.69082116e-02
      4.83091781e-03 4.83091781e-03 0. 5.79710156e-02 0. 1.44927539e-02
      0. 0. 2.41545890e-03 4.83091781e-03 0. 4.83091781e-03
      2.41545890e-03 4.83091781e-03 0. 1.69082116e-02 0. 4.83091781e-03
      9.66183562e-03 0. 0. 2.41545890e-03 1.20772943e-02 2.41545890e-03
      0. 0. 9.66183562e-03 0. 4.83091781e-03 0. 4.83091781e-03
      2.41545890e-03 2.41545890e-03 2.41545890e-03 0. 4.83091781e-03
      7.24637695e-03 2.41545890e-03 2.41545890e-03 4.83091781e-03
      2.41545890e-03 0. 1.20772943e-02 0. 4.83091781e-03 0.
      4.83091781e-03 7.24637695e-03 7.24637695e-03 0. 0. 7.24637695e-03
      7.24637695e-03 4.10628021e-02 0. 1.69082116e-02 4.83091781e-03 0.
      4.83091781e-03 0. 4.83091781e-03 9.66183562e-03 0. 0.
      4.83091781e-03 2.41545890e-03 2.41545890e-03 0. 0. 4.83091781e-03
      7.24637695e-03 2.41545890e-03 0. 0. 4.83091781e-03 6.76328465e-02
      0. 7.24637695e-03 1.69082116e-02 0. 4.83091781e-03 4.83091781e-03
      7.24637695e-03 0. 1.20772943e-02 0. 9.66183562e-03 2.41545890e-03
      4.83091781e-03 0. 7.24637695e-03 0. 1.20772943e-02 7.24637695e-03
      0. 2.41545890e-03 0. 0. 7.24637695e-03 1.20772943e-02
      2.41545890e-03 1.20772943e-02 7.24637695e-03 2.41545890e-03
      7.24637695e-03 0. 2.41545890e-03 2.41545890e-03 0. 0.
      4.83091781e-03 2.41545890e-03 2.41545890e-03 2.41545890e-03
      2.41545890e-03</_>
    <_>
      0. 2.86123040e-03 2.28898432e-02 2.86123040e-03 5.72246080e-03
      1.71673819e-02 2.86123040e-03 1.43061522e-02 2.86123040e-03
      4.29184549e-03 4.29184549e-03 5.72246080e-03 0. 0. 5.72246080e-03
      1.43061520e-03 1.43061520e-03 7.15307612e-03 5.72246080e-03 0.
      4.29184549e-03 1.43061520e-03 0. 4.29184549e-03 4.29184549e-03 0.
      1.43061520e-03 0. 1.43061520e-03 0. 1.43061520e-03 0.
      1.43061520e-03 7.15307612e-03 1.00143068e-02 1.43061520e-03
      2.86123040e-03 1.43061520e-03 5.72246080e-03 2.86123040e-03
      1.43061520e-03 2.86123040e-03 4.29184549e-03 0. 4.29184549e-03
      5.72246080e-03 7.15307612e-03 7.15307612e-03 2.86123040e-03
      2.14592274e-02 0. 1.43061520e-03 0. 4.29184549e-03 1.14449216e-02
      2.86123040e-03 1.43061520e-03 5.72246080e-03 1.14449216e-02
      2.86123040e-03 2.86123040e-03 2.86123040e-03 2.86123040e-03 0.
      1.00143068e-02 1.43061520e-03 0. 1.43061520e-03 0. 2.86123040e-03
      1.43061520e-03 0. 4.29184549e-03 5.72246080e-03 0. 4.29184549e-03
      0. 1.43061520e-03 1.00143068e-02 1.43061520e-03 5.72246080e-03 0.
      1.43061520e-03 0. 2.86123040e-03 8.58369097e-03 2.86123040e-03 0.
      3.57653797e-02 4.29184549e-03 2.86123040e-03 4.29184549e-03 0.
      4.29184549e-03 5.72246080e-03 8.58369097e-03 1.00143068e-02
      2.86123040e-03 2.86123040e-03 1.43061520e-03 7.15307612e-03 0.
      5.72246080e-03 1.43061520e-03 2.86123040e-03 1.43061520e-03
      2.86123040e-03 2.86123040e-03 4.29184549e-03 1.43061520e-03 0.
      7.15307612e-03 6.58082962e-02 2.86123040e-03 1.00143068e-02
      1.43061520e-03 5.72246080e-03 4.29184549e-03 8.58369097e-03
      1.14449216e-02 1.43061520e-03 1.43061520e-03 1.14449216e-02
      1.43061520e-03 4.72103022e-02 5.72246080e-03 0. 2.86123040e-03 0.
      0. 1.43061520e-03 1.57367680e-02 2.86123040e-03 8.58369097e-03
      2.86123040e-03 0. 1.57367680e-02 5.72246080e-03 3.00429184e-02
      2.86123040e-03 4.29184549e-03 7.15307612e-03 2.86123040e-03
      4.29184549e-03 2.86123040e-03 0. 7.15307612e-03 1.43061522e-02 0.
      5.72246080e-03 5.72246080e-03 5.72246080e-03 0. 1.00143068e-02
      1.43061520e-03 5.72246080e-03 2.86123040e-03 0. 0. 1.00143068e-02
      2.00286135e-02 0. 4.29184549e-03 2.86123040e-03 2.86123040e-03
      1.43061520e-03 2.28898432e-02 1.43061520e-03 2.86123040e-03
      2.86123040e-03 0. 1.43061520e-03 0. 1.43061520e-03 0.
      2.86123040e-03 4.29184549e-03 2.86123040e-03 2.86123040e-03 0. 0.
      0. 2.86123040e-03 3.00429184e-02 4.29184549e-03 4.29184549e-03
      1.28755365e-02 1.43061520e-03 7.15307612e-03 7.15307612e-03
      2.86123040e-03 0. 5.72246080e-03 0. 7.15307612e-03 2.86123040e-03
      0. 7.15307612e-03 0. 1.71673819e-02</_>
    <_>
      0. 0. 1.95121951e-02 0. 0. 0. 1.46341464e-02 0. 0. 0.
      1.46341464e-02 9.75609757e-03 0. 0. 0. 0. 9.75609757e-03
      9.75609757e-03 1.46341464e-02 0. 0. 4.87804879e-03 0. 0. 0. 0. 0.
      0. 9.75609757e-03 0. 0. 0. 4.87804879e-03 3.41463424e-02
      9.75609757e-03 0. 0. 0. 9.75609757e-03 0. 0. 0. 0. 0.
      4.87804879e-03 1.46341464e-02 4.87804879e-03 9.75609757e-03
      4.87804879e-03 1.46341464e-02 0. 0. 4.87804879e-03 1.46341464e-02
      2.92682927e-02 0. 4.87804879e-03 4.87804879e-03 9.75609757e-03 0.
      0. 0. 4.87804879e-03 0. 9.75609757e-03 0. 4.87804879e-03
      1.95121951e-02 0. 0. 0. 0. 4.87804879e-03 0. 4.87804879e-03 0. 0.
      0. 4.87804879e-03 0. 0. 0. 1.46341464e-02 9.75609757e-03 0.
      1.46341464e-02 4.87804879e-03 0. 0. 9.75609757e-03 0. 0. 0. 0. 0.
      0. 1.95121951e-02 0. 4.87804879e-03 4.87804879e-03 9.75609757e-03
      0. 9.75609757e-03 4.87804879e-03 0. 4.87804879e-03 0. 0. 0. 0.
      4.87804879e-03 4.87804879e-03 7.31707290e-02 0. 2.92682927e-02
      4.87804879e-03 0. 4.87804879e-03 4.87804879e-03 0. 9.75609757e-03
      0. 1.46341464e-02 1.46341464e-02 2.43902430e-02 4.87804879e-03 0.
      4.87804879e-03 1.95121951e-02 0. 0. 1.46341464e-02 0.
      1.46341464e-02 4.87804879e-03 0. 1.46341464e-02 0. 2.92682927e-02
      0. 0. 0. 4.87804879e-03 0. 9.75609757e-03 0. 0. 4.39024381e-02 0.
      0. 0. 0. 0. 1.46341464e-02 0. 4.87804879e-03 4.87804879e-03 0.
      4.87804879e-03 0. 4.87804879e-03 0. 9.75609757e-03 1.46341464e-02
      0. 4.87804879e-03 0. 4.87804879e-03 0. 4.87804879e-03 0.
      4.87804879e-03 0. 4.87804879e-03 0. 0. 0. 2.43902430e-02 0.
      4.87804879e-03 0. 0. 4.87804879e-03 9.75609757e-03 1.95121951e-02
      0. 4.87804879e-03 0. 9.75609757e-03 4.87804879e-03 9.75609757e-03
      4.87804879e-03 0. 0. 9.75609757e-03 0. 0. 0. 0. 0.</_>
    <_>
      3.48432036e-03 6.38792105e-03 6.96864072e-03 1.74216018e-03
      5.22648077e-03 1.74216018e-03 1.80023219e-02 2.90360046e-03
      4.64576064e-03 1.74216018e-03 3.48432036e-03 6.38792105e-03
      4.64576064e-03 1.74216018e-03 4.64576064e-03 0. 4.06504050e-03
      6.38792105e-03 4.06504050e-03 5.80720080e-04 1.21951215e-02
      1.16144016e-03 2.90360046e-03 8.13008100e-03 4.06504050e-03
      3.48432036e-03 8.13008100e-03 0. 5.80720080e-04 8.71080160e-03
      1.16144016e-03 5.80720080e-04 1.16144016e-03 5.22648077e-03
      8.71080160e-03 7.54936086e-03 1.33565618e-02 5.80720080e-04
      3.48432036e-03 1.16144016e-03 3.48432036e-03 1.16144016e-03
      1.16144018e-02 6.38792105e-03 3.48432036e-03 1.16144016e-03
      2.32288032e-03 2.90360046e-03 2.90360046e-03 0. 3.48432036e-03 0.
      2.32288032e-03 1.74216018e-03 5.80720091e-03 4.06504050e-03
      2.32288032e-03 2.32288032e-03 1.50987217e-02 5.22648077e-03
      1.74216018e-03 4.06504050e-03 4.06504050e-03 0. 9.87224095e-03
      7.54936086e-03 4.06504050e-03 2.90360046e-03 2.32288032e-03
      1.74216018e-03 2.32288032e-03 5.80720091e-03 6.96864072e-03
      4.64576064e-03 2.09059231e-02 1.16144016e-03 2.32288032e-03
      5.22648077e-03 9.87224095e-03 1.74216018e-03 4.64576064e-03
      5.80720080e-04 6.38792105e-03 1.16144018e-02 3.48432036e-03
      3.48432036e-03 1.85830425e-02 1.74216018e-03 6.38792105e-03
      1.16144018e-02 4.64576064e-03 0. 0. 1.16144016e-03 1.74216018e-03
      4.64576064e-03 9.87224095e-03 3.48432036e-03 1.74216018e-03
      3.48432036e-03 6.96864072e-03 2.32288032e-03 6.38792105e-03
      5.22648077e-03 4.06504050e-03 4.06504050e-03 5.80720080e-04
      5.22648077e-03 5.80720080e-04 2.90360046e-03 1.16144016e-03
      6.96864072e-03 1.80023219e-02 5.80720080e-04 9.87224095e-03
      1.74216018e-03 3.48432036e-03 2.32288032e-03 3.48432036e-03
      5.80720080e-04 2.32288032e-03 5.22648077e-03 3.48432036e-03
      1.27758421e-02 5.80720091e-03 5.80720080e-04 4.06504050e-03
      4.64576064e-03 1.74216018e-03 3.48432036e-03 1.74216018e-03
      9.87224095e-03 3.48432036e-03 3.48432036e-03 1.16144016e-03
      5.80720091e-03 2.84552835e-02 5.80720080e-04 2.55516842e-02
      1.16144016e-03 2.32288032e-03 6.96864072e-03 2.32288032e-03
      2.32288032e-03 2.32288032e-03 3.48432036e-03 5.80720080e-04
      1.04529615e-02 1.74216018e-03 4.06504050e-03 3.48432036e-03
      2.90360046e-03 1.74216018e-03 4.64576064e-03 1.04529615e-02
      1.16144016e-03 1.16144016e-03 2.32288032e-03 2.32288032e-03
      4.64576064e-03 1.04529615e-02 2.32288032e-03 4.52961661e-02
      4.06504050e-03 1.16144016e-03 1.74216018e-03 1.27758421e-02
      5.80720080e-04 1.16144016e-03 6.38792105e-03 0. 5.80720080e-04
      5.80720091e-03 5.22648077e-03 1.16144016e-03 9.29152127e-03
      2.90360046e-03 5.22648077e-03 5.22648077e-03 5.80720080e-04
      4.06504050e-03 0. 1.62601620e-02 4.64576064e-03 3.83275263e-02
      1.56794414e-02 5.22648077e-03 1.16144016e-03 4.64576064e-03
      5.22648077e-03 5.22648077e-03 2.32288032e-03 5.80720091e-03
      1.74216018e-03 5.80720091e-03 2.32288032e-03 2.32288032e-03
      1.16144018e-02 0. 4.64576064e-03</_>
    <_>
      0. 1.16448328e-02 5.82241639e-03 2.91120820e-03 4.36681230e-03 0.
      2.03784574e-02 0. 1.45560410e-03 5.82241639e-03 5.82241639e-03
      8.73362459e-03 1.45560410e-03 0. 2.32896656e-02 1.45560410e-03
      1.45560410e-03 4.36681230e-03 1.45560410e-03 2.91120820e-03
      1.60116442e-02 0. 0. 7.27802049e-03 2.91120820e-03 2.91120820e-03
      1.01892287e-02 2.91120820e-03 4.36681230e-03 4.36681230e-03
      1.45560410e-03 0. 0. 1.45560410e-03 1.01892287e-02 7.27802049e-03
      4.36681230e-03 1.45560410e-03 2.91120820e-03 1.45560410e-03
      2.91120820e-03 0. 5.82241639e-03 2.91120820e-03 0. 2.91120820e-03
      1.01892287e-02 1.01892287e-02 4.36681230e-03 0. 1.01892287e-02
      4.36681230e-03 4.36681230e-03 7.27802049e-03 4.36681230e-03
      4.36681230e-03 0. 2.91120820e-03 2.18340605e-02 1.45560410e-03
      1.45560410e-03 2.91120820e-03 2.91120820e-03 5.82241639e-03
      2.32896656e-02 5.82241639e-03 1.45560410e-03 4.36681230e-03
      2.91120820e-03 1.45560410e-03 0. 4.36681230e-03 1.45560410e-03
      1.45560410e-02 1.31004369e-02 7.27802049e-03 2.91120820e-03
      4.36681230e-03 5.82241639e-03 0. 1.16448328e-02 0. 1.31004369e-02
      7.27802049e-03 4.36681230e-03 1.45560410e-03 1.45560410e-02 0.
      2.91120820e-03 1.89228542e-02 2.91120820e-03 0. 2.91120820e-03
      2.91120820e-03 2.91120820e-03 1.45560410e-03 8.73362459e-03
      7.27802049e-03 0. 0. 4.36681230e-03 0. 1.45560410e-03 0.
      1.45560410e-03 4.36681230e-03 1.45560410e-03 4.36681230e-03
      2.91120820e-03 2.91120820e-03 4.36681230e-03 1.01892287e-02
      2.91120820e-02 0. 5.82241639e-03 0. 1.45560410e-03 1.45560410e-03
      2.91120820e-03 2.91120820e-03 5.82241639e-03 7.27802049e-03
      1.45560410e-03 4.36681230e-03 4.36681230e-03 1.45560410e-03
      7.27802049e-03 2.91120820e-03 1.45560410e-03 0. 0. 4.36681230e-03
      5.82241639e-03 1.45560410e-03 1.01892287e-02 2.91120820e-03
      3.49344984e-02 0. 2.47452706e-02 1.45560410e-03 2.91120820e-03
      1.45560410e-03 1.45560410e-03 0. 0. 8.73362459e-03 2.91120820e-03
      8.73362459e-03 0. 1.45560410e-03 4.36681230e-03 7.27802049e-03
      2.91120820e-03 1.16448328e-02 5.82241639e-03 0. 2.91120820e-03 0.
      0. 2.91120820e-03 2.47452706e-02 5.82241639e-03 2.62008738e-02
      1.01892287e-02 1.45560410e-03 0. 1.45560410e-02 1.60116442e-02
      1.45560410e-03 7.27802049e-03 0. 2.91120820e-03 1.45560410e-03
      5.82241639e-03 1.60116442e-02 2.91120820e-03 7.27802049e-03 0.
      2.91120820e-03 0. 1.45560410e-03 0. 1.31004369e-02 1.45560410e-03
      2.03784574e-02 8.73362459e-03 2.91120820e-03 2.91120820e-03
      2.91120820e-03 1.45560410e-03 4.36681230e-03 0. 7.27802049e-03 0.
      2.91120820e-03 4.36681230e-03 5.82241639e-03 2.91120820e-03
      1.45560410e-03 4.36681230e-03</_>
    <_>
      0. 4.01234552e-02 0. 3.08641978e-03 3.08641978e-03 6.17283955e-03
      0. 0. 3.08641978e-03 0. 0. 6.17283955e-03 0. 0. 0. 9.25925933e-03
      9.25925933e-03 1.23456791e-02 3.08641978e-03 0. 0. 0.
      6.17283955e-03 1.23456791e-02 0. 0. 9.25925933e-03 0. 0.
      3.08641978e-03 3.08641978e-03 0. 0. 3.08641978e-03 4.32098769e-02
      0. 1.54320989e-02 0. 3.08641978e-03 3.08641978e-03 3.08641978e-03
      0. 3.08641978e-03 0. 9.25925933e-03 3.08641978e-03 0.
      3.08641978e-03 0. 0. 3.08641978e-03 0. 0. 3.08641978e-03
      6.17283955e-03 0. 0. 0. 3.39506194e-02 0. 3.08641978e-03 0.
      6.17283955e-03 0. 0. 0. 9.25925933e-03 0. 0. 0. 6.17283955e-03
      3.08641978e-03 9.25925933e-03 3.08641978e-03 0. 0. 0.
      3.08641978e-03 0. 0. 0. 0. 0. 0. 3.08641978e-03 0. 3.08641978e-03
      0. 9.25925970e-02 1.23456791e-02 3.08641978e-03 0. 0.
      3.08641978e-03 0. 0. 1.85185187e-02 0. 1.23456791e-02 0.
      4.01234552e-02 0. 0. 1.85185187e-02 0. 3.08641978e-03 0.
      3.08641978e-03 3.08641978e-03 3.08641978e-03 1.85185187e-02 0. 0.
      0. 0. 3.08641978e-03 9.25925933e-03 0. 9.25925933e-03 0. 0. 0. 0.
      0. 0. 0. 0. 1.23456791e-02 0. 0. 0. 0. 9.25925933e-03 0. 0.
      3.08641978e-03 1.23456791e-02 0. 4.62962985e-02 0. 0.
      3.08641978e-03 0. 3.08641978e-03 6.17283955e-03 0. 0.
      3.08641978e-03 0. 0. 0. 0. 0. 3.08641978e-03 0. 6.17283955e-03
      1.23456791e-02 0. 1.17283955e-01 3.08641978e-03 3.39506194e-02
      3.08641978e-03 9.25925933e-03 9.25925933e-03 0. 3.08641978e-03 0.
      0. 0. 2.16049384e-02 0. 0. 0. 3.08641978e-03 0. 3.39506194e-02
      3.08641978e-03 0. 0. 3.08641978e-03 3.08641978e-03 0.
      6.17283955e-03 1.54320989e-02 0. 6.17283955e-03 3.08641978e-03 0.
      0. 6.17283955e-03 0. 0. 0. 0. 1.85185187e-02 0. 3.08641978e-03
      6.17283955e-03 0. 0.</_>
    <_>
      0. 1.06382975e-02 5.31914877e-03 5.31914877e-03 5.31914877e-03
      1.06382975e-02 1.59574468e-02 0. 1.06382975e-02 0. 0.
      1.59574468e-02 0. 1.06382975e-02 5.31914877e-03 0. 0. 0. 0. 0.
      5.31914877e-03 0. 0. 5.31914877e-03 5.31914877e-03 0. 0. 0. 0. 0.
      0. 0. 0. 3.72340418e-02 1.59574468e-02 0. 0. 5.31914877e-03 0. 0.
      5.31914877e-03 0. 0. 5.31914877e-03 0. 5.31914877e-03
      1.06382975e-02 0. 0. 1.59574468e-02 5.31914877e-03 0.
      5.31914877e-03 0. 3.72340418e-02 5.31914877e-03 0. 2.65957434e-02
      2.12765951e-02 0. 5.31914877e-03 5.31914877e-03 7.44680837e-02 0.
      1.06382975e-02 1.06382975e-02 0. 0. 0. 1.59574468e-02 0. 0. 0.
      5.31914877e-03 5.31914867e-02 0. 0. 5.31914877e-03 0. 0. 0. 0. 0.
      5.31914877e-03 5.31914877e-03 0. 0. 0. 0. 0. 5.31914877e-03 0. 0.
      0. 0. 1.06382975e-02 2.12765951e-02 1.06382975e-02 0. 0. 0. 0. 0.
      1.06382975e-02 0. 0. 0. 1.06382975e-02 0. 0. 0. 2.12765951e-02
      5.31914877e-03 0. 0. 0. 1.06382975e-02 0. 5.31914877e-03 0.
      1.59574468e-02 0. 2.12765951e-02 0. 0. 0. 0. 5.31914877e-03 0. 0.
      0. 0. 0. 5.31914877e-03 0. 0. 5.31914877e-03 0. 5.85106350e-02 0.
      0. 0. 0. 0. 0. 0. 0. 0. 0. 0. 5.31914877e-03 0. 0. 1.06382975e-02
      1.06382975e-02 0. 0. 0. 1.06382975e-02 1.06382975e-02
      6.91489354e-02 0. 5.31914877e-03 3.19148935e-02 0. 0.
      5.31914877e-03 0. 0. 5.31914877e-03 0. 0. 5.31914877e-03 0. 0.
      5.31914877e-03 0. 5.31914877e-03 0. 0. 5.31914877e-03 0. 0. 0.
      1.06382975e-02 0. 0. 5.31914877e-03 5.31914877e-03 5.31914877e-03
      2.65957434e-02 0. 0. 0. 1.59574468e-02 0. 5.31914877e-03
      5.31914877e-03 0. 0.</_>
    <_>
      3.68344262e-02 8.38803779e-03 1.45878922e-03 1.09409192e-03
      3.64697305e-04 2.18818383e-03 8.38803779e-03 2.18818383e-03 0.
      3.64697305e-04 1.45878922e-03 1.67760756e-02 1.71407741e-02
      6.56455150e-03 2.55288114e-03 3.28227575e-03 1.09409192e-03
      7.29394611e-03 1.82348653e-03 1.16703138e-02 1.60466805e-02
      1.09409187e-02 2.18818383e-03 1.45878922e-03 1.67760756e-02
      4.88694385e-02 4.01167013e-03 1.27644055e-02 1.82348653e-03
      1.05762221e-02 0. 6.56455150e-03 1.82348653e-03 4.01167013e-03
      3.28227575e-03 7.29394611e-04 4.74106520e-03 1.82348653e-03
      9.11743287e-03 2.18818383e-03 6.19985443e-03 1.09409192e-03
      7.29394611e-04 1.82348653e-03 0. 1.09409192e-03 7.29394611e-03
      2.55288114e-03 7.29394611e-04 3.64697305e-04 9.11743287e-03
      3.64697305e-03 2.55288114e-03 1.45878922e-03 6.56455150e-03
      1.45878922e-03 1.09409192e-03 4.74106520e-03 1.53172873e-02
      2.91757844e-03 5.83515689e-03 1.09409192e-03 0. 9.84682702e-03
      4.01167013e-03 7.29394611e-04 2.55288114e-03 2.91757844e-03 0.
      5.10576228e-03 2.91757844e-03 3.64697305e-04 5.47045935e-03
      7.29394611e-04 1.09409192e-03 1.09409192e-03 8.75273533e-03
      4.01167013e-03 7.65864365e-03 1.45878922e-03 1.45878922e-03
      8.02334026e-03 3.64697305e-04 2.18818383e-03 3.28227575e-03
      5.10576228e-03 3.28227575e-03 7.65864365e-03 3.28227575e-03
      6.19985443e-03 4.01167013e-03 1.45878922e-03 3.64697305e-04
      2.55288114e-03 2.55288114e-03 5.83515689e-03 2.91757844e-03
      1.45878922e-03 2.55288114e-03 4.74106520e-03 2.55288114e-03
      9.84682702e-03 1.09409192e-03 1.82348653e-03 1.49525898e-02
      2.18818383e-03 4.37636767e-03 4.01167013e-03 4.01167013e-03
      1.09409192e-03 1.82348653e-03 4.74106520e-03 7.47629479e-02
      2.18818383e-03 4.74106520e-03 1.45878922e-03 0. 5.10576228e-03
      2.91757844e-03 3.64697305e-04 1.09409192e-03 7.29394611e-04
      7.65864365e-03 8.02334026e-03 2.58935094e-02 4.74106520e-03
      9.48213041e-03 7.29394611e-04 1.45878922e-03 4.74106520e-03
      8.38803779e-03 3.28227575e-03 3.64697305e-03 2.91757844e-03
      1.05762221e-02 1.09409187e-02 0. 2.18818383e-03 3.64697305e-04
      2.91757844e-03 4.74106520e-03 1.45878922e-03 5.10576228e-03
      3.64697305e-04 2.18818383e-03 7.65864365e-03 2.91757844e-03
      1.09409187e-02 5.83515689e-03 1.45878922e-03 2.55288114e-03
      3.28227575e-03 1.60466805e-02 4.37636767e-03 0. 3.64697305e-03
      3.64697305e-04 1.05762221e-02 1.82348653e-03 2.55288114e-03
      7.29394611e-04 3.28227575e-03 7.29394611e-04 1.09409192e-03
      2.55288114e-03 1.09409192e-03 1.23997089e-02 6.19985443e-03
      1.78701673e-02 2.91757844e-03 2.55288114e-03 2.55288114e-03
      5.83515689e-03 5.83515689e-03 5.47045935e-03 2.18818383e-03
      1.82348653e-03 1.45878922e-03 1.09409192e-03 3.64697305e-04
      3.64697305e-04 4.01167013e-03 3.28227575e-03 1.45878922e-03
      3.64697305e-03 3.64697305e-04 4.37636767e-03 1.45878922e-03
      3.28227575e-03 1.82348653e-03 1.27644055e-02 1.82348653e-03
      5.83515689e-03 9.11743287e-03 8.02334026e-03 5.83515689e-03
      3.64697305e-04 1.09409192e-03 1.27644055e-02 2.18818383e-03</_>
    <_>
      2.52027810e-02 3.47624556e-03 3.76593275e-03 2.31749704e-03
      8.69061390e-04 3.76593275e-03 1.73812278e-03 3.47624556e-03
      5.21436846e-03 3.76593275e-03 1.44843571e-03 6.66280417e-03
      9.84936208e-03 4.34530713e-03 4.34530713e-03 2.89687142e-03
      2.60718423e-03 5.21436846e-03 5.79374260e-04 1.39049822e-02
      6.08342979e-03 8.69061425e-03 2.31749704e-03 1.73812278e-03
      6.08342979e-03 5.09849340e-02 7.53186550e-03 8.40092637e-03
      1.44843571e-03 5.79374284e-03 2.89687130e-04 3.18655837e-03
      4.63499408e-03 7.24217808e-03 6.66280417e-03 2.89687142e-03
      1.10081108e-02 2.60718423e-03 8.98030121e-03 3.76593275e-03
      4.63499408e-03 2.60718423e-03 2.02780985e-03 4.63499408e-03
      1.44843571e-03 8.69061390e-04 5.21436846e-03 2.31749704e-03
      5.79374260e-04 1.44843571e-03 1.33256083e-02 3.76593275e-03
      3.47624556e-03 5.79374260e-04 3.18655837e-03 3.47624556e-03
      1.44843571e-03 4.05561971e-03 1.18771726e-02 4.34530713e-03
      4.92468104e-03 8.69061390e-04 8.69061390e-04 1.73812285e-02
      5.79374284e-03 2.02780985e-03 2.89687142e-03 5.79374260e-04
      5.21436846e-03 5.21436846e-03 1.73812278e-03 1.21668596e-02
      4.34530713e-03 2.46234052e-02 2.89687142e-03 5.21436846e-03
      3.18655837e-03 4.34530713e-03 3.47624556e-03 8.69061390e-04
      2.60718423e-03 6.66280417e-03 5.50405541e-03 8.40092637e-03
      3.76593275e-03 4.92468104e-03 9.26998816e-03 7.53186550e-03
      1.07184239e-02 1.15874857e-02 2.60718423e-03 8.69061390e-04
      2.02780985e-03 2.60718423e-03 2.60718423e-03 2.89687142e-03
      2.02780985e-03 4.05561971e-03 1.44843571e-03 1.44843562e-02
      4.05561971e-03 6.66280417e-03 5.79374260e-04 1.73812278e-03
      5.21436846e-03 2.60718423e-03 2.31749704e-03 1.73812278e-03
      5.79374260e-04 5.79374260e-04 1.44843571e-03 5.50405541e-03
      4.08458859e-02 8.69061390e-04 4.05561971e-03 1.44843571e-03
      5.50405541e-03 1.44843571e-03 2.31749704e-03 2.89687130e-04
      1.44843571e-03 4.34530713e-03 2.89687142e-03 6.95249112e-03
      6.95249112e-03 6.95249112e-03 2.89687142e-03 3.18655837e-03
      2.31749704e-03 7.82155246e-03 5.79374284e-03 4.05561971e-03
      4.05561971e-03 1.73812278e-03 4.92468104e-03 1.10081108e-02
      7.82155246e-03 2.02780985e-03 8.11123941e-03 2.31749704e-03
      1.73812278e-03 2.60718423e-03 1.73812278e-03 1.44843571e-03
      2.60718423e-03 3.18655837e-03 2.60718423e-03 6.08342979e-03
      5.50405541e-03 1.15874852e-03 1.15874852e-03 5.79374284e-03
      5.79374284e-03 3.76593275e-03 2.60718423e-03 4.92468104e-03
      1.73812278e-03 1.70915406e-02 3.18655837e-03 8.69061390e-04
      8.69061390e-04 6.66280417e-03 6.95249112e-03 2.31749704e-03
      4.05561971e-03 2.89687142e-03 6.37311675e-03 7.53186550e-03
      6.95249112e-03 1.73812278e-03 4.05561971e-03 5.79374260e-04
      1.07184239e-02 1.65121667e-02 2.60718423e-03 4.63499408e-03
      8.69061390e-04 5.79374260e-04 1.15874852e-03 5.79374260e-04
      1.73812278e-03 1.27462335e-02 1.15874857e-02 2.31749704e-03
      7.53186550e-03 4.92468104e-03 1.73812278e-03 3.47624556e-03
      4.92468104e-03 1.73812278e-03 7.82155246e-03 8.69061390e-04
      6.37311675e-03 1.53534180e-02 2.89687142e-03 3.47624556e-03
      2.31749704e-03 2.02780985e-03 4.63499408e-03 3.47624556e-03</_>
    <_>
      1.31147541e-03 0. 5.90163935e-03 4.59016394e-03 2.62295082e-03
      1.96721312e-03 1.50819672e-02 8.52459017e-03 1.31147541e-03
      8.52459017e-03 5.90163935e-03 1.11475410e-02 0. 1.31147541e-03
      5.24590164e-03 3.27868853e-03 0. 3.27868853e-03 2.62295082e-03 0.
      3.93442623e-03 6.55737706e-03 2.62295082e-03 5.90163935e-03
      1.37704918e-02 3.93442623e-03 5.24590164e-03 0. 4.59016394e-03
      3.93442623e-03 0. 1.96721312e-03 7.86885247e-03 3.93442623e-03
      1.57377049e-02 2.62295082e-03 1.31147541e-03 5.24590164e-03
      5.24590164e-03 3.93442623e-03 9.83606558e-03 1.96721312e-03
      6.55737706e-04 0. 3.27868853e-03 4.59016394e-03 9.83606558e-03
      1.31147541e-03 1.96721312e-03 2.62295082e-03 8.52459017e-03
      1.11475410e-02 6.55737706e-04 1.96721312e-03 8.52459017e-03
      6.55737706e-04 2.62295082e-03 1.50819672e-02 4.91803288e-02
      1.96721312e-03 3.27868853e-03 6.55737706e-04 5.90163935e-03
      1.31147541e-03 4.59016394e-03 1.31147541e-03 0. 3.93442623e-03
      1.96721312e-03 1.31147541e-03 1.31147541e-03 1.96721312e-03
      6.55737706e-03 3.27868853e-03 1.11475410e-02 9.83606558e-03
      2.62295082e-03 6.55737706e-04 5.24590164e-03 2.62295082e-03
      1.31147541e-03 3.27868853e-03 7.86885247e-03 9.83606558e-03
      6.55737706e-04 7.21311476e-03 1.57377049e-02 2.62295082e-03
      4.59016394e-03 2.09836066e-02 6.55737706e-03 3.27868853e-03
      1.63934417e-02 1.96721312e-03 2.62295082e-03 5.24590164e-03
      5.90163935e-03 3.27868853e-03 1.31147541e-03 0. 1.63934417e-02
      9.18032788e-03 5.24590164e-03 3.27868853e-03 1.31147541e-03
      7.21311476e-03 3.93442623e-03 7.21311476e-03 1.96721312e-03
      5.24590164e-03 1.31147541e-03 5.90163935e-03 1.57377049e-02
      1.96721312e-03 0. 3.93442623e-03 3.93442623e-03 1.31147541e-03 0.
      1.96721312e-03 2.62295082e-03 1.96721312e-03 7.21311476e-03
      2.62295082e-03 6.55737706e-04 9.18032788e-03 1.31147541e-03
      5.24590164e-03 7.21311476e-03 6.55737706e-04 6.55737706e-04
      7.21311476e-03 2.62295082e-03 9.83606558e-03 1.31147541e-03
      1.96721312e-03 1.57377049e-02 1.31147541e-03 1.31147541e-02
      1.31147541e-03 3.93442623e-03 3.27868853e-03 3.27868853e-03
      3.93442623e-03 6.55737706e-03 3.27868853e-03 3.93442623e-03
      4.59016394e-03 6.55737706e-03 4.59016394e-03 6.55737706e-04
      1.31147541e-03 1.31147541e-03 1.24590164e-02 1.31147541e-03
      3.27868853e-03 0. 6.55737706e-04 5.24590164e-03 3.27868853e-03
      1.11475410e-02 1.18032787e-02 8.52459017e-03 5.90163935e-03
      1.31147541e-03 1.31147541e-03 1.24590164e-02 4.59016394e-03
      1.37704918e-02 5.24590164e-03 6.55737706e-04 1.31147541e-03
      6.55737706e-04 1.50819672e-02 3.93442623e-03 2.62295082e-03
      3.27868853e-03 3.93442623e-03 6.55737706e-03 0. 4.59016394e-03
      1.31147541e-03 1.57377049e-02 1.96721312e-03 5.24590164e-03
      2.62295082e-03 7.86885247e-03 2.62295082e-03 5.24590164e-03
      2.62295082e-03 8.52459017e-03 0. 6.55737706e-03 1.31147541e-03
      1.96721312e-02 1.18032787e-02 3.27868853e-03 1.31147541e-03
      1.96721312e-03 9.83606558e-03</_>
    <_>
      0. 8.19000823e-04 4.91400482e-03 4.09500394e-03 4.91400482e-03
      3.27600329e-03 1.22850128e-02 9.00900923e-03 1.63800165e-03
      1.06470110e-02 8.19000823e-04 1.71990171e-02 0. 8.19000823e-04
      4.91400482e-03 6.55200658e-03 8.19000823e-04 4.91400482e-03
      5.73300570e-03 0. 8.19000823e-04 7.37100746e-03 8.19000823e-04
      1.63800165e-03 4.91400482e-03 2.45700241e-03 7.37100746e-03 0.
      9.82800964e-03 5.73300570e-03 8.19000823e-04 2.45700241e-03
      1.14660114e-02 1.63800165e-03 9.00900923e-03 3.27600329e-03 0.
      3.27600329e-03 4.09500394e-03 6.55200658e-03 4.09500394e-03
      4.09500394e-03 0. 8.19000823e-04 5.73300570e-03 6.55200658e-03
      9.00900923e-03 0. 3.27600329e-03 1.22850128e-02 4.91400482e-03
      1.14660114e-02 8.19000823e-04 1.63800165e-03 2.45700241e-03
      2.45700241e-03 8.19000823e-04 9.82800964e-03 5.32350540e-02
      8.19000823e-04 0. 4.09500394e-03 1.31040132e-02 8.19000823e-04
      8.19000823e-04 8.19000823e-04 0. 8.19000823e-04 1.63800165e-03
      1.63800165e-03 1.63800165e-03 3.27600329e-03 7.37100746e-03
      7.37100746e-03 1.80180185e-02 7.37100746e-03 3.27600329e-03
      1.63800165e-03 2.45700241e-03 9.00900923e-03 0. 2.45700241e-03
      7.37100746e-03 9.00900923e-03 4.09500394e-03 9.00900923e-03
      1.22850128e-02 0. 1.06470110e-02 2.29320228e-02 4.91400482e-03
      4.91400482e-03 2.45700241e-03 1.63800165e-03 3.27600329e-03
      5.73300570e-03 5.73300570e-03 8.19000823e-04 2.45700241e-03 0.
      1.14660114e-02 7.37100746e-03 1.63800165e-03 2.45700241e-03 0.
      1.63800165e-03 4.09500394e-03 4.91400482e-03 1.63800165e-03
      1.63800165e-03 3.27600329e-03 3.27600315e-02 1.71990171e-02
      5.73300570e-03 8.19000823e-04 3.27600329e-03 1.47420149e-02 0.
      8.19000823e-04 3.27600329e-03 2.45700241e-03 4.09500394e-03
      5.73300570e-03 0. 8.19000788e-03 4.09500394e-03 8.19000823e-04
      1.63800165e-03 2.45700241e-03 8.19000823e-04 0. 8.19000788e-03
      8.19000823e-04 3.27600329e-03 1.63800165e-03 2.45700241e-03
      1.63800165e-03 0. 1.06470110e-02 1.63800165e-03 1.63800165e-03
      8.19000788e-03 8.19000823e-04 8.19000823e-04 4.09500394e-03
      4.09500394e-03 3.27600329e-03 3.27600329e-03 2.45700241e-03
      1.63800165e-03 1.63800165e-03 8.19000823e-04 1.63800165e-03
      1.31040132e-02 1.63800165e-03 4.91400482e-03 1.63800165e-03 0.
      2.12940220e-02 4.09500394e-03 8.19000788e-03 7.37100746e-03
      4.91400482e-03 1.31040132e-02 1.63800165e-03 4.91400482e-03
      1.06470110e-02 5.73300570e-03 8.19000788e-03 2.45700241e-03
      8.19000823e-04 8.19000823e-04 0. 2.53890250e-02 3.27600329e-03
      6.55200658e-03 1.63800165e-03 2.45700241e-03 3.27600329e-03
      1.63800165e-03 4.09500394e-03 2.45700241e-03 1.47420149e-02
      3.27600329e-03 7.37100746e-03 4.09500394e-03 4.91400482e-03
      2.45700241e-03 4.91400482e-03 8.19000823e-04 1.47420149e-02
      2.45700241e-03 9.00900923e-03 0. 1.63800158e-02 5.73300570e-03
      4.91400482e-03 1.63800165e-03 1.63800165e-03 1.47420149e-02</_>
    <_>
      7.28597445e-03 9.10746807e-04 7.28597445e-03 6.37522759e-03
      7.28597445e-03 2.73224036e-03 1.27504552e-02 5.46448072e-03
      1.82149361e-03 9.10746807e-04 5.46448072e-03 1.00182146e-02
      1.82149361e-03 1.82149361e-03 6.37522759e-03 2.73224036e-03
      3.64298723e-03 3.64298723e-03 2.73224036e-03 4.55373386e-03
      6.37522759e-03 9.10746807e-04 9.10746807e-04 3.64298723e-03
      1.27504552e-02 7.28597445e-03 5.46448072e-03 5.46448072e-03
      1.82149361e-03 1.82149361e-03 3.64298723e-03 2.73224036e-03 0.
      4.55373386e-03 1.00182146e-02 2.73224036e-03 2.27686707e-02
      2.73224036e-03 6.37522759e-03 2.73224036e-03 9.10746772e-03
      1.82149361e-03 1.82149361e-03 1.82149361e-03 1.82149361e-03
      5.46448072e-03 1.27504552e-02 4.55373386e-03 9.10746807e-04
      9.10746807e-04 7.28597445e-03 1.82149361e-03 1.82149361e-03
      3.64298723e-03 5.46448072e-03 2.73224036e-03 2.73224036e-03
      9.10746807e-04 9.10746772e-03 3.64298723e-03 9.10746807e-04
      9.10746807e-04 1.82149361e-03 1.18397083e-02 6.37522759e-03
      2.73224036e-03 9.10746807e-04 3.64298723e-03 2.73224036e-03
      1.82149361e-03 1.82149361e-03 2.73224036e-03 3.64298723e-03
      1.82149361e-03 2.00364292e-02 4.55373386e-03 5.46448072e-03
      2.73224036e-03 8.19672085e-03 4.55373386e-03 3.64298723e-03
      7.28597445e-03 2.73224036e-03 7.28597445e-03 5.46448072e-03
      6.37522759e-03 7.28597445e-03 2.73224036e-03 1.00182146e-02
      8.19672085e-03 1.18397083e-02 6.37522759e-03 0. 1.82149361e-03
      5.46448072e-03 5.46448072e-03 1.36612020e-02 1.82149361e-03
      1.82149361e-03 9.10746772e-03 1.09289614e-02 8.19672085e-03
      9.10746807e-04 2.73224036e-03 9.10746807e-04 2.73224036e-03
      1.82149361e-03 6.37522759e-03 3.64298723e-03 3.64298723e-03
      5.46448072e-03 8.19672085e-03 2.09471770e-02 1.82149361e-03
      3.64298723e-03 4.55373386e-03 7.28597445e-03 9.10746807e-04
      2.73224036e-03 9.10746807e-04 3.64298723e-03 5.46448072e-03
      2.73224036e-03 5.46448072e-03 1.82149361e-03 1.82149361e-03
      1.82149361e-03 9.10746807e-04 2.73224036e-03 1.82149361e-03
      5.46448072e-03 8.19672085e-03 3.64298723e-03 1.45719489e-02
      2.73224036e-03 5.46448072e-03 1.45719489e-02 9.10746807e-04
      1.45719489e-02 3.64298723e-03 4.55373386e-03 7.28597445e-03
      9.10746807e-04 3.64298723e-03 1.82149361e-03 8.19672085e-03
      1.82149361e-03 8.19672085e-03 6.37522759e-03 0. 0. 1.82149361e-03
      9.10746807e-04 8.19672085e-03 1.82149361e-03 1.82149361e-03 0.
      8.19672085e-03 7.28597445e-03 2.73224036e-03 1.00182146e-02 0.
      9.10746772e-03 1.54826958e-02 3.64298723e-03 4.55373386e-03
      1.54826958e-02 1.18397083e-02 2.27686707e-02 6.37522759e-03
      9.10746807e-04 9.10746807e-04 2.73224036e-03 1.00182146e-02 0.
      5.46448072e-03 2.73224036e-03 5.46448072e-03 9.10746807e-04
      1.82149361e-03 4.55373386e-03 9.10746772e-03 2.73224036e-03 0.
      1.18397083e-02 4.55373386e-03 4.55373386e-03 5.46448072e-03
      6.37522759e-03 4.55373386e-03 9.10746772e-03 1.82149361e-03
      3.64298723e-03 5.46448072e-03 8.19672085e-03 9.10746807e-04
      2.73224036e-03 1.09289614e-02 2.73224036e-03 6.37522759e-03</_>
    <_>
      4.48179292e-03 1.28851542e-02 5.60224103e-03 5.04201697e-03
      3.92156886e-03 3.92156886e-03 2.80112051e-03 2.80112051e-03
      1.12044823e-03 2.80112051e-03 5.60224114e-04 1.73669476e-02
      1.12044823e-03 1.12044823e-03 6.16246508e-03 5.60224114e-04
      2.80112051e-03 3.92156886e-03 2.24089646e-03 3.36134480e-03
      3.36134480e-03 0. 3.36134480e-03 3.92156886e-03 3.41736712e-02
      3.36134480e-03 1.17647061e-02 1.12044823e-03 1.68067240e-03
      6.16246508e-03 5.60224114e-04 5.60224114e-04 2.24089646e-03
      6.16246508e-03 1.68067235e-02 2.24089646e-03 1.06442580e-02
      1.12044823e-03 1.68067240e-03 2.24089646e-03 1.40056033e-02
      1.68067240e-03 1.12044823e-03 5.60224114e-04 2.24089646e-03
      1.12044823e-03 3.92156886e-03 5.04201697e-03 1.68067240e-03 0.
      1.12044821e-02 2.80112051e-03 5.60224114e-04 1.68067240e-03
      3.36134480e-03 3.36134480e-03 1.68067240e-03 1.56862754e-02
      2.96918787e-02 3.36134480e-03 1.12044823e-03 1.68067240e-03
      6.16246508e-03 3.92156886e-03 1.73669476e-02 2.24089646e-03
      4.48179292e-03 7.28291366e-03 3.92156886e-03 2.24089646e-03 0.
      3.36134480e-03 3.36134480e-03 8.40336177e-03 2.18487401e-02
      1.12044823e-03 1.68067240e-03 5.04201697e-03 5.60224114e-04
      5.60224114e-04 5.60224114e-04 0. 9.52380989e-03 1.06442580e-02
      1.56862754e-02 2.80112051e-03 3.36134480e-03 1.12044823e-03
      6.16246508e-03 8.40336177e-03 1.68067240e-03 0. 0. 3.92156886e-03
      0. 1.12044823e-03 5.04201697e-03 1.06442580e-02 2.80112051e-03
      1.12044823e-03 9.52380989e-03 9.52380989e-03 2.24089646e-03
      2.80112051e-03 2.24089646e-03 2.24089646e-03 1.68067240e-03
      3.36134480e-03 1.68067240e-03 1.68067240e-03 2.24089646e-03
      1.73669476e-02 4.81792726e-02 1.68067240e-03 4.48179292e-03
      1.68067240e-03 5.60224114e-04 2.24089646e-03 2.24089646e-03
      3.92156886e-03 2.24089646e-03 3.36134480e-03 2.80112051e-03
      2.80112051e-03 3.41736712e-02 1.68067240e-03 3.36134480e-03
      1.68067240e-03 1.12044823e-03 0. 2.80112051e-03 4.48179292e-03
      9.52380989e-03 1.12044823e-03 5.60224103e-03 2.24089646e-03
      7.84313772e-03 1.12044823e-03 1.06442580e-02 0. 2.80112051e-03
      3.92156886e-03 1.68067240e-03 2.80112051e-03 1.12044823e-03
      1.68067240e-03 1.12044823e-03 5.60224103e-03 2.80112051e-03 0.
      1.68067240e-03 1.68067240e-03 5.60224114e-04 4.48179292e-03
      1.12044823e-03 5.60224114e-04 5.60224114e-04 2.24089646e-03
      3.36134480e-03 1.68067240e-03 1.45658273e-02 1.12044823e-03
      2.01680679e-02 8.40336177e-03 3.92156886e-03 1.68067240e-03
      6.72268961e-03 5.60224103e-03 2.63305325e-02 3.36134480e-03
      2.80112051e-03 2.24089646e-03 5.60224114e-04 5.60224103e-03
      1.68067240e-03 3.92156886e-03 8.96358583e-03 1.68067240e-03
      2.24089646e-03 0. 5.60224114e-04 6.72268961e-03 4.48179292e-03
      6.72268961e-03 1.68067235e-02 7.28291366e-03 4.48179292e-03
      1.28851542e-02 7.84313772e-03 2.24089646e-03 6.72268961e-03
      1.68067240e-03 1.68067240e-03 1.68067240e-03 2.07282919e-02
      7.84313772e-03 4.48179292e-03 6.72268961e-03 7.28291366e-03
      4.48179292e-03</_>
    <_>
      1.15911476e-02 2.10748147e-03 0. 1.05374074e-03 6.32244442e-03
      3.16122221e-03 6.32244442e-03 9.48366709e-03 2.10748147e-03
      1.05374074e-03 8.42992589e-03 7.37618515e-03 0. 2.10748147e-03
      8.42992589e-03 1.05374074e-03 3.16122221e-03 6.32244442e-03
      1.05374074e-03 6.32244442e-03 5.26870368e-03 1.05374074e-03
      3.16122221e-03 6.32244442e-03 1.68598518e-02 1.36986300e-02
      3.16122221e-03 5.26870368e-03 2.10748147e-03 1.05374074e-03 0.
      3.16122221e-03 1.05374074e-03 3.16122221e-03 8.42992589e-03
      1.05374074e-03 1.89673342e-02 0. 8.42992589e-03 1.05374074e-03
      8.42992589e-03 3.16122221e-03 1.05374074e-03 1.05374074e-03
      1.05374074e-03 3.16122221e-03 1.05374074e-02 3.16122221e-03
      2.10748147e-03 0. 8.42992589e-03 0. 5.26870368e-03 4.21496294e-03
      7.37618515e-03 1.05374074e-03 1.05374074e-03 7.37618515e-03
      2.63435189e-02 1.05374074e-03 1.05374074e-03 3.16122221e-03
      3.16122221e-03 1.36986300e-02 4.21496294e-03 1.05374074e-03
      6.32244442e-03 7.37618515e-03 0. 3.16122221e-03 0. 3.16122221e-03
      3.16122221e-03 9.48366709e-03 1.89673342e-02 1.05374074e-03
      6.32244442e-03 5.26870368e-03 9.48366709e-03 4.21496294e-03
      2.10748147e-03 3.16122221e-03 6.32244442e-03 9.48366709e-03
      1.05374074e-03 2.10748147e-03 1.36986300e-02 1.05374074e-03
      1.05374074e-03 1.05374074e-02 7.37618515e-03 4.21496294e-03 0.
      2.10748147e-03 2.10748147e-03 3.16122221e-03 4.21496294e-03
      2.10748147e-03 2.10748147e-03 4.21496294e-03 1.26448888e-02
      1.47523703e-02 2.10748147e-03 1.05374074e-03 4.21496294e-03
      2.10748147e-03 3.16122221e-03 8.42992589e-03 2.10748147e-03
      4.21496294e-03 1.05374074e-03 3.16122221e-03 2.10748147e-02
      5.26870368e-03 2.10748147e-03 2.10748147e-03 9.48366709e-03
      4.21496294e-03 0. 2.10748147e-03 5.26870368e-03 2.10748147e-03
      3.16122221e-03 3.16122221e-03 4.21496294e-03 4.21496294e-03
      2.10748147e-03 0. 4.21496294e-03 3.16122221e-03 1.05374074e-03
      4.21496294e-03 1.05374074e-03 8.42992589e-03 1.05374074e-03
      5.26870368e-03 1.15911476e-02 2.10748147e-03 1.68598518e-02
      3.16122221e-03 5.26870368e-03 2.10748147e-03 2.10748147e-03
      1.05374074e-03 1.05374074e-03 5.26870368e-03 5.26870368e-03
      8.42992589e-03 7.37618515e-03 0. 1.05374074e-03 1.05374074e-03 0.
      1.05374074e-02 0. 6.32244442e-03 4.21496294e-03 7.37618515e-03
      1.79135930e-02 5.26870368e-03 1.89673342e-02 0. 1.47523703e-02
      1.68598518e-02 5.26870368e-03 1.05374074e-03 4.21496294e-03
      6.32244442e-03 2.52897777e-02 3.16122221e-03 2.10748147e-03
      7.37618515e-03 1.05374074e-03 1.05374074e-02 6.32244442e-03
      3.16122221e-03 2.10748147e-03 8.42992589e-03 0. 1.05374074e-03
      1.05374074e-03 1.58061106e-02 8.42992589e-03 0. 8.42992589e-03
      7.37618515e-03 3.16122221e-03 6.32244442e-03 3.16122221e-03
      2.10748147e-03 8.42992589e-03 0. 4.21496294e-03 4.21496294e-03
      6.32244442e-03 5.26870368e-03 3.16122221e-03 6.32244442e-03
      3.16122221e-03 8.42992589e-03</_>
    <_>
      6.73997914e-03 1.24157509e-02 2.12841434e-03 7.09471467e-04
      4.25682869e-03 2.12841434e-03 7.09471479e-03 3.54735740e-03
      1.77367870e-03 1.77367870e-03 2.48315022e-03 7.80418608e-03
      2.83788587e-03 3.54735734e-04 5.32103609e-03 1.06420717e-03
      1.77367870e-03 6.38524303e-03 4.96630045e-03 1.77367870e-03
      1.17062796e-02 2.48315022e-03 4.96630045e-03 7.80418608e-03
      1.98652018e-02 5.67577174e-03 8.51365738e-03 1.41894293e-03
      3.54735740e-03 2.83788587e-03 3.54735734e-04 1.41894293e-03
      4.96630045e-03 1.20610148e-02 1.13515435e-02 1.41894293e-03
      1.66725796e-02 2.48315022e-03 8.51365738e-03 3.90209304e-03
      9.22312867e-03 2.83788587e-03 3.90209304e-03 3.54735740e-03
      7.09471467e-04 4.25682869e-03 7.09471479e-03 2.83788587e-03
      2.48315022e-03 2.12841434e-03 1.38346935e-02 1.41894293e-03
      3.54735740e-03 2.83788587e-03 6.03050739e-03 3.19262152e-03
      1.77367870e-03 1.41894293e-03 7.80418608e-03 4.25682869e-03
      3.54735734e-04 4.61156433e-03 1.34799583e-02 5.32103609e-03
      1.02873361e-02 3.90209304e-03 3.19262152e-03 2.48315022e-03
      1.41894293e-03 3.90209304e-03 2.83788587e-03 2.12841434e-03
      1.20610148e-02 4.96630045e-03 6.38524303e-03 2.12841434e-03
      2.12841434e-03 2.48315022e-03 6.03050739e-03 2.12841434e-03
      6.38524303e-03 7.09471467e-04 8.51365738e-03 1.02873361e-02
      3.19262152e-03 7.44945044e-03 6.73997914e-03 1.77367870e-03
      1.88009944e-02 1.06420722e-02 8.15892220e-03 5.67577174e-03
      3.54735734e-04 5.32103609e-03 6.38524303e-03 5.67577174e-03
      1.09968074e-02 7.09471467e-04 4.96630045e-03 1.06420717e-03
      1.13515435e-02 9.93260089e-03 1.41894293e-03 3.19262152e-03
      2.83788587e-03 3.19262152e-03 1.41894293e-03 9.57786478e-03
      4.25682869e-03 1.41894293e-03 4.25682869e-03 6.73997914e-03
      4.96630045e-03 1.77367870e-03 7.09471467e-04 3.19262152e-03
      4.96630045e-03 2.12841434e-03 5.32103609e-03 3.19262152e-03
      3.90209304e-03 3.90209304e-03 2.48315022e-03 3.54735734e-04
      2.48315022e-03 2.12841434e-03 7.09471467e-04 2.48315022e-03
      1.77367870e-03 2.12841434e-03 2.12841434e-03 7.09471479e-03
      5.67577174e-03 9.22312867e-03 4.25682869e-03 3.90209304e-03
      6.03050739e-03 2.48315022e-03 1.20610148e-02 3.90209304e-03
      4.96630045e-03 2.48315022e-03 2.83788587e-03 1.41894293e-03
      2.83788587e-03 1.38346935e-02 3.54735740e-03 5.32103609e-03
      3.19262152e-03 7.09471467e-04 2.12841434e-03 2.12841434e-03
      1.77367870e-03 8.15892220e-03 1.41894293e-03 1.41894293e-03
      1.77367870e-03 2.48315022e-03 1.77367870e-03 4.96630045e-03
      1.24157509e-02 2.48315022e-03 2.23483518e-02 3.90209304e-03
      1.77367870e-03 7.09471479e-03 8.86839349e-03 8.51365738e-03
      1.70273148e-02 4.25682869e-03 1.77367870e-03 4.96630045e-03
      2.83788587e-03 8.86839349e-03 1.77367870e-03 1.06420722e-02
      3.19262152e-03 4.61156433e-03 1.77367870e-03 3.54735734e-04
      5.32103609e-03 7.44945044e-03 3.54735740e-03 7.09471467e-04
      1.95104647e-02 7.80418608e-03 7.44945044e-03 9.22312867e-03
      3.90209304e-03 2.83788587e-03 7.44945044e-03 3.19262152e-03
      8.86839349e-03 7.09471467e-04 4.96630045e-03 2.12841434e-03
      6.03050739e-03 1.02873361e-02 9.22312867e-03 5.32103609e-03</_>
    <_>
      5.83941583e-03 1.45985391e-02 7.29926955e-03 4.37956210e-03 0.
      1.45985396e-03 8.75912420e-03 2.91970791e-03 2.91970791e-03
      2.91970791e-03 1.45985396e-03 4.23357636e-02 0. 0. 1.75182484e-02
      0. 0. 1.45985396e-03 0. 2.91970791e-03 7.29926955e-03 0.
      4.37956210e-03 1.45985396e-03 1.31386854e-02 5.83941583e-03
      1.02189779e-02 2.91970791e-03 1.45985396e-03 4.37956210e-03 0.
      4.37956210e-03 0. 1.45985396e-03 1.60583928e-02 7.29926955e-03
      2.91970791e-03 1.45985396e-03 4.37956210e-03 1.45985396e-03
      1.31386854e-02 1.45985396e-03 4.37956210e-03 0. 1.45985396e-03
      2.91970791e-03 4.37956210e-03 8.75912420e-03 1.45985396e-03 0.
      5.83941583e-03 4.37956210e-03 4.37956210e-03 1.45985396e-03
      7.29926955e-03 1.45985391e-02 0. 1.89781021e-02 2.33576633e-02
      2.91970791e-03 0. 0. 4.37956210e-03 0. 1.31386854e-02 0. 0.
      2.91970791e-03 1.45985396e-03 2.91970791e-03 0. 2.91970791e-03
      4.37956210e-03 2.18978096e-02 1.16788317e-02 1.45985396e-03
      1.45985396e-03 0. 4.37956210e-03 1.45985396e-03 1.45985396e-03
      1.45985396e-03 4.37956210e-03 8.75912420e-03 2.91970791e-03 0.
      1.16788317e-02 1.45985396e-03 7.29926955e-03 2.91970791e-03
      4.37956210e-03 0. 0. 1.45985396e-03 0. 0. 2.91970791e-03
      4.37956210e-03 1.45985396e-03 2.91970791e-03 1.45985391e-02
      2.91970791e-03 0. 0. 2.91970791e-03 2.91970791e-03 1.45985396e-03
      4.37956210e-03 2.91970791e-03 1.45985396e-03 0. 4.37956210e-03
      1.72262773e-01 0. 4.37956210e-03 0. 4.37956210e-03 1.45985396e-03
      4.37956210e-03 1.45985396e-03 5.83941583e-03 4.37956210e-03
      2.91970791e-03 5.83941583e-03 4.96350341e-02 1.45985396e-03
      5.83941583e-03 0. 2.91970791e-03 1.16788317e-02 2.91970791e-03 0.
      2.91970791e-03 0. 1.45985396e-03 5.83941583e-03 2.91970791e-03
      1.45985396e-03 4.37956210e-03 0. 0. 0. 1.45985396e-03
      4.37956210e-03 0. 1.02189779e-02 1.45985396e-03 8.75912420e-03 0.
      0. 0. 1.45985396e-03 0. 1.45985396e-03 1.45985396e-03
      1.45985396e-03 1.45985396e-03 2.91970791e-03 0. 0. 5.83941583e-03
      1.45985396e-03 1.02189779e-02 2.91970791e-03 1.45985396e-03
      1.45985396e-03 5.83941583e-03 0. 1.31386854e-02 1.45985396e-03
      5.83941583e-03 0. 5.83941583e-03 7.29926955e-03 0. 1.45985396e-03
      1.45985396e-03 1.45985396e-03 0. 0. 0. 2.91970791e-03
      2.91970791e-03 5.83941583e-03 1.16788317e-02 4.37956210e-03 0.
      1.02189779e-02 1.02189779e-02 0. 1.16788317e-02 0. 2.91970791e-03
      0. 1.16788317e-02 0. 8.75912420e-03 8.75912420e-03 0.
      2.91970791e-03</_></support_vectors>
  <decision_functions>
    <_>
      <sv_count>20</sv_count>
      <rho>-9.9386406656713555e-01</rho>
      <alpha>
        3.5979812646071052e-01 3.6135403034714367e-02
        3.7209964338398543e-01 2.9498975638699998e-01
        2.4060578884288589e-02 4.5040017350444472e-01
        2.7001781600303393e-01 5.7633746834998578e-01
        5.5035538287225971e-01 5.8162243141005231e-02
        1.2370432023049896e-01 1. 2.7016970384105188e-01
        2.0762271492989084e-01 4.0614666897712998e-01 -1. -1. -1. -1.
        -1.</alpha>
      <index>
        0 1 2 3 4 5 6 7 8 9 10 11 12 13 14 15 16 17 18 19</index></_></decision_functions></my_svm>
</opencv_storage>
