<?xml version="1.0"?>
<opencv_storage>
<my_svm type_id="opencv-ml-svm">
  <svm_type>C_SVC</svm_type>
  <kernel><type>RBF</type>
    <gamma>1.</gamma></kernel>
  <C>1.</C>
  <term_criteria><epsilon>1.1920928955078125e-07</epsilon>
    <iterations>1000</iterations></term_criteria>
  <var_all>200</var_all>
  <var_count>200</var_count>
  <class_count>2</class_count>
  <class_labels type_id="opencv-matrix">
    <rows>1</rows>
    <cols>2</cols>
    <dt>i</dt>
    <data>
      0 1</data></class_labels>
  <sv_total>22</sv_total>
  <support_vectors>
    <_>
      5.86166466e-03 3.51699861e-03 3.51699861e-03 1.17233291e-03 0.
      2.34466582e-03 1.17233291e-03 1.28956623e-02 2.34466582e-03
      8.20633024e-03 5.86166466e-03 7.03399722e-03 1.17233291e-03
      3.51699861e-03 5.86166466e-03 9.37866326e-03 2.34466582e-03
      7.03399722e-03 2.34466582e-03 5.86166466e-03 5.86166466e-03
      2.34466582e-03 7.03399722e-03 2.34466582e-03 5.86166466e-03
      1.17233291e-03 2.34466582e-03 5.86166466e-03 5.86166466e-03
      3.51699861e-03 4.68933163e-03 5.86166466e-03 4.68933163e-03
      2.34466582e-03 9.37866326e-03 5.86166466e-03 1.75849944e-02
      3.51699861e-03 1.17233291e-03 1.17233291e-03 5.86166466e-03
      1.17233291e-03 2.34466582e-03 2.34466582e-03 3.51699861e-03
      3.51699861e-03 1.17233291e-03 2.34466582e-03 0. 4.68933163e-03
      1.17233291e-03 3.51699861e-03 2.34466582e-03 1.17233291e-03
      7.03399722e-03 3.51699861e-03 9.37866326e-03 1.40679944e-02
      7.03399722e-03 2.34466582e-03 4.68933163e-03 2.34466582e-03
      1.52403275e-02 8.20633024e-03 2.34466582e-03 9.37866326e-03
      1.17233291e-03 3.51699861e-03 8.20633024e-03 5.86166466e-03 0.
      2.34466582e-03 1.17233291e-03 2.34466582e-03 0. 1.17233291e-03
      2.34466582e-03 1.17233291e-03 2.34466582e-03 1.17233293e-02
      8.20633024e-03 2.34466582e-03 4.68933163e-03 2.34466582e-03
      2.11019926e-02 1.17233293e-02 3.51699861e-03 0. 1.17233291e-03
      3.51699861e-03 1.17233291e-03 3.51699861e-03 1.17233291e-03
      4.68933163e-03 3.51699861e-03 3.51699861e-03 7.03399722e-03
      2.34466582e-03 1.05509963e-02 5.86166466e-03 3.51699861e-03
      1.17233291e-03 1.17233291e-03 1.17233291e-03 1.17233291e-03
      4.68933163e-03 5.86166466e-03 0. 3.51699861e-03 1.17233291e-03
      9.37866326e-03 5.86166466e-03 1.75849944e-02 1.17233291e-03
      1.17233291e-03 5.86166466e-03 5.86166466e-03 3.51699861e-03
      7.03399722e-03 3.51699861e-03 1.40679944e-02 0. 2.34466582e-03
      1.52403275e-02 9.37866326e-03 3.28253210e-02 3.51699861e-03
      8.20633024e-03 5.86166466e-03 2.34466582e-03 1.17233291e-03
      3.51699861e-03 4.68933163e-03 3.51699861e-03 2.34466582e-03
      9.37866326e-03 5.86166466e-03 1.17233293e-02 8.20633024e-03 0.
      2.34466582e-03 0. 2.34466582e-03 1.17233291e-03 1.17233291e-03
      3.51699861e-03 4.68933163e-03 3.51699861e-03 1.17233291e-03
      2.34466582e-03 4.68933163e-03 1.05509963e-02 2.34466582e-03
      5.86166466e-03 1.17233291e-03 2.34466582e-03 1.17233291e-03
      2.34466582e-03 0. 3.51699861e-03 4.68933163e-03 3.51699861e-03
      1.52403275e-02 1.40679944e-02 3.51699861e-03 1.17233291e-03
      7.03399722e-03 1.17233291e-03 1.05509963e-02 4.68933163e-03
      4.68933163e-03 2.34466582e-03 9.37866326e-03 8.20633024e-03
      4.68933163e-03 2.34466582e-03 1.52403275e-02 0. 8.20633024e-03
      1.05509963e-02 3.51699861e-03 2.34466582e-03 7.03399722e-03
      1.17233291e-03 2.34466582e-03 3.51699861e-03 9.37866326e-03
      1.52403275e-02 9.37866326e-03 1.17233291e-03 3.51699861e-03
      1.17233291e-03 1.17233291e-03 1.17233293e-02 9.37866326e-03
      1.17233291e-03 1.17233291e-03 7.03399722e-03 5.86166466e-03
      3.04806549e-02</_>
    <_>
      7.16145849e-03 2.92968750e-03 7.81250000e-03 4.55729198e-03
      6.51041686e-04 4.23177099e-03 4.88281250e-03 3.25520849e-03
      5.53385448e-03 7.16145849e-03 6.51041698e-03 9.11458395e-03
      2.92968750e-03 3.58072924e-03 7.81250000e-03 2.60416674e-03
      1.95312500e-03 2.92968750e-03 5.20833349e-03 5.53385448e-03
      5.20833349e-03 1.30208337e-03 2.92968750e-03 6.83593750e-03
      3.25520849e-03 3.90625000e-03 1.62760424e-03 4.55729198e-03
      3.90625000e-03 1.30208337e-03 6.51041698e-03 9.44010448e-03
      5.20833349e-03 1.39973965e-02 4.88281250e-03 2.92968750e-03
      3.45052108e-02 2.60416674e-03 2.27864599e-03 2.27864599e-03
      2.92968750e-03 5.20833349e-03 3.90625000e-03 2.27864599e-03
      3.90625000e-03 9.76562500e-04 0. 3.25520849e-03 2.60416674e-03
      9.76562500e-04 1.95312500e-03 1.95312500e-03 3.58072924e-03
      7.48697948e-03 1.30208337e-03 4.23177099e-03 4.88281250e-03
      1.79036465e-02 1.17187500e-02 2.60416674e-03 6.83593750e-03
      2.92968750e-03 1.20442715e-02 6.83593750e-03 5.53385448e-03
      6.18489599e-03 3.58072924e-03 7.81250000e-03 3.58072924e-03
      3.25520843e-04 1.30208337e-03 1.95312500e-03 2.60416674e-03
      3.90625000e-03 1.20442715e-02 5.53385448e-03 6.18489599e-03
      1.95312500e-03 8.78906250e-03 1.62760424e-03 4.55729198e-03
      5.20833349e-03 4.55729198e-03 5.53385448e-03 1.95312500e-02
      4.88281250e-03 3.25520849e-03 4.55729198e-03 1.95312500e-03
      1.98567715e-02 1.62760424e-03 2.60416674e-03 2.60416674e-03
      3.58072924e-03 2.27864599e-03 1.95312500e-03 1.13932295e-02
      2.60416674e-03 8.78906250e-03 5.85937500e-03 7.81250000e-03
      3.58072924e-03 9.76562500e-04 1.30208337e-03 2.27864599e-03
      3.90625000e-03 3.90625000e-03 1.30208337e-03 1.30208337e-03
      1.62760424e-03 3.58072924e-03 1.20442715e-02 2.63671875e-02
      2.92968750e-03 2.92968750e-03 1.62760424e-03 7.81250000e-03
      5.20833349e-03 1.30208337e-03 5.53385448e-03 4.23177099e-03
      4.23177099e-03 2.27864599e-03 3.58072924e-03 6.83593750e-03
      2.60416679e-02 3.25520849e-03 9.76562500e-04 4.55729198e-03
      5.85937500e-03 9.76562500e-04 3.25520849e-03 3.90625000e-03
      4.88281250e-03 2.27864599e-03 1.13932295e-02 3.58072924e-03
      7.48697948e-03 1.75781250e-02 2.60416674e-03 1.62760424e-03
      2.60416674e-03 6.51041686e-04 6.51041686e-04 2.27864599e-03
      1.10677090e-02 3.58072924e-03 3.25520849e-03 6.51041686e-04
      3.25520849e-03 3.25520849e-03 2.60416674e-03 1.62760424e-03
      2.60416674e-03 3.25520849e-03 1.33463545e-02 7.16145849e-03
      1.62760424e-03 0. 4.88281250e-03 2.60416674e-03 2.92968750e-03
      1.13932295e-02 2.11588554e-02 3.58072924e-03 1.62760424e-03
      3.25520849e-03 3.25520849e-03 5.85937500e-03 4.23177099e-03
      2.60416674e-03 3.25520843e-04 4.55729198e-03 1.10677090e-02
      3.25520849e-03 1.95312500e-03 5.20833349e-03 1.30208337e-03
      5.53385448e-03 3.25520849e-03 1.30208337e-03 3.58072924e-03
      5.85937500e-03 3.58072924e-03 3.90625000e-03 3.90625000e-03
      1.10677090e-02 7.81250000e-03 3.90625000e-03 1.62760424e-03
      3.58072924e-03 4.23177099e-03 4.23177099e-03 4.55729198e-03
      1.30208337e-03 4.23177099e-03 6.18489599e-03 2.60416674e-03
      5.20833349e-03 1.30208340e-02</_>
    <_>
      5.32978028e-03 5.32978028e-03 4.66355775e-03 1.33244507e-02 0.
      4.66355775e-03 2.33177878e-02 0. 6.66222535e-03 5.32978028e-03
      6.66222535e-03 5.32978028e-03 3.33111268e-03 3.33111268e-03
      7.99467042e-03 4.66355775e-03 2.66489014e-03 4.66355775e-03
      7.32844789e-03 5.99600282e-03 3.33111268e-03 3.99733521e-03
      6.66222535e-04 2.66489014e-03 0. 6.66222535e-04 3.33111268e-03
      4.66355775e-03 5.32978028e-03 5.32978028e-03 7.99467042e-03
      5.99600282e-03 6.66222535e-03 2.06528977e-02 0. 3.99733521e-03
      1.33244507e-02 2.66489014e-03 8.66089296e-03 2.66489014e-03
      7.99467042e-03 9.32711549e-03 5.32978028e-03 4.66355775e-03
      1.99866761e-03 2.66489014e-03 6.66222535e-04 3.33111268e-03
      3.33111268e-03 3.33111268e-03 1.33244507e-03 2.66489014e-03
      4.66355775e-03 5.99600282e-03 6.66222535e-03 6.66222535e-03
      5.32978028e-03 1.06595606e-02 1.13257831e-02 2.66489014e-03
      1.73217859e-02 3.33111268e-03 5.32978028e-03 3.33111268e-03
      3.33111268e-03 5.32978028e-03 3.99733521e-03 5.32978028e-03 0.
      2.66489014e-03 3.99733521e-03 8.66089296e-03 3.33111268e-03
      1.33244507e-03 3.99733521e-03 1.99866761e-03 6.66222535e-03
      2.66489014e-03 7.32844789e-03 1.33244507e-03 5.32978028e-03
      5.32978028e-03 2.66489014e-03 1.26582282e-02 1.73217859e-02
      5.32978028e-03 5.99600282e-03 9.99333803e-03 1.99866761e-03
      5.32978028e-03 2.66489014e-03 2.66489014e-03 5.32978028e-03
      2.66489014e-03 2.66489014e-03 3.99733521e-03 1.33244507e-02 0.
      7.32844789e-03 1.99866761e-03 3.33111268e-03 3.99733521e-03
      3.33111268e-03 1.99866761e-03 5.32978028e-03 3.99733521e-03
      1.33244507e-03 4.66355775e-03 2.66489014e-03 6.66222535e-04
      3.99733521e-03 4.66355775e-03 1.06595606e-02 3.99733521e-03
      8.66089296e-03 5.32978028e-03 3.33111268e-03 4.66355775e-03
      2.66489014e-03 5.32978028e-03 6.66222535e-03 6.66222535e-03
      3.33111268e-03 1.13257831e-02 8.66089296e-03 1.13257831e-02
      3.33111268e-03 5.99600282e-03 3.99733521e-03 7.99467042e-03
      1.99866761e-03 1.33244507e-03 5.32978028e-03 2.66489014e-03
      4.66355775e-03 1.39906732e-02 5.32978028e-03 3.99733521e-03
      1.13257831e-02 1.33244507e-03 6.66222535e-04 2.66489014e-03
      3.33111268e-03 3.99733521e-03 8.66089296e-03 3.33111268e-03
      1.33244507e-03 1.33244507e-03 2.66489014e-03 5.32978028e-03
      3.99733521e-03 1.99866761e-03 6.66222535e-04 3.99733521e-03
      1.33244507e-03 1.99866761e-03 1.13257831e-02 1.99866761e-03 0.
      4.66355775e-03 2.66489014e-03 1.33244507e-03 9.32711549e-03
      1.13257831e-02 6.66222535e-03 3.99733521e-03 5.99600282e-03
      6.66222535e-03 6.66222535e-03 4.66355775e-03 3.33111268e-03
      5.32978028e-03 4.66355775e-03 1.59893408e-02 5.99600282e-03
      3.99733521e-03 7.99467042e-03 6.66222535e-04 5.32978028e-03
      6.66222535e-03 2.66489014e-03 1.99866761e-03 0. 1.13257831e-02
      3.99733521e-03 5.99600282e-03 2.66489014e-03 4.66355775e-03
      7.32844789e-03 4.66355775e-03 2.66489014e-03 3.33111268e-03
      3.33111268e-03 2.66489014e-03 1.33244507e-03 4.66355775e-03
      3.33111268e-03 3.33111268e-03 7.99467042e-03 1.99866761e-03</_>
    <_>
      2.75229360e-03 4.58715577e-03 7.33944960e-03 1.10091744e-02
      2.75229360e-03 6.42201863e-03 1.10091744e-02 0. 1.00917434e-02
      2.75229360e-03 1.19266054e-02 5.50458720e-03 7.33944960e-03
      8.25688057e-03 4.58715577e-03 5.50458720e-03 3.66972480e-03
      4.58715577e-03 4.58715577e-03 1.10091744e-02 5.50458720e-03 0.
      1.83486240e-03 1.00917434e-02 9.17431200e-04 1.83486240e-03
      2.75229360e-03 7.33944960e-03 4.58715577e-03 3.66972480e-03
      5.50458720e-03 3.66972480e-03 4.58715577e-03 1.28440373e-02
      4.58715577e-03 0. 1.10091744e-02 5.50458720e-03 1.83486231e-02
      6.42201863e-03 1.00917434e-02 1.19266054e-02 8.25688057e-03
      1.83486240e-03 4.58715577e-03 2.75229360e-03 0. 1.83486240e-03
      2.75229360e-03 4.58715577e-03 1.83486240e-03 4.58715577e-03
      3.66972480e-03 8.25688057e-03 4.58715577e-03 1.83486240e-03
      1.00917434e-02 8.25688057e-03 7.33944960e-03 2.75229360e-03
      1.10091744e-02 3.66972480e-03 1.00917434e-02 7.33944960e-03
      1.10091744e-02 4.58715577e-03 1.83486240e-03 2.75229360e-03
      1.83486240e-03 9.17431200e-04 5.50458720e-03 5.50458720e-03
      4.58715577e-03 2.75229360e-03 1.55963302e-02 1.83486240e-03
      5.50458720e-03 7.33944960e-03 8.25688057e-03 2.75229360e-03
      7.33944960e-03 1.83486240e-03 4.58715577e-03 9.17431153e-03
      1.37614682e-02 7.33944960e-03 1.00917434e-02 8.25688057e-03
      2.75229360e-03 1.10091744e-02 8.25688057e-03 4.58715577e-03
      1.83486240e-03 2.75229360e-03 9.17431200e-04 2.75229360e-03
      1.55963302e-02 0. 2.75229360e-03 1.83486240e-03 9.17431200e-04
      1.83486240e-03 9.17431153e-03 3.66972480e-03 2.75229360e-03
      1.46788992e-02 9.17431200e-04 1.83486240e-03 1.83486240e-03
      1.83486240e-03 0. 1.83486240e-03 1.83486240e-03 6.42201863e-03
      1.10091744e-02 9.17431200e-04 2.75229360e-03 1.83486240e-03
      2.75229360e-03 1.10091744e-02 4.58715577e-03 5.50458720e-03
      4.58715577e-03 3.66972480e-03 8.25688057e-03 4.58715577e-03
      9.17431200e-04 4.58715577e-03 5.50458720e-03 1.19266054e-02
      2.75229360e-03 2.75229360e-03 3.66972480e-03 1.83486240e-03
      3.66972480e-03 2.75229360e-03 3.66972480e-03 7.33944960e-03
      1.92660559e-02 1.83486240e-03 9.17431200e-04 2.75229360e-03
      4.58715577e-03 6.42201863e-03 7.33944960e-03 2.75229360e-03
      4.58715577e-03 0. 1.83486240e-03 3.66972480e-03 6.42201863e-03
      1.83486240e-03 3.66972480e-03 9.17431200e-04 9.17431200e-04
      1.83486240e-03 1.10091744e-02 1.83486240e-03 0. 1.83486240e-03 0.
      2.75229360e-03 6.42201863e-03 5.50458720e-03 6.42201863e-03
      5.50458720e-03 4.58715577e-03 8.25688057e-03 7.33944960e-03
      7.33944960e-03 2.75229360e-03 3.66972480e-03 3.66972480e-03
      1.28440373e-02 2.75229360e-03 8.25688057e-03 9.17431153e-03
      2.75229360e-03 3.66972480e-03 5.50458720e-03 2.75229360e-03
      3.66972480e-03 0. 6.42201863e-03 5.50458720e-03 4.58715577e-03
      3.66972480e-03 8.25688057e-03 4.58715577e-03 0. 1.83486240e-03
      1.83486240e-03 3.66972480e-03 3.66972480e-03 1.83486240e-03
      5.50458720e-03 3.66972480e-03 4.58715577e-03 3.66972480e-03
      1.83486240e-03</_>
    <_>
      1.44092215e-03 1.15273772e-02 0. 2.44956762e-02 0. 4.32276633e-03
      1.00864554e-02 0. 2.88184430e-03 4.32276633e-03 8.64553265e-03
      1.44092215e-03 2.88184430e-03 1.44092215e-03 1.44092217e-02 0. 0.
      4.32276633e-03 1.29682990e-02 1.44092215e-03 1.15273772e-02
      4.32276633e-03 0. 2.01729108e-02 2.88184430e-03 0. 7.20461085e-03
      4.32276633e-03 7.20461085e-03 4.32276633e-03 1.00864554e-02
      2.88184430e-03 1.15273772e-02 2.44956762e-02 0. 4.32276633e-03
      1.44092215e-03 7.20461085e-03 5.76368859e-03 2.88184430e-03
      7.20461085e-03 1.72910653e-02 4.32276633e-03 2.88184430e-03
      2.88184430e-03 1.44092215e-03 0. 2.88184430e-03 1.44092215e-03
      1.44092215e-03 5.76368859e-03 1.15273772e-02 4.32276633e-03
      2.88184430e-03 2.88184430e-03 8.64553265e-03 4.32276633e-03
      5.76368859e-03 1.44092215e-03 7.20461085e-03 1.44092217e-02
      1.44092215e-03 1.44092215e-03 7.20461085e-03 2.88184430e-03
      8.64553265e-03 1.00864554e-02 8.64553265e-03 1.44092215e-03 0. 0.
      4.32276633e-03 0. 1.44092215e-03 1.44092217e-02 0. 2.88184430e-03
      1.15273772e-02 4.32276633e-03 0. 4.32276633e-03 4.32276633e-03 0.
      8.64553265e-03 5.76368859e-03 2.88184430e-03 2.01729108e-02
      7.20461085e-03 2.88184430e-03 1.15273772e-02 4.32276633e-03
      1.00864554e-02 2.88184430e-03 0. 1.44092215e-03 2.88184430e-03
      1.29682990e-02 0. 1.44092215e-03 0. 0. 2.88184430e-03
      5.76368859e-03 2.88184430e-03 2.88184430e-03 2.01729108e-02
      1.44092215e-03 1.44092215e-03 1.44092215e-03 1.44092215e-03 0.
      4.32276633e-03 0. 2.88184430e-03 5.76368859e-03 5.76368859e-03 0.
      1.44092215e-03 2.88184430e-03 1.00864554e-02 0. 0. 1.44092215e-03
      7.20461085e-03 4.32276633e-03 0. 4.32276633e-03 2.88184430e-03
      1.58501435e-02 8.64553265e-03 1.44092215e-03 1.44092215e-03
      4.32276633e-03 4.32276633e-03 1.15273772e-02 2.88184430e-03
      1.44092217e-02 4.32276633e-03 6.62824214e-02 2.88184430e-03 0.
      7.20461085e-03 5.76368859e-03 2.88184430e-03 0. 0. 0.
      1.44092215e-03 2.88184430e-03 7.20461085e-03 8.64553265e-03 0.
      4.32276633e-03 1.44092215e-03 4.32276633e-03 2.88184430e-03
      7.20461085e-03 5.76368859e-03 0. 1.00864554e-02 5.76368859e-03
      5.76368859e-03 1.44092215e-03 4.32276633e-03 5.76368859e-03
      4.32276633e-03 7.20461085e-03 2.88184430e-03 1.44092215e-03
      7.20461085e-03 1.44092215e-03 1.44092215e-03 4.32276633e-03
      7.20461085e-03 2.88184430e-03 2.88184430e-03 0. 1.44092215e-03
      8.64553265e-03 1.44092215e-03 2.88184430e-03 8.64553265e-03 0.
      1.58501435e-02 2.88184430e-03 2.88184430e-03 2.88184430e-03
      4.32276633e-03 7.20461085e-03 0. 1.44092215e-03 0. 1.00864554e-02
      2.88184430e-03 2.88184430e-03 4.32276633e-03 5.76368859e-03
      1.44092215e-03 5.76368859e-03 1.44092215e-03</_>
    <_>
      2.99700303e-03 2.99700303e-03 0. 5.99400606e-03 1.99800194e-03 0.
      9.99000948e-03 0. 2.99700303e-03 1.39860138e-02 5.99400606e-03
      5.99400606e-03 2.99700303e-03 0. 1.09890103e-02 9.99000971e-04
      1.19880121e-02 9.99000971e-04 1.39860138e-02 2.99700303e-03
      9.99000971e-04 2.99700303e-03 9.99000971e-04 3.99600388e-03
      9.99000971e-04 9.99000971e-04 1.99800194e-03 2.09790207e-02 0.
      4.99500474e-03 5.99400606e-03 2.99700303e-03 7.99200777e-03
      1.39860138e-02 0. 2.99700303e-03 1.29870130e-02 0. 9.99000971e-04
      9.99000971e-04 1.89810190e-02 1.19880121e-02 3.99600388e-03
      2.99700303e-03 2.99700303e-03 4.99500474e-03 0. 2.99700303e-03
      6.99300691e-03 0. 0. 4.99500474e-03 1.99800194e-03 1.79820172e-02
      0. 1.99800194e-03 0. 7.99200777e-03 4.99500474e-03 9.99000971e-04
      4.99500474e-03 1.99800194e-03 0. 2.99700303e-03 0. 6.99300691e-03
      4.99500474e-03 5.99400606e-03 0. 0. 0. 1.99800194e-03
      2.99700303e-03 5.99400606e-03 3.99600388e-03 2.99700303e-03
      3.99600388e-03 2.99700303e-03 6.99300691e-03 0. 9.99000971e-04
      3.99600388e-03 2.99700303e-03 1.99800194e-03 3.29670310e-02
      3.99600388e-03 7.99200777e-03 1.99800194e-03 1.69830173e-02
      1.29870130e-02 0. 9.99000971e-04 1.59840155e-02 0. 9.99000971e-04
      0. 7.99200777e-03 9.99000971e-04 3.99600388e-03 9.99000971e-04
      2.09790207e-02 9.99000971e-04 1.99800194e-03 1.99800194e-03
      9.99000971e-04 4.99500474e-03 5.99400606e-03 3.99600388e-03
      9.99000971e-04 2.99700303e-03 9.99000971e-04 1.99800194e-03
      9.39060897e-02 0. 1.99800194e-03 1.99800194e-03 9.99000948e-03
      3.99600388e-03 4.99500474e-03 2.69730259e-02 0. 0. 3.99600388e-03
      1.69830173e-02 6.99300691e-03 1.99800190e-02 1.99800194e-03 0.
      2.99700303e-03 4.99500474e-03 0. 0. 5.99400606e-03 3.99600388e-03
      0. 1.09890103e-02 0. 3.99600388e-03 9.99000971e-04 1.09890103e-02
      0. 1.59840155e-02 0. 1.99800194e-03 5.99400606e-03 5.99400606e-03
      9.99000971e-04 9.99000971e-04 2.99700303e-03 5.99400606e-03
      9.99000971e-04 0. 2.99700303e-03 4.99500474e-03 9.99000971e-04
      8.99100862e-03 2.99700303e-03 1.99800194e-03 0. 1.99800194e-03
      3.99600388e-03 0. 1.49850147e-02 1.29870130e-02 3.99600388e-03
      1.99800194e-03 6.99300691e-03 2.99700303e-03 1.99800194e-03
      2.99700303e-03 0. 9.99000971e-04 9.99000971e-04 1.09890103e-02
      3.99600388e-03 1.49850147e-02 5.99400606e-03 7.99200777e-03
      3.99600388e-03 2.99700303e-03 9.99000971e-04 9.99000971e-04 0.
      1.99800194e-03 1.09890103e-02 2.99700303e-03 2.19780207e-02
      4.99500474e-03 9.99000971e-04 9.99000971e-04 9.99000971e-04
      3.99600388e-03 3.99600388e-03 0. 9.99000971e-04 0. 8.99100862e-03
      2.99700303e-03 2.99700303e-03 5.99400606e-03</_>
    <_>
      0. 1.60771701e-03 1.28617361e-02 4.01929254e-03 0. 8.03858507e-04
      8.03858507e-04 8.03858507e-04 4.82315104e-03 5.62700955e-03
      3.21543403e-03 1.36655942e-02 4.01929254e-03 3.21543403e-03
      6.43086806e-03 8.03858507e-04 2.41157552e-03 1.60771701e-03
      8.84244405e-03 1.20578781e-02 1.60771701e-03 8.03858507e-04 0.
      7.23472657e-03 8.03858507e-04 8.03858507e-04 0. 8.03858507e-03
      2.41157552e-03 0. 1.60771701e-03 5.62700955e-03 6.43086806e-03
      3.37620564e-02 6.43086806e-03 1.60771701e-03 1.76848881e-02
      1.60771701e-03 3.21543403e-03 0. 4.82315104e-03 4.82315104e-03
      2.41157552e-03 5.62700955e-03 1.60771701e-03 8.03858507e-04 0.
      2.41157552e-03 2.41157552e-03 2.41157552e-03 0. 0. 1.60771701e-03
      2.41157552e-03 1.60771701e-03 2.41157552e-03 8.03858507e-04
      3.85852084e-02 8.84244405e-03 0. 6.43086806e-03 0. 7.23472657e-03
      8.03858507e-04 3.21543403e-03 3.21543403e-03 4.82315104e-03
      3.21543403e-03 0. 0. 3.21543403e-03 0. 8.03858507e-04
      4.01929254e-03 2.41157552e-03 3.21543403e-03 6.43086806e-03
      2.41157552e-03 4.82315104e-03 7.23472657e-03 2.41157552e-03 0.
      7.23472657e-03 5.62700955e-03 1.33440509e-01 3.21543403e-03
      8.03858507e-03 9.64630209e-03 3.21543403e-03 1.68810282e-02
      2.41157552e-03 2.41157552e-03 3.21543403e-03 5.62700955e-03 0. 0.
      4.74276505e-02 0. 2.41157552e-03 2.41157552e-03 6.43086806e-03
      1.60771701e-03 2.41157552e-03 0. 5.62700955e-03 6.43086806e-03
      2.41157552e-03 0. 3.21543403e-03 8.03858507e-04 2.41157552e-03
      4.01929254e-03 4.90353703e-02 3.21543403e-03 8.03858507e-04 0.
      2.41157552e-03 4.82315104e-03 8.03858507e-04 1.52733121e-02 0.
      1.60771701e-03 2.41157552e-03 8.84244405e-03 8.03858507e-03
      1.12540191e-02 0. 1.60771701e-03 2.41157552e-03 8.03858507e-03
      8.03858507e-04 1.60771701e-03 3.21543403e-03 8.03858507e-04
      3.21543403e-03 2.41157552e-03 2.41157552e-03 6.43086806e-03
      2.65273303e-02 1.60771701e-03 0. 3.21543403e-03 8.03858507e-04
      3.21543403e-03 1.60771701e-03 4.82315104e-03 0. 1.60771701e-03
      2.41157552e-03 4.01929254e-03 2.41157552e-03 4.82315104e-03
      3.21543403e-03 8.03858507e-04 1.60771701e-03 3.21543403e-03
      2.41157552e-03 2.41157552e-03 0. 0. 1.60771701e-03 1.60771701e-03
      1.36655942e-02 1.20578781e-02 8.03858507e-04 2.41157552e-03
      2.41157552e-03 3.21543403e-03 3.21543403e-03 3.21543403e-03
      4.01929254e-03 8.03858507e-04 1.60771701e-03 1.28617361e-02
      3.21543403e-03 7.23472657e-03 4.82315104e-03 3.21543403e-03
      2.41157552e-03 0. 2.41157552e-03 1.60771701e-03 0. 8.84244405e-03
      4.01929254e-03 3.21543403e-03 3.45659144e-02 2.41157552e-03 0.
      2.41157552e-03 8.03858507e-04 2.41157552e-03 2.41157552e-03
      1.60771701e-03 1.60771701e-03 0. 8.03858507e-04 1.60771701e-03
      7.23472657e-03 0.</_>
    <_>
      5.80720080e-04 5.80720080e-04 4.64576064e-03 5.22648077e-03
      8.71080160e-03 1.16144016e-03 2.90360046e-03 2.90360046e-03
      1.85830425e-02 4.06504050e-03 1.33565618e-02 8.13008100e-03
      8.13008100e-03 8.71080160e-03 7.54936086e-03 1.10336812e-02
      2.90360046e-03 1.74216018e-03 4.64576064e-03 6.38792105e-03
      3.48432036e-03 2.32288032e-03 5.80720091e-03 5.22648077e-03
      1.74216018e-03 6.38792105e-03 5.22648077e-03 1.16144016e-03
      7.54936086e-03 1.74216018e-03 3.48432036e-03 4.64576064e-03
      4.64576064e-03 1.21951215e-02 1.16144016e-03 2.32288032e-03
      6.96864072e-03 1.74216018e-03 1.16144018e-02 4.64576064e-03
      4.64576064e-03 3.48432036e-03 2.90360046e-03 5.80720091e-03
      2.32288032e-03 2.90360046e-03 2.90360046e-03 2.90360046e-03
      1.74216018e-03 1.74216018e-03 5.80720091e-03 2.90360046e-03
      3.48432036e-03 4.06504050e-03 1.16144016e-03 1.74216018e-03
      6.96864072e-03 4.64576064e-03 1.16144018e-02 1.62601620e-02
      5.80720091e-03 5.80720080e-04 6.38792105e-03 1.74216018e-03
      1.04529615e-02 2.90360046e-03 4.64576064e-03 2.90360046e-03
      5.80720080e-04 1.74216018e-03 0. 1.74216018e-03 1.16144016e-03
      1.16144016e-03 3.48432036e-03 3.48432036e-03 3.48432036e-03
      4.06504050e-03 5.22648077e-03 1.16144016e-03 7.54936086e-03
      4.64576064e-03 6.38792105e-03 2.90360046e-03 3.48432036e-03
      3.48432036e-03 1.21951215e-02 1.39372814e-02 1.74216018e-03
      7.54936086e-03 1.74216018e-03 2.32288032e-03 5.80720080e-04
      6.38792105e-03 2.32288032e-03 2.32288032e-03 2.49709636e-02
      5.80720080e-04 3.48432036e-03 1.04529615e-02 1.04529615e-02
      1.74216018e-03 4.06504050e-03 4.06504050e-03 2.90360046e-03
      5.22648077e-03 2.32288032e-03 1.74216018e-03 2.32288032e-03
      1.56794414e-02 5.80720091e-03 5.80720091e-03 8.13008100e-03
      3.13588828e-02 6.38792105e-03 4.64576064e-03 1.10336812e-02
      2.32288032e-03 3.48432036e-03 3.48432036e-03 6.96864072e-03
      5.80720080e-04 6.38792105e-03 0. 6.38792105e-03 5.80720091e-03
      1.16144016e-03 1.16144016e-03 2.90360046e-03 7.54936086e-03 0.
      7.54936086e-03 4.06504050e-03 2.90360046e-03 3.48432036e-03
      5.22648077e-03 6.96864072e-03 4.06504050e-03 1.21951215e-02 0.
      1.74216018e-03 5.80720091e-03 4.06504050e-03 5.80720080e-04
      2.90360046e-03 4.06504050e-03 3.48432036e-03 5.22648077e-03
      1.16144016e-03 1.16144016e-03 6.38792105e-03 0. 1.16144016e-03
      2.32288032e-03 2.90360046e-03 4.06504050e-03 1.50987217e-02
      5.80720080e-04 0. 6.96864072e-03 5.22648077e-03 1.74216018e-03
      5.22648077e-03 6.38792105e-03 1.16144016e-03 3.13588828e-02
      3.48432036e-03 1.16144016e-03 5.80720080e-04 5.22648077e-03
      1.16144016e-03 1.16144016e-03 8.71080160e-03 1.21951215e-02
      6.96864072e-03 4.64576064e-03 2.90360046e-03 1.16144016e-03
      6.96864072e-03 5.80720091e-03 1.74216032e-02 4.64576064e-03
      4.06504050e-03 1.27758421e-02 1.33565618e-02 7.54936086e-03
      4.06504050e-03 1.74216018e-03 1.16144016e-03 5.80720080e-04
      2.32288032e-03 9.87224095e-03 3.48432036e-03 6.38792105e-03
      4.64576064e-03 4.64576064e-03 1.74216018e-03 2.90360046e-03
      2.90360046e-03 4.64576064e-03</_>
    <_>
      5.82241639e-03 0. 1.16448328e-02 5.82241639e-03 7.27802049e-03
      5.82241639e-03 1.16448328e-02 4.36681230e-03 1.16448328e-02
      1.01892287e-02 4.36681230e-03 2.91120820e-03 5.82241639e-03
      2.91120820e-03 5.82241639e-03 2.91120820e-03 1.45560410e-03
      7.27802049e-03 4.36681230e-03 8.73362459e-03 8.73362459e-03
      1.45560410e-03 2.91120820e-03 0. 2.91120820e-03 0. 1.45560410e-03
      1.01892287e-02 1.45560410e-03 4.36681230e-03 2.91120820e-03
      2.91120820e-03 7.27802049e-03 2.91120820e-03 0. 5.82241639e-03
      5.82241639e-03 1.45560410e-03 8.73362459e-03 5.82241639e-03
      1.45560410e-03 1.45560410e-03 5.82241639e-03 2.91120820e-03
      1.45560410e-03 7.27802049e-03 0. 1.45560410e-03 0. 0.
      4.36681230e-03 0. 1.31004369e-02 1.60116442e-02 1.45560410e-02
      4.36681230e-03 7.27802049e-03 0. 5.82241639e-03 5.82241639e-03
      7.27802049e-03 5.82241639e-03 4.36681230e-03 5.82241639e-03
      8.73362459e-03 7.27802049e-03 0. 1.16448328e-02 2.91120820e-03 0.
      0. 4.36681230e-03 1.45560410e-03 0. 5.82241639e-03 1.45560410e-03
      5.82241639e-03 2.91120820e-03 4.36681230e-03 0. 1.45560410e-03
      7.27802049e-03 1.45560410e-02 5.82241639e-03 5.82241639e-03
      5.82241639e-03 2.91120820e-03 7.27802049e-03 2.91120820e-03
      1.01892287e-02 1.45560410e-03 2.91120820e-03 0. 1.45560410e-03 0.
      0. 3.05676870e-02 0. 5.82241639e-03 1.45560410e-03 1.31004369e-02
      4.36681230e-03 4.36681230e-03 2.91120820e-03 2.91120820e-03 0.
      2.91120820e-03 0. 4.36681230e-03 1.01892287e-02 4.36681230e-03
      2.18340605e-02 2.03784574e-02 1.16448328e-02 5.82241639e-03
      1.45560410e-03 1.60116442e-02 1.45560410e-03 2.91120820e-03
      7.27802049e-03 2.91120820e-03 2.91120820e-03 7.27802049e-03 0.
      1.16448328e-02 8.73362459e-03 0. 2.91120820e-03 4.36681230e-03
      1.45560410e-03 4.36681230e-03 1.16448328e-02 1.45560410e-03 0.
      1.45560410e-03 4.36681230e-03 1.01892287e-02 2.91120820e-03
      3.05676870e-02 1.45560410e-03 5.82241639e-03 4.36681230e-03
      1.01892287e-02 1.45560410e-03 1.45560410e-03 5.82241639e-03
      1.45560410e-03 7.27802049e-03 2.91120820e-03 0. 5.82241639e-03
      5.82241639e-03 2.91120820e-03 0. 2.47452706e-02 8.73362459e-03
      1.01892287e-02 2.91120820e-03 0. 5.82241639e-03 1.45560410e-03 0.
      0. 4.36681230e-03 4.36681230e-03 1.16448328e-02 4.36681230e-03
      1.45560410e-03 0. 7.27802049e-03 8.73362459e-03 1.45560410e-03
      7.27802049e-03 1.31004369e-02 2.91120820e-03 1.45560410e-03 0.
      2.91120820e-03 2.91120820e-03 2.91120820e-03 1.16448328e-02
      5.82241639e-03 4.36681230e-03 4.36681230e-03 4.36681230e-03
      4.36681230e-03 4.36681230e-03 5.82241639e-03 2.91120820e-03
      7.27802049e-03 1.45560410e-03 1.45560410e-03 2.91120820e-03
      4.36681230e-03 2.91120820e-03 2.91120820e-03 0. 2.91120820e-03
      5.82241639e-03 5.82241639e-03</_>
    <_>
      3.75939859e-03 2.50626565e-03 3.75939859e-03 3.75939859e-03
      1.25313282e-03 2.50626565e-03 2.50626565e-03 0. 5.01253130e-03
      1.12781953e-02 1.12781953e-02 5.01253130e-03 1.25313282e-03 0.
      1.00250626e-02 3.75939859e-03 2.25563906e-02 1.00250626e-02
      1.37844607e-02 2.50626565e-03 1.00250626e-02 6.26566401e-03 0. 0.
      5.01253130e-03 0. 2.50626565e-03 1.62907261e-02 6.26566401e-03
      3.75939859e-03 8.77192989e-03 1.25313282e-03 6.26566401e-03
      1.25313282e-03 1.25313282e-03 1.25313282e-03 5.01253130e-03
      2.50626565e-03 3.75939859e-03 2.50626565e-03 1.37844607e-02
      5.01253130e-03 6.26566401e-03 2.50626565e-03 1.25313282e-03
      1.25313282e-03 0. 1.25313282e-03 1.00250626e-02 0. 2.50626565e-03
      2.50626565e-03 3.75939859e-03 1.37844607e-02 1.25313282e-03
      5.01253130e-03 5.01253130e-03 4.63659130e-02 1.12781953e-02
      7.51879718e-03 3.75939859e-03 0. 0. 3.75939859e-03 3.75939859e-03
      7.51879718e-03 8.77192989e-03 6.26566401e-03 0. 0. 1.25313282e-03
      2.50626565e-03 2.50626565e-03 7.51879718e-03 1.00250626e-02
      1.25313282e-03 2.50626565e-03 2.50626565e-03 1.12781953e-02
      3.75939859e-03 2.50626565e-03 6.26566401e-03 3.75939859e-03
      5.01253130e-03 0. 6.26566401e-03 1.37844607e-02 5.01253130e-03
      1.75438598e-02 7.51879718e-03 0. 0. 3.75939859e-03 1.25313282e-03
      1.25313282e-03 1.25313282e-03 6.26566410e-02 0. 6.26566401e-03 0.
      6.26566401e-03 5.01253130e-03 1.25313282e-03 1.25313282e-03
      3.75939859e-03 1.25313282e-03 1.25313280e-02 6.26566401e-03 0.
      2.50626565e-03 5.01253130e-03 1.25313280e-02 5.01253130e-03
      6.26566401e-03 5.01253130e-03 3.75939859e-03 2.50626565e-03
      2.50626565e-03 1.25313282e-03 2.13032588e-02 0. 2.50626565e-03
      1.25313282e-03 1.37844607e-02 3.75939859e-03 1.12781953e-02 0.
      3.75939859e-03 2.50626565e-03 1.37844607e-02 0. 2.50626565e-03
      6.26566401e-03 3.75939859e-03 6.26566401e-03 2.50626565e-03
      5.01253130e-03 1.25313282e-03 1.37844607e-02 3.75939859e-03
      1.25313282e-03 8.77192989e-03 3.75939859e-03 1.25313282e-03
      1.25313282e-03 1.25313280e-02 0. 5.01253130e-03 5.01253130e-03
      5.01253130e-03 7.51879718e-03 2.50626565e-03 2.50626565e-03
      1.00250626e-02 2.50626565e-03 7.51879718e-03 2.50626565e-03
      2.50626565e-03 0. 0. 5.01253130e-03 0. 3.75939859e-03
      6.26566401e-03 5.01253130e-03 3.75939859e-03 2.50626565e-03
      1.25313282e-03 1.25313282e-03 5.01253130e-03 2.50626565e-03
      1.25313282e-03 0. 2.50626565e-03 1.00250626e-02 8.77192989e-03
      2.50626565e-03 3.75939859e-03 1.25313282e-03 0. 3.75939859e-03
      1.00250626e-02 0. 7.51879718e-03 7.51879718e-03 7.51879718e-03
      5.01253130e-03 1.25313282e-03 6.26566401e-03 0. 1.25313282e-03 0.
      2.50626565e-03 2.50626565e-03 1.00250626e-02 1.25313282e-03
      3.75939859e-03 5.01253130e-03 2.50626565e-03 7.51879718e-03</_>
    <_>
      2.99401209e-03 0. 0. 5.98802418e-03 2.99401209e-03 2.99401209e-03
      3.59281451e-02 0. 0. 1.19760484e-02 2.99401209e-03 2.99401209e-03
      2.99401209e-03 5.98802418e-03 2.99401209e-03 0. 0. 8.98203626e-03
      2.99401209e-03 5.98802418e-03 5.98802418e-03 0. 0. 8.98203626e-03
      0. 0. 0. 2.09580846e-02 5.98802418e-03 0. 5.98802418e-03 0.
      2.99401209e-03 6.28742576e-02 0. 0. 8.98203626e-03 2.99401209e-03
      5.98802418e-03 0. 5.98802418e-03 0. 5.98802418e-03 0. 0.
      2.99401209e-03 0. 2.99401209e-03 0. 0. 0. 2.99401209e-03 0.
      2.39520967e-02 0. 0. 0. 3.89221571e-02 2.09580846e-02 0. 0. 0. 0.
      0. 2.99401209e-03 2.99401209e-03 0. 8.98203626e-03 2.99401209e-03
      0. 0. 0. 0. 8.98203626e-03 2.69461088e-02 0. 0. 0. 5.98802418e-03
      0. 5.98802418e-03 2.99401209e-03 2.99401209e-03 5.98802418e-03 0.
      2.99401209e-03 5.98802418e-03 2.99401209e-03 2.99401209e-03
      5.98802418e-02 2.99401209e-03 0. 0. 2.99401209e-03 0. 0.
      5.98802418e-02 0. 0. 0. 0. 5.98802418e-03 0. 2.99401209e-03
      2.99401209e-03 2.99401209e-03 2.99401209e-03 2.99401209e-03 0.
      2.99401209e-03 2.99401209e-03 0. 0. 0. 0. 0. 0. 0. 0.
      1.49700604e-02 0. 2.99401209e-03 0. 1.79640725e-02 0.
      8.98203626e-03 0. 2.99401209e-03 8.98203626e-03 1.19760484e-02 0.
      0. 2.99401209e-03 0. 0. 2.39520967e-02 0. 8.98203626e-03
      1.13772459e-01 0. 0. 0. 0. 2.99401209e-03 0. 1.19760484e-02
      2.99401209e-03 0. 0. 0. 2.99401209e-03 0. 2.99401209e-03 0. 0.
      3.29341330e-02 8.98203626e-03 0. 0. 2.99401209e-03 0. 0.
      1.79640725e-02 1.19760484e-02 2.99401209e-03 2.99401209e-03 0. 0.
      0. 5.98802418e-03 2.99401209e-03 0. 0. 0. 5.98802418e-03
      8.98203626e-03 2.99401209e-03 0. 5.98802418e-03 0. 0. 0. 0.
      2.99401209e-03 5.98802418e-03 2.99401209e-03 1.19760484e-02
      8.98203626e-03 0. 0. 0. 2.99401209e-03 2.99401209e-03 0.
      2.99401209e-03 0. 1.49700604e-02 2.99401209e-03 0. 2.99401209e-03</_>
    <_>
      1.73535792e-03 3.25379614e-03 4.33839485e-03 5.42299356e-03
      6.50759204e-04 2.60303682e-03 1.30151841e-03 4.18655090e-02
      2.16919743e-03 5.85683296e-03 3.68763553e-03 1.21475058e-02
      8.67678958e-04 1.30151841e-03 5.42299356e-03 8.89370963e-03
      8.67678958e-04 6.29067235e-03 4.33839485e-03 4.12147492e-03
      3.68763553e-03 1.08459871e-03 1.34490235e-02 4.55531431e-03
      3.68763553e-03 2.23427340e-02 1.51843822e-03 3.03687644e-03
      9.54446848e-03 1.08459871e-03 5.63991303e-03 1.95227761e-03
      7.80911045e-03 5.20607363e-03 1.58351418e-02 8.67678958e-04
      7.15835160e-03 1.73535792e-03 4.77223424e-03 2.16919743e-03
      2.81995651e-03 7.37527106e-03 4.77223424e-03 4.33839485e-03
      2.60303682e-03 1.51843822e-03 4.92407791e-02 2.60303682e-03
      1.30151841e-03 1.95227761e-03 4.33839479e-04 1.73535792e-03
      8.67678958e-04 8.67678958e-04 2.16919740e-04 1.95227761e-03
      1.34490235e-02 3.68763553e-03 4.33839479e-04 5.42299356e-03
      4.77223424e-03 4.33839485e-03 2.36442517e-02 6.07375288e-03
      1.08459871e-03 5.63991303e-03 8.67678958e-04 9.97830834e-03
      8.89370963e-03 1.38828633e-02 8.67678958e-04 2.16919743e-03
      2.38611712e-03 1.30151841e-03 4.33839479e-04 6.50759204e-04
      1.14967460e-02 2.60303682e-03 8.89370963e-03 7.80911045e-03
      9.76138841e-03 3.47071583e-03 4.33839479e-04 6.07375288e-03
      7.37527106e-03 1.08459871e-02 5.85683296e-03 2.60303682e-03
      1.51843822e-03 7.15835160e-03 1.51843822e-03 1.95227761e-03
      1.30151841e-03 2.38611712e-03 1.73535792e-03 1.30151841e-03
      4.33839479e-04 3.90455523e-03 3.90455523e-03 3.94793935e-02
      2.16919743e-03 3.47071583e-03 2.38611712e-03 1.51843822e-03
      1.30151841e-03 6.94143167e-03 8.67678958e-04 2.81995651e-03
      1.51843822e-03 4.33839479e-04 3.47071583e-03 6.29067235e-03
      1.95227761e-03 6.50759204e-04 1.30151841e-03 4.33839479e-04
      3.90455523e-03 3.03687644e-03 2.60303682e-03 5.42299356e-03
      3.70932743e-02 1.51843822e-03 1.30151841e-03 1.51843822e-03
      4.55531431e-03 2.60303682e-03 5.85683296e-03 2.16919743e-03
      5.42299356e-03 4.12147492e-03 2.16919743e-03 6.50759204e-04
      1.51843822e-03 2.60303682e-03 3.47071583e-03 2.81995651e-03
      2.16919743e-03 1.97396968e-02 2.81995651e-03 8.67678958e-04
      1.30151841e-03 1.73535792e-03 1.51843822e-03 1.95227761e-03
      1.30151841e-03 1.51843822e-03 2.60303682e-03 4.33839485e-03
      1.08459871e-03 2.81995651e-03 3.25379614e-03 1.51843822e-03
      1.51843822e-03 1.30151841e-03 4.12147492e-03 1.08459871e-03
      1.73535792e-03 2.60303682e-03 0. 1.30151841e-03 1.95227761e-03
      1.30151841e-03 1.30151841e-03 5.20607363e-03 1.08459871e-03
      1.08459871e-03 2.60303682e-03 1.51843822e-03 5.20607363e-03
      6.29067235e-03 3.47071583e-03 1.95227761e-03 8.89370963e-03
      8.67678970e-03 1.30151841e-03 2.60303682e-03 4.98915417e-03
      2.38611712e-03 6.07375288e-03 8.89370963e-03 6.50759204e-04
      3.90455523e-03 7.00650737e-02 4.98915417e-03 2.16919743e-03
      7.59219099e-03 8.02602991e-03 8.02602991e-03 2.60303682e-03
      8.67678958e-04 3.25379614e-03 4.33839485e-03 1.73535792e-03
      1.75704993e-02 1.51843822e-03 3.03687644e-03 2.60303682e-03
      3.25379614e-03 6.07375288e-03 2.16919743e-03</_>
    <_>
      1.73812278e-03 5.79374260e-04 8.11123941e-03 5.79374284e-03
      6.66280417e-03 2.89687130e-04 2.31749704e-03 2.14368477e-02
      6.08342979e-03 2.02780985e-03 6.66280417e-03 8.40092637e-03
      5.79374284e-03 5.21436846e-03 4.34530713e-03 1.15874857e-02
      2.60718423e-03 1.15874852e-03 2.89687142e-03 8.40092637e-03
      3.18655837e-03 1.44843571e-03 2.23059095e-02 4.63499408e-03
      3.47624556e-03 2.20162217e-02 3.47624556e-03 6.66280417e-03
      6.37311675e-03 2.02780985e-03 5.21436846e-03 2.02780985e-03
      6.08342979e-03 8.69061425e-03 1.73812278e-03 2.31749704e-03
      1.12977978e-02 1.73812278e-03 6.66280417e-03 4.34530713e-03
      2.89687142e-03 2.60718423e-03 1.73812278e-03 4.92468104e-03
      2.31749704e-03 1.73812278e-03 1.70915406e-02 1.73812278e-03
      3.76593275e-03 8.69061390e-04 3.76593275e-03 1.15874852e-03
      1.44843571e-03 5.79374284e-03 1.15874852e-03 2.31749704e-03
      1.68018527e-02 7.82155246e-03 6.08342979e-03 1.47740440e-02
      7.53186550e-03 2.60718423e-03 1.27462335e-02 7.82155246e-03
      6.08342979e-03 4.92468104e-03 5.79374260e-04 5.50405541e-03
      7.53186550e-03 8.98030121e-03 5.79374260e-04 3.47624556e-03
      2.60718423e-03 2.31749704e-03 1.15874852e-03 4.05561971e-03
      1.12977978e-02 2.89687130e-04 2.89687142e-03 3.76593275e-03
      7.53186550e-03 1.73812278e-03 5.79374284e-03 2.89687142e-03
      7.53186550e-03 9.26998816e-03 2.31749704e-03 5.50405541e-03
      2.31749704e-03 4.63499408e-03 3.76593275e-03 1.15874852e-03
      2.89687130e-04 1.21668596e-02 1.15874852e-03 1.15874852e-03
      7.24217808e-03 2.14368477e-02 4.92468104e-03 1.96987242e-02
      2.60718423e-03 1.73812278e-03 8.69061390e-04 1.01390500e-02
      2.89687130e-04 5.50405541e-03 1.44843571e-03 8.69061390e-04
      8.69061390e-04 1.73812278e-03 4.34530713e-03 3.04171480e-02
      3.21552716e-02 4.63499408e-03 3.76593275e-03 2.89687130e-04
      3.18655837e-03 2.02780985e-03 8.69061390e-04 8.69061425e-03
      1.99884120e-02 5.50405541e-03 3.76593275e-03 3.47624556e-03
      2.31749704e-03 4.05561971e-03 3.18655837e-03 1.15874852e-03
      2.60718423e-03 2.60718423e-03 6.37311675e-03 4.92468104e-03
      8.69061390e-04 8.69061390e-04 3.76593275e-03 2.31749704e-03
      2.31749704e-03 8.40092637e-03 2.89687142e-03 8.69061390e-04
      4.92468104e-03 2.89687130e-04 6.37311675e-03 8.69061390e-04
      1.15874852e-03 3.76593275e-03 8.98030121e-03 5.79374284e-03
      5.79374260e-04 1.44843571e-03 1.44843571e-03 2.89687142e-03
      2.89687130e-04 1.44843571e-03 1.82502884e-02 2.31749704e-03
      5.79374260e-04 1.44843571e-03 0. 6.66280417e-03 8.69061390e-04
      1.73812278e-03 1.15874852e-03 1.01390500e-02 8.69061390e-04
      2.31749704e-03 8.69061390e-04 2.02780985e-03 4.63499408e-03
      1.15874852e-03 2.60718423e-03 8.69061390e-04 1.12977978e-02
      6.95249112e-03 1.73812278e-03 1.73812278e-03 4.34530713e-03
      1.44843571e-03 2.02780985e-03 4.92468104e-03 4.34530713e-03
      2.31749704e-03 3.67902666e-02 1.44843571e-03 2.89687130e-04
      3.76593275e-03 8.98030121e-03 1.24565465e-02 5.79374260e-04
      2.89687142e-03 2.89687130e-04 2.02780985e-03 8.69061390e-04
      1.56431049e-02 1.73812278e-03 1.73812278e-03 8.69061390e-04
      1.15874852e-03 4.92468104e-03 6.95249112e-03</_>
    <_>
      1.93861080e-03 6.46203582e-04 8.72374792e-03 2.90791621e-03
      3.23101791e-04 6.13893382e-03 1.29240716e-03 2.71405503e-02
      6.46203582e-04 3.87722161e-03 1.29240716e-03 1.22778676e-02
      6.46203582e-04 2.26171245e-03 3.55411973e-03 1.93861071e-02
      1.61550893e-03 1.61550893e-03 2.90791621e-03 8.72374792e-03
      1.93861080e-03 3.23101791e-04 1.22778676e-02 3.23101791e-04
      3.55411973e-03 1.97092090e-02 3.23101785e-03 3.23101785e-03
      6.78513758e-03 9.69305402e-04 5.16962865e-03 6.13893382e-03
      5.81583241e-03 8.40064697e-03 7.75444321e-03 9.69305402e-04
      1.51857845e-02 1.93861080e-03 2.58481433e-03 1.29240716e-03
      4.20032348e-03 6.46203570e-03 3.87722161e-03 6.13893382e-03
      3.23101785e-03 1.93861080e-03 2.32633296e-02 3.23101785e-03
      9.69305402e-04 9.69305402e-04 9.69305402e-04 1.29240716e-03
      2.90791621e-03 9.69305402e-04 1.93861080e-03 2.26171245e-03
      1.58319883e-02 1.22778676e-02 9.04684979e-03 5.81583241e-03
      2.58481433e-03 1.61550893e-03 2.19709221e-02 1.61550893e-03
      1.93861080e-03 7.43134134e-03 3.23101791e-04 7.43134134e-03
      7.43134134e-03 7.43134134e-03 6.46203582e-04 9.69305402e-04
      1.61550893e-03 1.29240716e-03 9.69305402e-04 1.61550893e-03
      1.09854611e-02 1.93861080e-03 2.26171245e-03 6.78513758e-03
      5.16962865e-03 9.69305402e-04 1.61550893e-03 7.75444321e-03
      2.22940240e-02 8.40064697e-03 2.26171245e-03 3.87722161e-03
      9.69305402e-04 5.81583241e-03 4.84652678e-03 1.29240716e-03
      1.29240716e-03 1.29240714e-02 2.26171245e-03 1.61550893e-03
      3.23101791e-04 2.10016165e-02 8.07754509e-03 1.42164789e-02
      6.78513758e-03 9.69305402e-04 1.29240716e-03 1.61550893e-03
      6.46203582e-04 4.20032348e-03 2.90791621e-03 6.46203582e-04 0.
      3.23101791e-04 1.61550893e-03 3.23101785e-03 5.65428138e-02 0.
      2.26171245e-03 1.29240716e-03 7.43134134e-03 4.20032348e-03
      2.26171245e-03 2.90791621e-03 6.78513758e-03 3.23101785e-03
      9.69305402e-04 3.87722161e-03 3.87722161e-03 9.36995167e-03
      3.23101785e-03 2.26171245e-03 4.52342490e-03 6.46203582e-04
      4.84652678e-03 6.46203582e-04 3.23101785e-03 1.93861080e-03
      4.20032348e-03 5.16962865e-03 1.09854611e-02 9.69305355e-03
      1.61550893e-03 1.61550893e-03 3.23101785e-03 1.61550893e-03
      1.61550893e-03 1.93861080e-03 6.46203582e-04 8.40064697e-03
      8.72374792e-03 8.40064697e-03 1.29240716e-03 2.58481433e-03
      2.58481433e-03 1.29240716e-03 1.29240716e-03 6.46203582e-04
      1.64781921e-02 3.23101785e-03 6.46203582e-04 2.58481433e-03 0.
      2.90791621e-03 9.69305402e-04 2.26171245e-03 8.40064697e-03
      1.55088864e-02 4.52342490e-03 9.69305402e-04 3.23101785e-03
      1.29240716e-03 9.69305355e-03 5.81583241e-03 2.58481433e-03
      1.29240716e-03 8.40064697e-03 8.40064697e-03 1.61550893e-03
      1.29240716e-03 1.16316648e-02 6.46203582e-04 3.55411973e-03
      4.52342490e-03 0. 3.55411973e-03 2.58481428e-02 2.58481433e-03
      9.69305402e-04 2.90791621e-03 5.49273053e-03 1.87399033e-02
      5.81583241e-03 2.58481433e-03 9.69305402e-04 3.23101785e-03
      2.26171245e-03 1.26009695e-02 1.61550893e-03 1.61550893e-03
      5.81583241e-03 3.23101785e-03 3.87722161e-03 6.78513758e-03</_>
    <_>
      9.57290176e-03 7.36377027e-04 7.36377016e-03 2.20913114e-03
      1.47275405e-03 2.20913114e-03 1.98821798e-02 0. 3.68188508e-03
      7.36377016e-03 1.47275405e-03 4.41826228e-03 4.41826228e-03
      1.03092780e-02 1.10456552e-02 6.62739342e-03 5.15463902e-03 0.
      7.36377016e-03 8.10014736e-03 0. 2.20913114e-03 4.41826228e-03
      1.47275405e-03 1.47275405e-03 0. 2.20913114e-03 1.54639175e-02
      2.20913114e-03 2.94550811e-03 2.20913114e-03 2.94550811e-03
      7.36377016e-03 6.62739342e-03 3.68188508e-03 2.94550811e-03
      1.54639175e-02 1.47275405e-03 5.89101622e-03 6.62739342e-03
      7.36377016e-03 8.83652456e-03 5.15463902e-03 1.32547868e-02
      4.41826228e-03 0. 0. 2.94550811e-03 2.94550811e-03 1.47275405e-03
      4.41826228e-03 1.47275405e-03 3.68188508e-03 5.15463902e-03
      1.47275405e-03 2.20913114e-03 9.57290176e-03 2.65095737e-02
      3.82916071e-02 2.20913114e-03 7.36377016e-03 2.94550811e-03 0.
      1.47275405e-03 5.89101622e-03 5.89101622e-03 3.68188508e-03
      2.20913114e-03 7.36377027e-04 0. 1.47275405e-03 2.94550811e-03
      2.94550811e-03 8.10014736e-03 8.10014736e-03 6.62739342e-03
      9.57290176e-03 2.20913114e-03 1.47275405e-03 5.89101622e-03
      2.20913114e-03 2.94550811e-03 1.03092780e-02 9.57290176e-03
      9.57290176e-03 3.68188508e-03 7.36377016e-03 3.68188508e-03
      5.89101622e-03 9.57290176e-03 1.47275405e-03 2.20913114e-03
      2.94550811e-03 4.41826228e-03 4.41826228e-03 2.20913114e-03
      5.89101622e-03 7.36377027e-04 2.20913114e-03 0. 2.20913114e-03
      3.68188508e-03 1.47275405e-03 2.20913114e-03 7.36377027e-04
      4.41826228e-03 9.57290176e-03 1.47275405e-03 0. 7.36377027e-04
      3.68188508e-03 7.36377016e-03 1.10456552e-02 2.20913114e-03
      4.41826228e-03 1.47275405e-03 2.20913114e-03 2.20913114e-03
      3.68188508e-03 1.54639175e-02 0. 6.62739342e-03 6.62739342e-03
      1.84094254e-02 2.94550811e-03 1.03092780e-02 1.47275405e-03 0.
      2.79823262e-02 5.15463902e-03 2.94550811e-03 8.10014736e-03
      5.15463902e-03 2.20913114e-03 2.94550811e-03 8.83652456e-03
      1.32547868e-02 7.36377016e-03 8.83652456e-03 3.68188508e-03
      2.94550811e-03 2.20913114e-03 5.15463902e-03 2.20913114e-03
      2.20913114e-03 5.15463902e-03 4.41826228e-03 1.47275405e-03
      5.15463902e-03 2.20913114e-03 0. 4.41826228e-03 1.47275405e-03
      6.62739342e-03 3.68188508e-03 7.36377016e-03 5.89101622e-03
      2.20913114e-03 0. 7.36377016e-03 2.94550811e-03 2.20913114e-03
      1.32547868e-02 1.84094254e-02 3.68188508e-03 2.20913114e-03
      2.94550811e-03 5.15463902e-03 5.89101622e-03 5.15463902e-03
      5.89101622e-03 5.89101622e-03 1.47275405e-03 5.89101622e-03
      1.47275405e-03 2.94550811e-03 2.94550811e-03 2.94550811e-03 0. 0.
      7.36377027e-04 7.36377027e-04 2.20913114e-03 7.36377016e-03
      5.15463902e-03 3.68188508e-03 1.03092780e-02 2.06185561e-02
      1.47275405e-03 4.41826228e-03 2.94550811e-03 0. 3.68188508e-03
      4.41826228e-03 4.41826228e-03 2.20913114e-03 2.94550811e-03
      5.15463902e-03 7.36377027e-04 1.69366710e-02</_>
    <_>
      3.74672143e-03 1.49868859e-03 1.01161478e-02 5.62008237e-03
      2.62270495e-03 1.87336071e-03 5.62008237e-03 3.74672149e-04
      7.11877085e-03 4.87073790e-03 5.99475438e-03 4.87073790e-03
      6.36942638e-03 1.98576245e-02 6.74409885e-03 4.49606590e-03
      1.12401647e-03 1.49868859e-03 7.86811486e-03 1.01161478e-02
      2.62270495e-03 3.37204942e-03 3.74672143e-03 5.99475438e-03
      1.49868859e-03 0. 7.49344297e-04 8.24278686e-03 2.24803295e-03
      2.62270495e-03 6.36942638e-03 9.74147581e-03 7.86811486e-03
      2.39790175e-02 2.24803295e-03 5.99475438e-03 5.62008237e-03
      3.37204942e-03 7.11877085e-03 2.99737719e-03 7.11877085e-03
      7.49344286e-03 5.24540991e-03 6.74409885e-03 1.87336071e-03
      2.62270495e-03 0. 2.24803295e-03 4.87073790e-03 1.49868859e-03
      4.49606590e-03 1.87336071e-03 1.49868859e-03 1.23641808e-02
      2.99737719e-03 2.99737719e-03 2.99737719e-03 1.12401647e-02
      3.33458222e-02 5.24540991e-03 5.24540991e-03 7.49344297e-04
      5.62008237e-03 3.74672143e-03 1.87336076e-02 5.99475438e-03
      2.99737719e-03 4.49606590e-03 1.12401647e-03 7.49344297e-04
      1.12401647e-03 3.37204942e-03 5.62008237e-03 5.99475438e-03
      1.57362297e-02 3.74672143e-03 7.86811486e-03 2.24803295e-03
      4.87073790e-03 1.49868859e-03 7.11877085e-03 2.24803295e-03
      5.99475438e-03 5.62008237e-03 4.49606590e-03 2.24803295e-03
      8.61745980e-03 5.24540991e-03 4.49606590e-03 4.87073790e-03
      1.87336071e-03 2.62270495e-03 1.87336071e-03 5.24540991e-03
      3.74672143e-03 7.49344297e-04 2.06069686e-02 1.12401647e-03
      5.24540991e-03 1.87336071e-03 1.12401647e-03 2.62270495e-03
      1.87336071e-03 3.74672143e-03 2.99737719e-03 2.99737719e-03
      3.74672143e-03 1.87336071e-03 7.49344297e-04 1.87336071e-03
      1.87336071e-03 1.83589347e-02 1.42375417e-02 2.62270495e-03
      7.11877085e-03 3.74672143e-03 2.24803295e-03 2.99737719e-03
      3.37204942e-03 7.49344286e-03 1.49868859e-03 9.74147581e-03
      4.12139343e-03 9.74147581e-03 4.49606590e-03 1.12401647e-02
      2.62270495e-03 7.49344297e-04 3.37204942e-03 1.12401647e-02
      3.37204942e-03 5.24540991e-03 2.62270495e-03 3.37204942e-03
      2.62270495e-03 2.24803295e-03 4.87073790e-03 4.49606590e-03
      2.77257394e-02 7.49344297e-04 1.87336071e-03 3.74672143e-03
      5.62008237e-03 1.12401647e-03 2.99737719e-03 6.36942638e-03
      2.24803295e-03 1.49868859e-03 4.12139343e-03 4.49606590e-03
      3.74672143e-03 3.74672143e-03 3.74672143e-03 3.37204942e-03
      2.62270495e-03 2.99737719e-03 1.27388528e-02 3.37204942e-03 0.
      2.77257394e-02 2.99737719e-03 4.12139343e-03 1.49868857e-02
      8.24278686e-03 2.99737719e-03 5.24540991e-03 1.87336071e-03
      4.12139343e-03 4.87073790e-03 7.11877085e-03 1.87336071e-03
      1.12401647e-03 3.74672143e-03 7.49344286e-03 3.74672143e-03
      4.87073790e-03 3.37204942e-03 2.62270495e-03 5.62008237e-03
      7.49344297e-04 3.74672143e-03 7.49344297e-04 3.74672149e-04
      4.49606590e-03 7.49344286e-03 5.62008237e-03 4.12139343e-03
      2.99737719e-03 3.74672143e-03 1.49868859e-03 4.49606590e-03
      1.12401647e-03 5.24540991e-03 1.49868859e-03 4.12139343e-03
      1.87336071e-03 2.99737719e-03 3.37204942e-03 5.24540991e-03
      6.36942638e-03</_>
    <_>
      9.10746807e-04 5.46448072e-03 7.28597445e-03 4.55373386e-03
      1.82149361e-03 9.10746807e-04 1.54826958e-02 1.18397083e-02
      5.46448072e-03 7.28597445e-03 1.18397083e-02 2.73224036e-03
      5.46448072e-03 6.37522759e-03 1.82149361e-03 6.37522759e-03
      3.64298723e-03 1.82149361e-03 9.10746772e-03 2.73224036e-03
      2.73224036e-03 3.64298723e-03 1.09289614e-02 8.19672085e-03
      4.55373386e-03 2.73224036e-03 9.10746807e-04 6.37522759e-03
      7.28597445e-03 4.55373386e-03 4.55373386e-03 1.82149361e-03
      3.64298723e-03 3.64298723e-03 1.18397083e-02 5.46448072e-03
      1.45719489e-02 1.82149361e-03 3.64298723e-03 3.64298723e-03
      8.19672085e-03 7.28597445e-03 4.55373386e-03 2.73224036e-03
      5.46448072e-03 5.46448072e-03 3.64298723e-03 4.55373386e-03
      9.10746807e-04 0. 5.46448072e-03 3.64298723e-03 5.46448072e-03
      3.64298723e-03 9.10746807e-04 6.37522759e-03 3.64298723e-03
      9.10746772e-03 5.46448072e-03 2.73224041e-02 8.19672085e-03
      1.82149361e-03 3.64298723e-03 0. 1.82149361e-03 4.55373386e-03
      5.46448072e-03 7.28597445e-03 1.82149361e-03 4.55373386e-03 0.
      1.82149361e-03 1.82149361e-03 1.82149361e-03 1.63934417e-02
      3.64298723e-03 7.28597445e-03 2.73224036e-03 1.45719489e-02
      1.45719489e-02 1.82149361e-03 2.73224036e-03 3.64298723e-03
      8.19672085e-03 3.64298723e-03 4.55373386e-03 2.73224036e-03
      5.46448072e-03 2.73224036e-03 4.55373386e-03 1.82149361e-03 0.
      1.82149361e-03 5.46448072e-03 2.73224036e-03 3.64298723e-03
      1.54826958e-02 7.28597445e-03 5.46448072e-03 1.45719489e-02
      4.55373386e-03 1.82149361e-03 3.64298723e-03 2.73224036e-03
      1.82149361e-03 2.73224036e-03 4.55373386e-03 3.64298723e-03
      5.46448072e-03 3.64298723e-03 4.55373386e-03 3.64298723e-03
      1.63934417e-02 3.64298723e-03 2.73224036e-03 4.55373386e-03
      5.46448072e-03 1.82149361e-03 2.73224036e-03 6.37522759e-03
      1.00182146e-02 2.73224036e-03 1.82149361e-03 2.73224036e-03
      7.28597445e-03 7.28597445e-03 1.82149361e-03 5.46448072e-03
      2.73224036e-03 4.55373386e-03 0. 1.82149361e-03 5.46448072e-03
      8.19672085e-03 5.46448072e-03 3.64298723e-03 5.46448072e-03
      7.28597445e-03 1.36612020e-02 2.73224036e-03 0. 2.73224036e-03
      5.46448072e-03 1.82149361e-03 3.64298723e-03 4.55373386e-03
      4.55373386e-03 6.37522759e-03 3.64298723e-03 9.10746807e-04
      2.73224036e-03 1.82149361e-03 2.73224036e-03 0. 7.28597445e-03
      5.46448072e-03 1.27504552e-02 3.64298723e-03 0. 1.27504552e-02
      2.73224036e-03 4.55373386e-03 4.55373386e-03 7.28597445e-03
      3.64298723e-03 3.64298723e-03 2.73224036e-03 6.37522759e-03
      8.19672085e-03 1.82149361e-03 7.28597445e-03 9.10746807e-04
      2.73224036e-03 9.10746772e-03 9.10746807e-04 7.28597445e-03
      1.00182146e-02 1.82149361e-03 1.00182146e-02 9.10746772e-03
      4.55373386e-03 1.82149361e-03 2.45901644e-02 9.10746807e-04
      4.55373386e-03 7.28597445e-03 5.46448072e-03 3.64298723e-03
      2.73224036e-03 9.10746807e-04 2.73224036e-03 4.55373386e-03
      3.64298723e-03 1.09289614e-02 2.73224036e-03 9.10746807e-04
      1.82149361e-03 0. 1.82149361e-03 4.55373386e-03</_>
    <_>
      1.12044823e-03 1.12044823e-03 4.48179292e-03 1.12044823e-03
      7.84313772e-03 1.12044823e-03 1.06442580e-02 2.24089646e-03
      8.96358583e-03 1.00840339e-02 1.00840339e-02 4.48179292e-03
      1.12044823e-03 1.68067240e-03 3.92156886e-03 6.16246508e-03
      2.24089646e-03 7.28291366e-03 2.24089646e-03 1.68067240e-03
      1.34453792e-02 1.12044823e-03 8.96358583e-03 3.36134480e-03
      3.36134480e-03 0. 2.24089646e-03 5.60224103e-03 5.04201697e-03
      1.12044823e-03 7.84313772e-03 2.24089646e-03 2.24089646e-03
      1.51260514e-02 1.06442580e-02 1.68067240e-03 1.17647061e-02
      2.24089646e-03 3.92156886e-03 5.60224103e-03 2.24089646e-03
      2.80112051e-03 3.36134480e-03 1.12044823e-03 1.12044823e-03
      6.72268961e-03 3.36134480e-03 2.24089646e-03 5.60224114e-04
      5.60224114e-04 7.28291366e-03 1.68067240e-03 3.36134480e-03
      1.28851542e-02 4.48179292e-03 1.68067240e-03 1.28851542e-02
      4.48179292e-03 1.96078438e-02 1.73669476e-02 4.48179292e-03
      2.80112051e-03 6.16246508e-03 2.80112051e-03 3.36134480e-03
      3.36134480e-03 2.80112051e-03 6.72268961e-03 7.84313772e-03
      6.16246508e-03 0. 2.80112051e-03 5.60224114e-04 0. 1.45658273e-02
      1.12044823e-03 3.92156886e-03 1.68067240e-03 2.24089646e-03
      5.04201697e-03 3.92156886e-03 2.80112051e-03 5.04201697e-03
      3.92156886e-03 4.03361358e-02 4.48179292e-03 4.48179292e-03
      5.60224103e-03 1.12044823e-03 1.62464995e-02 1.12044823e-03
      2.24089646e-03 5.60224114e-04 1.68067240e-03 5.60224114e-04
      5.60224114e-04 1.28851542e-02 2.80112051e-03 2.24089646e-03
      4.48179292e-03 3.36134480e-03 3.92156886e-03 2.24089646e-03
      1.12044823e-03 3.36134480e-03 5.04201697e-03 3.36134480e-03
      1.12044823e-03 1.68067240e-03 3.36134480e-03 0. 1.45658273e-02
      2.96918787e-02 9.52380989e-03 5.60224103e-03 8.40336177e-03
      1.68067240e-03 2.80112051e-03 1.68067240e-03 2.24089646e-03
      2.24089646e-03 2.80112051e-03 3.36134480e-03 1.12044823e-03
      6.72268961e-03 1.23249302e-02 1.68067240e-03 2.24089646e-03
      1.84873957e-02 2.24089646e-03 1.12044823e-03 8.40336177e-03
      2.24089646e-03 5.60224114e-04 5.04201697e-03 2.80112051e-03
      5.60224103e-03 5.04201697e-03 1.68067235e-02 5.60224114e-04
      3.36134480e-03 1.12044823e-03 7.84313772e-03 1.12044823e-03
      5.60224114e-04 2.24089646e-03 1.12044823e-03 4.48179292e-03
      5.60224114e-04 3.36134480e-03 1.51260514e-02 1.12044823e-03
      5.60224114e-04 5.60224114e-04 6.16246508e-03 2.29691882e-02
      4.48179292e-03 1.12044823e-03 0. 8.96358583e-03 1.68067240e-03
      5.60224114e-04 1.56862754e-02 1.73669476e-02 5.60224114e-04
      7.28291366e-03 5.60224114e-04 6.16246508e-03 1.84873957e-02
      1.68067240e-03 8.40336177e-03 5.60224114e-04 3.36134480e-03
      1.45658273e-02 2.24089646e-03 5.60224114e-04 2.52100844e-02
      5.60224114e-04 3.36134480e-03 1.12044823e-03 1.06442580e-02
      1.68067240e-03 1.12044821e-02 3.92156886e-03 1.12044823e-03
      5.04201697e-03 4.48179292e-03 5.60224103e-03 3.92156886e-03
      5.60224114e-04 1.12044823e-03 5.60224114e-04 1.12044823e-03
      3.92156886e-03 5.04201697e-03 5.60224114e-04 1.12044823e-03
      1.12044823e-03 3.36134480e-03 8.40336177e-03</_>
    <_>
      0. 2.10748147e-03 7.37618515e-03 5.26870368e-03 0. 2.10748147e-03
      1.47523703e-02 1.15911476e-02 1.15911476e-02 6.32244442e-03
      9.48366709e-03 5.26870368e-03 8.42992589e-03 6.32244442e-03
      3.16122221e-03 4.21496294e-03 5.26870368e-03 1.05374074e-03
      2.10748147e-03 3.16122221e-03 2.10748147e-03 0. 8.42992589e-03 0.
      4.21496294e-03 4.21496294e-03 2.10748147e-03 7.37618515e-03
      1.15911476e-02 1.05374074e-03 0. 5.26870368e-03 6.32244442e-03
      2.10748147e-03 1.79135930e-02 1.05374074e-03 1.15911476e-02
      3.16122221e-03 0. 6.32244442e-03 6.32244442e-03 3.16122221e-03
      3.16122221e-03 5.26870368e-03 4.21496294e-03 3.16122221e-03
      1.05374074e-02 1.05374074e-03 1.05374074e-03 0. 3.16122221e-03
      1.05374074e-03 6.32244442e-03 8.42992589e-03 5.26870368e-03 0.
      7.37618515e-03 2.63435189e-02 2.00210735e-02 2.00210735e-02
      4.21496294e-03 3.16122221e-03 3.16122221e-03 0. 2.10748147e-03
      1.05374074e-02 6.32244442e-03 3.16122221e-03 5.26870368e-03
      4.21496294e-03 0. 2.10748147e-03 1.05374074e-03 1.05374074e-03
      1.47523703e-02 2.10748147e-03 7.37618515e-03 3.16122221e-03
      2.10748147e-02 1.89673342e-02 6.32244442e-03 2.10748147e-03
      3.16122221e-03 4.21496294e-03 3.16122221e-03 9.48366709e-03
      1.05374074e-03 5.26870368e-03 1.05374074e-03 5.26870368e-03
      1.05374074e-03 1.05374074e-03 4.21496294e-03 5.26870368e-03
      2.10748147e-03 3.16122221e-03 1.47523703e-02 1.05374074e-02
      6.32244442e-03 1.26448888e-02 7.37618515e-03 3.16122221e-03
      2.10748147e-03 3.16122221e-03 2.10748147e-03 5.26870368e-03
      6.32244442e-03 4.21496294e-03 0. 1.05374074e-03 2.10748147e-03
      1.15911476e-02 1.47523703e-02 4.21496294e-03 5.26870368e-03
      9.48366709e-03 5.26870368e-03 2.10748147e-03 4.21496294e-03
      5.26870368e-03 6.32244442e-03 1.05374074e-03 3.16122221e-03
      2.10748147e-03 7.37618515e-03 4.21496294e-03 3.16122221e-03
      3.16122221e-03 3.16122221e-03 5.26870368e-03 2.10748147e-03
      3.16122221e-03 2.10748147e-03 4.21496294e-03 2.10748147e-03 0.
      1.05374074e-03 7.37618515e-03 1.58061106e-02 1.05374074e-03 0.
      7.37618515e-03 5.26870368e-03 3.16122221e-03 4.21496294e-03
      9.48366709e-03 5.26870368e-03 3.16122221e-03 4.21496294e-03
      2.10748147e-03 0. 3.16122221e-03 0. 3.16122221e-03 1.36986300e-02
      3.16122221e-03 7.37618515e-03 2.10748147e-03 0. 6.32244442e-03
      1.05374074e-03 5.26870368e-03 4.21496294e-03 9.48366709e-03
      5.26870368e-03 4.21496294e-03 1.05374074e-03 1.05374074e-03
      7.37618515e-03 4.21496294e-03 8.42992589e-03 1.05374074e-03
      6.32244442e-03 7.37618515e-03 1.05374074e-03 9.48366709e-03
      1.05374074e-02 5.26870368e-03 2.10748147e-03 4.21496294e-03
      5.26870368e-03 2.10748147e-03 2.84509994e-02 2.10748147e-03
      3.16122221e-03 1.05374074e-03 3.16122221e-03 0. 0. 4.21496294e-03
      2.10748147e-03 2.10748147e-03 4.21496294e-03 4.21496294e-03
      8.42992589e-03 1.05374074e-03 0. 4.21496294e-03 0. 8.42992589e-03</_>
    <_>
      4.90086852e-03 2.45043426e-03 4.23256820e-03 7.35130301e-03
      3.78703489e-03 8.68790317e-03 3.78703489e-03 1.78213406e-03
      6.90576946e-03 7.57406978e-03 6.23746915e-03 5.12363529e-03
      3.34150135e-03 2.00490071e-03 6.01470238e-03 6.01470238e-03
      2.00490071e-03 1.69302728e-02 8.24236963e-03 3.11873457e-03
      2.67320103e-03 2.45043426e-03 9.13343672e-03 5.12363529e-03
      4.23256820e-03 2.22766749e-03 2.89596780e-03 5.56916883e-03
      7.79683655e-03 3.34150135e-03 6.01470238e-03 3.34150135e-03
      1.00245038e-02 9.35620349e-03 6.01470238e-03 3.11873457e-03
      8.68790317e-03 3.11873457e-03 2.89596780e-03 2.67320103e-03
      7.12853624e-03 4.23256820e-03 4.23256820e-03 1.31432386e-02
      4.23256820e-03 4.90086852e-03 3.11873457e-03 6.01470238e-03
      2.22766757e-04 7.57406978e-03 6.01470238e-03 2.67320103e-03
      3.34150135e-03 8.01960286e-03 1.78213406e-03 4.90086852e-03
      4.90086852e-03 9.35620349e-03 7.35130301e-03 1.20294048e-02
      5.12363529e-03 6.90576946e-03 8.01960286e-03 6.46023592e-03
      2.00490071e-03 8.68790317e-03 2.67320103e-03 5.56916883e-03
      6.68300269e-03 4.90086852e-03 1.78213406e-03 3.34150135e-03
      3.78703489e-03 3.78703489e-03 7.35130301e-03 1.11383374e-03
      9.35620349e-03 3.56426812e-03 5.34640206e-03 4.45533497e-03
      6.68300269e-03 3.56426812e-03 3.34150135e-03 7.57406978e-03
      1.55936729e-03 8.91066995e-03 3.56426812e-03 3.11873457e-03
      2.67320103e-03 1.00245038e-02 2.45043426e-03 4.23256820e-03
      1.33660052e-03 2.22766749e-03 4.45533497e-03 4.00980143e-03
      1.38115389e-02 2.67320103e-03 5.34640206e-03 3.56426812e-03
      1.78213406e-03 3.34150135e-03 2.45043426e-03 2.22766749e-03
      1.55936729e-03 4.67810174e-03 1.55936729e-03 3.56426812e-03
      3.78703489e-03 2.45043426e-03 7.12853624e-03 5.34640206e-03
      2.89596780e-03 5.56916883e-03 4.90086852e-03 4.67810174e-03
      1.78213406e-03 6.90576946e-03 3.34150135e-03 7.79683655e-03
      3.34150135e-03 6.68300258e-04 3.78703489e-03 2.00490076e-02
      4.00980143e-03 3.34150135e-03 6.46023592e-03 5.79193560e-03
      2.89596780e-03 5.79193560e-03 5.34640206e-03 3.56426812e-03
      6.68300269e-03 4.67810174e-03 7.35130301e-03 4.00980143e-03
      5.56916883e-03 1.04700373e-02 1.13611044e-02 2.67320103e-03
      4.67810174e-03 3.11873457e-03 6.01470238e-03 3.56426812e-03
      2.45043426e-03 3.56426812e-03 7.57406978e-03 4.90086852e-03
      3.56426812e-03 3.78703489e-03 4.00980143e-03 3.56426812e-03
      3.34150135e-03 3.34150135e-03 4.23256820e-03 1.55936729e-03
      6.23746915e-03 4.00980143e-03 0. 3.78703489e-03 1.33660052e-03
      3.78703489e-03 2.22766749e-03 4.67810174e-03 4.67810174e-03
      6.01470238e-03 3.34150135e-03 3.11873457e-03 8.01960286e-03
      7.12853624e-03 4.45533497e-03 2.00490071e-03 6.46023592e-03
      8.01960286e-03 3.56426812e-03 5.12363529e-03 1.11383377e-02
      2.22766749e-03 3.56426812e-03 8.68790317e-03 4.00980143e-03
      8.24236963e-03 7.35130301e-03 2.67320103e-03 6.46023592e-03
      7.12853624e-03 5.79193560e-03 5.34640206e-03 9.35620349e-03
      7.12853624e-03 4.45533497e-03 2.00490071e-03 4.90086852e-03
      6.68300269e-03 5.34640206e-03 5.79193560e-03 2.45043426e-03
      3.11873457e-03 5.12363529e-03 1.78213406e-03</_>
    <_>
      1.45985396e-03 1.45985396e-03 5.83941583e-03 4.37956210e-03
      5.83941583e-03 1.45985396e-03 2.91970791e-03 4.37956210e-03
      2.91970791e-03 4.37956210e-03 1.02189779e-02 1.45985396e-03
      5.83941583e-03 0. 4.37956210e-03 1.02189779e-02 4.37956210e-03
      1.02189779e-02 1.45985396e-03 5.83941583e-03 8.75912420e-03
      4.37956210e-03 1.16788317e-02 5.83941583e-03 2.91970791e-03
      4.37956210e-03 1.45985396e-03 5.83941583e-03 1.45985396e-03
      1.45985396e-03 2.91970791e-03 2.91970791e-03 2.91970791e-03
      1.45985391e-02 1.45985396e-03 4.37956210e-03 1.02189779e-02
      4.37956210e-03 4.37956210e-03 1.02189779e-02 4.37956210e-03
      1.45985396e-03 2.91970791e-03 2.91970791e-03 0. 1.45985396e-03
      2.91970791e-03 1.45985396e-03 1.45985396e-03 0. 7.29926955e-03 0.
      2.91970791e-03 8.75912420e-03 7.29926955e-03 1.45985396e-03
      1.45985396e-03 2.91970791e-03 1.16788317e-02 4.37956210e-03
      5.83941583e-03 5.83941583e-03 7.29926955e-03 2.91970791e-03
      1.45985396e-03 2.91970791e-03 0. 8.75912420e-03 2.91970791e-03
      2.91970791e-03 1.45985396e-03 1.45985396e-03 0. 0. 8.75912420e-03
      1.45985396e-03 2.91970791e-03 0. 5.83941583e-03 2.91970791e-03
      1.31386854e-02 0. 1.45985396e-03 1.45985396e-03 5.69343045e-02 0.
      0. 1.02189779e-02 0. 7.29926955e-03 1.02189779e-02 0. 0.
      2.91970791e-03 0. 0. 2.91970791e-03 2.91970791e-03 0.
      4.37956210e-03 1.02189779e-02 4.37956210e-03 1.45985396e-03
      4.37956210e-03 0. 1.45985396e-03 0. 1.45985396e-03 0.
      5.83941583e-03 2.91970791e-03 1.45985391e-02 1.06569342e-01
      4.37956210e-03 8.75912420e-03 1.45985396e-03 8.75912420e-03 0.
      2.91970791e-03 1.45985396e-03 5.83941583e-03 1.45985396e-03
      4.37956210e-03 2.91970791e-03 0. 4.37956192e-02 0. 0.
      1.45985396e-03 0. 2.91970791e-03 5.83941583e-03 1.45985396e-03 0.
      4.37956210e-03 0. 2.91970791e-03 1.45985396e-03 7.29926955e-03 0.
      0. 0. 7.29926955e-03 0. 2.91970791e-03 4.37956210e-03
      2.91970791e-03 5.83941583e-03 0. 1.45985396e-03 5.83941583e-03
      1.45985396e-03 0. 1.45985396e-03 2.91970791e-03 7.44525492e-02
      7.29926955e-03 4.37956210e-03 0. 4.37956210e-03 0. 0.
      1.31386854e-02 2.62773708e-02 1.45985396e-03 5.83941583e-03 0.
      1.45985396e-03 1.16788317e-02 0. 8.75912420e-03 0. 8.75912420e-03
      5.83941583e-03 0. 0. 1.45985391e-02 0. 0. 5.83941583e-03
      1.45985396e-03 1.45985396e-03 2.91970791e-03 0. 0. 4.37956210e-03
      1.45985396e-03 7.29926955e-03 2.91970791e-03 1.45985396e-03 0.
      1.45985396e-03 1.45985396e-03 2.04379559e-02 1.45985396e-03
      2.91970791e-03 0. 1.45985396e-03 2.91970791e-03 4.37956210e-03</_>
    <_>
      2.20669364e-03 7.35564565e-04 6.62008114e-03 1.14012510e-02
      6.62008114e-03 7.35564565e-04 3.45715359e-02 2.94225826e-03
      1.72857679e-02 2.57447595e-03 1.76535491e-02 3.31004057e-03
      3.31004057e-03 4.41338727e-03 9.93012171e-03 8.09121039e-03
      2.20669364e-03 3.67782288e-03 6.25229860e-03 5.14895190e-03
      4.04560519e-03 2.57447595e-03 4.41338727e-03 3.67782282e-04
      1.10334682e-03 1.47112913e-03 2.94225826e-03 1.14012510e-02
      6.25229860e-03 2.57447595e-03 5.51673444e-03 1.47112913e-03
      5.88451652e-03 1.28723802e-02 6.62008114e-03 2.20669364e-03
      3.67782288e-03 3.31004057e-03 1.06656859e-02 7.72342784e-03
      9.19455662e-03 3.31004057e-03 2.57447595e-03 1.10334682e-03
      1.83891144e-03 1.10334682e-03 1.83891144e-03 7.35564565e-04
      1.83891144e-03 2.20669364e-03 4.04560519e-03 1.10334682e-03
      9.93012171e-03 1.14012510e-02 1.14012510e-02 1.83891144e-03
      9.19455662e-03 1.02979038e-02 9.19455662e-03 7.72342784e-03
      1.47112915e-02 1.10334682e-03 1.47112913e-03 1.10334682e-03
      9.56233963e-03 5.14895190e-03 3.67782288e-03 3.31004057e-03
      1.10334682e-03 1.10334682e-03 0. 3.67782282e-04 7.35564565e-04
      5.14895190e-03 5.03861718e-02 2.20669364e-03 2.57447595e-03
      1.83891144e-03 1.83891144e-03 4.04560519e-03 2.94225826e-03
      1.10334682e-03 5.88451652e-03 3.67782288e-03 1.83891144e-03
      4.04560519e-03 9.56233963e-03 1.17690330e-02 2.20669364e-03
      6.25229860e-03 1.47112913e-03 1.47112913e-03 1.47112913e-03
      2.94225826e-03 1.10334682e-03 1.10334682e-03 3.78815755e-02
      1.10334682e-03 1.47112913e-03 4.04560519e-03 1.47112913e-03
      1.83891144e-03 2.94225826e-03 2.57447595e-03 1.83891144e-03
      6.25229860e-03 2.20669364e-03 1.83891144e-03 5.51673444e-03
      5.14895190e-03 1.10334682e-03 5.14895190e-03 1.10334682e-03
      2.42736302e-02 4.78116982e-03 5.88451652e-03 2.20669364e-03
      6.25229860e-03 1.47112913e-03 8.82677455e-03 2.57447595e-03
      3.31004057e-03 2.94225826e-03 1.47112913e-03 9.56233963e-03
      9.19455662e-03 3.67782282e-04 3.67782282e-04 2.20669364e-03
      8.45899247e-03 2.57447595e-03 7.72342784e-03 1.10334682e-03
      1.10334682e-03 2.20669364e-03 2.94225826e-03 4.78116982e-03
      1.83891144e-03 5.88451661e-02 1.10334682e-03 1.83891144e-03
      7.35564565e-04 4.04560519e-03 5.51673444e-03 3.67782282e-04
      3.31004057e-03 5.14895190e-03 1.83891144e-03 1.47112913e-03
      2.20669364e-03 2.94225826e-03 1.47112913e-03 7.35564565e-04
      1.10334682e-03 2.20669364e-03 2.94225826e-03 9.19455662e-03
      1.10334682e-03 0. 5.88451652e-03 2.94225826e-03 1.10334682e-03
      4.04560519e-03 2.20669364e-03 2.57447595e-03 2.24347189e-02
      7.35564565e-04 5.14895190e-03 2.57447595e-03 1.47112913e-03
      3.31004057e-03 2.20669364e-03 3.31004057e-03 4.41338727e-03
      2.57447595e-03 2.20669364e-03 3.31004057e-03 5.51673444e-03
      3.67782288e-03 2.94225826e-03 5.51673444e-03 2.94225826e-03
      4.04560519e-03 8.09121039e-03 7.35564565e-04 9.93012171e-03
      5.88451652e-03 8.82677455e-03 4.04560519e-03 3.31004057e-03
      3.67782288e-03 3.67782282e-04 1.10334682e-03 6.62008114e-03
      4.78116982e-03 7.35564565e-04 3.67782288e-03 1.83891144e-03
      6.62008114e-03 3.67782288e-03</_></support_vectors>
  <decision_functions>
    <_>
      <sv_count>22</sv_count>
      <rho>-9.9602348712895938e-01</rho>
      <alpha>
        5.7980975476051066e-01 4.6234912536360545e-01
        1.4008227609686252e-01 6.5539658177019611e-01
        8.9479463700917680e-02 4.1570108532079186e-01
        1.0900587552496191e-01 7.0869265211599020e-01
        8.2566631662308665e-01 2.0628521422053094e-02
        3.5208774439930901e-01 5.9846746183769485e-02
        6.2655491265494079e-01 6.0000989458415654e-01
        4.3890008905487859e-02 3.1079904057336044e-01 -1. -1. -1. -1.
        -1. -1.</alpha>
      <index>
        0 1 2 3 4 5 6 7 8 9 10 11 12 13 14 15 16 17 18 19 20 21</index></_></decision_functions></my_svm>
</opencv_storage>
