<?xml version="1.0"?>
<opencv_storage>
<my_svm type_id="opencv-ml-svm">
  <svm_type>C_SVC</svm_type>
  <kernel><type>RBF</type>
    <gamma>1.</gamma></kernel>
  <C>1.</C>
  <term_criteria><epsilon>1.1920928955078125e-07</epsilon>
    <iterations>1000</iterations></term_criteria>
  <var_all>200</var_all>
  <var_count>200</var_count>
  <class_count>2</class_count>
  <class_labels type_id="opencv-matrix">
    <rows>1</rows>
    <cols>2</cols>
    <dt>i</dt>
    <data>
      0 1</data></class_labels>
  <sv_total>30</sv_total>
  <support_vectors>
    <_>
      5.86166466e-03 3.51699861e-03 3.51699861e-03 1.17233291e-03 0.
      2.34466582e-03 1.17233291e-03 1.28956623e-02 2.34466582e-03
      8.20633024e-03 5.86166466e-03 7.03399722e-03 1.17233291e-03
      3.51699861e-03 5.86166466e-03 9.37866326e-03 2.34466582e-03
      7.03399722e-03 2.34466582e-03 5.86166466e-03 5.86166466e-03
      2.34466582e-03 7.03399722e-03 2.34466582e-03 5.86166466e-03
      1.17233291e-03 2.34466582e-03 5.86166466e-03 5.86166466e-03
      3.51699861e-03 4.68933163e-03 5.86166466e-03 4.68933163e-03
      2.34466582e-03 9.37866326e-03 5.86166466e-03 1.75849944e-02
      3.51699861e-03 1.17233291e-03 1.17233291e-03 5.86166466e-03
      1.17233291e-03 2.34466582e-03 2.34466582e-03 3.51699861e-03
      3.51699861e-03 1.17233291e-03 2.34466582e-03 0. 4.68933163e-03
      1.17233291e-03 3.51699861e-03 2.34466582e-03 1.17233291e-03
      7.03399722e-03 3.51699861e-03 9.37866326e-03 1.40679944e-02
      7.03399722e-03 2.34466582e-03 4.68933163e-03 2.34466582e-03
      1.52403275e-02 8.20633024e-03 2.34466582e-03 9.37866326e-03
      1.17233291e-03 3.51699861e-03 8.20633024e-03 5.86166466e-03 0.
      2.34466582e-03 1.17233291e-03 2.34466582e-03 0. 1.17233291e-03
      2.34466582e-03 1.17233291e-03 2.34466582e-03 1.17233293e-02
      8.20633024e-03 2.34466582e-03 4.68933163e-03 2.34466582e-03
      2.11019926e-02 1.17233293e-02 3.51699861e-03 0. 1.17233291e-03
      3.51699861e-03 1.17233291e-03 3.51699861e-03 1.17233291e-03
      4.68933163e-03 3.51699861e-03 3.51699861e-03 7.03399722e-03
      2.34466582e-03 1.05509963e-02 5.86166466e-03 3.51699861e-03
      1.17233291e-03 1.17233291e-03 1.17233291e-03 1.17233291e-03
      4.68933163e-03 5.86166466e-03 0. 3.51699861e-03 1.17233291e-03
      9.37866326e-03 5.86166466e-03 1.75849944e-02 1.17233291e-03
      1.17233291e-03 5.86166466e-03 5.86166466e-03 3.51699861e-03
      7.03399722e-03 3.51699861e-03 1.40679944e-02 0. 2.34466582e-03
      1.52403275e-02 9.37866326e-03 3.28253210e-02 3.51699861e-03
      8.20633024e-03 5.86166466e-03 2.34466582e-03 1.17233291e-03
      3.51699861e-03 4.68933163e-03 3.51699861e-03 2.34466582e-03
      9.37866326e-03 5.86166466e-03 1.17233293e-02 8.20633024e-03 0.
      2.34466582e-03 0. 2.34466582e-03 1.17233291e-03 1.17233291e-03
      3.51699861e-03 4.68933163e-03 3.51699861e-03 1.17233291e-03
      2.34466582e-03 4.68933163e-03 1.05509963e-02 2.34466582e-03
      5.86166466e-03 1.17233291e-03 2.34466582e-03 1.17233291e-03
      2.34466582e-03 0. 3.51699861e-03 4.68933163e-03 3.51699861e-03
      1.52403275e-02 1.40679944e-02 3.51699861e-03 1.17233291e-03
      7.03399722e-03 1.17233291e-03 1.05509963e-02 4.68933163e-03
      4.68933163e-03 2.34466582e-03 9.37866326e-03 8.20633024e-03
      4.68933163e-03 2.34466582e-03 1.52403275e-02 0. 8.20633024e-03
      1.05509963e-02 3.51699861e-03 2.34466582e-03 7.03399722e-03
      1.17233291e-03 2.34466582e-03 3.51699861e-03 9.37866326e-03
      1.52403275e-02 9.37866326e-03 1.17233291e-03 3.51699861e-03
      1.17233291e-03 1.17233291e-03 1.17233293e-02 9.37866326e-03
      1.17233291e-03 1.17233291e-03 7.03399722e-03 5.86166466e-03
      3.04806549e-02</_>
    <_>
      1.17924530e-03 0. 4.71698120e-03 1.17924530e-02 1.17924530e-03
      3.53773590e-03 1.17924530e-03 0. 3.53773590e-03 5.89622650e-03
      1.17924530e-03 2.00471692e-02 0. 0. 2.35849060e-03 4.71698120e-03
      5.89622650e-03 1.06132077e-02 8.25471710e-03 5.89622650e-03
      2.35849060e-03 1.17924530e-03 2.35849060e-03 5.89622650e-03
      1.17924530e-03 1.17924530e-03 2.35849060e-03 1.29716983e-02
      5.89622650e-03 3.53773590e-03 8.25471710e-03 4.71698120e-03
      3.53773590e-03 1.41509436e-02 2.35849060e-03 1.17924530e-03
      2.35849060e-02 2.35849060e-03 4.71698120e-03 1.17924530e-03
      9.43396240e-03 8.25471710e-03 2.35849060e-03 1.53301889e-02
      4.71698120e-03 3.53773590e-03 0. 4.71698120e-03 2.35849060e-03
      2.35849060e-03 2.35849060e-03 2.35849060e-03 0. 0. 2.35849060e-03
      2.35849060e-03 7.07547180e-03 3.53773609e-02 8.25471710e-03
      2.35849060e-03 8.25471710e-03 4.71698120e-03 1.29716983e-02
      9.43396240e-03 1.17924530e-03 0. 1.17924530e-03 1.17924530e-02
      3.53773590e-03 0. 4.71698120e-03 2.35849060e-03 2.35849060e-03
      2.35849060e-03 3.53773590e-03 2.35849060e-03 1.29716983e-02 0.
      3.53773590e-03 1.17924530e-03 2.35849060e-03 0. 0. 7.07547180e-03
      2.24056616e-02 1.06132077e-02 3.53773590e-03 5.89622650e-03
      3.53773590e-03 1.29716983e-02 2.35849060e-03 3.53773590e-03
      7.07547180e-03 2.35849060e-03 0. 2.35849060e-03 1.17924530e-03
      2.35849060e-03 8.25471710e-03 5.89622650e-03 9.43396240e-03
      5.89622650e-03 2.35849060e-03 0. 2.35849060e-03 1.17924530e-03
      5.89622650e-03 1.17924530e-03 3.53773590e-03 1.17924530e-03
      3.53773590e-03 1.41509436e-02 1.53301889e-02 0. 2.35849060e-03
      2.35849060e-03 7.07547180e-03 1.06132077e-02 0. 1.41509436e-02
      1.29716983e-02 0. 0. 2.47641504e-02 1.29716983e-02 1.65094342e-02
      4.71698120e-03 1.17924530e-03 7.07547180e-03 4.71698120e-03
      1.17924530e-03 0. 3.53773590e-03 0. 2.35849060e-03 7.07547180e-03
      4.71698120e-03 1.17924530e-02 2.35849060e-03 2.35849060e-03
      2.35849060e-03 5.89622650e-03 2.35849060e-03 3.53773590e-03
      1.17924530e-03 7.07547180e-03 7.07547180e-03 3.53773590e-03
      1.17924530e-03 2.35849060e-03 3.53773590e-03 2.35849060e-03 0. 0.
      1.17924530e-03 4.71698120e-03 2.35849060e-03 4.71698120e-03 0.
      1.29716983e-02 0. 1.17924530e-03 1.88679248e-02 1.17924530e-02
      2.35849060e-03 0. 5.89622650e-03 0. 5.89622650e-03 1.17924530e-03
      0. 1.06132077e-02 3.53773590e-03 1.76886804e-02 1.17924530e-03
      5.89622650e-03 7.07547180e-03 4.71698120e-03 5.89622650e-03
      2.35849060e-03 0. 5.89622650e-03 0. 4.71698120e-03 2.35849060e-03
      5.89622650e-03 1.06132077e-02 1.65094342e-02 4.71698120e-03
      3.53773590e-03 4.71698120e-03 3.53773590e-03 3.53773590e-03
      1.17924530e-03 2.35849060e-03 8.25471710e-03 3.53773590e-03
      3.53773590e-03 5.89622650e-03 7.07547180e-03</_>
    <_>
      5.00834733e-03 4.17362247e-03 2.50417367e-03 3.33889807e-03
      8.34724517e-04 3.33889807e-03 8.34724517e-04 0. 9.18196980e-03
      4.17362247e-03 5.00834733e-03 1.91986635e-02 8.34724517e-04 0.
      1.41903171e-02 0. 1.08514186e-02 4.17362247e-03 4.17362247e-03
      1.66944903e-03 4.17362247e-03 5.00834733e-03 1.66944903e-03
      3.33889807e-03 8.34724517e-04 8.34724517e-04 8.34724517e-04
      1.66944899e-02 5.00834733e-03 6.67779613e-03 4.17362247e-03
      6.67779613e-03 3.33889807e-03 8.34724493e-03 2.50417367e-03
      4.17362247e-03 1.25208674e-02 8.34724517e-04 1.66944903e-03 0.
      4.17362247e-03 1.66944899e-02 2.50417367e-03 3.33889807e-03
      5.84307173e-03 3.33889807e-03 0. 2.50417367e-03 6.67779613e-03
      2.50417367e-03 2.50417367e-03 8.34724517e-04 8.34724517e-04
      5.84307173e-03 1.66944903e-03 5.84307173e-03 8.34724517e-04
      2.08681133e-02 5.84307173e-03 1.66944903e-03 2.50417367e-03
      1.66944903e-03 6.67779613e-03 6.67779613e-03 8.34724517e-04
      8.34724493e-03 6.67779613e-03 0. 8.34724517e-04 8.34724517e-04 0.
      2.50417367e-03 5.84307173e-03 2.50417367e-03 5.00834733e-03 0.
      1.08514186e-02 1.66944903e-03 6.67779613e-03 3.33889807e-03
      3.33889807e-03 2.50417367e-03 8.34724517e-04 6.67779613e-03
      1.66944899e-02 6.67779613e-03 9.18196980e-03 2.50417367e-03
      5.84307173e-03 7.51252053e-03 8.34724517e-04 5.00834733e-03
      1.00166947e-02 3.33889807e-03 7.51252053e-03 1.66944903e-03
      2.08681133e-02 8.34724517e-04 1.00166947e-02 3.33889807e-03
      1.41903171e-02 3.33889807e-03 3.33889807e-03 8.34724517e-04
      5.00834733e-03 5.84307173e-03 8.34724493e-03 4.17362247e-03
      2.50417367e-03 0. 4.17362247e-03 5.00834733e-03 5.84307173e-03
      5.00834733e-03 8.34724517e-04 4.17362247e-03 6.67779613e-03
      3.33889807e-03 1.66944903e-03 1.91986635e-02 8.34724517e-04
      8.34724517e-04 8.34724493e-03 1.58597659e-02 7.51252053e-03
      9.18196980e-03 3.33889807e-03 4.17362247e-03 4.17362247e-03
      1.08514186e-02 3.33889807e-03 4.17362247e-03 9.18196980e-03
      5.00834733e-03 3.33889807e-03 8.34724493e-03 3.33889807e-03
      5.84307173e-03 1.83639396e-02 4.17362247e-03 3.33889807e-03
      1.25208674e-02 0. 5.84307173e-03 5.00834733e-03 7.51252053e-03
      2.50417367e-03 1.66944903e-03 5.00834733e-03 8.34724493e-03 0.
      2.50417367e-03 8.34724517e-04 5.00834733e-03 0. 4.17362247e-03
      3.33889807e-03 1.66944903e-03 0. 9.18196980e-03 6.67779613e-03
      4.17362247e-03 5.84307173e-03 1.16861435e-02 2.50417367e-03
      4.17362247e-03 1.41903171e-02 5.84307173e-03 1.66944903e-03
      8.34724493e-03 2.50417367e-03 1.66944903e-03 1.66944903e-03
      3.33889807e-03 5.00834733e-03 1.16861435e-02 3.33889807e-03
      7.51252053e-03 1.00166947e-02 3.33889807e-03 8.34724517e-04
      1.66944903e-03 0. 1.25208674e-02 1.25208674e-02 5.84307173e-03
      2.25375611e-02 2.50417367e-03 2.50417367e-03 2.50417367e-03
      2.50417367e-03 5.00834733e-03 7.51252053e-03 0. 3.33889807e-03
      3.33889807e-03 3.33889807e-03 8.34724517e-04 0. 7.51252053e-03</_>
    <_>
      4.13116440e-03 6.45494461e-03 2.84017553e-03 4.90575749e-03
      7.74593325e-04 5.68035105e-03 2.06558220e-03 1.65246576e-02
      2.06558220e-03 6.19674660e-03 2.58197775e-03 9.03692190e-03
      5.16395550e-04 1.54918665e-03 7.48773571e-03 5.68035105e-03
      5.68035105e-03 2.58197775e-03 6.97133970e-03 2.06558220e-03
      2.84017553e-03 5.16395550e-04 3.61476885e-03 4.13116440e-03
      3.35657108e-03 1.29098888e-03 5.93854859e-03 5.68035105e-03
      7.22953770e-03 4.64755995e-03 4.38936241e-03 2.84017553e-03
      7.48773571e-03 8.77872482e-03 3.61476885e-03 1.80738443e-03
      1.54918665e-02 2.06558220e-03 4.90575749e-03 3.61476885e-03
      8.77872482e-03 7.48773571e-03 5.16395550e-03 4.38936241e-03
      3.35657108e-03 2.58197775e-03 4.38936241e-03 5.42215351e-03
      4.38936241e-03 6.97133970e-03 2.32377998e-03 5.42215351e-03
      2.06558220e-03 5.16395550e-03 1.80738443e-03 2.84017553e-03
      6.19674660e-03 1.18770972e-02 5.16395550e-03 3.61476885e-03
      5.68035105e-03 4.90575749e-03 5.68035105e-03 3.61476885e-03
      1.29098888e-03 6.19674660e-03 4.90575749e-03 8.26232880e-03
      4.90575749e-03 3.61476885e-03 2.06558220e-03 1.54918665e-03
      9.03692190e-03 5.42215351e-03 7.74593325e-04 2.84017553e-03
      1.44590754e-02 5.68035105e-03 6.19674660e-03 1.29098888e-03
      4.64755995e-03 4.13116440e-03 1.29098888e-03 1.31680863e-02
      9.81151499e-03 6.97133970e-03 8.52052681e-03 4.90575749e-03
      5.16395550e-03 5.93854859e-03 2.58197775e-03 4.38936241e-03
      3.35657108e-03 1.80738443e-03 1.00697130e-02 4.64755995e-03
      7.48773571e-03 3.09837330e-03 6.97133970e-03 1.13607021e-02
      6.97133970e-03 2.32377998e-03 4.64755995e-03 1.03279110e-03
      6.45494461e-03 1.05861090e-02 6.45494461e-03 3.09837330e-03
      3.35657108e-03 5.16395550e-04 3.09837330e-03 1.00697130e-02
      1.23934932e-02 2.84017553e-03 5.16395550e-03 1.03279110e-03
      4.38936241e-03 6.45494461e-03 2.32377998e-03 1.26516912e-02
      5.68035105e-03 7.74593325e-04 1.29098888e-03 1.54918665e-02
      5.68035105e-03 1.05861090e-02 2.58197775e-03 2.58197775e-03
      2.32377998e-03 2.58197775e-03 3.61476885e-03 1.29098888e-03
      5.42215351e-03 4.90575749e-03 5.16395550e-03 4.13116440e-03
      4.13116440e-03 1.60082616e-02 6.19674660e-03 3.35657108e-03
      2.32377998e-03 3.61476885e-03 2.58197775e-03 9.29511990e-03
      1.03279110e-03 4.90575749e-03 3.61476885e-03 3.35657108e-03
      2.84017553e-03 4.38936241e-03 4.13116440e-03 1.54918665e-03
      2.84017553e-03 3.87296663e-03 2.06558220e-03 3.87296663e-03
      4.38936241e-03 3.87296663e-03 0. 8.52052681e-03 2.84017553e-03
      7.22953770e-03 8.00413080e-03 1.16189001e-02 4.64755995e-03
      2.06558220e-03 4.38936241e-03 2.32377998e-03 7.74593325e-03
      7.74593325e-03 4.38936241e-03 7.74593325e-03 4.90575749e-03
      4.90575749e-03 2.06558220e-03 2.58197775e-03 5.68035105e-03
      8.00413080e-03 8.00413080e-03 7.74593325e-03 1.03279110e-03
      3.35657108e-03 9.81151499e-03 8.52052681e-03 5.42215351e-03
      2.32377998e-03 1.31680863e-02 4.64755995e-03 5.16395550e-03
      7.74593325e-03 3.09837330e-03 3.09837330e-03 4.38936241e-03
      3.09837330e-03 2.84017553e-03 4.13116440e-03 4.13116440e-03
      7.74593325e-04 4.13116440e-03 3.61476885e-03</_>
    <_>
      1.85873604e-03 8.36431235e-03 2.78810412e-03 4.64684004e-03
      1.85873604e-03 2.78810412e-03 3.71747208e-03 0. 3.71747208e-03
      9.29368020e-04 3.71747208e-03 6.50557596e-03 3.71747208e-03
      9.29368020e-04 1.39405206e-02 2.78810412e-03 4.64684004e-03
      6.50557596e-03 2.78810412e-03 4.64684004e-03 9.29368020e-04
      9.29368020e-04 9.29368020e-04 7.43494416e-03 6.50557596e-03
      1.85873604e-03 3.71747208e-03 1.11524165e-02 8.36431235e-03
      4.64684004e-03 4.64684004e-03 3.71747208e-03 8.36431235e-03
      1.57992560e-02 9.29368020e-04 0. 5.57620823e-03 3.71747208e-03
      8.36431235e-03 1.85873604e-03 6.50557596e-03 1.11524165e-02
      5.57620823e-03 1.30111519e-02 5.57620823e-03 6.50557596e-03
      9.29368020e-04 5.57620823e-03 2.78810412e-03 3.71747208e-03
      4.64684004e-03 4.64684004e-03 1.85873604e-03 9.29368008e-03
      1.85873604e-03 6.50557596e-03 7.43494416e-03 4.64684004e-03
      9.29368020e-04 2.78810412e-03 4.64684004e-03 4.64684004e-03
      6.50557596e-03 2.78810412e-03 1.85873604e-03 9.29368008e-03
      4.64684004e-03 6.50557596e-03 9.29368020e-04 0. 2.78810412e-03
      7.43494416e-03 6.50557596e-03 9.29368008e-03 1.85873604e-03
      2.78810412e-03 6.50557596e-03 4.64684004e-03 4.64684004e-03
      9.29368020e-04 7.43494416e-03 3.71747208e-03 9.29368020e-04
      1.39405206e-02 1.76579915e-02 1.11524165e-02 7.43494416e-03
      5.57620823e-03 6.50557596e-03 6.50557596e-03 4.64684004e-03
      1.85873604e-03 2.78810412e-03 3.71747208e-03 2.78810412e-03
      1.85873604e-03 6.50557596e-03 9.29368020e-04 5.57620823e-03
      2.78810412e-03 3.71747208e-03 1.85873604e-03 2.78810412e-03
      1.85873604e-03 4.64684004e-03 6.50557596e-03 3.71747208e-03
      7.43494416e-03 0. 1.85873604e-03 3.71747208e-03 4.64684004e-03 0.
      8.36431235e-03 9.29368020e-04 1.85873604e-03 3.71747208e-03
      6.50557596e-03 5.57620823e-03 1.20817842e-02 9.29368020e-04
      2.78810412e-03 5.57620823e-03 2.04460956e-02 8.36431235e-03
      4.64684004e-03 4.64684004e-03 6.50557596e-03 9.29368020e-04
      1.39405206e-02 9.29368008e-03 3.71747208e-03 3.71747208e-03
      9.29368008e-03 4.64684004e-03 5.57620823e-03 9.29368020e-04
      6.50557596e-03 1.20817842e-02 9.29368020e-04 3.71747208e-03
      5.57620823e-03 1.85873604e-03 7.43494416e-03 8.36431235e-03
      5.57620823e-03 9.29368008e-03 9.29368020e-04 3.71747208e-03
      7.43494416e-03 3.71747208e-03 3.71747208e-03 2.78810412e-03
      1.11524165e-02 9.29368020e-04 1.85873604e-03 3.71747208e-03
      2.78810412e-03 0. 7.43494416e-03 3.71747208e-03 6.50557596e-03
      2.78810412e-03 7.43494416e-03 5.57620823e-03 5.57620823e-03
      5.57620823e-03 6.50557596e-03 1.85873604e-03 1.39405206e-02
      3.71747208e-03 3.71747208e-03 5.57620823e-03 1.57992560e-02
      4.64684004e-03 4.64684004e-03 7.43494416e-03 9.29368020e-04
      5.57620823e-03 4.64684004e-03 2.78810412e-03 0. 9.29368020e-04
      6.50557596e-03 7.43494416e-03 5.57620823e-03 5.57620823e-03
      1.02230478e-02 5.57620823e-03 8.36431235e-03 3.71747208e-03
      1.85873604e-03 1.30111519e-02 4.64684004e-03 5.57620823e-03
      2.78810412e-03 4.64684004e-03 9.29368020e-04 4.64684004e-03 0.</_>
    <_>
      0. 0. 3.35570471e-03 1.67785236e-03 1.67785236e-03 6.71140943e-03
      1.00671146e-02 0. 1.67785231e-02 6.71140943e-03 6.71140943e-03
      6.71140943e-03 3.35570471e-03 3.35570471e-03 1.34228189e-02
      5.03355730e-03 1.17449667e-02 1.67785236e-03 5.03355730e-03
      1.00671146e-02 3.35570471e-03 0. 0. 0. 0. 1.67785236e-03
      5.03355730e-03 1.34228189e-02 3.35570471e-03 8.38926155e-03
      3.35570471e-03 5.03355730e-03 3.35570471e-03 5.03355730e-03
      3.35570471e-03 0. 1.17449667e-02 3.35570471e-03 5.03355730e-03
      5.03355730e-03 6.71140943e-03 3.35570471e-03 6.71140943e-03
      3.35570471e-03 5.03355730e-03 3.35570471e-03 0. 3.35570471e-03
      3.35570471e-03 1.67785236e-03 3.35570471e-03 1.67785236e-03
      3.35570471e-03 6.71140943e-03 3.35570471e-03 1.67785236e-03
      5.03355730e-03 5.03355730e-03 1.51006710e-02 1.67785236e-03
      1.34228189e-02 5.03355730e-03 8.38926155e-03 6.71140943e-03
      5.03355730e-03 5.03355730e-03 1.67785236e-03 1.67785236e-03 0. 0.
      1.00671146e-02 1.34228189e-02 5.03355730e-03 6.71140943e-03
      3.35570471e-03 0. 5.03355730e-03 5.03355730e-03 6.71140943e-03
      3.35570471e-03 3.35570471e-03 6.71140943e-03 0. 1.34228189e-02
      3.02013420e-02 6.71140943e-03 8.38926155e-03 3.35570471e-03
      8.38926155e-03 5.03355730e-03 1.17449667e-02 6.71140943e-03
      3.35570471e-03 1.00671146e-02 3.35570471e-03 1.67785236e-03
      1.00671146e-02 1.67785236e-03 8.38926155e-03 3.35570471e-03
      8.38926155e-03 1.67785236e-03 1.67785236e-03 1.67785236e-03
      3.35570471e-03 6.71140943e-03 0. 0. 3.35570471e-03 1.67785236e-03
      0. 6.71140943e-03 8.38926155e-03 6.71140943e-03 3.35570471e-03
      1.67785236e-03 0. 5.03355730e-03 0. 8.38926155e-03 1.67785236e-03
      1.67785236e-03 0. 1.34228189e-02 1.17449667e-02 5.03355730e-03 0.
      5.03355730e-03 1.67785236e-03 2.01342292e-02 6.71140943e-03 0.
      6.71140943e-03 3.35570471e-03 1.67785236e-03 8.38926155e-03
      1.67785236e-03 8.38926155e-03 1.67785231e-02 3.35570471e-03 0.
      1.00671146e-02 1.67785236e-03 6.71140943e-03 1.17449667e-02
      3.35570471e-03 8.38926155e-03 3.35570471e-03 3.35570471e-03
      5.03355730e-03 3.35570471e-03 1.67785236e-03 8.38926155e-03
      8.38926155e-03 0. 5.03355730e-03 0. 3.35570471e-03 0. 0.
      6.71140943e-03 1.67785236e-03 5.03355730e-03 1.17449667e-02
      1.67785236e-03 1.67785236e-03 5.03355730e-03 1.67785236e-03
      1.17449667e-02 8.38926155e-03 1.17449667e-02 0. 1.67785236e-03
      2.18120813e-02 3.35570471e-03 5.03355730e-03 1.51006710e-02 0.
      6.71140943e-03 5.03355730e-03 1.67785236e-03 0. 0. 1.34228189e-02
      1.00671146e-02 3.35570471e-03 3.35570471e-03 8.38926155e-03
      1.67785236e-03 0. 0. 1.67785236e-03 5.03355730e-03 0.
      3.35570471e-03 1.00671146e-02 3.35570471e-03 1.67785236e-03
      3.35570471e-03 3.35570471e-03</_>
    <_>
      1.51668349e-03 1.01112237e-03 4.55005048e-03 1.26390299e-02
      1.51668349e-03 1.01112237e-03 1.06167849e-02 1.01112237e-03
      4.55005048e-03 5.56117296e-03 4.55005048e-03 9.10010096e-03
      5.56117296e-03 4.04448947e-03 5.56117296e-03 4.04448947e-03
      1.01112237e-03 2.02224473e-03 4.04448947e-03 4.55005048e-03
      2.52780598e-03 2.52780598e-03 5.05561184e-04 3.03336699e-03
      1.51668349e-03 5.05561184e-04 2.02224473e-03 8.08897894e-03
      4.55005048e-03 2.52780598e-03 2.02224473e-03 6.57229545e-03
      3.03336699e-03 1.26390299e-02 0. 2.52780598e-03 3.84226516e-02
      2.02224473e-03 5.56117296e-03 2.52780598e-03 1.51668349e-03
      5.05561195e-03 2.02224473e-03 2.52780598e-03 1.51668349e-03
      6.57229545e-03 0. 3.53892823e-03 1.01112237e-03 5.56117296e-03
      3.53892823e-03 1.51668349e-03 1.51668349e-03 1.11223459e-02
      1.01112237e-03 1.51668349e-03 3.53892823e-03 2.57836208e-02
      7.58341793e-03 2.02224473e-03 7.07785645e-03 1.01112237e-03
      8.08897894e-03 9.10010096e-03 7.07785645e-03 5.05561195e-03
      5.05561195e-03 4.55005048e-03 5.05561184e-04 1.01112237e-03
      5.05561195e-03 4.55005048e-03 1.01112237e-03 0. 2.52780598e-03
      3.03336699e-03 5.05561195e-03 1.01112237e-03 6.57229545e-03
      5.05561184e-04 3.03336699e-03 2.52780598e-03 4.04448947e-03
      9.60566290e-03 3.74115258e-02 3.03336699e-03 6.57229545e-03
      3.53892823e-03 2.52780598e-03 8.59453995e-03 3.03336699e-03
      5.05561184e-04 5.05561195e-03 1.51668349e-03 3.03336699e-03
      2.52780598e-03 9.60566290e-03 5.05561184e-04 9.10010096e-03
      1.01112237e-03 1.06167849e-02 4.04448947e-03 2.52780598e-03
      2.02224473e-03 2.52780598e-03 4.04448947e-03 7.58341793e-03
      1.01112237e-03 1.01112237e-03 1.51668349e-03 2.02224473e-03
      1.06167849e-02 2.22446918e-02 5.05561195e-03 3.03336699e-03
      1.01112237e-03 6.57229545e-03 2.52780598e-03 1.01112237e-03
      6.06673397e-03 1.01112237e-03 3.03336699e-03 5.05561184e-04
      2.02224473e-03 1.01112239e-02 2.52780598e-02 0. 1.01112237e-03
      1.46612739e-02 1.16279069e-02 5.05561184e-04 2.02224473e-03
      3.53892823e-03 2.52780598e-03 2.02224473e-03 1.11223459e-02
      1.06167849e-02 6.57229545e-03 1.97168868e-02 1.01112237e-03
      5.05561184e-04 5.05561195e-03 1.51668349e-03 2.52780598e-03
      5.05561195e-03 4.55005048e-03 2.02224473e-03 1.51668349e-03
      1.01112237e-03 3.03336699e-03 4.04448947e-03 1.51668349e-03
      2.02224473e-03 1.51668349e-03 1.01112237e-03 1.06167849e-02
      9.60566290e-03 2.52780598e-03 0. 1.61779579e-02 3.03336699e-03 0.
      2.83114258e-02 4.04448956e-02 3.03336699e-03 3.03336699e-03
      3.03336699e-03 3.53892823e-03 4.55005048e-03 8.08897894e-03
      3.03336699e-03 1.51668349e-03 3.03336699e-03 1.41557129e-02
      2.52780598e-03 3.53892823e-03 4.55005048e-03 2.52780598e-03
      3.53892823e-03 1.01112237e-03 2.02224473e-03 5.05561184e-04 0.
      8.08897894e-03 9.60566290e-03 1.51668349e-03 1.06167849e-02
      5.56117296e-03 1.51668349e-03 2.02224473e-03 0. 2.02224473e-03
      5.05561195e-03 1.51668349e-03 2.02224473e-03 4.55005048e-03
      7.58341793e-03 1.51668349e-03 2.52780598e-03 1.87057629e-02</_>
    <_>
      1.45985396e-03 1.45985396e-03 5.83941583e-03 4.37956210e-03
      5.83941583e-03 1.45985396e-03 2.91970791e-03 4.37956210e-03
      2.91970791e-03 4.37956210e-03 1.02189779e-02 1.45985396e-03
      5.83941583e-03 0. 4.37956210e-03 1.02189779e-02 4.37956210e-03
      1.02189779e-02 1.45985396e-03 5.83941583e-03 8.75912420e-03
      4.37956210e-03 1.16788317e-02 5.83941583e-03 2.91970791e-03
      4.37956210e-03 1.45985396e-03 5.83941583e-03 1.45985396e-03
      1.45985396e-03 2.91970791e-03 2.91970791e-03 2.91970791e-03
      1.45985391e-02 1.45985396e-03 4.37956210e-03 1.02189779e-02
      4.37956210e-03 4.37956210e-03 1.02189779e-02 4.37956210e-03
      1.45985396e-03 2.91970791e-03 2.91970791e-03 0. 1.45985396e-03
      2.91970791e-03 1.45985396e-03 1.45985396e-03 0. 7.29926955e-03 0.
      2.91970791e-03 8.75912420e-03 7.29926955e-03 1.45985396e-03
      1.45985396e-03 2.91970791e-03 1.16788317e-02 4.37956210e-03
      5.83941583e-03 5.83941583e-03 7.29926955e-03 2.91970791e-03
      1.45985396e-03 2.91970791e-03 0. 8.75912420e-03 2.91970791e-03
      2.91970791e-03 1.45985396e-03 1.45985396e-03 0. 0. 8.75912420e-03
      1.45985396e-03 2.91970791e-03 0. 5.83941583e-03 2.91970791e-03
      1.31386854e-02 0. 1.45985396e-03 1.45985396e-03 5.69343045e-02 0.
      0. 1.02189779e-02 0. 7.29926955e-03 1.02189779e-02 0. 0.
      2.91970791e-03 0. 0. 2.91970791e-03 2.91970791e-03 0.
      4.37956210e-03 1.02189779e-02 4.37956210e-03 1.45985396e-03
      4.37956210e-03 0. 1.45985396e-03 0. 1.45985396e-03 0.
      5.83941583e-03 2.91970791e-03 1.45985391e-02 1.06569342e-01
      4.37956210e-03 8.75912420e-03 1.45985396e-03 8.75912420e-03 0.
      2.91970791e-03 1.45985396e-03 5.83941583e-03 1.45985396e-03
      4.37956210e-03 2.91970791e-03 0. 4.37956192e-02 0. 0.
      1.45985396e-03 0. 2.91970791e-03 5.83941583e-03 1.45985396e-03 0.
      4.37956210e-03 0. 2.91970791e-03 1.45985396e-03 7.29926955e-03 0.
      0. 0. 7.29926955e-03 0. 2.91970791e-03 4.37956210e-03
      2.91970791e-03 5.83941583e-03 0. 1.45985396e-03 5.83941583e-03
      1.45985396e-03 0. 1.45985396e-03 2.91970791e-03 7.44525492e-02
      7.29926955e-03 4.37956210e-03 0. 4.37956210e-03 0. 0.
      1.31386854e-02 2.62773708e-02 1.45985396e-03 5.83941583e-03 0.
      1.45985396e-03 1.16788317e-02 0. 8.75912420e-03 0. 8.75912420e-03
      5.83941583e-03 0. 0. 1.45985391e-02 0. 0. 5.83941583e-03
      1.45985396e-03 1.45985396e-03 2.91970791e-03 0. 0. 4.37956210e-03
      1.45985396e-03 7.29926955e-03 2.91970791e-03 1.45985396e-03 0.
      1.45985396e-03 1.45985396e-03 2.04379559e-02 1.45985396e-03
      2.91970791e-03 0. 1.45985396e-03 2.91970791e-03 4.37956210e-03</_>
    <_>
      5.81395347e-03 1.45348837e-03 2.90697673e-03 1.01744188e-02 0.
      1.45348837e-03 5.81395347e-03 1.45348837e-03 7.26744160e-03
      1.01744188e-02 0. 2.90697673e-03 1.45348837e-03 1.45348837e-03
      8.72093067e-03 1.45348837e-03 2.90697673e-03 1.45348837e-03
      1.01744188e-02 1.45348837e-03 1.45348837e-03 1.45348837e-03
      1.45348837e-03 1.88953485e-02 2.90697673e-03 0. 1.45348837e-03
      5.81395347e-03 1.45348837e-03 8.72093067e-03 2.90697673e-03
      4.36046533e-03 1.01744188e-02 2.18023248e-02 1.45348837e-03
      4.36046533e-03 1.59883723e-02 2.90697673e-03 4.36046533e-03
      1.45348837e-03 8.72093067e-03 1.01744188e-02 8.72093067e-03
      1.45348837e-03 2.90697673e-03 4.36046533e-03 0. 5.81395347e-03 0.
      1.45348837e-03 4.36046533e-03 0. 0. 8.72093067e-03 1.45348837e-03
      4.36046533e-03 4.36046533e-03 4.36046533e-03 1.45348832e-02
      2.90697673e-03 1.16279069e-02 4.36046533e-03 4.36046533e-03
      2.90697673e-03 1.45348837e-03 8.72093067e-03 1.45348837e-03
      1.16279069e-02 0. 1.45348837e-03 1.45348837e-03 4.36046533e-03
      1.45348837e-03 4.36046533e-03 0. 1.45348837e-03 7.26744160e-03
      4.36046533e-03 7.26744160e-03 0. 5.81395347e-03 4.36046533e-03 0.
      5.81395347e-03 1.45348837e-03 2.90697673e-03 2.90697673e-03
      2.90697673e-03 2.90697673e-03 1.16279069e-02 0. 4.36046533e-03
      5.81395347e-03 2.90697673e-03 2.90697673e-03 4.36046533e-03
      8.72093067e-03 4.36046533e-03 8.72093067e-03 2.90697673e-03
      4.36046533e-03 2.90697673e-03 8.72093067e-03 1.45348837e-03
      4.36046533e-03 5.81395347e-03 2.90697673e-03 2.90697673e-03
      8.72093067e-03 2.90697673e-03 2.90697673e-03 2.90697673e-03
      1.45348837e-03 5.81395347e-03 2.90697673e-03 0. 4.36046533e-03
      5.81395347e-03 2.90697673e-03 8.72093067e-03 0. 0. 7.26744160e-03
      7.26744160e-03 4.36046533e-03 3.05232555e-02 2.90697673e-03
      5.81395347e-03 1.01744188e-02 1.88953485e-02 4.36046533e-03
      1.45348837e-03 1.45348837e-03 1.01744188e-02 4.36046533e-03
      7.26744160e-03 1.16279069e-02 7.26744160e-03 7.26744160e-03
      1.45348837e-03 2.90697673e-03 4.36046533e-03 5.81395347e-03
      4.36046533e-03 4.36046533e-03 5.81395347e-03 2.90697673e-03
      5.81395347e-03 8.72093067e-03 1.30813951e-02 1.45348837e-03
      1.45348837e-03 2.90697673e-03 5.81395347e-03 7.26744160e-03
      2.90697673e-03 7.26744160e-03 5.81395347e-03 0. 7.26744160e-03
      4.36046533e-03 8.72093067e-03 1.30813951e-02 2.47093029e-02
      2.90697673e-03 0. 8.72093067e-03 2.90697673e-03 1.45348837e-03
      4.36046533e-03 1.45348837e-03 2.90697673e-03 5.81395347e-03
      1.01744188e-02 7.26744160e-03 8.72093067e-03 4.36046533e-03
      2.90697673e-03 5.81395347e-03 5.81395347e-03 2.90697673e-03
      1.45348837e-03 0. 1.30813951e-02 1.16279069e-02 2.90697673e-03
      7.26744160e-03 1.45348837e-03 2.90697673e-03 8.72093067e-03
      4.36046533e-03 5.81395347e-03 5.81395347e-03 1.45348837e-03
      4.36046533e-03 2.90697673e-03 8.72093067e-03 7.26744160e-03
      4.36046533e-03 2.90697673e-03</_>
    <_>
      5.70497150e-03 4.07497957e-03 3.25998361e-03 5.70497150e-03
      1.62999181e-03 1.62999181e-03 1.62999181e-03 0. 4.88997530e-03
      1.46699259e-02 9.77995060e-03 7.33496295e-03 2.44498765e-03
      1.62999181e-03 8.96495488e-03 2.44498765e-03 1.14099430e-02
      1.62999181e-03 1.30399344e-02 6.51996722e-03 4.07497957e-03
      1.62999181e-03 0. 2.52648722e-02 3.25998361e-03 8.14995903e-04
      8.14995903e-04 1.62999183e-02 2.44498765e-03 8.14995903e-04
      1.38549302e-02 3.25998361e-03 8.96495488e-03 2.44498774e-02
      8.14995903e-04 5.70497150e-03 6.51996722e-03 2.44498765e-03
      1.62999181e-03 1.62999181e-03 8.96495488e-03 1.22249387e-02
      4.07497957e-03 4.88997530e-03 8.14995903e-04 1.62999181e-03 0.
      4.88997530e-03 4.07497957e-03 3.25998361e-03 8.14995903e-04
      8.14995903e-04 1.62999181e-03 7.33496295e-03 8.14995903e-04
      2.44498765e-03 5.70497150e-03 1.14099430e-02 3.25998361e-03
      1.05949463e-02 4.07497957e-03 0. 8.14995903e-04 8.14995915e-03
      2.44498765e-03 6.51996722e-03 4.07497957e-03 8.96495488e-03 0. 0.
      0. 1.62999181e-03 3.25998361e-03 4.07497957e-03 0. 2.44498765e-03
      4.88997530e-03 8.14995903e-04 6.51996722e-03 0. 3.25998361e-03
      8.14995915e-03 4.07497957e-03 8.14995915e-03 2.52648722e-02
      1.62999181e-03 7.33496295e-03 2.44498765e-03 3.25998361e-03
      7.33496295e-03 1.62999181e-03 1.62999181e-03 7.33496295e-03
      1.62999181e-03 8.14995903e-04 2.44498765e-03 1.22249387e-02
      1.62999181e-03 3.25998361e-03 3.25998361e-03 8.96495488e-03
      3.25998361e-03 3.25998361e-03 3.25998361e-03 8.14995903e-04
      4.88997530e-03 1.14099430e-02 3.25998361e-03 2.44498765e-03
      8.14995903e-04 4.07497957e-03 8.14995915e-03 2.68948656e-02
      8.14995903e-04 5.70497150e-03 0. 1.05949463e-02 4.88997530e-03
      1.62999181e-03 1.62999183e-02 0. 2.44498765e-03 4.88997530e-03
      2.93398518e-02 8.14995915e-03 6.51996722e-03 8.96495488e-03
      2.44498765e-03 1.22249387e-02 1.05949463e-02 0. 2.44498765e-03
      8.14995915e-03 7.33496295e-03 3.25998361e-03 8.14995915e-03
      4.07497957e-03 6.51996722e-03 2.20048893e-02 2.44498765e-03
      2.44498765e-03 8.96495488e-03 2.44498765e-03 4.88997530e-03
      1.62999181e-03 4.07497957e-03 4.07497957e-03 1.62999181e-03
      1.62999181e-03 4.88997530e-03 8.14995903e-04 1.62999181e-03
      5.70497150e-03 5.70497150e-03 0. 0. 2.44498765e-03 1.62999181e-03
      0. 5.70497150e-03 3.25998361e-03 5.70497150e-03 1.05949463e-02
      8.14995915e-03 8.14995903e-04 0. 5.70497150e-03 3.25998361e-03 0.
      6.51996722e-03 8.14995903e-04 1.62999181e-03 4.07497957e-03
      1.22249387e-02 9.77995060e-03 3.25998361e-03 2.44498765e-03
      4.88997530e-03 8.14995915e-03 8.14995903e-04 3.25998361e-03
      3.25998361e-03 0. 4.88997530e-03 5.70497150e-03 8.14995915e-03
      1.14099430e-02 6.51996722e-03 2.44498765e-03 3.25998361e-03
      3.25998361e-03 7.33496295e-03 3.25998361e-03 1.62999181e-03
      1.62999181e-03 4.07497957e-03 3.25998361e-03 4.07497957e-03
      4.07497957e-03 6.51996722e-03</_>
    <_>
      2.99700303e-03 2.99700303e-03 0. 5.99400606e-03 1.99800194e-03 0.
      9.99000948e-03 0. 2.99700303e-03 1.39860138e-02 5.99400606e-03
      5.99400606e-03 2.99700303e-03 0. 1.09890103e-02 9.99000971e-04
      1.19880121e-02 9.99000971e-04 1.39860138e-02 2.99700303e-03
      9.99000971e-04 2.99700303e-03 9.99000971e-04 3.99600388e-03
      9.99000971e-04 9.99000971e-04 1.99800194e-03 2.09790207e-02 0.
      4.99500474e-03 5.99400606e-03 2.99700303e-03 7.99200777e-03
      1.39860138e-02 0. 2.99700303e-03 1.29870130e-02 0. 9.99000971e-04
      9.99000971e-04 1.89810190e-02 1.19880121e-02 3.99600388e-03
      2.99700303e-03 2.99700303e-03 4.99500474e-03 0. 2.99700303e-03
      6.99300691e-03 0. 0. 4.99500474e-03 1.99800194e-03 1.79820172e-02
      0. 1.99800194e-03 0. 7.99200777e-03 4.99500474e-03 9.99000971e-04
      4.99500474e-03 1.99800194e-03 0. 2.99700303e-03 0. 6.99300691e-03
      4.99500474e-03 5.99400606e-03 0. 0. 0. 1.99800194e-03
      2.99700303e-03 5.99400606e-03 3.99600388e-03 2.99700303e-03
      3.99600388e-03 2.99700303e-03 6.99300691e-03 0. 9.99000971e-04
      3.99600388e-03 2.99700303e-03 1.99800194e-03 3.29670310e-02
      3.99600388e-03 7.99200777e-03 1.99800194e-03 1.69830173e-02
      1.29870130e-02 0. 9.99000971e-04 1.59840155e-02 0. 9.99000971e-04
      0. 7.99200777e-03 9.99000971e-04 3.99600388e-03 9.99000971e-04
      2.09790207e-02 9.99000971e-04 1.99800194e-03 1.99800194e-03
      9.99000971e-04 4.99500474e-03 5.99400606e-03 3.99600388e-03
      9.99000971e-04 2.99700303e-03 9.99000971e-04 1.99800194e-03
      9.39060897e-02 0. 1.99800194e-03 1.99800194e-03 9.99000948e-03
      3.99600388e-03 4.99500474e-03 2.69730259e-02 0. 0. 3.99600388e-03
      1.69830173e-02 6.99300691e-03 1.99800190e-02 1.99800194e-03 0.
      2.99700303e-03 4.99500474e-03 0. 0. 5.99400606e-03 3.99600388e-03
      0. 1.09890103e-02 0. 3.99600388e-03 9.99000971e-04 1.09890103e-02
      0. 1.59840155e-02 0. 1.99800194e-03 5.99400606e-03 5.99400606e-03
      9.99000971e-04 9.99000971e-04 2.99700303e-03 5.99400606e-03
      9.99000971e-04 0. 2.99700303e-03 4.99500474e-03 9.99000971e-04
      8.99100862e-03 2.99700303e-03 1.99800194e-03 0. 1.99800194e-03
      3.99600388e-03 0. 1.49850147e-02 1.29870130e-02 3.99600388e-03
      1.99800194e-03 6.99300691e-03 2.99700303e-03 1.99800194e-03
      2.99700303e-03 0. 9.99000971e-04 9.99000971e-04 1.09890103e-02
      3.99600388e-03 1.49850147e-02 5.99400606e-03 7.99200777e-03
      3.99600388e-03 2.99700303e-03 9.99000971e-04 9.99000971e-04 0.
      1.99800194e-03 1.09890103e-02 2.99700303e-03 2.19780207e-02
      4.99500474e-03 9.99000971e-04 9.99000971e-04 9.99000971e-04
      3.99600388e-03 3.99600388e-03 0. 9.99000971e-04 0. 8.99100862e-03
      2.99700303e-03 2.99700303e-03 5.99400606e-03</_>
    <_>
      2.16138316e-03 0. 2.08933707e-02 7.20461085e-03 5.04322769e-03
      2.88184430e-03 9.36599355e-03 0. 5.04322769e-03 5.76368859e-03
      1.22478381e-02 2.52161380e-02 6.48414949e-03 7.92507175e-03
      2.88184430e-03 6.48414949e-03 7.20461074e-04 7.20461074e-04
      4.32276633e-03 1.87319871e-02 7.20461085e-03 2.16138316e-03
      2.88184430e-03 5.76368859e-03 0. 0. 2.88184430e-03 7.92507175e-03
      5.76368859e-03 1.44092215e-03 5.04322769e-03 5.76368859e-03
      2.88184430e-03 2.52161380e-02 0. 1.44092215e-03 1.65706053e-02
      2.88184430e-03 6.48414949e-03 5.04322769e-03 5.04322769e-03
      4.32276633e-03 2.16138316e-03 5.76368859e-03 2.88184430e-03
      1.44092215e-03 0. 7.20461074e-04 2.88184430e-03 2.16138316e-03
      2.88184430e-03 2.16138316e-03 4.32276633e-03 1.08069163e-02
      5.04322769e-03 1.44092215e-03 7.92507175e-03 2.66570598e-02
      2.88184430e-03 4.32276633e-03 7.92507175e-03 1.44092215e-03
      8.64553265e-03 3.60230543e-03 5.04322769e-03 2.88184430e-03
      8.64553265e-03 1.44092215e-03 1.44092215e-03 7.20461074e-04 0.
      7.20461074e-04 1.44092215e-03 2.16138316e-03 9.36599355e-03
      1.44092215e-03 1.72910653e-02 2.16138316e-03 4.32276633e-03
      2.16138316e-03 1.44092215e-03 2.88184430e-03 6.48414949e-03
      4.32276633e-03 2.37752162e-02 4.32276633e-03 7.92507175e-03
      7.92507175e-03 2.16138316e-03 8.64553265e-03 1.44092215e-03 0.
      2.16138316e-03 2.88184430e-03 7.20461074e-04 0. 1.94524489e-02 0.
      1.44092215e-03 2.16138316e-03 5.76368859e-03 2.16138316e-03
      7.20461074e-04 2.16138316e-03 7.20461074e-04 6.48414949e-03
      3.60230543e-03 1.44092215e-03 0. 4.32276633e-03 2.16138316e-03
      1.00864554e-02 7.92507175e-03 6.48414949e-03 2.88184430e-03
      2.16138316e-03 7.92507175e-03 1.44092215e-03 1.44092215e-03
      6.48414949e-03 1.44092215e-03 7.20461074e-04 4.32276633e-03
      2.88184430e-03 5.04322769e-03 8.64553265e-03 1.44092215e-03
      2.16138316e-03 3.60230543e-03 5.04322769e-03 1.44092215e-03
      6.48414949e-03 2.16138316e-03 2.88184430e-03 3.60230543e-03
      6.48414949e-03 7.20461085e-03 1.29682990e-02 2.08933707e-02
      2.88184430e-03 1.44092215e-03 5.76368859e-03 4.32276633e-03 0.
      4.32276633e-03 1.44092215e-03 1.44092215e-03 3.60230543e-03
      1.44092215e-03 1.44092215e-03 2.88184430e-03 3.60230543e-03
      7.20461074e-04 1.44092215e-03 4.32276633e-03 5.04322769e-03
      1.87319871e-02 1.44092215e-03 0. 7.20461085e-03 5.04322769e-03 0.
      1.00864554e-02 2.08933707e-02 2.16138316e-03 7.92507175e-03
      7.20461074e-04 7.20461074e-04 4.32276633e-03 5.76368859e-03
      5.76368859e-03 1.44092215e-03 4.32276633e-03 2.01729108e-02
      5.04322769e-03 6.48414949e-03 6.48414949e-03 7.20461074e-04
      5.76368859e-03 7.20461074e-04 8.64553265e-03 2.16138316e-03 0.
      1.00864554e-02 2.88184430e-03 1.00864554e-02 3.38616706e-02
      2.16138316e-03 1.44092215e-03 7.20461074e-04 7.20461074e-04
      3.60230543e-03 3.60230543e-03 7.20461085e-03 4.32276633e-03
      2.88184430e-03 2.16138316e-03 0. 7.20461085e-03 2.16138316e-03</_>
    <_>
      0. 2.99700303e-03 9.99000971e-04 1.39860138e-02 0. 5.99400606e-03
      0. 9.99000971e-04 4.99500474e-03 1.99800194e-03 6.99300691e-03
      1.49850147e-02 0. 9.99000971e-04 3.99600388e-03 1.99800194e-03
      9.99000971e-04 2.39760242e-02 9.99000948e-03 0. 7.99200777e-03
      1.29870130e-02 5.99400606e-03 9.99000967e-02 9.99000971e-04
      5.99400606e-03 2.99700303e-03 3.99600388e-03 3.99600388e-03
      9.99000971e-04 1.39860138e-02 3.99600388e-03 5.99400606e-03
      5.09490483e-02 9.99000971e-04 1.29870130e-02 7.99200777e-03
      1.99800194e-03 1.99800194e-03 0. 2.99700303e-03 4.99500474e-03
      1.99800194e-03 4.99500474e-03 0. 9.99000948e-03 1.99800194e-03
      3.99600388e-03 0. 1.99800194e-03 9.99000971e-04 0. 9.99000971e-04
      0. 9.99000971e-04 9.99000971e-04 9.99000971e-04 6.99300691e-03
      3.99600388e-03 5.99400606e-03 1.29870130e-02 4.99500474e-03
      8.99100862e-03 8.99100862e-03 0. 9.99000971e-04 0. 1.69830173e-02
      9.99000971e-04 2.99700303e-03 0. 3.99600388e-03 3.99600388e-03 0.
      4.99500474e-03 0. 9.99000948e-03 0. 2.99700303e-03 9.99000971e-04
      1.09890103e-02 0. 0. 4.99500474e-03 2.99700303e-03 5.99400606e-03
      0. 4.99500474e-03 9.99000971e-04 3.99600388e-03 4.99500474e-03
      9.99000971e-04 0. 0. 0. 9.99000971e-04 3.09690293e-02 0.
      5.99400606e-03 6.89310655e-02 3.99600388e-03 4.99500474e-03
      2.99700303e-03 1.99800194e-03 1.09890103e-02 5.99400606e-03
      9.99000971e-04 9.99000971e-04 6.99300691e-03 0. 3.99600388e-03
      9.99000971e-04 9.99000971e-04 4.99500474e-03 0. 9.99000971e-04 0.
      0. 9.99000971e-04 2.99700303e-03 5.69430552e-02 2.99700303e-03
      1.99800194e-03 1.99800194e-03 2.99700303e-03 8.99100862e-03
      2.99700303e-03 9.99000971e-04 1.99800194e-03 6.99300691e-03
      1.99800194e-03 1.99800194e-03 9.99000971e-04 9.99000971e-04
      2.99700303e-03 5.99400606e-03 0. 1.19880121e-02 2.09790207e-02 0.
      1.99800194e-03 9.99000971e-04 0. 1.99800194e-03 1.29870130e-02
      1.99800194e-03 2.99700303e-03 2.99700303e-03 9.99000971e-04 0.
      9.99000971e-04 1.99800194e-03 9.99000971e-04 0. 0. 0.
      4.99500474e-03 2.99700303e-03 0. 4.99500474e-03 9.99000971e-04
      9.99000971e-04 5.99400606e-03 9.99000971e-04 9.99000971e-04
      2.99700303e-03 0. 2.99700303e-03 0. 9.99000971e-04 9.99000971e-04
      9.99000971e-04 1.19880121e-02 1.59840155e-02 9.99000971e-04
      9.99000971e-04 2.99700303e-03 9.99000971e-04 4.99500474e-03
      4.99500474e-03 9.99000971e-04 1.19880121e-02 1.99800194e-03
      3.99600388e-03 6.99300691e-03 9.99000971e-04 3.99600388e-03
      8.99100862e-03 9.99000971e-04 0. 9.99000971e-04 1.99800194e-03
      9.99000971e-04 9.99000948e-03 2.99700303e-03 9.99000971e-04
      9.99000971e-04 9.99000971e-04 6.99300691e-03 1.99800194e-03</_>
    <_>
      3.22580663e-03 0. 6.45161327e-03 2.12903228e-02 0. 1.29032263e-03
      1.67741943e-02 6.45161315e-04 7.09677441e-03 6.45161315e-04
      6.45161327e-03 7.09677441e-03 1.93548389e-03 3.22580663e-03
      8.38709716e-03 3.22580663e-03 3.22580663e-03 2.58064526e-03
      8.38709716e-03 2.58064526e-03 1.93548389e-03 3.87096778e-03
      1.93548389e-03 3.03225815e-02 6.45161315e-04 6.45161315e-04
      1.29032263e-03 7.09677441e-03 2.58064526e-03 3.87096778e-03
      7.09677441e-03 3.87096778e-03 1.93548389e-03 1.24516137e-01 0.
      3.87096778e-03 7.09677441e-03 5.80645166e-03 5.16129052e-03
      6.45161315e-04 9.03225876e-03 1.93548389e-03 3.22580663e-03
      1.29032263e-03 1.93548389e-03 5.80645166e-03 6.45161315e-04
      3.22580663e-03 0. 1.29032263e-03 0. 6.45161315e-04 1.29032263e-03
      8.38709716e-03 1.29032263e-03 2.58064526e-03 4.51612938e-03
      1.61290336e-02 2.96774209e-02 4.51612938e-03 1.41935488e-02 0.
      4.51612938e-03 8.38709716e-03 6.45161327e-03 2.58064526e-03
      3.87096778e-03 7.74193555e-03 6.45161315e-04 6.45161315e-04 0.
      1.93548389e-03 1.93548389e-03 3.87096778e-03 4.58064526e-02
      3.87096778e-03 4.51612938e-03 6.45161315e-04 5.16129052e-03
      6.45161315e-04 5.16129052e-03 1.29032263e-03 3.87096778e-03
      2.58064526e-03 3.22580663e-03 1.29032263e-03 3.87096778e-03
      5.80645166e-03 2.58064526e-03 1.48387104e-02 6.45161327e-03
      6.45161315e-04 0. 5.16129052e-03 1.93548389e-03 1.29032263e-03
      1.48387104e-02 1.29032263e-03 1.03225810e-02 6.45161315e-04
      3.87096778e-03 5.16129052e-03 9.67741944e-03 2.58064526e-03
      9.03225876e-03 6.45161327e-03 1.93548389e-03 2.58064526e-03
      3.22580663e-03 1.93548389e-03 1.93548389e-03 3.22580663e-03
      3.22580663e-03 6.45161315e-04 6.45161315e-04 4.51612938e-03
      6.45161315e-04 3.22580663e-03 2.58064526e-03 5.16129052e-03
      1.93548389e-03 3.22580663e-03 1.29032263e-03 7.74193555e-03
      3.22580663e-03 8.38709716e-03 1.93548389e-03 3.22580663e-03
      1.16129033e-02 6.45161327e-03 6.45161315e-04 2.58064526e-03 0.
      6.45161315e-04 0. 3.87096778e-03 8.38709716e-03 3.87096778e-03
      6.25806451e-02 2.58064526e-03 0. 4.51612938e-03 0. 2.58064526e-03
      7.09677441e-03 5.16129052e-03 1.29032263e-03 1.29032263e-03
      1.29032263e-03 1.29032263e-03 1.93548389e-03 1.29032263e-03
      1.93548389e-03 3.87096778e-03 6.45161315e-04 3.22580663e-03
      1.22580649e-02 1.93548389e-03 0. 1.22580649e-02 2.58064526e-03
      1.29032263e-03 8.38709716e-03 4.51612938e-03 2.58064526e-03 0.
      2.58064526e-03 3.87096778e-03 0. 1.29032263e-03 6.45161315e-04
      6.45161315e-04 3.87096778e-03 5.80645166e-03 2.58064526e-03
      3.87096778e-03 0. 4.51612938e-03 2.58064526e-03 1.29032263e-03
      2.58064526e-03 1.93548389e-03 0. 3.87096778e-03 3.22580663e-03
      6.45161315e-04 8.38709716e-03 4.51612938e-03 1.93548389e-03
      1.93548389e-03 3.87096778e-03 1.93548389e-03 1.93548389e-03
      1.29032263e-03 1.29032263e-03 2.58064526e-03 2.58064526e-03
      6.45161315e-04 6.45161327e-03 4.51612938e-03</_>
    <_>
      3.84245906e-03 0. 6.72430359e-03 7.68491812e-03 2.88184430e-03
      9.60614765e-04 9.60614765e-04 0. 4.80307359e-03 9.60614765e-04
      4.80307359e-03 1.92122953e-03 8.64553265e-03 1.05667626e-02
      1.92122944e-02 2.88184430e-03 3.84245906e-03 1.82516798e-02
      1.72910653e-02 4.80307359e-03 3.84245906e-03 9.60614718e-03
      2.88184430e-03 2.20941398e-02 3.84245906e-03 0. 1.92122953e-03
      5.76368859e-03 2.88184430e-03 9.60614765e-04 1.72910653e-02
      6.72430359e-03 4.80307359e-03 2.40153689e-02 0. 1.44092217e-02
      7.68491812e-03 4.80307359e-03 6.72430359e-03 1.92122953e-03
      1.24879917e-02 1.92122953e-03 1.15273772e-02 4.80307359e-03
      9.60614765e-04 7.68491812e-03 0. 9.60614765e-04 1.92122953e-03
      3.84245906e-03 9.60614765e-04 4.80307359e-03 9.60614765e-04
      1.34486072e-02 0. 2.88184430e-03 9.60614765e-04 6.05187304e-02
      1.44092217e-02 1.15273772e-02 1.34486072e-02 3.84245906e-03
      1.92122953e-03 4.80307359e-03 6.72430359e-03 7.68491812e-03
      2.88184430e-03 2.88184430e-03 9.60614765e-04 1.92122953e-03 0.
      4.80307359e-03 1.92122953e-03 3.84245906e-03 9.60614765e-04
      5.76368859e-03 3.84245906e-03 1.92122953e-03 2.88184430e-03
      9.60614765e-04 6.72430359e-03 1.92122953e-03 7.68491812e-03
      6.72430359e-03 1.92122953e-03 7.68491812e-03 1.92122953e-03
      1.92122953e-03 1.92122953e-03 1.05667626e-02 1.92122953e-03
      9.60614765e-04 9.60614765e-04 9.60614718e-03 9.60614765e-04
      9.60614765e-04 1.82516798e-02 9.60614765e-04 5.76368859e-03 0.
      2.88184430e-03 0. 2.88184430e-03 5.76368859e-03 5.76368859e-03
      5.76368859e-03 4.80307359e-03 2.88184430e-03 9.60614765e-04
      9.60614765e-04 6.72430359e-03 1.05667626e-02 5.76368859e-03
      9.60614765e-04 1.05667626e-02 2.88184430e-03 3.84245906e-03
      1.92122953e-03 2.88184430e-03 3.84245906e-03 0. 4.80307359e-03
      4.80307359e-03 4.80307359e-03 1.92122953e-03 4.80307359e-03
      9.60614765e-04 5.76368859e-03 4.80307359e-03 1.34486072e-02
      9.60614765e-04 2.88184430e-03 5.76368859e-03 3.84245906e-03
      2.88184430e-03 0. 3.84245906e-03 5.76368859e-03 2.01729108e-02
      9.60614765e-04 2.88184430e-03 1.92122953e-03 1.92122953e-03 0.
      4.80307359e-03 8.64553265e-03 1.92122953e-03 0. 3.84245906e-03
      2.88184430e-03 4.80307359e-03 4.80307359e-03 9.60614765e-04
      3.84245906e-03 0. 9.60614765e-04 2.88184430e-03 8.64553265e-03 0.
      1.05667626e-02 2.88184430e-03 0. 1.92122953e-03 7.68491812e-03 0.
      2.88184430e-03 1.92122953e-03 5.76368859e-03 2.88184430e-03
      5.76368859e-03 5.76368859e-03 8.64553265e-03 6.72430359e-03
      5.76368859e-03 1.05667626e-02 5.76368859e-03 6.72430359e-03 0.
      7.68491812e-03 3.84245906e-03 4.80307359e-03 4.80307359e-03 0.
      3.84245906e-03 5.76368859e-03 5.76368859e-03 2.88184430e-03
      5.76368859e-03 1.92122953e-03 2.88184430e-03 4.80307359e-03
      9.60614765e-04 3.84245906e-03 2.88184430e-03 4.80307359e-03
      4.80307359e-03 9.60614765e-04 2.88184430e-03 2.88184430e-03
      1.44092217e-02</_>
    <_>
      2.32558139e-03 2.32558139e-03 3.48837208e-03 2.32558139e-03
      3.48837208e-03 2.32558139e-03 5.81395347e-03 0. 3.48837208e-03
      2.32558139e-03 2.32558139e-03 8.13953485e-03 0. 1.16279069e-03
      2.55813953e-02 4.65116277e-03 1.16279069e-03 2.32558139e-03
      1.27906976e-02 0. 5.81395347e-03 1.16279069e-02 0. 7.67441839e-02
      2.32558139e-03 0. 4.65116277e-03 8.13953485e-03 4.65116277e-03
      1.04651162e-02 1.16279069e-02 5.81395347e-03 5.81395347e-03
      1.51162790e-02 3.48837208e-03 8.13953485e-03 3.48837208e-03
      1.16279069e-03 4.65116277e-03 1.16279069e-03 8.13953485e-03
      1.62790697e-02 5.81395347e-03 2.32558139e-03 1.16279069e-03
      1.39534883e-02 0. 1.16279069e-03 3.48837208e-03 1.27906976e-02 0.
      1.16279069e-03 2.32558139e-03 5.81395347e-03 0. 5.81395347e-03
      6.97674416e-03 8.13953485e-03 3.48837208e-03 1.16279069e-03
      1.27906976e-02 3.48837208e-03 4.65116277e-03 6.97674416e-03 0.
      3.48837208e-03 3.48837208e-03 8.13953485e-03 1.16279069e-03
      1.16279069e-03 0. 2.32558139e-03 5.81395347e-03 4.65116277e-03
      2.32558139e-03 0. 9.30232555e-03 1.16279069e-02 9.30232555e-03
      8.13953485e-03 4.65116277e-03 5.81395347e-03 2.32558139e-03
      6.97674416e-03 0. 1.16279069e-03 1.39534883e-02 5.81395347e-03
      2.32558139e-03 9.30232555e-03 1.16279069e-03 1.16279069e-03
      1.16279069e-02 0. 2.32558139e-03 1.16279069e-03 1.74418613e-02
      1.16279069e-03 1.16279069e-03 1.16279069e-03 5.81395347e-03
      4.65116277e-03 1.16279069e-03 0. 4.65116277e-03 1.39534883e-02
      3.48837208e-03 2.32558139e-03 0. 2.32558139e-03 3.48837208e-03
      6.97674416e-03 0. 1.16279069e-03 1.16279069e-03 4.65116277e-03
      2.32558139e-03 3.48837208e-03 0. 1.39534883e-02 0. 0.
      1.16279069e-03 9.30232555e-03 0. 9.30232555e-03 3.48837208e-03 0.
      2.32558139e-03 1.97674409e-02 1.16279069e-03 0. 6.97674416e-03
      4.65116277e-03 5.81395347e-03 2.32558139e-03 3.48837208e-03
      8.13953485e-03 2.32558139e-02 0. 2.32558139e-03 2.32558139e-02 0.
      4.65116277e-03 1.74418613e-02 5.81395347e-03 3.48837208e-03
      2.32558139e-03 0. 2.32558139e-03 4.65116277e-03 0. 2.32558139e-03
      0. 1.16279069e-03 4.65116277e-03 3.48837208e-03 3.48837208e-03 0.
      2.32558139e-03 8.13953485e-03 2.32558139e-03 1.39534883e-02
      3.48837208e-03 2.32558139e-03 1.16279069e-03 2.32558139e-03
      4.65116277e-03 1.16279069e-03 1.16279069e-02 0. 0. 0.
      4.65116277e-03 4.65116277e-03 1.39534883e-02 2.32558139e-03
      6.97674416e-03 4.65116277e-03 3.48837208e-03 1.16279069e-03
      5.81395347e-03 0. 1.74418613e-02 6.97674416e-03 1.04651162e-02
      9.30232555e-03 1.16279069e-03 8.13953485e-03 4.65116277e-03 0.
      2.32558139e-03 1.16279069e-03 2.32558139e-03 0. 2.32558139e-03
      5.81395347e-03 2.32558139e-03 4.65116277e-03 1.16279069e-03</_>
    <_>
      4.22535185e-03 7.04225339e-03 5.63380262e-03 2.53521111e-02
      1.40845065e-03 4.22535185e-03 0. 0. 5.63380262e-03 2.81690131e-03
      1.40845065e-03 2.81690131e-03 2.81690131e-03 0. 3.23943645e-02 0.
      2.81690131e-03 9.85915493e-03 8.45070370e-03 5.63380262e-03
      2.81690131e-03 1.40845065e-03 0. 1.83098577e-02 2.81690131e-03
      1.40845065e-03 4.22535185e-03 9.85915493e-03 2.81690131e-03
      7.04225339e-03 8.45070370e-03 1.40845065e-03 7.04225339e-03
      5.49295768e-02 0. 7.04225339e-03 5.63380262e-03 5.63380262e-03
      1.26760555e-02 1.40845065e-03 8.45070370e-03 9.85915493e-03
      2.81690131e-03 2.81690131e-03 1.40845065e-03 4.22535185e-03 0.
      2.81690131e-03 5.63380262e-03 2.81690131e-03 1.40845065e-03
      7.04225339e-03 0. 7.04225339e-03 0. 7.04225339e-03 2.81690131e-03
      7.04225339e-03 2.81690131e-03 0. 3.94366197e-02 1.40845065e-03 0.
      7.04225339e-03 2.81690131e-03 5.63380262e-03 7.04225339e-03
      7.04225339e-03 1.40845065e-03 0. 0. 2.81690131e-03 2.81690131e-03
      2.81690131e-03 4.22535185e-03 1.40845065e-03 2.81690131e-03
      4.22535185e-03 4.22535185e-03 0. 7.04225339e-03 4.22535185e-03
      1.40845065e-03 8.45070370e-03 5.63380262e-03 4.22535185e-03
      1.69014074e-02 1.40845065e-03 0. 5.63380262e-03 1.12676052e-02
      1.40845065e-03 5.63380262e-03 1.40845065e-03 0. 8.45070370e-03
      1.26760555e-02 1.40845065e-03 1.40845065e-03 1.40845065e-03
      4.22535185e-03 0. 9.85915493e-03 7.04225339e-03 1.69014074e-02
      2.25352105e-02 2.81690131e-03 5.63380262e-03 2.81690131e-03
      1.40845065e-03 1.40845065e-03 2.25352105e-02 1.40845065e-03 0.
      4.22535185e-03 5.63380262e-03 5.63380262e-03 1.40845065e-03
      2.81690131e-03 5.63380262e-03 0. 1.40845065e-03 4.22535185e-03
      7.04225339e-03 2.81690131e-03 5.63380262e-03 1.40845065e-03
      4.22535185e-03 2.81690131e-03 1.40845068e-02 1.40845065e-03
      1.40845065e-03 5.63380262e-03 5.63380262e-03 4.22535185e-03
      4.22535185e-03 0. 8.45070370e-03 2.25352105e-02 7.04225339e-03
      1.40845065e-03 1.12676052e-02 1.40845065e-03 2.81690131e-03
      8.45070370e-03 0. 2.81690131e-03 5.63380262e-03 2.81690131e-03
      4.22535185e-03 0. 2.81690131e-03 0. 2.81690131e-03 0. 0.
      1.40845065e-03 8.45070370e-03 0. 5.63380262e-03 4.22535185e-03
      8.45070370e-03 4.22535185e-03 2.81690131e-03 2.81690131e-03 0.
      7.04225339e-03 4.22535185e-03 0. 1.12676052e-02 2.81690131e-03 0.
      2.81690131e-03 5.63380262e-03 5.63380262e-03 9.85915493e-03
      1.40845065e-03 2.81690131e-03 1.40845068e-02 2.81690131e-03 0.
      2.81690131e-03 0. 1.12676052e-02 9.85915493e-03 2.81690131e-03 0.
      2.81690131e-03 5.63380262e-03 0. 2.81690131e-03 1.40845065e-03
      8.45070370e-03 2.81690131e-03 1.40845065e-03 5.63380262e-03
      1.40845065e-03 4.22535185e-03 1.40845065e-03 1.40845065e-03</_>
    <_>
      0. 3.38983047e-03 0. 2.71186437e-02 0. 0. 6.77966094e-03 0. 0. 0.
      0. 0. 0. 0. 6.77966094e-03 0. 6.77966094e-03 6.77966094e-03
      5.42372875e-02 0. 3.38983047e-03 0. 0. 7.79661015e-02
      3.38983047e-03 0. 0. 1.35593219e-02 6.77966094e-03 1.01694912e-02
      1.01694912e-02 0. 1.01694912e-02 4.74576280e-02 0. 0. 0.
      6.77966094e-03 0. 0. 2.37288140e-02 2.03389823e-02 3.38983047e-03
      0. 3.38983047e-03 2.03389823e-02 0. 3.38983047e-03 0. 0. 0.
      3.38983047e-03 3.38983047e-03 3.38983047e-03 0. 3.38983047e-03
      3.38983047e-03 6.77966094e-03 3.38983047e-03 3.38983047e-03
      2.37288140e-02 0. 0. 1.01694912e-02 0. 0. 3.38983047e-03
      3.38983047e-03 6.77966094e-03 0. 0. 0. 3.38983047e-03
      3.38983047e-03 0. 0. 0. 1.01694912e-02 6.77966094e-03 0. 0. 0.
      3.38983047e-03 6.77966094e-03 0. 0. 1.35593219e-02 0.
      1.01694912e-02 1.69491526e-02 6.77966094e-03 6.77966094e-03 0. 0.
      0. 6.77966094e-03 3.05084735e-02 0. 0. 0. 3.38983047e-03 0.
      2.03389823e-02 6.77966094e-03 1.35593219e-02 0. 6.77966094e-03 0.
      6.77966094e-03 0. 3.38983047e-03 6.77966094e-03 0. 0. 0.
      3.38983047e-03 0. 0. 3.38983047e-03 2.37288140e-02 0. 0. 0.
      2.03389823e-02 0. 3.38983047e-03 3.38983047e-03 1.01694912e-02
      6.77966094e-03 0. 3.38983047e-03 0. 3.38983047e-03 3.38983047e-03
      3.38983051e-02 0. 6.77966094e-03 0. 2.37288140e-02 1.01694912e-02
      0. 0. 0. 0. 2.37288140e-02 0. 3.38983047e-03 3.38983047e-03
      6.77966094e-03 3.38983047e-03 1.01694912e-02 0. 1.01694912e-02 0.
      0. 0. 0. 1.01694912e-02 0. 3.38983047e-03 0. 3.38983047e-03
      3.38983047e-03 0. 3.38983047e-03 0. 0. 3.38983047e-03 0.
      6.77966094e-03 3.38983047e-03 3.38983047e-03 0. 0. 0.
      3.38983047e-03 0. 0. 6.77966094e-03 3.38983047e-03 0.
      1.35593219e-02 0. 1.35593219e-02 0. 0. 6.77966094e-03 0.
      3.38983047e-03 0. 3.38983047e-03 0. 6.77966094e-03 3.38983047e-03
      0. 6.77966094e-03 1.35593219e-02 3.38983047e-03 3.38983047e-03 0.</_>
    <_>
      1.02564099e-03 1.53846154e-03 3.07692308e-03 1.33333327e-02
      1.02564099e-03 3.07692308e-03 1.12820510e-02 0. 1.17948717e-02
      6.66666636e-03 7.69230723e-03 4.10256395e-03 5.12820494e-04
      1.02564099e-03 1.02564096e-02 2.05128198e-03 4.61538462e-03
      1.02564096e-02 7.69230723e-03 5.12820482e-03 5.64102549e-03
      9.74358898e-03 2.05128198e-03 2.51282044e-02 2.56410241e-03
      5.12820494e-04 2.05128198e-03 3.58974352e-03 4.10256395e-03
      3.07692308e-03 5.64102549e-03 5.12820482e-03 4.10256395e-03
      2.87179481e-02 0. 7.69230723e-03 1.02564096e-02 1.53846154e-03
      6.66666636e-03 1.53846154e-03 9.23076924e-03 5.64102549e-03
      5.64102549e-03 2.05128198e-03 2.56410241e-03 2.05128198e-03 0. 0.
      1.02564099e-03 2.05128198e-03 4.61538462e-03 1.02564099e-03
      5.64102549e-03 1.28205121e-02 5.12820494e-04 4.10256395e-03
      1.02564099e-03 3.99999991e-02 3.12820487e-02 4.10256395e-03
      1.07692303e-02 3.07692308e-03 2.56410241e-03 1.12820510e-02
      5.12820494e-04 5.12820482e-03 3.07692308e-03 6.15384616e-03
      5.12820494e-04 5.12820494e-04 0. 2.05128198e-03 1.53846154e-03
      3.58974352e-03 1.07692303e-02 1.53846154e-03 4.61538462e-03
      3.07692308e-03 2.56410241e-03 0. 5.12820482e-03 5.12820482e-03
      1.02564099e-03 1.53846154e-03 3.07692308e-03 3.58974352e-03
      8.71794857e-03 7.69230723e-03 2.05128198e-03 3.58974352e-03
      4.61538462e-03 5.12820494e-04 1.53846154e-03 1.53846154e-03
      2.05128198e-03 1.53846154e-03 6.20512813e-02 0. 4.10256395e-03
      1.02564099e-03 5.12820494e-04 3.07692308e-03 4.61538462e-03
      2.05128198e-03 4.10256395e-03 3.07692308e-03 7.17948703e-03
      1.53846154e-03 2.56410241e-03 1.02564099e-03 4.61538462e-03
      8.20512790e-03 2.05128198e-03 1.02564099e-03 6.15384616e-03
      5.12820482e-03 5.12820494e-04 3.07692308e-03 3.58974352e-03
      3.07692308e-03 2.05128198e-03 1.53846154e-03 5.12820482e-03
      3.07692308e-03 2.05128198e-03 4.61538462e-03 3.58974352e-03
      2.05128198e-03 1.02564099e-03 1.53846145e-02 1.02564099e-03
      4.10256395e-03 2.56410241e-03 3.58974352e-03 9.23076924e-03
      3.58974352e-03 2.56410241e-03 4.61538462e-03 7.28205070e-02
      1.53846154e-03 1.53846154e-03 8.71794857e-03 2.56410241e-03
      5.12820494e-04 3.58974352e-03 9.23076924e-03 3.07692308e-03
      5.12820494e-04 2.05128198e-03 3.07692308e-03 6.66666636e-03
      1.02564099e-03 1.02564099e-03 5.12820494e-04 5.12820494e-04
      3.07692308e-03 8.71794857e-03 2.56410241e-03 0. 7.17948703e-03
      6.15384616e-03 2.56410241e-03 1.02564096e-02 1.02564096e-02
      5.12820494e-04 1.02564099e-03 5.64102549e-03 3.58974352e-03
      5.12820494e-04 7.17948703e-03 5.64102549e-03 1.02564099e-03
      5.12820482e-03 2.56410241e-03 7.17948703e-03 4.10256395e-03
      5.12820494e-04 1.53846154e-03 6.15384616e-03 5.12820494e-04
      1.02564099e-03 2.56410241e-03 0. 7.69230723e-03 7.69230723e-03
      8.20512790e-03 1.02564096e-02 5.12820494e-04 4.61538462e-03
      1.02564099e-03 1.02564099e-03 1.02564099e-03 6.66666636e-03
      2.56410241e-03 7.17948703e-03 5.12820494e-04 3.07692308e-03
      5.12820494e-04 5.64102549e-03 1.53846154e-03</_>
    <_>
      3.75939859e-03 2.50626565e-03 3.75939859e-03 3.75939859e-03
      1.25313282e-03 2.50626565e-03 2.50626565e-03 0. 5.01253130e-03
      1.12781953e-02 1.12781953e-02 5.01253130e-03 1.25313282e-03 0.
      1.00250626e-02 3.75939859e-03 2.25563906e-02 1.00250626e-02
      1.37844607e-02 2.50626565e-03 1.00250626e-02 6.26566401e-03 0. 0.
      5.01253130e-03 0. 2.50626565e-03 1.62907261e-02 6.26566401e-03
      3.75939859e-03 8.77192989e-03 1.25313282e-03 6.26566401e-03
      1.25313282e-03 1.25313282e-03 1.25313282e-03 5.01253130e-03
      2.50626565e-03 3.75939859e-03 2.50626565e-03 1.37844607e-02
      5.01253130e-03 6.26566401e-03 2.50626565e-03 1.25313282e-03
      1.25313282e-03 0. 1.25313282e-03 1.00250626e-02 0. 2.50626565e-03
      2.50626565e-03 3.75939859e-03 1.37844607e-02 1.25313282e-03
      5.01253130e-03 5.01253130e-03 4.63659130e-02 1.12781953e-02
      7.51879718e-03 3.75939859e-03 0. 0. 3.75939859e-03 3.75939859e-03
      7.51879718e-03 8.77192989e-03 6.26566401e-03 0. 0. 1.25313282e-03
      2.50626565e-03 2.50626565e-03 7.51879718e-03 1.00250626e-02
      1.25313282e-03 2.50626565e-03 2.50626565e-03 1.12781953e-02
      3.75939859e-03 2.50626565e-03 6.26566401e-03 3.75939859e-03
      5.01253130e-03 0. 6.26566401e-03 1.37844607e-02 5.01253130e-03
      1.75438598e-02 7.51879718e-03 0. 0. 3.75939859e-03 1.25313282e-03
      1.25313282e-03 1.25313282e-03 6.26566410e-02 0. 6.26566401e-03 0.
      6.26566401e-03 5.01253130e-03 1.25313282e-03 1.25313282e-03
      3.75939859e-03 1.25313282e-03 1.25313280e-02 6.26566401e-03 0.
      2.50626565e-03 5.01253130e-03 1.25313280e-02 5.01253130e-03
      6.26566401e-03 5.01253130e-03 3.75939859e-03 2.50626565e-03
      2.50626565e-03 1.25313282e-03 2.13032588e-02 0. 2.50626565e-03
      1.25313282e-03 1.37844607e-02 3.75939859e-03 1.12781953e-02 0.
      3.75939859e-03 2.50626565e-03 1.37844607e-02 0. 2.50626565e-03
      6.26566401e-03 3.75939859e-03 6.26566401e-03 2.50626565e-03
      5.01253130e-03 1.25313282e-03 1.37844607e-02 3.75939859e-03
      1.25313282e-03 8.77192989e-03 3.75939859e-03 1.25313282e-03
      1.25313282e-03 1.25313280e-02 0. 5.01253130e-03 5.01253130e-03
      5.01253130e-03 7.51879718e-03 2.50626565e-03 2.50626565e-03
      1.00250626e-02 2.50626565e-03 7.51879718e-03 2.50626565e-03
      2.50626565e-03 0. 0. 5.01253130e-03 0. 3.75939859e-03
      6.26566401e-03 5.01253130e-03 3.75939859e-03 2.50626565e-03
      1.25313282e-03 1.25313282e-03 5.01253130e-03 2.50626565e-03
      1.25313282e-03 0. 2.50626565e-03 1.00250626e-02 8.77192989e-03
      2.50626565e-03 3.75939859e-03 1.25313282e-03 0. 3.75939859e-03
      1.00250626e-02 0. 7.51879718e-03 7.51879718e-03 7.51879718e-03
      5.01253130e-03 1.25313282e-03 6.26566401e-03 0. 1.25313282e-03 0.
      2.50626565e-03 2.50626565e-03 1.00250626e-02 1.25313282e-03
      3.75939859e-03 5.01253130e-03 2.50626565e-03 7.51879718e-03</_>
    <_>
      5.73979598e-03 4.14540805e-03 1.33928573e-02 5.73979598e-03
      6.37755089e-04 4.46428545e-03 5.73979598e-03 1.59438774e-02
      3.50765302e-03 7.65306130e-03 3.18877539e-03 7.33418344e-03
      2.55102036e-03 4.78316331e-03 3.82653065e-03 1.43494895e-02
      3.18877544e-04 3.18877539e-03 9.56632663e-03 8.60969350e-03
      2.86989799e-03 9.56632663e-04 1.11607136e-02 1.91326533e-03
      6.37755089e-04 1.37117347e-02 1.91326533e-03 1.91326533e-03
      8.60969350e-03 2.55102036e-03 6.37755077e-03 5.42091811e-03
      1.11607136e-02 8.60969350e-03 5.73979598e-03 2.86989799e-03
      1.59438774e-02 2.55102036e-03 3.82653065e-03 1.91326533e-03
      7.01530604e-03 7.01530604e-03 3.82653065e-03 9.24744923e-03
      2.23214272e-03 2.86989799e-03 7.97193870e-03 1.27551018e-03
      3.18877544e-04 1.59438769e-03 6.05867337e-03 3.18877539e-03
      1.59438769e-03 1.91326533e-03 1.27551018e-03 1.91326533e-03
      2.16836724e-02 8.92857090e-03 2.23214272e-03 7.97193870e-03
      6.05867337e-03 1.91326533e-03 2.00892854e-02 4.46428545e-03
      1.91326533e-03 8.92857090e-03 3.18877539e-03 9.88520402e-03
      6.69642864e-03 4.46428545e-03 2.86989799e-03 1.59438769e-03
      2.86989799e-03 1.59438769e-03 0. 3.82653065e-03 1.69005096e-02
      1.91326533e-03 5.73979598e-03 6.37755077e-03 7.65306130e-03
      1.91326533e-03 2.86989799e-03 6.05867337e-03 2.55102031e-02
      6.05867337e-03 1.91326533e-03 5.73979598e-03 1.59438769e-03
      7.65306130e-03 9.56632663e-04 1.27551018e-03 6.37755089e-04
      1.02040814e-02 2.23214272e-03 1.91326533e-03 6.37755089e-04
      1.11607136e-02 7.33418344e-03 1.11607136e-02 5.10204071e-03
      1.91326533e-03 1.59438769e-03 1.59438769e-03 1.27551018e-03
      5.73979598e-03 2.86989799e-03 2.86989799e-03 9.56632663e-04
      3.18877544e-04 1.27551018e-03 7.01530604e-03 2.55102031e-02
      1.27551018e-03 5.10204071e-03 9.56632663e-04 1.91326533e-03
      4.78316331e-03 9.56632663e-04 5.73979598e-03 1.69005096e-02
      2.55102036e-03 6.37755089e-04 5.73979598e-03 2.86989799e-03
      4.78316331e-03 2.86989799e-03 2.86989799e-03 4.14540805e-03
      3.50765302e-03 1.27551018e-03 9.56632663e-04 2.23214272e-03
      1.91326533e-03 6.05867337e-03 2.86989799e-03 5.73979598e-03
      1.49872443e-02 2.23214272e-03 1.27551018e-03 2.23214272e-03
      3.18877544e-04 4.78316331e-03 4.46428545e-03 6.37755089e-04
      4.14540805e-03 1.08418362e-02 4.46428545e-03 9.56632663e-04
      1.59438769e-03 2.23214272e-03 5.73979598e-03 3.82653065e-03
      2.23214272e-03 2.32780613e-02 2.86989799e-03 1.27551018e-03
      3.18877539e-03 0. 2.55102036e-03 6.37755089e-04 3.50765302e-03
      5.42091811e-03 1.21173467e-02 2.86989799e-03 9.56632663e-04
      3.82653065e-03 3.82653065e-03 2.86989799e-03 4.14540805e-03
      2.86989799e-03 6.37755089e-04 7.01530604e-03 8.29081610e-03
      9.56632663e-04 2.23214272e-03 1.91326533e-03 9.56632663e-04
      4.14540805e-03 6.37755077e-03 6.37755089e-04 3.50765302e-03
      2.71045920e-02 3.18877539e-03 9.56632663e-04 5.10204071e-03
      1.27551015e-02 1.94515307e-02 4.14540805e-03 2.55102036e-03
      2.55102036e-03 4.14540805e-03 2.23214272e-03 5.10204071e-03
      1.27551018e-03 3.50765302e-03 4.78316331e-03 2.55102036e-03
      6.37755077e-03 4.46428545e-03</_>
    <_>
      9.57290176e-03 7.36377027e-04 7.36377016e-03 2.20913114e-03
      1.47275405e-03 2.20913114e-03 1.98821798e-02 0. 3.68188508e-03
      7.36377016e-03 1.47275405e-03 4.41826228e-03 4.41826228e-03
      1.03092780e-02 1.10456552e-02 6.62739342e-03 5.15463902e-03 0.
      7.36377016e-03 8.10014736e-03 0. 2.20913114e-03 4.41826228e-03
      1.47275405e-03 1.47275405e-03 0. 2.20913114e-03 1.54639175e-02
      2.20913114e-03 2.94550811e-03 2.20913114e-03 2.94550811e-03
      7.36377016e-03 6.62739342e-03 3.68188508e-03 2.94550811e-03
      1.54639175e-02 1.47275405e-03 5.89101622e-03 6.62739342e-03
      7.36377016e-03 8.83652456e-03 5.15463902e-03 1.32547868e-02
      4.41826228e-03 0. 0. 2.94550811e-03 2.94550811e-03 1.47275405e-03
      4.41826228e-03 1.47275405e-03 3.68188508e-03 5.15463902e-03
      1.47275405e-03 2.20913114e-03 9.57290176e-03 2.65095737e-02
      3.82916071e-02 2.20913114e-03 7.36377016e-03 2.94550811e-03 0.
      1.47275405e-03 5.89101622e-03 5.89101622e-03 3.68188508e-03
      2.20913114e-03 7.36377027e-04 0. 1.47275405e-03 2.94550811e-03
      2.94550811e-03 8.10014736e-03 8.10014736e-03 6.62739342e-03
      9.57290176e-03 2.20913114e-03 1.47275405e-03 5.89101622e-03
      2.20913114e-03 2.94550811e-03 1.03092780e-02 9.57290176e-03
      9.57290176e-03 3.68188508e-03 7.36377016e-03 3.68188508e-03
      5.89101622e-03 9.57290176e-03 1.47275405e-03 2.20913114e-03
      2.94550811e-03 4.41826228e-03 4.41826228e-03 2.20913114e-03
      5.89101622e-03 7.36377027e-04 2.20913114e-03 0. 2.20913114e-03
      3.68188508e-03 1.47275405e-03 2.20913114e-03 7.36377027e-04
      4.41826228e-03 9.57290176e-03 1.47275405e-03 0. 7.36377027e-04
      3.68188508e-03 7.36377016e-03 1.10456552e-02 2.20913114e-03
      4.41826228e-03 1.47275405e-03 2.20913114e-03 2.20913114e-03
      3.68188508e-03 1.54639175e-02 0. 6.62739342e-03 6.62739342e-03
      1.84094254e-02 2.94550811e-03 1.03092780e-02 1.47275405e-03 0.
      2.79823262e-02 5.15463902e-03 2.94550811e-03 8.10014736e-03
      5.15463902e-03 2.20913114e-03 2.94550811e-03 8.83652456e-03
      1.32547868e-02 7.36377016e-03 8.83652456e-03 3.68188508e-03
      2.94550811e-03 2.20913114e-03 5.15463902e-03 2.20913114e-03
      2.20913114e-03 5.15463902e-03 4.41826228e-03 1.47275405e-03
      5.15463902e-03 2.20913114e-03 0. 4.41826228e-03 1.47275405e-03
      6.62739342e-03 3.68188508e-03 7.36377016e-03 5.89101622e-03
      2.20913114e-03 0. 7.36377016e-03 2.94550811e-03 2.20913114e-03
      1.32547868e-02 1.84094254e-02 3.68188508e-03 2.20913114e-03
      2.94550811e-03 5.15463902e-03 5.89101622e-03 5.15463902e-03
      5.89101622e-03 5.89101622e-03 1.47275405e-03 5.89101622e-03
      1.47275405e-03 2.94550811e-03 2.94550811e-03 2.94550811e-03 0. 0.
      7.36377027e-04 7.36377027e-04 2.20913114e-03 7.36377016e-03
      5.15463902e-03 3.68188508e-03 1.03092780e-02 2.06185561e-02
      1.47275405e-03 4.41826228e-03 2.94550811e-03 0. 3.68188508e-03
      4.41826228e-03 4.41826228e-03 2.20913114e-03 2.94550811e-03
      5.15463902e-03 7.36377027e-04 1.69366710e-02</_>
    <_>
      3.54430382e-03 2.02531647e-03 3.03797470e-03 9.11392458e-03
      2.02531647e-03 3.03797470e-03 4.05063294e-03 0. 3.54430382e-03
      6.58227876e-03 6.58227876e-03 4.05063294e-03 6.07594941e-03
      9.11392458e-03 4.55696229e-03 4.55696229e-03 6.58227876e-03
      3.54430382e-03 1.51898731e-02 4.05063294e-03 3.54430382e-03
      3.54430382e-03 2.53164559e-03 1.51898731e-02 3.54430382e-03
      5.06329117e-04 5.06329117e-03 1.16455695e-02 3.54430382e-03
      4.05063294e-03 6.58227876e-03 6.07594941e-03 6.58227876e-03
      1.67088602e-02 1.51898735e-03 1.51898735e-03 8.60759523e-03
      1.51898735e-03 6.58227876e-03 3.03797470e-03 1.16455695e-02
      1.01265823e-02 1.06329117e-02 5.56962006e-03 6.07594941e-03
      3.03797470e-03 5.06329117e-04 7.59493653e-03 6.07594941e-03
      6.58227876e-03 6.07594941e-03 3.03797470e-03 2.53164559e-03
      6.58227876e-03 2.53164559e-03 3.54430382e-03 3.54430382e-03
      1.51898735e-03 1.11392401e-02 2.02531647e-03 7.08860764e-03
      4.05063294e-03 3.54430382e-03 1.36708859e-02 8.10126588e-03
      5.56962006e-03 6.58227876e-03 1.06329117e-02 1.01265823e-03
      1.01265823e-03 1.01265823e-03 3.54430382e-03 6.07594941e-03
      5.06329117e-03 1.51898735e-03 3.54430382e-03 7.59493653e-03
      2.02531647e-03 7.08860764e-03 1.01265823e-03 8.60759523e-03
      2.53164559e-03 7.08860764e-03 1.11392401e-02 3.54430382e-03
      6.58227876e-03 9.62025300e-03 5.06329117e-03 4.55696229e-03
      7.08860764e-03 0. 3.54430382e-03 8.60759523e-03 4.05063294e-03
      7.08860764e-03 2.53164559e-03 9.62025300e-03 2.02531647e-03
      5.56962006e-03 1.01265823e-03 3.03797470e-03 3.54430382e-03
      4.05063294e-03 2.53164559e-03 4.05063294e-03 3.03797470e-03
      5.56962006e-03 4.55696229e-03 1.51898735e-03 1.51898735e-03
      3.03797470e-03 1.72151905e-02 4.55696229e-03 3.03797470e-03
      4.05063294e-03 1.51898735e-03 3.54430382e-03 5.56962006e-03
      3.03797470e-03 1.11392401e-02 0. 1.77215189e-02 7.08860764e-03
      1.82278492e-02 3.54430382e-03 3.03797470e-03 4.55696229e-03
      1.01265823e-03 2.53164559e-03 6.07594941e-03 1.01265823e-03
      4.05063294e-03 5.06329117e-04 3.03797470e-03 2.53164559e-03
      5.06329117e-03 4.55696229e-03 3.54430382e-03 1.11392401e-02
      4.05063294e-03 1.51898735e-03 4.05063294e-03 4.05063294e-03
      5.06329117e-03 6.07594941e-03 1.11392401e-02 1.51898735e-03
      5.06329117e-04 7.08860764e-03 4.55696229e-03 3.54430382e-03
      2.53164559e-03 2.02531647e-03 7.08860764e-03 6.07594941e-03
      1.11392401e-02 6.58227876e-03 7.08860764e-03 0. 1.16455695e-02
      3.54430382e-03 5.56962006e-03 1.51898735e-03 1.06329117e-02
      2.53164559e-03 1.51898735e-03 3.54430382e-03 3.54430382e-03
      5.06329117e-03 7.08860764e-03 6.58227876e-03 3.03797470e-03
      5.56962006e-03 1.01265823e-03 2.02531647e-03 6.07594941e-03
      5.56962006e-03 3.03797470e-03 6.07594941e-03 4.05063294e-03
      1.01265823e-03 4.05063294e-03 0. 9.62025300e-03 2.53164559e-03
      4.05063294e-03 6.07594941e-03 3.54430382e-03 4.05063294e-03
      5.56962006e-03 6.07594941e-03 1.51898735e-03 4.05063294e-03
      2.02531647e-03 4.05063294e-03 5.06329117e-03 2.02531647e-03
      5.56962006e-03 7.08860764e-03 4.55696229e-03</_>
    <_>
      3.74672143e-03 1.49868859e-03 1.01161478e-02 5.62008237e-03
      2.62270495e-03 1.87336071e-03 5.62008237e-03 3.74672149e-04
      7.11877085e-03 4.87073790e-03 5.99475438e-03 4.87073790e-03
      6.36942638e-03 1.98576245e-02 6.74409885e-03 4.49606590e-03
      1.12401647e-03 1.49868859e-03 7.86811486e-03 1.01161478e-02
      2.62270495e-03 3.37204942e-03 3.74672143e-03 5.99475438e-03
      1.49868859e-03 0. 7.49344297e-04 8.24278686e-03 2.24803295e-03
      2.62270495e-03 6.36942638e-03 9.74147581e-03 7.86811486e-03
      2.39790175e-02 2.24803295e-03 5.99475438e-03 5.62008237e-03
      3.37204942e-03 7.11877085e-03 2.99737719e-03 7.11877085e-03
      7.49344286e-03 5.24540991e-03 6.74409885e-03 1.87336071e-03
      2.62270495e-03 0. 2.24803295e-03 4.87073790e-03 1.49868859e-03
      4.49606590e-03 1.87336071e-03 1.49868859e-03 1.23641808e-02
      2.99737719e-03 2.99737719e-03 2.99737719e-03 1.12401647e-02
      3.33458222e-02 5.24540991e-03 5.24540991e-03 7.49344297e-04
      5.62008237e-03 3.74672143e-03 1.87336076e-02 5.99475438e-03
      2.99737719e-03 4.49606590e-03 1.12401647e-03 7.49344297e-04
      1.12401647e-03 3.37204942e-03 5.62008237e-03 5.99475438e-03
      1.57362297e-02 3.74672143e-03 7.86811486e-03 2.24803295e-03
      4.87073790e-03 1.49868859e-03 7.11877085e-03 2.24803295e-03
      5.99475438e-03 5.62008237e-03 4.49606590e-03 2.24803295e-03
      8.61745980e-03 5.24540991e-03 4.49606590e-03 4.87073790e-03
      1.87336071e-03 2.62270495e-03 1.87336071e-03 5.24540991e-03
      3.74672143e-03 7.49344297e-04 2.06069686e-02 1.12401647e-03
      5.24540991e-03 1.87336071e-03 1.12401647e-03 2.62270495e-03
      1.87336071e-03 3.74672143e-03 2.99737719e-03 2.99737719e-03
      3.74672143e-03 1.87336071e-03 7.49344297e-04 1.87336071e-03
      1.87336071e-03 1.83589347e-02 1.42375417e-02 2.62270495e-03
      7.11877085e-03 3.74672143e-03 2.24803295e-03 2.99737719e-03
      3.37204942e-03 7.49344286e-03 1.49868859e-03 9.74147581e-03
      4.12139343e-03 9.74147581e-03 4.49606590e-03 1.12401647e-02
      2.62270495e-03 7.49344297e-04 3.37204942e-03 1.12401647e-02
      3.37204942e-03 5.24540991e-03 2.62270495e-03 3.37204942e-03
      2.62270495e-03 2.24803295e-03 4.87073790e-03 4.49606590e-03
      2.77257394e-02 7.49344297e-04 1.87336071e-03 3.74672143e-03
      5.62008237e-03 1.12401647e-03 2.99737719e-03 6.36942638e-03
      2.24803295e-03 1.49868859e-03 4.12139343e-03 4.49606590e-03
      3.74672143e-03 3.74672143e-03 3.74672143e-03 3.37204942e-03
      2.62270495e-03 2.99737719e-03 1.27388528e-02 3.37204942e-03 0.
      2.77257394e-02 2.99737719e-03 4.12139343e-03 1.49868857e-02
      8.24278686e-03 2.99737719e-03 5.24540991e-03 1.87336071e-03
      4.12139343e-03 4.87073790e-03 7.11877085e-03 1.87336071e-03
      1.12401647e-03 3.74672143e-03 7.49344286e-03 3.74672143e-03
      4.87073790e-03 3.37204942e-03 2.62270495e-03 5.62008237e-03
      7.49344297e-04 3.74672143e-03 7.49344297e-04 3.74672149e-04
      4.49606590e-03 7.49344286e-03 5.62008237e-03 4.12139343e-03
      2.99737719e-03 3.74672143e-03 1.49868859e-03 4.49606590e-03
      1.12401647e-03 5.24540991e-03 1.49868859e-03 4.12139343e-03
      1.87336071e-03 2.99737719e-03 3.37204942e-03 5.24540991e-03
      6.36942638e-03</_>
    <_>
      1.99760287e-03 2.39712326e-03 3.19616450e-03 7.19137024e-03
      3.99520562e-04 1.59808225e-03 3.19616450e-03 1.19856163e-03
      3.19616450e-03 1.07870549e-02 6.39232900e-03 7.99041148e-03
      1.59808225e-03 1.19856163e-03 1.07870549e-02 2.79664388e-03
      2.79664388e-03 4.39472636e-03 7.19137024e-03 2.79664388e-03
      2.79664388e-03 3.59568512e-03 1.19856163e-03 2.15741098e-02
      4.39472636e-03 3.99520562e-04 3.59568512e-03 1.31841786e-02
      3.59568512e-03 7.99041125e-04 1.99760287e-03 2.79664388e-03
      3.19616450e-03 3.83539721e-02 7.99041125e-04 5.59328776e-03
      1.51817817e-02 1.59808225e-03 3.59568512e-03 7.99041125e-04
      8.38993210e-03 7.19137024e-03 4.39472636e-03 8.38993210e-03
      2.39712326e-03 9.18897334e-03 3.99520562e-04 7.59089086e-03
      1.99760287e-03 3.19616450e-03 1.59808225e-03 1.19856163e-03
      7.99041125e-04 1.59808225e-03 1.59808225e-03 4.79424652e-03
      3.59568512e-03 1.31841786e-02 4.79424652e-03 1.19856163e-03
      1.19856168e-02 1.59808225e-03 5.19376714e-03 9.58849303e-03
      2.79664388e-03 5.99280838e-03 5.99280838e-03 6.79184962e-03
      3.99520562e-04 7.99041125e-04 1.11865755e-02 7.99041125e-04
      3.59568512e-03 2.39712326e-03 6.79184962e-03 1.19856163e-03
      7.59089086e-03 1.19856163e-03 6.79184962e-03 2.39712326e-03
      3.19616450e-03 5.59328776e-03 1.59808225e-03 6.79184962e-03
      3.19616450e-03 3.19616450e-03 7.19137024e-03 2.79664388e-03
      5.19376714e-03 6.39232900e-03 1.19856163e-03 2.39712326e-03
      7.99041148e-03 3.99520574e-03 4.39472636e-03 2.39712326e-03
      1.59808230e-02 7.99041125e-04 7.19137024e-03 7.19137024e-03
      2.39712326e-03 5.19376714e-03 6.39232900e-03 3.59568512e-03
      7.59089086e-03 5.19376714e-03 6.39232900e-03 3.59568512e-03
      1.59808225e-03 0. 3.59568512e-03 5.99280838e-03 3.19616450e-03
      1.59808225e-03 2.39712326e-03 3.19616450e-03 4.79424652e-03
      5.19376714e-03 1.99760287e-03 9.18897334e-03 4.79424652e-03
      3.99520562e-04 1.19856163e-03 2.31721923e-02 8.78945272e-03
      6.79184962e-03 4.39472636e-03 1.59808225e-03 6.79184962e-03
      1.39832199e-02 3.99520574e-03 1.99760287e-03 8.78945272e-03
      3.19616450e-03 2.79664388e-03 7.19137024e-03 7.19137024e-03
      4.79424652e-03 2.79664397e-02 2.79664388e-03 3.59568512e-03
      7.19137024e-03 3.99520562e-04 2.39712326e-03 4.39472636e-03
      5.59328776e-03 4.79424652e-03 2.79664388e-03 2.79664388e-03
      4.79424652e-03 1.59808225e-03 2.79664388e-03 4.79424652e-03
      3.99520574e-03 1.59808225e-03 3.99520562e-04 3.59568512e-03
      4.39472636e-03 0. 1.19856168e-02 3.59568512e-03 1.99760287e-03
      7.99041148e-03 1.07870549e-02 1.19856163e-03 1.59808225e-03
      5.59328776e-03 3.19616450e-03 0. 8.78945272e-03 4.79424652e-03
      8.38993210e-03 2.79664388e-03 5.59328776e-03 3.59568512e-03
      1.07870549e-02 1.19856163e-03 4.79424652e-03 7.19137024e-03
      9.98801365e-03 7.99041125e-04 3.59568512e-03 0. 7.99041148e-03
      1.03875343e-02 5.59328776e-03 1.03875343e-02 5.19376714e-03
      4.79424652e-03 2.39712326e-03 1.99760287e-03 1.19856168e-02
      2.39712326e-03 2.79664388e-03 1.59808225e-03 2.79664388e-03
      3.59568512e-03 1.99760287e-03 5.99280838e-03 1.67798642e-02</_>
    <_>
      0. 1.60771701e-03 1.28617361e-02 4.01929254e-03 0. 8.03858507e-04
      8.03858507e-04 8.03858507e-04 4.82315104e-03 5.62700955e-03
      3.21543403e-03 1.36655942e-02 4.01929254e-03 3.21543403e-03
      6.43086806e-03 8.03858507e-04 2.41157552e-03 1.60771701e-03
      8.84244405e-03 1.20578781e-02 1.60771701e-03 8.03858507e-04 0.
      7.23472657e-03 8.03858507e-04 8.03858507e-04 0. 8.03858507e-03
      2.41157552e-03 0. 1.60771701e-03 5.62700955e-03 6.43086806e-03
      3.37620564e-02 6.43086806e-03 1.60771701e-03 1.76848881e-02
      1.60771701e-03 3.21543403e-03 0. 4.82315104e-03 4.82315104e-03
      2.41157552e-03 5.62700955e-03 1.60771701e-03 8.03858507e-04 0.
      2.41157552e-03 2.41157552e-03 2.41157552e-03 0. 0. 1.60771701e-03
      2.41157552e-03 1.60771701e-03 2.41157552e-03 8.03858507e-04
      3.85852084e-02 8.84244405e-03 0. 6.43086806e-03 0. 7.23472657e-03
      8.03858507e-04 3.21543403e-03 3.21543403e-03 4.82315104e-03
      3.21543403e-03 0. 0. 3.21543403e-03 0. 8.03858507e-04
      4.01929254e-03 2.41157552e-03 3.21543403e-03 6.43086806e-03
      2.41157552e-03 4.82315104e-03 7.23472657e-03 2.41157552e-03 0.
      7.23472657e-03 5.62700955e-03 1.33440509e-01 3.21543403e-03
      8.03858507e-03 9.64630209e-03 3.21543403e-03 1.68810282e-02
      2.41157552e-03 2.41157552e-03 3.21543403e-03 5.62700955e-03 0. 0.
      4.74276505e-02 0. 2.41157552e-03 2.41157552e-03 6.43086806e-03
      1.60771701e-03 2.41157552e-03 0. 5.62700955e-03 6.43086806e-03
      2.41157552e-03 0. 3.21543403e-03 8.03858507e-04 2.41157552e-03
      4.01929254e-03 4.90353703e-02 3.21543403e-03 8.03858507e-04 0.
      2.41157552e-03 4.82315104e-03 8.03858507e-04 1.52733121e-02 0.
      1.60771701e-03 2.41157552e-03 8.84244405e-03 8.03858507e-03
      1.12540191e-02 0. 1.60771701e-03 2.41157552e-03 8.03858507e-03
      8.03858507e-04 1.60771701e-03 3.21543403e-03 8.03858507e-04
      3.21543403e-03 2.41157552e-03 2.41157552e-03 6.43086806e-03
      2.65273303e-02 1.60771701e-03 0. 3.21543403e-03 8.03858507e-04
      3.21543403e-03 1.60771701e-03 4.82315104e-03 0. 1.60771701e-03
      2.41157552e-03 4.01929254e-03 2.41157552e-03 4.82315104e-03
      3.21543403e-03 8.03858507e-04 1.60771701e-03 3.21543403e-03
      2.41157552e-03 2.41157552e-03 0. 0. 1.60771701e-03 1.60771701e-03
      1.36655942e-02 1.20578781e-02 8.03858507e-04 2.41157552e-03
      2.41157552e-03 3.21543403e-03 3.21543403e-03 3.21543403e-03
      4.01929254e-03 8.03858507e-04 1.60771701e-03 1.28617361e-02
      3.21543403e-03 7.23472657e-03 4.82315104e-03 3.21543403e-03
      2.41157552e-03 0. 2.41157552e-03 1.60771701e-03 0. 8.84244405e-03
      4.01929254e-03 3.21543403e-03 3.45659144e-02 2.41157552e-03 0.
      2.41157552e-03 8.03858507e-04 2.41157552e-03 2.41157552e-03
      1.60771701e-03 1.60771701e-03 0. 8.03858507e-04 1.60771701e-03
      7.23472657e-03 0.</_>
    <_>
      3.88418091e-03 3.88418091e-03 1.11228814e-02 9.00423713e-03
      1.41242938e-03 2.47175153e-03 1.14759887e-02 1.76553673e-03
      7.06214691e-03 1.00635597e-02 8.29802267e-03 5.64971752e-03
      6.17937837e-03 3.88418091e-03 7.76836183e-03 3.53107345e-03
      4.06073453e-03 1.58898300e-03 9.00423713e-03 9.88700613e-03
      3.53107345e-03 3.00141238e-03 2.47175153e-03 8.82768352e-03
      2.47175153e-03 7.06214691e-04 2.29519769e-03 6.53248606e-03
      7.41525413e-03 4.06073453e-03 1.04166670e-02 5.47316391e-03
      8.82768352e-03 1.78319216e-02 1.23587577e-03 3.88418091e-03
      1.16525423e-02 3.53107345e-03 5.29661030e-03 2.29519769e-03
      8.65112990e-03 8.12146906e-03 7.23870052e-03 5.12005668e-03
      5.29661030e-03 1.94209046e-03 1.05932204e-03 3.17796599e-03
      3.00141238e-03 3.17796599e-03 1.58898300e-03 3.00141238e-03
      2.29519769e-03 6.35593198e-03 2.47175153e-03 3.35451984e-03
      4.23728814e-03 1.64194908e-02 1.34180794e-02 6.70903968e-03
      6.70903968e-03 3.35451984e-03 3.00141238e-03 4.76694899e-03
      9.00423713e-03 9.71045159e-03 3.17796599e-03 7.76836183e-03
      7.06214691e-04 1.41242938e-03 1.05932204e-03 3.17796599e-03
      5.12005668e-03 4.59039537e-03 1.00635597e-02 2.82485876e-03
      5.82627114e-03 2.47175153e-03 7.41525413e-03 1.41242938e-03
      7.23870052e-03 5.64971752e-03 8.47457629e-03 4.76694899e-03
      1.02401134e-02 5.29661030e-03 4.94350307e-03 5.12005668e-03
      7.23870052e-03 6.35593198e-03 8.82768363e-04 3.53107345e-03
      6.00282475e-03 5.29661030e-03 4.23728814e-03 4.41384176e-03
      6.00282475e-03 2.29519769e-03 3.17796599e-03 2.29519769e-03
      3.00141238e-03 3.17796599e-03 2.29519769e-03 3.17796599e-03
      2.82485876e-03 3.88418091e-03 9.18079074e-03 3.35451984e-03
      1.76553673e-03 5.29661018e-04 2.82485876e-03 9.00423713e-03
      7.59180775e-03 3.70762707e-03 3.00141238e-03 4.76694899e-03
      3.35451984e-03 4.59039537e-03 3.35451984e-03 1.00635597e-02
      1.76553673e-03 3.53107345e-03 4.41384176e-03 9.00423713e-03
      5.82627114e-03 7.59180775e-03 3.17796599e-03 3.35451984e-03
      3.70762707e-03 7.94491544e-03 2.29519769e-03 4.41384176e-03
      4.41384176e-03 4.23728814e-03 3.88418091e-03 5.12005668e-03
      3.88418091e-03 1.12994350e-02 9.71045159e-03 2.82485876e-03
      1.76553673e-03 4.06073453e-03 3.35451984e-03 4.59039537e-03
      3.53107345e-03 9.71045159e-03 4.23728814e-03 2.11864407e-03
      3.88418091e-03 6.17937837e-03 4.76694899e-03 3.00141238e-03
      3.88418091e-03 3.88418091e-03 4.23728814e-03 4.41384176e-03
      8.12146906e-03 3.70762707e-03 0. 5.64971752e-03 2.82485876e-03
      3.88418091e-03 7.59180775e-03 9.35734436e-03 4.06073453e-03
      2.64830515e-03 4.41384176e-03 6.53248606e-03 3.17796599e-03
      9.88700613e-03 2.29519769e-03 2.11864407e-03 7.06214691e-03
      8.65112990e-03 4.59039537e-03 4.06073453e-03 2.11864407e-03
      4.94350307e-03 8.65112990e-03 2.11864407e-03 1.94209046e-03
      1.76553673e-03 1.76553673e-04 6.00282475e-03 4.94350307e-03
      1.14759887e-02 8.29802267e-03 4.06073453e-03 2.47175153e-03
      3.17796599e-03 5.12005668e-03 1.23587577e-03 4.94350307e-03
      3.88418091e-03 3.35451984e-03 3.53107345e-03 5.29661030e-03
      2.82485876e-03 6.17937837e-03 7.94491544e-03</_>
    <_>
      5.10692643e-03 1.59591448e-03 6.38365792e-03 5.10692643e-03
      2.55346322e-03 3.83019494e-03 2.55346322e-03 3.19182902e-04
      1.27673161e-03 1.05330357e-02 1.91509747e-03 4.78774356e-03
      5.10692643e-03 3.83019494e-03 1.14905844e-02 4.14937781e-03
      5.10692643e-03 1.27673161e-03 1.40440473e-02 5.42610930e-03
      1.59591448e-03 1.91509747e-03 3.19182902e-04 7.34120654e-03
      4.46856068e-03 1.27673161e-03 3.83019494e-03 1.56399626e-02
      7.34120654e-03 3.19182896e-03 1.59591448e-03 2.55346322e-03
      1.69166941e-02 3.19182896e-03 6.38365804e-04 1.59591448e-03
      4.14937781e-03 2.87264609e-03 5.42610930e-03 6.38365804e-04
      1.43632302e-02 7.34120654e-03 7.66038988e-03 8.93712137e-03
      8.61793850e-03 4.14937781e-03 9.57548735e-04 6.70284079e-03
      3.83019494e-03 3.83019494e-03 1.59591448e-03 2.55346322e-03
      1.27673161e-03 7.66038988e-03 9.57548735e-04 1.59591448e-03
      3.83019494e-03 1.21289501e-02 1.43632302e-02 3.19182902e-04
      7.34120654e-03 3.19182896e-03 3.19182896e-03 6.38365792e-03
      7.66038988e-03 1.05330357e-02 2.23428034e-03 7.66038988e-03
      6.38365804e-04 1.27673161e-03 3.51101183e-03 3.19182896e-03
      4.78774356e-03 1.05330357e-02 6.38365804e-04 2.87264609e-03
      1.56399626e-02 3.19182896e-03 9.57548711e-03 3.19182902e-04
      7.66038988e-03 2.87264609e-03 4.14937781e-03 1.40440473e-02
      2.55346322e-03 8.29875562e-03 7.34120654e-03 4.14937781e-03
      5.42610930e-03 6.38365792e-03 6.70284079e-03 4.14937781e-03
      3.83019494e-03 1.02138529e-02 1.14905844e-02 5.42610930e-03
      1.50015960e-02 1.59591448e-03 3.51101183e-03 2.87264609e-03
      1.59591448e-03 1.59591448e-03 2.87264609e-03 1.91509747e-03
      1.59591448e-03 7.66038988e-03 4.78774356e-03 4.14937781e-03
      4.14937781e-03 1.91509747e-03 2.87264609e-03 1.50015960e-02
      2.87264609e-03 1.27673161e-03 1.59591448e-03 2.87264609e-03
      1.27673161e-03 5.10692643e-03 3.83019494e-03 1.50015960e-02
      3.19182896e-03 1.59591448e-03 3.19182896e-03 3.12799253e-02
      5.74529218e-03 3.51101183e-03 4.46856068e-03 3.19182896e-03
      2.23428034e-03 8.61793850e-03 5.10692643e-03 1.59591448e-03
      5.42610930e-03 5.10692643e-03 2.55346322e-03 3.83019494e-03
      1.91509747e-03 1.75550599e-02 1.18097672e-02 2.87264609e-03
      1.59591448e-03 3.83019494e-03 0. 8.61793850e-03 6.06447505e-03
      7.66038988e-03 5.42610930e-03 1.91509747e-03 8.61793850e-03
      6.70284079e-03 2.23428034e-03 5.10692643e-03 2.87264609e-03
      9.89466999e-03 1.59591448e-03 6.38365804e-04 4.78774356e-03
      4.46856068e-03 3.19182902e-04 3.83019494e-03 2.87264609e-03
      6.70284079e-03 3.83019494e-03 5.42610930e-03 7.34120654e-03
      6.38365804e-04 7.02202367e-03 3.83019494e-03 0. 9.89466999e-03
      2.87264609e-03 6.06447505e-03 5.74529218e-03 2.87264609e-03
      3.19182896e-03 4.14937781e-03 9.57548735e-04 4.14937781e-03
      7.02202367e-03 4.14937781e-03 5.42610930e-03 2.23428034e-03 0.
      7.34120654e-03 6.06447505e-03 4.78774356e-03 1.11714015e-02
      7.02202367e-03 4.78774356e-03 9.25630424e-03 4.14937781e-03
      4.14937781e-03 2.87264609e-03 1.27673161e-03 3.19182896e-03
      3.51101183e-03 2.55346322e-03 3.51101183e-03 2.23428034e-03
      3.19182896e-03</_>
    <_>
      2.13523139e-03 2.13523139e-03 6.76156580e-03 9.60854068e-03
      7.11743778e-04 2.84697511e-03 4.98220650e-03 3.55871889e-04
      2.84697511e-03 5.33807836e-03 6.04982208e-03 6.04982208e-03
      5.69395022e-03 3.55871883e-03 9.25266929e-03 2.84697511e-03
      1.77935942e-03 2.49110325e-03 4.27046278e-03 8.18505324e-03
      1.77935942e-03 1.77935942e-03 1.42348756e-03 1.49466190e-02
      2.84697511e-03 7.11743778e-04 1.42348756e-03 3.55871883e-03
      3.55871883e-03 1.77935942e-03 1.06761567e-02 5.33807836e-03
      5.69395022e-03 4.83985767e-02 2.49110325e-03 3.20284697e-03
      2.34875455e-02 1.77935942e-03 6.76156580e-03 1.77935942e-03
      2.84697511e-03 5.69395022e-03 6.40569394e-03 5.33807836e-03
      1.42348756e-03 4.98220650e-03 0. 1.77935942e-03 0. 1.06761570e-03
      2.84697511e-03 1.06761570e-03 3.55871883e-03 1.03202844e-02
      7.11743766e-03 2.13523139e-03 5.33807836e-03 1.81494672e-02
      2.95373667e-02 1.77935942e-03 8.18505324e-03 4.62633464e-03
      3.20284697e-03 7.11743766e-03 1.38790039e-02 3.91459092e-03
      2.49110325e-03 7.11743766e-03 0. 3.55871889e-04 1.06761570e-03
      3.20284697e-03 2.13523139e-03 3.91459092e-03 2.49110325e-03
      7.11743766e-03 4.27046278e-03 1.42348756e-03 5.33807836e-03
      3.91459092e-03 4.98220650e-03 2.49110325e-03 1.56583637e-02
      4.27046278e-03 1.85053386e-02 4.62633464e-03 8.89679696e-03
      4.27046278e-03 2.13523139e-03 6.76156580e-03 2.13523139e-03
      1.06761570e-03 3.91459092e-03 1.28113879e-02 1.77935942e-03
      2.84697511e-03 8.89679696e-03 1.77935942e-03 4.98220650e-03
      1.77935942e-03 2.49110325e-03 2.49110325e-03 6.76156580e-03
      3.20284697e-03 7.11743766e-03 9.96441301e-03 5.33807836e-03
      2.49110325e-03 7.11743778e-04 1.06761570e-03 3.91459092e-03
      5.33807836e-03 1.38790039e-02 2.13523139e-03 4.27046278e-03
      1.06761570e-03 3.20284697e-03 3.20284697e-03 2.13523139e-03
      5.33807836e-03 7.11743778e-04 5.33807836e-03 3.20284697e-03
      1.42348756e-03 2.84697511e-03 1.88612100e-02 3.20284697e-03
      2.84697511e-03 6.04982208e-03 1.13879004e-02 1.06761570e-03
      2.84697511e-03 6.76156580e-03 2.13523139e-03 3.55871883e-03
      5.33807836e-03 7.47330952e-03 8.18505324e-03 2.20640562e-02
      1.42348756e-03 1.42348756e-03 3.55871883e-03 1.06761570e-03
      2.13523139e-03 3.20284697e-03 1.49466190e-02 4.98220650e-03
      1.77935942e-03 1.77935942e-03 2.13523139e-03 3.20284697e-03
      6.40569394e-03 1.42348756e-03 2.13523139e-03 2.13523139e-03
      7.11743766e-03 7.47330952e-03 4.27046278e-03 0. 1.45907477e-02
      1.42348756e-03 3.91459092e-03 1.60142351e-02 1.60142351e-02
      1.06761570e-03 1.06761570e-03 2.84697511e-03 3.91459092e-03
      2.84697511e-03 4.98220650e-03 3.55871883e-03 1.06761570e-03
      3.91459092e-03 8.54092557e-03 2.84697511e-03 3.55871883e-03
      3.20284697e-03 1.77935942e-03 3.91459092e-03 7.11743778e-04
      2.49110325e-03 1.42348756e-03 3.55871889e-04 5.69395022e-03
      4.27046278e-03 7.47330952e-03 9.60854068e-03 7.11743766e-03
      2.13523139e-03 1.42348756e-03 3.20284697e-03 1.42348756e-03
      5.33807836e-03 2.84697511e-03 2.13523139e-03 3.20284697e-03
      2.84697511e-03 2.13523139e-03 6.04982208e-03 9.96441301e-03</_>
    <_>
      0. 0. 2.53164559e-03 2.27848105e-02 0. 1.26582279e-03
      2.53164559e-03 0. 3.79746826e-03 2.53164559e-03 7.59493653e-03
      1.26582279e-03 3.79746826e-03 3.79746826e-03 1.51898731e-02
      1.26582279e-03 1.26582279e-03 2.53164559e-03 3.79746826e-03
      3.79746826e-03 6.32911408e-03 3.79746826e-03 0. 3.54430377e-02
      2.53164559e-03 0. 3.79746826e-03 3.79746826e-03 7.59493653e-03
      5.06329117e-03 2.53164559e-03 5.06329117e-03 2.53164559e-03
      3.29113938e-02 0. 6.32911408e-03 2.02531647e-02 7.59493653e-03
      5.06329117e-03 1.26582279e-03 7.59493653e-03 7.59493653e-03
      1.64556969e-02 1.39240511e-02 2.53164559e-03 7.59493653e-03 0.
      2.53164559e-03 3.79746826e-03 5.06329117e-03 1.26582279e-03
      1.26582279e-03 8.86075944e-03 5.06329117e-03 1.26582279e-03
      6.32911408e-03 3.79746826e-03 1.13924053e-02 1.01265823e-02
      2.53164559e-03 1.64556969e-02 2.53164559e-03 0. 2.53164559e-03
      2.53164559e-03 3.79746826e-03 3.79746826e-03 7.59493653e-03 0. 0.
      5.06329117e-03 2.53164559e-03 0. 5.06329117e-03 2.53164559e-03 0.
      3.79746826e-03 3.79746826e-03 8.86075944e-03 0. 3.79746826e-03
      8.86075944e-03 0. 3.79746826e-03 3.79746826e-03 3.79746826e-03
      1.89873427e-02 1.51898731e-02 1.26582279e-03 0. 1.26582279e-03
      5.06329117e-03 7.59493653e-03 6.32911408e-03 0. 5.06329117e-03
      1.39240511e-02 0. 2.53164559e-03 2.53164559e-03 1.26582279e-03
      3.79746826e-03 3.79746826e-03 1.13924053e-02 5.06329117e-03
      7.59493653e-03 6.32911408e-03 1.26582279e-03 1.26582279e-03
      1.26582279e-03 1.26582279e-03 1.26582279e-03 0. 3.79746826e-03
      1.26582279e-03 5.06329117e-03 0. 2.53164559e-03 1.26582279e-03
      1.39240511e-02 1.26582279e-03 0. 3.79746826e-03 8.86075944e-03
      1.26582279e-03 2.15189867e-02 2.53164559e-03 5.06329117e-03
      1.26582279e-03 2.02531647e-02 0. 0. 1.13924053e-02 6.32911408e-03
      0. 2.53164559e-03 5.06329117e-03 5.06329117e-03 1.13924053e-02 0.
      1.26582279e-03 6.32911408e-03 2.53164559e-03 1.26582279e-03
      3.79746826e-03 5.06329117e-03 3.79746826e-03 2.53164559e-03
      3.79746826e-03 7.59493653e-03 5.06329117e-03 2.53164559e-03
      5.06329117e-03 2.53164559e-03 2.53164559e-03 2.53164559e-03
      5.06329117e-03 2.53164559e-03 0. 1.13924053e-02 5.06329117e-03
      2.53164559e-03 5.06329117e-03 6.32911408e-03 1.26582279e-03
      7.59493653e-03 7.59493653e-03 1.01265823e-02 1.26582279e-03
      8.86075944e-03 5.06329117e-03 0. 7.59493653e-03 6.32911408e-03
      8.86075944e-03 8.86075944e-03 2.53164559e-03 5.06329117e-03
      8.86075944e-03 0. 3.79746826e-03 3.79746826e-03 0. 2.65822783e-02
      1.39240511e-02 5.06329117e-03 7.59493653e-03 6.32911408e-03
      3.79746826e-03 0. 0. 1.26582279e-03 6.32911408e-03 1.26582279e-03
      8.86075944e-03 8.86075944e-03 5.06329117e-03 1.26582279e-03
      2.53164559e-03 1.26582279e-03</_></support_vectors>
  <decision_functions>
    <_>
      <sv_count>30</sv_count>
      <rho>-9.9825756319953785e-01</rho>
      <alpha>
        3.4378175396618860e-02 1.5480516119784760e-01
        3.6039209342755030e-01 3.9326064385227025e-02
        5.5034154446976247e-01 3.8335417326637328e-01
        6.4442018484959052e-01 6.1577468111509430e-02
        1.0361347024112180e-01 9.1111658238782722e-01
        8.6268634765516800e-02 5.3305844878193598e-01
        4.1779139000878610e-02 3.5963006045842516e-01
        2.3686885337034130e-01 4.4409882815679466e-02
        3.1555302791034151e-01 1.4790534374009856e-01
        2.3228583948954315e-01 4.1206826155213129e-02
        2.8101785616678138e-01 1.1827241330818390e-01
        1.1249248083053566e-01 2.0592627547309700e-01 -1. -1. -1. -1.
        -1. -1.</alpha>
      <index>
        0 1 2 3 4 5 6 7 8 9 10 11 12 13 14 15 16 17 18 19 20 21 22 23 24
        25 26 27 28 29</index></_></decision_functions></my_svm>
</opencv_storage>
