<?xml version="1.0"?>
<opencv_storage>
<my_svm type_id="opencv-ml-svm">
  <svm_type>C_SVC</svm_type>
  <kernel><type>RBF</type>
    <gamma>1.</gamma></kernel>
  <C>1.</C>
  <term_criteria><epsilon>1.1920928955078125e-07</epsilon>
    <iterations>1000</iterations></term_criteria>
  <var_all>200</var_all>
  <var_count>200</var_count>
  <class_count>2</class_count>
  <class_labels type_id="opencv-matrix">
    <rows>1</rows>
    <cols>2</cols>
    <dt>i</dt>
    <data>
      0 1</data></class_labels>
  <sv_total>13</sv_total>
  <support_vectors>
    <_>
      0. 2.17391308e-02 1.69082116e-02 0. 9.66183562e-03 4.83091781e-03
      1.20772943e-02 0. 1.44927539e-02 4.83091781e-03 2.41545890e-03
      2.41545890e-03 0. 0. 4.83091781e-03 7.24637695e-03 7.24637695e-03
      7.24637695e-03 4.83091781e-03 0. 4.83091781e-03 0. 7.24637695e-03
      7.24637695e-03 0. 0. 1.44927539e-02 0. 4.83091781e-03 0. 0. 0.
      7.24637695e-03 4.83091781e-03 1.20772943e-02 4.83091781e-03
      2.41545890e-03 7.24637695e-03 4.83091781e-03 0. 1.20772943e-02
      2.41545890e-03 0. 2.41545890e-03 2.17391308e-02 2.41545890e-03
      1.44927539e-02 9.66183562e-03 2.41545890e-03 0. 0. 0.
      4.83091781e-03 0. 2.41545890e-03 0. 7.24637695e-03 2.41545890e-03
      0. 0. 0. 7.24637695e-03 9.66183562e-03 0. 2.17391308e-02
      2.41545890e-03 2.41545890e-03 2.41545890e-03 2.41545890e-03
      2.41545890e-03 1.20772943e-02 0. 9.66183562e-03 0. 1.93236712e-02
      0. 0. 2.41545890e-03 0. 0. 0. 0. 2.41545890e-03 0. 1.69082116e-02
      4.83091781e-03 4.83091781e-03 0. 5.79710156e-02 0. 1.44927539e-02
      0. 0. 2.41545890e-03 4.83091781e-03 0. 4.83091781e-03
      2.41545890e-03 4.83091781e-03 0. 1.69082116e-02 0. 4.83091781e-03
      9.66183562e-03 0. 0. 2.41545890e-03 1.20772943e-02 2.41545890e-03
      0. 0. 9.66183562e-03 0. 4.83091781e-03 0. 4.83091781e-03
      2.41545890e-03 2.41545890e-03 2.41545890e-03 0. 4.83091781e-03
      7.24637695e-03 2.41545890e-03 2.41545890e-03 4.83091781e-03
      2.41545890e-03 0. 1.20772943e-02 0. 4.83091781e-03 0.
      4.83091781e-03 7.24637695e-03 7.24637695e-03 0. 0. 7.24637695e-03
      7.24637695e-03 4.10628021e-02 0. 1.69082116e-02 4.83091781e-03 0.
      4.83091781e-03 0. 4.83091781e-03 9.66183562e-03 0. 0.
      4.83091781e-03 2.41545890e-03 2.41545890e-03 0. 0. 4.83091781e-03
      7.24637695e-03 2.41545890e-03 0. 0. 4.83091781e-03 6.76328465e-02
      0. 7.24637695e-03 1.69082116e-02 0. 4.83091781e-03 4.83091781e-03
      7.24637695e-03 0. 1.20772943e-02 0. 9.66183562e-03 2.41545890e-03
      4.83091781e-03 0. 7.24637695e-03 0. 1.20772943e-02 7.24637695e-03
      0. 2.41545890e-03 0. 0. 7.24637695e-03 1.20772943e-02
      2.41545890e-03 1.20772943e-02 7.24637695e-03 2.41545890e-03
      7.24637695e-03 0. 2.41545890e-03 2.41545890e-03 0. 0.
      4.83091781e-03 2.41545890e-03 2.41545890e-03 2.41545890e-03
      2.41545890e-03</_>
    <_>
      0. 5.40540554e-03 2.16216221e-02 5.40540554e-03 0. 5.40540554e-03
      1.62162166e-02 0. 5.40540554e-03 0. 0. 1.08108111e-02 0. 0.
      1.62162166e-02 0. 0. 0. 5.40540554e-03 0. 1.62162166e-02 0.
      5.40540554e-03 1.08108111e-02 1.08108111e-02 5.40540554e-03
      1.08108111e-02 0. 0. 5.40540554e-03 0. 0. 0. 1.08108111e-02
      1.08108111e-02 0. 5.40540554e-03 5.40540554e-03 5.40540554e-03
      5.40540554e-03 5.40540554e-03 1.62162166e-02 0. 0. 2.16216221e-02
      0. 0. 5.40540554e-03 1.08108111e-02 0. 0. 0. 5.40540554e-03 0.
      3.78378406e-02 5.40540554e-03 0. 5.40540554e-03 0. 1.62162166e-02
      0. 0. 1.62162166e-02 0. 0. 1.08108111e-02 5.40540554e-03 0. 0.
      5.40540554e-03 1.08108111e-02 5.40540554e-03 5.40540554e-03
      5.40540554e-03 0. 0. 0. 1.08108111e-02 1.08108111e-02 0.
      5.40540554e-03 0. 0. 1.62162166e-02 0. 1.62162166e-02 0. 0.
      5.40540554e-03 0. 2.16216221e-02 0. 0. 1.08108111e-02
      5.40540554e-03 0. 5.40540554e-03 0. 0. 0. 0. 5.40540554e-03 0.
      5.40540554e-03 1.08108111e-02 0. 5.40540554e-03 2.16216221e-02
      1.08108111e-02 1.08108111e-02 5.40540554e-03 1.62162166e-02 0. 0.
      0. 0. 5.40540554e-03 0. 0. 5.40540554e-03 1.62162166e-02 0. 0.
      5.40540554e-03 0. 0. 5.40540554e-03 1.62162166e-02 1.08108111e-02
      5.40540554e-03 0. 1.08108111e-02 0. 1.62162166e-02 0. 0.
      3.78378406e-02 5.40540554e-03 1.08108111e-02 5.40540554e-03
      1.62162166e-02 0. 5.40540554e-03 5.40540554e-03 1.08108111e-02 0.
      0. 0. 0. 0. 5.40540554e-03 0. 0. 0. 5.40540554e-03 0. 0. 0. 0. 0.
      1.08108111e-02 0. 0. 1.08108111e-02 5.40540554e-03 1.62162166e-02
      1.08108111e-02 1.62162166e-02 1.62162166e-02 5.40540554e-03 0. 0.
      0. 5.40540554e-03 0. 5.40540554e-03 5.40540554e-03 1.08108111e-02
      0. 0. 0. 0. 0. 4.86486480e-02 0. 0. 5.40540554e-03 0. 0. 0. 0. 0.
      0. 0. 5.40540554e-03 1.62162166e-02 0. 0. 0. 5.40540554e-03</_>
    <_>
      0. 2.86123040e-03 2.28898432e-02 2.86123040e-03 5.72246080e-03
      1.71673819e-02 2.86123040e-03 1.43061522e-02 2.86123040e-03
      4.29184549e-03 4.29184549e-03 5.72246080e-03 0. 0. 5.72246080e-03
      1.43061520e-03 1.43061520e-03 7.15307612e-03 5.72246080e-03 0.
      4.29184549e-03 1.43061520e-03 0. 4.29184549e-03 4.29184549e-03 0.
      1.43061520e-03 0. 1.43061520e-03 0. 1.43061520e-03 0.
      1.43061520e-03 7.15307612e-03 1.00143068e-02 1.43061520e-03
      2.86123040e-03 1.43061520e-03 5.72246080e-03 2.86123040e-03
      1.43061520e-03 2.86123040e-03 4.29184549e-03 0. 4.29184549e-03
      5.72246080e-03 7.15307612e-03 7.15307612e-03 2.86123040e-03
      2.14592274e-02 0. 1.43061520e-03 0. 4.29184549e-03 1.14449216e-02
      2.86123040e-03 1.43061520e-03 5.72246080e-03 1.14449216e-02
      2.86123040e-03 2.86123040e-03 2.86123040e-03 2.86123040e-03 0.
      1.00143068e-02 1.43061520e-03 0. 1.43061520e-03 0. 2.86123040e-03
      1.43061520e-03 0. 4.29184549e-03 5.72246080e-03 0. 4.29184549e-03
      0. 1.43061520e-03 1.00143068e-02 1.43061520e-03 5.72246080e-03 0.
      1.43061520e-03 0. 2.86123040e-03 8.58369097e-03 2.86123040e-03 0.
      3.57653797e-02 4.29184549e-03 2.86123040e-03 4.29184549e-03 0.
      4.29184549e-03 5.72246080e-03 8.58369097e-03 1.00143068e-02
      2.86123040e-03 2.86123040e-03 1.43061520e-03 7.15307612e-03 0.
      5.72246080e-03 1.43061520e-03 2.86123040e-03 1.43061520e-03
      2.86123040e-03 2.86123040e-03 4.29184549e-03 1.43061520e-03 0.
      7.15307612e-03 6.58082962e-02 2.86123040e-03 1.00143068e-02
      1.43061520e-03 5.72246080e-03 4.29184549e-03 8.58369097e-03
      1.14449216e-02 1.43061520e-03 1.43061520e-03 1.14449216e-02
      1.43061520e-03 4.72103022e-02 5.72246080e-03 0. 2.86123040e-03 0.
      0. 1.43061520e-03 1.57367680e-02 2.86123040e-03 8.58369097e-03
      2.86123040e-03 0. 1.57367680e-02 5.72246080e-03 3.00429184e-02
      2.86123040e-03 4.29184549e-03 7.15307612e-03 2.86123040e-03
      4.29184549e-03 2.86123040e-03 0. 7.15307612e-03 1.43061522e-02 0.
      5.72246080e-03 5.72246080e-03 5.72246080e-03 0. 1.00143068e-02
      1.43061520e-03 5.72246080e-03 2.86123040e-03 0. 0. 1.00143068e-02
      2.00286135e-02 0. 4.29184549e-03 2.86123040e-03 2.86123040e-03
      1.43061520e-03 2.28898432e-02 1.43061520e-03 2.86123040e-03
      2.86123040e-03 0. 1.43061520e-03 0. 1.43061520e-03 0.
      2.86123040e-03 4.29184549e-03 2.86123040e-03 2.86123040e-03 0. 0.
      0. 2.86123040e-03 3.00429184e-02 4.29184549e-03 4.29184549e-03
      1.28755365e-02 1.43061520e-03 7.15307612e-03 7.15307612e-03
      2.86123040e-03 0. 5.72246080e-03 0. 7.15307612e-03 2.86123040e-03
      0. 7.15307612e-03 0. 1.71673819e-02</_>
    <_>
      1.51745067e-03 7.58725312e-03 2.57966612e-02 3.03490134e-03
      6.82852790e-03 4.55235224e-03 6.06980268e-03 2.27617612e-03
      5.31107746e-03 1.28983306e-02 3.03490134e-03 1.21396054e-02 0. 0.
      2.27617612e-03 2.27617612e-03 7.58725335e-04 6.82852790e-03
      3.79362656e-03 0. 6.06980268e-03 1.51745067e-03 7.58725335e-04
      1.21396054e-02 5.31107746e-03 2.27617612e-03 3.79362656e-03 0.
      1.51745067e-03 3.03490134e-03 7.58725335e-04 0. 2.27617612e-03
      9.86342970e-03 8.34597833e-03 5.31107746e-03 7.58725335e-04
      2.27617612e-03 5.31107746e-03 3.03490134e-03 6.06980268e-03
      1.51745067e-03 2.27617612e-03 0. 6.06980268e-03 1.51745067e-03
      3.79362656e-03 6.06980268e-03 3.03490134e-03 7.58725335e-04 0.
      1.51745067e-03 3.79362656e-03 7.58725335e-04 6.06980268e-03
      1.51745067e-03 7.58725335e-04 9.10470448e-03 6.06980268e-03
      2.27617612e-03 0. 9.86342970e-03 1.59332324e-02 0. 6.82852790e-03
      1.51745067e-03 7.58725335e-04 3.03490134e-03 1.51745067e-03
      7.58725335e-04 3.79362656e-03 0. 6.06980268e-03 4.55235224e-03
      9.10470448e-03 1.06221549e-02 7.58725335e-04 1.51745067e-03
      6.06980268e-03 1.51745067e-03 0. 0. 2.27617612e-03 0.
      5.31107746e-03 9.86342970e-03 2.27617612e-03 7.58725335e-04
      5.23520485e-02 6.82852790e-03 6.06980268e-03 2.27617612e-03 0.
      1.51745067e-03 3.03490134e-03 3.03490134e-03 9.86342970e-03
      7.58725335e-04 3.03490134e-03 7.58725335e-04 8.34597833e-03
      3.03490134e-03 5.31107746e-03 1.51745067e-03 2.27617612e-03
      7.58725335e-04 1.51745067e-03 5.31107746e-03 3.79362656e-03
      1.51745067e-03 7.58725335e-04 9.86342970e-03 3.79362656e-03 0.
      3.03490134e-03 2.27617612e-03 6.82852790e-03 1.51745067e-03
      7.58725335e-04 1.21396054e-02 7.58725335e-04 1.13808801e-02
      5.31107746e-03 2.27617612e-03 3.79362656e-03 3.03490134e-03
      1.51745067e-03 6.06980268e-03 5.31107746e-03 7.58725335e-04 0.
      1.59332324e-02 7.58725312e-03 6.82852790e-03 3.03490134e-03
      7.58725335e-04 1.51745062e-02 7.58725335e-04 3.26251909e-02
      1.51745067e-03 2.27617612e-03 9.10470448e-03 0. 3.03490134e-03
      2.27617612e-03 3.03490134e-03 1.51745067e-03 5.31107746e-03 0.
      3.79362656e-03 1.51745067e-03 6.06980268e-03 3.03490134e-03
      6.82852790e-03 3.03490134e-03 3.03490134e-03 4.55235224e-03 0.
      1.13808801e-02 1.51745062e-02 3.79362665e-02 1.51745067e-03
      2.27617612e-03 6.82852790e-03 2.27617612e-03 2.27617612e-03
      8.34597833e-03 5.31107746e-03 4.55235224e-03 1.13808801e-02 0.
      1.51745067e-03 1.51745067e-03 1.06221549e-02 1.51745067e-03
      4.55235224e-03 1.51745067e-03 1.28983306e-02 3.79362656e-03
      6.82852790e-03 3.03490134e-03 0. 6.06980268e-03 4.77996953e-02
      3.79362656e-03 4.55235224e-03 6.82852790e-03 3.79362656e-03
      5.31107746e-03 4.55235224e-03 1.59332324e-02 2.27617612e-03
      6.82852790e-03 1.51745067e-03 1.82094090e-02 3.03490134e-03
      7.58725335e-04 6.82852790e-03 2.27617612e-03 6.82852790e-03</_>
    <_>
      6.41436840e-04 3.20718414e-03 6.41436828e-03 1.92431058e-03
      3.20718414e-03 4.49005794e-03 6.41436828e-03 8.33867863e-03
      3.20718414e-03 5.13149472e-03 1.92431058e-03 1.15458630e-02 0.
      6.41436840e-04 8.98011588e-03 4.49005794e-03 3.20718414e-03
      3.84862116e-03 1.28287368e-03 0. 8.98011588e-03 1.92431058e-03
      4.49005794e-03 8.33867863e-03 1.92431058e-03 1.60359219e-02
      6.41436828e-03 0. 6.41436840e-04 1.28287368e-03 4.49005794e-03
      1.28287368e-03 1.28287368e-03 2.56574736e-03 7.69724231e-03
      2.56574736e-03 1.28287368e-03 3.20718414e-03 3.84862116e-03
      1.28287368e-03 7.69724231e-03 1.09044267e-02 3.20718414e-03 0.
      1.73187945e-02 5.77293150e-03 4.49005794e-03 5.13149472e-03
      2.56574736e-03 8.98011588e-03 6.41436840e-04 6.41436828e-03
      3.84862116e-03 1.28287368e-03 3.20718414e-03 1.92431058e-03
      7.69724231e-03 6.41436828e-03 4.23348323e-02 1.92431058e-03
      1.92431058e-03 1.92431058e-03 3.84862116e-03 0. 7.05580506e-03
      1.92431058e-03 1.92431058e-03 3.84862116e-03 0. 4.49005794e-03
      1.92431058e-03 3.20718414e-03 1.34701738e-02 1.60359219e-02
      3.20718414e-03 2.56574736e-03 6.41436840e-04 3.84862116e-03
      5.13149472e-03 3.20718414e-03 0. 0. 7.05580506e-03 1.28287368e-03
      1.92431058e-03 5.77293150e-03 7.05580506e-03 1.28287368e-03
      3.65618989e-02 1.53944846e-02 1.28287368e-03 6.41436828e-03 0.
      1.28287368e-03 3.20718414e-03 1.92431058e-03 4.49005794e-03
      3.84862116e-03 6.41436828e-03 1.28287368e-03 6.41436828e-03
      1.92431058e-03 5.13149472e-03 1.21873002e-02 0. 5.13149472e-03
      1.92431058e-03 1.09044267e-02 1.92431058e-03 4.49005794e-03
      6.41436828e-03 5.13149472e-03 6.41436828e-03 2.56574736e-03
      2.56574736e-03 2.56574736e-03 1.09044267e-02 0. 1.28287368e-03
      4.49005794e-03 2.56574736e-03 7.05580506e-03 3.84862116e-03
      1.28287368e-03 2.56574736e-03 7.05580506e-03 5.13149472e-03
      9.62155219e-03 3.20718414e-03 2.56574736e-03 0. 1.15458630e-02
      2.56574736e-03 3.84862116e-03 5.13149472e-03 0. 2.37331633e-02
      4.49005794e-03 2.88646575e-02 3.84862116e-03 3.20718414e-03
      5.77293150e-03 1.92431058e-03 5.77293150e-03 1.28287368e-03
      1.02629894e-02 1.28287368e-03 8.33867863e-03 2.56574736e-03
      1.92431058e-03 5.13149472e-03 3.84862116e-03 8.98011588e-03
      9.62155219e-03 4.49005794e-03 5.77293150e-03 5.77293150e-03 0.
      1.02629894e-02 8.98011588e-03 2.05259789e-02 7.05580506e-03
      9.62155219e-03 2.56574736e-03 3.84862116e-03 2.56574736e-03
      8.98011588e-03 1.09044267e-02 1.28287368e-03 5.13149472e-03 0.
      1.28287368e-03 1.28287368e-03 5.77293150e-03 0. 3.84862116e-03
      1.92431058e-03 3.84862116e-03 7.69724231e-03 5.77293150e-03
      2.56574736e-03 0. 1.98845416e-02 1.92431058e-03 3.20718414e-03
      3.20718414e-03 4.49005794e-03 2.56574736e-03 4.49005794e-03
      1.28287368e-03 5.13149472e-03 1.28287368e-03 7.69724231e-03
      6.41436840e-04 9.62155219e-03 2.56574736e-03 0. 1.92431058e-03 0.
      1.02629894e-02</_>
    <_>
      0. 2.84697511e-03 1.42348753e-02 2.84697511e-03 3.55871883e-03
      3.55871883e-03 1.31672602e-02 2.13523139e-03 4.27046278e-03
      2.84697511e-03 3.20284697e-03 2.31316723e-02 7.11743778e-04
      3.55871889e-04 8.18505324e-03 1.06761570e-03 1.42348756e-03
      6.76156580e-03 3.91459092e-03 1.06761570e-03 7.82918185e-03 0.
      2.13523139e-03 9.25266929e-03 4.98220650e-03 5.69395022e-03
      3.55871883e-03 0. 1.42348756e-03 1.06761570e-03 7.11743778e-04
      1.06761570e-03 1.77935942e-03 1.35231316e-02 8.89679696e-03
      3.55871883e-03 1.06761570e-03 0. 8.89679696e-03 3.20284697e-03
      7.11743766e-03 3.55871889e-04 1.42348756e-03 1.77935942e-03
      8.89679696e-03 4.27046278e-03 6.40569394e-03 4.62633464e-03
      2.49110325e-03 3.55871889e-04 1.77935942e-03 3.55871883e-03
      2.13523139e-03 1.06761570e-03 3.91459092e-03 2.84697511e-03
      5.33807836e-03 8.54092557e-03 4.59074751e-02 3.91459092e-03
      2.49110325e-03 3.91459092e-03 4.62633464e-03 0. 5.33807836e-03
      1.42348756e-03 3.20284697e-03 2.13523139e-03 2.84697511e-03
      2.13523139e-03 3.91459092e-03 2.49110325e-03 3.55871883e-03
      4.62633464e-03 3.55871883e-03 2.49110325e-03 7.11743778e-04
      3.55871883e-03 2.84697511e-03 1.77935942e-03 1.77935942e-03
      3.55871889e-04 8.18505324e-03 6.04982208e-03 3.91459092e-03
      6.40569394e-03 6.76156580e-03 2.84697511e-03 2.20640562e-02
      2.24199295e-02 7.82918185e-03 2.13523139e-03 2.13523139e-03
      1.06761570e-03 4.62633464e-03 4.62633464e-03 7.47330952e-03
      9.60854068e-03 3.55871889e-04 0. 6.04982208e-03 2.49110325e-03
      5.33807836e-03 3.20284697e-03 1.42348756e-03 3.55871883e-03
      3.55871883e-03 7.47330952e-03 2.49110325e-03 2.49110325e-03
      3.91459092e-03 7.47330952e-03 1.95729546e-02 2.13523139e-03
      1.42348756e-03 1.42348756e-03 2.84697511e-03 3.20284697e-03
      1.06761570e-03 3.91459092e-03 6.04982208e-03 4.27046278e-03
      4.98220650e-03 1.77935942e-03 1.70818511e-02 6.04982208e-03
      3.55871883e-03 4.98220650e-03 1.77935942e-03 1.77935942e-03
      3.55871889e-04 7.47330952e-03 7.11743766e-03 4.27046278e-03
      2.84697511e-03 1.06761570e-03 1.53024914e-02 2.13523139e-03
      6.76156580e-03 3.55871883e-03 5.33807836e-03 1.77935942e-03
      2.49110325e-03 5.69395022e-03 2.49110325e-03 6.04982208e-03
      7.11743778e-04 5.33807836e-03 2.49110325e-03 1.77935942e-03
      2.84697511e-03 4.62633464e-03 4.98220650e-03 1.28113879e-02
      3.91459092e-03 5.33807836e-03 2.84697511e-03 0. 6.40569394e-03
      8.18505324e-03 1.85053386e-02 3.20284697e-03 4.27046278e-03
      5.69395022e-03 2.13523139e-03 4.27046278e-03 6.04982208e-03
      7.11743766e-03 6.40569394e-03 9.96441301e-03 0. 3.91459092e-03
      1.06761570e-03 1.70818511e-02 1.42348756e-03 7.11743766e-03
      6.40569394e-03 4.62633464e-03 2.49110325e-03 1.77935942e-03
      1.06761570e-03 0. 1.92170814e-02 3.23843434e-02 1.77935942e-03
      2.13523139e-03 6.04982208e-03 3.91459092e-03 4.98220650e-03
      3.91459092e-03 1.85053386e-02 2.13523139e-03 5.33807836e-03 0.
      1.92170814e-02 2.49110325e-03 1.06761570e-03 5.33807836e-03 0.
      9.60854068e-03</_>
    <_>
      0. 3.44827585e-03 2.06896551e-02 3.44827585e-03 0. 6.89655170e-03
      3.44827585e-03 0. 3.44827585e-03 1.03448275e-02 3.44827585e-03
      1.37931034e-02 0. 3.44827585e-03 6.89655170e-03 3.44827585e-03 0.
      6.89655170e-03 3.44827585e-03 0. 2.06896551e-02 0. 3.44827585e-03
      3.44827585e-03 1.03448275e-02 1.37931034e-02 0. 0. 3.44827585e-03
      0. 0. 0. 0. 1.37931034e-02 1.37931034e-02 0. 0. 0. 0.
      3.44827585e-03 1.03448275e-02 6.89655170e-03 3.44827585e-03 0. 0.
      0. 3.44827585e-03 3.44827585e-03 0. 0. 0. 0. 3.44827585e-03 0.
      3.44827585e-03 0. 0. 0. 3.79310325e-02 3.44827585e-03 0. 0.
      1.03448275e-02 0. 2.06896551e-02 0. 3.44827585e-03 0. 0.
      3.44827585e-03 3.44827585e-03 3.44827585e-03 1.37931034e-02 0.
      1.03448275e-02 3.44827585e-03 0. 0. 1.37931034e-02 3.44827585e-03
      0. 0. 1.03448275e-02 1.03448275e-02 3.44827585e-03 6.89655170e-03
      3.44827585e-03 0. 3.79310325e-02 3.44827585e-03 6.89655170e-03
      3.44827585e-03 0. 0. 0. 3.44827585e-03 1.03448275e-02
      6.89655170e-03 0. 0. 1.37931034e-02 0. 3.44827585e-03 0. 0.
      1.03448275e-02 6.89655170e-03 0. 3.44827585e-03 0. 6.89655170e-03
      1.03448275e-02 2.41379309e-02 0. 0. 0. 3.44827585e-03 0. 0.
      1.03448275e-02 1.37931034e-02 3.44827585e-03 0. 0. 0. 0. 0. 0.
      6.89655170e-03 0. 0. 6.89655170e-03 6.89655170e-03 6.89655170e-03
      6.89655170e-03 0. 6.89655170e-02 6.89655170e-03 2.75862068e-02
      3.44827585e-03 6.89655170e-03 6.89655170e-03 0. 6.89655170e-03 0.
      6.89655170e-03 6.89655170e-03 1.37931034e-02 0. 0. 0. 0. 0.
      3.44827585e-03 3.44827585e-03 3.44827585e-03 0. 0. 3.44827585e-03
      1.03448275e-02 2.41379309e-02 6.89655170e-03 1.03448275e-02
      1.72413792e-02 0. 3.44827585e-03 2.06896551e-02 3.44827585e-03
      6.89655170e-03 3.44827585e-03 0. 3.44827585e-03 0. 3.44827585e-03
      0. 6.89655170e-03 1.37931034e-02 6.89655170e-03 0. 3.44827585e-03
      3.44827585e-03 0. 3.44827585e-03 0. 1.37931034e-02 1.37931034e-02
      3.44827585e-03 6.89655170e-03 0. 3.44827585e-03 0. 0.
      1.03448275e-02 0. 2.06896551e-02 0. 3.44827585e-03 0. 0.
      6.89655170e-03</_>
    <_>
      0. 1.82926822e-02 3.04878037e-03 0. 0. 6.09756075e-03
      6.09756075e-03 6.09756075e-03 0. 1.21951215e-02 9.14634112e-03
      6.09756075e-03 0. 0. 3.04878037e-03 3.04878037e-03 0. 0.
      6.09756075e-03 0. 0. 3.04878037e-03 3.04878037e-03 6.09756075e-03
      6.09756075e-03 0. 1.21951215e-02 0. 0. 0. 0. 0. 0. 6.09756075e-03
      6.09756075e-03 3.04878037e-03 0. 3.04878037e-03 3.04878037e-03
      3.04878037e-03 3.04878037e-03 1.21951215e-02 0. 0. 3.04878037e-03
      3.04878037e-03 3.04878037e-03 1.21951215e-02 3.04878037e-03
      3.04878037e-03 3.04878037e-03 6.09756075e-03 9.14634112e-03 0.
      9.14634112e-03 0. 3.04878037e-03 1.21951215e-02 2.74390243e-02 0.
      0. 0. 4.57317047e-02 0. 9.14634112e-03 0. 0. 0. 0. 0. 0. 0. 0. 0.
      3.04878037e-02 1.82926822e-02 3.04878037e-03 9.14634112e-03 0.
      3.04878037e-03 0. 0. 0. 0. 0. 0. 3.04878037e-03 0. 9.14634112e-03
      3.04878037e-03 3.04878037e-03 3.04878037e-03 0. 0. 3.04878037e-03
      0. 6.09756075e-03 1.21951215e-02 0. 0. 3.04878037e-03 0. 0. 0. 0.
      0. 0. 0. 3.04878037e-03 0. 0. 9.14634112e-03 9.14634112e-03
      3.04878037e-03 0. 6.09756075e-03 6.09756075e-03 0. 0.
      3.04878037e-03 3.04878037e-03 0. 3.04878037e-03 0. 0.
      3.04878037e-03 0. 0. 6.09756075e-03 3.04878037e-03 0.
      3.04878037e-03 0. 6.09756075e-03 0. 0. 6.09756075e-03
      3.04878037e-03 8.53658468e-02 0. 9.14634112e-03 0. 6.09756075e-03
      9.14634112e-03 3.04878037e-03 0. 1.21951215e-02 3.04878037e-03 0.
      0. 0. 0. 0. 9.14634112e-03 0. 0. 3.04878037e-03 0. 2.43902430e-02
      0. 1.28048778e-01 6.09756075e-03 6.09756075e-03 2.43902430e-02 0.
      3.04878037e-03 2.74390243e-02 3.04878037e-03 0. 0. 0.
      3.04878037e-03 0. 3.04878037e-03 0. 0. 5.48780486e-02
      6.09756075e-03 0. 0. 6.09756075e-03 0. 3.04878037e-03
      2.13414617e-02 3.04878037e-03 0. 0. 6.09756075e-03 3.04878037e-03
      3.04878037e-03 9.14634112e-03 0. 0. 0. 1.82926822e-02 0. 0.
      3.04878037e-03 0. 6.09756075e-03</_>
    <_>
      0. 1.08459871e-02 1.51843820e-02 0. 0. 2.16919743e-03
      4.33839485e-03 0. 1.73535794e-02 0. 6.50759228e-03 2.38611717e-02
      0. 0. 2.16919743e-03 0. 0. 4.33839485e-03 0. 0. 4.33839485e-03 0.
      2.16919743e-03 3.03687640e-02 4.33839485e-03 2.16919743e-03
      1.08459871e-02 0. 2.16919743e-03 0. 2.60303691e-02 0. 0.
      2.81995665e-02 2.81995665e-02 0. 2.16919743e-03 0. 0.
      4.33839485e-03 0. 0. 4.33839485e-03 0. 2.16919743e-03
      4.33839485e-03 0. 1.95227768e-02 2.16919743e-03 0. 0. 0. 0. 0. 0.
      2.16919743e-03 6.50759228e-03 0. 6.50759228e-03 0. 2.16919743e-03
      0. 2.16919743e-03 0. 1.95227768e-02 0. 0. 0. 0. 2.16919743e-03
      2.16919743e-03 0. 4.33839485e-03 4.33839485e-03 4.33839485e-03 0.
      0. 0. 0. 2.16919743e-03 2.16919743e-03 2.16919743e-03 0. 0. 0. 0.
      0. 0. 1.99566156e-01 0. 0. 0. 0. 2.16919743e-03 0. 4.33839485e-03
      0. 0. 0. 8.67678970e-03 2.60303691e-02 0. 0. 2.16919743e-03 0. 0.
      4.33839485e-03 2.16919743e-03 2.16919743e-03 4.33839485e-03 0.
      2.16919743e-03 2.16919743e-03 0. 0. 2.16919743e-03 2.16919743e-03
      0. 0. 0. 0. 1.08459871e-02 4.33839485e-03 4.33839485e-03
      1.08459871e-02 0. 2.16919743e-03 4.33839485e-03 0. 4.33839485e-03
      0. 2.16919743e-03 6.50759228e-03 0. 6.50759228e-03 0.
      4.12147492e-02 0. 2.38611717e-02 0. 0. 4.33839485e-03 0.
      4.33839485e-03 0. 1.08459871e-02 0. 6.50759228e-03 0. 0. 0.
      2.16919743e-03 0. 2.16919743e-03 0. 0. 8.67678970e-03 0.
      8.67678970e-03 4.33839485e-03 2.16919743e-02 0. 2.16919743e-03 0.
      0. 4.33839485e-03 1.08459871e-02 0. 2.16919743e-03 1.51843820e-02
      0. 2.16919743e-03 2.16919743e-03 4.33839485e-03 0. 4.33839485e-03
      0. 4.33839485e-03 0. 3.25379595e-02 2.16919743e-03 0. 0.
      8.02603066e-02 2.16919743e-03 2.16919743e-03 0. 2.16919743e-03
      2.16919743e-03 0. 4.33839485e-03 0. 0. 1.30151846e-02
      1.73535794e-02 0. 0. 0. 0. 2.16919743e-03</_>
    <_>
      0. 9.19842254e-03 3.41655724e-02 2.62812083e-03 7.88436271e-03
      1.31406041e-03 6.57030195e-03 0. 9.19842254e-03 0. 0.
      2.62812083e-03 0. 0. 1.31406041e-03 0. 0. 1.31406041e-03 0. 0.
      3.94218136e-03 0. 1.31406041e-03 1.83968451e-02 0. 0.
      3.94218136e-03 0. 0. 2.62812083e-03 2.62812083e-03 0. 0.
      3.94218136e-03 7.88436271e-03 2.62812083e-03 1.31406041e-03 0. 0.
      0. 0. 0. 0. 0. 1.05124833e-02 1.31406041e-03 2.62812083e-03
      2.62812083e-03 1.31406041e-03 0. 0. 0. 0. 1.31406041e-03
      1.31406041e-03 2.62812083e-03 2.62812083e-03 1.31406041e-03
      1.57687254e-02 0. 1.31406041e-03 0. 2.23390274e-02 0.
      5.25624165e-03 0. 0. 0. 0. 0. 1.44546647e-02 1.31406041e-03
      2.62812083e-03 2.62812083e-03 3.41655724e-02 0. 0. 3.94218136e-03
      1.31406041e-03 0. 1.31406041e-03 0. 1.31406041e-03 0.
      2.62812083e-03 0. 0. 0. 6.83311448e-02 3.94218136e-03
      1.31406041e-03 2.62812083e-03 0. 0. 2.62812083e-03 1.31406041e-03
      5.25624165e-03 0. 0. 0. 1.83968451e-02 0. 2.62812083e-03 0.
      2.62812083e-03 2.62812083e-03 0. 1.31406041e-03 0. 0. 0.
      2.10249666e-02 0. 0. 1.31406041e-03 1.31406039e-02 0. 0.
      3.94218136e-03 1.31406041e-03 0. 5.25624165e-03 0. 1.31406041e-03
      0. 0. 1.31406041e-03 2.62812083e-03 0. 0. 0. 3.94218136e-03
      1.31406041e-03 1.31406041e-03 2.62812083e-03 0. 9.19842254e-03
      1.31406041e-03 3.15374509e-02 0. 0. 1.05124833e-02 0.
      1.31406041e-03 0. 0. 0. 1.31406041e-03 0. 6.57030195e-03 0.
      2.62812083e-03 0. 1.31406041e-03 0. 0. 3.94218117e-02 0.
      9.19842254e-03 1.31406041e-03 7.88436234e-02 2.62812083e-03
      3.94218136e-03 2.62812078e-02 1.31406041e-03 1.31406041e-03
      3.94218136e-03 0. 0. 2.10249666e-02 0. 2.62812083e-03
      2.62812083e-03 9.19842254e-03 0. 1.31406041e-03 0. 1.31406041e-03
      6.57030195e-03 2.36530881e-02 3.94218136e-03 0. 1.31406041e-03
      2.02365309e-01 0. 1.44546647e-02 5.25624165e-03 0. 0. 0.
      1.31406041e-03 1.31406041e-03 2.62812083e-03 1.31406041e-03
      1.31406039e-02 3.94218136e-03 1.31406041e-03 9.19842254e-03 0. 0.</_>
    <_>
      0. 4.01234552e-02 0. 3.08641978e-03 3.08641978e-03 6.17283955e-03
      0. 0. 3.08641978e-03 0. 0. 6.17283955e-03 0. 0. 0. 9.25925933e-03
      9.25925933e-03 1.23456791e-02 3.08641978e-03 0. 0. 0.
      6.17283955e-03 1.23456791e-02 0. 0. 9.25925933e-03 0. 0.
      3.08641978e-03 3.08641978e-03 0. 0. 3.08641978e-03 4.32098769e-02
      0. 1.54320989e-02 0. 3.08641978e-03 3.08641978e-03 3.08641978e-03
      0. 3.08641978e-03 0. 9.25925933e-03 3.08641978e-03 0.
      3.08641978e-03 0. 0. 3.08641978e-03 0. 0. 3.08641978e-03
      6.17283955e-03 0. 0. 0. 3.39506194e-02 0. 3.08641978e-03 0.
      6.17283955e-03 0. 0. 0. 9.25925933e-03 0. 0. 0. 6.17283955e-03
      3.08641978e-03 9.25925933e-03 3.08641978e-03 0. 0. 0.
      3.08641978e-03 0. 0. 0. 0. 0. 0. 3.08641978e-03 0. 3.08641978e-03
      0. 9.25925970e-02 1.23456791e-02 3.08641978e-03 0. 0.
      3.08641978e-03 0. 0. 1.85185187e-02 0. 1.23456791e-02 0.
      4.01234552e-02 0. 0. 1.85185187e-02 0. 3.08641978e-03 0.
      3.08641978e-03 3.08641978e-03 3.08641978e-03 1.85185187e-02 0. 0.
      0. 0. 3.08641978e-03 9.25925933e-03 0. 9.25925933e-03 0. 0. 0. 0.
      0. 0. 0. 0. 1.23456791e-02 0. 0. 0. 0. 9.25925933e-03 0. 0.
      3.08641978e-03 1.23456791e-02 0. 4.62962985e-02 0. 0.
      3.08641978e-03 0. 3.08641978e-03 6.17283955e-03 0. 0.
      3.08641978e-03 0. 0. 0. 0. 0. 3.08641978e-03 0. 6.17283955e-03
      1.23456791e-02 0. 1.17283955e-01 3.08641978e-03 3.39506194e-02
      3.08641978e-03 9.25925933e-03 9.25925933e-03 0. 3.08641978e-03 0.
      0. 0. 2.16049384e-02 0. 0. 0. 3.08641978e-03 0. 3.39506194e-02
      3.08641978e-03 0. 0. 3.08641978e-03 3.08641978e-03 0.
      6.17283955e-03 1.54320989e-02 0. 6.17283955e-03 3.08641978e-03 0.
      0. 6.17283955e-03 0. 0. 0. 0. 1.85185187e-02 0. 3.08641978e-03
      6.17283955e-03 0. 0.</_>
    <_>
      0. 6.22406695e-03 1.03734443e-02 4.14937781e-03 6.22406695e-03
      2.07468891e-03 1.03734443e-02 2.07468891e-03 0. 1.03734443e-02
      4.14937781e-03 1.45228226e-02 0. 0. 0. 0. 0. 6.22406695e-03
      2.07468891e-03 0. 8.29875562e-03 0. 0. 4.14937781e-03 0. 0. 0. 0.
      4.14937781e-03 0. 3.52697112e-02 2.07468891e-03 2.07468891e-03
      6.22406695e-03 2.07468886e-02 0. 0. 0. 4.14937781e-03
      2.07468891e-03 0. 8.29875562e-03 0. 2.07468891e-03 1.45228226e-02
      8.29875562e-03 1.03734443e-02 6.22406695e-03 2.07468891e-03
      2.07468891e-03 0. 0. 0. 2.07468891e-03 6.22406695e-03
      4.14937781e-03 2.07468891e-03 0. 1.03734443e-02 0. 0.
      8.29875562e-03 2.07468891e-03 0. 2.90456451e-02 0. 2.07468891e-03
      0. 0. 4.14937781e-03 4.14937781e-03 0. 8.29875562e-03 0.
      2.07468891e-03 1.03734443e-02 0. 4.14937781e-03 2.07468891e-03 0.
      2.07468891e-03 0. 0. 2.07468891e-03 0. 2.07468891e-03 0. 0.
      1.78423241e-01 2.07468891e-03 6.22406695e-03 0. 0. 0. 0.
      2.07468891e-03 8.29875562e-03 4.14937781e-03 0. 0. 1.45228226e-02
      0. 6.22406695e-03 2.07468891e-03 0. 0. 0. 1.03734443e-02 0. 0. 0.
      4.14937781e-03 2.07468891e-03 2.07468891e-03 0. 4.14937781e-03 0.
      0. 2.07468891e-03 8.29875562e-03 2.07468891e-03 0. 0.
      2.07468891e-03 2.07468891e-03 2.07468891e-03 8.29875562e-03
      2.07468886e-02 2.07468891e-03 0. 0. 6.22406695e-03 4.14937781e-03
      4.14937781e-03 6.22406695e-03 0. 1.65975112e-02 2.07468891e-03
      2.69709565e-02 0. 6.22406695e-03 6.22406695e-03 0. 0. 0. 0.
      2.07468891e-03 6.22406695e-03 0. 6.22406695e-03 0. 0.
      4.14937781e-03 1.45228226e-02 2.07468891e-03 6.22406695e-03
      8.29875562e-03 0. 1.03734443e-02 2.07468886e-02 3.11203338e-02
      4.14937781e-03 2.07468891e-03 1.45228226e-02 2.07468891e-03
      8.29875562e-03 4.14937781e-03 2.07468891e-03 0. 4.14937781e-03 0.
      2.07468891e-03 2.07468891e-03 8.29875562e-03 2.07468891e-03
      2.07468891e-03 6.22406695e-03 6.22406695e-03 4.14937781e-03
      2.07468886e-02 4.14937781e-03 0. 2.07468891e-03 1.86721999e-02
      2.07468891e-03 2.07468891e-03 4.14937781e-03 2.07468891e-03
      4.14937781e-03 2.07468891e-03 4.14937781e-03 0. 6.22406695e-03 0.
      2.69709565e-02 0. 2.07468891e-03 0. 0. 6.22406695e-03</_>
    <_>
      0. 3.15457433e-02 6.30914839e-03 0. 6.30914839e-03 3.15457419e-03
      3.15457419e-03 6.30914839e-03 2.83911675e-02 0. 3.15457419e-03
      6.30914839e-03 0. 3.15457419e-03 3.15457419e-03 0. 0. 0.
      9.46372282e-03 0. 9.46372282e-03 0. 6.30914839e-03 3.78548913e-02
      0. 0. 9.46372282e-03 0. 0. 0. 1.57728717e-02 0. 0. 2.52365936e-02
      9.46372282e-03 9.46372282e-03 0. 0. 0. 3.15457419e-03
      6.30914839e-03 0. 0. 0. 3.47003154e-02 3.15457419e-03
      3.15457419e-03 6.30914839e-03 1.26182968e-02 0. 0. 0. 0.
      3.15457419e-03 6.30914839e-03 1.26182968e-02 0. 3.15457419e-03
      3.15457419e-03 3.15457419e-03 0. 3.15457419e-03 6.30914839e-03 0.
      6.30914839e-03 0. 6.30914839e-03 0. 0. 0. 1.26182968e-02 0.
      6.30914839e-03 0. 0. 0. 0. 9.46372282e-03 3.15457419e-03 0. 0. 0.
      0. 3.15457419e-03 0. 0. 3.15457419e-03 0. 2.52365936e-02
      6.30914839e-03 6.30914839e-03 0. 0. 0. 3.15457419e-03
      3.15457419e-03 9.46372282e-03 3.15457419e-03 6.30914839e-03 0.
      1.89274456e-02 3.15457419e-03 1.26182968e-02 0. 3.15457419e-03 0.
      0. 6.30914839e-03 0. 0. 0. 9.46372282e-03 0. 6.30914839e-03 0.
      6.30914839e-03 3.15457419e-03 0. 0. 0. 0. 7.25552067e-02 0. 0.
      3.15457419e-03 0. 6.30914839e-03 2.20820196e-02 0. 0. 0.
      3.15457419e-03 9.46372282e-03 6.30914839e-03 9.46372282e-03 0.
      1.89274456e-02 0. 1.57728717e-02 0. 0. 0. 3.15457419e-03
      3.15457419e-03 6.30914839e-03 1.89274456e-02 3.15457419e-03
      6.30914839e-03 0. 1.57728717e-02 3.15457419e-03 0. 6.30914839e-03
      3.15457419e-03 1.26182968e-02 0. 3.47003154e-02 0. 9.46372282e-03
      6.30914839e-03 0. 0. 0. 0. 0. 0. 6.30914839e-03 0. 0.
      2.20820196e-02 3.15457419e-03 3.15457419e-03 0. 3.15457419e-03 0.
      6.30914839e-03 0. 6.30914839e-03 0. 2.20820196e-02 3.15457419e-03
      0. 6.30914839e-03 4.10094634e-02 0. 3.15457419e-03 9.46372282e-03
      3.15457419e-03 6.30914839e-03 6.30914839e-03 3.15457419e-03 0. 0.
      0. 1.26182968e-02 3.15457419e-03 0. 0. 0. 3.15457419e-03</_></support_vectors>
  <decision_functions>
    <_>
      <sv_count>13</sv_count>
      <rho>-8.7039667370291196e-01</rho>
      <alpha>
        1. 1.8828175201141314e-01 5.5997894446376517e-01 1. 1.
        9.7928191261122488e-01 2.3436303364788311e-01
        3.8094357265713766e-02 -1. -1. -1. -1. -1.</alpha>
      <index>
        0 1 2 3 4 5 6 7 8 9 10 11 12</index></_></decision_functions></my_svm>
</opencv_storage>
