<?xml version="1.0"?>
<opencv_storage>
<my_svm type_id="opencv-ml-svm">
  <svm_type>C_SVC</svm_type>
  <kernel><type>RBF</type>
    <gamma>1.</gamma></kernel>
  <C>1.</C>
  <term_criteria><epsilon>1.1920928955078125e-07</epsilon>
    <iterations>1000</iterations></term_criteria>
  <var_all>200</var_all>
  <var_count>200</var_count>
  <class_count>2</class_count>
  <class_labels type_id="opencv-matrix">
    <rows>1</rows>
    <cols>2</cols>
    <dt>i</dt>
    <data>
      0 1</data></class_labels>
  <sv_total>19</sv_total>
  <support_vectors>
    <_>
      2.64084502e-03 4.40140814e-03 7.04225339e-03 8.80281674e-04
      8.80281627e-03 1.76056335e-03 7.92253483e-03 4.40140814e-03
      3.52112669e-03 1.05633801e-02 4.40140814e-03 1.49647882e-02
      8.80281674e-04 2.64084502e-03 3.52112669e-03 1.76056335e-03 0.
      3.52112669e-03 1.49647882e-02 3.52112669e-03 8.80281674e-04 0.
      8.80281627e-03 9.68309864e-03 8.80281674e-04 1.76056335e-03
      1.76056335e-03 5.28169004e-03 3.52112669e-03 6.16197195e-03
      8.80281674e-04 5.28169004e-03 3.52112669e-03 9.68309864e-03
      6.16197195e-03 0. 8.80281674e-04 5.28169004e-03 2.64084502e-03
      6.16197195e-03 7.04225339e-03 5.28169004e-03 6.16197195e-03
      1.76056335e-03 3.52112669e-03 2.64084502e-03 3.52112669e-03
      3.52112669e-03 8.80281674e-04 1.76056335e-03 1.05633801e-02
      8.80281674e-04 3.52112669e-03 8.80281674e-04 1.76056335e-03
      5.28169004e-03 1.14436615e-02 2.99295764e-02 1.23239439e-02
      1.76056335e-03 1.76056335e-03 4.40140814e-03 4.40140814e-03
      7.04225339e-03 5.28169004e-03 8.80281627e-03 6.16197195e-03
      3.52112669e-03 2.64084502e-03 2.64084502e-03 1.05633801e-02
      6.16197195e-03 2.02464778e-02 8.80281674e-04 1.05633801e-02
      8.80281674e-04 0. 4.40140814e-03 0. 0. 3.52112669e-03
      3.52112669e-03 5.28169004e-03 2.64084502e-03 7.04225339e-03
      2.64084502e-03 5.28169004e-03 3.52112669e-03 3.52112669e-03
      1.76056335e-03 5.28169004e-03 8.80281674e-04 1.76056335e-03
      4.40140814e-03 0. 1.76056335e-03 2.37676054e-02 2.64084502e-03
      1.76056335e-03 0. 5.28169004e-03 1.05633801e-02 6.16197195e-03
      2.64084502e-03 7.92253483e-03 2.64084502e-03 1.76056335e-03
      1.76056335e-03 3.52112669e-03 0. 5.28169004e-03 1.05633801e-02
      1.76056335e-03 2.64084502e-03 3.52112669e-03 2.64084502e-03
      8.80281674e-04 0. 1.76056335e-03 1.84859149e-02 7.04225339e-03
      1.76056335e-03 9.68309864e-03 0. 2.02464778e-02 3.52112669e-03
      8.80281674e-04 8.80281674e-04 1.76056335e-03 3.52112669e-03
      2.64084502e-03 2.64084502e-03 2.64084502e-03 1.76056335e-03
      3.52112669e-03 9.68309864e-03 4.40140814e-03 7.92253483e-03
      3.60915475e-02 2.28873231e-02 3.52112669e-03 8.80281674e-04
      8.80281674e-04 3.52112669e-03 2.64084502e-03 2.64084502e-03
      8.80281674e-04 2.64084502e-03 1.76056335e-03 1.76056335e-03
      3.52112669e-03 7.04225339e-03 7.92253483e-03 6.16197195e-03
      4.40140814e-03 1.76056335e-03 2.64084502e-03 8.80281627e-03
      2.64084502e-03 7.04225339e-03 8.80281627e-03 4.40140814e-03 0.
      2.81690136e-02 1.76056335e-03 8.80281627e-03 0. 8.80281674e-04
      2.64084502e-03 7.92253483e-03 2.81690136e-02 2.64084502e-03
      6.16197195e-03 4.40140814e-03 2.64084502e-03 4.40140814e-03
      1.76056335e-03 6.16197195e-03 2.64084502e-03 0. 0. 2.64084502e-03
      0. 7.04225339e-03 5.28169004e-03 1.05633801e-02 1.23239439e-02
      5.28169004e-03 1.49647882e-02 3.52112669e-03 4.40140814e-03 0.
      2.64084502e-03 0. 5.28169004e-03 4.40140814e-03 8.80281627e-03
      3.52112669e-03 3.52112669e-03 0.</_>
    <_>
      3.61336954e-03 1.80668477e-03 7.22673908e-03 1.80668477e-03
      7.22673908e-03 5.42005431e-03 6.32339669e-03 7.22673908e-03
      2.71002715e-03 4.51671192e-03 9.03342385e-03 1.44534782e-02
      5.42005431e-03 3.61336954e-03 6.32339669e-03 1.17434505e-02 0.
      2.71002715e-03 6.32339669e-03 2.71002715e-03 4.51671192e-03
      9.03342385e-04 6.32339669e-03 5.42005431e-03 4.51671192e-03
      9.03342385e-04 0. 5.42005431e-03 3.61336954e-03 4.51671192e-03 0.
      1.80668477e-03 4.51671192e-03 9.93676670e-03 9.03342385e-04
      2.71002715e-03 3.61336954e-03 6.32339669e-03 2.71002715e-03
      1.08401086e-02 2.71002715e-03 4.51671192e-03 5.42005431e-03
      9.93676670e-03 2.71002715e-03 4.51671192e-03 6.32339669e-03
      2.71002715e-03 0. 1.80668477e-03 2.71002725e-02 1.80668477e-03
      1.80668477e-03 1.80668477e-03 4.51671192e-03 6.32339669e-03
      4.51671192e-03 9.93676670e-03 9.03342385e-03 2.71002715e-03
      9.03342385e-04 9.93676670e-03 6.32339669e-03 2.71002715e-03
      4.51671192e-03 1.80668477e-03 9.03342385e-03 1.80668477e-03
      7.22673908e-03 2.71002715e-03 9.93676670e-03 9.93676670e-03
      1.08401086e-02 9.03342385e-04 2.71002715e-03 1.80668477e-03
      9.03342385e-04 3.61336954e-03 9.03342385e-04 3.61336954e-03
      1.80668477e-03 9.03342385e-04 6.32339669e-03 9.03342385e-04
      1.35501362e-02 7.22673908e-03 1.08401086e-02 9.03342385e-03
      8.13008100e-03 9.03342385e-04 1.80668477e-03 2.71002715e-03
      1.80668477e-03 5.42005431e-03 6.32339669e-03 2.71002715e-03
      1.35501362e-02 9.03342385e-04 1.80668477e-03 9.03342385e-04
      8.13008100e-03 5.42005431e-03 9.03342385e-04 4.51671192e-03
      5.42005431e-03 5.42005431e-03 3.61336954e-03 1.80668477e-03
      2.71002715e-03 9.03342385e-04 4.51671192e-03 2.71002715e-03
      2.71002715e-03 1.80668477e-03 2.71002715e-03 1.80668477e-03
      9.03342385e-04 1.80668477e-03 4.51671192e-03 9.93676670e-03
      3.61336954e-03 6.32339669e-03 1.26467934e-02 3.61336954e-03
      7.22673908e-03 5.42005431e-03 2.71002715e-03 8.13008100e-03
      2.71002715e-03 4.51671192e-03 3.61336954e-03 2.71002715e-03
      4.51671192e-03 9.03342385e-04 6.32339669e-03 7.22673908e-03
      3.61336954e-03 4.51671192e-03 3.61336954e-02 1.80668477e-02
      3.61336954e-03 2.71002715e-03 2.71002715e-03 9.03342385e-03
      9.03342385e-04 3.61336954e-03 2.71002715e-03 1.80668477e-03
      4.51671192e-03 1.80668477e-03 9.03342385e-03 4.51671192e-03
      4.51671192e-03 9.03342385e-04 4.51671192e-03 0. 4.51671192e-03
      9.93676670e-03 3.61336954e-03 9.03342385e-03 6.32339669e-03
      9.03342385e-03 9.03342385e-04 2.43902449e-02 1.80668477e-03
      9.03342385e-03 9.03342385e-04 0. 9.03342385e-03 2.71002715e-03
      5.42005431e-03 9.03342385e-04 1.80668477e-03 1.62601620e-02 0.
      9.03342385e-04 1.80668477e-03 1.35501362e-02 7.22673908e-03
      9.03342385e-04 0. 5.42005431e-03 9.03342385e-04 4.51671192e-03
      5.42005431e-03 1.08401086e-02 1.26467934e-02 4.51671192e-03
      6.32339669e-03 1.26467934e-02 1.80668477e-03 3.61336954e-03
      9.03342385e-04 0. 6.32339669e-03 4.51671192e-03 7.22673908e-03
      9.03342385e-04 7.22673908e-03 9.03342385e-04</_>
    <_>
      3.28947348e-03 2.69138743e-03 9.27033462e-03 3.58851673e-03
      9.56937764e-03 1.49521523e-03 5.68181789e-03 6.27990393e-03
      5.38277486e-03 6.27990393e-03 1.79425837e-03 1.58492811e-02
      5.98086091e-03 1.79425837e-03 6.57894695e-03 9.86842066e-03 0.
      5.98086102e-04 5.68181789e-03 1.49521523e-03 1.19617220e-03
      2.09330139e-03 4.78468882e-03 1.79425837e-03 4.78468882e-03
      5.98086102e-04 3.88755975e-03 2.39234441e-03 2.99043045e-03
      4.78468882e-03 2.09330139e-03 5.68181789e-03 7.47607648e-03
      1.55502390e-02 5.08373184e-03 8.97129183e-04 1.79425837e-03
      3.58851673e-03 2.39234441e-03 5.08373184e-03 2.69138743e-03
      5.08373184e-03 5.98086091e-03 3.28947348e-03 4.48564580e-03
      1.19617220e-03 4.18660278e-03 1.19617220e-03 2.09330139e-03
      2.69138743e-03 1.88397113e-02 1.49521523e-03 3.58851673e-03
      3.58851673e-03 7.47607648e-03 4.18660278e-03 9.56937764e-03
      1.31578939e-02 1.25598079e-02 4.48564580e-03 1.49521523e-03
      2.09330139e-03 7.47607648e-03 5.38277486e-03 4.48564580e-03
      7.17703346e-03 5.98086091e-03 2.99043045e-03 5.68181789e-03
      3.58851673e-03 6.87798997e-03 8.97129159e-03 1.01674637e-02
      3.88755975e-03 6.57894695e-03 2.99043051e-04 2.99043051e-04
      5.98086091e-03 2.39234441e-03 5.08373184e-03 2.99043045e-03
      3.58851673e-03 6.57894695e-03 6.27990393e-03 5.68181789e-03
      5.38277486e-03 8.97129159e-03 7.17703346e-03 7.77511951e-03
      8.97129183e-04 2.99043045e-03 2.09330139e-03 3.28947348e-03
      3.58851673e-03 2.39234441e-03 5.98086102e-04 2.06339713e-02
      2.39234441e-03 3.28947348e-03 0. 5.08373184e-03 4.78468882e-03
      2.09330139e-03 4.18660278e-03 8.67224857e-03 3.58851673e-03
      1.49521523e-03 2.09330139e-03 1.79425837e-03 2.99043051e-04
      6.27990393e-03 1.13636358e-02 7.17703346e-03 8.97129183e-04
      3.88755975e-03 4.78468882e-03 3.28947348e-03 2.99043045e-03
      1.04665067e-02 8.97129159e-03 1.01674637e-02 4.18660278e-03
      1.01674637e-02 2.99043051e-04 1.40550230e-02 7.77511951e-03
      8.97129183e-04 1.49521523e-03 8.97129183e-04 4.18660278e-03
      3.28947348e-03 3.28947348e-03 8.67224857e-03 4.48564580e-03
      2.99043045e-03 1.28588509e-02 7.47607648e-03 5.68181789e-03
      2.21291855e-02 8.37320555e-03 3.58851673e-03 2.39234441e-03
      2.09330139e-03 6.87798997e-03 2.39234441e-03 2.99043045e-03 0.
      1.79425837e-03 4.78468882e-03 4.18660278e-03 3.88755975e-03
      5.08373184e-03 8.97129159e-03 3.88755975e-03 6.27990393e-03
      2.99043051e-04 3.88755975e-03 5.08373184e-03 5.98086091e-03
      6.27990393e-03 1.07655497e-02 3.88755975e-03 1.49521523e-03
      1.82416253e-02 2.99043045e-03 3.88755975e-03 4.18660278e-03
      1.79425837e-03 4.18660278e-03 3.88755975e-03 1.49521523e-03
      2.09330139e-03 1.79425837e-03 1.79425832e-02 2.69138743e-03
      6.27990393e-03 6.57894695e-03 1.04665067e-02 4.48564580e-03
      2.99043051e-04 0. 2.09330139e-03 0. 8.07416253e-03 3.58851673e-03
      7.17703346e-03 1.10645927e-02 6.27990393e-03 1.01674637e-02
      4.48564580e-03 4.18660278e-03 2.69138743e-03 3.88755975e-03
      8.97129183e-04 1.01674637e-02 3.28947348e-03 2.99043045e-03
      3.58851673e-03 8.97129159e-03 1.19617220e-03</_>
    <_>
      1.51668349e-03 1.01112237e-03 4.55005048e-03 4.04448947e-03
      4.55005048e-03 5.05561184e-04 1.01112237e-03 4.04448947e-03
      1.51668349e-03 5.56117296e-03 5.05561184e-04 1.31445909e-02
      1.11223459e-02 3.53892823e-03 1.11223459e-02 4.04448947e-03 0. 0.
      8.08897894e-03 2.02224473e-03 5.05561184e-04 1.01112237e-03
      3.03336699e-03 2.02224473e-03 4.04448947e-03 5.05561184e-04
      3.53892823e-03 5.05561195e-03 3.53892823e-03 3.03336699e-03
      5.05561184e-04 1.51668349e-03 8.08897894e-03 3.89282107e-02
      1.01112237e-03 0. 5.05561184e-04 2.52780598e-03 2.52780598e-03
      9.60566290e-03 3.03336699e-03 1.51668349e-03 1.51668349e-03
      2.02224473e-03 4.55005048e-03 2.02224473e-03 2.52780598e-03
      1.51668349e-03 2.52780598e-03 5.05561184e-04 1.56723969e-02
      1.51668349e-03 1.51668349e-03 2.02224473e-03 4.04448947e-03
      9.10010096e-03 9.10010096e-03 3.03336717e-02 7.07785645e-03
      8.08897894e-03 5.05561184e-04 1.51668349e-03 8.59453995e-03
      3.53892823e-03 3.03336699e-03 4.55005048e-03 5.56117296e-03
      4.55005048e-03 5.56117296e-03 3.03336699e-03 2.37613749e-02
      7.07785645e-03 7.58341793e-03 1.51668349e-03 7.58341793e-03 0. 0.
      5.05561184e-04 0. 4.04448947e-03 1.01112237e-03 3.03336699e-03
      5.05561195e-03 2.02224473e-03 4.04448947e-03 3.03336699e-03
      7.58341793e-03 6.06673397e-03 7.58341793e-03 0. 5.56117296e-03
      1.51668349e-03 3.53892823e-03 3.53892823e-03 3.53892823e-03
      5.05561184e-04 9.10010096e-03 0. 3.53892823e-03 0. 3.53892823e-03
      6.06673397e-03 1.01112237e-03 1.01112237e-03 9.60566290e-03
      1.01112237e-03 5.05561184e-04 1.01112237e-03 3.03336699e-03 0.
      3.53892823e-03 1.06167849e-02 1.51668349e-03 1.01112237e-03
      4.04448947e-03 4.04448947e-03 2.02224473e-03 1.01112237e-03
      1.46612739e-02 7.58341793e-03 4.04448947e-03 1.01112237e-03
      5.05561195e-03 1.01112237e-03 3.89282107e-02 5.56117296e-03
      5.05561184e-04 5.05561184e-04 1.51668349e-03 4.55005048e-03
      1.51668349e-03 2.02224473e-03 1.01112237e-03 1.51668349e-03
      4.55005048e-03 1.01112239e-02 1.01112239e-02 5.05561195e-03
      2.47724988e-02 1.21334679e-02 3.03336699e-03 5.05561184e-04
      2.02224473e-03 5.56117296e-03 1.51668349e-03 7.07785645e-03 0.
      5.05561184e-04 5.05561184e-04 2.02224473e-03 6.06673397e-03
      6.06673397e-03 3.03336699e-03 2.02224473e-03 1.51668349e-03
      1.51668349e-03 2.02224473e-03 1.01112239e-02 5.05561195e-03
      1.51668359e-02 2.67947428e-02 3.53892823e-03 2.02224473e-03
      4.85338718e-02 2.02224473e-03 2.62891818e-02 3.03336699e-03 0.
      5.56117296e-03 4.55005048e-03 3.03336699e-03 0. 1.01112237e-03
      5.05561195e-03 8.08897894e-03 9.10010096e-03 1.16279069e-02
      1.06167849e-02 5.56117296e-03 1.01112237e-03 0. 3.53892823e-03 0.
      1.11223459e-02 6.06673397e-03 6.57229545e-03 1.11223459e-02
      2.52780598e-03 1.51668359e-02 1.51668349e-03 2.02224473e-03
      2.52780598e-03 1.01112237e-03 1.01112237e-03 1.06167849e-02
      1.51668349e-03 3.53892823e-03 2.02224473e-03 6.06673397e-03
      5.05561184e-04</_>
    <_>
      0. 3.04414006e-03 1.06544904e-02 3.04414006e-03 9.13242064e-03
      1.52207003e-03 1.36986300e-02 7.61034992e-03 3.04414006e-03
      4.56621032e-03 0. 1.52206998e-02 4.56621032e-03 4.56621032e-03
      1.67427696e-02 4.56621032e-03 0. 0. 1.06544904e-02 1.52207003e-03
      0. 0. 3.04414006e-03 4.56621032e-03 1.06544904e-02 0.
      3.04414006e-03 3.04414006e-03 3.04414006e-03 3.04414006e-03 0.
      1.52207003e-03 1.21765602e-02 1.97869111e-02 3.04414006e-03 0.
      9.13242064e-03 0. 0. 3.04414006e-03 1.52207003e-03 4.56621032e-03
      1.52207003e-03 1.21765602e-02 9.13242064e-03 1.52207003e-03
      1.52207003e-03 1.52207003e-03 1.52207003e-03 0. 1.21765602e-02
      3.04414006e-03 6.08828012e-03 1.52207003e-03 9.13242064e-03
      7.61034992e-03 7.61034992e-03 3.04413997e-02 0. 2.73972601e-02 0.
      3.04414006e-03 1.52207003e-03 1.52207003e-03 4.56621032e-03
      2.13089809e-02 7.61034992e-03 6.08828012e-03 0. 1.52207003e-03
      1.21765602e-02 1.36986300e-02 9.13242064e-03 1.52207003e-03
      1.21765602e-02 0. 0. 4.56621032e-03 0. 0. 1.52207003e-03
      1.52207003e-03 6.08828012e-03 1.52207003e-03 0. 7.61034992e-03
      4.56621032e-03 1.52207003e-03 4.56621032e-03 0. 1.06544904e-02
      1.52207003e-03 3.04414006e-03 4.56621032e-03 6.08828012e-03 0.
      4.56621032e-03 0. 4.56621032e-03 0. 1.06544904e-02 1.21765602e-02
      0. 3.04414006e-03 2.43531205e-02 0. 3.04414006e-03 3.04414006e-03
      4.56621032e-03 1.52207003e-03 1.52207003e-03 1.21765602e-02
      4.56621032e-03 0. 1.52207003e-03 1.52207003e-03 1.52207003e-03
      3.04414006e-03 3.04414006e-03 1.52206998e-02 1.52207003e-03 0.
      1.21765602e-02 0. 1.06544904e-02 1.52207003e-03 3.04414006e-03
      3.04414006e-03 0. 1.52207003e-03 6.08828012e-03 3.04414006e-03
      1.52207003e-03 1.52207003e-03 9.13242064e-03 6.08828012e-03
      7.61034992e-03 3.04414006e-03 2.43531205e-02 2.58751903e-02
      3.04414006e-03 1.52207003e-03 1.52207003e-03 0. 1.52207003e-03
      1.36986300e-02 0. 4.56621032e-03 1.52207003e-03 0. 6.08828012e-03
      3.04414006e-03 7.61034992e-03 3.04414006e-03 3.04414006e-03 0.
      3.04414006e-03 9.13242064e-03 4.56621032e-03 4.56621032e-03
      7.61034992e-03 1.06544904e-02 7.61034992e-03 2.28310507e-02
      1.52207003e-03 1.52206998e-02 1.52207003e-03 0. 1.52207003e-03
      7.61034992e-03 0. 3.04414006e-03 3.04414006e-03 1.52207003e-03
      1.21765602e-02 1.52207003e-03 1.52206998e-02 7.61034992e-03
      1.52207003e-03 0. 0. 1.52207003e-03 0. 1.67427696e-02 0.
      1.97869111e-02 1.52207003e-03 4.56621032e-03 9.13242064e-03 0.
      9.13242064e-03 0. 0. 0. 0. 3.04414006e-03 1.21765602e-02
      1.52207003e-03 1.52207003e-03 0.</_>
    <_>
      1.44092215e-03 5.76368859e-03 7.20461085e-03 0. 1.44092217e-02
      1.44092215e-03 4.32276633e-03 5.76368859e-03 2.88184430e-03
      1.29682990e-02 0. 1.00864554e-02 1.44092215e-03 5.76368859e-03
      1.00864554e-02 8.64553265e-03 0. 2.88184430e-03 4.32276633e-03 0.
      0. 0. 4.32276633e-03 4.32276633e-03 1.29682990e-02 0.
      7.20461085e-03 0. 5.76368859e-03 2.88184430e-03 0. 1.44092215e-03
      2.59365980e-02 1.44092215e-03 0. 1.44092215e-03 1.44092215e-03 0.
      2.88184430e-03 1.44092215e-03 2.88184430e-03 7.20461085e-03
      5.76368859e-03 8.64553265e-03 0. 4.32276633e-03 2.88184430e-03
      2.88184430e-03 2.88184430e-03 5.76368859e-03 3.02593652e-02
      2.88184430e-03 4.32276633e-03 7.20461085e-03 1.44092215e-03
      1.44092215e-03 7.20461085e-03 5.76368859e-03 0. 0. 0.
      1.44092215e-03 2.16138326e-02 2.88184430e-03 8.64553265e-03
      5.76368859e-03 8.64553265e-03 7.20461085e-03 1.44092217e-02
      5.76368859e-03 0. 1.00864554e-02 4.32276633e-03 8.64553265e-03
      2.01729108e-02 0. 0. 7.20461085e-03 0. 1.44092215e-03 0.
      1.44092215e-03 7.20461085e-03 4.32276633e-03 4.32276633e-03
      5.76368859e-03 1.58501435e-02 0. 1.44092215e-03 2.88184430e-03
      7.20461085e-03 1.44092215e-03 2.88184430e-03 1.44092215e-03
      1.44092215e-03 0. 1.44092217e-02 1.44092215e-03 1.15273772e-02 0.
      1.44092215e-03 2.88184430e-03 0. 2.88184430e-03 1.72910653e-02
      4.32276633e-03 2.88184430e-03 0. 1.00864554e-02 0. 1.44092215e-03
      5.76368859e-03 0. 2.88184430e-03 4.32276633e-03 7.20461085e-03
      4.32276633e-03 0. 2.88184430e-03 1.15273772e-02 8.64553265e-03
      5.76368859e-03 1.44092217e-02 0. 2.88184430e-03 5.76368859e-03 0.
      2.88184430e-03 0. 8.64553265e-03 2.88184430e-03 1.44092215e-03
      1.44092215e-03 1.00864554e-02 2.88184430e-03 2.88184430e-03
      4.32276633e-03 1.44092215e-03 7.63688758e-02 1.87319871e-02 0.
      2.88184430e-03 2.88184430e-03 0. 1.44092215e-03 2.88184430e-03 0.
      2.88184430e-03 5.76368859e-03 0. 2.88184430e-03 4.32276633e-03
      4.32276633e-03 1.44092215e-03 2.88184430e-03 0. 1.29682990e-02
      1.00864554e-02 1.44092215e-03 4.32276633e-03 0. 4.32276633e-03
      1.44092215e-03 8.64553265e-03 4.32276633e-03 1.44092215e-03
      8.64553265e-03 0. 1.44092215e-03 7.20461085e-03 0. 4.32276633e-03
      2.88184430e-03 2.01729108e-02 1.00864554e-02 1.29682990e-02 0.
      8.64553265e-03 1.44092215e-03 0. 0. 5.76368859e-03 0.
      3.02593652e-02 4.32276633e-03 2.88184430e-03 4.32276633e-03 0.
      2.88184430e-03 4.32276633e-03 4.32276633e-03 2.88184430e-03
      5.76368859e-03 0. 7.20461085e-03 0. 2.88184430e-03 5.76368859e-03
      1.00864554e-02 1.44092215e-03</_>
    <_>
      4.11946466e-03 7.20906304e-03 1.33882603e-02 3.08959838e-03
      7.20906304e-03 4.11946466e-03 9.26879514e-03 5.14933094e-03
      3.08959838e-03 6.17919676e-03 1.02986617e-03 1.13285277e-02
      2.05973233e-03 3.08959838e-03 1.13285277e-02 8.23892932e-03 0.
      2.05973233e-03 7.20906304e-03 3.08959838e-03 1.02986617e-03 0.
      4.11946466e-03 2.05973233e-03 6.17919676e-03 1.02986617e-03
      2.05973233e-03 3.08959838e-03 3.08959838e-03 3.08959838e-03
      4.11946466e-03 4.11946466e-03 8.23892932e-03 2.26570554e-02
      2.05973233e-03 3.08959838e-03 5.14933094e-03 3.08959838e-03
      1.02986617e-03 1.02986619e-02 2.05973233e-03 6.17919676e-03
      6.17919676e-03 8.23892932e-03 1.02986619e-02 2.05973233e-03
      3.08959838e-03 4.11946466e-03 5.14933094e-03 1.02986617e-03
      1.85375903e-02 2.05973233e-03 5.14933094e-03 3.08959838e-03
      1.23583935e-02 4.11946466e-03 2.05973233e-03 1.95674580e-02
      8.23892932e-03 1.95674580e-02 1.02986617e-03 6.17919676e-03
      5.14933094e-03 1.33882603e-02 6.17919676e-03 8.23892932e-03
      9.26879514e-03 7.20906304e-03 1.02986617e-03 2.05973233e-03
      1.33882603e-02 6.17919676e-03 1.33882603e-02 1.02986617e-03
      1.33882603e-02 0. 1.02986617e-03 6.17919676e-03 1.02986617e-03 0.
      3.08959838e-03 4.11946466e-03 7.20906304e-03 6.17919676e-03
      2.05973233e-03 4.11946466e-03 3.08959838e-03 2.05973233e-03
      5.14933094e-03 1.02986617e-03 5.14933094e-03 4.11946466e-03
      6.17919676e-03 2.05973233e-03 6.17919676e-03 2.05973233e-03
      5.14933094e-03 2.05973233e-03 4.11946466e-03 0. 4.11946466e-03
      1.02986619e-02 2.05973233e-03 1.02986617e-03 1.23583935e-02
      2.05973233e-03 4.11946466e-03 1.02986617e-03 1.02986617e-03
      1.02986617e-03 3.08959838e-03 1.02986619e-02 2.05973233e-03
      2.05973233e-03 2.05973233e-03 6.17919676e-03 4.11946466e-03
      3.08959838e-03 0. 9.26879514e-03 8.23892932e-03 2.05973233e-03
      7.20906304e-03 2.05973233e-03 1.54479928e-02 3.08959838e-03
      2.05973233e-03 2.05973233e-03 3.08959838e-03 8.23892932e-03
      1.02986617e-03 4.11946466e-03 2.05973233e-03 5.14933094e-03
      5.14933094e-03 1.02986619e-02 6.17919676e-03 2.05973233e-03
      1.95674580e-02 1.13285277e-02 6.17919676e-03 0. 6.17919676e-03
      2.05973233e-03 5.14933094e-03 6.17919676e-03 0. 4.11946466e-03
      2.05973233e-03 1.02986617e-03 3.08959838e-03 3.08959838e-03
      4.11946466e-03 5.14933094e-03 4.11946466e-03 1.02986617e-03
      3.08959838e-03 4.11946466e-03 4.11946466e-03 9.26879514e-03
      1.13285277e-02 8.23892932e-03 1.02986617e-03 1.54479928e-02
      3.08959838e-03 9.26879514e-03 4.11946466e-03 2.05973233e-03
      1.02986617e-03 4.11946466e-03 0. 4.11946466e-03 0. 4.11946466e-03
      4.11946466e-03 7.20906304e-03 8.23892932e-03 1.02986619e-02
      2.05973233e-03 0. 0. 2.05973233e-03 0. 1.33882603e-02
      3.08959838e-03 8.23892932e-03 9.26879514e-03 3.08959838e-03
      1.23583935e-02 3.08959838e-03 7.20906304e-03 1.02986617e-03 0. 0.
      2.05973233e-03 4.11946466e-03 1.13285277e-02 3.08959838e-03
      5.14933094e-03 0.</_>
    <_>
      3.57781746e-03 7.15563493e-03 8.94454401e-03 5.36672631e-03
      1.25223612e-02 1.78890873e-03 1.61001794e-02 1.78890873e-03
      3.57781746e-03 8.94454401e-03 0. 1.78890873e-03 1.78890873e-03
      3.57781746e-03 2.50447225e-02 5.36672631e-03 0. 0. 8.94454401e-03
      0. 0. 0. 7.15563493e-03 1.07334526e-02 1.78890873e-03 0. 0. 0.
      5.36672631e-03 0. 0. 0. 1.96779966e-02 7.15563493e-03
      1.78890873e-03 0. 1.43112699e-02 3.57781746e-03 0. 1.78890873e-03
      1.78890873e-03 1.78890873e-03 0. 8.94454401e-03 7.15563493e-03
      1.78890873e-03 0. 0. 1.78890873e-03 3.57781746e-03 3.22003588e-02
      3.57781746e-03 5.36672631e-03 0. 5.36672631e-03 5.36672631e-03
      1.43112699e-02 8.94454401e-03 1.78890873e-03 1.78890880e-02 0. 0.
      0. 0. 0. 1.43112699e-02 1.43112699e-02 1.25223612e-02 0. 0.
      7.87119865e-02 7.15563493e-03 8.94454401e-03 1.78890873e-03
      5.36672631e-03 0. 0. 5.36672631e-03 0. 0. 1.78890873e-03
      8.94454401e-03 7.15563493e-03 3.57781746e-03 1.78890873e-03
      1.78890873e-03 3.57781746e-03 0. 7.15563493e-03 3.57781746e-03
      5.36672631e-03 1.78890873e-03 0. 0. 1.78890873e-03 0.
      8.94454401e-03 0. 0. 0. 1.25223612e-02 1.25223612e-02
      1.78890873e-03 3.57781746e-03 2.86225397e-02 1.78890873e-03 0. 0.
      1.78890873e-03 0. 1.78890873e-03 1.43112699e-02 5.36672631e-03
      2.14669053e-02 0. 3.57781746e-03 0. 0. 3.57781746e-03
      1.61001794e-02 1.07334526e-02 0. 1.61001794e-02 0. 5.36672631e-03
      3.57781746e-03 3.57781746e-03 1.78890873e-03 0. 0. 0. 0.
      3.57781746e-03 3.57781746e-03 0. 7.15563493e-03 7.15563493e-03
      3.57781746e-03 1.96779966e-02 2.50447225e-02 1.25223612e-02
      5.36672631e-03 3.57781746e-03 0. 0. 2.14669053e-02 0.
      3.57781746e-03 1.78890873e-03 3.57781746e-03 0. 1.78890873e-03
      8.94454401e-03 7.15563493e-03 5.36672631e-03 0. 0. 1.78890873e-03
      0. 1.78890873e-03 1.43112699e-02 7.15563493e-03 7.15563493e-03
      5.36672631e-03 3.57781746e-03 5.36672631e-03 0. 0. 1.78890873e-03
      1.78890873e-03 0. 3.57781746e-03 7.15563493e-03 5.36672631e-03
      1.43112699e-02 1.78890873e-03 8.94454401e-03 1.25223612e-02
      1.78890873e-03 0. 0. 1.78890873e-03 0. 1.61001794e-02 0.
      8.94454401e-03 7.15563493e-03 0. 5.36672631e-03 3.57781746e-03
      7.15563493e-03 0. 1.78890873e-03 1.78890873e-03 0. 3.57781746e-03
      3.57781746e-03 1.78890873e-03 0. 0.</_>
    <_>
      8.39630549e-04 3.35852220e-03 5.87741379e-03 1.67926110e-03
      8.39630514e-03 2.51889159e-03 6.71704439e-03 5.03778318e-03
      9.23593622e-03 7.55667500e-03 2.51889159e-03 1.59529801e-02
      7.55667500e-03 2.51889159e-03 1.17548276e-02 8.39630514e-03 0.
      1.67926110e-03 4.19815257e-03 2.51889159e-03 0. 8.39630549e-04
      5.87741379e-03 4.19815257e-03 5.87741379e-03 0. 2.51889159e-03 0.
      5.87741379e-03 7.55667500e-03 1.67926110e-03 7.55667500e-03
      4.19815257e-03 1.84718724e-02 3.35852220e-03 3.35852220e-03
      5.03778318e-03 1.67926110e-03 0. 5.03778318e-03 2.51889159e-03
      1.67926110e-03 5.03778318e-03 3.35852220e-03 3.35852220e-03
      8.39630549e-04 8.39630549e-04 5.03778318e-03 4.19815257e-03
      1.67926110e-03 2.68681776e-02 8.39630549e-04 4.19815257e-03 0.
      1.17548276e-02 4.19815257e-03 5.03778318e-03 1.67926103e-02
      2.51889159e-03 5.87741379e-03 0. 5.03778318e-03 4.19815257e-03
      6.71704439e-03 6.71704439e-03 1.84718724e-02 1.25944586e-02
      2.51889159e-03 8.39630514e-03 1.67926110e-03 1.67926110e-03
      3.35852220e-03 2.01511327e-02 5.87741379e-03 5.87741379e-03 0.
      1.67926110e-03 1.59529801e-02 0. 8.39630549e-04 3.35852220e-03
      1.67926110e-03 5.03778318e-03 7.55667500e-03 5.87741379e-03
      8.39630514e-03 5.87741379e-03 1.67926110e-03 8.39630514e-03
      8.39630549e-04 3.35852220e-03 5.03778318e-03 2.51889159e-03
      1.67926110e-03 5.03778318e-03 3.35852220e-03 9.23593622e-03
      6.71704439e-03 8.39630549e-04 0. 4.19815257e-03 1.67926110e-03
      2.51889159e-03 5.87741379e-03 1.42737189e-02 1.67926110e-03
      5.03778318e-03 8.39630549e-04 1.67926110e-03 8.39630549e-04
      3.35852220e-03 1.67926103e-02 0. 5.03778318e-03 8.39630549e-04
      3.35852220e-03 2.51889159e-03 1.67926110e-03 9.23593622e-03
      8.39630514e-03 8.39630514e-03 3.35852220e-03 1.00755664e-02 0.
      8.39630514e-03 5.03778318e-03 3.35852220e-03 2.51889159e-03
      8.39630549e-04 8.39630514e-03 5.87741379e-03 5.03778318e-03
      9.23593622e-03 5.03778318e-03 4.19815257e-03 6.71704439e-03
      2.51889159e-03 3.35852220e-03 1.76322423e-02 8.39630514e-03
      5.87741379e-03 2.51889159e-03 4.19815257e-03 2.51889159e-03
      4.19815257e-03 2.51889159e-03 8.39630549e-04 4.19815257e-03
      7.55667500e-03 3.35852220e-03 4.19815257e-03 7.55667500e-03
      1.17548276e-02 8.39630549e-04 1.67926110e-03 5.03778318e-03
      8.39630514e-03 5.03778318e-03 3.35852220e-03 4.19815257e-03
      1.00755664e-02 7.55667500e-03 2.51889159e-03 4.19815257e-03 0.
      6.71704439e-03 5.87741379e-03 8.39630549e-04 2.51889159e-03
      2.51889159e-03 0. 2.51889159e-03 3.35852220e-03 2.93870699e-02
      1.67926110e-03 9.23593622e-03 5.03778318e-03 6.71704439e-03
      4.19815257e-03 1.67926110e-03 0. 8.39630549e-04 0. 4.19815257e-03
      7.55667500e-03 5.87741379e-03 7.55667500e-03 4.19815257e-03
      8.39630514e-03 8.39630514e-03 3.35852220e-03 8.39630549e-04
      9.23593622e-03 8.39630549e-04 4.19815257e-03 5.87741379e-03
      5.87741379e-03 3.35852220e-03 7.55667500e-03 8.39630549e-04</_>
    <_>
      1.47275405e-03 2.94550811e-03 5.89101622e-03 2.94550811e-03
      6.62739342e-03 5.89101622e-03 8.83652456e-03 5.15463902e-03
      3.68188508e-03 3.68188508e-03 5.89101622e-03 3.68188508e-03
      4.41826228e-03 5.15463902e-03 7.36377016e-03 2.94550811e-03 0.
      2.20913114e-03 1.54639175e-02 8.83652456e-03 4.41826228e-03
      4.41826228e-03 4.41826228e-03 2.94550811e-03 4.41826228e-03 0.
      6.62739342e-03 2.20913114e-03 4.41826228e-03 7.36377027e-04
      7.36377027e-04 0. 4.41826228e-03 1.76730491e-02 4.41826228e-03
      5.15463902e-03 3.68188508e-03 5.15463902e-03 3.68188508e-03
      4.41826228e-03 1.47275405e-03 3.68188508e-03 4.41826228e-03
      2.94550811e-03 3.68188508e-03 2.20913114e-03 2.94550811e-03
      1.47275405e-03 7.36377027e-04 4.41826228e-03 6.62739342e-03
      5.15463902e-03 2.94550811e-03 3.68188508e-03 5.15463902e-03
      2.20913114e-03 1.10456552e-02 2.72459500e-02 4.27098684e-02
      2.20913114e-03 0. 3.68188508e-03 6.62739342e-03 2.94550811e-03
      1.47275405e-03 1.98821798e-02 5.89101622e-03 2.20913114e-03
      7.36377027e-04 3.68188508e-03 1.17820324e-02 2.94550811e-03
      7.36377016e-03 2.94550811e-03 1.54639175e-02 0. 0. 1.47275405e-03
      0. 2.94550811e-03 2.20913114e-03 2.94550811e-03 6.62739342e-03
      2.94550811e-03 1.54639175e-02 5.15463902e-03 8.83652456e-03
      1.10456552e-02 9.57290176e-03 0. 2.20913114e-03 7.36377027e-04
      1.17820324e-02 1.47275405e-03 4.41826228e-03 0. 1.62002947e-02
      5.89101622e-03 7.36377016e-03 2.94550811e-03 2.94550811e-03
      4.41826228e-03 2.20913114e-03 2.20913114e-03 6.62739342e-03
      4.41826228e-03 7.36377027e-04 4.41826228e-03 2.20913114e-03 0.
      9.57290176e-03 8.83652456e-03 1.47275405e-03 0. 1.47275405e-03
      2.20913114e-03 2.94550811e-03 4.41826228e-03 2.72459500e-02
      1.54639175e-02 3.68188508e-03 7.36377027e-04 3.68188508e-03
      3.68188508e-03 1.54639175e-02 5.15463902e-03 0. 1.32547868e-02
      4.41826228e-03 4.41826228e-03 2.94550811e-03 2.94550811e-03
      7.36377027e-04 2.20913114e-03 3.68188508e-03 5.89101622e-03
      1.69366710e-02 7.36377016e-03 1.17820324e-02 1.03092780e-02
      7.36377027e-04 0. 2.94550811e-03 4.41826228e-03 0. 1.47275405e-03
      0. 3.68188508e-03 0. 3.68188508e-03 8.10014736e-03 6.62739342e-03
      8.10014736e-03 4.41826228e-03 0. 7.36377027e-04 0. 6.62739342e-03
      7.36377027e-04 1.17820324e-02 1.47275403e-02 5.89101622e-03
      4.41826228e-03 4.41826228e-03 2.20913114e-03 8.83652456e-03
      2.94550811e-03 0. 7.36377016e-03 2.94550811e-03 5.15463902e-03
      5.15463902e-03 4.41826228e-03 2.20913114e-03 4.41826228e-03
      1.47275403e-02 2.94550811e-03 5.89101622e-03 1.03092780e-02
      7.36377027e-04 0. 3.68188508e-03 1.47275405e-03 6.62739342e-03
      4.41826228e-03 5.89101622e-03 2.20913114e-03 5.15463902e-03
      5.89101622e-03 0. 4.41826228e-03 3.68188508e-03 2.20913114e-03
      4.41826228e-03 1.47275405e-03 7.36377016e-03 2.94550811e-03
      3.68188508e-03 3.68188508e-03 0.</_>
    <_>
      3.74672143e-03 1.49868859e-03 2.99737719e-03 5.62008237e-03
      7.86811486e-03 3.74672143e-03 5.62008237e-03 5.62008237e-03
      1.87336071e-03 7.86811486e-03 5.62008237e-03 8.61745980e-03
      2.99737719e-03 2.24803295e-03 7.11877085e-03 8.24278686e-03 0.
      2.99737719e-03 6.74409885e-03 4.87073790e-03 7.49344297e-04
      1.87336071e-03 1.49868859e-03 1.49868859e-03 6.36942638e-03
      7.49344297e-04 4.87073790e-03 0. 1.49868859e-03 4.12139343e-03
      1.12401647e-03 1.12401647e-03 8.99213180e-03 6.74409885e-03
      6.74409885e-03 5.24540991e-03 5.24540991e-03 5.24540991e-03
      4.49606590e-03 8.24278686e-03 7.49344297e-04 2.62270495e-03
      3.37204942e-03 3.74672143e-03 6.36942638e-03 2.62270495e-03
      1.12401647e-03 7.49344297e-04 2.99737719e-03 2.62270495e-03
      2.28550006e-02 3.37204942e-03 4.49606590e-03 4.87073790e-03
      1.12401647e-03 2.62270495e-03 5.99475438e-03 1.23641808e-02
      3.70925441e-02 7.49344297e-04 0. 4.12139343e-03 8.99213180e-03
      3.74672143e-03 1.87336071e-03 1.01161478e-02 6.36942638e-03
      3.74672143e-03 1.87336071e-03 5.24540991e-03 1.42375417e-02
      9.36680380e-03 8.24278686e-03 2.24803295e-03 7.11877085e-03
      3.74672149e-04 3.74672149e-04 4.49606590e-03 7.49344297e-04
      1.31135248e-02 2.99737719e-03 3.74672143e-03 8.61745980e-03
      5.99475438e-03 1.87336071e-03 4.87073790e-03 5.62008237e-03
      1.76095907e-02 4.12139343e-03 0. 5.99475438e-03 1.49868859e-03
      5.24540991e-03 2.24803295e-03 2.62270495e-03 1.87336071e-03
      1.98576245e-02 2.24803295e-03 7.49344286e-03 1.49868859e-03
      1.12401647e-03 4.87073790e-03 2.24803295e-03 1.87336071e-03
      5.99475438e-03 4.49606590e-03 1.12401647e-03 2.62270495e-03
      1.12401647e-03 1.12401647e-03 8.24278686e-03 5.99475438e-03
      7.49344297e-04 3.74672149e-04 3.74672149e-04 4.49606590e-03
      3.74672143e-03 7.49344297e-04 3.37204942e-03 9.36680380e-03
      5.62008237e-03 2.24803295e-03 7.86811486e-03 1.49868859e-03
      8.24278686e-03 4.87073790e-03 3.37204942e-03 5.62008237e-03
      2.24803295e-03 5.99475438e-03 1.87336071e-03 3.37204942e-03
      2.99737719e-03 2.24803295e-03 4.87073790e-03 3.37204942e-03
      7.49344286e-03 8.24278686e-03 3.33458222e-02 2.66017225e-02
      3.37204942e-03 7.49344297e-04 2.62270495e-03 4.12139343e-03
      7.49344297e-04 3.74672143e-03 7.49344297e-04 4.12139343e-03
      1.49868859e-03 2.62270495e-03 4.87073790e-03 9.36680380e-03
      5.24540991e-03 1.49868859e-03 2.62270495e-03 3.74672149e-04
      2.99737719e-03 1.53615577e-02 4.49606590e-03 1.91082787e-02
      1.08654927e-02 3.74672143e-03 4.87073790e-03 4.87073790e-03
      4.12139343e-03 1.27388528e-02 3.37204942e-03 0. 3.74672143e-03
      6.36942638e-03 8.61745980e-03 2.24803295e-03 1.12401647e-03
      7.49344286e-03 4.12139343e-03 3.37204942e-03 2.24803295e-03
      1.76095907e-02 1.01161478e-02 0. 3.74672149e-04 2.62270495e-03
      7.49344297e-04 7.49344286e-03 5.99475438e-03 1.04908198e-02
      5.24540991e-03 2.24803295e-03 1.04908198e-02 2.62270495e-03
      3.74672143e-03 7.49344286e-03 2.99737719e-03 7.49344297e-04
      3.74672143e-03 3.37204942e-03 6.36942638e-03 7.49344297e-04
      7.11877085e-03 0.</_>
    <_>
      1.28424657e-03 2.14041094e-03 6.84931502e-03 2.14041094e-03
      2.56849313e-03 3.85273970e-03 4.70890384e-03 5.99315064e-03
      4.28082189e-04 8.98972619e-03 3.42465751e-03 1.88356154e-02
      2.14041094e-03 8.56164377e-04 8.13356135e-03 1.07020549e-02
      4.28082189e-04 2.56849313e-03 2.14041094e-03 3.85273970e-03
      4.28082189e-03 5.56506868e-03 8.56164377e-04 2.56849313e-03
      1.02739725e-02 1.28424657e-03 2.99657532e-03 4.28082189e-04
      2.14041094e-03 4.28082189e-03 1.71232875e-03 4.28082189e-04
      9.84589010e-03 2.22602747e-02 8.98972619e-03 2.99657532e-03
      1.28424657e-03 2.56849313e-03 1.28424657e-03 1.79794524e-02
      2.56849313e-03 2.99657532e-03 2.56849313e-03 1.71232875e-03
      5.56506868e-03 2.14041094e-03 1.71232875e-03 2.14041094e-03
      1.28424657e-03 4.70890384e-03 5.82191795e-02 1.71232875e-03
      4.70890384e-03 2.56849313e-03 2.99657532e-03 1.71232875e-03
      5.56506868e-03 1.19863013e-02 1.36986300e-02 5.13698626e-03
      8.56164377e-04 7.70547939e-03 6.42123260e-03 3.42465751e-03
      2.14041094e-03 1.28424657e-03 7.27739744e-03 3.42465751e-03
      1.28424657e-03 2.99657532e-03 1.24143837e-02 1.11301374e-02
      5.56506868e-03 8.56164377e-04 1.11301374e-02 0. 0. 3.42465751e-03
      4.28082189e-04 4.28082189e-03 8.56164377e-04 5.13698626e-03
      5.56506868e-03 3.42465751e-03 5.13698626e-03 3.42465751e-03
      1.32705476e-02 5.13698626e-03 5.56506868e-03 8.98972619e-03
      5.56506868e-03 1.28424657e-03 1.71232875e-03 3.42465751e-03
      8.56164377e-04 1.71232875e-03 3.42465751e-03 2.14041094e-03
      8.56164377e-04 1.28424657e-03 2.99657532e-03 7.27739744e-03
      4.70890384e-03 1.28424657e-03 8.98972619e-03 2.56849313e-03
      1.28424657e-03 2.14041094e-03 1.71232875e-03 0. 8.98972619e-03
      5.56506868e-03 3.85273970e-03 3.42465751e-03 1.71232875e-03
      8.56164377e-04 3.42465751e-03 4.28082189e-04 3.42465751e-03
      2.14041094e-03 3.85273970e-03 2.56849313e-03 7.70547939e-03
      2.14041094e-03 2.14041099e-02 5.13698626e-03 4.28082189e-04
      1.28424657e-03 3.42465751e-03 2.14041094e-03 0. 1.28424657e-03
      1.71232875e-03 1.71232875e-03 1.71232875e-03 5.13698626e-03
      1.66952051e-02 5.13698626e-03 4.10958901e-02 1.92636978e-02
      2.56849313e-03 1.28424657e-03 3.42465751e-03 4.70890384e-03
      8.13356135e-03 3.42465751e-03 8.56164377e-04 1.28424657e-03
      1.28424657e-03 1.71232875e-03 5.13698626e-03 9.41780768e-03
      4.70890384e-03 4.28082189e-04 3.42465751e-03 1.28424657e-03
      4.28082189e-04 1.07020549e-02 3.42465751e-03 2.22602747e-02
      2.26883553e-02 5.56506868e-03 1.28424657e-03 1.92636978e-02
      2.56849313e-03 1.49828764e-02 1.71232875e-03 0. 2.14041094e-03
      3.85273970e-03 1.71232875e-03 4.28082189e-04 2.14041094e-03
      1.15582189e-02 3.85273970e-03 5.13698626e-03 2.56849313e-03
      1.19863013e-02 7.27739744e-03 0. 0. 4.28082189e-04 4.28082189e-04
      9.41780768e-03 6.42123260e-03 8.13356135e-03 1.45547949e-02
      4.70890384e-03 9.84589010e-03 8.56164377e-04 1.71232875e-03
      2.99657532e-03 8.56164377e-04 1.28424657e-03 1.28424657e-03
      1.28424657e-03 3.42465751e-03 2.99657532e-03 1.15582189e-02 0.</_>
    <_>
      2.95857992e-03 5.91715984e-03 1.18343197e-02 0. 1.18343197e-02
      5.91715984e-03 2.95857992e-03 8.87573976e-03 2.95857992e-03
      5.91715984e-03 0. 2.95857992e-03 2.95857992e-03 0. 1.18343197e-02
      8.87573976e-03 0. 0. 1.18343197e-02 0. 0. 0. 5.91715984e-03 0.
      2.95857992e-03 5.91715984e-03 2.95857992e-03 0. 8.87573976e-03
      2.95857992e-03 0. 2.95857992e-03 5.91715984e-03 8.87573976e-03
      2.95857992e-03 0. 2.95857992e-03 0. 2.95857992e-03 8.87573976e-03
      2.95857992e-03 2.95857992e-03 2.95857992e-03 2.95857992e-03
      5.91715984e-03 0. 5.91715984e-03 2.95857992e-03 8.87573976e-03
      2.95857992e-03 1.47928996e-02 5.91715984e-03 8.87573976e-03
      5.91715984e-03 5.91715984e-03 0. 2.95857992e-03 2.95857992e-03
      2.36686394e-02 1.77514795e-02 0. 2.95857992e-03 8.87573976e-03 0.
      5.91715984e-03 2.95857992e-03 0. 2.95857992e-03 1.77514795e-02
      2.95857992e-03 1.47928996e-02 2.95857992e-03 8.87573976e-03
      5.91715984e-03 1.47928996e-02 0. 5.91715984e-03 5.91715984e-03
      2.95857992e-03 0. 5.91715984e-03 2.95857992e-03 8.87573976e-03 0.
      0. 0. 5.91715984e-03 0. 5.91715984e-03 0. 5.91715984e-03 0.
      2.95857992e-03 5.91715984e-03 2.95857992e-03 0. 1.47928996e-02 0.
      2.95857992e-03 0. 2.95857992e-03 2.95857992e-03 5.91715984e-03 0.
      1.18343197e-02 0. 2.95857992e-03 2.95857992e-03 0. 0.
      5.91715984e-03 5.91715984e-03 8.87573976e-03 5.91715984e-03 0.
      2.95857992e-03 0. 0. 1.47928996e-02 5.91715984e-03 8.87573976e-03
      2.95857992e-03 1.18343197e-02 0. 8.87573976e-03 2.95857992e-03 0.
      0. 0. 5.91715984e-03 5.91715984e-03 2.95857992e-03 0.
      2.95857992e-03 0. 1.77514795e-02 1.18343197e-02 0. 2.95857992e-02
      4.73372787e-02 0. 0. 2.95857992e-03 0. 2.95857992e-03
      2.95857992e-03 0. 2.95857992e-03 2.95857992e-03 5.91715984e-03
      2.95857992e-03 2.95857992e-03 5.91715984e-03 0. 0. 0.
      2.07100585e-02 1.18343197e-02 2.95857992e-03 2.95857992e-03
      2.36686394e-02 5.91715984e-03 0. 0. 0. 1.18343197e-02 0. 0.
      2.95857992e-03 8.87573976e-03 0. 0. 5.91715984e-03 1.77514795e-02
      5.91715984e-03 8.87573976e-03 2.95857992e-03 2.95857992e-03
      8.87573976e-03 0. 0. 0. 0. 2.95857992e-03 3.25443782e-02
      2.95857992e-02 0. 0. 2.36686394e-02 0. 2.95857992e-03 0.
      2.95857992e-03 0. 1.18343197e-02 0. 8.87573976e-03 0.
      5.91715984e-03 0.</_>
    <_>
      0. 2.50626565e-03 6.26566401e-03 2.50626565e-03 1.37844607e-02 0.
      5.01253130e-03 2.50626565e-03 1.25313282e-03 1.00250626e-02
      3.75939859e-03 1.12781953e-02 3.75939859e-03 1.25313282e-03
      1.00250626e-02 7.51879718e-03 0. 1.25313282e-03 1.50375944e-02
      2.50626565e-03 3.75939859e-03 2.50626565e-03 3.75939859e-03
      1.25313282e-03 2.50626565e-03 0. 2.50626565e-03 0. 7.51879718e-03
      1.25313282e-03 0. 2.50626565e-03 1.12781953e-02 7.51879718e-03
      1.25313282e-03 2.50626565e-03 8.77192989e-03 1.25313282e-03
      1.25313282e-03 1.00250626e-02 1.25313282e-03 3.75939859e-03
      3.75939859e-03 5.01253130e-03 5.01253130e-03 1.25313282e-03
      2.50626565e-03 1.25313282e-03 3.75939859e-03 1.25313282e-03
      1.25313282e-03 2.50626565e-03 5.01253130e-03 7.51879718e-03 0.
      5.01253130e-03 7.51879718e-03 5.13784476e-02 1.62907261e-02
      5.01253130e-03 0. 1.25313282e-03 0. 5.01253130e-03 2.50626565e-03
      1.62907261e-02 7.51879718e-03 5.01253130e-03 1.62907261e-02
      1.25313282e-03 3.75939859e-03 1.37844607e-02 7.51879718e-03
      3.75939859e-03 1.12781953e-02 0. 0. 3.75939859e-03 0. 0. 0.
      5.01253130e-03 5.01253130e-03 2.50626565e-03 0. 7.51879718e-03
      1.25313282e-03 2.50626565e-03 3.75939859e-03 0. 8.77192989e-03 0.
      1.75438598e-02 2.50626565e-03 2.50626565e-03 0. 8.77192989e-03 0.
      1.25313282e-03 1.25313282e-03 7.51879718e-03 7.51879718e-03
      2.50626565e-03 0. 6.26566401e-03 2.50626565e-03 0. 2.50626565e-03
      1.25313282e-03 0. 5.01253130e-03 1.25313282e-03 2.50626565e-03 0.
      0. 2.50626565e-03 1.25313282e-03 2.50626565e-03 2.50626565e-03
      2.50626560e-02 6.26566401e-03 1.25313282e-03 1.12781953e-02
      2.50626565e-03 3.75939859e-03 5.01253130e-03 0. 2.50626565e-03
      1.25313282e-03 6.26566401e-03 5.01253130e-03 2.50626565e-03
      1.25313282e-03 1.25313282e-03 2.50626565e-03 1.25313282e-03
      1.25313282e-03 3.75939859e-03 2.38095243e-02 6.26566410e-02
      5.01253130e-03 7.51879718e-03 1.25313282e-03 3.75939859e-03
      1.25313282e-03 6.26566401e-03 0. 2.50626565e-03 3.75939859e-03
      2.50626565e-03 1.25313282e-03 2.50626565e-03 5.01253130e-03
      7.51879718e-03 0. 0. 1.25313280e-02 6.26566401e-03 2.50626565e-03
      5.01253130e-03 1.12781953e-02 1.37844607e-02 7.51879718e-03
      1.25313282e-03 6.26566401e-03 2.50626565e-03 1.25313282e-03 0.
      1.25313282e-03 1.00250626e-02 0. 1.75438598e-02 1.25313282e-03 0.
      1.25313280e-02 3.75939859e-03 6.26566401e-03 1.00250626e-02
      6.26566401e-03 0. 0. 1.25313282e-03 0. 1.25313280e-02
      5.01253130e-03 1.37844607e-02 2.50626565e-03 2.50626565e-03
      1.87969916e-02 1.25313280e-02 7.51879718e-03 2.50626565e-03
      6.26566401e-03 2.50626565e-03 5.01253130e-03 1.50375944e-02
      8.77192989e-03 2.50626565e-03 2.50626565e-03 0.</_>
    <_>
      0. 1.72413792e-03 1.72413792e-02 0. 5.17241377e-03 3.44827585e-03
      1.72413792e-03 0. 1.72413792e-03 1.72413792e-03 1.72413792e-03
      3.44827585e-03 1.72413792e-03 0. 6.89655170e-03 5.17241377e-03 0.
      0. 5.17241377e-03 0. 0. 0. 0. 0. 3.44827585e-03 0. 0. 0.
      5.17241377e-03 1.72413792e-03 1.72413792e-03 0. 3.44827585e-03
      4.31034490e-02 0. 0. 3.44827585e-03 0. 0. 1.72413792e-02 0.
      1.72413792e-03 0. 0. 8.62068962e-03 1.72413792e-03 0. 0.
      1.72413792e-03 3.44827585e-03 3.10344826e-02 0. 0. 0.
      5.17241377e-03 1.72413792e-03 0. 6.89655170e-02 1.72413792e-02
      1.72413792e-02 0. 1.72413792e-03 5.17241377e-03 3.44827585e-03 0.
      5.17241377e-03 1.72413792e-03 5.17241377e-03 3.44827585e-03 0.
      1.55172413e-02 3.44827585e-03 1.55172413e-02 1.72413792e-03
      2.24137940e-02 0. 0. 0. 0. 0. 1.72413792e-03 3.44827585e-03 0.
      5.17241377e-03 1.72413792e-03 0. 6.89655170e-03 0. 6.89655170e-03
      3.44827585e-03 0. 0. 1.72413792e-03 1.72413792e-03 0. 0.
      3.27586196e-02 1.72413792e-03 1.72413792e-03 0. 6.89655170e-03
      8.62068962e-03 0. 0. 0. 0. 1.72413792e-03 1.72413792e-03
      5.17241377e-03 0. 0. 8.62068962e-03 3.44827585e-03 1.72413792e-03
      0. 8.62068962e-03 0. 0. 1.55172413e-02 5.17241377e-03
      1.03448275e-02 0. 6.89655170e-03 0. 6.20689653e-02 0. 0. 0. 0.
      1.72413792e-03 0. 1.72413792e-03 3.44827585e-03 5.17241377e-03
      1.72413792e-03 1.37931034e-02 3.44827585e-03 0. 4.48275879e-02
      4.65517230e-02 8.62068962e-03 0. 1.72413792e-03 3.44827585e-03
      1.72413792e-03 1.72413792e-03 0. 1.72413792e-03 0. 0.
      3.44827585e-03 1.72413792e-03 3.44827585e-03 0. 6.89655170e-03 0.
      6.89655170e-03 8.62068962e-03 6.89655170e-03 8.62068962e-03
      2.58620679e-02 6.89655170e-03 0. 2.24137940e-02 0. 1.37931034e-02
      1.72413792e-03 0. 0. 3.44827585e-03 0. 0. 1.72413792e-03
      1.03448275e-02 5.17241377e-03 5.17241377e-03 3.44827585e-03
      4.13793102e-02 1.72413792e-03 1.72413792e-03 0. 6.89655170e-03 0.
      5.17241377e-03 3.44827585e-03 1.03448275e-02 5.17241377e-03
      1.72413792e-03 1.55172413e-02 3.44827585e-03 1.72413792e-03 0.
      3.44827585e-03 3.44827585e-03 3.44827585e-03 3.44827585e-03
      1.72413792e-03 0. 3.44827585e-03 0.</_>
    <_>
      0. 8.13008100e-03 1.21951215e-02 4.06504050e-03 4.06504050e-03 0.
      0. 1.62601620e-02 0. 8.13008100e-03 0. 0. 8.13008100e-03 0.
      4.06504050e-03 4.06504050e-03 0. 0. 1.62601620e-02 0.
      4.06504050e-03 0. 0. 0. 4.06504050e-03 4.06504050e-03
      8.13008100e-03 0. 0. 0. 0. 4.06504050e-03 4.06504050e-03 0.
      4.06504050e-03 4.06504050e-03 2.03252025e-02 4.06504050e-03
      8.13008100e-03 8.13008100e-03 0. 0. 0. 4.06504050e-03
      8.13008100e-03 0. 4.06504050e-03 0. 0. 0. 4.06504050e-03
      4.06504050e-03 0. 8.13008100e-03 4.06504050e-03 0. 4.06504050e-03
      0. 1.62601620e-02 0. 0. 0. 4.06504050e-03 4.06504050e-03
      8.13008100e-03 2.43902430e-02 0. 8.13008100e-03 4.06504050e-03 0.
      4.06504050e-03 2.03252025e-02 4.06504050e-03 0. 1.21951215e-02 0.
      0. 0. 0. 0. 0. 4.06504050e-03 4.06504050e-03 1.21951215e-02 0.
      4.06504050e-03 0. 0. 0. 0. 8.13008100e-03 0. 0. 4.06504050e-03
      8.13008100e-03 0. 4.06504050e-02 0. 0. 0. 8.13008100e-03
      1.62601620e-02 0. 0. 8.13008100e-03 4.06504050e-03 0.
      8.13008100e-03 0. 0. 4.06504050e-03 4.06504050e-03 4.06504050e-03
      0. 0. 0. 4.06504050e-03 0. 8.13008100e-03 8.13008100e-03
      8.13008100e-03 0. 4.06504050e-03 0. 1.21951215e-02 0. 0.
      4.06504050e-03 4.06504050e-03 1.62601620e-02 0. 0. 4.06504050e-03
      4.06504050e-03 0. 0. 0. 0. 4.87804860e-02 5.69105670e-02
      8.13008100e-03 0. 8.13008100e-03 0. 0. 1.21951215e-02 0. 0.
      4.06504050e-03 4.06504050e-03 0. 0. 4.06504050e-03 8.13008100e-03
      0. 0. 2.03252025e-02 3.65853645e-02 8.13008100e-03 8.13008100e-03
      1.21951215e-02 4.06504050e-03 8.13008100e-03 0. 0. 8.13008100e-03
      4.06504050e-03 0. 4.06504050e-03 4.06504050e-03 0. 8.13008100e-03
      8.13008100e-03 0. 1.21951215e-02 4.06504050e-03 8.13008100e-03
      1.62601620e-02 8.13008100e-03 0. 0. 0. 0. 0. 3.25203240e-02
      1.21951215e-02 4.06504050e-03 0. 3.25203240e-02 0. 0.
      4.06504050e-03 0. 0. 2.03252025e-02 4.06504050e-03 8.13008100e-03
      0. 1.21951215e-02 0.</_>
    <_>
      0. 0. 1.19760484e-02 2.99401209e-03 8.98203626e-03 2.99401209e-03
      2.99401209e-03 0. 0. 5.98802418e-03 0. 8.98203626e-03
      2.99401209e-03 0. 5.98802418e-03 8.98203626e-03 0. 0.
      1.79640725e-02 0. 0. 2.99401209e-03 0. 0. 2.99401209e-03 0. 0. 0.
      1.79640725e-02 0. 0. 0. 5.98802418e-03 8.98203626e-03
      2.99401209e-03 0. 8.98203626e-03 0. 0. 8.98203626e-03 0.
      2.99401209e-03 0. 0. 0. 0. 0. 0. 0. 0. 6.88622743e-02 0. 0. 0.
      5.98802418e-03 2.99401209e-03 1.19760484e-02 6.28742576e-02
      2.39520967e-02 0. 0. 0. 0. 0. 5.98802418e-03 1.79640725e-02
      2.99401209e-03 2.99401209e-03 2.99401209e-03 0. 1.19760484e-02
      2.99401209e-03 8.98203626e-03 0. 2.99401209e-02 0. 0. 0. 0. 0.
      2.99401209e-03 2.99401209e-03 2.99401209e-03 0. 2.99401209e-03 0.
      0. 2.99401209e-03 1.19760484e-02 0. 0. 0. 0. 0. 0. 0.
      6.88622743e-02 0. 2.99401209e-03 0. 5.98802418e-03 5.98802418e-03
      2.99401209e-03 0. 5.98802418e-03 2.99401209e-03 0. 0. 0. 0. 0.
      1.19760484e-02 2.99401209e-03 2.99401209e-03 0. 2.99401209e-03
      2.99401209e-03 0. 8.98203626e-03 1.49700604e-02 1.19760484e-02 0.
      1.49700604e-02 0. 2.09580846e-02 5.98802418e-03 0. 0. 0. 0. 0. 0.
      0. 0. 1.19760484e-02 0. 0. 5.98802418e-03 1.10778451e-01
      6.28742576e-02 0. 0. 0. 2.99401209e-03 0. 0. 0. 0. 0.
      2.99401209e-03 0. 0. 1.19760484e-02 0. 0. 0. 5.98802418e-03
      1.19760484e-02 0. 5.98802418e-03 8.98203626e-03 0. 0. 0. 0.
      1.49700604e-02 0. 0. 0. 5.98802418e-03 0. 0. 0. 8.98203626e-03
      2.99401209e-03 2.99401209e-03 5.98802418e-03 0. 2.99401209e-03 0.
      0. 0. 0. 5.98802418e-03 2.99401209e-03 2.99401209e-03
      2.99401209e-03 2.99401209e-03 2.99401209e-02 1.19760484e-02
      2.99401209e-03 5.98802418e-03 2.99401209e-03 0. 0. 0.
      5.98802418e-03 2.99401209e-03 0. 0.</_>
    <_>
      6.61375641e-04 6.61375641e-04 3.30687826e-03 3.30687826e-03
      1.25661371e-02 2.64550257e-03 4.62962966e-03 4.62962966e-03
      2.64550257e-03 7.27513200e-03 3.30687826e-03 9.25925933e-03
      2.64550257e-03 3.96825373e-03 8.59788340e-03 8.59788340e-03 0.
      5.29100513e-03 2.31481474e-02 6.61375641e-04 2.64550257e-03
      6.61375641e-04 4.62962966e-03 2.64550257e-03 3.96825373e-03 0.
      3.30687826e-03 3.96825373e-03 8.59788340e-03 8.59788340e-03
      3.96825373e-03 6.61375641e-04 1.52116399e-02 3.96825373e-03
      2.64550257e-03 1.32275128e-03 8.59788340e-03 1.98412687e-03
      1.32275128e-03 7.27513200e-03 1.98412687e-03 5.29100513e-03
      7.93650746e-03 1.32275128e-03 2.64550257e-03 5.95238060e-03
      3.30687826e-03 6.61375641e-04 5.29100513e-03 2.64550257e-03
      5.95238060e-03 5.29100513e-03 4.62962966e-03 7.27513200e-03
      1.98412687e-03 1.32275128e-03 9.25925933e-03 2.31481474e-02
      9.92063433e-03 5.95238060e-03 6.61375641e-04 5.29100513e-03
      3.96825373e-03 2.64550257e-03 9.25925933e-03 1.52116399e-02
      2.64550257e-03 0. 3.30687826e-03 3.96825373e-03 3.96825373e-03
      6.61375653e-03 5.95238060e-03 2.64550257e-03 2.64550257e-03 0.
      1.98412687e-03 2.64550257e-03 6.61375641e-04 2.64550257e-03
      2.64550257e-03 4.62962966e-03 4.62962966e-03 7.27513200e-03
      3.96825373e-03 5.29100513e-03 5.95238060e-03 3.30687826e-03
      8.59788340e-03 6.61375641e-04 3.96825373e-03 1.98412687e-03
      3.30687826e-03 3.96825373e-03 2.64550257e-03 3.96825373e-03
      1.12433862e-02 4.62962966e-03 3.96825373e-03 1.98412687e-03
      1.98412687e-03 7.93650746e-03 1.32275128e-03 1.98412687e-03
      6.61375653e-03 1.32275128e-03 0. 2.64550257e-03 5.95238060e-03
      2.64550257e-03 1.98412687e-03 7.93650746e-03 1.32275128e-03
      3.96825373e-03 1.98412687e-03 1.98412687e-03 1.98412687e-03
      6.61375641e-04 1.98412687e-03 2.18253955e-02 9.92063433e-03
      2.64550257e-03 4.62962966e-03 2.64550257e-03 5.29100513e-03
      4.62962966e-03 1.98412687e-03 2.64550257e-03 4.62962966e-03
      4.62962966e-03 4.62962966e-03 3.30687826e-03 4.62962966e-03
      2.64550257e-03 2.64550257e-03 1.19047612e-02 1.98412687e-03
      3.96825373e-03 1.58730149e-02 3.63756604e-02 3.96825373e-03
      3.96825373e-03 1.32275128e-03 3.96825373e-03 5.29100513e-03
      3.96825373e-03 1.98412687e-03 3.30687826e-03 3.96825373e-03
      6.61375653e-03 4.62962966e-03 5.29100513e-03 9.92063433e-03
      5.95238060e-03 3.30687826e-03 1.98412687e-03 5.29100513e-03
      9.92063433e-03 3.30687826e-03 7.27513200e-03 9.25925933e-03
      3.96825373e-03 3.96825373e-03 1.32275128e-03 5.95238060e-03
      3.96825373e-03 3.30687826e-03 6.61375641e-04 1.32275128e-03
      3.96825373e-03 6.61375641e-04 6.61375653e-03 2.64550257e-03
      7.93650746e-03 5.29100513e-03 3.96825373e-03 1.58730149e-02
      1.58730149e-02 5.29100513e-03 1.32275128e-03 0. 5.95238060e-03
      7.27513200e-03 1.32275131e-02 1.32275131e-02 3.30687826e-03
      2.64550257e-03 4.62962966e-03 1.52116399e-02 1.05820103e-02
      3.30687826e-03 3.96825373e-03 3.96825373e-03 3.96825373e-03
      6.61375653e-03 7.93650746e-03 2.64550257e-03 3.96825373e-03
      7.93650746e-03 6.61375641e-04</_>
    <_>
      0. 0. 1.20481933e-02 2.40963860e-03 7.22891558e-03 0.
      4.81927721e-03 4.81927721e-03 0. 7.22891558e-03 0. 7.22891558e-03
      2.40963860e-03 2.40963860e-03 1.68674700e-02 1.20481933e-02 0. 0.
      0. 2.40963860e-03 2.40963860e-03 2.40963860e-03 2.40963860e-03
      4.81927721e-03 4.81927721e-03 0. 4.81927721e-03 0. 4.81927721e-03
      2.40963860e-03 1.20481933e-02 0. 9.63855442e-03 1.44578312e-02
      4.81927721e-03 0. 4.81927721e-03 0. 0. 4.81927721e-03
      9.63855442e-03 2.40963860e-03 4.81927721e-03 0. 2.40963860e-03 0.
      0. 7.22891558e-03 0. 4.81927721e-03 1.20481933e-02 2.40963860e-03
      2.40963860e-03 0. 4.81927721e-03 0. 9.63855442e-03 9.63855442e-03
      9.63855442e-03 2.40963860e-03 2.40963860e-03 4.81927721e-03
      9.63855442e-03 1.20481933e-02 1.68674700e-02 9.63855442e-03
      1.44578312e-02 7.22891558e-03 1.44578312e-02 0. 0. 9.63855442e-03
      9.63855442e-03 0. 9.63855442e-03 0. 9.63855442e-03 0.
      2.40963860e-03 2.40963860e-03 1.20481933e-02 0. 9.63855442e-03
      4.81927721e-03 2.40963860e-03 7.22891558e-03 2.40963860e-03 0.
      4.81927721e-03 4.81927721e-03 4.81927721e-03 0. 2.40963860e-03
      4.81927721e-03 4.81927721e-03 2.40963860e-03 3.13253030e-02 0.
      4.81927721e-03 0. 9.63855442e-03 4.81927721e-03 0. 0.
      2.65060253e-02 4.81927721e-03 0. 2.40963860e-03 2.40963860e-03 0.
      2.40963860e-03 2.40963860e-03 4.81927721e-03 4.81927721e-03
      4.81927721e-03 4.81927721e-03 2.40963860e-03 0. 1.44578312e-02
      4.81927721e-03 2.89156623e-02 0. 1.44578312e-02 2.40963860e-03
      3.13253030e-02 0. 0. 7.22891558e-03 0. 7.22891558e-03
      2.40963860e-03 2.40963860e-03 1.68674700e-02 2.40963860e-03
      4.81927721e-03 7.22891558e-03 0. 0. 1.44578312e-02 3.37349400e-02
      9.63855442e-03 0. 0. 4.81927721e-03 4.81927721e-03 7.22891558e-03
      4.81927721e-03 0. 2.40963860e-03 0. 2.40963860e-03 2.40963860e-03
      1.92771088e-02 2.40963860e-03 7.22891558e-03 0. 7.22891558e-03
      2.40963860e-03 0. 4.81927721e-03 9.63855442e-03 1.20481933e-02
      2.40963860e-03 4.81927721e-03 0. 4.81927721e-03 4.81927721e-03
      4.81927721e-03 0. 7.22891558e-03 0. 0. 2.40963860e-03
      4.81927721e-03 4.81927721e-03 2.40963860e-03 2.40963860e-03 0.
      4.81927721e-03 0. 0. 2.40963860e-03 0. 7.22891558e-03
      9.63855442e-03 7.22891558e-03 9.63855442e-03 0. 9.63855442e-03
      2.40963860e-03 4.81927721e-03 4.81927721e-03 2.40963860e-03
      2.40963860e-03 2.40963860e-03 2.40963860e-03 2.40963860e-03 0.
      1.92771088e-02 0.</_></support_vectors>
  <decision_functions>
    <_>
      <sv_count>19</sv_count>
      <rho>-9.6013086480540255e-01</rho>
      <alpha>
        1. 9.7482558220204102e-02 4.4295448913086449e-01
        3.1546600391285051e-01 1. 1. 8.2482953239853080e-02
        2.6285079584813853e-01 3.2559297929796044e-01 1. 1.
        4.7317022035012890e-01 -1. -1. -1. -1. -1. -1. -1.</alpha>
      <index>
        0 1 2 3 4 5 6 7 8 9 10 11 12 13 14 15 16 17 18</index></_></decision_functions></my_svm>
</opencv_storage>
