<?xml version="1.0"?>
<opencv_storage>
<my_svm type_id="opencv-ml-svm">
  <svm_type>C_SVC</svm_type>
  <kernel><type>RBF</type>
    <gamma>1.</gamma></kernel>
  <C>1.</C>
  <term_criteria><epsilon>1.1920928955078125e-07</epsilon>
    <iterations>1000</iterations></term_criteria>
  <var_all>200</var_all>
  <var_count>200</var_count>
  <class_count>2</class_count>
  <class_labels type_id="opencv-matrix">
    <rows>1</rows>
    <cols>2</cols>
    <dt>i</dt>
    <data>
      0 1</data></class_labels>
  <sv_total>25</sv_total>
  <support_vectors>
    <_>
      5.00834733e-03 4.17362247e-03 2.50417367e-03 3.33889807e-03
      8.34724517e-04 3.33889807e-03 8.34724517e-04 0. 9.18196980e-03
      4.17362247e-03 5.00834733e-03 1.91986635e-02 8.34724517e-04 0.
      1.41903171e-02 0. 1.08514186e-02 4.17362247e-03 4.17362247e-03
      1.66944903e-03 4.17362247e-03 5.00834733e-03 1.66944903e-03
      3.33889807e-03 8.34724517e-04 8.34724517e-04 8.34724517e-04
      1.66944899e-02 5.00834733e-03 6.67779613e-03 4.17362247e-03
      6.67779613e-03 3.33889807e-03 8.34724493e-03 2.50417367e-03
      4.17362247e-03 1.25208674e-02 8.34724517e-04 1.66944903e-03 0.
      4.17362247e-03 1.66944899e-02 2.50417367e-03 3.33889807e-03
      5.84307173e-03 3.33889807e-03 0. 2.50417367e-03 6.67779613e-03
      2.50417367e-03 2.50417367e-03 8.34724517e-04 8.34724517e-04
      5.84307173e-03 1.66944903e-03 5.84307173e-03 8.34724517e-04
      2.08681133e-02 5.84307173e-03 1.66944903e-03 2.50417367e-03
      1.66944903e-03 6.67779613e-03 6.67779613e-03 8.34724517e-04
      8.34724493e-03 6.67779613e-03 0. 8.34724517e-04 8.34724517e-04 0.
      2.50417367e-03 5.84307173e-03 2.50417367e-03 5.00834733e-03 0.
      1.08514186e-02 1.66944903e-03 6.67779613e-03 3.33889807e-03
      3.33889807e-03 2.50417367e-03 8.34724517e-04 6.67779613e-03
      1.66944899e-02 6.67779613e-03 9.18196980e-03 2.50417367e-03
      5.84307173e-03 7.51252053e-03 8.34724517e-04 5.00834733e-03
      1.00166947e-02 3.33889807e-03 7.51252053e-03 1.66944903e-03
      2.08681133e-02 8.34724517e-04 1.00166947e-02 3.33889807e-03
      1.41903171e-02 3.33889807e-03 3.33889807e-03 8.34724517e-04
      5.00834733e-03 5.84307173e-03 8.34724493e-03 4.17362247e-03
      2.50417367e-03 0. 4.17362247e-03 5.00834733e-03 5.84307173e-03
      5.00834733e-03 8.34724517e-04 4.17362247e-03 6.67779613e-03
      3.33889807e-03 1.66944903e-03 1.91986635e-02 8.34724517e-04
      8.34724517e-04 8.34724493e-03 1.58597659e-02 7.51252053e-03
      9.18196980e-03 3.33889807e-03 4.17362247e-03 4.17362247e-03
      1.08514186e-02 3.33889807e-03 4.17362247e-03 9.18196980e-03
      5.00834733e-03 3.33889807e-03 8.34724493e-03 3.33889807e-03
      5.84307173e-03 1.83639396e-02 4.17362247e-03 3.33889807e-03
      1.25208674e-02 0. 5.84307173e-03 5.00834733e-03 7.51252053e-03
      2.50417367e-03 1.66944903e-03 5.00834733e-03 8.34724493e-03 0.
      2.50417367e-03 8.34724517e-04 5.00834733e-03 0. 4.17362247e-03
      3.33889807e-03 1.66944903e-03 0. 9.18196980e-03 6.67779613e-03
      4.17362247e-03 5.84307173e-03 1.16861435e-02 2.50417367e-03
      4.17362247e-03 1.41903171e-02 5.84307173e-03 1.66944903e-03
      8.34724493e-03 2.50417367e-03 1.66944903e-03 1.66944903e-03
      3.33889807e-03 5.00834733e-03 1.16861435e-02 3.33889807e-03
      7.51252053e-03 1.00166947e-02 3.33889807e-03 8.34724517e-04
      1.66944903e-03 0. 1.25208674e-02 1.25208674e-02 5.84307173e-03
      2.25375611e-02 2.50417367e-03 2.50417367e-03 2.50417367e-03
      2.50417367e-03 5.00834733e-03 7.51252053e-03 0. 3.33889807e-03
      3.33889807e-03 3.33889807e-03 8.34724517e-04 0. 7.51252053e-03</_>
    <_>
      7.16145849e-03 2.92968750e-03 7.81250000e-03 4.55729198e-03
      6.51041686e-04 4.23177099e-03 4.88281250e-03 3.25520849e-03
      5.53385448e-03 7.16145849e-03 6.51041698e-03 9.11458395e-03
      2.92968750e-03 3.58072924e-03 7.81250000e-03 2.60416674e-03
      1.95312500e-03 2.92968750e-03 5.20833349e-03 5.53385448e-03
      5.20833349e-03 1.30208337e-03 2.92968750e-03 6.83593750e-03
      3.25520849e-03 3.90625000e-03 1.62760424e-03 4.55729198e-03
      3.90625000e-03 1.30208337e-03 6.51041698e-03 9.44010448e-03
      5.20833349e-03 1.39973965e-02 4.88281250e-03 2.92968750e-03
      3.45052108e-02 2.60416674e-03 2.27864599e-03 2.27864599e-03
      2.92968750e-03 5.20833349e-03 3.90625000e-03 2.27864599e-03
      3.90625000e-03 9.76562500e-04 0. 3.25520849e-03 2.60416674e-03
      9.76562500e-04 1.95312500e-03 1.95312500e-03 3.58072924e-03
      7.48697948e-03 1.30208337e-03 4.23177099e-03 4.88281250e-03
      1.79036465e-02 1.17187500e-02 2.60416674e-03 6.83593750e-03
      2.92968750e-03 1.20442715e-02 6.83593750e-03 5.53385448e-03
      6.18489599e-03 3.58072924e-03 7.81250000e-03 3.58072924e-03
      3.25520843e-04 1.30208337e-03 1.95312500e-03 2.60416674e-03
      3.90625000e-03 1.20442715e-02 5.53385448e-03 6.18489599e-03
      1.95312500e-03 8.78906250e-03 1.62760424e-03 4.55729198e-03
      5.20833349e-03 4.55729198e-03 5.53385448e-03 1.95312500e-02
      4.88281250e-03 3.25520849e-03 4.55729198e-03 1.95312500e-03
      1.98567715e-02 1.62760424e-03 2.60416674e-03 2.60416674e-03
      3.58072924e-03 2.27864599e-03 1.95312500e-03 1.13932295e-02
      2.60416674e-03 8.78906250e-03 5.85937500e-03 7.81250000e-03
      3.58072924e-03 9.76562500e-04 1.30208337e-03 2.27864599e-03
      3.90625000e-03 3.90625000e-03 1.30208337e-03 1.30208337e-03
      1.62760424e-03 3.58072924e-03 1.20442715e-02 2.63671875e-02
      2.92968750e-03 2.92968750e-03 1.62760424e-03 7.81250000e-03
      5.20833349e-03 1.30208337e-03 5.53385448e-03 4.23177099e-03
      4.23177099e-03 2.27864599e-03 3.58072924e-03 6.83593750e-03
      2.60416679e-02 3.25520849e-03 9.76562500e-04 4.55729198e-03
      5.85937500e-03 9.76562500e-04 3.25520849e-03 3.90625000e-03
      4.88281250e-03 2.27864599e-03 1.13932295e-02 3.58072924e-03
      7.48697948e-03 1.75781250e-02 2.60416674e-03 1.62760424e-03
      2.60416674e-03 6.51041686e-04 6.51041686e-04 2.27864599e-03
      1.10677090e-02 3.58072924e-03 3.25520849e-03 6.51041686e-04
      3.25520849e-03 3.25520849e-03 2.60416674e-03 1.62760424e-03
      2.60416674e-03 3.25520849e-03 1.33463545e-02 7.16145849e-03
      1.62760424e-03 0. 4.88281250e-03 2.60416674e-03 2.92968750e-03
      1.13932295e-02 2.11588554e-02 3.58072924e-03 1.62760424e-03
      3.25520849e-03 3.25520849e-03 5.85937500e-03 4.23177099e-03
      2.60416674e-03 3.25520843e-04 4.55729198e-03 1.10677090e-02
      3.25520849e-03 1.95312500e-03 5.20833349e-03 1.30208337e-03
      5.53385448e-03 3.25520849e-03 1.30208337e-03 3.58072924e-03
      5.85937500e-03 3.58072924e-03 3.90625000e-03 3.90625000e-03
      1.10677090e-02 7.81250000e-03 3.90625000e-03 1.62760424e-03
      3.58072924e-03 4.23177099e-03 4.23177099e-03 4.55729198e-03
      1.30208337e-03 4.23177099e-03 6.18489599e-03 2.60416674e-03
      5.20833349e-03 1.30208340e-02</_>
    <_>
      1.40449440e-03 5.61797759e-03 0. 2.80898879e-03 1.40449440e-03
      5.61797759e-03 1.40449440e-03 1.40449440e-03 4.21348307e-03
      1.26404492e-02 2.80898879e-03 5.61797759e-03 1.40449440e-03
      2.80898879e-03 8.42696615e-03 1.40449440e-03 7.02247210e-03
      1.40449440e-03 1.40449442e-02 1.40449440e-03 0. 1.40449440e-03
      1.40449440e-03 1.40449440e-03 4.21348307e-03 1.40449440e-03
      1.40449440e-03 1.40449442e-02 4.21348307e-03 4.21348307e-03 0.
      2.80898879e-03 1.68539323e-02 5.61797759e-03 0. 4.21348307e-03
      9.83146112e-03 1.40449440e-03 1.40449440e-03 0. 1.82584263e-02
      1.40449442e-02 5.61797759e-03 5.61797759e-03 7.02247210e-03
      4.21348307e-03 1.40449440e-03 7.02247210e-03 1.12359552e-02
      2.80898879e-03 2.80898879e-03 2.80898879e-03 2.80898879e-03
      1.40449440e-03 0. 2.80898879e-03 4.21348307e-03 7.02247210e-03
      4.21348307e-03 1.40449440e-03 2.80898879e-03 4.21348307e-03
      4.21348307e-03 7.02247210e-03 0. 1.12359552e-02 5.61797759e-03
      1.40449440e-03 0. 0. 0. 2.80898879e-03 4.21348307e-03
      5.61797759e-03 1.40449440e-03 2.80898879e-03 1.40449440e-03
      4.21348307e-03 1.26404492e-02 0. 5.61797759e-03 5.61797759e-03
      5.61797759e-03 8.42696615e-03 5.61797759e-03 4.21348307e-03
      1.40449440e-03 2.80898879e-03 5.61797759e-03 1.82584263e-02 0.
      2.80898879e-03 1.54494382e-02 1.40449440e-03 5.61797759e-03
      7.02247210e-03 2.80898879e-03 1.40449440e-03 4.21348307e-03
      1.68539323e-02 5.61797759e-03 7.02247210e-03 2.80898879e-03
      5.61797759e-03 1.40449440e-03 5.61797759e-03 2.80898879e-03
      4.21348307e-03 0. 1.40449440e-03 2.80898879e-03 7.02247210e-03
      9.83146112e-03 5.61797759e-03 4.21348307e-03 5.61797759e-03
      4.21348307e-03 1.40449440e-03 8.42696615e-03 1.40449442e-02
      1.82584263e-02 1.40449440e-03 1.40449440e-03 4.35393266e-02
      2.80898879e-03 1.12359552e-02 1.40449440e-03 2.80898879e-03
      2.80898879e-03 9.83146112e-03 0. 1.40449440e-03 9.83146112e-03
      8.42696615e-03 2.80898879e-03 7.02247210e-03 5.61797759e-03
      8.42696615e-03 1.40449442e-02 9.83146112e-03 1.40449440e-03
      7.02247210e-03 4.21348307e-03 9.83146112e-03 2.80898879e-03
      2.80898879e-03 4.21348307e-03 2.80898879e-03 1.40449442e-02
      5.61797759e-03 0. 1.40449440e-03 2.80898879e-03 1.12359552e-02 0.
      5.61797759e-03 0. 1.40449440e-03 0. 4.21348307e-03 2.80898879e-03
      4.21348307e-03 1.40449442e-02 7.02247210e-03 9.83146112e-03
      7.02247210e-03 8.42696615e-03 2.80898879e-03 4.21348307e-03
      1.12359552e-02 2.80898879e-03 4.21348307e-03 4.21348307e-03
      2.80898879e-03 7.02247210e-03 9.83146112e-03 1.40449440e-03
      5.61797759e-03 5.61797759e-03 9.83146112e-03 0. 1.40449440e-03 0.
      4.21348307e-03 5.61797759e-03 5.61797759e-03 9.83146112e-03
      1.40449440e-03 1.40449440e-03 2.80898879e-03 1.40449440e-03
      5.61797759e-03 4.21348307e-03 0. 1.40449440e-03 4.21348307e-03
      9.83146112e-03 5.61797759e-03 2.80898879e-03 5.61797759e-03</_>
    <_>
      4.40140814e-03 2.64084502e-03 4.40140814e-03 4.40140814e-03 0.
      1.76056335e-03 9.68309864e-03 0. 5.28169004e-03 2.64084502e-03
      4.40140814e-03 1.23239439e-02 2.64084502e-03 3.52112669e-03
      7.04225339e-03 1.76056335e-03 7.04225339e-03 1.76056335e-03
      5.28169004e-03 2.64084502e-03 3.52112669e-03 2.64084502e-03
      1.76056335e-03 2.64084502e-03 2.64084502e-03 8.80281674e-04
      2.64084502e-03 1.49647882e-02 6.16197195e-03 4.40140814e-03
      5.28169004e-03 7.92253483e-03 7.92253483e-03 1.05633801e-02
      8.80281674e-04 2.64084502e-03 7.92253483e-03 3.52112669e-03
      6.16197195e-03 2.64084502e-03 6.16197195e-03 5.28169004e-03
      4.40140814e-03 5.28169004e-03 3.52112669e-03 2.64084502e-03
      1.76056335e-03 3.52112669e-03 1.76056335e-03 5.28169004e-03
      2.64084502e-03 8.80281674e-04 3.52112669e-03 1.32042253e-02
      2.64084502e-03 3.52112669e-03 4.40140814e-03 2.20070425e-02
      1.05633801e-02 1.76056335e-03 3.52112669e-03 8.80281674e-04
      5.28169004e-03 6.16197195e-03 7.04225339e-03 7.92253483e-03
      1.76056335e-03 5.28169004e-03 0. 8.80281674e-04 6.16197195e-03
      5.28169004e-03 2.64084502e-03 1.76056335e-03 1.49647882e-02 0.
      7.92253483e-03 4.40140814e-03 8.80281627e-03 8.80281674e-04
      3.52112669e-03 4.40140814e-03 3.52112669e-03 9.68309864e-03
      2.37676054e-02 5.28169004e-03 3.52112669e-03 8.80281674e-04
      4.40140814e-03 1.49647882e-02 4.40140814e-03 4.40140814e-03
      1.76056335e-03 2.64084502e-03 8.80281674e-04 3.52112669e-03
      1.76056325e-02 2.64084502e-03 2.64084502e-03 1.76056335e-03
      2.64084502e-03 1.76056335e-03 7.04225339e-03 8.80281674e-04
      6.16197195e-03 4.40140814e-03 6.16197195e-03 3.52112669e-03
      2.64084502e-03 0. 0. 6.16197195e-03 8.80281627e-03 3.52112669e-03
      3.52112669e-03 2.64084502e-03 3.52112669e-03 6.16197195e-03
      4.40140814e-03 1.49647882e-02 8.80281674e-04 3.08098588e-02
      1.76056335e-03 9.68309864e-03 1.58450697e-02 9.68309864e-03
      1.76056335e-03 8.80281674e-04 3.52112669e-03 1.14436615e-02
      3.52112669e-03 5.28169004e-03 1.76056335e-03 8.80281674e-04 0.
      3.52112669e-03 4.40140814e-03 7.04225339e-03 2.46478878e-02
      1.76056335e-03 0. 4.40140814e-03 2.64084502e-03 6.16197195e-03
      2.64084502e-03 5.28169004e-03 3.52112669e-03 5.28169004e-03
      3.52112669e-03 3.52112669e-03 3.52112669e-03 2.64084502e-03
      3.52112669e-03 8.80281674e-04 0. 3.52112669e-03 3.52112669e-03
      3.52112669e-03 0. 1.05633801e-02 0. 1.76056335e-03 1.40845068e-02
      2.37676054e-02 3.52112669e-03 4.40140814e-03 3.52112669e-03
      2.64084502e-03 2.64084502e-03 2.64084502e-03 2.64084502e-03
      3.52112669e-03 4.40140814e-03 1.05633801e-02 5.28169004e-03
      1.14436615e-02 3.52112669e-03 5.28169004e-03 2.64084502e-03
      6.16197195e-03 1.76056335e-03 8.80281674e-04 1.76056335e-03
      2.64084502e-03 1.32042253e-02 7.92253483e-03 1.93661973e-02
      8.80281627e-03 1.76056335e-03 7.04225339e-03 1.76056335e-03
      8.80281674e-04 5.28169004e-03 8.80281674e-04 3.52112669e-03
      1.76056335e-03 5.28169004e-03 3.52112669e-03 3.52112669e-03
      3.52112669e-03</_>
    <_>
      1.51668349e-03 1.01112237e-03 4.55005048e-03 1.26390299e-02
      1.51668349e-03 1.01112237e-03 1.06167849e-02 1.01112237e-03
      4.55005048e-03 5.56117296e-03 4.55005048e-03 9.10010096e-03
      5.56117296e-03 4.04448947e-03 5.56117296e-03 4.04448947e-03
      1.01112237e-03 2.02224473e-03 4.04448947e-03 4.55005048e-03
      2.52780598e-03 2.52780598e-03 5.05561184e-04 3.03336699e-03
      1.51668349e-03 5.05561184e-04 2.02224473e-03 8.08897894e-03
      4.55005048e-03 2.52780598e-03 2.02224473e-03 6.57229545e-03
      3.03336699e-03 1.26390299e-02 0. 2.52780598e-03 3.84226516e-02
      2.02224473e-03 5.56117296e-03 2.52780598e-03 1.51668349e-03
      5.05561195e-03 2.02224473e-03 2.52780598e-03 1.51668349e-03
      6.57229545e-03 0. 3.53892823e-03 1.01112237e-03 5.56117296e-03
      3.53892823e-03 1.51668349e-03 1.51668349e-03 1.11223459e-02
      1.01112237e-03 1.51668349e-03 3.53892823e-03 2.57836208e-02
      7.58341793e-03 2.02224473e-03 7.07785645e-03 1.01112237e-03
      8.08897894e-03 9.10010096e-03 7.07785645e-03 5.05561195e-03
      5.05561195e-03 4.55005048e-03 5.05561184e-04 1.01112237e-03
      5.05561195e-03 4.55005048e-03 1.01112237e-03 0. 2.52780598e-03
      3.03336699e-03 5.05561195e-03 1.01112237e-03 6.57229545e-03
      5.05561184e-04 3.03336699e-03 2.52780598e-03 4.04448947e-03
      9.60566290e-03 3.74115258e-02 3.03336699e-03 6.57229545e-03
      3.53892823e-03 2.52780598e-03 8.59453995e-03 3.03336699e-03
      5.05561184e-04 5.05561195e-03 1.51668349e-03 3.03336699e-03
      2.52780598e-03 9.60566290e-03 5.05561184e-04 9.10010096e-03
      1.01112237e-03 1.06167849e-02 4.04448947e-03 2.52780598e-03
      2.02224473e-03 2.52780598e-03 4.04448947e-03 7.58341793e-03
      1.01112237e-03 1.01112237e-03 1.51668349e-03 2.02224473e-03
      1.06167849e-02 2.22446918e-02 5.05561195e-03 3.03336699e-03
      1.01112237e-03 6.57229545e-03 2.52780598e-03 1.01112237e-03
      6.06673397e-03 1.01112237e-03 3.03336699e-03 5.05561184e-04
      2.02224473e-03 1.01112239e-02 2.52780598e-02 0. 1.01112237e-03
      1.46612739e-02 1.16279069e-02 5.05561184e-04 2.02224473e-03
      3.53892823e-03 2.52780598e-03 2.02224473e-03 1.11223459e-02
      1.06167849e-02 6.57229545e-03 1.97168868e-02 1.01112237e-03
      5.05561184e-04 5.05561195e-03 1.51668349e-03 2.52780598e-03
      5.05561195e-03 4.55005048e-03 2.02224473e-03 1.51668349e-03
      1.01112237e-03 3.03336699e-03 4.04448947e-03 1.51668349e-03
      2.02224473e-03 1.51668349e-03 1.01112237e-03 1.06167849e-02
      9.60566290e-03 2.52780598e-03 0. 1.61779579e-02 3.03336699e-03 0.
      2.83114258e-02 4.04448956e-02 3.03336699e-03 3.03336699e-03
      3.03336699e-03 3.53892823e-03 4.55005048e-03 8.08897894e-03
      3.03336699e-03 1.51668349e-03 3.03336699e-03 1.41557129e-02
      2.52780598e-03 3.53892823e-03 4.55005048e-03 2.52780598e-03
      3.53892823e-03 1.01112237e-03 2.02224473e-03 5.05561184e-04 0.
      8.08897894e-03 9.60566290e-03 1.51668349e-03 1.06167849e-02
      5.56117296e-03 1.51668349e-03 2.02224473e-03 0. 2.02224473e-03
      5.05561195e-03 1.51668349e-03 2.02224473e-03 4.55005048e-03
      7.58341793e-03 1.51668349e-03 2.52780598e-03 1.87057629e-02</_>
    <_>
      2.20669364e-03 7.35564565e-04 6.62008114e-03 1.14012510e-02
      6.62008114e-03 7.35564565e-04 3.45715359e-02 2.94225826e-03
      1.72857679e-02 2.57447595e-03 1.76535491e-02 3.31004057e-03
      3.31004057e-03 4.41338727e-03 9.93012171e-03 8.09121039e-03
      2.20669364e-03 3.67782288e-03 6.25229860e-03 5.14895190e-03
      4.04560519e-03 2.57447595e-03 4.41338727e-03 3.67782282e-04
      1.10334682e-03 1.47112913e-03 2.94225826e-03 1.14012510e-02
      6.25229860e-03 2.57447595e-03 5.51673444e-03 1.47112913e-03
      5.88451652e-03 1.28723802e-02 6.62008114e-03 2.20669364e-03
      3.67782288e-03 3.31004057e-03 1.06656859e-02 7.72342784e-03
      9.19455662e-03 3.31004057e-03 2.57447595e-03 1.10334682e-03
      1.83891144e-03 1.10334682e-03 1.83891144e-03 7.35564565e-04
      1.83891144e-03 2.20669364e-03 4.04560519e-03 1.10334682e-03
      9.93012171e-03 1.14012510e-02 1.14012510e-02 1.83891144e-03
      9.19455662e-03 1.02979038e-02 9.19455662e-03 7.72342784e-03
      1.47112915e-02 1.10334682e-03 1.47112913e-03 1.10334682e-03
      9.56233963e-03 5.14895190e-03 3.67782288e-03 3.31004057e-03
      1.10334682e-03 1.10334682e-03 0. 3.67782282e-04 7.35564565e-04
      5.14895190e-03 5.03861718e-02 2.20669364e-03 2.57447595e-03
      1.83891144e-03 1.83891144e-03 4.04560519e-03 2.94225826e-03
      1.10334682e-03 5.88451652e-03 3.67782288e-03 1.83891144e-03
      4.04560519e-03 9.56233963e-03 1.17690330e-02 2.20669364e-03
      6.25229860e-03 1.47112913e-03 1.47112913e-03 1.47112913e-03
      2.94225826e-03 1.10334682e-03 1.10334682e-03 3.78815755e-02
      1.10334682e-03 1.47112913e-03 4.04560519e-03 1.47112913e-03
      1.83891144e-03 2.94225826e-03 2.57447595e-03 1.83891144e-03
      6.25229860e-03 2.20669364e-03 1.83891144e-03 5.51673444e-03
      5.14895190e-03 1.10334682e-03 5.14895190e-03 1.10334682e-03
      2.42736302e-02 4.78116982e-03 5.88451652e-03 2.20669364e-03
      6.25229860e-03 1.47112913e-03 8.82677455e-03 2.57447595e-03
      3.31004057e-03 2.94225826e-03 1.47112913e-03 9.56233963e-03
      9.19455662e-03 3.67782282e-04 3.67782282e-04 2.20669364e-03
      8.45899247e-03 2.57447595e-03 7.72342784e-03 1.10334682e-03
      1.10334682e-03 2.20669364e-03 2.94225826e-03 4.78116982e-03
      1.83891144e-03 5.88451661e-02 1.10334682e-03 1.83891144e-03
      7.35564565e-04 4.04560519e-03 5.51673444e-03 3.67782282e-04
      3.31004057e-03 5.14895190e-03 1.83891144e-03 1.47112913e-03
      2.20669364e-03 2.94225826e-03 1.47112913e-03 7.35564565e-04
      1.10334682e-03 2.20669364e-03 2.94225826e-03 9.19455662e-03
      1.10334682e-03 0. 5.88451652e-03 2.94225826e-03 1.10334682e-03
      4.04560519e-03 2.20669364e-03 2.57447595e-03 2.24347189e-02
      7.35564565e-04 5.14895190e-03 2.57447595e-03 1.47112913e-03
      3.31004057e-03 2.20669364e-03 3.31004057e-03 4.41338727e-03
      2.57447595e-03 2.20669364e-03 3.31004057e-03 5.51673444e-03
      3.67782288e-03 2.94225826e-03 5.51673444e-03 2.94225826e-03
      4.04560519e-03 8.09121039e-03 7.35564565e-04 9.93012171e-03
      5.88451652e-03 8.82677455e-03 4.04560519e-03 3.31004057e-03
      3.67782288e-03 3.67782282e-04 1.10334682e-03 6.62008114e-03
      4.78116982e-03 7.35564565e-04 3.67782288e-03 1.83891144e-03
      6.62008114e-03 3.67782288e-03</_>
    <_>
      1.52207003e-03 3.04414006e-03 1.52207003e-03 1.06544904e-02
      4.56621032e-03 1.52207003e-03 1.06544904e-02 0. 1.97869111e-02
      7.61034992e-03 1.21765602e-02 6.08828012e-03 3.04414006e-03 0.
      1.36986300e-02 1.52207003e-03 3.04414006e-03 0. 1.06544904e-02
      4.56621032e-03 0. 3.04414006e-03 0. 1.52207003e-03 4.56621032e-03
      1.52207003e-03 3.04414006e-03 1.52206998e-02 1.52207003e-03
      4.56621032e-03 1.52207003e-03 6.08828012e-03 1.52207003e-03
      1.06544904e-02 0. 3.04414006e-03 1.97869111e-02 6.08828012e-03
      1.52207003e-03 3.04414006e-03 1.52206998e-02 9.13242064e-03 0.
      7.61034992e-03 3.04414006e-03 6.08828012e-03 0. 9.13242064e-03
      7.61034992e-03 3.04414006e-03 0. 3.04414006e-03 0. 9.13242064e-03
      3.04414006e-03 1.52207003e-03 3.04414006e-03 2.89193299e-02 0.
      1.52207003e-03 4.56621032e-03 0. 1.52207003e-03 0. 1.52207003e-03
      7.61034992e-03 4.56621032e-03 4.56621032e-03 0. 0. 3.04414006e-03
      0. 3.04414006e-03 9.13242064e-03 9.13242064e-03 1.52207003e-03
      7.61034992e-03 6.08828012e-03 1.52207003e-03 0. 1.52207003e-03
      6.08828012e-03 1.52207003e-03 6.08828012e-03 1.97869111e-02
      3.04414006e-03 7.61034992e-03 6.08828012e-03 3.04414006e-03
      4.56621032e-03 1.52207003e-03 0. 7.61034992e-03 0. 3.04414006e-03
      1.52207003e-03 1.52206998e-02 0. 6.08828012e-03 0. 1.52206998e-02
      6.08828012e-03 0. 1.52207003e-03 0. 7.61034992e-03 3.04414006e-03
      4.56621032e-03 0. 1.52207003e-03 0. 6.08828012e-03 1.82648413e-02
      7.61034992e-03 3.04414006e-03 4.56621032e-03 2.58751903e-02
      3.04414006e-03 0. 1.67427696e-02 1.52207003e-03 0. 0.
      1.97869111e-02 1.06544904e-02 1.52207003e-03 0. 1.52207003e-03
      1.52207003e-03 1.36986300e-02 3.04414006e-03 1.52207003e-03
      9.13242064e-03 1.06544904e-02 1.52207003e-03 6.08828012e-03
      3.04414006e-03 9.13242064e-03 1.97869111e-02 1.52207003e-03
      1.52207003e-03 1.97869111e-02 0. 7.61034992e-03 0. 4.56621032e-03
      0. 1.52207003e-03 1.52207003e-03 3.04414006e-03 0. 3.04414006e-03
      6.08828012e-03 3.04414006e-03 0. 3.04414006e-03 6.08828012e-03
      1.52207003e-03 0. 9.13242064e-03 4.56621032e-03 4.56621032e-03
      1.97869111e-02 1.36986300e-02 4.56621032e-03 7.61034992e-03
      7.61034992e-03 3.04414006e-03 0. 7.61034992e-03 3.04414006e-03
      6.08828012e-03 6.08828012e-03 4.56621032e-03 6.08828012e-03
      1.67427696e-02 1.52207003e-03 6.08828012e-03 9.13242064e-03
      1.52207003e-03 0. 0. 0. 1.67427696e-02 1.52206998e-02
      3.04414006e-03 1.21765602e-02 4.56621032e-03 0. 1.52207003e-03
      1.52207003e-03 0. 1.52207003e-03 1.52207003e-03 1.52207003e-03
      3.04414006e-03 1.06544904e-02 1.52207003e-03 3.04414006e-03
      1.52207003e-03</_>
    <_>
      5.81395347e-03 1.45348837e-03 2.90697673e-03 1.01744188e-02 0.
      1.45348837e-03 5.81395347e-03 1.45348837e-03 7.26744160e-03
      1.01744188e-02 0. 2.90697673e-03 1.45348837e-03 1.45348837e-03
      8.72093067e-03 1.45348837e-03 2.90697673e-03 1.45348837e-03
      1.01744188e-02 1.45348837e-03 1.45348837e-03 1.45348837e-03
      1.45348837e-03 1.88953485e-02 2.90697673e-03 0. 1.45348837e-03
      5.81395347e-03 1.45348837e-03 8.72093067e-03 2.90697673e-03
      4.36046533e-03 1.01744188e-02 2.18023248e-02 1.45348837e-03
      4.36046533e-03 1.59883723e-02 2.90697673e-03 4.36046533e-03
      1.45348837e-03 8.72093067e-03 1.01744188e-02 8.72093067e-03
      1.45348837e-03 2.90697673e-03 4.36046533e-03 0. 5.81395347e-03 0.
      1.45348837e-03 4.36046533e-03 0. 0. 8.72093067e-03 1.45348837e-03
      4.36046533e-03 4.36046533e-03 4.36046533e-03 1.45348832e-02
      2.90697673e-03 1.16279069e-02 4.36046533e-03 4.36046533e-03
      2.90697673e-03 1.45348837e-03 8.72093067e-03 1.45348837e-03
      1.16279069e-02 0. 1.45348837e-03 1.45348837e-03 4.36046533e-03
      1.45348837e-03 4.36046533e-03 0. 1.45348837e-03 7.26744160e-03
      4.36046533e-03 7.26744160e-03 0. 5.81395347e-03 4.36046533e-03 0.
      5.81395347e-03 1.45348837e-03 2.90697673e-03 2.90697673e-03
      2.90697673e-03 2.90697673e-03 1.16279069e-02 0. 4.36046533e-03
      5.81395347e-03 2.90697673e-03 2.90697673e-03 4.36046533e-03
      8.72093067e-03 4.36046533e-03 8.72093067e-03 2.90697673e-03
      4.36046533e-03 2.90697673e-03 8.72093067e-03 1.45348837e-03
      4.36046533e-03 5.81395347e-03 2.90697673e-03 2.90697673e-03
      8.72093067e-03 2.90697673e-03 2.90697673e-03 2.90697673e-03
      1.45348837e-03 5.81395347e-03 2.90697673e-03 0. 4.36046533e-03
      5.81395347e-03 2.90697673e-03 8.72093067e-03 0. 0. 7.26744160e-03
      7.26744160e-03 4.36046533e-03 3.05232555e-02 2.90697673e-03
      5.81395347e-03 1.01744188e-02 1.88953485e-02 4.36046533e-03
      1.45348837e-03 1.45348837e-03 1.01744188e-02 4.36046533e-03
      7.26744160e-03 1.16279069e-02 7.26744160e-03 7.26744160e-03
      1.45348837e-03 2.90697673e-03 4.36046533e-03 5.81395347e-03
      4.36046533e-03 4.36046533e-03 5.81395347e-03 2.90697673e-03
      5.81395347e-03 8.72093067e-03 1.30813951e-02 1.45348837e-03
      1.45348837e-03 2.90697673e-03 5.81395347e-03 7.26744160e-03
      2.90697673e-03 7.26744160e-03 5.81395347e-03 0. 7.26744160e-03
      4.36046533e-03 8.72093067e-03 1.30813951e-02 2.47093029e-02
      2.90697673e-03 0. 8.72093067e-03 2.90697673e-03 1.45348837e-03
      4.36046533e-03 1.45348837e-03 2.90697673e-03 5.81395347e-03
      1.01744188e-02 7.26744160e-03 8.72093067e-03 4.36046533e-03
      2.90697673e-03 5.81395347e-03 5.81395347e-03 2.90697673e-03
      1.45348837e-03 0. 1.30813951e-02 1.16279069e-02 2.90697673e-03
      7.26744160e-03 1.45348837e-03 2.90697673e-03 8.72093067e-03
      4.36046533e-03 5.81395347e-03 5.81395347e-03 1.45348837e-03
      4.36046533e-03 2.90697673e-03 8.72093067e-03 7.26744160e-03
      4.36046533e-03 2.90697673e-03</_>
    <_>
      1.02986617e-03 5.14933094e-03 3.08959838e-03 9.26879514e-03
      4.11946466e-03 3.08959838e-03 1.13285277e-02 0. 5.14933094e-03
      1.64778586e-02 6.17919676e-03 1.23583935e-02 3.08959838e-03
      3.08959838e-03 1.23583935e-02 3.08959838e-03 5.14933094e-03
      2.05973233e-03 7.20906304e-03 0. 1.02986617e-03 4.11946466e-03
      1.02986617e-03 3.08959838e-03 5.14933094e-03 1.02986617e-03
      2.05973233e-03 1.02986619e-02 8.23892932e-03 6.17919676e-03
      5.14933094e-03 4.11946466e-03 9.26879514e-03 1.33882603e-02 0.
      5.14933094e-03 2.47167870e-02 4.11946466e-03 2.05973233e-03
      2.05973233e-03 1.23583935e-02 6.17919676e-03 3.08959838e-03
      4.11946466e-03 1.02986617e-03 5.14933094e-03 0. 1.13285277e-02 0.
      3.08959838e-03 0. 4.11946466e-03 1.02986617e-03 1.13285277e-02
      4.11946466e-03 8.23892932e-03 3.08959838e-03 1.95674580e-02
      9.26879514e-03 2.05973233e-03 4.11946466e-03 2.05973233e-03
      2.05973233e-03 1.02986617e-03 1.02986617e-03 7.20906304e-03
      2.05973233e-03 1.02986619e-02 1.02986617e-03 1.02986617e-03
      4.11946466e-03 3.08959838e-03 2.05973233e-03 7.20906304e-03
      6.17919676e-03 2.05973233e-03 7.20906304e-03 7.20906304e-03
      8.23892932e-03 3.08959838e-03 5.14933094e-03 1.02986619e-02
      3.08959838e-03 3.08959838e-03 1.13285277e-02 3.08959838e-03
      5.14933094e-03 6.17919676e-03 6.17919676e-03 9.26879514e-03
      1.02986617e-03 2.05973233e-03 6.17919676e-03 3.08959838e-03
      8.23892932e-03 1.02986617e-03 1.13285277e-02 1.02986617e-03
      8.23892932e-03 4.11946466e-03 9.26879514e-03 4.11946466e-03 0.
      2.05973233e-03 1.02986617e-03 3.08959838e-03 5.14933094e-03
      4.11946466e-03 2.05973233e-03 2.05973233e-03 1.02986617e-03
      9.26879514e-03 1.75077245e-02 5.14933094e-03 4.11946466e-03
      3.08959838e-03 1.75077245e-02 1.02986619e-02 2.05973233e-03
      7.20906304e-03 1.02986617e-03 1.02986617e-03 4.11946466e-03
      6.17919676e-03 6.17919676e-03 8.23892932e-03 4.11946466e-03
      3.08959838e-03 3.08959838e-03 1.13285277e-02 3.08959838e-03 0.
      5.14933094e-03 8.23892932e-03 4.11946466e-03 4.11946466e-03
      7.20906304e-03 6.17919676e-03 1.33882603e-02 1.02986617e-03
      1.02986617e-03 7.20906304e-03 3.08959838e-03 2.05973233e-03
      2.05973233e-03 7.20906304e-03 7.20906304e-03 3.08959838e-03
      1.02986617e-03 8.23892932e-03 1.02986617e-03 2.05973233e-03
      6.17919676e-03 2.05973233e-03 2.05973233e-03 3.08959838e-03
      2.05973233e-03 1.02986617e-03 0. 8.23892932e-03 4.11946466e-03
      2.05973233e-03 1.44181261e-02 1.85375903e-02 3.08959838e-03
      3.08959838e-03 1.02986619e-02 5.14933094e-03 2.05973233e-03
      7.20906304e-03 4.11946466e-03 5.14933094e-03 3.08959838e-03
      4.11946466e-03 8.23892932e-03 8.23892932e-03 3.08959838e-03
      2.05973233e-03 2.05973233e-03 1.02986617e-03 0. 1.02986617e-03 0.
      1.02986619e-02 9.26879514e-03 3.08959838e-03 1.33882603e-02
      1.02986617e-03 1.02986617e-03 1.02986617e-03 2.05973233e-03 0.
      1.02986619e-02 0. 1.02986617e-03 4.11946466e-03 8.23892932e-03
      3.08959838e-03 5.14933094e-03 7.20906304e-03</_>
    <_>
      0. 8.94454401e-03 0. 5.36672631e-03 0. 0. 7.15563493e-03 0.
      8.94454401e-03 7.15563493e-03 7.15563493e-03 5.36672631e-03
      3.57781746e-03 1.78890873e-03 2.68336311e-02 0. 7.15563493e-03
      3.57781746e-03 1.25223612e-02 1.78890873e-03 0. 1.78890873e-03 0.
      3.57781746e-03 1.78890873e-03 0. 5.36672631e-03 1.25223612e-02
      1.78890873e-03 1.78890873e-03 3.57781746e-03 1.78890873e-03
      7.15563493e-03 2.50447225e-02 0. 5.36672631e-03 5.36672631e-03 0.
      5.36672631e-03 0. 1.07334526e-02 2.32558139e-02 5.36672631e-03 0.
      1.78890873e-03 3.57781746e-03 1.78890873e-03 3.57781746e-03
      1.78890873e-03 1.78890873e-03 1.78890873e-03 1.78890873e-03 0.
      3.57781746e-03 0. 3.57781746e-03 8.94454401e-03 7.15563493e-03
      1.78890873e-03 0. 1.78890873e-03 1.78890873e-03 0. 0.
      3.57781746e-03 8.94454401e-03 1.07334526e-02 5.36672631e-03 0. 0.
      0. 0. 5.36672631e-03 8.94454401e-03 3.57781746e-03 1.78890873e-03
      8.94454401e-03 1.78890873e-03 1.25223612e-02 0. 0. 8.94454401e-03
      0. 8.94454401e-03 3.57781746e-03 1.78890873e-03 1.61001794e-02 0.
      1.78890873e-03 8.94454401e-03 1.78890873e-03 1.78890873e-03
      8.94454401e-03 1.78890873e-03 1.78890873e-03 1.78890873e-03
      1.61001794e-02 0. 5.36672631e-03 0. 1.07334526e-02 1.78890873e-03
      1.78890873e-03 0. 3.57781746e-03 7.15563493e-03 3.57781746e-03
      5.36672631e-03 0. 0. 1.78890873e-03 8.94454401e-03 8.05008933e-02
      3.57781746e-03 0. 7.15563493e-03 1.61001794e-02 5.36672631e-03
      1.78890873e-03 1.61001794e-02 0. 0. 0. 1.61001794e-02
      5.36672631e-03 1.78890880e-02 1.78890873e-03 1.78890873e-03
      3.57781746e-03 1.07334526e-02 0. 0. 7.15563493e-03 8.94454401e-03
      0. 1.07334526e-02 1.78890873e-03 0. 1.61001794e-02 3.57781746e-03
      0. 1.43112699e-02 1.78890873e-03 3.57781746e-03 1.78890873e-03
      1.78890873e-03 0. 1.78890873e-03 5.36672631e-03 1.96779966e-02 0.
      0. 3.57781746e-03 3.57781746e-03 0. 1.78890873e-03 1.78890873e-03
      1.78890873e-03 0. 3.57781746e-03 7.15563493e-03 3.57781746e-03
      1.07334526e-02 7.15563493e-03 3.57781746e-03 0. 1.25223612e-02 0.
      1.78890873e-03 1.43112699e-02 0. 0. 0. 5.36672631e-03
      1.07334526e-02 1.61001794e-02 0. 3.57781746e-03 1.07334526e-02
      5.36672631e-03 0. 0. 0. 1.78890880e-02 1.25223612e-02
      1.78890873e-03 1.43112699e-02 3.57781746e-03 0. 1.78890873e-03
      1.78890873e-03 1.61001794e-02 0. 1.78890873e-03 8.94454401e-03 0.
      1.61001794e-02 3.57781746e-03 0. 3.57781746e-03</_>
    <_>
      5.10692643e-03 1.59591448e-03 6.38365792e-03 5.10692643e-03
      2.55346322e-03 3.83019494e-03 2.55346322e-03 3.19182902e-04
      1.27673161e-03 1.05330357e-02 1.91509747e-03 4.78774356e-03
      5.10692643e-03 3.83019494e-03 1.14905844e-02 4.14937781e-03
      5.10692643e-03 1.27673161e-03 1.40440473e-02 5.42610930e-03
      1.59591448e-03 1.91509747e-03 3.19182902e-04 7.34120654e-03
      4.46856068e-03 1.27673161e-03 3.83019494e-03 1.56399626e-02
      7.34120654e-03 3.19182896e-03 1.59591448e-03 2.55346322e-03
      1.69166941e-02 3.19182896e-03 6.38365804e-04 1.59591448e-03
      4.14937781e-03 2.87264609e-03 5.42610930e-03 6.38365804e-04
      1.43632302e-02 7.34120654e-03 7.66038988e-03 8.93712137e-03
      8.61793850e-03 4.14937781e-03 9.57548735e-04 6.70284079e-03
      3.83019494e-03 3.83019494e-03 1.59591448e-03 2.55346322e-03
      1.27673161e-03 7.66038988e-03 9.57548735e-04 1.59591448e-03
      3.83019494e-03 1.21289501e-02 1.43632302e-02 3.19182902e-04
      7.34120654e-03 3.19182896e-03 3.19182896e-03 6.38365792e-03
      7.66038988e-03 1.05330357e-02 2.23428034e-03 7.66038988e-03
      6.38365804e-04 1.27673161e-03 3.51101183e-03 3.19182896e-03
      4.78774356e-03 1.05330357e-02 6.38365804e-04 2.87264609e-03
      1.56399626e-02 3.19182896e-03 9.57548711e-03 3.19182902e-04
      7.66038988e-03 2.87264609e-03 4.14937781e-03 1.40440473e-02
      2.55346322e-03 8.29875562e-03 7.34120654e-03 4.14937781e-03
      5.42610930e-03 6.38365792e-03 6.70284079e-03 4.14937781e-03
      3.83019494e-03 1.02138529e-02 1.14905844e-02 5.42610930e-03
      1.50015960e-02 1.59591448e-03 3.51101183e-03 2.87264609e-03
      1.59591448e-03 1.59591448e-03 2.87264609e-03 1.91509747e-03
      1.59591448e-03 7.66038988e-03 4.78774356e-03 4.14937781e-03
      4.14937781e-03 1.91509747e-03 2.87264609e-03 1.50015960e-02
      2.87264609e-03 1.27673161e-03 1.59591448e-03 2.87264609e-03
      1.27673161e-03 5.10692643e-03 3.83019494e-03 1.50015960e-02
      3.19182896e-03 1.59591448e-03 3.19182896e-03 3.12799253e-02
      5.74529218e-03 3.51101183e-03 4.46856068e-03 3.19182896e-03
      2.23428034e-03 8.61793850e-03 5.10692643e-03 1.59591448e-03
      5.42610930e-03 5.10692643e-03 2.55346322e-03 3.83019494e-03
      1.91509747e-03 1.75550599e-02 1.18097672e-02 2.87264609e-03
      1.59591448e-03 3.83019494e-03 0. 8.61793850e-03 6.06447505e-03
      7.66038988e-03 5.42610930e-03 1.91509747e-03 8.61793850e-03
      6.70284079e-03 2.23428034e-03 5.10692643e-03 2.87264609e-03
      9.89466999e-03 1.59591448e-03 6.38365804e-04 4.78774356e-03
      4.46856068e-03 3.19182902e-04 3.83019494e-03 2.87264609e-03
      6.70284079e-03 3.83019494e-03 5.42610930e-03 7.34120654e-03
      6.38365804e-04 7.02202367e-03 3.83019494e-03 0. 9.89466999e-03
      2.87264609e-03 6.06447505e-03 5.74529218e-03 2.87264609e-03
      3.19182896e-03 4.14937781e-03 9.57548735e-04 4.14937781e-03
      7.02202367e-03 4.14937781e-03 5.42610930e-03 2.23428034e-03 0.
      7.34120654e-03 6.06447505e-03 4.78774356e-03 1.11714015e-02
      7.02202367e-03 4.78774356e-03 9.25630424e-03 4.14937781e-03
      4.14937781e-03 2.87264609e-03 1.27673161e-03 3.19182896e-03
      3.51101183e-03 2.55346322e-03 3.51101183e-03 2.23428034e-03
      3.19182896e-03</_>
    <_>
      5.82241639e-03 0. 1.16448328e-02 5.82241639e-03 7.27802049e-03
      5.82241639e-03 1.16448328e-02 4.36681230e-03 1.16448328e-02
      1.01892287e-02 4.36681230e-03 2.91120820e-03 5.82241639e-03
      2.91120820e-03 5.82241639e-03 2.91120820e-03 1.45560410e-03
      7.27802049e-03 4.36681230e-03 8.73362459e-03 8.73362459e-03
      1.45560410e-03 2.91120820e-03 0. 2.91120820e-03 0. 1.45560410e-03
      1.01892287e-02 1.45560410e-03 4.36681230e-03 2.91120820e-03
      2.91120820e-03 7.27802049e-03 2.91120820e-03 0. 5.82241639e-03
      5.82241639e-03 1.45560410e-03 8.73362459e-03 5.82241639e-03
      1.45560410e-03 1.45560410e-03 5.82241639e-03 2.91120820e-03
      1.45560410e-03 7.27802049e-03 0. 1.45560410e-03 0. 0.
      4.36681230e-03 0. 1.31004369e-02 1.60116442e-02 1.45560410e-02
      4.36681230e-03 7.27802049e-03 0. 5.82241639e-03 5.82241639e-03
      7.27802049e-03 5.82241639e-03 4.36681230e-03 5.82241639e-03
      8.73362459e-03 7.27802049e-03 0. 1.16448328e-02 2.91120820e-03 0.
      0. 4.36681230e-03 1.45560410e-03 0. 5.82241639e-03 1.45560410e-03
      5.82241639e-03 2.91120820e-03 4.36681230e-03 0. 1.45560410e-03
      7.27802049e-03 1.45560410e-02 5.82241639e-03 5.82241639e-03
      5.82241639e-03 2.91120820e-03 7.27802049e-03 2.91120820e-03
      1.01892287e-02 1.45560410e-03 2.91120820e-03 0. 1.45560410e-03 0.
      0. 3.05676870e-02 0. 5.82241639e-03 1.45560410e-03 1.31004369e-02
      4.36681230e-03 4.36681230e-03 2.91120820e-03 2.91120820e-03 0.
      2.91120820e-03 0. 4.36681230e-03 1.01892287e-02 4.36681230e-03
      2.18340605e-02 2.03784574e-02 1.16448328e-02 5.82241639e-03
      1.45560410e-03 1.60116442e-02 1.45560410e-03 2.91120820e-03
      7.27802049e-03 2.91120820e-03 2.91120820e-03 7.27802049e-03 0.
      1.16448328e-02 8.73362459e-03 0. 2.91120820e-03 4.36681230e-03
      1.45560410e-03 4.36681230e-03 1.16448328e-02 1.45560410e-03 0.
      1.45560410e-03 4.36681230e-03 1.01892287e-02 2.91120820e-03
      3.05676870e-02 1.45560410e-03 5.82241639e-03 4.36681230e-03
      1.01892287e-02 1.45560410e-03 1.45560410e-03 5.82241639e-03
      1.45560410e-03 7.27802049e-03 2.91120820e-03 0. 5.82241639e-03
      5.82241639e-03 2.91120820e-03 0. 2.47452706e-02 8.73362459e-03
      1.01892287e-02 2.91120820e-03 0. 5.82241639e-03 1.45560410e-03 0.
      0. 4.36681230e-03 4.36681230e-03 1.16448328e-02 4.36681230e-03
      1.45560410e-03 0. 7.27802049e-03 8.73362459e-03 1.45560410e-03
      7.27802049e-03 1.31004369e-02 2.91120820e-03 1.45560410e-03 0.
      2.91120820e-03 2.91120820e-03 2.91120820e-03 1.16448328e-02
      5.82241639e-03 4.36681230e-03 4.36681230e-03 4.36681230e-03
      4.36681230e-03 4.36681230e-03 5.82241639e-03 2.91120820e-03
      7.27802049e-03 1.45560410e-03 1.45560410e-03 2.91120820e-03
      4.36681230e-03 2.91120820e-03 2.91120820e-03 0. 2.91120820e-03
      5.82241639e-03 5.82241639e-03</_>
    <_>
      3.22580663e-03 0. 6.45161327e-03 2.12903228e-02 0. 1.29032263e-03
      1.67741943e-02 6.45161315e-04 7.09677441e-03 6.45161315e-04
      6.45161327e-03 7.09677441e-03 1.93548389e-03 3.22580663e-03
      8.38709716e-03 3.22580663e-03 3.22580663e-03 2.58064526e-03
      8.38709716e-03 2.58064526e-03 1.93548389e-03 3.87096778e-03
      1.93548389e-03 3.03225815e-02 6.45161315e-04 6.45161315e-04
      1.29032263e-03 7.09677441e-03 2.58064526e-03 3.87096778e-03
      7.09677441e-03 3.87096778e-03 1.93548389e-03 1.24516137e-01 0.
      3.87096778e-03 7.09677441e-03 5.80645166e-03 5.16129052e-03
      6.45161315e-04 9.03225876e-03 1.93548389e-03 3.22580663e-03
      1.29032263e-03 1.93548389e-03 5.80645166e-03 6.45161315e-04
      3.22580663e-03 0. 1.29032263e-03 0. 6.45161315e-04 1.29032263e-03
      8.38709716e-03 1.29032263e-03 2.58064526e-03 4.51612938e-03
      1.61290336e-02 2.96774209e-02 4.51612938e-03 1.41935488e-02 0.
      4.51612938e-03 8.38709716e-03 6.45161327e-03 2.58064526e-03
      3.87096778e-03 7.74193555e-03 6.45161315e-04 6.45161315e-04 0.
      1.93548389e-03 1.93548389e-03 3.87096778e-03 4.58064526e-02
      3.87096778e-03 4.51612938e-03 6.45161315e-04 5.16129052e-03
      6.45161315e-04 5.16129052e-03 1.29032263e-03 3.87096778e-03
      2.58064526e-03 3.22580663e-03 1.29032263e-03 3.87096778e-03
      5.80645166e-03 2.58064526e-03 1.48387104e-02 6.45161327e-03
      6.45161315e-04 0. 5.16129052e-03 1.93548389e-03 1.29032263e-03
      1.48387104e-02 1.29032263e-03 1.03225810e-02 6.45161315e-04
      3.87096778e-03 5.16129052e-03 9.67741944e-03 2.58064526e-03
      9.03225876e-03 6.45161327e-03 1.93548389e-03 2.58064526e-03
      3.22580663e-03 1.93548389e-03 1.93548389e-03 3.22580663e-03
      3.22580663e-03 6.45161315e-04 6.45161315e-04 4.51612938e-03
      6.45161315e-04 3.22580663e-03 2.58064526e-03 5.16129052e-03
      1.93548389e-03 3.22580663e-03 1.29032263e-03 7.74193555e-03
      3.22580663e-03 8.38709716e-03 1.93548389e-03 3.22580663e-03
      1.16129033e-02 6.45161327e-03 6.45161315e-04 2.58064526e-03 0.
      6.45161315e-04 0. 3.87096778e-03 8.38709716e-03 3.87096778e-03
      6.25806451e-02 2.58064526e-03 0. 4.51612938e-03 0. 2.58064526e-03
      7.09677441e-03 5.16129052e-03 1.29032263e-03 1.29032263e-03
      1.29032263e-03 1.29032263e-03 1.93548389e-03 1.29032263e-03
      1.93548389e-03 3.87096778e-03 6.45161315e-04 3.22580663e-03
      1.22580649e-02 1.93548389e-03 0. 1.22580649e-02 2.58064526e-03
      1.29032263e-03 8.38709716e-03 4.51612938e-03 2.58064526e-03 0.
      2.58064526e-03 3.87096778e-03 0. 1.29032263e-03 6.45161315e-04
      6.45161315e-04 3.87096778e-03 5.80645166e-03 2.58064526e-03
      3.87096778e-03 0. 4.51612938e-03 2.58064526e-03 1.29032263e-03
      2.58064526e-03 1.93548389e-03 0. 3.87096778e-03 3.22580663e-03
      6.45161315e-04 8.38709716e-03 4.51612938e-03 1.93548389e-03
      1.93548389e-03 3.87096778e-03 1.93548389e-03 1.93548389e-03
      1.29032263e-03 1.29032263e-03 2.58064526e-03 2.58064526e-03
      6.45161315e-04 6.45161327e-03 4.51612938e-03</_>
    <_>
      3.84245906e-03 0. 6.72430359e-03 7.68491812e-03 2.88184430e-03
      9.60614765e-04 9.60614765e-04 0. 4.80307359e-03 9.60614765e-04
      4.80307359e-03 1.92122953e-03 8.64553265e-03 1.05667626e-02
      1.92122944e-02 2.88184430e-03 3.84245906e-03 1.82516798e-02
      1.72910653e-02 4.80307359e-03 3.84245906e-03 9.60614718e-03
      2.88184430e-03 2.20941398e-02 3.84245906e-03 0. 1.92122953e-03
      5.76368859e-03 2.88184430e-03 9.60614765e-04 1.72910653e-02
      6.72430359e-03 4.80307359e-03 2.40153689e-02 0. 1.44092217e-02
      7.68491812e-03 4.80307359e-03 6.72430359e-03 1.92122953e-03
      1.24879917e-02 1.92122953e-03 1.15273772e-02 4.80307359e-03
      9.60614765e-04 7.68491812e-03 0. 9.60614765e-04 1.92122953e-03
      3.84245906e-03 9.60614765e-04 4.80307359e-03 9.60614765e-04
      1.34486072e-02 0. 2.88184430e-03 9.60614765e-04 6.05187304e-02
      1.44092217e-02 1.15273772e-02 1.34486072e-02 3.84245906e-03
      1.92122953e-03 4.80307359e-03 6.72430359e-03 7.68491812e-03
      2.88184430e-03 2.88184430e-03 9.60614765e-04 1.92122953e-03 0.
      4.80307359e-03 1.92122953e-03 3.84245906e-03 9.60614765e-04
      5.76368859e-03 3.84245906e-03 1.92122953e-03 2.88184430e-03
      9.60614765e-04 6.72430359e-03 1.92122953e-03 7.68491812e-03
      6.72430359e-03 1.92122953e-03 7.68491812e-03 1.92122953e-03
      1.92122953e-03 1.92122953e-03 1.05667626e-02 1.92122953e-03
      9.60614765e-04 9.60614765e-04 9.60614718e-03 9.60614765e-04
      9.60614765e-04 1.82516798e-02 9.60614765e-04 5.76368859e-03 0.
      2.88184430e-03 0. 2.88184430e-03 5.76368859e-03 5.76368859e-03
      5.76368859e-03 4.80307359e-03 2.88184430e-03 9.60614765e-04
      9.60614765e-04 6.72430359e-03 1.05667626e-02 5.76368859e-03
      9.60614765e-04 1.05667626e-02 2.88184430e-03 3.84245906e-03
      1.92122953e-03 2.88184430e-03 3.84245906e-03 0. 4.80307359e-03
      4.80307359e-03 4.80307359e-03 1.92122953e-03 4.80307359e-03
      9.60614765e-04 5.76368859e-03 4.80307359e-03 1.34486072e-02
      9.60614765e-04 2.88184430e-03 5.76368859e-03 3.84245906e-03
      2.88184430e-03 0. 3.84245906e-03 5.76368859e-03 2.01729108e-02
      9.60614765e-04 2.88184430e-03 1.92122953e-03 1.92122953e-03 0.
      4.80307359e-03 8.64553265e-03 1.92122953e-03 0. 3.84245906e-03
      2.88184430e-03 4.80307359e-03 4.80307359e-03 9.60614765e-04
      3.84245906e-03 0. 9.60614765e-04 2.88184430e-03 8.64553265e-03 0.
      1.05667626e-02 2.88184430e-03 0. 1.92122953e-03 7.68491812e-03 0.
      2.88184430e-03 1.92122953e-03 5.76368859e-03 2.88184430e-03
      5.76368859e-03 5.76368859e-03 8.64553265e-03 6.72430359e-03
      5.76368859e-03 1.05667626e-02 5.76368859e-03 6.72430359e-03 0.
      7.68491812e-03 3.84245906e-03 4.80307359e-03 4.80307359e-03 0.
      3.84245906e-03 5.76368859e-03 5.76368859e-03 2.88184430e-03
      5.76368859e-03 1.92122953e-03 2.88184430e-03 4.80307359e-03
      9.60614765e-04 3.84245906e-03 2.88184430e-03 4.80307359e-03
      4.80307359e-03 9.60614765e-04 2.88184430e-03 2.88184430e-03
      1.44092217e-02</_>
    <_>
      0. 3.38983047e-03 0. 2.71186437e-02 0. 0. 6.77966094e-03 0. 0. 0.
      0. 0. 0. 0. 6.77966094e-03 0. 6.77966094e-03 6.77966094e-03
      5.42372875e-02 0. 3.38983047e-03 0. 0. 7.79661015e-02
      3.38983047e-03 0. 0. 1.35593219e-02 6.77966094e-03 1.01694912e-02
      1.01694912e-02 0. 1.01694912e-02 4.74576280e-02 0. 0. 0.
      6.77966094e-03 0. 0. 2.37288140e-02 2.03389823e-02 3.38983047e-03
      0. 3.38983047e-03 2.03389823e-02 0. 3.38983047e-03 0. 0. 0.
      3.38983047e-03 3.38983047e-03 3.38983047e-03 0. 3.38983047e-03
      3.38983047e-03 6.77966094e-03 3.38983047e-03 3.38983047e-03
      2.37288140e-02 0. 0. 1.01694912e-02 0. 0. 3.38983047e-03
      3.38983047e-03 6.77966094e-03 0. 0. 0. 3.38983047e-03
      3.38983047e-03 0. 0. 0. 1.01694912e-02 6.77966094e-03 0. 0. 0.
      3.38983047e-03 6.77966094e-03 0. 0. 1.35593219e-02 0.
      1.01694912e-02 1.69491526e-02 6.77966094e-03 6.77966094e-03 0. 0.
      0. 6.77966094e-03 3.05084735e-02 0. 0. 0. 3.38983047e-03 0.
      2.03389823e-02 6.77966094e-03 1.35593219e-02 0. 6.77966094e-03 0.
      6.77966094e-03 0. 3.38983047e-03 6.77966094e-03 0. 0. 0.
      3.38983047e-03 0. 0. 3.38983047e-03 2.37288140e-02 0. 0. 0.
      2.03389823e-02 0. 3.38983047e-03 3.38983047e-03 1.01694912e-02
      6.77966094e-03 0. 3.38983047e-03 0. 3.38983047e-03 3.38983047e-03
      3.38983051e-02 0. 6.77966094e-03 0. 2.37288140e-02 1.01694912e-02
      0. 0. 0. 0. 2.37288140e-02 0. 3.38983047e-03 3.38983047e-03
      6.77966094e-03 3.38983047e-03 1.01694912e-02 0. 1.01694912e-02 0.
      0. 0. 0. 1.01694912e-02 0. 3.38983047e-03 0. 3.38983047e-03
      3.38983047e-03 0. 3.38983047e-03 0. 0. 3.38983047e-03 0.
      6.77966094e-03 3.38983047e-03 3.38983047e-03 0. 0. 0.
      3.38983047e-03 0. 0. 6.77966094e-03 3.38983047e-03 0.
      1.35593219e-02 0. 1.35593219e-02 0. 0. 6.77966094e-03 0.
      3.38983047e-03 0. 3.38983047e-03 0. 6.77966094e-03 3.38983047e-03
      0. 6.77966094e-03 1.35593219e-02 3.38983047e-03 3.38983047e-03 0.</_>
    <_>
      1.02564099e-03 1.53846154e-03 3.07692308e-03 1.33333327e-02
      1.02564099e-03 3.07692308e-03 1.12820510e-02 0. 1.17948717e-02
      6.66666636e-03 7.69230723e-03 4.10256395e-03 5.12820494e-04
      1.02564099e-03 1.02564096e-02 2.05128198e-03 4.61538462e-03
      1.02564096e-02 7.69230723e-03 5.12820482e-03 5.64102549e-03
      9.74358898e-03 2.05128198e-03 2.51282044e-02 2.56410241e-03
      5.12820494e-04 2.05128198e-03 3.58974352e-03 4.10256395e-03
      3.07692308e-03 5.64102549e-03 5.12820482e-03 4.10256395e-03
      2.87179481e-02 0. 7.69230723e-03 1.02564096e-02 1.53846154e-03
      6.66666636e-03 1.53846154e-03 9.23076924e-03 5.64102549e-03
      5.64102549e-03 2.05128198e-03 2.56410241e-03 2.05128198e-03 0. 0.
      1.02564099e-03 2.05128198e-03 4.61538462e-03 1.02564099e-03
      5.64102549e-03 1.28205121e-02 5.12820494e-04 4.10256395e-03
      1.02564099e-03 3.99999991e-02 3.12820487e-02 4.10256395e-03
      1.07692303e-02 3.07692308e-03 2.56410241e-03 1.12820510e-02
      5.12820494e-04 5.12820482e-03 3.07692308e-03 6.15384616e-03
      5.12820494e-04 5.12820494e-04 0. 2.05128198e-03 1.53846154e-03
      3.58974352e-03 1.07692303e-02 1.53846154e-03 4.61538462e-03
      3.07692308e-03 2.56410241e-03 0. 5.12820482e-03 5.12820482e-03
      1.02564099e-03 1.53846154e-03 3.07692308e-03 3.58974352e-03
      8.71794857e-03 7.69230723e-03 2.05128198e-03 3.58974352e-03
      4.61538462e-03 5.12820494e-04 1.53846154e-03 1.53846154e-03
      2.05128198e-03 1.53846154e-03 6.20512813e-02 0. 4.10256395e-03
      1.02564099e-03 5.12820494e-04 3.07692308e-03 4.61538462e-03
      2.05128198e-03 4.10256395e-03 3.07692308e-03 7.17948703e-03
      1.53846154e-03 2.56410241e-03 1.02564099e-03 4.61538462e-03
      8.20512790e-03 2.05128198e-03 1.02564099e-03 6.15384616e-03
      5.12820482e-03 5.12820494e-04 3.07692308e-03 3.58974352e-03
      3.07692308e-03 2.05128198e-03 1.53846154e-03 5.12820482e-03
      3.07692308e-03 2.05128198e-03 4.61538462e-03 3.58974352e-03
      2.05128198e-03 1.02564099e-03 1.53846145e-02 1.02564099e-03
      4.10256395e-03 2.56410241e-03 3.58974352e-03 9.23076924e-03
      3.58974352e-03 2.56410241e-03 4.61538462e-03 7.28205070e-02
      1.53846154e-03 1.53846154e-03 8.71794857e-03 2.56410241e-03
      5.12820494e-04 3.58974352e-03 9.23076924e-03 3.07692308e-03
      5.12820494e-04 2.05128198e-03 3.07692308e-03 6.66666636e-03
      1.02564099e-03 1.02564099e-03 5.12820494e-04 5.12820494e-04
      3.07692308e-03 8.71794857e-03 2.56410241e-03 0. 7.17948703e-03
      6.15384616e-03 2.56410241e-03 1.02564096e-02 1.02564096e-02
      5.12820494e-04 1.02564099e-03 5.64102549e-03 3.58974352e-03
      5.12820494e-04 7.17948703e-03 5.64102549e-03 1.02564099e-03
      5.12820482e-03 2.56410241e-03 7.17948703e-03 4.10256395e-03
      5.12820494e-04 1.53846154e-03 6.15384616e-03 5.12820494e-04
      1.02564099e-03 2.56410241e-03 0. 7.69230723e-03 7.69230723e-03
      8.20512790e-03 1.02564096e-02 5.12820494e-04 4.61538462e-03
      1.02564099e-03 1.02564099e-03 1.02564099e-03 6.66666636e-03
      2.56410241e-03 7.17948703e-03 5.12820494e-04 3.07692308e-03
      5.12820494e-04 5.64102549e-03 1.53846154e-03</_>
    <_>
      9.57290176e-03 7.36377027e-04 7.36377016e-03 2.20913114e-03
      1.47275405e-03 2.20913114e-03 1.98821798e-02 0. 3.68188508e-03
      7.36377016e-03 1.47275405e-03 4.41826228e-03 4.41826228e-03
      1.03092780e-02 1.10456552e-02 6.62739342e-03 5.15463902e-03 0.
      7.36377016e-03 8.10014736e-03 0. 2.20913114e-03 4.41826228e-03
      1.47275405e-03 1.47275405e-03 0. 2.20913114e-03 1.54639175e-02
      2.20913114e-03 2.94550811e-03 2.20913114e-03 2.94550811e-03
      7.36377016e-03 6.62739342e-03 3.68188508e-03 2.94550811e-03
      1.54639175e-02 1.47275405e-03 5.89101622e-03 6.62739342e-03
      7.36377016e-03 8.83652456e-03 5.15463902e-03 1.32547868e-02
      4.41826228e-03 0. 0. 2.94550811e-03 2.94550811e-03 1.47275405e-03
      4.41826228e-03 1.47275405e-03 3.68188508e-03 5.15463902e-03
      1.47275405e-03 2.20913114e-03 9.57290176e-03 2.65095737e-02
      3.82916071e-02 2.20913114e-03 7.36377016e-03 2.94550811e-03 0.
      1.47275405e-03 5.89101622e-03 5.89101622e-03 3.68188508e-03
      2.20913114e-03 7.36377027e-04 0. 1.47275405e-03 2.94550811e-03
      2.94550811e-03 8.10014736e-03 8.10014736e-03 6.62739342e-03
      9.57290176e-03 2.20913114e-03 1.47275405e-03 5.89101622e-03
      2.20913114e-03 2.94550811e-03 1.03092780e-02 9.57290176e-03
      9.57290176e-03 3.68188508e-03 7.36377016e-03 3.68188508e-03
      5.89101622e-03 9.57290176e-03 1.47275405e-03 2.20913114e-03
      2.94550811e-03 4.41826228e-03 4.41826228e-03 2.20913114e-03
      5.89101622e-03 7.36377027e-04 2.20913114e-03 0. 2.20913114e-03
      3.68188508e-03 1.47275405e-03 2.20913114e-03 7.36377027e-04
      4.41826228e-03 9.57290176e-03 1.47275405e-03 0. 7.36377027e-04
      3.68188508e-03 7.36377016e-03 1.10456552e-02 2.20913114e-03
      4.41826228e-03 1.47275405e-03 2.20913114e-03 2.20913114e-03
      3.68188508e-03 1.54639175e-02 0. 6.62739342e-03 6.62739342e-03
      1.84094254e-02 2.94550811e-03 1.03092780e-02 1.47275405e-03 0.
      2.79823262e-02 5.15463902e-03 2.94550811e-03 8.10014736e-03
      5.15463902e-03 2.20913114e-03 2.94550811e-03 8.83652456e-03
      1.32547868e-02 7.36377016e-03 8.83652456e-03 3.68188508e-03
      2.94550811e-03 2.20913114e-03 5.15463902e-03 2.20913114e-03
      2.20913114e-03 5.15463902e-03 4.41826228e-03 1.47275405e-03
      5.15463902e-03 2.20913114e-03 0. 4.41826228e-03 1.47275405e-03
      6.62739342e-03 3.68188508e-03 7.36377016e-03 5.89101622e-03
      2.20913114e-03 0. 7.36377016e-03 2.94550811e-03 2.20913114e-03
      1.32547868e-02 1.84094254e-02 3.68188508e-03 2.20913114e-03
      2.94550811e-03 5.15463902e-03 5.89101622e-03 5.15463902e-03
      5.89101622e-03 5.89101622e-03 1.47275405e-03 5.89101622e-03
      1.47275405e-03 2.94550811e-03 2.94550811e-03 2.94550811e-03 0. 0.
      7.36377027e-04 7.36377027e-04 2.20913114e-03 7.36377016e-03
      5.15463902e-03 3.68188508e-03 1.03092780e-02 2.06185561e-02
      1.47275405e-03 4.41826228e-03 2.94550811e-03 0. 3.68188508e-03
      4.41826228e-03 4.41826228e-03 2.20913114e-03 2.94550811e-03
      5.15463902e-03 7.36377027e-04 1.69366710e-02</_>
    <_>
      3.74672143e-03 1.49868859e-03 1.01161478e-02 5.62008237e-03
      2.62270495e-03 1.87336071e-03 5.62008237e-03 3.74672149e-04
      7.11877085e-03 4.87073790e-03 5.99475438e-03 4.87073790e-03
      6.36942638e-03 1.98576245e-02 6.74409885e-03 4.49606590e-03
      1.12401647e-03 1.49868859e-03 7.86811486e-03 1.01161478e-02
      2.62270495e-03 3.37204942e-03 3.74672143e-03 5.99475438e-03
      1.49868859e-03 0. 7.49344297e-04 8.24278686e-03 2.24803295e-03
      2.62270495e-03 6.36942638e-03 9.74147581e-03 7.86811486e-03
      2.39790175e-02 2.24803295e-03 5.99475438e-03 5.62008237e-03
      3.37204942e-03 7.11877085e-03 2.99737719e-03 7.11877085e-03
      7.49344286e-03 5.24540991e-03 6.74409885e-03 1.87336071e-03
      2.62270495e-03 0. 2.24803295e-03 4.87073790e-03 1.49868859e-03
      4.49606590e-03 1.87336071e-03 1.49868859e-03 1.23641808e-02
      2.99737719e-03 2.99737719e-03 2.99737719e-03 1.12401647e-02
      3.33458222e-02 5.24540991e-03 5.24540991e-03 7.49344297e-04
      5.62008237e-03 3.74672143e-03 1.87336076e-02 5.99475438e-03
      2.99737719e-03 4.49606590e-03 1.12401647e-03 7.49344297e-04
      1.12401647e-03 3.37204942e-03 5.62008237e-03 5.99475438e-03
      1.57362297e-02 3.74672143e-03 7.86811486e-03 2.24803295e-03
      4.87073790e-03 1.49868859e-03 7.11877085e-03 2.24803295e-03
      5.99475438e-03 5.62008237e-03 4.49606590e-03 2.24803295e-03
      8.61745980e-03 5.24540991e-03 4.49606590e-03 4.87073790e-03
      1.87336071e-03 2.62270495e-03 1.87336071e-03 5.24540991e-03
      3.74672143e-03 7.49344297e-04 2.06069686e-02 1.12401647e-03
      5.24540991e-03 1.87336071e-03 1.12401647e-03 2.62270495e-03
      1.87336071e-03 3.74672143e-03 2.99737719e-03 2.99737719e-03
      3.74672143e-03 1.87336071e-03 7.49344297e-04 1.87336071e-03
      1.87336071e-03 1.83589347e-02 1.42375417e-02 2.62270495e-03
      7.11877085e-03 3.74672143e-03 2.24803295e-03 2.99737719e-03
      3.37204942e-03 7.49344286e-03 1.49868859e-03 9.74147581e-03
      4.12139343e-03 9.74147581e-03 4.49606590e-03 1.12401647e-02
      2.62270495e-03 7.49344297e-04 3.37204942e-03 1.12401647e-02
      3.37204942e-03 5.24540991e-03 2.62270495e-03 3.37204942e-03
      2.62270495e-03 2.24803295e-03 4.87073790e-03 4.49606590e-03
      2.77257394e-02 7.49344297e-04 1.87336071e-03 3.74672143e-03
      5.62008237e-03 1.12401647e-03 2.99737719e-03 6.36942638e-03
      2.24803295e-03 1.49868859e-03 4.12139343e-03 4.49606590e-03
      3.74672143e-03 3.74672143e-03 3.74672143e-03 3.37204942e-03
      2.62270495e-03 2.99737719e-03 1.27388528e-02 3.37204942e-03 0.
      2.77257394e-02 2.99737719e-03 4.12139343e-03 1.49868857e-02
      8.24278686e-03 2.99737719e-03 5.24540991e-03 1.87336071e-03
      4.12139343e-03 4.87073790e-03 7.11877085e-03 1.87336071e-03
      1.12401647e-03 3.74672143e-03 7.49344286e-03 3.74672143e-03
      4.87073790e-03 3.37204942e-03 2.62270495e-03 5.62008237e-03
      7.49344297e-04 3.74672143e-03 7.49344297e-04 3.74672149e-04
      4.49606590e-03 7.49344286e-03 5.62008237e-03 4.12139343e-03
      2.99737719e-03 3.74672143e-03 1.49868859e-03 4.49606590e-03
      1.12401647e-03 5.24540991e-03 1.49868859e-03 4.12139343e-03
      1.87336071e-03 2.99737719e-03 3.37204942e-03 5.24540991e-03
      6.36942638e-03</_>
    <_>
      5.91715984e-03 5.91715984e-03 8.87573976e-03 2.95857992e-03 0.
      5.91715984e-03 2.07100585e-02 0. 2.07100585e-02 1.77514795e-02 0.
      8.87573976e-03 2.95857992e-03 0. 2.07100585e-02 2.95857992e-03 0.
      2.95857992e-03 2.95857992e-03 5.91715984e-03 1.47928996e-02 0.
      2.95857992e-03 1.47928996e-02 5.91715984e-03 5.91715984e-03
      2.95857992e-03 1.18343197e-02 8.87573976e-03 2.95857992e-03 0.
      5.91715984e-03 1.18343197e-02 1.47928996e-02 0. 2.95857992e-03
      8.87573976e-03 0. 0. 1.18343197e-02 0. 8.87573976e-03
      2.95857992e-03 0. 2.95857992e-03 5.91715984e-03 0. 2.95857992e-03
      0. 0. 5.91715984e-03 8.87573976e-03 2.95857992e-03 2.36686394e-02
      2.95857992e-03 8.87573976e-03 0. 2.95857992e-03 2.66272202e-02
      2.95857992e-03 5.91715984e-03 0. 2.95857992e-03 1.47928996e-02 0.
      8.87573976e-03 0. 8.87573976e-03 0. 0. 0. 2.95857992e-03
      2.95857992e-03 0. 8.87573976e-03 2.95857992e-03 5.91715984e-03
      2.95857992e-03 1.18343197e-02 0. 2.95857992e-03 2.95857992e-03 0.
      2.95857992e-03 0. 5.91715984e-03 5.91715984e-03 2.95857992e-03 0.
      1.47928996e-02 2.95857992e-03 0. 5.91715984e-03 2.95857992e-03 0.
      0. 4.43786979e-02 5.91715984e-03 5.91715984e-03 0. 0.
      8.87573976e-03 0. 2.95857992e-03 0. 0. 5.91715984e-03
      5.91715984e-03 0. 0. 2.95857992e-03 2.95857992e-03 1.47928996e-02
      2.95857992e-03 2.95857992e-03 5.91715984e-03 1.77514795e-02 0. 0.
      8.87573976e-03 2.95857992e-03 0. 5.91715984e-03 2.95857992e-03
      8.87573976e-03 2.36686394e-02 2.95857992e-03 5.91715984e-03
      1.18343197e-02 5.91715984e-03 0. 1.77514795e-02 2.95857992e-03
      2.95857992e-03 8.87573976e-03 1.18343197e-02 2.95857992e-03
      5.91715984e-03 1.77514795e-02 0. 2.95857992e-03 5.91715984e-03
      2.95857992e-03 0. 0. 2.95857992e-03 0. 5.91715984e-03 0. 0.
      5.91715984e-03 5.91715984e-03 5.91715984e-03 0. 0. 0.
      8.87573976e-03 2.95857992e-03 0. 2.95857992e-03 0. 5.91715984e-03
      2.07100585e-02 8.87573976e-03 2.95857992e-03 2.95857992e-03 0.
      5.91715984e-03 0. 0. 8.87573976e-03 0. 2.95857992e-03
      2.95857992e-03 2.95857992e-03 2.95857992e-03 0. 0. 5.91715984e-03
      0. 0. 1.47928996e-02 0. 5.91715984e-03 5.91715984e-03
      2.95857992e-03 5.91715984e-03 0. 2.95857992e-03 0. 5.91715984e-03
      1.47928996e-02 2.95857992e-03 0. 5.91715984e-03 5.91715984e-03
      2.95857992e-03 0. 8.87573976e-03 2.95857992e-03</_>
    <_>
      3.75939859e-03 2.50626565e-03 3.75939859e-03 3.75939859e-03
      1.25313282e-03 2.50626565e-03 2.50626565e-03 0. 5.01253130e-03
      1.12781953e-02 1.12781953e-02 5.01253130e-03 1.25313282e-03 0.
      1.00250626e-02 3.75939859e-03 2.25563906e-02 1.00250626e-02
      1.37844607e-02 2.50626565e-03 1.00250626e-02 6.26566401e-03 0. 0.
      5.01253130e-03 0. 2.50626565e-03 1.62907261e-02 6.26566401e-03
      3.75939859e-03 8.77192989e-03 1.25313282e-03 6.26566401e-03
      1.25313282e-03 1.25313282e-03 1.25313282e-03 5.01253130e-03
      2.50626565e-03 3.75939859e-03 2.50626565e-03 1.37844607e-02
      5.01253130e-03 6.26566401e-03 2.50626565e-03 1.25313282e-03
      1.25313282e-03 0. 1.25313282e-03 1.00250626e-02 0. 2.50626565e-03
      2.50626565e-03 3.75939859e-03 1.37844607e-02 1.25313282e-03
      5.01253130e-03 5.01253130e-03 4.63659130e-02 1.12781953e-02
      7.51879718e-03 3.75939859e-03 0. 0. 3.75939859e-03 3.75939859e-03
      7.51879718e-03 8.77192989e-03 6.26566401e-03 0. 0. 1.25313282e-03
      2.50626565e-03 2.50626565e-03 7.51879718e-03 1.00250626e-02
      1.25313282e-03 2.50626565e-03 2.50626565e-03 1.12781953e-02
      3.75939859e-03 2.50626565e-03 6.26566401e-03 3.75939859e-03
      5.01253130e-03 0. 6.26566401e-03 1.37844607e-02 5.01253130e-03
      1.75438598e-02 7.51879718e-03 0. 0. 3.75939859e-03 1.25313282e-03
      1.25313282e-03 1.25313282e-03 6.26566410e-02 0. 6.26566401e-03 0.
      6.26566401e-03 5.01253130e-03 1.25313282e-03 1.25313282e-03
      3.75939859e-03 1.25313282e-03 1.25313280e-02 6.26566401e-03 0.
      2.50626565e-03 5.01253130e-03 1.25313280e-02 5.01253130e-03
      6.26566401e-03 5.01253130e-03 3.75939859e-03 2.50626565e-03
      2.50626565e-03 1.25313282e-03 2.13032588e-02 0. 2.50626565e-03
      1.25313282e-03 1.37844607e-02 3.75939859e-03 1.12781953e-02 0.
      3.75939859e-03 2.50626565e-03 1.37844607e-02 0. 2.50626565e-03
      6.26566401e-03 3.75939859e-03 6.26566401e-03 2.50626565e-03
      5.01253130e-03 1.25313282e-03 1.37844607e-02 3.75939859e-03
      1.25313282e-03 8.77192989e-03 3.75939859e-03 1.25313282e-03
      1.25313282e-03 1.25313280e-02 0. 5.01253130e-03 5.01253130e-03
      5.01253130e-03 7.51879718e-03 2.50626565e-03 2.50626565e-03
      1.00250626e-02 2.50626565e-03 7.51879718e-03 2.50626565e-03
      2.50626565e-03 0. 0. 5.01253130e-03 0. 3.75939859e-03
      6.26566401e-03 5.01253130e-03 3.75939859e-03 2.50626565e-03
      1.25313282e-03 1.25313282e-03 5.01253130e-03 2.50626565e-03
      1.25313282e-03 0. 2.50626565e-03 1.00250626e-02 8.77192989e-03
      2.50626565e-03 3.75939859e-03 1.25313282e-03 0. 3.75939859e-03
      1.00250626e-02 0. 7.51879718e-03 7.51879718e-03 7.51879718e-03
      5.01253130e-03 1.25313282e-03 6.26566401e-03 0. 1.25313282e-03 0.
      2.50626565e-03 2.50626565e-03 1.00250626e-02 1.25313282e-03
      3.75939859e-03 5.01253130e-03 2.50626565e-03 7.51879718e-03</_>
    <_>
      1.72413792e-03 1.72413792e-03 1.72413792e-03 0. 3.44827585e-03 0.
      1.89655162e-02 0. 3.44827585e-03 5.17241377e-03 1.72413792e-03
      1.20689655e-02 1.72413792e-03 0. 6.89655170e-03 1.72413792e-03
      3.44827585e-03 3.44827585e-03 5.17241377e-03 0. 6.89655170e-03
      3.44827585e-03 0. 5.17241377e-03 1.72413792e-03 0. 1.72413792e-03
      3.44827585e-03 0. 0. 3.44827585e-03 8.62068962e-03 0.
      1.72413792e-02 0. 8.62068962e-03 4.31034490e-02 1.72413792e-03
      5.17241377e-03 0. 1.72413792e-03 3.44827585e-03 0. 1.72413792e-03
      0. 3.44827585e-03 0. 0. 0. 0. 0. 3.44827585e-03 0. 1.72413792e-02
      0. 1.72413792e-03 1.72413792e-03 5.51724136e-02 1.89655162e-02 0.
      5.17241377e-03 0. 0. 3.44827585e-03 0. 0. 1.72413792e-03
      5.17241377e-03 0. 0. 0. 0. 1.72413792e-03 0. 1.72413792e-02 0.
      5.17241377e-03 1.72413792e-03 3.44827585e-03 0. 0. 3.44827585e-03
      0. 1.72413792e-03 2.41379309e-02 3.44827585e-03 3.44827585e-03
      1.72413792e-03 1.72413792e-03 4.13793102e-02 0. 1.72413792e-03
      1.72413792e-03 0. 0. 1.72413792e-03 3.96551713e-02 0.
      1.20689655e-02 0. 5.17241377e-03 8.62068962e-03 0. 1.72413792e-03
      0. 1.72413792e-03 6.89655170e-03 3.44827585e-03 6.89655170e-03 0.
      1.72413792e-03 4.65517230e-02 1.37931034e-02 0. 1.72413792e-03
      1.72413792e-03 1.03448275e-02 1.72413792e-03 1.72413792e-03
      1.03448275e-02 0. 0. 1.72413792e-03 5.17241377e-03 3.44827585e-03
      2.75862068e-02 1.72413792e-03 0. 1.37931034e-02 1.37931034e-02 0.
      3.44827585e-03 1.72413792e-03 1.72413792e-03 0. 1.55172413e-02
      1.03448275e-02 5.17241377e-03 3.10344826e-02 1.72413792e-03 0.
      6.89655170e-03 0. 0. 0. 5.17241377e-03 1.72413792e-03
      3.44827585e-03 1.72413792e-03 5.17241377e-03 3.44827585e-03
      1.72413792e-03 0. 0. 1.72413792e-03 1.37931034e-02 6.89655170e-03
      0. 0. 1.20689655e-02 0. 0. 2.58620679e-02 5.34482747e-02 0.
      1.72413792e-03 0. 0. 0. 1.72413792e-03 0. 1.72413792e-03
      1.72413792e-03 6.89655170e-03 1.72413792e-03 6.89655170e-03 0.
      3.44827585e-03 5.17241377e-03 0. 1.72413792e-03 3.44827585e-03 0.
      5.17241377e-03 1.03448275e-02 3.44827585e-03 1.89655162e-02
      1.72413792e-03 3.44827585e-03 0. 0. 1.72413792e-03 1.72413792e-03
      1.72413792e-03 1.72413792e-03 5.17241377e-03 1.72413792e-02 0.
      5.17241377e-03 6.89655170e-03</_>
    <_>
      0. 0. 4.06504050e-03 4.06504050e-03 0. 0. 1.21951215e-02 0.
      8.13008100e-03 1.62601620e-02 8.13008100e-03 0. 2.03252025e-02 0.
      2.43902430e-02 0. 4.06504050e-03 0. 0. 1.21951215e-02
      1.21951215e-02 0. 0. 0. 0. 4.06504050e-03 4.06504050e-03
      2.03252025e-02 8.13008100e-03 4.06504050e-03 0. 1.21951215e-02
      4.06504050e-03 4.06504050e-03 0. 1.62601620e-02 0. 0. 0.
      8.13008100e-03 4.06504050e-03 8.13008100e-03 0. 4.06504050e-03 0.
      4.06504050e-03 0. 0. 0. 0. 0. 1.62601620e-02 0. 2.43902430e-02 0.
      0. 0. 0. 2.03252025e-02 4.06504050e-03 0. 0. 0. 2.84552835e-02
      4.06504050e-03 0. 0. 4.06504050e-03 0. 0. 0. 0. 8.13008100e-03
      1.21951215e-02 4.06504050e-03 0. 4.06504050e-03 0. 8.13008100e-03
      4.06504050e-03 0. 4.06504050e-03 0. 4.06504050e-03 0.
      4.06504050e-03 0. 4.06504050e-03 0. 2.43902430e-02 0. 0.
      1.62601620e-02 4.06504050e-03 4.06504050e-03 0. 4.87804860e-02 0.
      2.43902430e-02 0. 4.06504050e-03 8.13008100e-03 0. 0. 0.
      4.06504050e-03 4.06504050e-03 0. 0. 0. 0. 1.21951215e-02
      8.13008100e-03 1.21951215e-02 4.06504050e-03 0. 0. 4.06504050e-03
      0. 1.21951215e-02 0. 4.06504050e-03 0. 2.43902430e-02 0.
      1.62601620e-02 4.06504050e-03 4.06504050e-03 4.06504050e-03
      1.62601620e-02 0. 0. 0. 1.21951215e-02 4.06504050e-03 0.
      4.06504050e-03 0. 3.65853645e-02 4.06504050e-03 0. 1.62601620e-02
      4.06504050e-03 4.06504050e-03 4.06504050e-03 4.06504050e-03
      1.21951215e-02 4.06504050e-03 4.06504050e-03 4.06504050e-03
      4.06504050e-03 8.13008100e-03 0. 0. 0. 0. 4.47154455e-02 0. 0.
      1.21951215e-02 0. 0. 8.13008100e-03 4.06504050e-03 0.
      4.06504050e-03 0. 1.21951215e-02 4.06504050e-03 4.06504050e-03
      4.06504050e-03 0. 0. 4.06504050e-03 8.13008100e-03 8.13008100e-03
      0. 0. 0. 0. 0. 4.06504050e-03 0. 1.21951215e-02 2.43902430e-02
      2.03252025e-02 0. 0. 0. 0. 0. 0. 8.13008100e-03 0. 0.
      4.06504050e-03 8.13008100e-03 0. 1.21951215e-02 0.</_>
    <_>
      2.99401209e-03 0. 0. 5.98802418e-03 2.99401209e-03 2.99401209e-03
      3.59281451e-02 0. 0. 1.19760484e-02 2.99401209e-03 2.99401209e-03
      2.99401209e-03 5.98802418e-03 2.99401209e-03 0. 0. 8.98203626e-03
      2.99401209e-03 5.98802418e-03 5.98802418e-03 0. 0. 8.98203626e-03
      0. 0. 0. 2.09580846e-02 5.98802418e-03 0. 5.98802418e-03 0.
      2.99401209e-03 6.28742576e-02 0. 0. 8.98203626e-03 2.99401209e-03
      5.98802418e-03 0. 5.98802418e-03 0. 5.98802418e-03 0. 0.
      2.99401209e-03 0. 2.99401209e-03 0. 0. 0. 2.99401209e-03 0.
      2.39520967e-02 0. 0. 0. 3.89221571e-02 2.09580846e-02 0. 0. 0. 0.
      0. 2.99401209e-03 2.99401209e-03 0. 8.98203626e-03 2.99401209e-03
      0. 0. 0. 0. 8.98203626e-03 2.69461088e-02 0. 0. 0. 5.98802418e-03
      0. 5.98802418e-03 2.99401209e-03 2.99401209e-03 5.98802418e-03 0.
      2.99401209e-03 5.98802418e-03 2.99401209e-03 2.99401209e-03
      5.98802418e-02 2.99401209e-03 0. 0. 2.99401209e-03 0. 0.
      5.98802418e-02 0. 0. 0. 0. 5.98802418e-03 0. 2.99401209e-03
      2.99401209e-03 2.99401209e-03 2.99401209e-03 2.99401209e-03 0.
      2.99401209e-03 2.99401209e-03 0. 0. 0. 0. 0. 0. 0. 0.
      1.49700604e-02 0. 2.99401209e-03 0. 1.79640725e-02 0.
      8.98203626e-03 0. 2.99401209e-03 8.98203626e-03 1.19760484e-02 0.
      0. 2.99401209e-03 0. 0. 2.39520967e-02 0. 8.98203626e-03
      1.13772459e-01 0. 0. 0. 0. 2.99401209e-03 0. 1.19760484e-02
      2.99401209e-03 0. 0. 0. 2.99401209e-03 0. 2.99401209e-03 0. 0.
      3.29341330e-02 8.98203626e-03 0. 0. 2.99401209e-03 0. 0.
      1.79640725e-02 1.19760484e-02 2.99401209e-03 2.99401209e-03 0. 0.
      0. 5.98802418e-03 2.99401209e-03 0. 0. 0. 5.98802418e-03
      8.98203626e-03 2.99401209e-03 0. 5.98802418e-03 0. 0. 0. 0.
      2.99401209e-03 5.98802418e-03 2.99401209e-03 1.19760484e-02
      8.98203626e-03 0. 0. 0. 2.99401209e-03 2.99401209e-03 0.
      2.99401209e-03 0. 1.49700604e-02 2.99401209e-03 0. 2.99401209e-03</_>
    <_>
      2.64550257e-03 2.64550257e-03 1.98412687e-03 5.95238060e-03
      2.64550257e-03 3.96825373e-03 7.27513200e-03 1.32275128e-03
      6.61375641e-04 3.96825373e-03 4.62962966e-03 5.29100513e-03
      5.29100513e-03 3.96825373e-03 1.32275131e-02 7.27513200e-03
      9.25925933e-03 5.29100513e-03 1.32275131e-02 4.62962966e-03
      6.61375653e-03 1.98412687e-03 8.59788340e-03 7.93650746e-03
      3.30687826e-03 6.61375641e-04 8.59788340e-03 2.38095224e-02
      9.92063433e-03 4.62962966e-03 7.93650746e-03 1.32275128e-03
      7.27513200e-03 5.95238060e-03 2.64550257e-03 6.61375653e-03
      3.96825373e-03 3.30687826e-03 3.30687826e-03 1.32275128e-03
      9.25925933e-03 6.61375653e-03 4.62962966e-03 6.61375653e-03
      1.32275128e-03 4.62962966e-03 4.62962966e-03 2.64550257e-03
      3.96825373e-03 1.32275128e-03 1.98412687e-03 3.96825373e-03
      4.62962966e-03 1.32275131e-02 1.32275128e-03 1.32275128e-03
      5.95238060e-03 1.91798937e-02 8.59788340e-03 2.64550257e-03
      4.62962966e-03 3.30687826e-03 3.96825373e-03 6.61375653e-03
      3.96825373e-03 2.64550257e-03 3.30687826e-03 5.95238060e-03
      6.61375641e-04 1.32275128e-03 1.32275128e-03 5.29100513e-03
      3.30687826e-03 1.98412687e-03 4.62962966e-03 1.32275128e-03
      2.64550257e-03 3.30687826e-03 3.96825373e-03 2.64550257e-03
      8.59788340e-03 2.64550257e-03 4.62962966e-03 1.05820103e-02
      1.98412687e-03 7.93650746e-03 9.25925933e-03 1.98412687e-03
      3.96825373e-03 1.25661371e-02 4.62962966e-03 5.29100513e-03
      3.30687826e-03 1.32275128e-03 4.62962966e-03 2.64550257e-03
      3.04232799e-02 1.98412687e-03 2.64550257e-03 4.62962966e-03
      9.25925933e-03 5.95238060e-03 3.96825373e-03 1.98412687e-03
      2.64550257e-03 6.61375653e-03 6.61375653e-03 1.98412687e-03
      1.98412687e-03 0. 7.27513200e-03 1.52116399e-02 2.64550257e-03
      6.61375641e-04 1.32275128e-03 2.64550257e-03 6.61375653e-03
      4.62962966e-03 3.30687826e-03 1.52116399e-02 3.96825373e-03
      6.61375641e-04 6.61375641e-04 1.52116399e-02 5.95238060e-03
      8.59788340e-03 2.64550257e-03 4.62962966e-03 1.32275128e-03
      1.05820103e-02 4.62962966e-03 1.98412687e-03 3.30687826e-03
      2.64550257e-03 4.62962966e-03 7.93650746e-03 4.62962966e-03
      4.62962966e-03 1.05820103e-02 1.32275128e-03 3.30687826e-03
      3.30687826e-03 1.32275128e-03 4.62962966e-03 6.61375641e-04
      8.59788340e-03 5.95238060e-03 1.98412687e-03 5.29100513e-03
      1.98412687e-03 3.96825373e-03 3.30687826e-03 2.64550257e-03
      7.93650746e-03 2.64550257e-03 5.95238060e-03 8.59788340e-03
      5.29100513e-03 0. 5.29100513e-03 3.30687826e-03 4.62962966e-03
      7.93650746e-03 5.29100513e-03 3.30687826e-03 3.30687826e-03
      2.64550257e-03 6.61375641e-04 1.98412687e-03 3.30687826e-03
      4.62962966e-03 5.29100513e-03 6.61375653e-03 3.30687826e-03
      4.62962966e-03 8.59788340e-03 3.96825373e-03 1.32275128e-03
      3.30687826e-03 3.30687826e-03 1.98412687e-03 1.32275128e-03
      9.92063433e-03 9.25925933e-03 1.05820103e-02 3.96825373e-03
      6.61375653e-03 6.61375653e-03 1.98412687e-03 2.64550257e-03
      1.98412687e-03 9.25925933e-03 7.93650746e-03 5.29100513e-03
      5.95238060e-03 7.93650746e-03 6.61375653e-03 3.30687826e-03
      3.30687826e-03 2.64550257e-03</_>
    <_>
      0. 7.22891558e-03 2.40963860e-03 7.22891558e-03 2.40963860e-03 0.
      7.22891558e-03 0. 4.81927721e-03 1.20481933e-02 7.22891558e-03
      7.22891558e-03 4.81927721e-03 2.40963860e-03 1.68674700e-02
      7.22891558e-03 7.22891558e-03 2.40963860e-03 7.22891558e-03
      2.40963860e-03 4.81927721e-03 0. 0. 2.40963860e-03 2.40963860e-03
      2.40963860e-03 4.81927721e-03 2.40963860e-03 2.89156623e-02
      2.40963860e-03 7.22891558e-03 4.81927721e-03 1.44578312e-02
      9.63855442e-03 0. 4.81927721e-03 1.44578312e-02 4.81927721e-03 0.
      0. 2.40963860e-03 7.22891558e-03 2.40963860e-03 4.81927721e-03 0.
      2.40963860e-03 7.22891558e-03 2.40963860e-03 2.40963860e-03
      4.81927721e-03 0. 7.22891558e-03 2.40963860e-03 1.20481933e-02 0.
      0. 2.40963860e-03 9.63855442e-03 7.22891558e-03 0. 4.81927721e-03
      0. 4.81927721e-03 0. 2.40963860e-03 4.81927721e-03 4.81927721e-03
      9.63855442e-03 0. 0. 4.81927721e-03 0. 0. 2.40963860e-03 0.
      2.40963860e-03 1.20481933e-02 0. 9.63855442e-03 4.81927721e-03
      9.63855442e-03 4.81927721e-03 4.81927721e-03 4.81927721e-03
      2.40963860e-03 1.68674700e-02 7.22891558e-03 2.40963860e-03
      2.40963860e-03 2.89156623e-02 2.40963860e-03 2.40963860e-03
      7.22891558e-03 0. 0. 0. 3.13253030e-02 0. 4.81927721e-03
      7.22891558e-03 0. 1.20481933e-02 7.22891558e-03 2.40963860e-03 0.
      1.68674700e-02 7.22891558e-03 9.63855442e-03 7.22891558e-03 0.
      4.81927721e-03 0. 2.40963860e-03 4.81927721e-03 4.81927721e-03 0.
      7.22891558e-03 7.22891558e-03 0. 2.40963860e-03 0. 2.40963860e-03
      0. 9.63855442e-03 4.81927721e-03 1.20481933e-02 9.63855442e-03 0.
      1.92771088e-02 1.92771088e-02 0. 4.81927721e-03 9.63855442e-03 0.
      2.40963860e-03 7.22891558e-03 7.22891558e-03 1.20481933e-02
      1.68674700e-02 4.81927721e-03 0. 4.81927721e-03 0. 4.81927721e-03
      4.81927721e-03 4.81927721e-03 2.40963860e-03 4.81927721e-03 0.
      2.40963860e-03 9.63855442e-03 4.81927721e-03 2.40963860e-03
      2.40963860e-03 0. 7.22891558e-03 2.40963860e-03 4.81927721e-03 0.
      9.63855442e-03 0. 0. 7.22891558e-03 2.89156623e-02 0.
      2.40963860e-03 0. 2.40963860e-03 0. 9.63855442e-03 0. 0.
      4.81927721e-03 9.63855442e-03 0. 2.40963860e-03 4.81927721e-03 0.
      1.44578312e-02 2.40963860e-03 1.20481933e-02 2.40963860e-03 0.
      7.22891558e-03 9.63855442e-03 9.63855442e-03 2.40963860e-03
      4.81927721e-03 4.81927721e-03 2.40963860e-03 0. 0. 4.81927721e-03
      2.40963860e-03 0. 2.40963860e-03 1.92771088e-02 0. 1.20481933e-02
      0.</_></support_vectors>
  <decision_functions>
    <_>
      <sv_count>25</sv_count>
      <rho>-9.7398999241342610e-01</rho>
      <alpha>
        8.2696685026096572e-01 9.3374365819636718e-01
        2.8068582796883651e-01 6.6323076607832221e-01
        1.8481353653719321e-01 9.8494559831781314e-01
        1.4697712608668218e-03 1.7529497822478654e-01
        3.7927793758439987e-01 4.5646142770297368e-02
        5.9357049367332458e-02 5.0561674456323480e-01
        3.7695527323228104e-02 4.4651638741486660e-01
        1.6979384287319790e-01 1. 1.8952693804180026e-01
        1.1541844321649131e-01 -1. -1. -1. -1. -1. -1. -1.</alpha>
      <index>
        0 1 2 3 4 5 6 7 8 9 10 11 12 13 14 15 16 17 18 19 20 21 22 23 24</index></_></decision_functions></my_svm>
</opencv_storage>
