<?xml version="1.0"?>
<opencv_storage>
<my_svm type_id="opencv-ml-svm">
  <svm_type>C_SVC</svm_type>
  <kernel><type>RBF</type>
    <gamma>1.</gamma></kernel>
  <C>1.</C>
  <term_criteria><epsilon>1.1920928955078125e-07</epsilon>
    <iterations>1000</iterations></term_criteria>
  <var_all>200</var_all>
  <var_count>200</var_count>
  <class_count>2</class_count>
  <class_labels type_id="opencv-matrix">
    <rows>1</rows>
    <cols>2</cols>
    <dt>i</dt>
    <data>
      0 1</data></class_labels>
  <sv_total>16</sv_total>
  <support_vectors>
    <_>
      0. 2.94985250e-03 2.94985250e-03 5.89970499e-03 0. 2.94985250e-03
      1.17994100e-02 2.94985250e-03 0. 2.94985250e-03 1.47492625e-02
      1.17994100e-02 2.94985250e-03 0. 8.84955749e-03 0. 0.
      5.89970499e-03 2.94985250e-02 0. 1.17994100e-02 0. 0. 0.
      2.94985250e-03 8.84955749e-03 2.94985250e-03 0. 0. 0. 0. 0.
      2.94985250e-03 0. 1.47492625e-02 0. 0. 0. 2.94985250e-03
      5.89970499e-03 2.94985250e-03 2.94985250e-03 0. 0. 2.94985250e-03
      0. 1.17994100e-02 5.89970499e-03 0. 1.17994100e-02 0. 0.
      2.94985250e-03 0. 1.47492625e-02 5.89970499e-03 1.17994100e-02 0.
      8.84955749e-03 1.47492625e-02 2.94985250e-03 8.84955749e-03
      2.94985250e-03 0. 5.89970499e-03 2.94985250e-03 2.94985250e-03 0.
      0. 8.84955749e-03 0. 2.94985250e-03 0. 2.94985250e-03 0. 0.
      2.94985250e-03 0. 5.89970499e-03 2.94985250e-03 5.89970499e-03 0.
      5.89970499e-03 0. 2.94985250e-03 2.94985250e-03 5.89970499e-03 0.
      0. 0. 1.17994100e-02 0. 2.94985250e-03 5.89970499e-03
      1.47492625e-02 5.89970499e-03 1.76991150e-02 0. 0. 5.89970499e-03
      8.84955749e-03 0. 2.94985250e-03 2.94985250e-03 1.17994100e-02 0.
      5.89970499e-03 0. 1.47492625e-02 2.94985250e-03 0. 0.
      1.47492625e-02 0. 2.94985250e-03 0. 5.89970499e-03 8.84955749e-03
      5.89970499e-03 5.89970499e-03 1.17994100e-02 0. 8.84955749e-03 0.
      2.06489675e-02 1.47492625e-02 8.84955749e-03 2.94985250e-03
      5.89970499e-03 5.89970499e-03 2.94985250e-03 3.24483775e-02 0. 0.
      2.94985250e-03 0. 1.76991150e-02 0. 1.47492625e-02 0.
      2.94985250e-03 2.94985250e-03 5.89970499e-03 0. 8.84955749e-03 0.
      2.94985250e-03 1.47492625e-02 0. 0. 8.84955749e-03 2.94985250e-03
      0. 1.76991150e-02 0. 1.47492625e-02 0. 0. 1.76991150e-02
      1.17994100e-02 3.24483775e-02 0. 2.94985250e-03 2.94985250e-03
      2.94985250e-03 2.06489675e-02 2.35988200e-02 5.89970499e-03
      8.84955749e-03 0. 0. 2.94985250e-03 5.89970499e-03 2.94985250e-03
      5.89970499e-03 5.89970499e-03 1.17994100e-02 2.65486725e-02 0. 0.
      0. 0. 0. 0. 2.94985250e-03 2.94985250e-03 1.17994100e-02
      1.47492625e-02 5.89970499e-03 2.94985250e-03 5.89970499e-03 0. 0.
      2.94985250e-03 5.89970499e-03 0. 5.89970499e-03 0. 0.
      2.06489675e-02</_>
    <_>
      0. 5.61797759e-03 1.12359552e-02 0. 1.12359552e-02 0.
      1.12359552e-02 0. 0. 5.61797759e-03 1.12359552e-02 3.37078646e-02
      0. 0. 0. 5.61797759e-03 5.61797759e-03 0. 2.24719103e-02 0.
      5.61797759e-03 0. 0. 5.61797759e-03 0. 0. 5.61797759e-03 0. 0. 0.
      0. 0. 0. 0. 1.12359552e-02 0. 0. 0. 0. 0. 5.61797759e-03
      1.12359552e-02 0. 0. 0. 0. 1.68539323e-02 0. 5.61797759e-03 0. 0.
      0. 0. 0. 5.61797759e-03 0. 5.61797759e-03 1.68539323e-02
      1.12359552e-02 0. 0. 0. 1.68539323e-02 0. 1.68539323e-02
      5.61797759e-03 0. 5.61797759e-03 0. 0. 1.12359552e-02 0.
      5.61797759e-03 5.61797759e-03 1.68539323e-02 0. 0. 0. 0. 0. 0. 0.
      0. 5.61797759e-03 1.12359552e-02 0. 0. 0. 5.61797759e-03
      5.61797759e-03 5.61797759e-03 0. 0. 5.61797759e-03 0.
      5.61797759e-03 2.24719103e-02 0. 0. 5.61797759e-03 2.80898884e-02
      0. 2.24719103e-02 0. 0. 0. 5.61797759e-03 1.12359552e-02 0.
      5.61797759e-03 1.12359552e-02 1.68539323e-02 0. 0. 0.
      5.61797759e-03 0. 0. 0. 1.68539323e-02 1.68539323e-02 0. 0.
      5.61797759e-03 2.80898884e-02 0. 5.61797759e-03 1.12359552e-02
      5.61797759e-03 0. 0. 2.24719103e-02 0. 5.61797759e-03
      5.61797759e-03 0. 2.80898884e-02 0. 3.37078646e-02 0. 0.
      5.61797759e-03 5.61797759e-03 0. 0. 5.61797759e-03 5.61797759e-03
      5.61797759e-03 0. 0. 0. 0. 0. 0. 0. 1.12359552e-02 0. 0.
      1.68539323e-02 1.68539323e-02 2.24719103e-02 0. 5.61797759e-03
      1.12359552e-02 0. 5.61797759e-03 1.68539323e-02 0. 5.61797759e-03
      1.12359552e-02 0. 0. 0. 1.12359552e-02 0. 0. 5.61797759e-03
      1.12359552e-02 5.61797759e-03 0. 0. 0. 5.61797759e-03
      1.68539323e-02 0. 5.61797759e-03 1.12359552e-02 0. 5.61797759e-03
      5.61797759e-03 1.12359552e-02 1.12359552e-02 0. 5.61797759e-03
      3.93258445e-02 5.61797759e-03 0. 5.61797759e-03 0. 5.61797759e-03</_>
    <_>
      1.15911476e-02 2.10748147e-03 0. 1.05374074e-03 6.32244442e-03
      3.16122221e-03 6.32244442e-03 9.48366709e-03 2.10748147e-03
      1.05374074e-03 8.42992589e-03 7.37618515e-03 0. 2.10748147e-03
      8.42992589e-03 1.05374074e-03 3.16122221e-03 6.32244442e-03
      1.05374074e-03 6.32244442e-03 5.26870368e-03 1.05374074e-03
      3.16122221e-03 6.32244442e-03 1.68598518e-02 1.36986300e-02
      3.16122221e-03 5.26870368e-03 2.10748147e-03 1.05374074e-03 0.
      3.16122221e-03 1.05374074e-03 3.16122221e-03 8.42992589e-03
      1.05374074e-03 1.89673342e-02 0. 8.42992589e-03 1.05374074e-03
      8.42992589e-03 3.16122221e-03 1.05374074e-03 1.05374074e-03
      1.05374074e-03 3.16122221e-03 1.05374074e-02 3.16122221e-03
      2.10748147e-03 0. 8.42992589e-03 0. 5.26870368e-03 4.21496294e-03
      7.37618515e-03 1.05374074e-03 1.05374074e-03 7.37618515e-03
      2.63435189e-02 1.05374074e-03 1.05374074e-03 3.16122221e-03
      3.16122221e-03 1.36986300e-02 4.21496294e-03 1.05374074e-03
      6.32244442e-03 7.37618515e-03 0. 3.16122221e-03 0. 3.16122221e-03
      3.16122221e-03 9.48366709e-03 1.89673342e-02 1.05374074e-03
      6.32244442e-03 5.26870368e-03 9.48366709e-03 4.21496294e-03
      2.10748147e-03 3.16122221e-03 6.32244442e-03 9.48366709e-03
      1.05374074e-03 2.10748147e-03 1.36986300e-02 1.05374074e-03
      1.05374074e-03 1.05374074e-02 7.37618515e-03 4.21496294e-03 0.
      2.10748147e-03 2.10748147e-03 3.16122221e-03 4.21496294e-03
      2.10748147e-03 2.10748147e-03 4.21496294e-03 1.26448888e-02
      1.47523703e-02 2.10748147e-03 1.05374074e-03 4.21496294e-03
      2.10748147e-03 3.16122221e-03 8.42992589e-03 2.10748147e-03
      4.21496294e-03 1.05374074e-03 3.16122221e-03 2.10748147e-02
      5.26870368e-03 2.10748147e-03 2.10748147e-03 9.48366709e-03
      4.21496294e-03 0. 2.10748147e-03 5.26870368e-03 2.10748147e-03
      3.16122221e-03 3.16122221e-03 4.21496294e-03 4.21496294e-03
      2.10748147e-03 0. 4.21496294e-03 3.16122221e-03 1.05374074e-03
      4.21496294e-03 1.05374074e-03 8.42992589e-03 1.05374074e-03
      5.26870368e-03 1.15911476e-02 2.10748147e-03 1.68598518e-02
      3.16122221e-03 5.26870368e-03 2.10748147e-03 2.10748147e-03
      1.05374074e-03 1.05374074e-03 5.26870368e-03 5.26870368e-03
      8.42992589e-03 7.37618515e-03 0. 1.05374074e-03 1.05374074e-03 0.
      1.05374074e-02 0. 6.32244442e-03 4.21496294e-03 7.37618515e-03
      1.79135930e-02 5.26870368e-03 1.89673342e-02 0. 1.47523703e-02
      1.68598518e-02 5.26870368e-03 1.05374074e-03 4.21496294e-03
      6.32244442e-03 2.52897777e-02 3.16122221e-03 2.10748147e-03
      7.37618515e-03 1.05374074e-03 1.05374074e-02 6.32244442e-03
      3.16122221e-03 2.10748147e-03 8.42992589e-03 0. 1.05374074e-03
      1.05374074e-03 1.58061106e-02 8.42992589e-03 0. 8.42992589e-03
      7.37618515e-03 3.16122221e-03 6.32244442e-03 3.16122221e-03
      2.10748147e-03 8.42992589e-03 0. 4.21496294e-03 4.21496294e-03
      6.32244442e-03 5.26870368e-03 3.16122221e-03 6.32244442e-03
      3.16122221e-03 8.42992589e-03</_>
    <_>
      0. 0. 0. 0. 4.83091781e-03 4.83091781e-03 0. 0. 4.83091781e-03
      1.44927539e-02 0. 0. 0. 0. 0. 0. 9.66183562e-03 0. 2.41545886e-02
      0. 1.44927539e-02 0. 0. 4.83091781e-03 0. 0. 0. 0. 4.83091781e-03
      0. 0. 0. 4.83091781e-03 2.41545886e-02 9.66183562e-03 0.
      4.83091781e-03 4.83091781e-03 0. 0. 0. 9.66183562e-03 0. 0.
      9.66183562e-03 9.66183562e-03 1.44927539e-02 0. 0. 3.38164233e-02
      4.83091781e-03 0. 0. 1.93236712e-02 2.41545886e-02 4.83091781e-03
      0. 0. 9.66183562e-03 0. 0. 0. 9.66183562e-03 0. 4.83091781e-03
      4.83091781e-03 0. 1.44927539e-02 0. 0. 4.83091781e-03 0.
      9.66183562e-03 0. 9.66183562e-03 4.83091781e-03 0. 9.66183562e-03
      4.83091781e-03 0. 0. 0. 0. 4.83091781e-03 9.66183562e-03
      4.83091781e-03 4.83091781e-03 0. 4.83091781e-03 0. 4.83091781e-03
      0. 0. 0. 0. 4.83091781e-03 1.93236712e-02 4.83091781e-03 0. 0.
      4.83091781e-03 0. 4.83091781e-03 4.83091781e-03 0. 0. 0. 0. 0.
      4.83091781e-03 0. 0. 4.34782617e-02 9.66183562e-03 0.
      1.93236712e-02 0. 0. 0. 4.83091781e-03 0. 0. 4.83091781e-03 0.
      2.89855078e-02 9.66183562e-03 0. 4.83091781e-03 1.44927539e-02
      4.83091781e-03 0. 3.38164233e-02 0. 9.66183562e-03 0. 0. 0. 0.
      6.28019348e-02 0. 0. 4.83091781e-03 0. 0. 1.44927539e-02 0.
      4.83091781e-03 3.38164233e-02 0. 0. 0. 4.83091781e-03 0. 0. 0.
      1.44927539e-02 0. 0. 4.83091781e-03 1.44927539e-02 1.44927539e-02
      0. 1.44927539e-02 2.89855078e-02 0. 9.66183562e-03 4.83091781e-03
      0. 0. 4.83091781e-03 0. 0. 0. 4.83091781e-03 0. 0. 0.
      2.41545886e-02 0. 0. 4.83091781e-03 0. 4.83091781e-03
      4.83091781e-03 1.44927539e-02 1.44927539e-02 9.66183562e-03 0.
      1.44927539e-02 1.44927539e-02 4.83091781e-03 0. 4.83091781e-03 0.
      9.66183562e-03 0. 0. 9.66183562e-03 0. 0.</_>
    <_>
      0. 2.17391308e-02 1.69082116e-02 0. 9.66183562e-03 4.83091781e-03
      1.20772943e-02 0. 1.44927539e-02 4.83091781e-03 2.41545890e-03
      2.41545890e-03 0. 0. 4.83091781e-03 7.24637695e-03 7.24637695e-03
      7.24637695e-03 4.83091781e-03 0. 4.83091781e-03 0. 7.24637695e-03
      7.24637695e-03 0. 0. 1.44927539e-02 0. 4.83091781e-03 0. 0. 0.
      7.24637695e-03 4.83091781e-03 1.20772943e-02 4.83091781e-03
      2.41545890e-03 7.24637695e-03 4.83091781e-03 0. 1.20772943e-02
      2.41545890e-03 0. 2.41545890e-03 2.17391308e-02 2.41545890e-03
      1.44927539e-02 9.66183562e-03 2.41545890e-03 0. 0. 0.
      4.83091781e-03 0. 2.41545890e-03 0. 7.24637695e-03 2.41545890e-03
      0. 0. 0. 7.24637695e-03 9.66183562e-03 0. 2.17391308e-02
      2.41545890e-03 2.41545890e-03 2.41545890e-03 2.41545890e-03
      2.41545890e-03 1.20772943e-02 0. 9.66183562e-03 0. 1.93236712e-02
      0. 0. 2.41545890e-03 0. 0. 0. 0. 2.41545890e-03 0. 1.69082116e-02
      4.83091781e-03 4.83091781e-03 0. 5.79710156e-02 0. 1.44927539e-02
      0. 0. 2.41545890e-03 4.83091781e-03 0. 4.83091781e-03
      2.41545890e-03 4.83091781e-03 0. 1.69082116e-02 0. 4.83091781e-03
      9.66183562e-03 0. 0. 2.41545890e-03 1.20772943e-02 2.41545890e-03
      0. 0. 9.66183562e-03 0. 4.83091781e-03 0. 4.83091781e-03
      2.41545890e-03 2.41545890e-03 2.41545890e-03 0. 4.83091781e-03
      7.24637695e-03 2.41545890e-03 2.41545890e-03 4.83091781e-03
      2.41545890e-03 0. 1.20772943e-02 0. 4.83091781e-03 0.
      4.83091781e-03 7.24637695e-03 7.24637695e-03 0. 0. 7.24637695e-03
      7.24637695e-03 4.10628021e-02 0. 1.69082116e-02 4.83091781e-03 0.
      4.83091781e-03 0. 4.83091781e-03 9.66183562e-03 0. 0.
      4.83091781e-03 2.41545890e-03 2.41545890e-03 0. 0. 4.83091781e-03
      7.24637695e-03 2.41545890e-03 0. 0. 4.83091781e-03 6.76328465e-02
      0. 7.24637695e-03 1.69082116e-02 0. 4.83091781e-03 4.83091781e-03
      7.24637695e-03 0. 1.20772943e-02 0. 9.66183562e-03 2.41545890e-03
      4.83091781e-03 0. 7.24637695e-03 0. 1.20772943e-02 7.24637695e-03
      0. 2.41545890e-03 0. 0. 7.24637695e-03 1.20772943e-02
      2.41545890e-03 1.20772943e-02 7.24637695e-03 2.41545890e-03
      7.24637695e-03 0. 2.41545890e-03 2.41545890e-03 0. 0.
      4.83091781e-03 2.41545890e-03 2.41545890e-03 2.41545890e-03
      2.41545890e-03</_>
    <_>
      1.51745067e-03 7.58725312e-03 2.57966612e-02 3.03490134e-03
      6.82852790e-03 4.55235224e-03 6.06980268e-03 2.27617612e-03
      5.31107746e-03 1.28983306e-02 3.03490134e-03 1.21396054e-02 0. 0.
      2.27617612e-03 2.27617612e-03 7.58725335e-04 6.82852790e-03
      3.79362656e-03 0. 6.06980268e-03 1.51745067e-03 7.58725335e-04
      1.21396054e-02 5.31107746e-03 2.27617612e-03 3.79362656e-03 0.
      1.51745067e-03 3.03490134e-03 7.58725335e-04 0. 2.27617612e-03
      9.86342970e-03 8.34597833e-03 5.31107746e-03 7.58725335e-04
      2.27617612e-03 5.31107746e-03 3.03490134e-03 6.06980268e-03
      1.51745067e-03 2.27617612e-03 0. 6.06980268e-03 1.51745067e-03
      3.79362656e-03 6.06980268e-03 3.03490134e-03 7.58725335e-04 0.
      1.51745067e-03 3.79362656e-03 7.58725335e-04 6.06980268e-03
      1.51745067e-03 7.58725335e-04 9.10470448e-03 6.06980268e-03
      2.27617612e-03 0. 9.86342970e-03 1.59332324e-02 0. 6.82852790e-03
      1.51745067e-03 7.58725335e-04 3.03490134e-03 1.51745067e-03
      7.58725335e-04 3.79362656e-03 0. 6.06980268e-03 4.55235224e-03
      9.10470448e-03 1.06221549e-02 7.58725335e-04 1.51745067e-03
      6.06980268e-03 1.51745067e-03 0. 0. 2.27617612e-03 0.
      5.31107746e-03 9.86342970e-03 2.27617612e-03 7.58725335e-04
      5.23520485e-02 6.82852790e-03 6.06980268e-03 2.27617612e-03 0.
      1.51745067e-03 3.03490134e-03 3.03490134e-03 9.86342970e-03
      7.58725335e-04 3.03490134e-03 7.58725335e-04 8.34597833e-03
      3.03490134e-03 5.31107746e-03 1.51745067e-03 2.27617612e-03
      7.58725335e-04 1.51745067e-03 5.31107746e-03 3.79362656e-03
      1.51745067e-03 7.58725335e-04 9.86342970e-03 3.79362656e-03 0.
      3.03490134e-03 2.27617612e-03 6.82852790e-03 1.51745067e-03
      7.58725335e-04 1.21396054e-02 7.58725335e-04 1.13808801e-02
      5.31107746e-03 2.27617612e-03 3.79362656e-03 3.03490134e-03
      1.51745067e-03 6.06980268e-03 5.31107746e-03 7.58725335e-04 0.
      1.59332324e-02 7.58725312e-03 6.82852790e-03 3.03490134e-03
      7.58725335e-04 1.51745062e-02 7.58725335e-04 3.26251909e-02
      1.51745067e-03 2.27617612e-03 9.10470448e-03 0. 3.03490134e-03
      2.27617612e-03 3.03490134e-03 1.51745067e-03 5.31107746e-03 0.
      3.79362656e-03 1.51745067e-03 6.06980268e-03 3.03490134e-03
      6.82852790e-03 3.03490134e-03 3.03490134e-03 4.55235224e-03 0.
      1.13808801e-02 1.51745062e-02 3.79362665e-02 1.51745067e-03
      2.27617612e-03 6.82852790e-03 2.27617612e-03 2.27617612e-03
      8.34597833e-03 5.31107746e-03 4.55235224e-03 1.13808801e-02 0.
      1.51745067e-03 1.51745067e-03 1.06221549e-02 1.51745067e-03
      4.55235224e-03 1.51745067e-03 1.28983306e-02 3.79362656e-03
      6.82852790e-03 3.03490134e-03 0. 6.06980268e-03 4.77996953e-02
      3.79362656e-03 4.55235224e-03 6.82852790e-03 3.79362656e-03
      5.31107746e-03 4.55235224e-03 1.59332324e-02 2.27617612e-03
      6.82852790e-03 1.51745067e-03 1.82094090e-02 3.03490134e-03
      7.58725335e-04 6.82852790e-03 2.27617612e-03 6.82852790e-03</_>
    <_>
      6.41436840e-04 3.20718414e-03 6.41436828e-03 1.92431058e-03
      3.20718414e-03 4.49005794e-03 6.41436828e-03 8.33867863e-03
      3.20718414e-03 5.13149472e-03 1.92431058e-03 1.15458630e-02 0.
      6.41436840e-04 8.98011588e-03 4.49005794e-03 3.20718414e-03
      3.84862116e-03 1.28287368e-03 0. 8.98011588e-03 1.92431058e-03
      4.49005794e-03 8.33867863e-03 1.92431058e-03 1.60359219e-02
      6.41436828e-03 0. 6.41436840e-04 1.28287368e-03 4.49005794e-03
      1.28287368e-03 1.28287368e-03 2.56574736e-03 7.69724231e-03
      2.56574736e-03 1.28287368e-03 3.20718414e-03 3.84862116e-03
      1.28287368e-03 7.69724231e-03 1.09044267e-02 3.20718414e-03 0.
      1.73187945e-02 5.77293150e-03 4.49005794e-03 5.13149472e-03
      2.56574736e-03 8.98011588e-03 6.41436840e-04 6.41436828e-03
      3.84862116e-03 1.28287368e-03 3.20718414e-03 1.92431058e-03
      7.69724231e-03 6.41436828e-03 4.23348323e-02 1.92431058e-03
      1.92431058e-03 1.92431058e-03 3.84862116e-03 0. 7.05580506e-03
      1.92431058e-03 1.92431058e-03 3.84862116e-03 0. 4.49005794e-03
      1.92431058e-03 3.20718414e-03 1.34701738e-02 1.60359219e-02
      3.20718414e-03 2.56574736e-03 6.41436840e-04 3.84862116e-03
      5.13149472e-03 3.20718414e-03 0. 0. 7.05580506e-03 1.28287368e-03
      1.92431058e-03 5.77293150e-03 7.05580506e-03 1.28287368e-03
      3.65618989e-02 1.53944846e-02 1.28287368e-03 6.41436828e-03 0.
      1.28287368e-03 3.20718414e-03 1.92431058e-03 4.49005794e-03
      3.84862116e-03 6.41436828e-03 1.28287368e-03 6.41436828e-03
      1.92431058e-03 5.13149472e-03 1.21873002e-02 0. 5.13149472e-03
      1.92431058e-03 1.09044267e-02 1.92431058e-03 4.49005794e-03
      6.41436828e-03 5.13149472e-03 6.41436828e-03 2.56574736e-03
      2.56574736e-03 2.56574736e-03 1.09044267e-02 0. 1.28287368e-03
      4.49005794e-03 2.56574736e-03 7.05580506e-03 3.84862116e-03
      1.28287368e-03 2.56574736e-03 7.05580506e-03 5.13149472e-03
      9.62155219e-03 3.20718414e-03 2.56574736e-03 0. 1.15458630e-02
      2.56574736e-03 3.84862116e-03 5.13149472e-03 0. 2.37331633e-02
      4.49005794e-03 2.88646575e-02 3.84862116e-03 3.20718414e-03
      5.77293150e-03 1.92431058e-03 5.77293150e-03 1.28287368e-03
      1.02629894e-02 1.28287368e-03 8.33867863e-03 2.56574736e-03
      1.92431058e-03 5.13149472e-03 3.84862116e-03 8.98011588e-03
      9.62155219e-03 4.49005794e-03 5.77293150e-03 5.77293150e-03 0.
      1.02629894e-02 8.98011588e-03 2.05259789e-02 7.05580506e-03
      9.62155219e-03 2.56574736e-03 3.84862116e-03 2.56574736e-03
      8.98011588e-03 1.09044267e-02 1.28287368e-03 5.13149472e-03 0.
      1.28287368e-03 1.28287368e-03 5.77293150e-03 0. 3.84862116e-03
      1.92431058e-03 3.84862116e-03 7.69724231e-03 5.77293150e-03
      2.56574736e-03 0. 1.98845416e-02 1.92431058e-03 3.20718414e-03
      3.20718414e-03 4.49005794e-03 2.56574736e-03 4.49005794e-03
      1.28287368e-03 5.13149472e-03 1.28287368e-03 7.69724231e-03
      6.41436840e-04 9.62155219e-03 2.56574736e-03 0. 1.92431058e-03 0.
      1.02629894e-02</_>
    <_>
      0. 1.16448328e-02 5.82241639e-03 2.91120820e-03 4.36681230e-03 0.
      2.03784574e-02 0. 1.45560410e-03 5.82241639e-03 5.82241639e-03
      8.73362459e-03 1.45560410e-03 0. 2.32896656e-02 1.45560410e-03
      1.45560410e-03 4.36681230e-03 1.45560410e-03 2.91120820e-03
      1.60116442e-02 0. 0. 7.27802049e-03 2.91120820e-03 2.91120820e-03
      1.01892287e-02 2.91120820e-03 4.36681230e-03 4.36681230e-03
      1.45560410e-03 0. 0. 1.45560410e-03 1.01892287e-02 7.27802049e-03
      4.36681230e-03 1.45560410e-03 2.91120820e-03 1.45560410e-03
      2.91120820e-03 0. 5.82241639e-03 2.91120820e-03 0. 2.91120820e-03
      1.01892287e-02 1.01892287e-02 4.36681230e-03 0. 1.01892287e-02
      4.36681230e-03 4.36681230e-03 7.27802049e-03 4.36681230e-03
      4.36681230e-03 0. 2.91120820e-03 2.18340605e-02 1.45560410e-03
      1.45560410e-03 2.91120820e-03 2.91120820e-03 5.82241639e-03
      2.32896656e-02 5.82241639e-03 1.45560410e-03 4.36681230e-03
      2.91120820e-03 1.45560410e-03 0. 4.36681230e-03 1.45560410e-03
      1.45560410e-02 1.31004369e-02 7.27802049e-03 2.91120820e-03
      4.36681230e-03 5.82241639e-03 0. 1.16448328e-02 0. 1.31004369e-02
      7.27802049e-03 4.36681230e-03 1.45560410e-03 1.45560410e-02 0.
      2.91120820e-03 1.89228542e-02 2.91120820e-03 0. 2.91120820e-03
      2.91120820e-03 2.91120820e-03 1.45560410e-03 8.73362459e-03
      7.27802049e-03 0. 0. 4.36681230e-03 0. 1.45560410e-03 0.
      1.45560410e-03 4.36681230e-03 1.45560410e-03 4.36681230e-03
      2.91120820e-03 2.91120820e-03 4.36681230e-03 1.01892287e-02
      2.91120820e-02 0. 5.82241639e-03 0. 1.45560410e-03 1.45560410e-03
      2.91120820e-03 2.91120820e-03 5.82241639e-03 7.27802049e-03
      1.45560410e-03 4.36681230e-03 4.36681230e-03 1.45560410e-03
      7.27802049e-03 2.91120820e-03 1.45560410e-03 0. 0. 4.36681230e-03
      5.82241639e-03 1.45560410e-03 1.01892287e-02 2.91120820e-03
      3.49344984e-02 0. 2.47452706e-02 1.45560410e-03 2.91120820e-03
      1.45560410e-03 1.45560410e-03 0. 0. 8.73362459e-03 2.91120820e-03
      8.73362459e-03 0. 1.45560410e-03 4.36681230e-03 7.27802049e-03
      2.91120820e-03 1.16448328e-02 5.82241639e-03 0. 2.91120820e-03 0.
      0. 2.91120820e-03 2.47452706e-02 5.82241639e-03 2.62008738e-02
      1.01892287e-02 1.45560410e-03 0. 1.45560410e-02 1.60116442e-02
      1.45560410e-03 7.27802049e-03 0. 2.91120820e-03 1.45560410e-03
      5.82241639e-03 1.60116442e-02 2.91120820e-03 7.27802049e-03 0.
      2.91120820e-03 0. 1.45560410e-03 0. 1.31004369e-02 1.45560410e-03
      2.03784574e-02 8.73362459e-03 2.91120820e-03 2.91120820e-03
      2.91120820e-03 1.45560410e-03 4.36681230e-03 0. 7.27802049e-03 0.
      2.91120820e-03 4.36681230e-03 5.82241639e-03 2.91120820e-03
      1.45560410e-03 4.36681230e-03</_>
    <_>
      0. 9.19842254e-03 3.41655724e-02 2.62812083e-03 7.88436271e-03
      1.31406041e-03 6.57030195e-03 0. 9.19842254e-03 0. 0.
      2.62812083e-03 0. 0. 1.31406041e-03 0. 0. 1.31406041e-03 0. 0.
      3.94218136e-03 0. 1.31406041e-03 1.83968451e-02 0. 0.
      3.94218136e-03 0. 0. 2.62812083e-03 2.62812083e-03 0. 0.
      3.94218136e-03 7.88436271e-03 2.62812083e-03 1.31406041e-03 0. 0.
      0. 0. 0. 0. 0. 1.05124833e-02 1.31406041e-03 2.62812083e-03
      2.62812083e-03 1.31406041e-03 0. 0. 0. 0. 1.31406041e-03
      1.31406041e-03 2.62812083e-03 2.62812083e-03 1.31406041e-03
      1.57687254e-02 0. 1.31406041e-03 0. 2.23390274e-02 0.
      5.25624165e-03 0. 0. 0. 0. 0. 1.44546647e-02 1.31406041e-03
      2.62812083e-03 2.62812083e-03 3.41655724e-02 0. 0. 3.94218136e-03
      1.31406041e-03 0. 1.31406041e-03 0. 1.31406041e-03 0.
      2.62812083e-03 0. 0. 0. 6.83311448e-02 3.94218136e-03
      1.31406041e-03 2.62812083e-03 0. 0. 2.62812083e-03 1.31406041e-03
      5.25624165e-03 0. 0. 0. 1.83968451e-02 0. 2.62812083e-03 0.
      2.62812083e-03 2.62812083e-03 0. 1.31406041e-03 0. 0. 0.
      2.10249666e-02 0. 0. 1.31406041e-03 1.31406039e-02 0. 0.
      3.94218136e-03 1.31406041e-03 0. 5.25624165e-03 0. 1.31406041e-03
      0. 0. 1.31406041e-03 2.62812083e-03 0. 0. 0. 3.94218136e-03
      1.31406041e-03 1.31406041e-03 2.62812083e-03 0. 9.19842254e-03
      1.31406041e-03 3.15374509e-02 0. 0. 1.05124833e-02 0.
      1.31406041e-03 0. 0. 0. 1.31406041e-03 0. 6.57030195e-03 0.
      2.62812083e-03 0. 1.31406041e-03 0. 0. 3.94218117e-02 0.
      9.19842254e-03 1.31406041e-03 7.88436234e-02 2.62812083e-03
      3.94218136e-03 2.62812078e-02 1.31406041e-03 1.31406041e-03
      3.94218136e-03 0. 0. 2.10249666e-02 0. 2.62812083e-03
      2.62812083e-03 9.19842254e-03 0. 1.31406041e-03 0. 1.31406041e-03
      6.57030195e-03 2.36530881e-02 3.94218136e-03 0. 1.31406041e-03
      2.02365309e-01 0. 1.44546647e-02 5.25624165e-03 0. 0. 0.
      1.31406041e-03 1.31406041e-03 2.62812083e-03 1.31406041e-03
      1.31406039e-02 3.94218136e-03 1.31406041e-03 9.19842254e-03 0. 0.</_>
    <_>
      0. 4.01234552e-02 0. 3.08641978e-03 3.08641978e-03 6.17283955e-03
      0. 0. 3.08641978e-03 0. 0. 6.17283955e-03 0. 0. 0. 9.25925933e-03
      9.25925933e-03 1.23456791e-02 3.08641978e-03 0. 0. 0.
      6.17283955e-03 1.23456791e-02 0. 0. 9.25925933e-03 0. 0.
      3.08641978e-03 3.08641978e-03 0. 0. 3.08641978e-03 4.32098769e-02
      0. 1.54320989e-02 0. 3.08641978e-03 3.08641978e-03 3.08641978e-03
      0. 3.08641978e-03 0. 9.25925933e-03 3.08641978e-03 0.
      3.08641978e-03 0. 0. 3.08641978e-03 0. 0. 3.08641978e-03
      6.17283955e-03 0. 0. 0. 3.39506194e-02 0. 3.08641978e-03 0.
      6.17283955e-03 0. 0. 0. 9.25925933e-03 0. 0. 0. 6.17283955e-03
      3.08641978e-03 9.25925933e-03 3.08641978e-03 0. 0. 0.
      3.08641978e-03 0. 0. 0. 0. 0. 0. 3.08641978e-03 0. 3.08641978e-03
      0. 9.25925970e-02 1.23456791e-02 3.08641978e-03 0. 0.
      3.08641978e-03 0. 0. 1.85185187e-02 0. 1.23456791e-02 0.
      4.01234552e-02 0. 0. 1.85185187e-02 0. 3.08641978e-03 0.
      3.08641978e-03 3.08641978e-03 3.08641978e-03 1.85185187e-02 0. 0.
      0. 0. 3.08641978e-03 9.25925933e-03 0. 9.25925933e-03 0. 0. 0. 0.
      0. 0. 0. 0. 1.23456791e-02 0. 0. 0. 0. 9.25925933e-03 0. 0.
      3.08641978e-03 1.23456791e-02 0. 4.62962985e-02 0. 0.
      3.08641978e-03 0. 3.08641978e-03 6.17283955e-03 0. 0.
      3.08641978e-03 0. 0. 0. 0. 0. 3.08641978e-03 0. 6.17283955e-03
      1.23456791e-02 0. 1.17283955e-01 3.08641978e-03 3.39506194e-02
      3.08641978e-03 9.25925933e-03 9.25925933e-03 0. 3.08641978e-03 0.
      0. 0. 2.16049384e-02 0. 0. 0. 3.08641978e-03 0. 3.39506194e-02
      3.08641978e-03 0. 0. 3.08641978e-03 3.08641978e-03 0.
      6.17283955e-03 1.54320989e-02 0. 6.17283955e-03 3.08641978e-03 0.
      0. 6.17283955e-03 0. 0. 0. 0. 1.85185187e-02 0. 3.08641978e-03
      6.17283955e-03 0. 0.</_>
    <_>
      1.32860942e-03 8.85739573e-04 1.15146143e-02 4.87156771e-03
      4.42869775e-03 4.42869775e-03 1.59433130e-02 3.98582825e-03
      3.54295829e-03 3.10008856e-03 6.64304662e-03 1.77147910e-02
      8.85739573e-04 8.85739573e-04 6.64304662e-03 3.10008856e-03
      4.42869787e-04 3.10008856e-03 3.10008856e-03 4.42869787e-04
      4.87156771e-03 8.85739573e-04 8.85739573e-04 1.77147915e-03
      7.97165651e-03 1.32860942e-03 5.75730717e-03 0. 2.65721884e-03
      2.65721884e-03 3.54295829e-03 3.54295829e-03 7.52878655e-03
      1.06288753e-02 1.32860932e-02 3.10008856e-03 2.65721884e-03
      2.65721884e-03 4.87156771e-03 1.77147915e-03 3.10008856e-03
      2.21434887e-03 2.65721884e-03 4.42869787e-04 3.54295829e-03
      6.64304662e-03 6.20017713e-03 3.10008856e-03 4.42869787e-04
      3.10008856e-03 3.10008856e-03 1.32860942e-03 1.77147915e-03
      8.85739573e-04 3.54295829e-03 3.54295829e-03 2.65721884e-03
      4.87156771e-03 4.96014170e-02 4.87156771e-03 1.32860942e-03
      3.54295829e-03 2.17006188e-02 1.32860942e-03 6.64304662e-03
      2.21434887e-03 8.85739573e-04 2.21434887e-03 2.65721884e-03
      4.87156771e-03 4.42869775e-03 4.87156771e-03 5.75730717e-03
      1.55004421e-02 6.20017713e-03 2.65721884e-03 8.85739573e-04 0.
      1.77147915e-03 3.10008856e-03 8.85739573e-04 4.42869787e-04
      7.52878655e-03 8.85739550e-03 1.24003543e-02 5.31443767e-03
      1.15146143e-02 1.77147915e-03 9.30026546e-03 2.87865363e-02
      6.20017713e-03 1.77147915e-03 8.85739550e-03 4.42869787e-04
      1.77147915e-03 3.54295829e-03 6.64304662e-03 2.21434887e-03
      2.65721884e-03 0. 1.46147031e-02 2.21434887e-03 4.87156771e-03
      2.21434887e-03 0. 4.42869775e-03 5.31443767e-03 5.31443767e-03
      8.85739573e-04 1.77147915e-03 3.10008856e-03 3.54295829e-03
      2.03720108e-02 4.87156771e-03 4.42869787e-04 2.65721884e-03
      1.06288753e-02 1.77147915e-03 3.10008856e-03 3.54295829e-03
      4.42869775e-03 3.54295829e-03 3.10008856e-03 1.77147915e-03
      4.42869775e-03 3.54295829e-03 2.65721884e-03 1.32860942e-03
      1.77147915e-03 8.85739573e-04 0. 9.74313542e-03 2.21434887e-03
      6.20017713e-03 8.85739573e-04 4.42869787e-04 1.77147910e-02 0.
      2.87865363e-02 2.21434887e-03 8.85739573e-04 5.31443767e-03
      3.54295829e-03 3.98582825e-03 1.77147915e-03 1.32860942e-03
      1.77147915e-03 5.31443767e-03 3.10008856e-03 3.98582825e-03
      3.10008856e-03 3.98582825e-03 1.32860942e-03 1.06288753e-02
      3.98582825e-03 2.21434887e-03 1.32860942e-03 0. 7.08591659e-03
      7.97165651e-03 2.65721865e-02 5.31443767e-03 1.68290511e-02
      7.97165651e-03 8.85739573e-04 3.54295829e-03 3.54295829e-03
      4.42869775e-03 6.64304662e-03 2.21434887e-03 8.85739573e-04
      8.85739573e-04 8.85739573e-04 2.21434887e-02 2.65721884e-03
      7.08591659e-03 3.10008856e-03 1.77147915e-03 2.21434887e-03
      2.21434887e-03 4.87156771e-03 0. 2.65721865e-02 5.75730717e-03
      5.31443767e-03 4.87156771e-03 6.64304662e-03 3.54295829e-03
      2.65721884e-03 3.98582825e-03 2.65721884e-03 8.85739573e-04
      5.31443767e-03 8.85739573e-04 2.08148807e-02 1.77147915e-03
      2.65721884e-03 4.87156771e-03 1.77147915e-03 7.97165651e-03</_>
    <_>
      0. 3.44827585e-03 2.06896551e-02 3.44827585e-03 0. 6.89655170e-03
      3.44827585e-03 0. 3.44827585e-03 1.03448275e-02 3.44827585e-03
      1.37931034e-02 0. 3.44827585e-03 6.89655170e-03 3.44827585e-03 0.
      6.89655170e-03 3.44827585e-03 0. 2.06896551e-02 0. 3.44827585e-03
      3.44827585e-03 1.03448275e-02 1.37931034e-02 0. 0. 3.44827585e-03
      0. 0. 0. 0. 1.37931034e-02 1.37931034e-02 0. 0. 0. 0.
      3.44827585e-03 1.03448275e-02 6.89655170e-03 3.44827585e-03 0. 0.
      0. 3.44827585e-03 3.44827585e-03 0. 0. 0. 0. 3.44827585e-03 0.
      3.44827585e-03 0. 0. 0. 3.79310325e-02 3.44827585e-03 0. 0.
      1.03448275e-02 0. 2.06896551e-02 0. 3.44827585e-03 0. 0.
      3.44827585e-03 3.44827585e-03 3.44827585e-03 1.37931034e-02 0.
      1.03448275e-02 3.44827585e-03 0. 0. 1.37931034e-02 3.44827585e-03
      0. 0. 1.03448275e-02 1.03448275e-02 3.44827585e-03 6.89655170e-03
      3.44827585e-03 0. 3.79310325e-02 3.44827585e-03 6.89655170e-03
      3.44827585e-03 0. 0. 0. 3.44827585e-03 1.03448275e-02
      6.89655170e-03 0. 0. 1.37931034e-02 0. 3.44827585e-03 0. 0.
      1.03448275e-02 6.89655170e-03 0. 3.44827585e-03 0. 6.89655170e-03
      1.03448275e-02 2.41379309e-02 0. 0. 0. 3.44827585e-03 0. 0.
      1.03448275e-02 1.37931034e-02 3.44827585e-03 0. 0. 0. 0. 0. 0.
      6.89655170e-03 0. 0. 6.89655170e-03 6.89655170e-03 6.89655170e-03
      6.89655170e-03 0. 6.89655170e-02 6.89655170e-03 2.75862068e-02
      3.44827585e-03 6.89655170e-03 6.89655170e-03 0. 6.89655170e-03 0.
      6.89655170e-03 6.89655170e-03 1.37931034e-02 0. 0. 0. 0. 0.
      3.44827585e-03 3.44827585e-03 3.44827585e-03 0. 0. 3.44827585e-03
      1.03448275e-02 2.41379309e-02 6.89655170e-03 1.03448275e-02
      1.72413792e-02 0. 3.44827585e-03 2.06896551e-02 3.44827585e-03
      6.89655170e-03 3.44827585e-03 0. 3.44827585e-03 0. 3.44827585e-03
      0. 6.89655170e-03 1.37931034e-02 6.89655170e-03 0. 3.44827585e-03
      3.44827585e-03 0. 3.44827585e-03 0. 1.37931034e-02 1.37931034e-02
      3.44827585e-03 6.89655170e-03 0. 3.44827585e-03 0. 0.
      1.03448275e-02 0. 2.06896551e-02 0. 3.44827585e-03 0. 0.
      6.89655170e-03</_>
    <_>
      0. 1.54494382e-02 2.80898879e-03 4.21348307e-03 1.54494382e-02
      7.02247210e-03 2.80898879e-03 2.66853943e-02 1.40449440e-03
      8.42696615e-03 1.26404492e-02 9.83146112e-03 0. 1.40449440e-03
      2.80898879e-03 2.80898879e-03 1.40449440e-03 1.40449440e-03
      2.80898879e-03 1.40449440e-03 7.02247210e-03 0. 1.40449440e-03
      4.21348307e-03 9.83146112e-03 4.21348307e-03 2.80898879e-03 0.
      4.21348307e-03 1.40449440e-03 1.40449440e-03 0. 0. 1.40449440e-03
      1.40449442e-02 1.40449440e-03 1.40449440e-03 2.80898879e-03
      5.61797759e-03 1.40449440e-03 2.80898879e-03 0. 0. 1.40449440e-03
      1.40449440e-03 2.80898879e-03 1.68539323e-02 5.61797759e-03
      2.80898879e-03 1.12359552e-02 1.40449440e-03 1.40449440e-03
      5.61797759e-03 2.80898879e-03 9.83146112e-03 0. 0. 0.
      2.66853943e-02 0. 1.40449440e-03 1.40449440e-03 9.83146112e-03 0.
      4.21348307e-03 2.80898879e-03 0. 5.61797759e-03 0. 2.80898879e-03
      4.21348307e-03 1.40449440e-03 1.26404492e-02 8.42696615e-03
      5.61797759e-03 1.96629222e-02 0. 1.40449440e-03 2.80898879e-03
      2.80898879e-03 1.40449440e-03 0. 1.40449440e-03 4.21348307e-03 0.
      4.21348307e-03 5.61797759e-03 0. 0. 5.61797759e-03 8.42696615e-03
      4.21348307e-03 0. 5.61797759e-03 7.02247210e-03 2.80898879e-03
      1.96629222e-02 2.38764044e-02 4.21348307e-03 0. 1.54494382e-02
      2.80898879e-03 4.21348307e-03 4.21348307e-03 4.21348307e-03
      1.40449440e-03 4.21348307e-03 1.40449440e-03 0. 1.40449440e-03
      4.21348307e-03 2.80898879e-03 9.83146112e-03 5.61797759e-03 0.
      1.26404492e-02 1.82584263e-02 4.21348307e-03 4.21348307e-03
      5.61797759e-03 5.61797759e-03 0. 9.83146112e-03 0. 0.
      1.40449440e-03 0. 2.80898879e-03 1.40449440e-03 0. 0.
      1.40449442e-02 0. 7.02247210e-03 0. 0. 8.42696615e-03
      5.61797759e-03 7.30337054e-02 2.80898879e-03 2.80898879e-03
      1.40449442e-02 0. 2.80898879e-03 4.21348307e-03 2.80898879e-03
      2.80898879e-03 9.83146112e-03 0. 2.80898879e-03 1.40449440e-03
      2.80898879e-03 4.21348307e-03 1.82584263e-02 2.80898879e-03
      8.42696615e-03 1.40449440e-03 0. 2.24719103e-02 5.61797759e-03
      1.54494382e-02 2.80898879e-03 1.54494382e-02 5.61797759e-03
      2.80898879e-03 4.21348307e-03 2.80898879e-03 1.12359552e-02
      1.12359552e-02 5.61797759e-03 0. 1.40449440e-03 0. 8.42696615e-03
      0. 5.61797759e-03 0. 1.40449440e-03 4.21348307e-03 0.
      1.26404492e-02 0. 5.61797759e-03 0. 9.83146112e-03 5.61797759e-03
      7.02247210e-03 4.21348307e-03 1.40449440e-03 2.80898879e-03
      2.80898879e-03 1.40449440e-03 4.21348307e-03 0. 5.61797759e-03
      1.40449440e-03 1.40449440e-03 0. 0. 2.38764044e-02</_>
    <_>
      0. 1.06382975e-02 5.31914877e-03 5.31914877e-03 5.31914877e-03
      1.06382975e-02 1.59574468e-02 0. 1.06382975e-02 0. 0.
      1.59574468e-02 0. 1.06382975e-02 5.31914877e-03 0. 0. 0. 0. 0.
      5.31914877e-03 0. 0. 5.31914877e-03 5.31914877e-03 0. 0. 0. 0. 0.
      0. 0. 0. 3.72340418e-02 1.59574468e-02 0. 0. 5.31914877e-03 0. 0.
      5.31914877e-03 0. 0. 5.31914877e-03 0. 5.31914877e-03
      1.06382975e-02 0. 0. 1.59574468e-02 5.31914877e-03 0.
      5.31914877e-03 0. 3.72340418e-02 5.31914877e-03 0. 2.65957434e-02
      2.12765951e-02 0. 5.31914877e-03 5.31914877e-03 7.44680837e-02 0.
      1.06382975e-02 1.06382975e-02 0. 0. 0. 1.59574468e-02 0. 0. 0.
      5.31914877e-03 5.31914867e-02 0. 0. 5.31914877e-03 0. 0. 0. 0. 0.
      5.31914877e-03 5.31914877e-03 0. 0. 0. 0. 0. 5.31914877e-03 0. 0.
      0. 0. 1.06382975e-02 2.12765951e-02 1.06382975e-02 0. 0. 0. 0. 0.
      1.06382975e-02 0. 0. 0. 1.06382975e-02 0. 0. 0. 2.12765951e-02
      5.31914877e-03 0. 0. 0. 1.06382975e-02 0. 5.31914877e-03 0.
      1.59574468e-02 0. 2.12765951e-02 0. 0. 0. 0. 5.31914877e-03 0. 0.
      0. 0. 0. 5.31914877e-03 0. 0. 5.31914877e-03 0. 5.85106350e-02 0.
      0. 0. 0. 0. 0. 0. 0. 0. 0. 0. 5.31914877e-03 0. 0. 1.06382975e-02
      1.06382975e-02 0. 0. 0. 1.06382975e-02 1.06382975e-02
      6.91489354e-02 0. 5.31914877e-03 3.19148935e-02 0. 0.
      5.31914877e-03 0. 0. 5.31914877e-03 0. 0. 5.31914877e-03 0. 0.
      5.31914877e-03 0. 5.31914877e-03 0. 0. 5.31914877e-03 0. 0. 0.
      1.06382975e-02 0. 0. 5.31914877e-03 5.31914877e-03 5.31914877e-03
      2.65957434e-02 0. 0. 0. 1.59574468e-02 0. 5.31914877e-03
      5.31914877e-03 0. 0.</_>
    <_>
      0. 0. 4.40528616e-03 1.32158585e-02 0. 4.40528616e-03
      2.64317170e-02 1.76211447e-02 0. 4.40528616e-03 4.40528616e-03
      1.32158585e-02 0. 0. 0. 4.40528616e-03 0. 0. 4.40528616e-03 0.
      1.32158585e-02 0. 0. 4.40528616e-03 0. 4.40528616e-03 0. 0.
      4.40528616e-03 0. 0. 0. 0. 4.40528616e-03 4.40528616e-03
      4.40528616e-03 4.40528616e-03 4.40528616e-03 8.81057233e-03 0.
      8.81057233e-03 8.81057233e-03 0. 0. 8.81057233e-03 4.40528616e-03
      4.40528616e-03 0. 0. 8.81057233e-03 0. 0. 4.40528616e-03 0.
      8.81057233e-03 0. 0. 8.81057233e-03 3.52422893e-02 4.40528616e-03
      0. 0. 3.96475755e-02 0. 8.81057233e-03 4.40528616e-03
      8.81057233e-03 0. 0. 4.40528616e-03 0. 0. 4.40528616e-03 0.
      8.81057233e-03 0. 0. 8.81057233e-03 4.40528616e-03 4.40528616e-03
      0. 0. 0. 4.40528616e-03 4.40528616e-03 1.32158585e-02
      1.76211447e-02 8.81057233e-03 8.81057233e-03 4.40528616e-03
      4.40528616e-03 8.81057233e-03 4.40528616e-03 0. 4.40528616e-03 0.
      1.76211447e-02 0. 0. 0. 4.40528616e-03 0. 8.81057233e-03
      8.81057233e-03 0. 4.40528616e-03 4.40528616e-03 0. 0. 0. 0.
      1.76211447e-02 4.40528616e-03 0. 0. 4.40528616e-03 8.81057233e-03
      0. 4.40528616e-03 1.32158585e-02 1.76211447e-02 4.40528616e-03
      4.40528616e-03 0. 0. 0. 0. 4.40528616e-03 0. 0. 0. 1.32158585e-02
      0. 4.40528616e-03 4.40528616e-03 0. 6.60792887e-02 0.
      7.04845786e-02 4.40528616e-03 4.40528616e-03 0. 0. 0. 0. 0.
      8.81057233e-03 1.32158585e-02 0. 8.81057233e-03 0. 8.81057233e-03
      0. 8.81057233e-03 0. 4.40528616e-03 0. 0. 8.81057233e-03
      1.76211447e-02 3.08370031e-02 4.40528616e-03 1.76211447e-02
      8.81057233e-03 4.40528616e-03 0. 0. 4.40528616e-03 1.32158585e-02
      0. 0. 0. 0. 8.81057233e-03 0. 0. 0. 8.81057233e-03 4.40528616e-03
      0. 4.40528616e-03 0. 4.40528616e-03 0. 1.76211447e-02 0.
      4.40528616e-03 1.32158585e-02 0. 0. 0. 0. 1.76211447e-02 0.
      4.40528616e-03 0. 0. 0. 0. 8.81057233e-03</_>
    <_>
      0. 1.82926822e-02 3.04878037e-03 0. 0. 6.09756075e-03
      6.09756075e-03 6.09756075e-03 0. 1.21951215e-02 9.14634112e-03
      6.09756075e-03 0. 0. 3.04878037e-03 3.04878037e-03 0. 0.
      6.09756075e-03 0. 0. 3.04878037e-03 3.04878037e-03 6.09756075e-03
      6.09756075e-03 0. 1.21951215e-02 0. 0. 0. 0. 0. 0. 6.09756075e-03
      6.09756075e-03 3.04878037e-03 0. 3.04878037e-03 3.04878037e-03
      3.04878037e-03 3.04878037e-03 1.21951215e-02 0. 0. 3.04878037e-03
      3.04878037e-03 3.04878037e-03 1.21951215e-02 3.04878037e-03
      3.04878037e-03 3.04878037e-03 6.09756075e-03 9.14634112e-03 0.
      9.14634112e-03 0. 3.04878037e-03 1.21951215e-02 2.74390243e-02 0.
      0. 0. 4.57317047e-02 0. 9.14634112e-03 0. 0. 0. 0. 0. 0. 0. 0. 0.
      3.04878037e-02 1.82926822e-02 3.04878037e-03 9.14634112e-03 0.
      3.04878037e-03 0. 0. 0. 0. 0. 0. 3.04878037e-03 0. 9.14634112e-03
      3.04878037e-03 3.04878037e-03 3.04878037e-03 0. 0. 3.04878037e-03
      0. 6.09756075e-03 1.21951215e-02 0. 0. 3.04878037e-03 0. 0. 0. 0.
      0. 0. 0. 3.04878037e-03 0. 0. 9.14634112e-03 9.14634112e-03
      3.04878037e-03 0. 6.09756075e-03 6.09756075e-03 0. 0.
      3.04878037e-03 3.04878037e-03 0. 3.04878037e-03 0. 0.
      3.04878037e-03 0. 0. 6.09756075e-03 3.04878037e-03 0.
      3.04878037e-03 0. 6.09756075e-03 0. 0. 6.09756075e-03
      3.04878037e-03 8.53658468e-02 0. 9.14634112e-03 0. 6.09756075e-03
      9.14634112e-03 3.04878037e-03 0. 1.21951215e-02 3.04878037e-03 0.
      0. 0. 0. 0. 9.14634112e-03 0. 0. 3.04878037e-03 0. 2.43902430e-02
      0. 1.28048778e-01 6.09756075e-03 6.09756075e-03 2.43902430e-02 0.
      3.04878037e-03 2.74390243e-02 3.04878037e-03 0. 0. 0.
      3.04878037e-03 0. 3.04878037e-03 0. 0. 5.48780486e-02
      6.09756075e-03 0. 0. 6.09756075e-03 0. 3.04878037e-03
      2.13414617e-02 3.04878037e-03 0. 0. 6.09756075e-03 3.04878037e-03
      3.04878037e-03 9.14634112e-03 0. 0. 0. 1.82926822e-02 0. 0.
      3.04878037e-03 0. 6.09756075e-03</_></support_vectors>
  <decision_functions>
    <_>
      <sv_count>16</sv_count>
      <rho>-9.7236440280543823e-01</rho>
      <alpha>
        2.7251326760715858e-03 6.6877780825015354e-01
        2.2897632510290536e-01 7.0244609116618950e-01 1.
        2.8720508105942810e-01 6.9327179015580276e-02
        8.5540509660240549e-01 2.7760445138302389e-02
        1.5737684098896387e-01 1. -1. -1. -1. -1. -1.</alpha>
      <index>
        0 1 2 3 4 5 6 7 8 9 10 11 12 13 14 15</index></_></decision_functions></my_svm>
</opencv_storage>
