<?xml version="1.0"?>
<opencv_storage>
<my_svm type_id="opencv-ml-svm">
  <svm_type>C_SVC</svm_type>
  <kernel><type>RBF</type>
    <gamma>1.</gamma></kernel>
  <C>1.</C>
  <term_criteria><epsilon>1.1920928955078125e-07</epsilon>
    <iterations>1000</iterations></term_criteria>
  <var_all>200</var_all>
  <var_count>200</var_count>
  <class_count>2</class_count>
  <class_labels type_id="opencv-matrix">
    <rows>1</rows>
    <cols>2</cols>
    <dt>i</dt>
    <data>
      0 1</data></class_labels>
  <sv_total>24</sv_total>
  <support_vectors>
    <_>
      3.71747208e-03 5.57620823e-03 4.64684004e-03 4.64684004e-03
      5.57620823e-03 3.71747208e-03 6.50557596e-03 7.43494416e-03
      4.64684004e-03 5.57620823e-03 2.78810412e-03 1.30111519e-02
      2.78810412e-03 9.29368020e-04 1.20817842e-02 6.50557596e-03 0.
      9.29368020e-04 1.11524165e-02 2.78810412e-03 0. 2.78810412e-03
      5.57620823e-03 3.71747208e-03 8.36431235e-03 2.78810412e-03
      1.85873604e-03 9.29368020e-04 2.78810412e-03 5.57620823e-03
      1.85873604e-03 2.78810412e-03 9.29368008e-03 5.57620823e-03
      1.85873604e-03 9.29368020e-04 5.57620823e-03 9.29368020e-04
      2.78810412e-03 5.57620823e-03 1.85873604e-03 6.50557596e-03
      2.78810412e-03 8.36431235e-03 3.71747208e-03 9.29368020e-04
      6.50557596e-03 4.64684004e-03 6.50557596e-03 5.57620823e-03
      1.57992560e-02 9.29368020e-04 3.71747208e-03 4.64684004e-03
      1.85873604e-03 5.57620823e-03 1.67286247e-02 1.02230478e-02
      3.71747208e-03 9.29368020e-04 3.71747208e-03 3.71747208e-03
      4.64684004e-03 8.36431235e-03 7.43494416e-03 1.95167288e-02
      1.39405206e-02 7.43494416e-03 4.64684004e-03 4.64684004e-03 0.
      7.43494416e-03 9.29368008e-03 3.71747208e-03 3.71747208e-03 0.
      9.29368020e-04 3.71747208e-03 3.71747208e-03 9.29368020e-04
      5.57620823e-03 3.71747208e-03 1.02230478e-02 9.29368020e-04
      8.36431235e-03 7.43494416e-03 7.43494416e-03 9.29368020e-04
      5.57620823e-03 9.29368020e-04 1.02230478e-02 3.71747208e-03
      1.02230478e-02 9.29368008e-03 5.57620823e-03 4.64684004e-03
      1.30111519e-02 9.29368020e-04 3.71747208e-03 0. 9.29368020e-04
      6.50557596e-03 9.29368020e-04 6.50557596e-03 1.30111519e-02
      9.29368020e-04 3.71747208e-03 4.64684004e-03 4.64684004e-03
      2.78810412e-03 6.50557596e-03 4.64684004e-03 0. 2.78810412e-03
      4.64684004e-03 0. 6.50557596e-03 5.57620823e-03 9.29368020e-04
      1.30111519e-02 5.57620823e-03 2.78810412e-03 9.29368008e-03
      9.29368020e-04 4.64684004e-03 4.64684004e-03 3.71747208e-03
      7.43494416e-03 9.29368020e-04 7.43494416e-03 6.50557596e-03
      9.29368008e-03 3.71747208e-03 5.57620823e-03 4.64684004e-03
      4.64684004e-03 1.85873604e-03 1.85873604e-03 1.57992560e-02
      1.20817842e-02 5.57620823e-03 1.85873604e-03 3.71747208e-03
      9.29368008e-03 2.78810412e-03 2.78810412e-03 0. 4.64684004e-03
      3.71747208e-03 1.85873604e-03 3.71747208e-03 8.36431235e-03
      9.29368008e-03 3.71747208e-03 1.85873604e-03 9.29368020e-04
      1.85873604e-03 2.78810412e-03 3.71747208e-03 3.71747208e-03
      4.64684004e-03 4.64684004e-03 9.29368008e-03 2.60223038e-02
      3.71747208e-03 0. 3.71747208e-03 9.29368020e-04 1.85873604e-03
      9.29368008e-03 0. 3.71747208e-03 1.02230478e-02 1.02230478e-02
      5.57620823e-03 3.71747208e-03 1.85873604e-03 2.78810412e-03
      4.64684004e-03 0. 0. 4.64684004e-03 0. 9.29368008e-03
      1.85873604e-03 7.43494416e-03 1.48698883e-02 3.71747208e-03
      6.50557596e-03 7.43494416e-03 4.64684004e-03 3.71747208e-03
      1.02230478e-02 2.78810412e-03 5.57620823e-03 2.78810412e-03
      4.64684004e-03 5.57620823e-03 4.64684004e-03 1.85873604e-03</_>
    <_>
      6.66222535e-03 4.66355775e-03 7.32844789e-03 2.66489014e-03
      9.99333803e-03 2.66489014e-03 3.99733521e-03 5.32978028e-03
      5.99600282e-03 9.99333803e-03 2.66489014e-03 1.33244507e-02
      2.66489014e-03 1.99866761e-03 8.66089296e-03 4.66355775e-03 0.
      1.33244507e-03 5.32978028e-03 3.33111268e-03 0. 3.33111268e-03
      5.32978028e-03 3.33111268e-03 1.19920056e-02 1.33244507e-03
      7.32844789e-03 3.33111268e-03 4.66355775e-03 2.66489014e-03
      1.99866761e-03 3.33111268e-03 1.06595606e-02 1.33244507e-02
      3.99733521e-03 6.66222535e-04 1.99866761e-03 3.33111268e-03
      1.99866761e-03 4.66355775e-03 3.33111268e-03 6.66222535e-03
      5.99600282e-03 3.33111268e-03 2.66489014e-03 2.66489014e-03
      3.99733521e-03 4.66355775e-03 1.33244507e-03 3.33111268e-03
      2.93137915e-02 3.33111268e-03 3.33111268e-03 4.66355775e-03
      3.99733521e-03 7.99467042e-03 1.19920056e-02 1.19920056e-02
      1.19920056e-02 2.66489014e-03 1.33244507e-03 5.32978028e-03
      2.66489014e-03 6.66222535e-04 3.99733521e-03 1.19920056e-02
      5.32978028e-03 5.32978028e-03 4.66355775e-03 2.66489014e-03
      9.99333803e-03 9.99333803e-03 5.99600282e-03 1.33244507e-03
      6.66222535e-03 6.66222535e-04 6.66222535e-04 6.66222535e-03
      4.66355775e-03 2.66489014e-03 2.66489014e-03 4.66355775e-03
      3.33111268e-03 4.66355775e-03 3.99733521e-03 5.99600282e-03
      1.53231183e-02 4.66355775e-03 3.99733521e-03 1.99866761e-03
      5.99600282e-03 3.33111268e-03 3.33111268e-03 4.66355775e-03
      1.99866761e-03 0. 5.99600282e-03 1.99866761e-03 3.99733521e-03 0.
      6.66222535e-03 3.33111268e-03 5.32978028e-03 1.99866761e-03
      7.32844789e-03 5.99600282e-03 6.66222535e-04 1.99866761e-03
      1.99866761e-03 1.99866761e-03 3.99733521e-03 6.66222535e-03
      2.66489014e-03 1.99866761e-03 3.99733521e-03 4.66355775e-03
      1.33244507e-03 2.66489014e-03 5.32978028e-03 9.32711549e-03
      3.99733521e-03 1.99866761e-03 8.66089296e-03 1.99866761e-03
      1.26582282e-02 5.99600282e-03 6.66222535e-04 2.66489014e-03
      2.66489014e-03 3.33111268e-03 3.99733521e-03 3.99733521e-03
      3.33111268e-03 3.33111268e-03 3.33111268e-03 2.66489014e-03
      9.32711549e-03 1.99866761e-03 1.93204544e-02 1.46568958e-02
      2.66489014e-03 2.66489014e-03 1.99866761e-03 6.66222535e-03
      1.33244507e-03 4.66355775e-03 0. 2.66489014e-03 5.32978028e-03
      3.99733521e-03 9.32711549e-03 6.66222535e-03 7.32844789e-03
      1.33244507e-03 7.32844789e-03 0. 3.33111268e-03 2.06528977e-02
      4.66355775e-03 3.99733521e-03 1.13257831e-02 0. 1.99866761e-03
      2.19853446e-02 4.66355775e-03 7.32844789e-03 3.99733521e-03 0.
      5.99600282e-03 5.99600282e-03 6.66222535e-03 1.33244507e-03
      5.99600282e-03 3.33111268e-03 4.66355775e-03 5.32978028e-03
      3.99733521e-03 2.66489014e-03 5.32978028e-03 0. 0. 4.66355775e-03
      0. 1.33244507e-02 7.99467042e-03 1.06595606e-02 1.33244507e-02
      3.99733521e-03 6.66222535e-03 5.32978028e-03 7.32844789e-03
      3.99733521e-03 5.99600282e-03 1.33244507e-03 2.66489014e-03
      2.66489014e-03 5.32978028e-03 5.32978028e-03 1.06595606e-02
      1.33244507e-03</_>
    <_>
      5.03355730e-03 0. 8.38926155e-03 0. 6.71140943e-03 0.
      6.71140943e-03 3.35570471e-03 3.35570471e-03 1.34228189e-02
      5.03355730e-03 1.84563752e-02 6.71140943e-03 5.03355730e-03
      1.67785236e-03 8.38926155e-03 0. 0. 1.00671146e-02 0.
      1.67785236e-03 1.67785236e-03 1.00671146e-02 8.38926155e-03
      3.35570471e-03 3.35570471e-03 0. 8.38926155e-03 1.67785236e-03
      6.71140943e-03 0. 6.71140943e-03 1.34228189e-02 1.67785231e-02
      1.67785236e-03 0. 5.03355730e-03 3.35570471e-03 3.35570471e-03
      8.38926155e-03 5.03355730e-03 1.67785236e-03 0. 6.71140943e-03
      5.03355730e-03 0. 1.51006710e-02 1.67785236e-03 0. 0.
      5.03355730e-03 0. 3.35570471e-03 3.35570471e-03 6.71140943e-03
      8.38926155e-03 1.51006710e-02 5.03355730e-03 1.51006710e-02 0.
      1.67785236e-03 5.03355730e-03 5.03355730e-03 6.71140943e-03
      3.35570471e-03 1.67785231e-02 6.71140943e-03 6.71140943e-03
      5.03355730e-03 3.35570471e-03 8.38926155e-03 1.00671146e-02
      3.35570471e-03 3.35570471e-03 8.38926155e-03 0. 0. 0. 0.
      5.03355730e-03 1.67785236e-03 1.67785236e-03 5.03355730e-03
      1.67785236e-03 8.38926155e-03 6.71140943e-03 1.00671146e-02
      3.35570471e-03 6.71140943e-03 0. 6.71140943e-03 0. 1.00671146e-02
      3.35570471e-03 5.03355730e-03 3.35570471e-03 6.71140943e-03 0.
      3.35570471e-03 0. 8.38926155e-03 1.00671146e-02 1.67785236e-03
      1.67785236e-03 1.51006710e-02 3.35570471e-03 0. 1.67785236e-03
      3.35570471e-03 1.67785236e-03 5.03355730e-03 5.03355730e-03
      1.67785236e-03 3.35570471e-03 3.35570471e-03 0. 0. 5.03355730e-03
      0. 1.67785231e-02 1.67785236e-03 1.67785236e-03 1.00671146e-02 0.
      1.17449667e-02 5.03355730e-03 1.67785236e-03 1.67785236e-03 0.
      1.67785236e-03 5.03355730e-03 1.67785236e-03 3.35570471e-03
      1.67785236e-03 1.17449667e-02 6.71140943e-03 3.35570471e-03
      5.03355730e-03 2.85234898e-02 1.17449667e-02 5.03355730e-03 0.
      5.03355730e-03 1.17449667e-02 0. 1.00671146e-02 0. 3.35570471e-03
      8.38926155e-03 1.67785236e-03 3.35570471e-03 5.03355730e-03
      1.67785236e-03 3.35570471e-03 3.35570471e-03 1.67785236e-03
      8.38926155e-03 6.71140943e-03 3.35570471e-03 1.67785236e-03
      1.67785236e-03 1.00671146e-02 6.71140943e-03 5.20134233e-02
      1.67785236e-03 3.35570471e-03 3.35570471e-03 0. 1.00671146e-02
      5.03355730e-03 0. 1.00671146e-02 3.35570471e-03 0. 5.03355730e-03
      3.35570471e-03 3.35570471e-03 3.35570471e-03 6.71140943e-03 0. 0.
      3.35570471e-03 0. 1.00671146e-02 5.03355730e-03 2.18120813e-02
      1.17449667e-02 5.03355730e-03 5.03355730e-03 0. 1.67785236e-03 0.
      3.35570471e-03 0. 5.03355730e-03 1.17449667e-02 5.03355730e-03
      5.03355730e-03 5.03355730e-03 0.</_>
    <_>
      3.61336954e-03 1.80668477e-03 7.22673908e-03 1.80668477e-03
      7.22673908e-03 5.42005431e-03 6.32339669e-03 7.22673908e-03
      2.71002715e-03 4.51671192e-03 9.03342385e-03 1.44534782e-02
      5.42005431e-03 3.61336954e-03 6.32339669e-03 1.17434505e-02 0.
      2.71002715e-03 6.32339669e-03 2.71002715e-03 4.51671192e-03
      9.03342385e-04 6.32339669e-03 5.42005431e-03 4.51671192e-03
      9.03342385e-04 0. 5.42005431e-03 3.61336954e-03 4.51671192e-03 0.
      1.80668477e-03 4.51671192e-03 9.93676670e-03 9.03342385e-04
      2.71002715e-03 3.61336954e-03 6.32339669e-03 2.71002715e-03
      1.08401086e-02 2.71002715e-03 4.51671192e-03 5.42005431e-03
      9.93676670e-03 2.71002715e-03 4.51671192e-03 6.32339669e-03
      2.71002715e-03 0. 1.80668477e-03 2.71002725e-02 1.80668477e-03
      1.80668477e-03 1.80668477e-03 4.51671192e-03 6.32339669e-03
      4.51671192e-03 9.93676670e-03 9.03342385e-03 2.71002715e-03
      9.03342385e-04 9.93676670e-03 6.32339669e-03 2.71002715e-03
      4.51671192e-03 1.80668477e-03 9.03342385e-03 1.80668477e-03
      7.22673908e-03 2.71002715e-03 9.93676670e-03 9.93676670e-03
      1.08401086e-02 9.03342385e-04 2.71002715e-03 1.80668477e-03
      9.03342385e-04 3.61336954e-03 9.03342385e-04 3.61336954e-03
      1.80668477e-03 9.03342385e-04 6.32339669e-03 9.03342385e-04
      1.35501362e-02 7.22673908e-03 1.08401086e-02 9.03342385e-03
      8.13008100e-03 9.03342385e-04 1.80668477e-03 2.71002715e-03
      1.80668477e-03 5.42005431e-03 6.32339669e-03 2.71002715e-03
      1.35501362e-02 9.03342385e-04 1.80668477e-03 9.03342385e-04
      8.13008100e-03 5.42005431e-03 9.03342385e-04 4.51671192e-03
      5.42005431e-03 5.42005431e-03 3.61336954e-03 1.80668477e-03
      2.71002715e-03 9.03342385e-04 4.51671192e-03 2.71002715e-03
      2.71002715e-03 1.80668477e-03 2.71002715e-03 1.80668477e-03
      9.03342385e-04 1.80668477e-03 4.51671192e-03 9.93676670e-03
      3.61336954e-03 6.32339669e-03 1.26467934e-02 3.61336954e-03
      7.22673908e-03 5.42005431e-03 2.71002715e-03 8.13008100e-03
      2.71002715e-03 4.51671192e-03 3.61336954e-03 2.71002715e-03
      4.51671192e-03 9.03342385e-04 6.32339669e-03 7.22673908e-03
      3.61336954e-03 4.51671192e-03 3.61336954e-02 1.80668477e-02
      3.61336954e-03 2.71002715e-03 2.71002715e-03 9.03342385e-03
      9.03342385e-04 3.61336954e-03 2.71002715e-03 1.80668477e-03
      4.51671192e-03 1.80668477e-03 9.03342385e-03 4.51671192e-03
      4.51671192e-03 9.03342385e-04 4.51671192e-03 0. 4.51671192e-03
      9.93676670e-03 3.61336954e-03 9.03342385e-03 6.32339669e-03
      9.03342385e-03 9.03342385e-04 2.43902449e-02 1.80668477e-03
      9.03342385e-03 9.03342385e-04 0. 9.03342385e-03 2.71002715e-03
      5.42005431e-03 9.03342385e-04 1.80668477e-03 1.62601620e-02 0.
      9.03342385e-04 1.80668477e-03 1.35501362e-02 7.22673908e-03
      9.03342385e-04 0. 5.42005431e-03 9.03342385e-04 4.51671192e-03
      5.42005431e-03 1.08401086e-02 1.26467934e-02 4.51671192e-03
      6.32339669e-03 1.26467934e-02 1.80668477e-03 3.61336954e-03
      9.03342385e-04 0. 6.32339669e-03 4.51671192e-03 7.22673908e-03
      9.03342385e-04 7.22673908e-03 9.03342385e-04</_>
    <_>
      3.28947348e-03 2.69138743e-03 9.27033462e-03 3.58851673e-03
      9.56937764e-03 1.49521523e-03 5.68181789e-03 6.27990393e-03
      5.38277486e-03 6.27990393e-03 1.79425837e-03 1.58492811e-02
      5.98086091e-03 1.79425837e-03 6.57894695e-03 9.86842066e-03 0.
      5.98086102e-04 5.68181789e-03 1.49521523e-03 1.19617220e-03
      2.09330139e-03 4.78468882e-03 1.79425837e-03 4.78468882e-03
      5.98086102e-04 3.88755975e-03 2.39234441e-03 2.99043045e-03
      4.78468882e-03 2.09330139e-03 5.68181789e-03 7.47607648e-03
      1.55502390e-02 5.08373184e-03 8.97129183e-04 1.79425837e-03
      3.58851673e-03 2.39234441e-03 5.08373184e-03 2.69138743e-03
      5.08373184e-03 5.98086091e-03 3.28947348e-03 4.48564580e-03
      1.19617220e-03 4.18660278e-03 1.19617220e-03 2.09330139e-03
      2.69138743e-03 1.88397113e-02 1.49521523e-03 3.58851673e-03
      3.58851673e-03 7.47607648e-03 4.18660278e-03 9.56937764e-03
      1.31578939e-02 1.25598079e-02 4.48564580e-03 1.49521523e-03
      2.09330139e-03 7.47607648e-03 5.38277486e-03 4.48564580e-03
      7.17703346e-03 5.98086091e-03 2.99043045e-03 5.68181789e-03
      3.58851673e-03 6.87798997e-03 8.97129159e-03 1.01674637e-02
      3.88755975e-03 6.57894695e-03 2.99043051e-04 2.99043051e-04
      5.98086091e-03 2.39234441e-03 5.08373184e-03 2.99043045e-03
      3.58851673e-03 6.57894695e-03 6.27990393e-03 5.68181789e-03
      5.38277486e-03 8.97129159e-03 7.17703346e-03 7.77511951e-03
      8.97129183e-04 2.99043045e-03 2.09330139e-03 3.28947348e-03
      3.58851673e-03 2.39234441e-03 5.98086102e-04 2.06339713e-02
      2.39234441e-03 3.28947348e-03 0. 5.08373184e-03 4.78468882e-03
      2.09330139e-03 4.18660278e-03 8.67224857e-03 3.58851673e-03
      1.49521523e-03 2.09330139e-03 1.79425837e-03 2.99043051e-04
      6.27990393e-03 1.13636358e-02 7.17703346e-03 8.97129183e-04
      3.88755975e-03 4.78468882e-03 3.28947348e-03 2.99043045e-03
      1.04665067e-02 8.97129159e-03 1.01674637e-02 4.18660278e-03
      1.01674637e-02 2.99043051e-04 1.40550230e-02 7.77511951e-03
      8.97129183e-04 1.49521523e-03 8.97129183e-04 4.18660278e-03
      3.28947348e-03 3.28947348e-03 8.67224857e-03 4.48564580e-03
      2.99043045e-03 1.28588509e-02 7.47607648e-03 5.68181789e-03
      2.21291855e-02 8.37320555e-03 3.58851673e-03 2.39234441e-03
      2.09330139e-03 6.87798997e-03 2.39234441e-03 2.99043045e-03 0.
      1.79425837e-03 4.78468882e-03 4.18660278e-03 3.88755975e-03
      5.08373184e-03 8.97129159e-03 3.88755975e-03 6.27990393e-03
      2.99043051e-04 3.88755975e-03 5.08373184e-03 5.98086091e-03
      6.27990393e-03 1.07655497e-02 3.88755975e-03 1.49521523e-03
      1.82416253e-02 2.99043045e-03 3.88755975e-03 4.18660278e-03
      1.79425837e-03 4.18660278e-03 3.88755975e-03 1.49521523e-03
      2.09330139e-03 1.79425837e-03 1.79425832e-02 2.69138743e-03
      6.27990393e-03 6.57894695e-03 1.04665067e-02 4.48564580e-03
      2.99043051e-04 0. 2.09330139e-03 0. 8.07416253e-03 3.58851673e-03
      7.17703346e-03 1.10645927e-02 6.27990393e-03 1.01674637e-02
      4.48564580e-03 4.18660278e-03 2.69138743e-03 3.88755975e-03
      8.97129183e-04 1.01674637e-02 3.28947348e-03 2.99043045e-03
      3.58851673e-03 8.97129159e-03 1.19617220e-03</_>
    <_>
      4.11946466e-03 7.20906304e-03 1.33882603e-02 3.08959838e-03
      7.20906304e-03 4.11946466e-03 9.26879514e-03 5.14933094e-03
      3.08959838e-03 6.17919676e-03 1.02986617e-03 1.13285277e-02
      2.05973233e-03 3.08959838e-03 1.13285277e-02 8.23892932e-03 0.
      2.05973233e-03 7.20906304e-03 3.08959838e-03 1.02986617e-03 0.
      4.11946466e-03 2.05973233e-03 6.17919676e-03 1.02986617e-03
      2.05973233e-03 3.08959838e-03 3.08959838e-03 3.08959838e-03
      4.11946466e-03 4.11946466e-03 8.23892932e-03 2.26570554e-02
      2.05973233e-03 3.08959838e-03 5.14933094e-03 3.08959838e-03
      1.02986617e-03 1.02986619e-02 2.05973233e-03 6.17919676e-03
      6.17919676e-03 8.23892932e-03 1.02986619e-02 2.05973233e-03
      3.08959838e-03 4.11946466e-03 5.14933094e-03 1.02986617e-03
      1.85375903e-02 2.05973233e-03 5.14933094e-03 3.08959838e-03
      1.23583935e-02 4.11946466e-03 2.05973233e-03 1.95674580e-02
      8.23892932e-03 1.95674580e-02 1.02986617e-03 6.17919676e-03
      5.14933094e-03 1.33882603e-02 6.17919676e-03 8.23892932e-03
      9.26879514e-03 7.20906304e-03 1.02986617e-03 2.05973233e-03
      1.33882603e-02 6.17919676e-03 1.33882603e-02 1.02986617e-03
      1.33882603e-02 0. 1.02986617e-03 6.17919676e-03 1.02986617e-03 0.
      3.08959838e-03 4.11946466e-03 7.20906304e-03 6.17919676e-03
      2.05973233e-03 4.11946466e-03 3.08959838e-03 2.05973233e-03
      5.14933094e-03 1.02986617e-03 5.14933094e-03 4.11946466e-03
      6.17919676e-03 2.05973233e-03 6.17919676e-03 2.05973233e-03
      5.14933094e-03 2.05973233e-03 4.11946466e-03 0. 4.11946466e-03
      1.02986619e-02 2.05973233e-03 1.02986617e-03 1.23583935e-02
      2.05973233e-03 4.11946466e-03 1.02986617e-03 1.02986617e-03
      1.02986617e-03 3.08959838e-03 1.02986619e-02 2.05973233e-03
      2.05973233e-03 2.05973233e-03 6.17919676e-03 4.11946466e-03
      3.08959838e-03 0. 9.26879514e-03 8.23892932e-03 2.05973233e-03
      7.20906304e-03 2.05973233e-03 1.54479928e-02 3.08959838e-03
      2.05973233e-03 2.05973233e-03 3.08959838e-03 8.23892932e-03
      1.02986617e-03 4.11946466e-03 2.05973233e-03 5.14933094e-03
      5.14933094e-03 1.02986619e-02 6.17919676e-03 2.05973233e-03
      1.95674580e-02 1.13285277e-02 6.17919676e-03 0. 6.17919676e-03
      2.05973233e-03 5.14933094e-03 6.17919676e-03 0. 4.11946466e-03
      2.05973233e-03 1.02986617e-03 3.08959838e-03 3.08959838e-03
      4.11946466e-03 5.14933094e-03 4.11946466e-03 1.02986617e-03
      3.08959838e-03 4.11946466e-03 4.11946466e-03 9.26879514e-03
      1.13285277e-02 8.23892932e-03 1.02986617e-03 1.54479928e-02
      3.08959838e-03 9.26879514e-03 4.11946466e-03 2.05973233e-03
      1.02986617e-03 4.11946466e-03 0. 4.11946466e-03 0. 4.11946466e-03
      4.11946466e-03 7.20906304e-03 8.23892932e-03 1.02986619e-02
      2.05973233e-03 0. 0. 2.05973233e-03 0. 1.33882603e-02
      3.08959838e-03 8.23892932e-03 9.26879514e-03 3.08959838e-03
      1.23583935e-02 3.08959838e-03 7.20906304e-03 1.02986617e-03 0. 0.
      2.05973233e-03 4.11946466e-03 1.13285277e-02 3.08959838e-03
      5.14933094e-03 0.</_>
    <_>
      8.39630549e-04 3.35852220e-03 5.87741379e-03 1.67926110e-03
      8.39630514e-03 2.51889159e-03 6.71704439e-03 5.03778318e-03
      9.23593622e-03 7.55667500e-03 2.51889159e-03 1.59529801e-02
      7.55667500e-03 2.51889159e-03 1.17548276e-02 8.39630514e-03 0.
      1.67926110e-03 4.19815257e-03 2.51889159e-03 0. 8.39630549e-04
      5.87741379e-03 4.19815257e-03 5.87741379e-03 0. 2.51889159e-03 0.
      5.87741379e-03 7.55667500e-03 1.67926110e-03 7.55667500e-03
      4.19815257e-03 1.84718724e-02 3.35852220e-03 3.35852220e-03
      5.03778318e-03 1.67926110e-03 0. 5.03778318e-03 2.51889159e-03
      1.67926110e-03 5.03778318e-03 3.35852220e-03 3.35852220e-03
      8.39630549e-04 8.39630549e-04 5.03778318e-03 4.19815257e-03
      1.67926110e-03 2.68681776e-02 8.39630549e-04 4.19815257e-03 0.
      1.17548276e-02 4.19815257e-03 5.03778318e-03 1.67926103e-02
      2.51889159e-03 5.87741379e-03 0. 5.03778318e-03 4.19815257e-03
      6.71704439e-03 6.71704439e-03 1.84718724e-02 1.25944586e-02
      2.51889159e-03 8.39630514e-03 1.67926110e-03 1.67926110e-03
      3.35852220e-03 2.01511327e-02 5.87741379e-03 5.87741379e-03 0.
      1.67926110e-03 1.59529801e-02 0. 8.39630549e-04 3.35852220e-03
      1.67926110e-03 5.03778318e-03 7.55667500e-03 5.87741379e-03
      8.39630514e-03 5.87741379e-03 1.67926110e-03 8.39630514e-03
      8.39630549e-04 3.35852220e-03 5.03778318e-03 2.51889159e-03
      1.67926110e-03 5.03778318e-03 3.35852220e-03 9.23593622e-03
      6.71704439e-03 8.39630549e-04 0. 4.19815257e-03 1.67926110e-03
      2.51889159e-03 5.87741379e-03 1.42737189e-02 1.67926110e-03
      5.03778318e-03 8.39630549e-04 1.67926110e-03 8.39630549e-04
      3.35852220e-03 1.67926103e-02 0. 5.03778318e-03 8.39630549e-04
      3.35852220e-03 2.51889159e-03 1.67926110e-03 9.23593622e-03
      8.39630514e-03 8.39630514e-03 3.35852220e-03 1.00755664e-02 0.
      8.39630514e-03 5.03778318e-03 3.35852220e-03 2.51889159e-03
      8.39630549e-04 8.39630514e-03 5.87741379e-03 5.03778318e-03
      9.23593622e-03 5.03778318e-03 4.19815257e-03 6.71704439e-03
      2.51889159e-03 3.35852220e-03 1.76322423e-02 8.39630514e-03
      5.87741379e-03 2.51889159e-03 4.19815257e-03 2.51889159e-03
      4.19815257e-03 2.51889159e-03 8.39630549e-04 4.19815257e-03
      7.55667500e-03 3.35852220e-03 4.19815257e-03 7.55667500e-03
      1.17548276e-02 8.39630549e-04 1.67926110e-03 5.03778318e-03
      8.39630514e-03 5.03778318e-03 3.35852220e-03 4.19815257e-03
      1.00755664e-02 7.55667500e-03 2.51889159e-03 4.19815257e-03 0.
      6.71704439e-03 5.87741379e-03 8.39630549e-04 2.51889159e-03
      2.51889159e-03 0. 2.51889159e-03 3.35852220e-03 2.93870699e-02
      1.67926110e-03 9.23593622e-03 5.03778318e-03 6.71704439e-03
      4.19815257e-03 1.67926110e-03 0. 8.39630549e-04 0. 4.19815257e-03
      7.55667500e-03 5.87741379e-03 7.55667500e-03 4.19815257e-03
      8.39630514e-03 8.39630514e-03 3.35852220e-03 8.39630549e-04
      9.23593622e-03 8.39630549e-04 4.19815257e-03 5.87741379e-03
      5.87741379e-03 3.35852220e-03 7.55667500e-03 8.39630549e-04</_>
    <_>
      6.61375641e-04 6.61375641e-04 3.30687826e-03 3.30687826e-03
      1.25661371e-02 2.64550257e-03 4.62962966e-03 4.62962966e-03
      2.64550257e-03 7.27513200e-03 3.30687826e-03 9.25925933e-03
      2.64550257e-03 3.96825373e-03 8.59788340e-03 8.59788340e-03 0.
      5.29100513e-03 2.31481474e-02 6.61375641e-04 2.64550257e-03
      6.61375641e-04 4.62962966e-03 2.64550257e-03 3.96825373e-03 0.
      3.30687826e-03 3.96825373e-03 8.59788340e-03 8.59788340e-03
      3.96825373e-03 6.61375641e-04 1.52116399e-02 3.96825373e-03
      2.64550257e-03 1.32275128e-03 8.59788340e-03 1.98412687e-03
      1.32275128e-03 7.27513200e-03 1.98412687e-03 5.29100513e-03
      7.93650746e-03 1.32275128e-03 2.64550257e-03 5.95238060e-03
      3.30687826e-03 6.61375641e-04 5.29100513e-03 2.64550257e-03
      5.95238060e-03 5.29100513e-03 4.62962966e-03 7.27513200e-03
      1.98412687e-03 1.32275128e-03 9.25925933e-03 2.31481474e-02
      9.92063433e-03 5.95238060e-03 6.61375641e-04 5.29100513e-03
      3.96825373e-03 2.64550257e-03 9.25925933e-03 1.52116399e-02
      2.64550257e-03 0. 3.30687826e-03 3.96825373e-03 3.96825373e-03
      6.61375653e-03 5.95238060e-03 2.64550257e-03 2.64550257e-03 0.
      1.98412687e-03 2.64550257e-03 6.61375641e-04 2.64550257e-03
      2.64550257e-03 4.62962966e-03 4.62962966e-03 7.27513200e-03
      3.96825373e-03 5.29100513e-03 5.95238060e-03 3.30687826e-03
      8.59788340e-03 6.61375641e-04 3.96825373e-03 1.98412687e-03
      3.30687826e-03 3.96825373e-03 2.64550257e-03 3.96825373e-03
      1.12433862e-02 4.62962966e-03 3.96825373e-03 1.98412687e-03
      1.98412687e-03 7.93650746e-03 1.32275128e-03 1.98412687e-03
      6.61375653e-03 1.32275128e-03 0. 2.64550257e-03 5.95238060e-03
      2.64550257e-03 1.98412687e-03 7.93650746e-03 1.32275128e-03
      3.96825373e-03 1.98412687e-03 1.98412687e-03 1.98412687e-03
      6.61375641e-04 1.98412687e-03 2.18253955e-02 9.92063433e-03
      2.64550257e-03 4.62962966e-03 2.64550257e-03 5.29100513e-03
      4.62962966e-03 1.98412687e-03 2.64550257e-03 4.62962966e-03
      4.62962966e-03 4.62962966e-03 3.30687826e-03 4.62962966e-03
      2.64550257e-03 2.64550257e-03 1.19047612e-02 1.98412687e-03
      3.96825373e-03 1.58730149e-02 3.63756604e-02 3.96825373e-03
      3.96825373e-03 1.32275128e-03 3.96825373e-03 5.29100513e-03
      3.96825373e-03 1.98412687e-03 3.30687826e-03 3.96825373e-03
      6.61375653e-03 4.62962966e-03 5.29100513e-03 9.92063433e-03
      5.95238060e-03 3.30687826e-03 1.98412687e-03 5.29100513e-03
      9.92063433e-03 3.30687826e-03 7.27513200e-03 9.25925933e-03
      3.96825373e-03 3.96825373e-03 1.32275128e-03 5.95238060e-03
      3.96825373e-03 3.30687826e-03 6.61375641e-04 1.32275128e-03
      3.96825373e-03 6.61375641e-04 6.61375653e-03 2.64550257e-03
      7.93650746e-03 5.29100513e-03 3.96825373e-03 1.58730149e-02
      1.58730149e-02 5.29100513e-03 1.32275128e-03 0. 5.95238060e-03
      7.27513200e-03 1.32275131e-02 1.32275131e-02 3.30687826e-03
      2.64550257e-03 4.62962966e-03 1.52116399e-02 1.05820103e-02
      3.30687826e-03 3.96825373e-03 3.96825373e-03 3.96825373e-03
      6.61375653e-03 7.93650746e-03 2.64550257e-03 3.96825373e-03
      7.93650746e-03 6.61375641e-04</_>
    <_>
      0. 0. 1.20481933e-02 2.40963860e-03 7.22891558e-03 0.
      4.81927721e-03 4.81927721e-03 0. 7.22891558e-03 0. 7.22891558e-03
      2.40963860e-03 2.40963860e-03 1.68674700e-02 1.20481933e-02 0. 0.
      0. 2.40963860e-03 2.40963860e-03 2.40963860e-03 2.40963860e-03
      4.81927721e-03 4.81927721e-03 0. 4.81927721e-03 0. 4.81927721e-03
      2.40963860e-03 1.20481933e-02 0. 9.63855442e-03 1.44578312e-02
      4.81927721e-03 0. 4.81927721e-03 0. 0. 4.81927721e-03
      9.63855442e-03 2.40963860e-03 4.81927721e-03 0. 2.40963860e-03 0.
      0. 7.22891558e-03 0. 4.81927721e-03 1.20481933e-02 2.40963860e-03
      2.40963860e-03 0. 4.81927721e-03 0. 9.63855442e-03 9.63855442e-03
      9.63855442e-03 2.40963860e-03 2.40963860e-03 4.81927721e-03
      9.63855442e-03 1.20481933e-02 1.68674700e-02 9.63855442e-03
      1.44578312e-02 7.22891558e-03 1.44578312e-02 0. 0. 9.63855442e-03
      9.63855442e-03 0. 9.63855442e-03 0. 9.63855442e-03 0.
      2.40963860e-03 2.40963860e-03 1.20481933e-02 0. 9.63855442e-03
      4.81927721e-03 2.40963860e-03 7.22891558e-03 2.40963860e-03 0.
      4.81927721e-03 4.81927721e-03 4.81927721e-03 0. 2.40963860e-03
      4.81927721e-03 4.81927721e-03 2.40963860e-03 3.13253030e-02 0.
      4.81927721e-03 0. 9.63855442e-03 4.81927721e-03 0. 0.
      2.65060253e-02 4.81927721e-03 0. 2.40963860e-03 2.40963860e-03 0.
      2.40963860e-03 2.40963860e-03 4.81927721e-03 4.81927721e-03
      4.81927721e-03 4.81927721e-03 2.40963860e-03 0. 1.44578312e-02
      4.81927721e-03 2.89156623e-02 0. 1.44578312e-02 2.40963860e-03
      3.13253030e-02 0. 0. 7.22891558e-03 0. 7.22891558e-03
      2.40963860e-03 2.40963860e-03 1.68674700e-02 2.40963860e-03
      4.81927721e-03 7.22891558e-03 0. 0. 1.44578312e-02 3.37349400e-02
      9.63855442e-03 0. 0. 4.81927721e-03 4.81927721e-03 7.22891558e-03
      4.81927721e-03 0. 2.40963860e-03 0. 2.40963860e-03 2.40963860e-03
      1.92771088e-02 2.40963860e-03 7.22891558e-03 0. 7.22891558e-03
      2.40963860e-03 0. 4.81927721e-03 9.63855442e-03 1.20481933e-02
      2.40963860e-03 4.81927721e-03 0. 4.81927721e-03 4.81927721e-03
      4.81927721e-03 0. 7.22891558e-03 0. 0. 2.40963860e-03
      4.81927721e-03 4.81927721e-03 2.40963860e-03 2.40963860e-03 0.
      4.81927721e-03 0. 0. 2.40963860e-03 0. 7.22891558e-03
      9.63855442e-03 7.22891558e-03 9.63855442e-03 0. 9.63855442e-03
      2.40963860e-03 4.81927721e-03 4.81927721e-03 2.40963860e-03
      2.40963860e-03 2.40963860e-03 2.40963860e-03 2.40963860e-03 0.
      1.92771088e-02 0.</_>
    <_>
      4.11184225e-03 2.46710517e-03 6.57894742e-03 9.04605258e-03
      8.22368450e-03 7.40131596e-03 7.40131596e-03 5.75657887e-03
      8.22368427e-04 4.93421033e-03 5.75657887e-03 1.06907897e-02
      1.64473685e-03 6.57894742e-03 4.11184225e-03 5.75657887e-03 0.
      1.64473685e-03 5.75657887e-03 5.75657887e-03 8.22368427e-04
      6.57894742e-03 4.93421033e-03 1.64473685e-03 9.04605258e-03 0.
      4.11184225e-03 4.11184225e-03 4.11184225e-03 2.46710517e-03 0.
      8.22368427e-04 1.64473690e-02 4.93421033e-03 8.22368450e-03
      5.75657887e-03 3.28947371e-03 6.57894742e-03 4.93421033e-03
      1.48026319e-02 8.22368427e-04 4.93421033e-03 3.28947371e-03
      6.57894742e-03 5.75657887e-03 1.64473685e-03 1.64473685e-03
      3.28947371e-03 2.46710517e-03 4.11184225e-03 4.93421033e-03
      4.11184225e-03 4.11184225e-03 5.75657887e-03 2.46710517e-03
      4.11184225e-03 8.22368450e-03 3.12500000e-02 2.54934207e-02
      2.46710517e-03 0. 2.46710517e-03 2.46710517e-03 5.75657887e-03
      2.46710517e-03 9.04605258e-03 6.57894742e-03 4.11184225e-03
      8.22368427e-04 6.57894742e-03 1.64473690e-02 5.75657887e-03
      1.06907897e-02 1.64473685e-03 4.11184225e-03 8.22368427e-04 0.
      3.28947371e-03 0. 9.04605258e-03 3.28947371e-03 4.93421033e-03
      3.28947371e-03 1.64473685e-03 1.64473690e-02 6.57894742e-03
      1.15131577e-02 1.80921052e-02 9.86842066e-03 0. 6.57894742e-03
      3.28947371e-03 5.75657887e-03 4.11184225e-03 3.28947371e-03
      8.22368427e-04 4.11184225e-03 3.28947371e-03 4.11184225e-03
      3.28947371e-03 5.75657887e-03 4.93421033e-03 2.46710517e-03
      1.64473685e-03 8.22368450e-03 5.75657887e-03 3.28947371e-03
      3.28947371e-03 3.28947371e-03 8.22368427e-04 6.57894742e-03
      7.40131596e-03 8.22368427e-04 1.64473685e-03 4.11184225e-03
      2.46710517e-03 1.64473685e-03 1.64473685e-03 8.22368450e-03
      1.23355268e-02 2.46710517e-03 1.64473685e-03 5.75657887e-03
      5.75657887e-03 3.28947380e-02 3.28947371e-03 3.28947371e-03
      7.40131596e-03 4.11184225e-03 4.11184225e-03 2.46710517e-03
      2.46710517e-03 2.46710517e-03 1.64473685e-03 1.64473685e-03
      2.46710517e-03 2.46710517e-03 9.04605258e-03 2.13815793e-02
      1.23355268e-02 2.46710517e-03 3.28947371e-03 5.75657887e-03
      2.46710517e-03 1.64473685e-03 1.64473685e-03 0. 1.64473685e-03
      8.22368427e-04 2.46710517e-03 9.86842066e-03 9.04605258e-03
      4.11184225e-03 2.46710517e-03 2.46710517e-03 1.64473685e-03
      8.22368427e-04 7.40131596e-03 1.64473685e-03 8.22368450e-03
      9.04605258e-03 1.64473685e-03 4.11184225e-03 3.28947371e-03
      4.11184225e-03 2.30263155e-02 3.28947371e-03 0. 2.46710517e-03
      8.22368427e-04 1.39802629e-02 3.28947371e-03 2.46710517e-03
      8.22368450e-03 1.64473685e-03 8.22368427e-04 1.64473685e-03
      2.46710517e-03 4.93421033e-03 0. 0. 1.64473685e-03 2.46710517e-03
      1.39802629e-02 3.28947371e-03 2.46710517e-03 4.93421033e-03
      6.57894742e-03 1.48026319e-02 8.22368427e-04 4.11184225e-03
      1.64473685e-03 2.46710517e-03 4.93421033e-03 1.64473685e-03
      4.93421033e-03 2.46710517e-03 1.64473685e-03 5.75657887e-03
      8.22368427e-04</_>
    <_>
      1.47275405e-03 2.94550811e-03 5.89101622e-03 2.94550811e-03
      6.62739342e-03 5.89101622e-03 8.83652456e-03 5.15463902e-03
      3.68188508e-03 3.68188508e-03 5.89101622e-03 3.68188508e-03
      4.41826228e-03 5.15463902e-03 7.36377016e-03 2.94550811e-03 0.
      2.20913114e-03 1.54639175e-02 8.83652456e-03 4.41826228e-03
      4.41826228e-03 4.41826228e-03 2.94550811e-03 4.41826228e-03 0.
      6.62739342e-03 2.20913114e-03 4.41826228e-03 7.36377027e-04
      7.36377027e-04 0. 4.41826228e-03 1.76730491e-02 4.41826228e-03
      5.15463902e-03 3.68188508e-03 5.15463902e-03 3.68188508e-03
      4.41826228e-03 1.47275405e-03 3.68188508e-03 4.41826228e-03
      2.94550811e-03 3.68188508e-03 2.20913114e-03 2.94550811e-03
      1.47275405e-03 7.36377027e-04 4.41826228e-03 6.62739342e-03
      5.15463902e-03 2.94550811e-03 3.68188508e-03 5.15463902e-03
      2.20913114e-03 1.10456552e-02 2.72459500e-02 4.27098684e-02
      2.20913114e-03 0. 3.68188508e-03 6.62739342e-03 2.94550811e-03
      1.47275405e-03 1.98821798e-02 5.89101622e-03 2.20913114e-03
      7.36377027e-04 3.68188508e-03 1.17820324e-02 2.94550811e-03
      7.36377016e-03 2.94550811e-03 1.54639175e-02 0. 0. 1.47275405e-03
      0. 2.94550811e-03 2.20913114e-03 2.94550811e-03 6.62739342e-03
      2.94550811e-03 1.54639175e-02 5.15463902e-03 8.83652456e-03
      1.10456552e-02 9.57290176e-03 0. 2.20913114e-03 7.36377027e-04
      1.17820324e-02 1.47275405e-03 4.41826228e-03 0. 1.62002947e-02
      5.89101622e-03 7.36377016e-03 2.94550811e-03 2.94550811e-03
      4.41826228e-03 2.20913114e-03 2.20913114e-03 6.62739342e-03
      4.41826228e-03 7.36377027e-04 4.41826228e-03 2.20913114e-03 0.
      9.57290176e-03 8.83652456e-03 1.47275405e-03 0. 1.47275405e-03
      2.20913114e-03 2.94550811e-03 4.41826228e-03 2.72459500e-02
      1.54639175e-02 3.68188508e-03 7.36377027e-04 3.68188508e-03
      3.68188508e-03 1.54639175e-02 5.15463902e-03 0. 1.32547868e-02
      4.41826228e-03 4.41826228e-03 2.94550811e-03 2.94550811e-03
      7.36377027e-04 2.20913114e-03 3.68188508e-03 5.89101622e-03
      1.69366710e-02 7.36377016e-03 1.17820324e-02 1.03092780e-02
      7.36377027e-04 0. 2.94550811e-03 4.41826228e-03 0. 1.47275405e-03
      0. 3.68188508e-03 0. 3.68188508e-03 8.10014736e-03 6.62739342e-03
      8.10014736e-03 4.41826228e-03 0. 7.36377027e-04 0. 6.62739342e-03
      7.36377027e-04 1.17820324e-02 1.47275403e-02 5.89101622e-03
      4.41826228e-03 4.41826228e-03 2.20913114e-03 8.83652456e-03
      2.94550811e-03 0. 7.36377016e-03 2.94550811e-03 5.15463902e-03
      5.15463902e-03 4.41826228e-03 2.20913114e-03 4.41826228e-03
      1.47275403e-02 2.94550811e-03 5.89101622e-03 1.03092780e-02
      7.36377027e-04 0. 3.68188508e-03 1.47275405e-03 6.62739342e-03
      4.41826228e-03 5.89101622e-03 2.20913114e-03 5.15463902e-03
      5.89101622e-03 0. 4.41826228e-03 3.68188508e-03 2.20913114e-03
      4.41826228e-03 1.47275405e-03 7.36377016e-03 2.94550811e-03
      3.68188508e-03 3.68188508e-03 0.</_>
    <_>
      4.05063294e-03 2.53164559e-03 5.56962006e-03 5.56962006e-03
      1.67088602e-02 8.60759523e-03 8.10126588e-03 5.06329117e-03
      2.02531647e-03 5.56962006e-03 3.03797470e-03 8.60759523e-03
      5.06329117e-03 5.06329117e-03 9.11392458e-03 1.11392401e-02 0.
      2.53164559e-03 1.06329117e-02 6.07594941e-03 0. 2.53164559e-03
      7.59493653e-03 1.01265823e-03 6.07594941e-03 1.01265823e-03
      3.54430382e-03 5.06329117e-04 3.03797470e-03 6.58227876e-03 0.
      2.53164559e-03 1.11392401e-02 6.07594941e-03 4.05063294e-03
      2.53164559e-03 4.55696229e-03 6.58227876e-03 2.53164559e-03
      7.08860764e-03 4.05063294e-03 5.56962006e-03 4.55696229e-03
      3.54430382e-03 5.06329117e-03 2.53164559e-03 4.55696229e-03
      2.53164559e-03 5.06329117e-03 6.58227876e-03 1.72151905e-02
      4.55696229e-03 3.03797470e-03 4.55696229e-03 4.05063294e-03
      3.54430382e-03 1.16455695e-02 3.03797470e-03 1.36708859e-02
      4.05063294e-03 0. 4.05063294e-03 3.03797470e-03 4.55696229e-03
      1.51898735e-03 1.77215189e-02 6.07594941e-03 5.06329117e-03
      5.56962006e-03 3.03797470e-03 1.21518988e-02 8.60759523e-03
      1.01265823e-02 1.01265823e-03 2.02531647e-03 5.06329117e-04
      5.06329117e-04 3.54430382e-03 0. 4.05063294e-03 3.54430382e-03
      2.02531647e-03 8.10126588e-03 5.56962006e-03 2.02531647e-03
      8.10126588e-03 9.11392458e-03 9.62025300e-03 4.05063294e-03 0.
      2.53164559e-03 3.54430382e-03 5.06329117e-03 2.53164559e-03
      4.05063294e-03 0. 5.56962006e-03 3.54430382e-03 9.62025300e-03
      1.01265823e-03 1.01265823e-03 5.06329117e-03 2.53164559e-03
      5.06329117e-03 9.62025300e-03 2.02531647e-03 8.10126588e-03
      4.05063294e-03 5.56962006e-03 0. 3.03797470e-03 7.59493653e-03
      1.01265823e-03 1.51898735e-03 3.03797470e-03 3.54430382e-03
      1.51898735e-03 2.53164559e-03 2.53164559e-03 1.51898731e-02
      6.58227876e-03 2.02531647e-03 8.60759523e-03 5.06329117e-04
      8.60759523e-03 8.60759523e-03 1.51898735e-03 5.06329117e-03
      5.56962006e-03 5.06329117e-03 1.11392401e-02 6.58227876e-03
      5.56962006e-03 2.02531647e-03 3.03797470e-03 3.54430382e-03
      1.51898735e-03 8.60759523e-03 1.41772153e-02 1.21518988e-02
      3.03797470e-03 1.01265823e-03 2.02531647e-03 4.05063294e-03
      1.51898735e-03 7.59493653e-03 5.06329117e-04 5.56962006e-03
      1.51898735e-03 4.55696229e-03 4.55696229e-03 7.59493653e-03
      9.11392458e-03 3.03797470e-03 4.55696229e-03 1.51898735e-03
      4.05063294e-03 8.10126588e-03 2.53164559e-03 1.31645575e-02
      3.03797470e-03 3.54430382e-03 6.58227876e-03 3.54430382e-03
      6.58227876e-03 0. 5.06329117e-03 1.01265823e-03 6.07594941e-03
      3.03797470e-03 1.51898731e-02 6.58227876e-03 2.53164559e-03
      1.62025318e-02 6.58227876e-03 3.03797470e-03 4.55696229e-03
      1.56962033e-02 4.55696229e-03 0. 0. 4.05063294e-03 0.
      1.26582282e-02 5.56962006e-03 4.55696229e-03 6.07594941e-03
      4.55696229e-03 7.59493653e-03 4.05063294e-03 1.51898735e-03
      4.05063294e-03 4.05063294e-03 1.51898735e-03 9.62025300e-03
      5.06329117e-03 3.54430382e-03 3.03797470e-03 9.62025300e-03
      5.06329117e-04</_>
    <_>
      5.37273334e-03 2.68636667e-03 2.68636667e-03 6.04432495e-03
      5.37273334e-03 2.68636667e-03 6.04432495e-03 4.70114173e-03
      4.70114173e-03 4.70114173e-03 2.01477506e-03 1.54466080e-02
      5.37273334e-03 2.68636667e-03 6.04432495e-03 7.38750817e-03 0.
      3.35795828e-03 1.20886499e-02 4.02955012e-03 6.71591668e-04
      2.01477506e-03 6.04432495e-03 4.70114173e-03 4.70114173e-03
      3.35795828e-03 6.71591668e-04 6.71591668e-04 3.35795828e-03
      3.35795828e-03 0. 2.01477506e-03 4.70114173e-03 2.88784411e-02
      2.68636667e-03 2.68636667e-03 2.01477506e-03 4.02955012e-03
      4.02955012e-03 6.04432495e-03 4.02955012e-03 7.38750817e-03
      2.01477506e-03 1.34318334e-03 4.02955012e-03 2.68636667e-03
      5.37273334e-03 7.38750817e-03 6.71591656e-03 3.35795828e-03
      1.54466080e-02 0. 1.34318334e-03 2.01477506e-03 7.38750817e-03
      4.70114173e-03 1.41034247e-02 3.96239087e-02 1.20886499e-02
      6.71591656e-03 1.34318334e-03 4.02955012e-03 1.34318334e-03
      6.71591668e-04 8.05910025e-03 6.04432495e-03 2.01477506e-03
      2.01477506e-03 1.00738751e-02 3.35795828e-03 1.00738751e-02
      5.37273334e-03 7.38750817e-03 4.70114173e-03 6.71591668e-04
      6.71591668e-04 0. 3.35795828e-03 0. 0. 4.70114173e-03
      3.35795828e-03 4.02955012e-03 5.37273334e-03 6.71591656e-03
      9.40228347e-03 5.37273334e-03 2.68636667e-03 8.73069186e-03
      1.34318334e-03 2.01477506e-03 2.68636667e-03 4.02955012e-03
      8.73069186e-03 4.70114173e-03 2.01477506e-03 3.35795828e-03
      4.70114173e-03 2.01477506e-03 3.35795828e-03 4.02955012e-03 0.
      2.68636667e-03 2.01477506e-03 1.34318334e-03 2.68636667e-03
      1.34318334e-03 5.37273334e-03 4.02955012e-03 1.34318334e-03
      8.73069186e-03 1.41034247e-02 2.68636667e-03 2.68636667e-03
      3.35795828e-03 1.34318334e-03 4.70114173e-03 2.01477506e-03
      1.00738751e-02 1.47750163e-02 3.35795828e-03 4.70114173e-03
      4.70114173e-03 6.71591668e-04 2.41772998e-02 4.02955012e-03
      2.68636667e-03 8.05910025e-03 4.02955012e-03 1.34318334e-03
      2.01477506e-03 5.37273334e-03 9.40228347e-03 4.02955012e-03
      6.04432495e-03 6.04432495e-03 1.34318334e-03 1.34318334e-03
      3.35795828e-03 8.05910025e-03 1.34318334e-03 3.35795828e-03
      4.02955012e-03 4.02955012e-03 1.34318334e-03 2.68636667e-03 0.
      2.01477506e-03 3.35795828e-03 5.37273334e-03 1.00738751e-02
      4.70114173e-03 8.73069186e-03 2.68636667e-03 6.71591668e-04
      2.68636667e-03 9.40228347e-03 1.34318334e-03 6.04432495e-03
      4.70114173e-03 1.67897921e-02 6.71591668e-04 3.35795828e-03
      2.35057082e-02 1.34318334e-03 1.54466080e-02 7.38750817e-03 0.
      5.37273334e-03 2.68636667e-03 2.35057082e-02 2.68636667e-03
      6.71591668e-04 2.35057082e-02 1.34318334e-03 6.04432495e-03
      6.04432495e-03 7.38750817e-03 8.73069186e-03 1.34318334e-03 0.
      2.68636667e-03 0. 4.70114173e-03 2.68636667e-03 3.35795828e-03
      4.70114173e-03 3.35795828e-03 8.73069186e-03 6.71591656e-03
      1.34318334e-03 1.34318334e-03 6.04432495e-03 2.01477506e-03
      6.71591656e-03 4.02955012e-03 1.34318334e-03 2.68636667e-03
      7.38750817e-03 1.34318334e-03</_>
    <_>
      2.31910939e-03 1.39146566e-03 6.49350649e-03 4.17439686e-03
      4.63821879e-03 5.10204071e-03 8.81261565e-03 7.42115034e-03
      4.63821879e-03 1.11317253e-02 7.42115034e-03 1.15955472e-02
      3.71057517e-03 4.17439686e-03 8.34879372e-03 1.02040814e-02 0.
      5.56586264e-03 7.88497180e-03 4.63821879e-03 3.24675324e-03
      4.63821879e-03 5.10204071e-03 1.39146566e-03 4.17439686e-03
      9.27643792e-04 3.24675324e-03 1.85528758e-03 2.78293132e-03
      1.85528758e-03 1.39146566e-03 1.39146566e-03 6.95732841e-03
      1.29870130e-02 8.81261565e-03 4.63821879e-03 3.24675324e-03
      2.78293132e-03 3.24675324e-03 1.43784788e-02 9.27643792e-04
      3.71057517e-03 5.56586264e-03 4.63821879e-03 3.24675324e-03
      3.71057517e-03 3.24675324e-03 6.49350649e-03 4.63821879e-03
      5.56586264e-03 1.76252313e-02 4.17439686e-03 4.63821879e-03
      4.17439686e-03 5.10204071e-03 6.49350649e-03 7.88497180e-03
      1.66975874e-02 1.53061226e-02 1.85528758e-03 4.17439686e-03
      4.17439686e-03 6.02968456e-03 2.31910939e-03 2.78293132e-03
      1.15955472e-02 6.49350649e-03 3.24675324e-03 3.71057517e-03
      4.63821879e-03 6.95732841e-03 7.42115034e-03 1.25231910e-02
      1.85528758e-03 4.17439686e-03 1.39146566e-03 4.63821896e-04
      6.49350649e-03 9.27643792e-04 1.39146566e-03 4.17439686e-03
      4.63821879e-03 5.56586264e-03 3.71057517e-03 8.81261565e-03
      9.27643757e-03 7.88497180e-03 4.17439686e-03 6.95732841e-03
      1.85528758e-03 3.24675324e-03 2.31910939e-03 5.56586264e-03
      1.85528758e-03 1.39146566e-03 2.78293132e-03 6.02968456e-03
      3.71057517e-03 4.17439686e-03 3.24675324e-03 2.78293132e-03
      3.71057517e-03 1.85528758e-03 5.56586264e-03 7.42115034e-03
      3.24675324e-03 5.10204071e-03 2.78293132e-03 4.17439686e-03 0.
      6.02968456e-03 1.39146568e-02 0. 1.39146566e-03 1.39146566e-03
      4.63821896e-04 2.78293132e-03 2.31910939e-03 5.56586264e-03
      8.81261565e-03 7.88497180e-03 6.95732841e-03 8.81261565e-03
      1.39146566e-03 1.20593691e-02 6.95732841e-03 3.71057517e-03
      6.49350649e-03 2.78293132e-03 8.34879372e-03 6.02968456e-03
      5.10204071e-03 3.24675324e-03 1.85528758e-03 3.71057517e-03
      4.17439686e-03 1.76252313e-02 5.56586264e-03 1.15955472e-02
      1.02040814e-02 1.85528758e-03 9.27643792e-04 2.78293132e-03
      1.85528758e-03 3.24675324e-03 3.71057517e-03 2.78293132e-03
      4.63821879e-03 3.24675324e-03 5.56586264e-03 6.49350649e-03
      6.02968456e-03 5.10204071e-03 9.27643792e-04 5.10204071e-03
      4.63821896e-04 3.71057517e-03 1.15955472e-02 1.85528758e-03
      1.94805190e-02 1.43784788e-02 6.49350649e-03 6.02968456e-03
      3.71057517e-03 2.31910939e-03 9.27643757e-03 2.31910939e-03
      4.63821896e-04 1.85528758e-03 1.39146566e-03 7.88497180e-03
      1.39146566e-03 6.02968456e-03 5.10204071e-03 5.56586264e-03
      5.56586264e-03 1.39146566e-03 5.10204071e-03 5.56586264e-03 0. 0.
      4.17439686e-03 4.17439686e-03 7.88497180e-03 1.85528758e-03
      5.56586264e-03 7.88497180e-03 6.02968456e-03 3.71057517e-03
      1.39146566e-03 5.10204071e-03 1.39146566e-03 3.71057517e-03
      9.27643792e-04 4.17439686e-03 6.49350649e-03 4.17439686e-03
      5.56586264e-03 7.88497180e-03 2.31910939e-03</_>
    <_>
      4.68823244e-04 1.87529298e-03 6.09470205e-03 2.34411610e-03
      3.75058595e-03 1.40646973e-03 3.75058595e-03 5.62587893e-03
      4.68823221e-03 6.56352565e-03 1.87529298e-03 1.21894041e-02
      3.28176282e-03 3.28176282e-03 6.56352565e-03 1.50023438e-02 0.
      7.50117190e-03 2.81293946e-03 5.15705580e-03 3.28176282e-03
      9.37646488e-04 1.87529298e-03 1.40646973e-03 3.28176282e-03
      2.34411610e-03 1.40646973e-03 1.40646973e-03 5.15705580e-03
      6.09470205e-03 1.07829347e-02 6.56352565e-03 5.62587893e-03
      2.06282232e-02 1.87529298e-03 0. 4.68823244e-04 2.81293946e-03
      9.37646488e-04 9.37646441e-03 2.81293946e-03 2.81293946e-03
      3.75058595e-03 4.68823244e-04 4.21940908e-03 9.37646488e-04
      4.21940908e-03 2.34411610e-03 5.15705580e-03 4.68823244e-04
      1.68776363e-02 2.34411610e-03 9.37646488e-04 5.62587893e-03
      3.28176282e-03 3.28176282e-03 5.62587893e-03 1.12517579e-02
      4.68823244e-04 9.37646488e-04 4.21940908e-03 7.96999503e-03
      3.28176282e-03 4.68823221e-03 4.21940908e-03 3.75058595e-03
      9.37646441e-03 4.21940908e-03 6.09470205e-03 4.21940908e-03
      8.43881816e-03 5.15705580e-03 7.03234877e-03 5.15705580e-03
      9.84528847e-03 5.15705580e-03 2.34411610e-03 4.68823221e-03
      1.07829347e-02 1.40646973e-03 6.09470205e-03 3.75058595e-03
      5.62587893e-03 2.81293946e-03 9.84528847e-03 8.90764128e-03
      5.15705580e-03 4.21940908e-03 7.96999503e-03 4.68823244e-04
      1.87529298e-03 4.68823244e-04 1.87529298e-03 2.34411610e-03
      1.87529298e-03 1.40646973e-03 1.03141116e-02 2.34411610e-03
      1.87529298e-03 3.28176282e-03 2.81293946e-03 3.28176282e-03
      1.87529298e-03 2.81293946e-03 8.43881816e-03 1.87529298e-03
      1.40646973e-03 2.34411610e-03 1.87529298e-03 8.43881816e-03
      9.37646441e-03 1.12517579e-02 8.43881816e-03 9.37646488e-04
      4.68823244e-04 6.09470205e-03 6.09470205e-03 1.40646973e-03
      1.78152826e-02 9.37646488e-04 4.68823221e-03 5.62587893e-03
      1.03141116e-02 7.03234877e-03 7.03234877e-03 5.62587893e-03
      1.87529298e-03 3.28176282e-03 1.35958744e-02 5.62587893e-03
      1.40646973e-03 1.40646973e-03 8.43881816e-03 1.87529298e-03
      2.81293946e-03 1.54711669e-02 1.21894041e-02 1.87529298e-03
      1.12517579e-02 1.87529298e-03 5.15705580e-03 1.40646973e-03
      1.87529298e-03 8.43881816e-03 8.90764128e-03 4.68823221e-03
      7.96999503e-03 2.34411610e-03 2.81293946e-03 1.40646973e-03
      1.12517579e-02 1.17205810e-02 6.56352565e-03 9.37646488e-04
      9.37646488e-04 5.62587893e-03 2.81293946e-03 6.09470205e-03
      5.15705580e-03 9.37646488e-04 9.37646441e-03 2.81293946e-03
      1.40646973e-03 2.39099860e-02 1.40646973e-03 5.62587893e-03
      1.87529298e-03 7.50117190e-03 7.03234877e-03 1.40646973e-03
      4.68823244e-04 0. 1.40646973e-03 1.92217529e-02 2.81293946e-03
      1.31270513e-02 1.40646973e-03 1.21894041e-02 8.43881816e-03
      1.03141116e-02 0. 2.34411610e-03 1.54711669e-02 5.15705580e-03
      3.28176282e-03 4.68823221e-03 5.62587893e-03 7.03234877e-03
      2.34411610e-03 1.40646973e-03 9.37646488e-04 1.87529298e-03
      6.09470205e-03 9.37646441e-03 5.62587893e-03 1.40646973e-03
      1.40646973e-03 3.28176282e-03 1.21894041e-02 7.50117190e-03</_>
    <_>
      4.33839479e-04 2.16919743e-03 7.15835160e-03 8.67678958e-04
      7.15835160e-03 8.67678958e-04 4.12147492e-03 1.73535792e-03
      3.25379614e-03 3.90455523e-03 8.67678958e-04 1.14967460e-02
      2.60303682e-03 1.73535792e-03 8.89370963e-03 1.01952273e-02 0.
      1.67028196e-02 3.68763553e-03 8.67678958e-04 7.15835160e-03
      1.51843822e-03 2.38611712e-03 2.16919743e-03 3.68763553e-03
      6.07375288e-03 1.95227761e-03 4.33839479e-04 2.16919743e-03
      1.73535792e-03 2.01735366e-02 8.02602991e-03 6.50759228e-03
      7.37527106e-03 1.51843822e-03 6.50759204e-04 1.73535792e-03
      8.67678958e-04 1.95227761e-03 2.38611712e-03 1.95227761e-03
      1.51843822e-03 1.95227761e-03 2.16919743e-03 2.16919743e-03
      1.30151841e-03 6.29067235e-03 1.73535792e-03 1.95227761e-03
      2.38611712e-03 6.94143167e-03 1.51843822e-03 1.73535792e-03
      9.76138841e-03 4.12147492e-03 2.81995651e-03 7.59219099e-03
      5.63991303e-03 0. 6.50759204e-04 3.47071583e-03 1.23644248e-02
      1.95227761e-03 1.51843822e-03 9.76138841e-03 1.73535792e-03
      5.20607363e-03 1.95227761e-03 4.77223424e-03 1.51843822e-03
      2.16919743e-03 6.07375288e-03 1.34490235e-02 3.47071583e-03
      8.67678958e-04 6.72451174e-03 2.95010842e-02 5.63991303e-03
      2.51626894e-02 1.30151841e-03 2.29934920e-02 1.73535792e-03
      6.07375288e-03 2.81995651e-03 9.54446848e-03 7.59219099e-03
      4.98915417e-03 1.08459871e-03 3.90455523e-03 8.67678958e-04
      1.51843822e-03 1.95227761e-03 1.73535792e-03 9.11062863e-03
      2.16919743e-03 1.30151841e-03 3.68763553e-03 6.50759204e-04
      1.95227761e-03 1.60520598e-02 1.95227761e-03 1.51843822e-03
      2.38611712e-03 2.60303682e-03 5.42299356e-03 1.51843822e-03
      1.51843822e-03 1.30151841e-03 1.30151841e-03 1.30151841e-03
      4.12147492e-03 8.67678970e-03 1.08459871e-03 1.30151841e-03
      8.67678958e-04 1.73535792e-03 1.30151841e-03 2.38611712e-03
      5.63991303e-03 5.85683296e-03 1.17136659e-02 3.25379614e-03
      7.59219099e-03 1.58351418e-02 3.47071583e-03 4.12147492e-03
      1.30151841e-03 2.60303682e-03 4.98915417e-03 1.51843822e-03
      1.95227761e-03 1.51843822e-03 6.50759228e-03 2.60303682e-03
      6.50759204e-04 2.81995651e-03 1.51843822e-03 2.16919743e-03
      4.98915417e-03 1.30151841e-03 2.38611712e-03 1.95227761e-03
      8.67678958e-04 4.12147492e-03 2.60303691e-02 2.16919743e-03
      4.40347083e-02 2.16919743e-03 1.08459871e-03 2.16919743e-03
      3.90455523e-03 6.29067235e-03 8.67678970e-03 4.33839479e-04
      2.16919743e-03 1.95227761e-03 3.68763553e-03 1.95227761e-03
      3.90455523e-03 1.51843822e-03 2.60303682e-03 1.73535792e-03
      1.51843822e-03 9.97830834e-03 1.30151841e-03 6.50759204e-04
      1.95227761e-03 2.71149669e-02 5.63991303e-03 3.03687644e-03 0.
      4.33839479e-04 1.08459871e-03 5.20607363e-03 1.95227761e-03
      2.38611712e-03 1.73535792e-03 4.98915417e-03 7.37527106e-03
      2.60303691e-02 0. 2.81995651e-03 6.07375279e-02 7.15835160e-03
      2.60303682e-03 3.25379614e-03 6.72451174e-03 2.06073746e-02
      1.30151841e-03 1.14967460e-02 1.73535792e-03 1.30151841e-03
      2.81995651e-03 1.60520598e-02 5.63991303e-03 8.67678958e-04
      1.51843822e-03 2.16919743e-03 8.67678970e-03 4.33839485e-03</_>
    <_>
      0. 6.60066027e-04 1.05610564e-02 2.64026411e-03 1.05610564e-02
      6.60066027e-04 2.64026411e-03 6.60066027e-04 1.32013205e-03
      3.96039616e-03 4.62046219e-03 7.26072630e-03 3.30033014e-03
      1.98019808e-03 3.96039616e-03 9.24092438e-03 0. 3.30033004e-02
      7.92079233e-03 3.30033014e-03 3.30033014e-03 1.98019808e-03
      1.32013205e-03 6.60066027e-04 1.98019808e-03 2.31023114e-02
      1.98019808e-03 1.98019808e-03 1.98019808e-03 3.30033014e-03
      1.51815191e-02 3.96039616e-03 4.62046219e-03 1.25412550e-02
      1.98019808e-03 3.96039616e-03 2.64026411e-03 2.64026411e-03 0.
      1.58415847e-02 1.98019808e-03 1.32013205e-03 2.64026411e-03
      2.64026411e-03 4.62046219e-03 1.98019808e-03 5.28052822e-03
      6.60066027e-04 0. 1.98019808e-03 2.64026411e-03 6.60066027e-04
      2.64026411e-03 3.96039616e-03 1.32013205e-03 3.96039616e-03
      7.92079233e-03 1.45214526e-02 1.32013205e-03 3.96039616e-03
      7.26072630e-03 7.26072630e-03 5.28052822e-03 7.92079233e-03
      5.94059424e-03 9.24092438e-03 7.26072630e-03 3.96039616e-03
      1.32013205e-03 0. 1.65016502e-02 1.98019808e-03 3.96039616e-03
      2.64026411e-03 0. 9.90099087e-03 1.58415847e-02 6.60066027e-03
      3.96039616e-03 6.60066027e-04 1.12211220e-02 1.32013205e-03
      7.92079233e-03 1.32013205e-03 3.23432349e-02 9.24092438e-03
      1.98019808e-03 6.60066027e-04 5.28052822e-03 0. 2.64026411e-03
      1.98019808e-03 3.96039616e-03 5.94059424e-03 9.90099087e-03
      1.65016502e-02 1.98019808e-03 1.98019808e-03 1.32013205e-03
      6.60066027e-03 1.32013205e-03 1.32013205e-03 6.60066027e-04
      3.96039616e-03 3.96039616e-03 6.60066027e-04 6.60066027e-04
      1.32013205e-03 1.32013205e-03 1.32013205e-02 5.94059424e-03
      2.64026411e-03 1.32013205e-02 1.98019808e-03 1.98019808e-03
      6.60066027e-04 1.32013205e-03 4.62046219e-03 5.28052822e-03
      1.05610564e-02 4.62046219e-03 1.98019808e-03 9.90099087e-03
      2.57425755e-02 7.26072630e-03 3.96039616e-03 1.98019808e-03
      5.94059424e-03 1.71617158e-02 1.32013205e-03 0. 3.30033014e-03
      2.64026411e-03 1.98019808e-03 6.60066027e-04 5.94059424e-03
      8.58085789e-03 6.60066027e-04 1.98019808e-03 1.98019808e-03
      1.32013205e-03 3.96039616e-03 1.98019808e-03 1.38613861e-02
      1.45214526e-02 1.32013205e-03 7.26072630e-03 3.30033014e-03
      5.28052822e-03 2.64026411e-03 6.60066027e-03 3.30033014e-03
      6.60066027e-03 6.60066027e-04 2.64026411e-03 1.38613861e-02
      2.64026411e-03 1.98019808e-03 5.28052822e-03 6.60066027e-04
      6.60066027e-03 2.64026411e-03 3.30033014e-03 2.57425755e-02 0.
      1.32013205e-03 1.32013205e-03 1.18811885e-02 1.05610564e-02
      1.32013205e-03 1.32013205e-03 2.64026411e-03 3.30033014e-03
      7.26072630e-03 1.32013205e-03 8.58085789e-03 3.96039616e-03
      7.26072630e-03 9.24092438e-03 2.64026411e-03 0. 0. 1.32013205e-03
      6.60066027e-04 6.60066027e-04 6.60066027e-04 1.12211220e-02
      7.92079233e-03 5.28052822e-03 2.64026411e-03 1.98019808e-03 0.
      6.60066027e-04 2.11221129e-02 5.28052822e-03 3.30033014e-03
      1.98019808e-03 6.60066027e-03 3.30033014e-03 8.58085789e-03</_>
    <_>
      6.37755089e-04 1.59438769e-03 1.05229588e-02 1.27551018e-03
      1.08418362e-02 1.59438769e-03 8.60969350e-03 2.86989799e-03
      2.55102036e-03 4.78316331e-03 9.56632663e-04 6.05867337e-03
      2.55102036e-03 3.50765302e-03 7.01530604e-03 7.65306130e-03 0.
      1.30739789e-02 2.55102036e-03 3.18877539e-03 5.73979598e-03
      4.78316331e-03 6.05867337e-03 1.59438769e-03 6.05867337e-03
      1.40306121e-02 3.82653065e-03 1.91326533e-03 1.59438769e-03
      1.27551018e-03 7.65306130e-03 3.82653065e-03 3.82653065e-03
      1.94515307e-02 3.50765302e-03 9.56632663e-04 1.91326533e-03
      2.23214272e-03 3.18877539e-03 7.33418344e-03 1.27551018e-03
      2.55102036e-03 2.86989799e-03 2.23214272e-03 3.18877539e-03
      6.37755089e-04 6.37755077e-03 1.59438769e-03 2.55102036e-03
      9.56632663e-04 1.08418362e-02 2.23214272e-03 1.59438769e-03
      1.37117347e-02 1.91326533e-03 2.23214272e-03 6.69642864e-03
      1.24362241e-02 1.59438769e-03 2.86989799e-03 3.50765302e-03
      1.33928573e-02 2.55102036e-03 4.46428545e-03 6.37755077e-03
      7.01530604e-03 3.50765302e-03 1.59438769e-03 5.10204071e-03
      6.37755077e-03 7.01530604e-03 3.50765302e-03 1.21173467e-02
      4.14540805e-03 1.59438769e-03 7.01530604e-03 1.05229588e-02
      4.14540805e-03 7.65306130e-03 2.23214272e-03 1.14795920e-02
      1.59438769e-03 1.14795920e-02 2.55102036e-03 1.65816322e-02
      6.37755077e-03 6.05867337e-03 6.69642864e-03 8.29081610e-03 0.
      2.23214272e-03 2.23214272e-03 6.37755089e-04 6.37755077e-03
      2.86989799e-03 4.78316331e-03 2.86989799e-03 6.05867337e-03
      9.56632663e-04 5.73979598e-03 5.73979598e-03 3.50765302e-03
      1.59438769e-03 3.18877539e-03 6.69642864e-03 4.14540805e-03
      1.59438769e-03 3.82653065e-03 1.27551018e-03 9.56632663e-04
      1.62627548e-02 1.33928573e-02 2.16836724e-02 1.59438769e-03
      1.59438769e-03 6.37755089e-04 2.55102036e-03 1.91326533e-03
      3.50765302e-03 6.69642864e-03 1.33928573e-02 2.86989799e-03
      1.02040814e-02 1.91326533e-02 9.24744923e-03 3.50765302e-03
      2.23214272e-03 7.33418344e-03 1.97704080e-02 3.18877539e-03
      2.23214272e-03 2.86989799e-03 1.91326533e-03 2.55102036e-03
      2.55102036e-03 3.82653065e-03 5.10204071e-03 2.23214272e-03
      3.50765302e-03 6.37755089e-04 1.59438769e-03 2.55102036e-03 0.
      3.18877539e-03 4.78316331e-03 1.59438769e-03 6.37755077e-03
      1.59438769e-03 3.50765302e-03 1.91326533e-03 1.11607136e-02
      4.46428545e-03 7.65306130e-03 6.37755089e-04 1.59438769e-03
      8.92857090e-03 3.82653065e-03 2.55102036e-03 5.42091811e-03
      2.86989799e-03 6.05867337e-03 1.27551018e-03 6.37755089e-04
      2.96556111e-02 1.27551018e-03 3.82653065e-03 2.86989799e-03
      7.01530604e-03 2.55102036e-03 2.55102036e-03 3.18877544e-04
      1.59438769e-03 3.18877539e-03 4.46428545e-03 1.91326533e-03
      6.05867337e-03 4.78316331e-03 6.37755077e-03 1.46683669e-02
      1.49872443e-02 0. 2.86989799e-03 2.10459176e-02 5.42091811e-03
      9.56632663e-04 5.42091811e-03 4.78316331e-03 1.14795920e-02
      2.86989799e-03 6.69642864e-03 9.56632663e-04 3.18877544e-04
      3.82653065e-03 7.65306130e-03 4.14540805e-03 9.56632663e-04 0.
      2.86989799e-03 8.60969350e-03 3.50765302e-03</_>
    <_>
      2.31749704e-03 8.69061390e-04 2.31749704e-03 2.89687142e-03
      4.92468104e-03 3.47624556e-03 6.66280417e-03 2.60718423e-03
      5.79374260e-04 1.15874852e-03 5.79374260e-04 6.37311675e-03
      2.89687130e-04 1.15874852e-03 3.47624556e-03 5.79374284e-03 0.
      6.08342979e-03 7.53186550e-03 6.37311675e-03 2.89687142e-03
      4.34530713e-03 1.44843571e-03 1.15874852e-03 6.08342979e-03
      2.40440313e-02 5.79374284e-03 8.69061390e-04 4.05561971e-03
      5.21436846e-03 1.73812285e-02 1.44843571e-03 5.21436846e-03
      1.10081108e-02 3.18655837e-03 2.89687130e-04 8.69061390e-04
      2.02780985e-03 4.05561971e-03 1.33256083e-02 5.79374260e-04
      8.69061390e-04 2.60718423e-03 1.15874852e-03 1.15874852e-03
      2.89687130e-04 5.50405541e-03 8.69061390e-04 3.76593275e-03
      5.79374260e-04 1.07184239e-02 5.79374260e-04 5.79374260e-04
      1.85399763e-02 1.73812278e-03 2.31749704e-03 7.24217808e-03
      6.95249112e-03 4.92468104e-03 2.89687142e-03 1.73812278e-03
      1.59327928e-02 2.60718423e-03 3.18655837e-03 6.66280417e-03
      5.50405541e-03 2.02780985e-03 1.15874852e-03 3.47624556e-03
      6.37311675e-03 1.04287369e-02 8.40092637e-03 1.24565465e-02
      2.31749704e-03 2.89687142e-03 6.66280417e-03 1.30359204e-02
      1.44843571e-03 1.56431049e-02 4.92468104e-03 6.08342979e-03
      2.02780985e-03 5.50405541e-03 8.69061390e-04 1.10081108e-02
      5.50405541e-03 6.95249112e-03 8.11123941e-03 5.50405541e-03
      2.89687130e-04 4.92468104e-03 1.73812278e-03 3.18655837e-03
      7.53186550e-03 2.60718423e-03 7.53186550e-03 3.76593275e-03
      3.18655837e-03 1.15874852e-03 2.31749704e-03 1.44843571e-03
      1.73812278e-03 8.69061390e-04 2.02780985e-03 1.73812278e-03
      5.21436846e-03 2.89687130e-04 3.47624556e-03 1.44843571e-03
      5.50405541e-03 8.98030121e-03 8.11123941e-03 3.07068359e-02 0.
      1.15874852e-03 2.02780985e-03 1.01390500e-02 5.21436846e-03
      2.89687142e-03 9.55967512e-03 6.37311675e-03 8.69061390e-04
      4.34530713e-03 1.50637310e-02 8.40092637e-03 1.44843571e-03
      1.15874852e-03 4.63499408e-03 2.49130931e-02 8.69061390e-04
      1.73812278e-03 2.02780985e-03 2.02780985e-03 5.79374260e-04
      4.92468104e-03 1.73812278e-03 4.63499408e-03 3.76593275e-03
      2.89687142e-03 8.98030121e-03 2.31749704e-03 1.73812278e-03
      1.44843571e-03 4.34530713e-03 6.08342979e-03 1.44843571e-03
      1.76709145e-02 2.89687130e-04 8.69061390e-04 4.05561971e-03
      8.11123941e-03 8.11123941e-03 4.05561971e-03 8.69061390e-04
      5.79374260e-04 1.65121667e-02 4.05561971e-03 8.69061390e-04
      1.44843571e-03 9.84936208e-03 2.89687142e-03 1.15874852e-03
      5.79374260e-04 1.10081108e-02 3.18655837e-03 8.69061390e-04
      2.02780985e-03 4.34530713e-03 4.34530713e-03 3.47624556e-03
      2.02780985e-03 1.15874852e-03 2.02780985e-03 7.24217808e-03
      5.79374260e-04 1.73812278e-03 2.60718423e-03 2.92584002e-02
      1.18771726e-02 1.68018527e-02 0. 1.73812278e-03 3.65005769e-02
      4.63499408e-03 6.08342979e-03 6.95249112e-03 3.76593275e-03
      7.82155246e-03 6.95249112e-03 2.02780985e-03 1.73812278e-03
      5.21436846e-03 2.02780985e-03 1.62224788e-02 2.89687142e-03
      3.18655837e-03 8.69061390e-04 1.44843571e-03 7.82155246e-03
      3.47624556e-03</_>
    <_>
      1.55339809e-03 2.33009714e-03 2.71844678e-03 3.10679618e-03
      3.88349523e-03 1.16504857e-03 2.71844678e-03 4.66019427e-03
      1.55339809e-03 3.88349523e-03 2.33009714e-03 7.37864105e-03
      1.55339809e-03 1.94174761e-03 7.37864105e-03 4.66019427e-03 0.
      1.55339809e-03 3.10679618e-03 9.32038855e-03 1.00970874e-02
      3.10679618e-03 1.94174761e-03 1.94174761e-03 4.66019427e-03
      1.04854368e-02 1.94174761e-03 0. 3.88349523e-03 5.04854368e-03
      1.51456315e-02 6.21359237e-03 5.04854368e-03 8.15534033e-03
      2.71844678e-03 1.55339809e-03 0. 2.33009714e-03 3.49514559e-03
      2.99029127e-02 3.88349523e-04 1.94174761e-03 6.99029118e-03
      3.49514559e-03 1.55339809e-03 0. 8.93203914e-03 7.76699046e-04
      2.33009714e-03 3.88349523e-04 3.88349523e-03 1.16504857e-03
      3.49514559e-03 6.60194177e-03 4.66019427e-03 1.16504857e-03
      5.82524296e-03 1.59223303e-02 9.70873795e-03 3.49514559e-03
      1.55339809e-03 7.76699046e-03 1.55339809e-03 3.49514559e-03
      5.43689355e-03 6.99029118e-03 4.27184487e-03 2.33009714e-03
      5.04854368e-03 2.33009714e-03 6.99029118e-03 4.66019427e-03
      2.71844678e-03 1.16504857e-03 1.55339809e-03 3.10679618e-03
      3.18446606e-02 7.76699046e-04 3.26213613e-02 5.43689355e-03
      1.20388353e-02 2.71844678e-03 5.04854368e-03 1.94174761e-03
      1.82524268e-02 7.37864105e-03 7.76699046e-04 1.04854368e-02
      5.43689355e-03 3.88349523e-04 2.71844678e-03 1.55339809e-03
      3.88349523e-04 3.49514559e-03 1.16504857e-03 3.88349523e-03
      2.71844678e-03 1.16504857e-03 1.55339809e-03 6.99029118e-03
      7.76699046e-04 3.10679618e-03 0. 2.33009714e-03 5.04854368e-03
      4.27184487e-03 7.76699046e-04 4.27184487e-03 7.76699046e-04
      1.55339809e-03 1.51456315e-02 3.10679618e-03 1.12621365e-02
      1.94174761e-03 1.16504857e-03 3.88349523e-04 3.49514559e-03
      7.76699046e-04 2.33009714e-03 3.49514559e-03 3.49514559e-03
      1.16504857e-03 5.43689355e-03 2.05825251e-02 1.00970874e-02
      3.10679618e-03 7.76699046e-04 5.82524296e-03 1.51456315e-02
      7.76699046e-04 0. 2.33009714e-03 3.88349523e-03 3.10679618e-03
      2.71844678e-03 8.15534033e-03 1.55339809e-03 2.33009714e-03
      3.49514559e-03 4.27184487e-03 1.55339809e-03 1.55339809e-03
      7.76699046e-04 3.10679618e-03 1.32038835e-02 3.10679618e-03
      1.28155341e-02 3.88349523e-04 1.55339809e-03 3.88349523e-03
      8.15534033e-03 6.60194177e-03 7.76699046e-03 0. 7.76699046e-04
      1.55339809e-02 3.10679618e-03 2.33009714e-03 5.82524296e-03
      6.60194177e-03 9.32038855e-03 1.94174761e-03 1.94174761e-03
      4.66019427e-03 3.88349523e-04 6.99029118e-03 2.33009714e-03
      6.21359237e-02 1.55339809e-03 1.94174761e-03 5.04854368e-03
      3.88349523e-04 1.55339809e-03 2.71844678e-03 1.16504857e-03
      4.66019427e-03 3.10679618e-03 3.88349523e-03 1.86407771e-02
      2.40776706e-02 0. 1.94174761e-03 1.35922330e-02 4.66019427e-03
      4.66019427e-03 6.21359237e-03 8.15534033e-03 1.12621365e-02
      3.10679618e-03 4.27184487e-03 2.33009714e-03 3.88349523e-03
      2.33009714e-03 7.76699046e-03 3.49514559e-03 7.76699046e-04
      2.33009714e-03 1.55339809e-03 6.60194177e-03 7.76699046e-04</_>
    <_>
      2.26171245e-03 3.23101791e-04 7.10823946e-03 1.29240716e-03
      3.87722161e-03 6.46203582e-04 7.10823946e-03 1.93861080e-03
      4.20032348e-03 1.93861080e-03 3.23101785e-03 5.81583241e-03
      1.93861080e-03 1.93861080e-03 4.20032348e-03 5.81583241e-03 0.
      1.77705977e-02 1.93861080e-03 1.29240716e-03 4.84652678e-03
      4.20032348e-03 2.58481433e-03 1.93861080e-03 3.55411973e-03
      1.61550902e-02 9.69305402e-04 3.23101791e-04 2.58481433e-03
      1.61550893e-03 1.22778676e-02 7.43134134e-03 3.87722161e-03
      1.71243958e-02 2.90791621e-03 1.61550893e-03 9.69305402e-04
      1.61550893e-03 1.61550893e-03 1.45395808e-02 1.61550893e-03
      1.29240716e-03 4.84652678e-03 3.23101785e-03 1.29240716e-03
      1.61550893e-03 1.00161554e-02 1.93861080e-03 3.55411973e-03
      9.69305402e-04 1.00161554e-02 9.69305402e-04 3.23101791e-04
      1.09854611e-02 3.87722161e-03 2.26171245e-03 9.04684979e-03
      1.48626827e-02 7.75444321e-03 7.43134134e-03 2.26171245e-03
      1.13085629e-02 1.93861080e-03 2.90791621e-03 5.16962865e-03
      3.87722161e-03 5.16962865e-03 2.58481433e-03 4.84652678e-03
      1.29240716e-03 8.40064697e-03 3.23101785e-03 8.72374792e-03
      3.55411973e-03 2.26171245e-03 4.52342490e-03 1.84168015e-02
      2.90791621e-03 4.84652678e-03 6.46203582e-04 1.09854611e-02
      1.29240716e-03 7.10823946e-03 1.61550893e-03 1.87399033e-02
      4.84652678e-03 2.90791621e-03 4.20032348e-03 3.55411973e-03 0.
      9.69305402e-04 9.69305402e-04 1.29240716e-03 8.40064697e-03
      9.69305402e-04 6.78513758e-03 3.23101785e-03 2.26171245e-03
      2.26171245e-03 6.46203570e-03 3.55411973e-03 2.26171245e-03
      1.61550893e-03 4.52342490e-03 4.20032348e-03 4.20032348e-03
      3.23101791e-04 1.61550893e-03 1.93861080e-03 4.52342490e-03
      8.07754509e-03 5.16962865e-03 5.55735081e-02 1.29240716e-03
      3.23101791e-04 3.23101791e-04 1.93861080e-03 2.90791621e-03
      3.23101785e-03 3.87722161e-03 5.49273053e-03 2.58481433e-03
      5.81583241e-03 1.97092090e-02 9.69305355e-03 2.58481433e-03
      6.46203582e-04 3.87722161e-03 1.61550902e-02 9.69305402e-04
      2.26171245e-03 2.26171245e-03 3.87722161e-03 2.58481433e-03
      3.23101785e-03 7.43134134e-03 3.87722161e-03 1.61550893e-03
      2.26171245e-03 3.23101791e-04 3.23101785e-03 2.26171245e-03
      9.69305402e-04 1.22778676e-02 6.13893382e-03 9.69305402e-04
      1.32471733e-02 2.26171245e-03 1.29240716e-03 1.29240716e-03
      1.00161554e-02 3.55411973e-03 1.00161554e-02 3.23101791e-04
      2.58481433e-03 1.84168015e-02 4.20032348e-03 6.46203582e-04
      7.10823946e-03 3.23101785e-03 9.36995167e-03 6.46203582e-04
      1.29240716e-03 3.55411954e-02 1.93861080e-03 3.55411973e-03
      9.69305402e-04 1.64781921e-02 1.06623592e-02 1.93861080e-03
      3.23101791e-04 1.29240716e-03 3.55411973e-03 1.29240716e-03
      1.29240716e-03 1.00161554e-02 8.40064697e-03 3.55411973e-03
      1.19547667e-02 2.26171259e-02 0. 6.46203582e-04 1.26009695e-02
      2.58481433e-03 3.23101791e-04 1.61550893e-03 4.20032348e-03
      1.13085629e-02 2.26171245e-03 7.10823946e-03 2.26171245e-03
      1.29240716e-03 4.20032348e-03 1.16316648e-02 1.61550893e-03
      2.58481433e-03 9.69305402e-04 1.61550893e-03 6.13893382e-03
      2.58481433e-03</_>
    <_>
      1.06951874e-03 1.06951874e-03 9.98217426e-03 1.78253115e-03
      1.31907305e-02 3.56506236e-04 4.27807495e-03 4.99108713e-03
      2.49554357e-03 4.27807495e-03 2.85204989e-03 7.48663116e-03
      4.27807495e-03 1.42602494e-03 5.34759369e-03 1.03386808e-02 0.
      1.85383242e-02 6.77361852e-03 7.13012472e-04 9.26916208e-03
      2.13903747e-03 3.20855621e-03 3.92156839e-03 6.06060587e-03
      1.96078438e-02 2.85204989e-03 0. 3.56506230e-03 1.42602494e-03
      3.63636352e-02 7.13012472e-04 3.92156839e-03 1.39037436e-02
      2.85204989e-03 3.56506236e-04 4.63458104e-03 7.13012472e-04
      7.13012472e-04 3.56506230e-03 1.42602494e-03 2.49554357e-03
      1.42602494e-03 3.20855621e-03 4.27807495e-03 1.78253115e-03
      1.14081996e-02 3.56506230e-03 3.20855621e-03 6.06060587e-03
      4.27807495e-03 2.13903747e-03 1.06951874e-03 4.27807495e-03
      4.99108713e-03 3.92156839e-03 1.28342248e-02 7.48663116e-03
      1.78253115e-03 3.20855621e-03 2.03208551e-02 3.20855621e-03
      7.13012472e-04 3.92156839e-03 8.55614990e-03 1.60427801e-02
      4.27807495e-03 2.85204989e-03 7.13012472e-04 7.13012472e-04
      2.13903747e-03 1.42602494e-03 2.10338682e-02 2.49554357e-03
      1.06951874e-03 7.13012461e-03 9.26916208e-03 3.20855621e-03
      3.56506221e-02 1.78253115e-03 1.28342248e-02 3.56506236e-04
      1.14081996e-02 3.20855621e-03 1.39037436e-02 8.19964334e-03
      4.99108713e-03 1.06951874e-03 7.84313679e-03 0. 1.78253115e-03
      1.06951874e-03 3.56506230e-03 7.13012461e-03 3.92156839e-03
      4.63458104e-03 3.20855621e-03 2.49554357e-03 3.56506230e-03
      9.98217426e-03 3.92156839e-03 2.85204989e-03 1.42602494e-03
      2.85204989e-03 3.56506230e-03 3.56506236e-04 1.78253115e-03
      2.85204989e-03 1.06951874e-03 6.06060587e-03 5.70409978e-03
      1.14081996e-02 1.03386808e-02 2.49554357e-03 3.92156839e-03
      1.78253115e-03 2.13903747e-03 2.85204989e-03 7.13012472e-04
      1.39037436e-02 1.03386808e-02 2.85204989e-03 7.84313679e-03
      5.34759369e-03 9.62566864e-03 3.56506230e-03 1.78253115e-03
      3.56506236e-04 7.13012472e-04 1.42602494e-03 4.99108713e-03
      3.20855621e-03 7.13012472e-04 7.13012472e-04 2.13903747e-03
      6.77361852e-03 3.20855621e-03 1.42602494e-03 2.13903747e-03
      3.56506236e-04 2.85204989e-03 6.77361852e-03 0. 2.85204989e-03
      1.42602492e-02 3.20855621e-03 2.67379675e-02 1.78253115e-03
      1.42602494e-03 3.92156839e-03 2.85204989e-03 3.20855621e-03
      1.14081996e-02 3.20855621e-03 2.49554357e-03 5.70409978e-03
      1.06951874e-03 1.78253115e-03 3.56506230e-03 6.41711242e-03
      3.92156839e-03 2.85204989e-03 3.56506230e-03 6.77361852e-03
      1.42602494e-03 7.13012472e-04 4.27807495e-03 1.92513373e-02
      3.56506230e-03 2.13903747e-03 0. 5.34759369e-03 3.20855621e-03
      1.42602494e-03 7.13012472e-04 2.85204989e-03 4.63458104e-03
      4.27807495e-03 3.56506230e-03 4.27807495e-03 0. 1.78253115e-03
      1.28342248e-02 7.48663116e-03 1.06951874e-03 1.06951874e-03
      4.27807495e-03 1.81818176e-02 2.85204989e-03 2.49554357e-03
      3.20855621e-03 1.42602494e-03 4.99108713e-03 4.27807495e-03
      2.49554357e-03 3.92156839e-03 7.13012472e-04 3.56506230e-03
      7.84313679e-03 2.21033860e-02</_>
    <_>
      3.95726151e-04 3.95726151e-04 1.02888802e-02 7.91452301e-04
      3.95726133e-03 2.77008303e-03 6.33161841e-03 3.95726133e-03
      3.95726133e-03 2.37435685e-03 3.16580920e-03 1.02888802e-02
      5.14444010e-03 2.77008303e-03 6.33161841e-03 7.51879672e-03 0.
      1.78076774e-02 3.56153538e-03 2.37435685e-03 1.97863067e-03
      2.37435685e-03 3.56153538e-03 1.58290460e-03 4.35298774e-03
      1.66204982e-02 5.54016605e-03 0. 3.95726133e-03 9.10170190e-03
      1.62247717e-02 4.35298774e-03 4.74871369e-03 1.38504151e-02
      2.77008303e-03 1.58290460e-03 1.18717842e-03 1.18717842e-03
      5.93589246e-03 1.10803321e-02 3.95726151e-04 1.18717842e-03
      2.77008303e-03 1.97863067e-03 1.18717842e-03 1.58290460e-03
      5.93589246e-03 1.97863067e-03 1.18717842e-03 1.18717842e-03
      6.72734436e-03 2.37435685e-03 1.18717842e-03 5.93589246e-03
      3.95726133e-03 1.97863067e-03 6.33161841e-03 1.26632368e-02
      1.58290460e-03 4.74871369e-03 5.54016605e-03 1.66204982e-02
      1.18717842e-03 5.54016605e-03 2.77008303e-03 1.02888802e-02
      6.72734436e-03 1.97863067e-03 4.35298774e-03 3.16580920e-03
      1.42461415e-02 5.93589246e-03 7.12307077e-03 2.77008303e-03
      1.18717842e-03 1.10803321e-02 5.93589246e-03 4.74871369e-03
      3.16580920e-03 7.91452301e-04 7.91452266e-03 1.97863067e-03
      7.12307077e-03 3.56153538e-03 2.01820340e-02 1.06846057e-02
      4.35298774e-03 1.97863067e-03 7.51879672e-03 0. 2.77008303e-03
      1.58290460e-03 2.37435685e-03 3.95726133e-03 3.56153538e-03
      5.93589246e-03 1.97863067e-03 3.95726151e-04 7.91452301e-04
      3.16580920e-03 1.58290460e-03 2.77008303e-03 3.95726151e-04
      3.95726133e-03 2.37435685e-03 2.37435685e-03 2.37435685e-03
      3.16580920e-03 2.37435685e-03 1.38504151e-02 5.14444010e-03
      9.89315379e-03 5.54016605e-03 7.91452301e-04 3.95726133e-03
      2.37435685e-03 6.72734436e-03 3.56153538e-03 6.33161841e-03
      4.74871369e-03 8.70597549e-03 5.93589246e-03 3.95726133e-03
      1.10803321e-02 5.54016605e-03 4.35298774e-03 3.95726151e-04
      2.77008303e-03 2.21606642e-02 3.16580920e-03 1.18717842e-03
      1.58290460e-03 3.56153538e-03 1.97863067e-03 9.10170190e-03
      1.06846057e-02 2.77008303e-03 2.77008303e-03 3.56153538e-03
      1.97863067e-03 1.58290460e-03 1.58290460e-03 1.97863067e-03
      1.42461415e-02 7.91452266e-03 2.77008303e-03 8.70597549e-03
      2.37435685e-03 1.18717842e-03 3.56153538e-03 6.72734436e-03
      8.70597549e-03 1.38504151e-02 7.91452301e-04 1.97863067e-03
      1.10803321e-02 3.95726133e-03 7.91452301e-04 9.10170190e-03
      7.51879672e-03 9.89315379e-03 1.18717842e-03 2.37435685e-03
      2.25563906e-02 1.97863067e-03 1.97863067e-03 1.58290460e-03
      2.77008303e-03 8.31024908e-03 1.58290460e-03 1.18717842e-03
      1.58290460e-03 1.97863067e-03 7.91452266e-03 7.91452301e-04
      3.16580920e-03 6.33161841e-03 5.54016605e-03 5.14444010e-03
      8.31024908e-03 0. 1.97863067e-03 1.66204982e-02 2.77008303e-03
      4.74871369e-03 5.14444010e-03 1.02888802e-02 1.18717849e-02
      4.35298774e-03 3.56153538e-03 1.18717842e-03 1.18717842e-03
      5.93589246e-03 2.21606642e-02 7.12307077e-03 3.95726133e-03
      1.18717842e-03 3.56153538e-03 1.10803321e-02 3.16580920e-03</_>
    <_>
      3.25071113e-03 2.43803347e-03 1.62535557e-03 2.84437230e-03
      5.28240576e-03 1.62535557e-03 6.09508343e-03 2.43803347e-03
      4.87606693e-03 4.06338891e-04 4.87606693e-03 4.87606693e-03
      4.06338880e-03 2.84437230e-03 5.28240576e-03 5.28240576e-03 0.
      1.99106056e-02 9.75213386e-03 5.28240576e-03 7.72043876e-03
      4.06338880e-03 3.25071113e-03 4.46972763e-03 3.65704997e-03
      8.93945526e-03 2.43803347e-03 0. 3.25071113e-03 1.21901673e-03
      1.70662329e-02 3.25071113e-03 2.43803347e-03 1.25965057e-02
      5.28240576e-03 8.12677783e-04 1.62535557e-03 2.43803347e-03
      5.28240576e-03 1.01584727e-02 2.43803347e-03 1.62535557e-03
      2.03169440e-03 1.21901673e-03 1.21901673e-03 8.12677783e-04
      8.53311643e-03 1.62535557e-03 2.03169440e-03 1.62535557e-03
      6.90776110e-03 1.21901673e-03 2.03169440e-03 8.93945526e-03
      4.06338880e-03 4.06338880e-03 6.09508343e-03 1.99106056e-02
      2.43803347e-03 4.46972763e-03 5.28240576e-03 6.50142226e-03
      2.43803347e-03 5.68874460e-03 7.72043876e-03 7.72043876e-03
      4.06338880e-03 1.62535557e-03 5.68874460e-03 6.50142226e-03
      6.50142226e-03 4.87606693e-03 1.21901669e-02 2.43803347e-03
      8.12677783e-04 1.66598950e-02 4.06338880e-03 3.25071113e-03
      1.66598950e-02 4.06338880e-03 1.50345387e-02 1.21901673e-03
      5.68874460e-03 0. 1.09711504e-02 7.72043876e-03 3.65704997e-03
      6.09508343e-03 1.01584727e-02 1.21901673e-03 2.03169440e-03
      2.03169440e-03 2.43803347e-03 9.75213386e-03 2.43803347e-03
      6.09508343e-03 4.06338880e-03 2.43803347e-03 1.62535557e-03
      1.01584727e-02 3.25071113e-03 1.21901673e-03 8.12677783e-04
      3.65704997e-03 5.28240576e-03 2.03169440e-03 1.21901673e-03
      4.87606693e-03 2.03169440e-03 1.54408775e-02 1.38155222e-02
      5.28240576e-03 7.72043876e-03 2.03169440e-03 2.84437230e-03
      1.62535557e-03 2.43803347e-03 2.03169440e-03 2.84437230e-03
      7.72043876e-03 1.01584727e-02 4.06338880e-03 4.46972763e-03
      1.95042677e-02 1.42218610e-02 8.12677783e-04 4.06338891e-04
      2.84437230e-03 1.95042677e-02 8.12677783e-04 1.62535557e-03
      2.84437230e-03 8.12677783e-04 1.62535557e-03 1.21901673e-03
      3.65704997e-03 1.21901673e-03 5.28240576e-03 1.21901673e-03
      1.21901673e-03 4.06338880e-03 5.28240576e-03 2.03169440e-03
      1.30028445e-02 6.09508343e-03 1.62535557e-03 6.09508343e-03
      2.03169440e-03 2.03169440e-03 2.03169440e-03 1.05648115e-02
      3.65704997e-03 5.68874460e-03 8.12677783e-04 8.12677783e-04
      1.78789105e-02 5.68874460e-03 2.84437230e-03 4.06338880e-03
      3.25071113e-03 6.50142226e-03 8.12677783e-04 1.21901673e-03
      2.84437230e-03 1.21901673e-03 2.43803347e-03 4.06338891e-04
      2.43803347e-03 6.09508343e-03 2.03169440e-03 4.06338880e-03 0.
      3.25071113e-03 2.03169440e-03 8.12677783e-04 1.62535557e-03
      5.28240576e-03 8.93945526e-03 1.74725726e-02 3.49451452e-02 0.
      1.21901673e-03 2.80373842e-02 3.25071113e-03 3.65704997e-03
      5.68874460e-03 3.65704997e-03 1.25965057e-02 6.90776110e-03
      4.46972763e-03 2.43803347e-03 2.84437230e-03 8.12677783e-04
      8.93945526e-03 2.43803347e-03 3.65704997e-03 8.12677783e-04
      3.65704997e-03 5.68874460e-03 3.65704997e-03</_></support_vectors>
  <decision_functions>
    <_>
      <sv_count>24</sv_count>
      <rho>-9.4496373060794747e-01</rho>
      <alpha>
        1. 1.4141202543135639e-01 4.6520370434931008e-01 1. 1.
        9.2220189716078937e-01 4.0903864703992981e-01 1.
        7.7071345424939652e-01 3.7596799493925465e-01
        6.0765037031834745e-01 3.0781190651161555e-01 1. 1. -1. -1. -1.
        -1. -1. -1. -1. -1. -1. -1.</alpha>
      <index>
        0 1 2 3 4 5 6 7 8 9 10 11 12 13 14 15 16 17 18 19 20 21 22 23</index></_></decision_functions></my_svm>
</opencv_storage>
