<?xml version="1.0"?>
<opencv_storage>
<my_svm type_id="opencv-ml-svm">
  <svm_type>C_SVC</svm_type>
  <kernel><type>RBF</type>
    <gamma>1.</gamma></kernel>
  <C>1.</C>
  <term_criteria><epsilon>1.1920928955078125e-07</epsilon>
    <iterations>1000</iterations></term_criteria>
  <var_all>200</var_all>
  <var_count>200</var_count>
  <class_count>2</class_count>
  <class_labels type_id="opencv-matrix">
    <rows>1</rows>
    <cols>2</cols>
    <dt>i</dt>
    <data>
      0 1</data></class_labels>
  <sv_total>24</sv_total>
  <support_vectors>
    <_>
      1.85873604e-03 8.36431235e-03 2.78810412e-03 4.64684004e-03
      1.85873604e-03 2.78810412e-03 3.71747208e-03 0. 3.71747208e-03
      9.29368020e-04 3.71747208e-03 6.50557596e-03 3.71747208e-03
      9.29368020e-04 1.39405206e-02 2.78810412e-03 4.64684004e-03
      6.50557596e-03 2.78810412e-03 4.64684004e-03 9.29368020e-04
      9.29368020e-04 9.29368020e-04 7.43494416e-03 6.50557596e-03
      1.85873604e-03 3.71747208e-03 1.11524165e-02 8.36431235e-03
      4.64684004e-03 4.64684004e-03 3.71747208e-03 8.36431235e-03
      1.57992560e-02 9.29368020e-04 0. 5.57620823e-03 3.71747208e-03
      8.36431235e-03 1.85873604e-03 6.50557596e-03 1.11524165e-02
      5.57620823e-03 1.30111519e-02 5.57620823e-03 6.50557596e-03
      9.29368020e-04 5.57620823e-03 2.78810412e-03 3.71747208e-03
      4.64684004e-03 4.64684004e-03 1.85873604e-03 9.29368008e-03
      1.85873604e-03 6.50557596e-03 7.43494416e-03 4.64684004e-03
      9.29368020e-04 2.78810412e-03 4.64684004e-03 4.64684004e-03
      6.50557596e-03 2.78810412e-03 1.85873604e-03 9.29368008e-03
      4.64684004e-03 6.50557596e-03 9.29368020e-04 0. 2.78810412e-03
      7.43494416e-03 6.50557596e-03 9.29368008e-03 1.85873604e-03
      2.78810412e-03 6.50557596e-03 4.64684004e-03 4.64684004e-03
      9.29368020e-04 7.43494416e-03 3.71747208e-03 9.29368020e-04
      1.39405206e-02 1.76579915e-02 1.11524165e-02 7.43494416e-03
      5.57620823e-03 6.50557596e-03 6.50557596e-03 4.64684004e-03
      1.85873604e-03 2.78810412e-03 3.71747208e-03 2.78810412e-03
      1.85873604e-03 6.50557596e-03 9.29368020e-04 5.57620823e-03
      2.78810412e-03 3.71747208e-03 1.85873604e-03 2.78810412e-03
      1.85873604e-03 4.64684004e-03 6.50557596e-03 3.71747208e-03
      7.43494416e-03 0. 1.85873604e-03 3.71747208e-03 4.64684004e-03 0.
      8.36431235e-03 9.29368020e-04 1.85873604e-03 3.71747208e-03
      6.50557596e-03 5.57620823e-03 1.20817842e-02 9.29368020e-04
      2.78810412e-03 5.57620823e-03 2.04460956e-02 8.36431235e-03
      4.64684004e-03 4.64684004e-03 6.50557596e-03 9.29368020e-04
      1.39405206e-02 9.29368008e-03 3.71747208e-03 3.71747208e-03
      9.29368008e-03 4.64684004e-03 5.57620823e-03 9.29368020e-04
      6.50557596e-03 1.20817842e-02 9.29368020e-04 3.71747208e-03
      5.57620823e-03 1.85873604e-03 7.43494416e-03 8.36431235e-03
      5.57620823e-03 9.29368008e-03 9.29368020e-04 3.71747208e-03
      7.43494416e-03 3.71747208e-03 3.71747208e-03 2.78810412e-03
      1.11524165e-02 9.29368020e-04 1.85873604e-03 3.71747208e-03
      2.78810412e-03 0. 7.43494416e-03 3.71747208e-03 6.50557596e-03
      2.78810412e-03 7.43494416e-03 5.57620823e-03 5.57620823e-03
      5.57620823e-03 6.50557596e-03 1.85873604e-03 1.39405206e-02
      3.71747208e-03 3.71747208e-03 5.57620823e-03 1.57992560e-02
      4.64684004e-03 4.64684004e-03 7.43494416e-03 9.29368020e-04
      5.57620823e-03 4.64684004e-03 2.78810412e-03 0. 9.29368020e-04
      6.50557596e-03 7.43494416e-03 5.57620823e-03 5.57620823e-03
      1.02230478e-02 5.57620823e-03 8.36431235e-03 3.71747208e-03
      1.85873604e-03 1.30111519e-02 4.64684004e-03 5.57620823e-03
      2.78810412e-03 4.64684004e-03 9.29368020e-04 4.64684004e-03 0.</_>
    <_>
      1.51668349e-03 1.01112237e-03 4.55005048e-03 1.26390299e-02
      1.51668349e-03 1.01112237e-03 1.06167849e-02 1.01112237e-03
      4.55005048e-03 5.56117296e-03 4.55005048e-03 9.10010096e-03
      5.56117296e-03 4.04448947e-03 5.56117296e-03 4.04448947e-03
      1.01112237e-03 2.02224473e-03 4.04448947e-03 4.55005048e-03
      2.52780598e-03 2.52780598e-03 5.05561184e-04 3.03336699e-03
      1.51668349e-03 5.05561184e-04 2.02224473e-03 8.08897894e-03
      4.55005048e-03 2.52780598e-03 2.02224473e-03 6.57229545e-03
      3.03336699e-03 1.26390299e-02 0. 2.52780598e-03 3.84226516e-02
      2.02224473e-03 5.56117296e-03 2.52780598e-03 1.51668349e-03
      5.05561195e-03 2.02224473e-03 2.52780598e-03 1.51668349e-03
      6.57229545e-03 0. 3.53892823e-03 1.01112237e-03 5.56117296e-03
      3.53892823e-03 1.51668349e-03 1.51668349e-03 1.11223459e-02
      1.01112237e-03 1.51668349e-03 3.53892823e-03 2.57836208e-02
      7.58341793e-03 2.02224473e-03 7.07785645e-03 1.01112237e-03
      8.08897894e-03 9.10010096e-03 7.07785645e-03 5.05561195e-03
      5.05561195e-03 4.55005048e-03 5.05561184e-04 1.01112237e-03
      5.05561195e-03 4.55005048e-03 1.01112237e-03 0. 2.52780598e-03
      3.03336699e-03 5.05561195e-03 1.01112237e-03 6.57229545e-03
      5.05561184e-04 3.03336699e-03 2.52780598e-03 4.04448947e-03
      9.60566290e-03 3.74115258e-02 3.03336699e-03 6.57229545e-03
      3.53892823e-03 2.52780598e-03 8.59453995e-03 3.03336699e-03
      5.05561184e-04 5.05561195e-03 1.51668349e-03 3.03336699e-03
      2.52780598e-03 9.60566290e-03 5.05561184e-04 9.10010096e-03
      1.01112237e-03 1.06167849e-02 4.04448947e-03 2.52780598e-03
      2.02224473e-03 2.52780598e-03 4.04448947e-03 7.58341793e-03
      1.01112237e-03 1.01112237e-03 1.51668349e-03 2.02224473e-03
      1.06167849e-02 2.22446918e-02 5.05561195e-03 3.03336699e-03
      1.01112237e-03 6.57229545e-03 2.52780598e-03 1.01112237e-03
      6.06673397e-03 1.01112237e-03 3.03336699e-03 5.05561184e-04
      2.02224473e-03 1.01112239e-02 2.52780598e-02 0. 1.01112237e-03
      1.46612739e-02 1.16279069e-02 5.05561184e-04 2.02224473e-03
      3.53892823e-03 2.52780598e-03 2.02224473e-03 1.11223459e-02
      1.06167849e-02 6.57229545e-03 1.97168868e-02 1.01112237e-03
      5.05561184e-04 5.05561195e-03 1.51668349e-03 2.52780598e-03
      5.05561195e-03 4.55005048e-03 2.02224473e-03 1.51668349e-03
      1.01112237e-03 3.03336699e-03 4.04448947e-03 1.51668349e-03
      2.02224473e-03 1.51668349e-03 1.01112237e-03 1.06167849e-02
      9.60566290e-03 2.52780598e-03 0. 1.61779579e-02 3.03336699e-03 0.
      2.83114258e-02 4.04448956e-02 3.03336699e-03 3.03336699e-03
      3.03336699e-03 3.53892823e-03 4.55005048e-03 8.08897894e-03
      3.03336699e-03 1.51668349e-03 3.03336699e-03 1.41557129e-02
      2.52780598e-03 3.53892823e-03 4.55005048e-03 2.52780598e-03
      3.53892823e-03 1.01112237e-03 2.02224473e-03 5.05561184e-04 0.
      8.08897894e-03 9.60566290e-03 1.51668349e-03 1.06167849e-02
      5.56117296e-03 1.51668349e-03 2.02224473e-03 0. 2.02224473e-03
      5.05561195e-03 1.51668349e-03 2.02224473e-03 4.55005048e-03
      7.58341793e-03 1.51668349e-03 2.52780598e-03 1.87057629e-02</_>
    <_>
      4.90086852e-03 2.45043426e-03 4.23256820e-03 7.35130301e-03
      3.78703489e-03 8.68790317e-03 3.78703489e-03 1.78213406e-03
      6.90576946e-03 7.57406978e-03 6.23746915e-03 5.12363529e-03
      3.34150135e-03 2.00490071e-03 6.01470238e-03 6.01470238e-03
      2.00490071e-03 1.69302728e-02 8.24236963e-03 3.11873457e-03
      2.67320103e-03 2.45043426e-03 9.13343672e-03 5.12363529e-03
      4.23256820e-03 2.22766749e-03 2.89596780e-03 5.56916883e-03
      7.79683655e-03 3.34150135e-03 6.01470238e-03 3.34150135e-03
      1.00245038e-02 9.35620349e-03 6.01470238e-03 3.11873457e-03
      8.68790317e-03 3.11873457e-03 2.89596780e-03 2.67320103e-03
      7.12853624e-03 4.23256820e-03 4.23256820e-03 1.31432386e-02
      4.23256820e-03 4.90086852e-03 3.11873457e-03 6.01470238e-03
      2.22766757e-04 7.57406978e-03 6.01470238e-03 2.67320103e-03
      3.34150135e-03 8.01960286e-03 1.78213406e-03 4.90086852e-03
      4.90086852e-03 9.35620349e-03 7.35130301e-03 1.20294048e-02
      5.12363529e-03 6.90576946e-03 8.01960286e-03 6.46023592e-03
      2.00490071e-03 8.68790317e-03 2.67320103e-03 5.56916883e-03
      6.68300269e-03 4.90086852e-03 1.78213406e-03 3.34150135e-03
      3.78703489e-03 3.78703489e-03 7.35130301e-03 1.11383374e-03
      9.35620349e-03 3.56426812e-03 5.34640206e-03 4.45533497e-03
      6.68300269e-03 3.56426812e-03 3.34150135e-03 7.57406978e-03
      1.55936729e-03 8.91066995e-03 3.56426812e-03 3.11873457e-03
      2.67320103e-03 1.00245038e-02 2.45043426e-03 4.23256820e-03
      1.33660052e-03 2.22766749e-03 4.45533497e-03 4.00980143e-03
      1.38115389e-02 2.67320103e-03 5.34640206e-03 3.56426812e-03
      1.78213406e-03 3.34150135e-03 2.45043426e-03 2.22766749e-03
      1.55936729e-03 4.67810174e-03 1.55936729e-03 3.56426812e-03
      3.78703489e-03 2.45043426e-03 7.12853624e-03 5.34640206e-03
      2.89596780e-03 5.56916883e-03 4.90086852e-03 4.67810174e-03
      1.78213406e-03 6.90576946e-03 3.34150135e-03 7.79683655e-03
      3.34150135e-03 6.68300258e-04 3.78703489e-03 2.00490076e-02
      4.00980143e-03 3.34150135e-03 6.46023592e-03 5.79193560e-03
      2.89596780e-03 5.79193560e-03 5.34640206e-03 3.56426812e-03
      6.68300269e-03 4.67810174e-03 7.35130301e-03 4.00980143e-03
      5.56916883e-03 1.04700373e-02 1.13611044e-02 2.67320103e-03
      4.67810174e-03 3.11873457e-03 6.01470238e-03 3.56426812e-03
      2.45043426e-03 3.56426812e-03 7.57406978e-03 4.90086852e-03
      3.56426812e-03 3.78703489e-03 4.00980143e-03 3.56426812e-03
      3.34150135e-03 3.34150135e-03 4.23256820e-03 1.55936729e-03
      6.23746915e-03 4.00980143e-03 0. 3.78703489e-03 1.33660052e-03
      3.78703489e-03 2.22766749e-03 4.67810174e-03 4.67810174e-03
      6.01470238e-03 3.34150135e-03 3.11873457e-03 8.01960286e-03
      7.12853624e-03 4.45533497e-03 2.00490071e-03 6.46023592e-03
      8.01960286e-03 3.56426812e-03 5.12363529e-03 1.11383377e-02
      2.22766749e-03 3.56426812e-03 8.68790317e-03 4.00980143e-03
      8.24236963e-03 7.35130301e-03 2.67320103e-03 6.46023592e-03
      7.12853624e-03 5.79193560e-03 5.34640206e-03 9.35620349e-03
      7.12853624e-03 4.45533497e-03 2.00490071e-03 4.90086852e-03
      6.68300269e-03 5.34640206e-03 5.79193560e-03 2.45043426e-03
      3.11873457e-03 5.12363529e-03 1.78213406e-03</_>
    <_>
      1.45985396e-03 1.45985396e-03 5.83941583e-03 4.37956210e-03
      5.83941583e-03 1.45985396e-03 2.91970791e-03 4.37956210e-03
      2.91970791e-03 4.37956210e-03 1.02189779e-02 1.45985396e-03
      5.83941583e-03 0. 4.37956210e-03 1.02189779e-02 4.37956210e-03
      1.02189779e-02 1.45985396e-03 5.83941583e-03 8.75912420e-03
      4.37956210e-03 1.16788317e-02 5.83941583e-03 2.91970791e-03
      4.37956210e-03 1.45985396e-03 5.83941583e-03 1.45985396e-03
      1.45985396e-03 2.91970791e-03 2.91970791e-03 2.91970791e-03
      1.45985391e-02 1.45985396e-03 4.37956210e-03 1.02189779e-02
      4.37956210e-03 4.37956210e-03 1.02189779e-02 4.37956210e-03
      1.45985396e-03 2.91970791e-03 2.91970791e-03 0. 1.45985396e-03
      2.91970791e-03 1.45985396e-03 1.45985396e-03 0. 7.29926955e-03 0.
      2.91970791e-03 8.75912420e-03 7.29926955e-03 1.45985396e-03
      1.45985396e-03 2.91970791e-03 1.16788317e-02 4.37956210e-03
      5.83941583e-03 5.83941583e-03 7.29926955e-03 2.91970791e-03
      1.45985396e-03 2.91970791e-03 0. 8.75912420e-03 2.91970791e-03
      2.91970791e-03 1.45985396e-03 1.45985396e-03 0. 0. 8.75912420e-03
      1.45985396e-03 2.91970791e-03 0. 5.83941583e-03 2.91970791e-03
      1.31386854e-02 0. 1.45985396e-03 1.45985396e-03 5.69343045e-02 0.
      0. 1.02189779e-02 0. 7.29926955e-03 1.02189779e-02 0. 0.
      2.91970791e-03 0. 0. 2.91970791e-03 2.91970791e-03 0.
      4.37956210e-03 1.02189779e-02 4.37956210e-03 1.45985396e-03
      4.37956210e-03 0. 1.45985396e-03 0. 1.45985396e-03 0.
      5.83941583e-03 2.91970791e-03 1.45985391e-02 1.06569342e-01
      4.37956210e-03 8.75912420e-03 1.45985396e-03 8.75912420e-03 0.
      2.91970791e-03 1.45985396e-03 5.83941583e-03 1.45985396e-03
      4.37956210e-03 2.91970791e-03 0. 4.37956192e-02 0. 0.
      1.45985396e-03 0. 2.91970791e-03 5.83941583e-03 1.45985396e-03 0.
      4.37956210e-03 0. 2.91970791e-03 1.45985396e-03 7.29926955e-03 0.
      0. 0. 7.29926955e-03 0. 2.91970791e-03 4.37956210e-03
      2.91970791e-03 5.83941583e-03 0. 1.45985396e-03 5.83941583e-03
      1.45985396e-03 0. 1.45985396e-03 2.91970791e-03 7.44525492e-02
      7.29926955e-03 4.37956210e-03 0. 4.37956210e-03 0. 0.
      1.31386854e-02 2.62773708e-02 1.45985396e-03 5.83941583e-03 0.
      1.45985396e-03 1.16788317e-02 0. 8.75912420e-03 0. 8.75912420e-03
      5.83941583e-03 0. 0. 1.45985391e-02 0. 0. 5.83941583e-03
      1.45985396e-03 1.45985396e-03 2.91970791e-03 0. 0. 4.37956210e-03
      1.45985396e-03 7.29926955e-03 2.91970791e-03 1.45985396e-03 0.
      1.45985396e-03 1.45985396e-03 2.04379559e-02 1.45985396e-03
      2.91970791e-03 0. 1.45985396e-03 2.91970791e-03 4.37956210e-03</_>
    <_>
      1.52207003e-03 3.04414006e-03 1.52207003e-03 1.06544904e-02
      4.56621032e-03 1.52207003e-03 1.06544904e-02 0. 1.97869111e-02
      7.61034992e-03 1.21765602e-02 6.08828012e-03 3.04414006e-03 0.
      1.36986300e-02 1.52207003e-03 3.04414006e-03 0. 1.06544904e-02
      4.56621032e-03 0. 3.04414006e-03 0. 1.52207003e-03 4.56621032e-03
      1.52207003e-03 3.04414006e-03 1.52206998e-02 1.52207003e-03
      4.56621032e-03 1.52207003e-03 6.08828012e-03 1.52207003e-03
      1.06544904e-02 0. 3.04414006e-03 1.97869111e-02 6.08828012e-03
      1.52207003e-03 3.04414006e-03 1.52206998e-02 9.13242064e-03 0.
      7.61034992e-03 3.04414006e-03 6.08828012e-03 0. 9.13242064e-03
      7.61034992e-03 3.04414006e-03 0. 3.04414006e-03 0. 9.13242064e-03
      3.04414006e-03 1.52207003e-03 3.04414006e-03 2.89193299e-02 0.
      1.52207003e-03 4.56621032e-03 0. 1.52207003e-03 0. 1.52207003e-03
      7.61034992e-03 4.56621032e-03 4.56621032e-03 0. 0. 3.04414006e-03
      0. 3.04414006e-03 9.13242064e-03 9.13242064e-03 1.52207003e-03
      7.61034992e-03 6.08828012e-03 1.52207003e-03 0. 1.52207003e-03
      6.08828012e-03 1.52207003e-03 6.08828012e-03 1.97869111e-02
      3.04414006e-03 7.61034992e-03 6.08828012e-03 3.04414006e-03
      4.56621032e-03 1.52207003e-03 0. 7.61034992e-03 0. 3.04414006e-03
      1.52207003e-03 1.52206998e-02 0. 6.08828012e-03 0. 1.52206998e-02
      6.08828012e-03 0. 1.52207003e-03 0. 7.61034992e-03 3.04414006e-03
      4.56621032e-03 0. 1.52207003e-03 0. 6.08828012e-03 1.82648413e-02
      7.61034992e-03 3.04414006e-03 4.56621032e-03 2.58751903e-02
      3.04414006e-03 0. 1.67427696e-02 1.52207003e-03 0. 0.
      1.97869111e-02 1.06544904e-02 1.52207003e-03 0. 1.52207003e-03
      1.52207003e-03 1.36986300e-02 3.04414006e-03 1.52207003e-03
      9.13242064e-03 1.06544904e-02 1.52207003e-03 6.08828012e-03
      3.04414006e-03 9.13242064e-03 1.97869111e-02 1.52207003e-03
      1.52207003e-03 1.97869111e-02 0. 7.61034992e-03 0. 4.56621032e-03
      0. 1.52207003e-03 1.52207003e-03 3.04414006e-03 0. 3.04414006e-03
      6.08828012e-03 3.04414006e-03 0. 3.04414006e-03 6.08828012e-03
      1.52207003e-03 0. 9.13242064e-03 4.56621032e-03 4.56621032e-03
      1.97869111e-02 1.36986300e-02 4.56621032e-03 7.61034992e-03
      7.61034992e-03 3.04414006e-03 0. 7.61034992e-03 3.04414006e-03
      6.08828012e-03 6.08828012e-03 4.56621032e-03 6.08828012e-03
      1.67427696e-02 1.52207003e-03 6.08828012e-03 9.13242064e-03
      1.52207003e-03 0. 0. 0. 1.67427696e-02 1.52206998e-02
      3.04414006e-03 1.21765602e-02 4.56621032e-03 0. 1.52207003e-03
      1.52207003e-03 0. 1.52207003e-03 1.52207003e-03 1.52207003e-03
      3.04414006e-03 1.06544904e-02 1.52207003e-03 3.04414006e-03
      1.52207003e-03</_>
    <_>
      5.81395347e-03 1.45348837e-03 2.90697673e-03 1.01744188e-02 0.
      1.45348837e-03 5.81395347e-03 1.45348837e-03 7.26744160e-03
      1.01744188e-02 0. 2.90697673e-03 1.45348837e-03 1.45348837e-03
      8.72093067e-03 1.45348837e-03 2.90697673e-03 1.45348837e-03
      1.01744188e-02 1.45348837e-03 1.45348837e-03 1.45348837e-03
      1.45348837e-03 1.88953485e-02 2.90697673e-03 0. 1.45348837e-03
      5.81395347e-03 1.45348837e-03 8.72093067e-03 2.90697673e-03
      4.36046533e-03 1.01744188e-02 2.18023248e-02 1.45348837e-03
      4.36046533e-03 1.59883723e-02 2.90697673e-03 4.36046533e-03
      1.45348837e-03 8.72093067e-03 1.01744188e-02 8.72093067e-03
      1.45348837e-03 2.90697673e-03 4.36046533e-03 0. 5.81395347e-03 0.
      1.45348837e-03 4.36046533e-03 0. 0. 8.72093067e-03 1.45348837e-03
      4.36046533e-03 4.36046533e-03 4.36046533e-03 1.45348832e-02
      2.90697673e-03 1.16279069e-02 4.36046533e-03 4.36046533e-03
      2.90697673e-03 1.45348837e-03 8.72093067e-03 1.45348837e-03
      1.16279069e-02 0. 1.45348837e-03 1.45348837e-03 4.36046533e-03
      1.45348837e-03 4.36046533e-03 0. 1.45348837e-03 7.26744160e-03
      4.36046533e-03 7.26744160e-03 0. 5.81395347e-03 4.36046533e-03 0.
      5.81395347e-03 1.45348837e-03 2.90697673e-03 2.90697673e-03
      2.90697673e-03 2.90697673e-03 1.16279069e-02 0. 4.36046533e-03
      5.81395347e-03 2.90697673e-03 2.90697673e-03 4.36046533e-03
      8.72093067e-03 4.36046533e-03 8.72093067e-03 2.90697673e-03
      4.36046533e-03 2.90697673e-03 8.72093067e-03 1.45348837e-03
      4.36046533e-03 5.81395347e-03 2.90697673e-03 2.90697673e-03
      8.72093067e-03 2.90697673e-03 2.90697673e-03 2.90697673e-03
      1.45348837e-03 5.81395347e-03 2.90697673e-03 0. 4.36046533e-03
      5.81395347e-03 2.90697673e-03 8.72093067e-03 0. 0. 7.26744160e-03
      7.26744160e-03 4.36046533e-03 3.05232555e-02 2.90697673e-03
      5.81395347e-03 1.01744188e-02 1.88953485e-02 4.36046533e-03
      1.45348837e-03 1.45348837e-03 1.01744188e-02 4.36046533e-03
      7.26744160e-03 1.16279069e-02 7.26744160e-03 7.26744160e-03
      1.45348837e-03 2.90697673e-03 4.36046533e-03 5.81395347e-03
      4.36046533e-03 4.36046533e-03 5.81395347e-03 2.90697673e-03
      5.81395347e-03 8.72093067e-03 1.30813951e-02 1.45348837e-03
      1.45348837e-03 2.90697673e-03 5.81395347e-03 7.26744160e-03
      2.90697673e-03 7.26744160e-03 5.81395347e-03 0. 7.26744160e-03
      4.36046533e-03 8.72093067e-03 1.30813951e-02 2.47093029e-02
      2.90697673e-03 0. 8.72093067e-03 2.90697673e-03 1.45348837e-03
      4.36046533e-03 1.45348837e-03 2.90697673e-03 5.81395347e-03
      1.01744188e-02 7.26744160e-03 8.72093067e-03 4.36046533e-03
      2.90697673e-03 5.81395347e-03 5.81395347e-03 2.90697673e-03
      1.45348837e-03 0. 1.30813951e-02 1.16279069e-02 2.90697673e-03
      7.26744160e-03 1.45348837e-03 2.90697673e-03 8.72093067e-03
      4.36046533e-03 5.81395347e-03 5.81395347e-03 1.45348837e-03
      4.36046533e-03 2.90697673e-03 8.72093067e-03 7.26744160e-03
      4.36046533e-03 2.90697673e-03</_>
    <_>
      5.70497150e-03 4.07497957e-03 3.25998361e-03 5.70497150e-03
      1.62999181e-03 1.62999181e-03 1.62999181e-03 0. 4.88997530e-03
      1.46699259e-02 9.77995060e-03 7.33496295e-03 2.44498765e-03
      1.62999181e-03 8.96495488e-03 2.44498765e-03 1.14099430e-02
      1.62999181e-03 1.30399344e-02 6.51996722e-03 4.07497957e-03
      1.62999181e-03 0. 2.52648722e-02 3.25998361e-03 8.14995903e-04
      8.14995903e-04 1.62999183e-02 2.44498765e-03 8.14995903e-04
      1.38549302e-02 3.25998361e-03 8.96495488e-03 2.44498774e-02
      8.14995903e-04 5.70497150e-03 6.51996722e-03 2.44498765e-03
      1.62999181e-03 1.62999181e-03 8.96495488e-03 1.22249387e-02
      4.07497957e-03 4.88997530e-03 8.14995903e-04 1.62999181e-03 0.
      4.88997530e-03 4.07497957e-03 3.25998361e-03 8.14995903e-04
      8.14995903e-04 1.62999181e-03 7.33496295e-03 8.14995903e-04
      2.44498765e-03 5.70497150e-03 1.14099430e-02 3.25998361e-03
      1.05949463e-02 4.07497957e-03 0. 8.14995903e-04 8.14995915e-03
      2.44498765e-03 6.51996722e-03 4.07497957e-03 8.96495488e-03 0. 0.
      0. 1.62999181e-03 3.25998361e-03 4.07497957e-03 0. 2.44498765e-03
      4.88997530e-03 8.14995903e-04 6.51996722e-03 0. 3.25998361e-03
      8.14995915e-03 4.07497957e-03 8.14995915e-03 2.52648722e-02
      1.62999181e-03 7.33496295e-03 2.44498765e-03 3.25998361e-03
      7.33496295e-03 1.62999181e-03 1.62999181e-03 7.33496295e-03
      1.62999181e-03 8.14995903e-04 2.44498765e-03 1.22249387e-02
      1.62999181e-03 3.25998361e-03 3.25998361e-03 8.96495488e-03
      3.25998361e-03 3.25998361e-03 3.25998361e-03 8.14995903e-04
      4.88997530e-03 1.14099430e-02 3.25998361e-03 2.44498765e-03
      8.14995903e-04 4.07497957e-03 8.14995915e-03 2.68948656e-02
      8.14995903e-04 5.70497150e-03 0. 1.05949463e-02 4.88997530e-03
      1.62999181e-03 1.62999183e-02 0. 2.44498765e-03 4.88997530e-03
      2.93398518e-02 8.14995915e-03 6.51996722e-03 8.96495488e-03
      2.44498765e-03 1.22249387e-02 1.05949463e-02 0. 2.44498765e-03
      8.14995915e-03 7.33496295e-03 3.25998361e-03 8.14995915e-03
      4.07497957e-03 6.51996722e-03 2.20048893e-02 2.44498765e-03
      2.44498765e-03 8.96495488e-03 2.44498765e-03 4.88997530e-03
      1.62999181e-03 4.07497957e-03 4.07497957e-03 1.62999181e-03
      1.62999181e-03 4.88997530e-03 8.14995903e-04 1.62999181e-03
      5.70497150e-03 5.70497150e-03 0. 0. 2.44498765e-03 1.62999181e-03
      0. 5.70497150e-03 3.25998361e-03 5.70497150e-03 1.05949463e-02
      8.14995915e-03 8.14995903e-04 0. 5.70497150e-03 3.25998361e-03 0.
      6.51996722e-03 8.14995903e-04 1.62999181e-03 4.07497957e-03
      1.22249387e-02 9.77995060e-03 3.25998361e-03 2.44498765e-03
      4.88997530e-03 8.14995915e-03 8.14995903e-04 3.25998361e-03
      3.25998361e-03 0. 4.88997530e-03 5.70497150e-03 8.14995915e-03
      1.14099430e-02 6.51996722e-03 2.44498765e-03 3.25998361e-03
      3.25998361e-03 7.33496295e-03 3.25998361e-03 1.62999181e-03
      1.62999181e-03 4.07497957e-03 3.25998361e-03 4.07497957e-03
      4.07497957e-03 6.51996722e-03</_>
    <_>
      1.02986617e-03 5.14933094e-03 3.08959838e-03 9.26879514e-03
      4.11946466e-03 3.08959838e-03 1.13285277e-02 0. 5.14933094e-03
      1.64778586e-02 6.17919676e-03 1.23583935e-02 3.08959838e-03
      3.08959838e-03 1.23583935e-02 3.08959838e-03 5.14933094e-03
      2.05973233e-03 7.20906304e-03 0. 1.02986617e-03 4.11946466e-03
      1.02986617e-03 3.08959838e-03 5.14933094e-03 1.02986617e-03
      2.05973233e-03 1.02986619e-02 8.23892932e-03 6.17919676e-03
      5.14933094e-03 4.11946466e-03 9.26879514e-03 1.33882603e-02 0.
      5.14933094e-03 2.47167870e-02 4.11946466e-03 2.05973233e-03
      2.05973233e-03 1.23583935e-02 6.17919676e-03 3.08959838e-03
      4.11946466e-03 1.02986617e-03 5.14933094e-03 0. 1.13285277e-02 0.
      3.08959838e-03 0. 4.11946466e-03 1.02986617e-03 1.13285277e-02
      4.11946466e-03 8.23892932e-03 3.08959838e-03 1.95674580e-02
      9.26879514e-03 2.05973233e-03 4.11946466e-03 2.05973233e-03
      2.05973233e-03 1.02986617e-03 1.02986617e-03 7.20906304e-03
      2.05973233e-03 1.02986619e-02 1.02986617e-03 1.02986617e-03
      4.11946466e-03 3.08959838e-03 2.05973233e-03 7.20906304e-03
      6.17919676e-03 2.05973233e-03 7.20906304e-03 7.20906304e-03
      8.23892932e-03 3.08959838e-03 5.14933094e-03 1.02986619e-02
      3.08959838e-03 3.08959838e-03 1.13285277e-02 3.08959838e-03
      5.14933094e-03 6.17919676e-03 6.17919676e-03 9.26879514e-03
      1.02986617e-03 2.05973233e-03 6.17919676e-03 3.08959838e-03
      8.23892932e-03 1.02986617e-03 1.13285277e-02 1.02986617e-03
      8.23892932e-03 4.11946466e-03 9.26879514e-03 4.11946466e-03 0.
      2.05973233e-03 1.02986617e-03 3.08959838e-03 5.14933094e-03
      4.11946466e-03 2.05973233e-03 2.05973233e-03 1.02986617e-03
      9.26879514e-03 1.75077245e-02 5.14933094e-03 4.11946466e-03
      3.08959838e-03 1.75077245e-02 1.02986619e-02 2.05973233e-03
      7.20906304e-03 1.02986617e-03 1.02986617e-03 4.11946466e-03
      6.17919676e-03 6.17919676e-03 8.23892932e-03 4.11946466e-03
      3.08959838e-03 3.08959838e-03 1.13285277e-02 3.08959838e-03 0.
      5.14933094e-03 8.23892932e-03 4.11946466e-03 4.11946466e-03
      7.20906304e-03 6.17919676e-03 1.33882603e-02 1.02986617e-03
      1.02986617e-03 7.20906304e-03 3.08959838e-03 2.05973233e-03
      2.05973233e-03 7.20906304e-03 7.20906304e-03 3.08959838e-03
      1.02986617e-03 8.23892932e-03 1.02986617e-03 2.05973233e-03
      6.17919676e-03 2.05973233e-03 2.05973233e-03 3.08959838e-03
      2.05973233e-03 1.02986617e-03 0. 8.23892932e-03 4.11946466e-03
      2.05973233e-03 1.44181261e-02 1.85375903e-02 3.08959838e-03
      3.08959838e-03 1.02986619e-02 5.14933094e-03 2.05973233e-03
      7.20906304e-03 4.11946466e-03 5.14933094e-03 3.08959838e-03
      4.11946466e-03 8.23892932e-03 8.23892932e-03 3.08959838e-03
      2.05973233e-03 2.05973233e-03 1.02986617e-03 0. 1.02986617e-03 0.
      1.02986619e-02 9.26879514e-03 3.08959838e-03 1.33882603e-02
      1.02986617e-03 1.02986617e-03 1.02986617e-03 2.05973233e-03 0.
      1.02986619e-02 0. 1.02986617e-03 4.11946466e-03 8.23892932e-03
      3.08959838e-03 5.14933094e-03 7.20906304e-03</_>
    <_>
      2.99700303e-03 2.99700303e-03 0. 5.99400606e-03 1.99800194e-03 0.
      9.99000948e-03 0. 2.99700303e-03 1.39860138e-02 5.99400606e-03
      5.99400606e-03 2.99700303e-03 0. 1.09890103e-02 9.99000971e-04
      1.19880121e-02 9.99000971e-04 1.39860138e-02 2.99700303e-03
      9.99000971e-04 2.99700303e-03 9.99000971e-04 3.99600388e-03
      9.99000971e-04 9.99000971e-04 1.99800194e-03 2.09790207e-02 0.
      4.99500474e-03 5.99400606e-03 2.99700303e-03 7.99200777e-03
      1.39860138e-02 0. 2.99700303e-03 1.29870130e-02 0. 9.99000971e-04
      9.99000971e-04 1.89810190e-02 1.19880121e-02 3.99600388e-03
      2.99700303e-03 2.99700303e-03 4.99500474e-03 0. 2.99700303e-03
      6.99300691e-03 0. 0. 4.99500474e-03 1.99800194e-03 1.79820172e-02
      0. 1.99800194e-03 0. 7.99200777e-03 4.99500474e-03 9.99000971e-04
      4.99500474e-03 1.99800194e-03 0. 2.99700303e-03 0. 6.99300691e-03
      4.99500474e-03 5.99400606e-03 0. 0. 0. 1.99800194e-03
      2.99700303e-03 5.99400606e-03 3.99600388e-03 2.99700303e-03
      3.99600388e-03 2.99700303e-03 6.99300691e-03 0. 9.99000971e-04
      3.99600388e-03 2.99700303e-03 1.99800194e-03 3.29670310e-02
      3.99600388e-03 7.99200777e-03 1.99800194e-03 1.69830173e-02
      1.29870130e-02 0. 9.99000971e-04 1.59840155e-02 0. 9.99000971e-04
      0. 7.99200777e-03 9.99000971e-04 3.99600388e-03 9.99000971e-04
      2.09790207e-02 9.99000971e-04 1.99800194e-03 1.99800194e-03
      9.99000971e-04 4.99500474e-03 5.99400606e-03 3.99600388e-03
      9.99000971e-04 2.99700303e-03 9.99000971e-04 1.99800194e-03
      9.39060897e-02 0. 1.99800194e-03 1.99800194e-03 9.99000948e-03
      3.99600388e-03 4.99500474e-03 2.69730259e-02 0. 0. 3.99600388e-03
      1.69830173e-02 6.99300691e-03 1.99800190e-02 1.99800194e-03 0.
      2.99700303e-03 4.99500474e-03 0. 0. 5.99400606e-03 3.99600388e-03
      0. 1.09890103e-02 0. 3.99600388e-03 9.99000971e-04 1.09890103e-02
      0. 1.59840155e-02 0. 1.99800194e-03 5.99400606e-03 5.99400606e-03
      9.99000971e-04 9.99000971e-04 2.99700303e-03 5.99400606e-03
      9.99000971e-04 0. 2.99700303e-03 4.99500474e-03 9.99000971e-04
      8.99100862e-03 2.99700303e-03 1.99800194e-03 0. 1.99800194e-03
      3.99600388e-03 0. 1.49850147e-02 1.29870130e-02 3.99600388e-03
      1.99800194e-03 6.99300691e-03 2.99700303e-03 1.99800194e-03
      2.99700303e-03 0. 9.99000971e-04 9.99000971e-04 1.09890103e-02
      3.99600388e-03 1.49850147e-02 5.99400606e-03 7.99200777e-03
      3.99600388e-03 2.99700303e-03 9.99000971e-04 9.99000971e-04 0.
      1.99800194e-03 1.09890103e-02 2.99700303e-03 2.19780207e-02
      4.99500474e-03 9.99000971e-04 9.99000971e-04 9.99000971e-04
      3.99600388e-03 3.99600388e-03 0. 9.99000971e-04 0. 8.99100862e-03
      2.99700303e-03 2.99700303e-03 5.99400606e-03</_>
    <_>
      1.99760287e-03 2.39712326e-03 3.19616450e-03 7.19137024e-03
      3.99520562e-04 1.59808225e-03 3.19616450e-03 1.19856163e-03
      3.19616450e-03 1.07870549e-02 6.39232900e-03 7.99041148e-03
      1.59808225e-03 1.19856163e-03 1.07870549e-02 2.79664388e-03
      2.79664388e-03 4.39472636e-03 7.19137024e-03 2.79664388e-03
      2.79664388e-03 3.59568512e-03 1.19856163e-03 2.15741098e-02
      4.39472636e-03 3.99520562e-04 3.59568512e-03 1.31841786e-02
      3.59568512e-03 7.99041125e-04 1.99760287e-03 2.79664388e-03
      3.19616450e-03 3.83539721e-02 7.99041125e-04 5.59328776e-03
      1.51817817e-02 1.59808225e-03 3.59568512e-03 7.99041125e-04
      8.38993210e-03 7.19137024e-03 4.39472636e-03 8.38993210e-03
      2.39712326e-03 9.18897334e-03 3.99520562e-04 7.59089086e-03
      1.99760287e-03 3.19616450e-03 1.59808225e-03 1.19856163e-03
      7.99041125e-04 1.59808225e-03 1.59808225e-03 4.79424652e-03
      3.59568512e-03 1.31841786e-02 4.79424652e-03 1.19856163e-03
      1.19856168e-02 1.59808225e-03 5.19376714e-03 9.58849303e-03
      2.79664388e-03 5.99280838e-03 5.99280838e-03 6.79184962e-03
      3.99520562e-04 7.99041125e-04 1.11865755e-02 7.99041125e-04
      3.59568512e-03 2.39712326e-03 6.79184962e-03 1.19856163e-03
      7.59089086e-03 1.19856163e-03 6.79184962e-03 2.39712326e-03
      3.19616450e-03 5.59328776e-03 1.59808225e-03 6.79184962e-03
      3.19616450e-03 3.19616450e-03 7.19137024e-03 2.79664388e-03
      5.19376714e-03 6.39232900e-03 1.19856163e-03 2.39712326e-03
      7.99041148e-03 3.99520574e-03 4.39472636e-03 2.39712326e-03
      1.59808230e-02 7.99041125e-04 7.19137024e-03 7.19137024e-03
      2.39712326e-03 5.19376714e-03 6.39232900e-03 3.59568512e-03
      7.59089086e-03 5.19376714e-03 6.39232900e-03 3.59568512e-03
      1.59808225e-03 0. 3.59568512e-03 5.99280838e-03 3.19616450e-03
      1.59808225e-03 2.39712326e-03 3.19616450e-03 4.79424652e-03
      5.19376714e-03 1.99760287e-03 9.18897334e-03 4.79424652e-03
      3.99520562e-04 1.19856163e-03 2.31721923e-02 8.78945272e-03
      6.79184962e-03 4.39472636e-03 1.59808225e-03 6.79184962e-03
      1.39832199e-02 3.99520574e-03 1.99760287e-03 8.78945272e-03
      3.19616450e-03 2.79664388e-03 7.19137024e-03 7.19137024e-03
      4.79424652e-03 2.79664397e-02 2.79664388e-03 3.59568512e-03
      7.19137024e-03 3.99520562e-04 2.39712326e-03 4.39472636e-03
      5.59328776e-03 4.79424652e-03 2.79664388e-03 2.79664388e-03
      4.79424652e-03 1.59808225e-03 2.79664388e-03 4.79424652e-03
      3.99520574e-03 1.59808225e-03 3.99520562e-04 3.59568512e-03
      4.39472636e-03 0. 1.19856168e-02 3.59568512e-03 1.99760287e-03
      7.99041148e-03 1.07870549e-02 1.19856163e-03 1.59808225e-03
      5.59328776e-03 3.19616450e-03 0. 8.78945272e-03 4.79424652e-03
      8.38993210e-03 2.79664388e-03 5.59328776e-03 3.59568512e-03
      1.07870549e-02 1.19856163e-03 4.79424652e-03 7.19137024e-03
      9.98801365e-03 7.99041125e-04 3.59568512e-03 0. 7.99041148e-03
      1.03875343e-02 5.59328776e-03 1.03875343e-02 5.19376714e-03
      4.79424652e-03 2.39712326e-03 1.99760287e-03 1.19856168e-02
      2.39712326e-03 2.79664388e-03 1.59808225e-03 2.79664388e-03
      3.59568512e-03 1.99760287e-03 5.99280838e-03 1.67798642e-02</_>
    <_>
      5.10692643e-03 1.59591448e-03 6.38365792e-03 5.10692643e-03
      2.55346322e-03 3.83019494e-03 2.55346322e-03 3.19182902e-04
      1.27673161e-03 1.05330357e-02 1.91509747e-03 4.78774356e-03
      5.10692643e-03 3.83019494e-03 1.14905844e-02 4.14937781e-03
      5.10692643e-03 1.27673161e-03 1.40440473e-02 5.42610930e-03
      1.59591448e-03 1.91509747e-03 3.19182902e-04 7.34120654e-03
      4.46856068e-03 1.27673161e-03 3.83019494e-03 1.56399626e-02
      7.34120654e-03 3.19182896e-03 1.59591448e-03 2.55346322e-03
      1.69166941e-02 3.19182896e-03 6.38365804e-04 1.59591448e-03
      4.14937781e-03 2.87264609e-03 5.42610930e-03 6.38365804e-04
      1.43632302e-02 7.34120654e-03 7.66038988e-03 8.93712137e-03
      8.61793850e-03 4.14937781e-03 9.57548735e-04 6.70284079e-03
      3.83019494e-03 3.83019494e-03 1.59591448e-03 2.55346322e-03
      1.27673161e-03 7.66038988e-03 9.57548735e-04 1.59591448e-03
      3.83019494e-03 1.21289501e-02 1.43632302e-02 3.19182902e-04
      7.34120654e-03 3.19182896e-03 3.19182896e-03 6.38365792e-03
      7.66038988e-03 1.05330357e-02 2.23428034e-03 7.66038988e-03
      6.38365804e-04 1.27673161e-03 3.51101183e-03 3.19182896e-03
      4.78774356e-03 1.05330357e-02 6.38365804e-04 2.87264609e-03
      1.56399626e-02 3.19182896e-03 9.57548711e-03 3.19182902e-04
      7.66038988e-03 2.87264609e-03 4.14937781e-03 1.40440473e-02
      2.55346322e-03 8.29875562e-03 7.34120654e-03 4.14937781e-03
      5.42610930e-03 6.38365792e-03 6.70284079e-03 4.14937781e-03
      3.83019494e-03 1.02138529e-02 1.14905844e-02 5.42610930e-03
      1.50015960e-02 1.59591448e-03 3.51101183e-03 2.87264609e-03
      1.59591448e-03 1.59591448e-03 2.87264609e-03 1.91509747e-03
      1.59591448e-03 7.66038988e-03 4.78774356e-03 4.14937781e-03
      4.14937781e-03 1.91509747e-03 2.87264609e-03 1.50015960e-02
      2.87264609e-03 1.27673161e-03 1.59591448e-03 2.87264609e-03
      1.27673161e-03 5.10692643e-03 3.83019494e-03 1.50015960e-02
      3.19182896e-03 1.59591448e-03 3.19182896e-03 3.12799253e-02
      5.74529218e-03 3.51101183e-03 4.46856068e-03 3.19182896e-03
      2.23428034e-03 8.61793850e-03 5.10692643e-03 1.59591448e-03
      5.42610930e-03 5.10692643e-03 2.55346322e-03 3.83019494e-03
      1.91509747e-03 1.75550599e-02 1.18097672e-02 2.87264609e-03
      1.59591448e-03 3.83019494e-03 0. 8.61793850e-03 6.06447505e-03
      7.66038988e-03 5.42610930e-03 1.91509747e-03 8.61793850e-03
      6.70284079e-03 2.23428034e-03 5.10692643e-03 2.87264609e-03
      9.89466999e-03 1.59591448e-03 6.38365804e-04 4.78774356e-03
      4.46856068e-03 3.19182902e-04 3.83019494e-03 2.87264609e-03
      6.70284079e-03 3.83019494e-03 5.42610930e-03 7.34120654e-03
      6.38365804e-04 7.02202367e-03 3.83019494e-03 0. 9.89466999e-03
      2.87264609e-03 6.06447505e-03 5.74529218e-03 2.87264609e-03
      3.19182896e-03 4.14937781e-03 9.57548735e-04 4.14937781e-03
      7.02202367e-03 4.14937781e-03 5.42610930e-03 2.23428034e-03 0.
      7.34120654e-03 6.06447505e-03 4.78774356e-03 1.11714015e-02
      7.02202367e-03 4.78774356e-03 9.25630424e-03 4.14937781e-03
      4.14937781e-03 2.87264609e-03 1.27673161e-03 3.19182896e-03
      3.51101183e-03 2.55346322e-03 3.51101183e-03 2.23428034e-03
      3.19182896e-03</_>
    <_>
      3.75939859e-03 2.50626565e-03 3.75939859e-03 3.75939859e-03
      1.25313282e-03 2.50626565e-03 2.50626565e-03 0. 5.01253130e-03
      1.12781953e-02 1.12781953e-02 5.01253130e-03 1.25313282e-03 0.
      1.00250626e-02 3.75939859e-03 2.25563906e-02 1.00250626e-02
      1.37844607e-02 2.50626565e-03 1.00250626e-02 6.26566401e-03 0. 0.
      5.01253130e-03 0. 2.50626565e-03 1.62907261e-02 6.26566401e-03
      3.75939859e-03 8.77192989e-03 1.25313282e-03 6.26566401e-03
      1.25313282e-03 1.25313282e-03 1.25313282e-03 5.01253130e-03
      2.50626565e-03 3.75939859e-03 2.50626565e-03 1.37844607e-02
      5.01253130e-03 6.26566401e-03 2.50626565e-03 1.25313282e-03
      1.25313282e-03 0. 1.25313282e-03 1.00250626e-02 0. 2.50626565e-03
      2.50626565e-03 3.75939859e-03 1.37844607e-02 1.25313282e-03
      5.01253130e-03 5.01253130e-03 4.63659130e-02 1.12781953e-02
      7.51879718e-03 3.75939859e-03 0. 0. 3.75939859e-03 3.75939859e-03
      7.51879718e-03 8.77192989e-03 6.26566401e-03 0. 0. 1.25313282e-03
      2.50626565e-03 2.50626565e-03 7.51879718e-03 1.00250626e-02
      1.25313282e-03 2.50626565e-03 2.50626565e-03 1.12781953e-02
      3.75939859e-03 2.50626565e-03 6.26566401e-03 3.75939859e-03
      5.01253130e-03 0. 6.26566401e-03 1.37844607e-02 5.01253130e-03
      1.75438598e-02 7.51879718e-03 0. 0. 3.75939859e-03 1.25313282e-03
      1.25313282e-03 1.25313282e-03 6.26566410e-02 0. 6.26566401e-03 0.
      6.26566401e-03 5.01253130e-03 1.25313282e-03 1.25313282e-03
      3.75939859e-03 1.25313282e-03 1.25313280e-02 6.26566401e-03 0.
      2.50626565e-03 5.01253130e-03 1.25313280e-02 5.01253130e-03
      6.26566401e-03 5.01253130e-03 3.75939859e-03 2.50626565e-03
      2.50626565e-03 1.25313282e-03 2.13032588e-02 0. 2.50626565e-03
      1.25313282e-03 1.37844607e-02 3.75939859e-03 1.12781953e-02 0.
      3.75939859e-03 2.50626565e-03 1.37844607e-02 0. 2.50626565e-03
      6.26566401e-03 3.75939859e-03 6.26566401e-03 2.50626565e-03
      5.01253130e-03 1.25313282e-03 1.37844607e-02 3.75939859e-03
      1.25313282e-03 8.77192989e-03 3.75939859e-03 1.25313282e-03
      1.25313282e-03 1.25313280e-02 0. 5.01253130e-03 5.01253130e-03
      5.01253130e-03 7.51879718e-03 2.50626565e-03 2.50626565e-03
      1.00250626e-02 2.50626565e-03 7.51879718e-03 2.50626565e-03
      2.50626565e-03 0. 0. 5.01253130e-03 0. 3.75939859e-03
      6.26566401e-03 5.01253130e-03 3.75939859e-03 2.50626565e-03
      1.25313282e-03 1.25313282e-03 5.01253130e-03 2.50626565e-03
      1.25313282e-03 0. 2.50626565e-03 1.00250626e-02 8.77192989e-03
      2.50626565e-03 3.75939859e-03 1.25313282e-03 0. 3.75939859e-03
      1.00250626e-02 0. 7.51879718e-03 7.51879718e-03 7.51879718e-03
      5.01253130e-03 1.25313282e-03 6.26566401e-03 0. 1.25313282e-03 0.
      2.50626565e-03 2.50626565e-03 1.00250626e-02 1.25313282e-03
      3.75939859e-03 5.01253130e-03 2.50626565e-03 7.51879718e-03</_>
    <_>
      1.72413792e-03 1.72413792e-03 1.72413792e-03 0. 3.44827585e-03 0.
      1.89655162e-02 0. 3.44827585e-03 5.17241377e-03 1.72413792e-03
      1.20689655e-02 1.72413792e-03 0. 6.89655170e-03 1.72413792e-03
      3.44827585e-03 3.44827585e-03 5.17241377e-03 0. 6.89655170e-03
      3.44827585e-03 0. 5.17241377e-03 1.72413792e-03 0. 1.72413792e-03
      3.44827585e-03 0. 0. 3.44827585e-03 8.62068962e-03 0.
      1.72413792e-02 0. 8.62068962e-03 4.31034490e-02 1.72413792e-03
      5.17241377e-03 0. 1.72413792e-03 3.44827585e-03 0. 1.72413792e-03
      0. 3.44827585e-03 0. 0. 0. 0. 0. 3.44827585e-03 0. 1.72413792e-02
      0. 1.72413792e-03 1.72413792e-03 5.51724136e-02 1.89655162e-02 0.
      5.17241377e-03 0. 0. 3.44827585e-03 0. 0. 1.72413792e-03
      5.17241377e-03 0. 0. 0. 0. 1.72413792e-03 0. 1.72413792e-02 0.
      5.17241377e-03 1.72413792e-03 3.44827585e-03 0. 0. 3.44827585e-03
      0. 1.72413792e-03 2.41379309e-02 3.44827585e-03 3.44827585e-03
      1.72413792e-03 1.72413792e-03 4.13793102e-02 0. 1.72413792e-03
      1.72413792e-03 0. 0. 1.72413792e-03 3.96551713e-02 0.
      1.20689655e-02 0. 5.17241377e-03 8.62068962e-03 0. 1.72413792e-03
      0. 1.72413792e-03 6.89655170e-03 3.44827585e-03 6.89655170e-03 0.
      1.72413792e-03 4.65517230e-02 1.37931034e-02 0. 1.72413792e-03
      1.72413792e-03 1.03448275e-02 1.72413792e-03 1.72413792e-03
      1.03448275e-02 0. 0. 1.72413792e-03 5.17241377e-03 3.44827585e-03
      2.75862068e-02 1.72413792e-03 0. 1.37931034e-02 1.37931034e-02 0.
      3.44827585e-03 1.72413792e-03 1.72413792e-03 0. 1.55172413e-02
      1.03448275e-02 5.17241377e-03 3.10344826e-02 1.72413792e-03 0.
      6.89655170e-03 0. 0. 0. 5.17241377e-03 1.72413792e-03
      3.44827585e-03 1.72413792e-03 5.17241377e-03 3.44827585e-03
      1.72413792e-03 0. 0. 1.72413792e-03 1.37931034e-02 6.89655170e-03
      0. 0. 1.20689655e-02 0. 0. 2.58620679e-02 5.34482747e-02 0.
      1.72413792e-03 0. 0. 0. 1.72413792e-03 0. 1.72413792e-03
      1.72413792e-03 6.89655170e-03 1.72413792e-03 6.89655170e-03 0.
      3.44827585e-03 5.17241377e-03 0. 1.72413792e-03 3.44827585e-03 0.
      5.17241377e-03 1.03448275e-02 3.44827585e-03 1.89655162e-02
      1.72413792e-03 3.44827585e-03 0. 0. 1.72413792e-03 1.72413792e-03
      1.72413792e-03 1.72413792e-03 5.17241377e-03 1.72413792e-02 0.
      5.17241377e-03 6.89655170e-03</_>
    <_>
      1.40646973e-03 9.37646488e-04 9.37646441e-03 5.62587893e-03
      1.87529298e-03 3.28176282e-03 7.03234877e-03 1.12517579e-02
      1.87529298e-03 9.84528847e-03 3.75058595e-03 1.07829347e-02
      1.87529298e-03 3.75058595e-03 5.62587893e-03 9.37646441e-03
      1.40646973e-03 1.87529298e-03 1.87529298e-03 5.62587893e-03
      4.21940908e-03 2.81293946e-03 6.09470205e-03 1.87529288e-02
      2.81293946e-03 9.37646441e-03 4.21940908e-03 2.34411610e-03
      4.21940908e-03 1.87529298e-03 7.03234877e-03 3.75058595e-03
      5.15705580e-03 1.59399901e-02 7.03234877e-03 3.28176282e-03
      2.20346916e-02 1.40646973e-03 7.03234877e-03 9.37646488e-04
      3.28176282e-03 5.62587893e-03 6.09470205e-03 2.81293946e-03
      1.40646973e-03 4.21940908e-03 6.56352565e-03 1.40646973e-03
      9.37646488e-04 1.87529298e-03 4.21940908e-03 1.87529298e-03
      2.81293946e-03 1.87529298e-03 4.68823244e-04 3.28176282e-03
      9.37646441e-03 6.56352565e-03 1.40646973e-03 3.28176282e-03
      6.09470205e-03 3.75058595e-03 9.37646441e-03 6.56352565e-03
      1.87529298e-03 4.68823221e-03 1.40646973e-03 1.64088141e-02
      6.56352565e-03 8.90764128e-03 4.68823244e-04 9.37646488e-04
      1.40646973e-03 1.40646973e-03 7.03234877e-03 3.75058595e-03
      6.56352565e-03 9.37646488e-04 5.62587893e-03 3.75058595e-03
      9.84528847e-03 1.40646973e-03 2.34411610e-03 7.50117190e-03
      1.73464604e-02 3.75058595e-03 4.68823221e-03 3.28176282e-03
      9.37646488e-04 1.07829347e-02 6.09470205e-03 9.37646488e-04
      3.28176282e-03 7.50117190e-03 2.34411610e-03 1.40646973e-03
      1.40646973e-03 5.62587893e-03 5.62587893e-03 1.35958744e-02
      3.75058595e-03 5.15705580e-03 2.34411610e-03 4.21940908e-03
      1.40646973e-03 4.21940908e-03 2.81293946e-03 9.37646488e-04
      9.37646488e-04 1.40646973e-03 9.37646488e-04 1.17205810e-02
      1.03141116e-02 9.37646488e-04 1.87529298e-03 1.87529298e-03
      1.87529298e-03 2.81293946e-03 2.34411610e-03 3.75058595e-03
      1.54711669e-02 3.28176282e-03 1.87529298e-03 3.28176282e-03
      2.34411610e-03 9.84528847e-03 9.37646441e-03 2.81293946e-03
      1.50023438e-02 7.96999503e-03 1.87529298e-03 2.34411610e-03
      5.15705580e-03 1.87529298e-03 6.09470205e-03 1.40646975e-02
      1.64088141e-02 8.90764128e-03 5.62587893e-03 1.40646973e-03
      1.87529298e-03 1.87529298e-03 3.28176282e-03 1.87529298e-03
      1.87529298e-03 5.15705580e-03 2.81293946e-03 6.09470205e-03 0.
      1.40646973e-03 4.68823221e-03 2.34411610e-03 2.34411610e-03
      2.81293946e-03 1.59399901e-02 1.40646973e-03 4.68823221e-03
      5.15705580e-03 0. 3.28176282e-03 9.37646488e-04 4.21940908e-03
      7.50117190e-03 8.90764128e-03 1.40646973e-03 4.68823244e-04
      2.81293946e-03 4.68823221e-03 6.56352565e-03 8.43881816e-03
      4.21940908e-03 2.81293946e-03 7.50117190e-03 1.45335207e-02
      4.68823244e-04 1.40646973e-03 7.96999503e-03 1.87529298e-03
      8.43881816e-03 6.56352565e-03 4.21940908e-03 6.56352565e-03
      2.01593991e-02 6.56352565e-03 2.81293946e-03 3.75058595e-03
      1.12517579e-02 9.37646441e-03 7.03234877e-03 1.40646973e-03
      9.37646488e-04 6.56352565e-03 4.21940908e-03 1.17205810e-02
      1.87529298e-03 2.34411610e-03 4.21940908e-03 3.75058595e-03
      1.12517579e-02 3.28176282e-03</_>
    <_>
      1.73535792e-03 3.25379614e-03 4.33839485e-03 5.42299356e-03
      6.50759204e-04 2.60303682e-03 1.30151841e-03 4.18655090e-02
      2.16919743e-03 5.85683296e-03 3.68763553e-03 1.21475058e-02
      8.67678958e-04 1.30151841e-03 5.42299356e-03 8.89370963e-03
      8.67678958e-04 6.29067235e-03 4.33839485e-03 4.12147492e-03
      3.68763553e-03 1.08459871e-03 1.34490235e-02 4.55531431e-03
      3.68763553e-03 2.23427340e-02 1.51843822e-03 3.03687644e-03
      9.54446848e-03 1.08459871e-03 5.63991303e-03 1.95227761e-03
      7.80911045e-03 5.20607363e-03 1.58351418e-02 8.67678958e-04
      7.15835160e-03 1.73535792e-03 4.77223424e-03 2.16919743e-03
      2.81995651e-03 7.37527106e-03 4.77223424e-03 4.33839485e-03
      2.60303682e-03 1.51843822e-03 4.92407791e-02 2.60303682e-03
      1.30151841e-03 1.95227761e-03 4.33839479e-04 1.73535792e-03
      8.67678958e-04 8.67678958e-04 2.16919740e-04 1.95227761e-03
      1.34490235e-02 3.68763553e-03 4.33839479e-04 5.42299356e-03
      4.77223424e-03 4.33839485e-03 2.36442517e-02 6.07375288e-03
      1.08459871e-03 5.63991303e-03 8.67678958e-04 9.97830834e-03
      8.89370963e-03 1.38828633e-02 8.67678958e-04 2.16919743e-03
      2.38611712e-03 1.30151841e-03 4.33839479e-04 6.50759204e-04
      1.14967460e-02 2.60303682e-03 8.89370963e-03 7.80911045e-03
      9.76138841e-03 3.47071583e-03 4.33839479e-04 6.07375288e-03
      7.37527106e-03 1.08459871e-02 5.85683296e-03 2.60303682e-03
      1.51843822e-03 7.15835160e-03 1.51843822e-03 1.95227761e-03
      1.30151841e-03 2.38611712e-03 1.73535792e-03 1.30151841e-03
      4.33839479e-04 3.90455523e-03 3.90455523e-03 3.94793935e-02
      2.16919743e-03 3.47071583e-03 2.38611712e-03 1.51843822e-03
      1.30151841e-03 6.94143167e-03 8.67678958e-04 2.81995651e-03
      1.51843822e-03 4.33839479e-04 3.47071583e-03 6.29067235e-03
      1.95227761e-03 6.50759204e-04 1.30151841e-03 4.33839479e-04
      3.90455523e-03 3.03687644e-03 2.60303682e-03 5.42299356e-03
      3.70932743e-02 1.51843822e-03 1.30151841e-03 1.51843822e-03
      4.55531431e-03 2.60303682e-03 5.85683296e-03 2.16919743e-03
      5.42299356e-03 4.12147492e-03 2.16919743e-03 6.50759204e-04
      1.51843822e-03 2.60303682e-03 3.47071583e-03 2.81995651e-03
      2.16919743e-03 1.97396968e-02 2.81995651e-03 8.67678958e-04
      1.30151841e-03 1.73535792e-03 1.51843822e-03 1.95227761e-03
      1.30151841e-03 1.51843822e-03 2.60303682e-03 4.33839485e-03
      1.08459871e-03 2.81995651e-03 3.25379614e-03 1.51843822e-03
      1.51843822e-03 1.30151841e-03 4.12147492e-03 1.08459871e-03
      1.73535792e-03 2.60303682e-03 0. 1.30151841e-03 1.95227761e-03
      1.30151841e-03 1.30151841e-03 5.20607363e-03 1.08459871e-03
      1.08459871e-03 2.60303682e-03 1.51843822e-03 5.20607363e-03
      6.29067235e-03 3.47071583e-03 1.95227761e-03 8.89370963e-03
      8.67678970e-03 1.30151841e-03 2.60303682e-03 4.98915417e-03
      2.38611712e-03 6.07375288e-03 8.89370963e-03 6.50759204e-04
      3.90455523e-03 7.00650737e-02 4.98915417e-03 2.16919743e-03
      7.59219099e-03 8.02602991e-03 8.02602991e-03 2.60303682e-03
      8.67678958e-04 3.25379614e-03 4.33839485e-03 1.73535792e-03
      1.75704993e-02 1.51843822e-03 3.03687644e-03 2.60303682e-03
      3.25379614e-03 6.07375288e-03 2.16919743e-03</_>
    <_>
      6.60066027e-04 1.32013205e-03 5.28052822e-03 1.98019808e-03 0.
      1.98019808e-03 6.60066027e-04 9.24092438e-03 0. 7.92079233e-03
      1.98019808e-03 7.92079233e-03 2.64026411e-03 1.32013205e-03
      1.32013205e-03 1.58415847e-02 3.30033014e-03 1.32013205e-03
      8.58085789e-03 3.30033014e-03 1.98019808e-03 6.60066027e-04
      1.84818488e-02 5.94059424e-03 1.98019808e-03 3.96039635e-02
      2.64026411e-03 4.62046219e-03 7.26072630e-03 0. 7.92079233e-03
      5.28052822e-03 7.92079233e-03 1.98019808e-03 1.18811885e-02 0.
      1.38613861e-02 6.60066027e-04 1.98019808e-03 0. 5.94059424e-03
      3.96039616e-03 5.28052822e-03 7.26072630e-03 3.30033014e-03
      2.64026411e-03 7.26072630e-03 1.32013205e-03 6.60066027e-04
      1.32013205e-03 6.60066027e-04 3.30033014e-03 3.30033014e-03
      1.32013205e-03 6.60066027e-04 6.60066027e-04 2.24422440e-02
      1.25412550e-02 6.60066027e-04 1.32013205e-03 2.64026411e-03
      6.60066027e-04 2.31023114e-02 5.28052822e-03 6.60066027e-04
      9.24092438e-03 6.60066027e-04 1.12211220e-02 1.12211220e-02
      7.26072630e-03 1.98019808e-03 1.32013205e-03 2.64026411e-03
      3.30033014e-03 0. 1.98019808e-03 1.05610564e-02 5.94059424e-03
      4.62046219e-03 5.28052822e-03 7.26072630e-03 1.32013205e-03
      6.60066027e-04 6.60066027e-03 1.91419143e-02 7.26072630e-03
      3.96039616e-03 1.32013205e-03 2.64026411e-03 2.64026411e-03
      6.60066027e-04 6.60066027e-04 6.60066027e-04 3.96039616e-03 0.
      6.60066027e-04 1.32013205e-03 1.25412550e-02 7.26072630e-03
      1.38613861e-02 4.62046219e-03 1.32013205e-03 3.30033014e-03
      6.60066027e-04 6.60066027e-04 1.98019808e-03 6.60066027e-03
      1.32013205e-03 1.98019808e-03 0. 3.96039616e-03 7.92079233e-03
      2.24422440e-02 1.32013205e-03 6.60066027e-04 1.98019808e-03
      3.96039616e-03 1.58415847e-02 1.32013205e-03 7.92079233e-03
      9.24092438e-03 1.98019808e-03 6.60066027e-04 9.24092438e-03
      1.98019808e-03 8.58085789e-03 1.32013205e-03 4.62046219e-03
      5.28052822e-03 2.64026411e-03 1.38613861e-02 0. 8.58085789e-03
      3.30033014e-03 3.30033014e-03 1.98019808e-03 1.12211220e-02
      6.60066027e-03 1.98019808e-03 3.96039616e-03 3.30033014e-03
      1.32013205e-03 1.32013205e-03 6.60066027e-04 0. 3.30033014e-03
      2.04620473e-02 5.28052822e-03 6.60066027e-04 2.64026411e-03 0.
      6.60066027e-04 0. 2.64026411e-03 1.25412550e-02 6.60066027e-04
      2.64026411e-03 2.64026411e-03 0. 1.32013205e-03 0. 3.96039616e-03
      3.96039616e-03 9.24092438e-03 3.96039616e-03 0. 3.96039616e-03
      1.98019808e-03 1.18811885e-02 7.92079233e-03 5.28052822e-03
      6.60066027e-04 9.90099087e-03 2.70627066e-02 1.32013205e-03
      1.32013205e-03 1.32013205e-02 3.30033014e-03 4.62046219e-03
      9.24092438e-03 0. 2.64026411e-03 2.11221129e-02 1.98019808e-03
      1.32013205e-03 3.30033014e-03 2.64026411e-03 3.30033004e-02
      2.64026411e-03 4.62046219e-03 1.98019808e-03 1.12211220e-02
      1.98019808e-03 1.91419143e-02 2.64026411e-03 1.32013205e-03
      1.98019808e-03 1.32013205e-03 3.96039616e-03 5.28052822e-03</_>
    <_>
      5.73979598e-03 4.14540805e-03 1.33928573e-02 5.73979598e-03
      6.37755089e-04 4.46428545e-03 5.73979598e-03 1.59438774e-02
      3.50765302e-03 7.65306130e-03 3.18877539e-03 7.33418344e-03
      2.55102036e-03 4.78316331e-03 3.82653065e-03 1.43494895e-02
      3.18877544e-04 3.18877539e-03 9.56632663e-03 8.60969350e-03
      2.86989799e-03 9.56632663e-04 1.11607136e-02 1.91326533e-03
      6.37755089e-04 1.37117347e-02 1.91326533e-03 1.91326533e-03
      8.60969350e-03 2.55102036e-03 6.37755077e-03 5.42091811e-03
      1.11607136e-02 8.60969350e-03 5.73979598e-03 2.86989799e-03
      1.59438774e-02 2.55102036e-03 3.82653065e-03 1.91326533e-03
      7.01530604e-03 7.01530604e-03 3.82653065e-03 9.24744923e-03
      2.23214272e-03 2.86989799e-03 7.97193870e-03 1.27551018e-03
      3.18877544e-04 1.59438769e-03 6.05867337e-03 3.18877539e-03
      1.59438769e-03 1.91326533e-03 1.27551018e-03 1.91326533e-03
      2.16836724e-02 8.92857090e-03 2.23214272e-03 7.97193870e-03
      6.05867337e-03 1.91326533e-03 2.00892854e-02 4.46428545e-03
      1.91326533e-03 8.92857090e-03 3.18877539e-03 9.88520402e-03
      6.69642864e-03 4.46428545e-03 2.86989799e-03 1.59438769e-03
      2.86989799e-03 1.59438769e-03 0. 3.82653065e-03 1.69005096e-02
      1.91326533e-03 5.73979598e-03 6.37755077e-03 7.65306130e-03
      1.91326533e-03 2.86989799e-03 6.05867337e-03 2.55102031e-02
      6.05867337e-03 1.91326533e-03 5.73979598e-03 1.59438769e-03
      7.65306130e-03 9.56632663e-04 1.27551018e-03 6.37755089e-04
      1.02040814e-02 2.23214272e-03 1.91326533e-03 6.37755089e-04
      1.11607136e-02 7.33418344e-03 1.11607136e-02 5.10204071e-03
      1.91326533e-03 1.59438769e-03 1.59438769e-03 1.27551018e-03
      5.73979598e-03 2.86989799e-03 2.86989799e-03 9.56632663e-04
      3.18877544e-04 1.27551018e-03 7.01530604e-03 2.55102031e-02
      1.27551018e-03 5.10204071e-03 9.56632663e-04 1.91326533e-03
      4.78316331e-03 9.56632663e-04 5.73979598e-03 1.69005096e-02
      2.55102036e-03 6.37755089e-04 5.73979598e-03 2.86989799e-03
      4.78316331e-03 2.86989799e-03 2.86989799e-03 4.14540805e-03
      3.50765302e-03 1.27551018e-03 9.56632663e-04 2.23214272e-03
      1.91326533e-03 6.05867337e-03 2.86989799e-03 5.73979598e-03
      1.49872443e-02 2.23214272e-03 1.27551018e-03 2.23214272e-03
      3.18877544e-04 4.78316331e-03 4.46428545e-03 6.37755089e-04
      4.14540805e-03 1.08418362e-02 4.46428545e-03 9.56632663e-04
      1.59438769e-03 2.23214272e-03 5.73979598e-03 3.82653065e-03
      2.23214272e-03 2.32780613e-02 2.86989799e-03 1.27551018e-03
      3.18877539e-03 0. 2.55102036e-03 6.37755089e-04 3.50765302e-03
      5.42091811e-03 1.21173467e-02 2.86989799e-03 9.56632663e-04
      3.82653065e-03 3.82653065e-03 2.86989799e-03 4.14540805e-03
      2.86989799e-03 6.37755089e-04 7.01530604e-03 8.29081610e-03
      9.56632663e-04 2.23214272e-03 1.91326533e-03 9.56632663e-04
      4.14540805e-03 6.37755077e-03 6.37755089e-04 3.50765302e-03
      2.71045920e-02 3.18877539e-03 9.56632663e-04 5.10204071e-03
      1.27551015e-02 1.94515307e-02 4.14540805e-03 2.55102036e-03
      2.55102036e-03 4.14540805e-03 2.23214272e-03 5.10204071e-03
      1.27551018e-03 3.50765302e-03 4.78316331e-03 2.55102036e-03
      6.37755077e-03 4.46428545e-03</_>
    <_>
      9.57290176e-03 7.36377027e-04 7.36377016e-03 2.20913114e-03
      1.47275405e-03 2.20913114e-03 1.98821798e-02 0. 3.68188508e-03
      7.36377016e-03 1.47275405e-03 4.41826228e-03 4.41826228e-03
      1.03092780e-02 1.10456552e-02 6.62739342e-03 5.15463902e-03 0.
      7.36377016e-03 8.10014736e-03 0. 2.20913114e-03 4.41826228e-03
      1.47275405e-03 1.47275405e-03 0. 2.20913114e-03 1.54639175e-02
      2.20913114e-03 2.94550811e-03 2.20913114e-03 2.94550811e-03
      7.36377016e-03 6.62739342e-03 3.68188508e-03 2.94550811e-03
      1.54639175e-02 1.47275405e-03 5.89101622e-03 6.62739342e-03
      7.36377016e-03 8.83652456e-03 5.15463902e-03 1.32547868e-02
      4.41826228e-03 0. 0. 2.94550811e-03 2.94550811e-03 1.47275405e-03
      4.41826228e-03 1.47275405e-03 3.68188508e-03 5.15463902e-03
      1.47275405e-03 2.20913114e-03 9.57290176e-03 2.65095737e-02
      3.82916071e-02 2.20913114e-03 7.36377016e-03 2.94550811e-03 0.
      1.47275405e-03 5.89101622e-03 5.89101622e-03 3.68188508e-03
      2.20913114e-03 7.36377027e-04 0. 1.47275405e-03 2.94550811e-03
      2.94550811e-03 8.10014736e-03 8.10014736e-03 6.62739342e-03
      9.57290176e-03 2.20913114e-03 1.47275405e-03 5.89101622e-03
      2.20913114e-03 2.94550811e-03 1.03092780e-02 9.57290176e-03
      9.57290176e-03 3.68188508e-03 7.36377016e-03 3.68188508e-03
      5.89101622e-03 9.57290176e-03 1.47275405e-03 2.20913114e-03
      2.94550811e-03 4.41826228e-03 4.41826228e-03 2.20913114e-03
      5.89101622e-03 7.36377027e-04 2.20913114e-03 0. 2.20913114e-03
      3.68188508e-03 1.47275405e-03 2.20913114e-03 7.36377027e-04
      4.41826228e-03 9.57290176e-03 1.47275405e-03 0. 7.36377027e-04
      3.68188508e-03 7.36377016e-03 1.10456552e-02 2.20913114e-03
      4.41826228e-03 1.47275405e-03 2.20913114e-03 2.20913114e-03
      3.68188508e-03 1.54639175e-02 0. 6.62739342e-03 6.62739342e-03
      1.84094254e-02 2.94550811e-03 1.03092780e-02 1.47275405e-03 0.
      2.79823262e-02 5.15463902e-03 2.94550811e-03 8.10014736e-03
      5.15463902e-03 2.20913114e-03 2.94550811e-03 8.83652456e-03
      1.32547868e-02 7.36377016e-03 8.83652456e-03 3.68188508e-03
      2.94550811e-03 2.20913114e-03 5.15463902e-03 2.20913114e-03
      2.20913114e-03 5.15463902e-03 4.41826228e-03 1.47275405e-03
      5.15463902e-03 2.20913114e-03 0. 4.41826228e-03 1.47275405e-03
      6.62739342e-03 3.68188508e-03 7.36377016e-03 5.89101622e-03
      2.20913114e-03 0. 7.36377016e-03 2.94550811e-03 2.20913114e-03
      1.32547868e-02 1.84094254e-02 3.68188508e-03 2.20913114e-03
      2.94550811e-03 5.15463902e-03 5.89101622e-03 5.15463902e-03
      5.89101622e-03 5.89101622e-03 1.47275405e-03 5.89101622e-03
      1.47275405e-03 2.94550811e-03 2.94550811e-03 2.94550811e-03 0. 0.
      7.36377027e-04 7.36377027e-04 2.20913114e-03 7.36377016e-03
      5.15463902e-03 3.68188508e-03 1.03092780e-02 2.06185561e-02
      1.47275405e-03 4.41826228e-03 2.94550811e-03 0. 3.68188508e-03
      4.41826228e-03 4.41826228e-03 2.20913114e-03 2.94550811e-03
      5.15463902e-03 7.36377027e-04 1.69366710e-02</_>
    <_>
      5.86166466e-03 3.51699861e-03 3.51699861e-03 1.17233291e-03 0.
      2.34466582e-03 1.17233291e-03 1.28956623e-02 2.34466582e-03
      8.20633024e-03 5.86166466e-03 7.03399722e-03 1.17233291e-03
      3.51699861e-03 5.86166466e-03 9.37866326e-03 2.34466582e-03
      7.03399722e-03 2.34466582e-03 5.86166466e-03 5.86166466e-03
      2.34466582e-03 7.03399722e-03 2.34466582e-03 5.86166466e-03
      1.17233291e-03 2.34466582e-03 5.86166466e-03 5.86166466e-03
      3.51699861e-03 4.68933163e-03 5.86166466e-03 4.68933163e-03
      2.34466582e-03 9.37866326e-03 5.86166466e-03 1.75849944e-02
      3.51699861e-03 1.17233291e-03 1.17233291e-03 5.86166466e-03
      1.17233291e-03 2.34466582e-03 2.34466582e-03 3.51699861e-03
      3.51699861e-03 1.17233291e-03 2.34466582e-03 0. 4.68933163e-03
      1.17233291e-03 3.51699861e-03 2.34466582e-03 1.17233291e-03
      7.03399722e-03 3.51699861e-03 9.37866326e-03 1.40679944e-02
      7.03399722e-03 2.34466582e-03 4.68933163e-03 2.34466582e-03
      1.52403275e-02 8.20633024e-03 2.34466582e-03 9.37866326e-03
      1.17233291e-03 3.51699861e-03 8.20633024e-03 5.86166466e-03 0.
      2.34466582e-03 1.17233291e-03 2.34466582e-03 0. 1.17233291e-03
      2.34466582e-03 1.17233291e-03 2.34466582e-03 1.17233293e-02
      8.20633024e-03 2.34466582e-03 4.68933163e-03 2.34466582e-03
      2.11019926e-02 1.17233293e-02 3.51699861e-03 0. 1.17233291e-03
      3.51699861e-03 1.17233291e-03 3.51699861e-03 1.17233291e-03
      4.68933163e-03 3.51699861e-03 3.51699861e-03 7.03399722e-03
      2.34466582e-03 1.05509963e-02 5.86166466e-03 3.51699861e-03
      1.17233291e-03 1.17233291e-03 1.17233291e-03 1.17233291e-03
      4.68933163e-03 5.86166466e-03 0. 3.51699861e-03 1.17233291e-03
      9.37866326e-03 5.86166466e-03 1.75849944e-02 1.17233291e-03
      1.17233291e-03 5.86166466e-03 5.86166466e-03 3.51699861e-03
      7.03399722e-03 3.51699861e-03 1.40679944e-02 0. 2.34466582e-03
      1.52403275e-02 9.37866326e-03 3.28253210e-02 3.51699861e-03
      8.20633024e-03 5.86166466e-03 2.34466582e-03 1.17233291e-03
      3.51699861e-03 4.68933163e-03 3.51699861e-03 2.34466582e-03
      9.37866326e-03 5.86166466e-03 1.17233293e-02 8.20633024e-03 0.
      2.34466582e-03 0. 2.34466582e-03 1.17233291e-03 1.17233291e-03
      3.51699861e-03 4.68933163e-03 3.51699861e-03 1.17233291e-03
      2.34466582e-03 4.68933163e-03 1.05509963e-02 2.34466582e-03
      5.86166466e-03 1.17233291e-03 2.34466582e-03 1.17233291e-03
      2.34466582e-03 0. 3.51699861e-03 4.68933163e-03 3.51699861e-03
      1.52403275e-02 1.40679944e-02 3.51699861e-03 1.17233291e-03
      7.03399722e-03 1.17233291e-03 1.05509963e-02 4.68933163e-03
      4.68933163e-03 2.34466582e-03 9.37866326e-03 8.20633024e-03
      4.68933163e-03 2.34466582e-03 1.52403275e-02 0. 8.20633024e-03
      1.05509963e-02 3.51699861e-03 2.34466582e-03 7.03399722e-03
      1.17233291e-03 2.34466582e-03 3.51699861e-03 9.37866326e-03
      1.52403275e-02 9.37866326e-03 1.17233291e-03 3.51699861e-03
      1.17233291e-03 1.17233291e-03 1.17233293e-02 9.37866326e-03
      1.17233291e-03 1.17233291e-03 7.03399722e-03 5.86166466e-03
      3.04806549e-02</_>
    <_>
      1.17924530e-03 0. 4.71698120e-03 1.17924530e-02 1.17924530e-03
      3.53773590e-03 1.17924530e-03 0. 3.53773590e-03 5.89622650e-03
      1.17924530e-03 2.00471692e-02 0. 0. 2.35849060e-03 4.71698120e-03
      5.89622650e-03 1.06132077e-02 8.25471710e-03 5.89622650e-03
      2.35849060e-03 1.17924530e-03 2.35849060e-03 5.89622650e-03
      1.17924530e-03 1.17924530e-03 2.35849060e-03 1.29716983e-02
      5.89622650e-03 3.53773590e-03 8.25471710e-03 4.71698120e-03
      3.53773590e-03 1.41509436e-02 2.35849060e-03 1.17924530e-03
      2.35849060e-02 2.35849060e-03 4.71698120e-03 1.17924530e-03
      9.43396240e-03 8.25471710e-03 2.35849060e-03 1.53301889e-02
      4.71698120e-03 3.53773590e-03 0. 4.71698120e-03 2.35849060e-03
      2.35849060e-03 2.35849060e-03 2.35849060e-03 0. 0. 2.35849060e-03
      2.35849060e-03 7.07547180e-03 3.53773609e-02 8.25471710e-03
      2.35849060e-03 8.25471710e-03 4.71698120e-03 1.29716983e-02
      9.43396240e-03 1.17924530e-03 0. 1.17924530e-03 1.17924530e-02
      3.53773590e-03 0. 4.71698120e-03 2.35849060e-03 2.35849060e-03
      2.35849060e-03 3.53773590e-03 2.35849060e-03 1.29716983e-02 0.
      3.53773590e-03 1.17924530e-03 2.35849060e-03 0. 0. 7.07547180e-03
      2.24056616e-02 1.06132077e-02 3.53773590e-03 5.89622650e-03
      3.53773590e-03 1.29716983e-02 2.35849060e-03 3.53773590e-03
      7.07547180e-03 2.35849060e-03 0. 2.35849060e-03 1.17924530e-03
      2.35849060e-03 8.25471710e-03 5.89622650e-03 9.43396240e-03
      5.89622650e-03 2.35849060e-03 0. 2.35849060e-03 1.17924530e-03
      5.89622650e-03 1.17924530e-03 3.53773590e-03 1.17924530e-03
      3.53773590e-03 1.41509436e-02 1.53301889e-02 0. 2.35849060e-03
      2.35849060e-03 7.07547180e-03 1.06132077e-02 0. 1.41509436e-02
      1.29716983e-02 0. 0. 2.47641504e-02 1.29716983e-02 1.65094342e-02
      4.71698120e-03 1.17924530e-03 7.07547180e-03 4.71698120e-03
      1.17924530e-03 0. 3.53773590e-03 0. 2.35849060e-03 7.07547180e-03
      4.71698120e-03 1.17924530e-02 2.35849060e-03 2.35849060e-03
      2.35849060e-03 5.89622650e-03 2.35849060e-03 3.53773590e-03
      1.17924530e-03 7.07547180e-03 7.07547180e-03 3.53773590e-03
      1.17924530e-03 2.35849060e-03 3.53773590e-03 2.35849060e-03 0. 0.
      1.17924530e-03 4.71698120e-03 2.35849060e-03 4.71698120e-03 0.
      1.29716983e-02 0. 1.17924530e-03 1.88679248e-02 1.17924530e-02
      2.35849060e-03 0. 5.89622650e-03 0. 5.89622650e-03 1.17924530e-03
      0. 1.06132077e-02 3.53773590e-03 1.76886804e-02 1.17924530e-03
      5.89622650e-03 7.07547180e-03 4.71698120e-03 5.89622650e-03
      2.35849060e-03 0. 5.89622650e-03 0. 4.71698120e-03 2.35849060e-03
      5.89622650e-03 1.06132077e-02 1.65094342e-02 4.71698120e-03
      3.53773590e-03 4.71698120e-03 3.53773590e-03 3.53773590e-03
      1.17924530e-03 2.35849060e-03 8.25471710e-03 3.53773590e-03
      3.53773590e-03 5.89622650e-03 7.07547180e-03</_>
    <_>
      5.00834733e-03 4.17362247e-03 2.50417367e-03 3.33889807e-03
      8.34724517e-04 3.33889807e-03 8.34724517e-04 0. 9.18196980e-03
      4.17362247e-03 5.00834733e-03 1.91986635e-02 8.34724517e-04 0.
      1.41903171e-02 0. 1.08514186e-02 4.17362247e-03 4.17362247e-03
      1.66944903e-03 4.17362247e-03 5.00834733e-03 1.66944903e-03
      3.33889807e-03 8.34724517e-04 8.34724517e-04 8.34724517e-04
      1.66944899e-02 5.00834733e-03 6.67779613e-03 4.17362247e-03
      6.67779613e-03 3.33889807e-03 8.34724493e-03 2.50417367e-03
      4.17362247e-03 1.25208674e-02 8.34724517e-04 1.66944903e-03 0.
      4.17362247e-03 1.66944899e-02 2.50417367e-03 3.33889807e-03
      5.84307173e-03 3.33889807e-03 0. 2.50417367e-03 6.67779613e-03
      2.50417367e-03 2.50417367e-03 8.34724517e-04 8.34724517e-04
      5.84307173e-03 1.66944903e-03 5.84307173e-03 8.34724517e-04
      2.08681133e-02 5.84307173e-03 1.66944903e-03 2.50417367e-03
      1.66944903e-03 6.67779613e-03 6.67779613e-03 8.34724517e-04
      8.34724493e-03 6.67779613e-03 0. 8.34724517e-04 8.34724517e-04 0.
      2.50417367e-03 5.84307173e-03 2.50417367e-03 5.00834733e-03 0.
      1.08514186e-02 1.66944903e-03 6.67779613e-03 3.33889807e-03
      3.33889807e-03 2.50417367e-03 8.34724517e-04 6.67779613e-03
      1.66944899e-02 6.67779613e-03 9.18196980e-03 2.50417367e-03
      5.84307173e-03 7.51252053e-03 8.34724517e-04 5.00834733e-03
      1.00166947e-02 3.33889807e-03 7.51252053e-03 1.66944903e-03
      2.08681133e-02 8.34724517e-04 1.00166947e-02 3.33889807e-03
      1.41903171e-02 3.33889807e-03 3.33889807e-03 8.34724517e-04
      5.00834733e-03 5.84307173e-03 8.34724493e-03 4.17362247e-03
      2.50417367e-03 0. 4.17362247e-03 5.00834733e-03 5.84307173e-03
      5.00834733e-03 8.34724517e-04 4.17362247e-03 6.67779613e-03
      3.33889807e-03 1.66944903e-03 1.91986635e-02 8.34724517e-04
      8.34724517e-04 8.34724493e-03 1.58597659e-02 7.51252053e-03
      9.18196980e-03 3.33889807e-03 4.17362247e-03 4.17362247e-03
      1.08514186e-02 3.33889807e-03 4.17362247e-03 9.18196980e-03
      5.00834733e-03 3.33889807e-03 8.34724493e-03 3.33889807e-03
      5.84307173e-03 1.83639396e-02 4.17362247e-03 3.33889807e-03
      1.25208674e-02 0. 5.84307173e-03 5.00834733e-03 7.51252053e-03
      2.50417367e-03 1.66944903e-03 5.00834733e-03 8.34724493e-03 0.
      2.50417367e-03 8.34724517e-04 5.00834733e-03 0. 4.17362247e-03
      3.33889807e-03 1.66944903e-03 0. 9.18196980e-03 6.67779613e-03
      4.17362247e-03 5.84307173e-03 1.16861435e-02 2.50417367e-03
      4.17362247e-03 1.41903171e-02 5.84307173e-03 1.66944903e-03
      8.34724493e-03 2.50417367e-03 1.66944903e-03 1.66944903e-03
      3.33889807e-03 5.00834733e-03 1.16861435e-02 3.33889807e-03
      7.51252053e-03 1.00166947e-02 3.33889807e-03 8.34724517e-04
      1.66944903e-03 0. 1.25208674e-02 1.25208674e-02 5.84307173e-03
      2.25375611e-02 2.50417367e-03 2.50417367e-03 2.50417367e-03
      2.50417367e-03 5.00834733e-03 7.51252053e-03 0. 3.33889807e-03
      3.33889807e-03 3.33889807e-03 8.34724517e-04 0. 7.51252053e-03</_>
    <_>
      7.16145849e-03 2.92968750e-03 7.81250000e-03 4.55729198e-03
      6.51041686e-04 4.23177099e-03 4.88281250e-03 3.25520849e-03
      5.53385448e-03 7.16145849e-03 6.51041698e-03 9.11458395e-03
      2.92968750e-03 3.58072924e-03 7.81250000e-03 2.60416674e-03
      1.95312500e-03 2.92968750e-03 5.20833349e-03 5.53385448e-03
      5.20833349e-03 1.30208337e-03 2.92968750e-03 6.83593750e-03
      3.25520849e-03 3.90625000e-03 1.62760424e-03 4.55729198e-03
      3.90625000e-03 1.30208337e-03 6.51041698e-03 9.44010448e-03
      5.20833349e-03 1.39973965e-02 4.88281250e-03 2.92968750e-03
      3.45052108e-02 2.60416674e-03 2.27864599e-03 2.27864599e-03
      2.92968750e-03 5.20833349e-03 3.90625000e-03 2.27864599e-03
      3.90625000e-03 9.76562500e-04 0. 3.25520849e-03 2.60416674e-03
      9.76562500e-04 1.95312500e-03 1.95312500e-03 3.58072924e-03
      7.48697948e-03 1.30208337e-03 4.23177099e-03 4.88281250e-03
      1.79036465e-02 1.17187500e-02 2.60416674e-03 6.83593750e-03
      2.92968750e-03 1.20442715e-02 6.83593750e-03 5.53385448e-03
      6.18489599e-03 3.58072924e-03 7.81250000e-03 3.58072924e-03
      3.25520843e-04 1.30208337e-03 1.95312500e-03 2.60416674e-03
      3.90625000e-03 1.20442715e-02 5.53385448e-03 6.18489599e-03
      1.95312500e-03 8.78906250e-03 1.62760424e-03 4.55729198e-03
      5.20833349e-03 4.55729198e-03 5.53385448e-03 1.95312500e-02
      4.88281250e-03 3.25520849e-03 4.55729198e-03 1.95312500e-03
      1.98567715e-02 1.62760424e-03 2.60416674e-03 2.60416674e-03
      3.58072924e-03 2.27864599e-03 1.95312500e-03 1.13932295e-02
      2.60416674e-03 8.78906250e-03 5.85937500e-03 7.81250000e-03
      3.58072924e-03 9.76562500e-04 1.30208337e-03 2.27864599e-03
      3.90625000e-03 3.90625000e-03 1.30208337e-03 1.30208337e-03
      1.62760424e-03 3.58072924e-03 1.20442715e-02 2.63671875e-02
      2.92968750e-03 2.92968750e-03 1.62760424e-03 7.81250000e-03
      5.20833349e-03 1.30208337e-03 5.53385448e-03 4.23177099e-03
      4.23177099e-03 2.27864599e-03 3.58072924e-03 6.83593750e-03
      2.60416679e-02 3.25520849e-03 9.76562500e-04 4.55729198e-03
      5.85937500e-03 9.76562500e-04 3.25520849e-03 3.90625000e-03
      4.88281250e-03 2.27864599e-03 1.13932295e-02 3.58072924e-03
      7.48697948e-03 1.75781250e-02 2.60416674e-03 1.62760424e-03
      2.60416674e-03 6.51041686e-04 6.51041686e-04 2.27864599e-03
      1.10677090e-02 3.58072924e-03 3.25520849e-03 6.51041686e-04
      3.25520849e-03 3.25520849e-03 2.60416674e-03 1.62760424e-03
      2.60416674e-03 3.25520849e-03 1.33463545e-02 7.16145849e-03
      1.62760424e-03 0. 4.88281250e-03 2.60416674e-03 2.92968750e-03
      1.13932295e-02 2.11588554e-02 3.58072924e-03 1.62760424e-03
      3.25520849e-03 3.25520849e-03 5.85937500e-03 4.23177099e-03
      2.60416674e-03 3.25520843e-04 4.55729198e-03 1.10677090e-02
      3.25520849e-03 1.95312500e-03 5.20833349e-03 1.30208337e-03
      5.53385448e-03 3.25520849e-03 1.30208337e-03 3.58072924e-03
      5.85937500e-03 3.58072924e-03 3.90625000e-03 3.90625000e-03
      1.10677090e-02 7.81250000e-03 3.90625000e-03 1.62760424e-03
      3.58072924e-03 4.23177099e-03 4.23177099e-03 4.55729198e-03
      1.30208337e-03 4.23177099e-03 6.18489599e-03 2.60416674e-03
      5.20833349e-03 1.30208340e-02</_>
    <_>
      1.40449440e-03 5.61797759e-03 0. 2.80898879e-03 1.40449440e-03
      5.61797759e-03 1.40449440e-03 1.40449440e-03 4.21348307e-03
      1.26404492e-02 2.80898879e-03 5.61797759e-03 1.40449440e-03
      2.80898879e-03 8.42696615e-03 1.40449440e-03 7.02247210e-03
      1.40449440e-03 1.40449442e-02 1.40449440e-03 0. 1.40449440e-03
      1.40449440e-03 1.40449440e-03 4.21348307e-03 1.40449440e-03
      1.40449440e-03 1.40449442e-02 4.21348307e-03 4.21348307e-03 0.
      2.80898879e-03 1.68539323e-02 5.61797759e-03 0. 4.21348307e-03
      9.83146112e-03 1.40449440e-03 1.40449440e-03 0. 1.82584263e-02
      1.40449442e-02 5.61797759e-03 5.61797759e-03 7.02247210e-03
      4.21348307e-03 1.40449440e-03 7.02247210e-03 1.12359552e-02
      2.80898879e-03 2.80898879e-03 2.80898879e-03 2.80898879e-03
      1.40449440e-03 0. 2.80898879e-03 4.21348307e-03 7.02247210e-03
      4.21348307e-03 1.40449440e-03 2.80898879e-03 4.21348307e-03
      4.21348307e-03 7.02247210e-03 0. 1.12359552e-02 5.61797759e-03
      1.40449440e-03 0. 0. 0. 2.80898879e-03 4.21348307e-03
      5.61797759e-03 1.40449440e-03 2.80898879e-03 1.40449440e-03
      4.21348307e-03 1.26404492e-02 0. 5.61797759e-03 5.61797759e-03
      5.61797759e-03 8.42696615e-03 5.61797759e-03 4.21348307e-03
      1.40449440e-03 2.80898879e-03 5.61797759e-03 1.82584263e-02 0.
      2.80898879e-03 1.54494382e-02 1.40449440e-03 5.61797759e-03
      7.02247210e-03 2.80898879e-03 1.40449440e-03 4.21348307e-03
      1.68539323e-02 5.61797759e-03 7.02247210e-03 2.80898879e-03
      5.61797759e-03 1.40449440e-03 5.61797759e-03 2.80898879e-03
      4.21348307e-03 0. 1.40449440e-03 2.80898879e-03 7.02247210e-03
      9.83146112e-03 5.61797759e-03 4.21348307e-03 5.61797759e-03
      4.21348307e-03 1.40449440e-03 8.42696615e-03 1.40449442e-02
      1.82584263e-02 1.40449440e-03 1.40449440e-03 4.35393266e-02
      2.80898879e-03 1.12359552e-02 1.40449440e-03 2.80898879e-03
      2.80898879e-03 9.83146112e-03 0. 1.40449440e-03 9.83146112e-03
      8.42696615e-03 2.80898879e-03 7.02247210e-03 5.61797759e-03
      8.42696615e-03 1.40449442e-02 9.83146112e-03 1.40449440e-03
      7.02247210e-03 4.21348307e-03 9.83146112e-03 2.80898879e-03
      2.80898879e-03 4.21348307e-03 2.80898879e-03 1.40449442e-02
      5.61797759e-03 0. 1.40449440e-03 2.80898879e-03 1.12359552e-02 0.
      5.61797759e-03 0. 1.40449440e-03 0. 4.21348307e-03 2.80898879e-03
      4.21348307e-03 1.40449442e-02 7.02247210e-03 9.83146112e-03
      7.02247210e-03 8.42696615e-03 2.80898879e-03 4.21348307e-03
      1.12359552e-02 2.80898879e-03 4.21348307e-03 4.21348307e-03
      2.80898879e-03 7.02247210e-03 9.83146112e-03 1.40449440e-03
      5.61797759e-03 5.61797759e-03 9.83146112e-03 0. 1.40449440e-03 0.
      4.21348307e-03 5.61797759e-03 5.61797759e-03 9.83146112e-03
      1.40449440e-03 1.40449440e-03 2.80898879e-03 1.40449440e-03
      5.61797759e-03 4.21348307e-03 0. 1.40449440e-03 4.21348307e-03
      9.83146112e-03 5.61797759e-03 2.80898879e-03 5.61797759e-03</_>
    <_>
      4.13116440e-03 6.45494461e-03 2.84017553e-03 4.90575749e-03
      7.74593325e-04 5.68035105e-03 2.06558220e-03 1.65246576e-02
      2.06558220e-03 6.19674660e-03 2.58197775e-03 9.03692190e-03
      5.16395550e-04 1.54918665e-03 7.48773571e-03 5.68035105e-03
      5.68035105e-03 2.58197775e-03 6.97133970e-03 2.06558220e-03
      2.84017553e-03 5.16395550e-04 3.61476885e-03 4.13116440e-03
      3.35657108e-03 1.29098888e-03 5.93854859e-03 5.68035105e-03
      7.22953770e-03 4.64755995e-03 4.38936241e-03 2.84017553e-03
      7.48773571e-03 8.77872482e-03 3.61476885e-03 1.80738443e-03
      1.54918665e-02 2.06558220e-03 4.90575749e-03 3.61476885e-03
      8.77872482e-03 7.48773571e-03 5.16395550e-03 4.38936241e-03
      3.35657108e-03 2.58197775e-03 4.38936241e-03 5.42215351e-03
      4.38936241e-03 6.97133970e-03 2.32377998e-03 5.42215351e-03
      2.06558220e-03 5.16395550e-03 1.80738443e-03 2.84017553e-03
      6.19674660e-03 1.18770972e-02 5.16395550e-03 3.61476885e-03
      5.68035105e-03 4.90575749e-03 5.68035105e-03 3.61476885e-03
      1.29098888e-03 6.19674660e-03 4.90575749e-03 8.26232880e-03
      4.90575749e-03 3.61476885e-03 2.06558220e-03 1.54918665e-03
      9.03692190e-03 5.42215351e-03 7.74593325e-04 2.84017553e-03
      1.44590754e-02 5.68035105e-03 6.19674660e-03 1.29098888e-03
      4.64755995e-03 4.13116440e-03 1.29098888e-03 1.31680863e-02
      9.81151499e-03 6.97133970e-03 8.52052681e-03 4.90575749e-03
      5.16395550e-03 5.93854859e-03 2.58197775e-03 4.38936241e-03
      3.35657108e-03 1.80738443e-03 1.00697130e-02 4.64755995e-03
      7.48773571e-03 3.09837330e-03 6.97133970e-03 1.13607021e-02
      6.97133970e-03 2.32377998e-03 4.64755995e-03 1.03279110e-03
      6.45494461e-03 1.05861090e-02 6.45494461e-03 3.09837330e-03
      3.35657108e-03 5.16395550e-04 3.09837330e-03 1.00697130e-02
      1.23934932e-02 2.84017553e-03 5.16395550e-03 1.03279110e-03
      4.38936241e-03 6.45494461e-03 2.32377998e-03 1.26516912e-02
      5.68035105e-03 7.74593325e-04 1.29098888e-03 1.54918665e-02
      5.68035105e-03 1.05861090e-02 2.58197775e-03 2.58197775e-03
      2.32377998e-03 2.58197775e-03 3.61476885e-03 1.29098888e-03
      5.42215351e-03 4.90575749e-03 5.16395550e-03 4.13116440e-03
      4.13116440e-03 1.60082616e-02 6.19674660e-03 3.35657108e-03
      2.32377998e-03 3.61476885e-03 2.58197775e-03 9.29511990e-03
      1.03279110e-03 4.90575749e-03 3.61476885e-03 3.35657108e-03
      2.84017553e-03 4.38936241e-03 4.13116440e-03 1.54918665e-03
      2.84017553e-03 3.87296663e-03 2.06558220e-03 3.87296663e-03
      4.38936241e-03 3.87296663e-03 0. 8.52052681e-03 2.84017553e-03
      7.22953770e-03 8.00413080e-03 1.16189001e-02 4.64755995e-03
      2.06558220e-03 4.38936241e-03 2.32377998e-03 7.74593325e-03
      7.74593325e-03 4.38936241e-03 7.74593325e-03 4.90575749e-03
      4.90575749e-03 2.06558220e-03 2.58197775e-03 5.68035105e-03
      8.00413080e-03 8.00413080e-03 7.74593325e-03 1.03279110e-03
      3.35657108e-03 9.81151499e-03 8.52052681e-03 5.42215351e-03
      2.32377998e-03 1.31680863e-02 4.64755995e-03 5.16395550e-03
      7.74593325e-03 3.09837330e-03 3.09837330e-03 4.38936241e-03
      3.09837330e-03 2.84017553e-03 4.13116440e-03 4.13116440e-03
      7.74593325e-04 4.13116440e-03 3.61476885e-03</_></support_vectors>
  <decision_functions>
    <_>
      <sv_count>24</sv_count>
      <rho>-1.0115315631861024e+00</rho>
      <alpha>
        1.9880871040340395e-01 1. 1. 8.3333566421504249e-03
        2.5843018415381663e-01 1.0126892088637447e-01
        1.7850358318071174e-02 1.0740921734408372e-01
        5.3191085651498526e-01 5.0075498899844073e-01 1.
        3.4262220448130203e-02 2.3811942375718428e-01
        7.5532668763949970e-02 3.6466561948867243e-01
        2.6850892610504407e-01 1.3684452451794252e-01
        1.5730002365775031e-01 -1. -1. -1. -1. -1. -1.</alpha>
      <index>
        0 1 2 3 4 5 6 7 8 9 10 11 12 13 14 15 16 17 18 19 20 21 22 23</index></_></decision_functions></my_svm>
</opencv_storage>
