<?xml version="1.0"?>
<opencv_storage>
<my_svm type_id="opencv-ml-svm">
  <svm_type>C_SVC</svm_type>
  <kernel><type>RBF</type>
    <gamma>1.</gamma></kernel>
  <C>1.</C>
  <term_criteria><epsilon>1.1920928955078125e-07</epsilon>
    <iterations>1000</iterations></term_criteria>
  <var_all>200</var_all>
  <var_count>200</var_count>
  <class_count>2</class_count>
  <class_labels type_id="opencv-matrix">
    <rows>1</rows>
    <cols>2</cols>
    <dt>i</dt>
    <data>
      0 1</data></class_labels>
  <sv_total>25</sv_total>
  <support_vectors>
    <_>
      0. 2.94985250e-03 2.94985250e-03 5.89970499e-03 0. 2.94985250e-03
      1.17994100e-02 2.94985250e-03 0. 2.94985250e-03 1.47492625e-02
      1.17994100e-02 2.94985250e-03 0. 8.84955749e-03 0. 0.
      5.89970499e-03 2.94985250e-02 0. 1.17994100e-02 0. 0. 0.
      2.94985250e-03 8.84955749e-03 2.94985250e-03 0. 0. 0. 0. 0.
      2.94985250e-03 0. 1.47492625e-02 0. 0. 0. 2.94985250e-03
      5.89970499e-03 2.94985250e-03 2.94985250e-03 0. 0. 2.94985250e-03
      0. 1.17994100e-02 5.89970499e-03 0. 1.17994100e-02 0. 0.
      2.94985250e-03 0. 1.47492625e-02 5.89970499e-03 1.17994100e-02 0.
      8.84955749e-03 1.47492625e-02 2.94985250e-03 8.84955749e-03
      2.94985250e-03 0. 5.89970499e-03 2.94985250e-03 2.94985250e-03 0.
      0. 8.84955749e-03 0. 2.94985250e-03 0. 2.94985250e-03 0. 0.
      2.94985250e-03 0. 5.89970499e-03 2.94985250e-03 5.89970499e-03 0.
      5.89970499e-03 0. 2.94985250e-03 2.94985250e-03 5.89970499e-03 0.
      0. 0. 1.17994100e-02 0. 2.94985250e-03 5.89970499e-03
      1.47492625e-02 5.89970499e-03 1.76991150e-02 0. 0. 5.89970499e-03
      8.84955749e-03 0. 2.94985250e-03 2.94985250e-03 1.17994100e-02 0.
      5.89970499e-03 0. 1.47492625e-02 2.94985250e-03 0. 0.
      1.47492625e-02 0. 2.94985250e-03 0. 5.89970499e-03 8.84955749e-03
      5.89970499e-03 5.89970499e-03 1.17994100e-02 0. 8.84955749e-03 0.
      2.06489675e-02 1.47492625e-02 8.84955749e-03 2.94985250e-03
      5.89970499e-03 5.89970499e-03 2.94985250e-03 3.24483775e-02 0. 0.
      2.94985250e-03 0. 1.76991150e-02 0. 1.47492625e-02 0.
      2.94985250e-03 2.94985250e-03 5.89970499e-03 0. 8.84955749e-03 0.
      2.94985250e-03 1.47492625e-02 0. 0. 8.84955749e-03 2.94985250e-03
      0. 1.76991150e-02 0. 1.47492625e-02 0. 0. 1.76991150e-02
      1.17994100e-02 3.24483775e-02 0. 2.94985250e-03 2.94985250e-03
      2.94985250e-03 2.06489675e-02 2.35988200e-02 5.89970499e-03
      8.84955749e-03 0. 0. 2.94985250e-03 5.89970499e-03 2.94985250e-03
      5.89970499e-03 5.89970499e-03 1.17994100e-02 2.65486725e-02 0. 0.
      0. 0. 0. 0. 2.94985250e-03 2.94985250e-03 1.17994100e-02
      1.47492625e-02 5.89970499e-03 2.94985250e-03 5.89970499e-03 0. 0.
      2.94985250e-03 5.89970499e-03 0. 5.89970499e-03 0. 0.
      2.06489675e-02</_>
    <_>
      0. 3.87596898e-02 7.75193796e-03 0. 1.55038759e-02 0.
      1.55038759e-02 0. 0. 0. 0. 7.75193796e-03 7.75193796e-03 0.
      7.75193796e-03 0. 0. 7.75193796e-03 1.55038759e-02 0.
      7.75193796e-03 7.75193796e-03 7.75193796e-03 2.32558139e-02
      1.55038759e-02 0. 0. 0. 1.55038759e-02 7.75193796e-03 0. 0.
      7.75193796e-03 0. 7.75193796e-03 0. 0. 0. 0. 7.75193796e-03
      7.75193796e-03 1.55038759e-02 0. 0. 1.55038759e-02 0.
      3.10077518e-02 0. 0. 0. 0. 1.55038759e-02 0. 0. 1.55038759e-02
      7.75193796e-03 1.55038759e-02 0. 0. 0. 0. 0. 0. 0. 0. 0. 0. 0. 0.
      0. 0. 0. 7.75193796e-03 0. 0. 0. 7.75193796e-03 2.32558139e-02
      7.75193796e-03 0. 0. 0. 0. 0. 0. 0. 7.75193796e-03 0.
      7.75193796e-03 0. 7.75193796e-03 0. 0. 0. 0. 0. 2.32558139e-02
      2.32558139e-02 7.75193796e-03 1.55038759e-02 7.75193796e-03 0.
      7.75193796e-03 7.75193796e-03 0. 0. 0. 7.75193796e-03 0. 0. 0.
      1.55038759e-02 3.87596898e-02 0. 7.75193796e-03 7.75193796e-03 0.
      0. 0. 0. 7.75193796e-03 0. 7.75193796e-03 2.32558139e-02
      1.55038759e-02 0. 0. 7.75193796e-03 0. 0. 0. 2.32558139e-02
      7.75193796e-03 0. 0. 0. 1.55038759e-02 7.75193796e-03 0. 0.
      7.75193796e-03 0. 7.75193796e-03 0. 7.75193796e-03 7.75193796e-03
      1.55038759e-02 0. 7.75193796e-03 0. 7.75193796e-03 0. 0. 0. 0.
      7.75193796e-03 0. 0. 0. 7.75193796e-03 0. 0. 0. 0. 0.
      1.55038759e-02 2.32558139e-02 7.75193796e-03 7.75193796e-03
      1.55038759e-02 0. 0. 7.75193796e-03 7.75193796e-03 0.
      7.75193796e-03 2.32558139e-02 7.75193796e-03 0. 0. 7.75193796e-03
      0. 0. 0. 0. 7.75193796e-03 7.75193796e-03 0. 0. 7.75193796e-03 0.
      0. 1.55038759e-02 1.55038759e-02 2.32558139e-02 0. 0. 0. 0. 0.</_>
    <_>
      0. 5.61797759e-03 1.12359552e-02 0. 1.12359552e-02 0.
      1.12359552e-02 0. 0. 5.61797759e-03 1.12359552e-02 3.37078646e-02
      0. 0. 0. 5.61797759e-03 5.61797759e-03 0. 2.24719103e-02 0.
      5.61797759e-03 0. 0. 5.61797759e-03 0. 0. 5.61797759e-03 0. 0. 0.
      0. 0. 0. 0. 1.12359552e-02 0. 0. 0. 0. 0. 5.61797759e-03
      1.12359552e-02 0. 0. 0. 0. 1.68539323e-02 0. 5.61797759e-03 0. 0.
      0. 0. 0. 5.61797759e-03 0. 5.61797759e-03 1.68539323e-02
      1.12359552e-02 0. 0. 0. 1.68539323e-02 0. 1.68539323e-02
      5.61797759e-03 0. 5.61797759e-03 0. 0. 1.12359552e-02 0.
      5.61797759e-03 5.61797759e-03 1.68539323e-02 0. 0. 0. 0. 0. 0. 0.
      0. 5.61797759e-03 1.12359552e-02 0. 0. 0. 5.61797759e-03
      5.61797759e-03 5.61797759e-03 0. 0. 5.61797759e-03 0.
      5.61797759e-03 2.24719103e-02 0. 0. 5.61797759e-03 2.80898884e-02
      0. 2.24719103e-02 0. 0. 0. 5.61797759e-03 1.12359552e-02 0.
      5.61797759e-03 1.12359552e-02 1.68539323e-02 0. 0. 0.
      5.61797759e-03 0. 0. 0. 1.68539323e-02 1.68539323e-02 0. 0.
      5.61797759e-03 2.80898884e-02 0. 5.61797759e-03 1.12359552e-02
      5.61797759e-03 0. 0. 2.24719103e-02 0. 5.61797759e-03
      5.61797759e-03 0. 2.80898884e-02 0. 3.37078646e-02 0. 0.
      5.61797759e-03 5.61797759e-03 0. 0. 5.61797759e-03 5.61797759e-03
      5.61797759e-03 0. 0. 0. 0. 0. 0. 0. 1.12359552e-02 0. 0.
      1.68539323e-02 1.68539323e-02 2.24719103e-02 0. 5.61797759e-03
      1.12359552e-02 0. 5.61797759e-03 1.68539323e-02 0. 5.61797759e-03
      1.12359552e-02 0. 0. 0. 1.12359552e-02 0. 0. 5.61797759e-03
      1.12359552e-02 5.61797759e-03 0. 0. 0. 5.61797759e-03
      1.68539323e-02 0. 5.61797759e-03 1.12359552e-02 0. 5.61797759e-03
      5.61797759e-03 1.12359552e-02 1.12359552e-02 0. 5.61797759e-03
      3.93258445e-02 5.61797759e-03 0. 5.61797759e-03 0. 5.61797759e-03</_>
    <_>
      4.48179292e-03 1.28851542e-02 5.60224103e-03 5.04201697e-03
      3.92156886e-03 3.92156886e-03 2.80112051e-03 2.80112051e-03
      1.12044823e-03 2.80112051e-03 5.60224114e-04 1.73669476e-02
      1.12044823e-03 1.12044823e-03 6.16246508e-03 5.60224114e-04
      2.80112051e-03 3.92156886e-03 2.24089646e-03 3.36134480e-03
      3.36134480e-03 0. 3.36134480e-03 3.92156886e-03 3.41736712e-02
      3.36134480e-03 1.17647061e-02 1.12044823e-03 1.68067240e-03
      6.16246508e-03 5.60224114e-04 5.60224114e-04 2.24089646e-03
      6.16246508e-03 1.68067235e-02 2.24089646e-03 1.06442580e-02
      1.12044823e-03 1.68067240e-03 2.24089646e-03 1.40056033e-02
      1.68067240e-03 1.12044823e-03 5.60224114e-04 2.24089646e-03
      1.12044823e-03 3.92156886e-03 5.04201697e-03 1.68067240e-03 0.
      1.12044821e-02 2.80112051e-03 5.60224114e-04 1.68067240e-03
      3.36134480e-03 3.36134480e-03 1.68067240e-03 1.56862754e-02
      2.96918787e-02 3.36134480e-03 1.12044823e-03 1.68067240e-03
      6.16246508e-03 3.92156886e-03 1.73669476e-02 2.24089646e-03
      4.48179292e-03 7.28291366e-03 3.92156886e-03 2.24089646e-03 0.
      3.36134480e-03 3.36134480e-03 8.40336177e-03 2.18487401e-02
      1.12044823e-03 1.68067240e-03 5.04201697e-03 5.60224114e-04
      5.60224114e-04 5.60224114e-04 0. 9.52380989e-03 1.06442580e-02
      1.56862754e-02 2.80112051e-03 3.36134480e-03 1.12044823e-03
      6.16246508e-03 8.40336177e-03 1.68067240e-03 0. 0. 3.92156886e-03
      0. 1.12044823e-03 5.04201697e-03 1.06442580e-02 2.80112051e-03
      1.12044823e-03 9.52380989e-03 9.52380989e-03 2.24089646e-03
      2.80112051e-03 2.24089646e-03 2.24089646e-03 1.68067240e-03
      3.36134480e-03 1.68067240e-03 1.68067240e-03 2.24089646e-03
      1.73669476e-02 4.81792726e-02 1.68067240e-03 4.48179292e-03
      1.68067240e-03 5.60224114e-04 2.24089646e-03 2.24089646e-03
      3.92156886e-03 2.24089646e-03 3.36134480e-03 2.80112051e-03
      2.80112051e-03 3.41736712e-02 1.68067240e-03 3.36134480e-03
      1.68067240e-03 1.12044823e-03 0. 2.80112051e-03 4.48179292e-03
      9.52380989e-03 1.12044823e-03 5.60224103e-03 2.24089646e-03
      7.84313772e-03 1.12044823e-03 1.06442580e-02 0. 2.80112051e-03
      3.92156886e-03 1.68067240e-03 2.80112051e-03 1.12044823e-03
      1.68067240e-03 1.12044823e-03 5.60224103e-03 2.80112051e-03 0.
      1.68067240e-03 1.68067240e-03 5.60224114e-04 4.48179292e-03
      1.12044823e-03 5.60224114e-04 5.60224114e-04 2.24089646e-03
      3.36134480e-03 1.68067240e-03 1.45658273e-02 1.12044823e-03
      2.01680679e-02 8.40336177e-03 3.92156886e-03 1.68067240e-03
      6.72268961e-03 5.60224103e-03 2.63305325e-02 3.36134480e-03
      2.80112051e-03 2.24089646e-03 5.60224114e-04 5.60224103e-03
      1.68067240e-03 3.92156886e-03 8.96358583e-03 1.68067240e-03
      2.24089646e-03 0. 5.60224114e-04 6.72268961e-03 4.48179292e-03
      6.72268961e-03 1.68067235e-02 7.28291366e-03 4.48179292e-03
      1.28851542e-02 7.84313772e-03 2.24089646e-03 6.72268961e-03
      1.68067240e-03 1.68067240e-03 1.68067240e-03 2.07282919e-02
      7.84313772e-03 4.48179292e-03 6.72268961e-03 7.28291366e-03
      4.48179292e-03</_>
    <_>
      6.73997914e-03 1.24157509e-02 2.12841434e-03 7.09471467e-04
      4.25682869e-03 2.12841434e-03 7.09471479e-03 3.54735740e-03
      1.77367870e-03 1.77367870e-03 2.48315022e-03 7.80418608e-03
      2.83788587e-03 3.54735734e-04 5.32103609e-03 1.06420717e-03
      1.77367870e-03 6.38524303e-03 4.96630045e-03 1.77367870e-03
      1.17062796e-02 2.48315022e-03 4.96630045e-03 7.80418608e-03
      1.98652018e-02 5.67577174e-03 8.51365738e-03 1.41894293e-03
      3.54735740e-03 2.83788587e-03 3.54735734e-04 1.41894293e-03
      4.96630045e-03 1.20610148e-02 1.13515435e-02 1.41894293e-03
      1.66725796e-02 2.48315022e-03 8.51365738e-03 3.90209304e-03
      9.22312867e-03 2.83788587e-03 3.90209304e-03 3.54735740e-03
      7.09471467e-04 4.25682869e-03 7.09471479e-03 2.83788587e-03
      2.48315022e-03 2.12841434e-03 1.38346935e-02 1.41894293e-03
      3.54735740e-03 2.83788587e-03 6.03050739e-03 3.19262152e-03
      1.77367870e-03 1.41894293e-03 7.80418608e-03 4.25682869e-03
      3.54735734e-04 4.61156433e-03 1.34799583e-02 5.32103609e-03
      1.02873361e-02 3.90209304e-03 3.19262152e-03 2.48315022e-03
      1.41894293e-03 3.90209304e-03 2.83788587e-03 2.12841434e-03
      1.20610148e-02 4.96630045e-03 6.38524303e-03 2.12841434e-03
      2.12841434e-03 2.48315022e-03 6.03050739e-03 2.12841434e-03
      6.38524303e-03 7.09471467e-04 8.51365738e-03 1.02873361e-02
      3.19262152e-03 7.44945044e-03 6.73997914e-03 1.77367870e-03
      1.88009944e-02 1.06420722e-02 8.15892220e-03 5.67577174e-03
      3.54735734e-04 5.32103609e-03 6.38524303e-03 5.67577174e-03
      1.09968074e-02 7.09471467e-04 4.96630045e-03 1.06420717e-03
      1.13515435e-02 9.93260089e-03 1.41894293e-03 3.19262152e-03
      2.83788587e-03 3.19262152e-03 1.41894293e-03 9.57786478e-03
      4.25682869e-03 1.41894293e-03 4.25682869e-03 6.73997914e-03
      4.96630045e-03 1.77367870e-03 7.09471467e-04 3.19262152e-03
      4.96630045e-03 2.12841434e-03 5.32103609e-03 3.19262152e-03
      3.90209304e-03 3.90209304e-03 2.48315022e-03 3.54735734e-04
      2.48315022e-03 2.12841434e-03 7.09471467e-04 2.48315022e-03
      1.77367870e-03 2.12841434e-03 2.12841434e-03 7.09471479e-03
      5.67577174e-03 9.22312867e-03 4.25682869e-03 3.90209304e-03
      6.03050739e-03 2.48315022e-03 1.20610148e-02 3.90209304e-03
      4.96630045e-03 2.48315022e-03 2.83788587e-03 1.41894293e-03
      2.83788587e-03 1.38346935e-02 3.54735740e-03 5.32103609e-03
      3.19262152e-03 7.09471467e-04 2.12841434e-03 2.12841434e-03
      1.77367870e-03 8.15892220e-03 1.41894293e-03 1.41894293e-03
      1.77367870e-03 2.48315022e-03 1.77367870e-03 4.96630045e-03
      1.24157509e-02 2.48315022e-03 2.23483518e-02 3.90209304e-03
      1.77367870e-03 7.09471479e-03 8.86839349e-03 8.51365738e-03
      1.70273148e-02 4.25682869e-03 1.77367870e-03 4.96630045e-03
      2.83788587e-03 8.86839349e-03 1.77367870e-03 1.06420722e-02
      3.19262152e-03 4.61156433e-03 1.77367870e-03 3.54735734e-04
      5.32103609e-03 7.44945044e-03 3.54735740e-03 7.09471467e-04
      1.95104647e-02 7.80418608e-03 7.44945044e-03 9.22312867e-03
      3.90209304e-03 2.83788587e-03 7.44945044e-03 3.19262152e-03
      8.86839349e-03 7.09471467e-04 4.96630045e-03 2.12841434e-03
      6.03050739e-03 1.02873361e-02 9.22312867e-03 5.32103609e-03</_>
    <_>
      0. 0. 0. 0. 4.83091781e-03 4.83091781e-03 0. 0. 4.83091781e-03
      1.44927539e-02 0. 0. 0. 0. 0. 0. 9.66183562e-03 0. 2.41545886e-02
      0. 1.44927539e-02 0. 0. 4.83091781e-03 0. 0. 0. 0. 4.83091781e-03
      0. 0. 0. 4.83091781e-03 2.41545886e-02 9.66183562e-03 0.
      4.83091781e-03 4.83091781e-03 0. 0. 0. 9.66183562e-03 0. 0.
      9.66183562e-03 9.66183562e-03 1.44927539e-02 0. 0. 3.38164233e-02
      4.83091781e-03 0. 0. 1.93236712e-02 2.41545886e-02 4.83091781e-03
      0. 0. 9.66183562e-03 0. 0. 0. 9.66183562e-03 0. 4.83091781e-03
      4.83091781e-03 0. 1.44927539e-02 0. 0. 4.83091781e-03 0.
      9.66183562e-03 0. 9.66183562e-03 4.83091781e-03 0. 9.66183562e-03
      4.83091781e-03 0. 0. 0. 0. 4.83091781e-03 9.66183562e-03
      4.83091781e-03 4.83091781e-03 0. 4.83091781e-03 0. 4.83091781e-03
      0. 0. 0. 0. 4.83091781e-03 1.93236712e-02 4.83091781e-03 0. 0.
      4.83091781e-03 0. 4.83091781e-03 4.83091781e-03 0. 0. 0. 0. 0.
      4.83091781e-03 0. 0. 4.34782617e-02 9.66183562e-03 0.
      1.93236712e-02 0. 0. 0. 4.83091781e-03 0. 0. 4.83091781e-03 0.
      2.89855078e-02 9.66183562e-03 0. 4.83091781e-03 1.44927539e-02
      4.83091781e-03 0. 3.38164233e-02 0. 9.66183562e-03 0. 0. 0. 0.
      6.28019348e-02 0. 0. 4.83091781e-03 0. 0. 1.44927539e-02 0.
      4.83091781e-03 3.38164233e-02 0. 0. 0. 4.83091781e-03 0. 0. 0.
      1.44927539e-02 0. 0. 4.83091781e-03 1.44927539e-02 1.44927539e-02
      0. 1.44927539e-02 2.89855078e-02 0. 9.66183562e-03 4.83091781e-03
      0. 0. 4.83091781e-03 0. 0. 0. 4.83091781e-03 0. 0. 0.
      2.41545886e-02 0. 0. 4.83091781e-03 0. 4.83091781e-03
      4.83091781e-03 1.44927539e-02 1.44927539e-02 9.66183562e-03 0.
      1.44927539e-02 1.44927539e-02 4.83091781e-03 0. 4.83091781e-03 0.
      9.66183562e-03 0. 0. 9.66183562e-03 0. 0.</_>
    <_>
      0. 5.40540554e-03 2.16216221e-02 5.40540554e-03 0. 5.40540554e-03
      1.62162166e-02 0. 5.40540554e-03 0. 0. 1.08108111e-02 0. 0.
      1.62162166e-02 0. 0. 0. 5.40540554e-03 0. 1.62162166e-02 0.
      5.40540554e-03 1.08108111e-02 1.08108111e-02 5.40540554e-03
      1.08108111e-02 0. 0. 5.40540554e-03 0. 0. 0. 1.08108111e-02
      1.08108111e-02 0. 5.40540554e-03 5.40540554e-03 5.40540554e-03
      5.40540554e-03 5.40540554e-03 1.62162166e-02 0. 0. 2.16216221e-02
      0. 0. 5.40540554e-03 1.08108111e-02 0. 0. 0. 5.40540554e-03 0.
      3.78378406e-02 5.40540554e-03 0. 5.40540554e-03 0. 1.62162166e-02
      0. 0. 1.62162166e-02 0. 0. 1.08108111e-02 5.40540554e-03 0. 0.
      5.40540554e-03 1.08108111e-02 5.40540554e-03 5.40540554e-03
      5.40540554e-03 0. 0. 0. 1.08108111e-02 1.08108111e-02 0.
      5.40540554e-03 0. 0. 1.62162166e-02 0. 1.62162166e-02 0. 0.
      5.40540554e-03 0. 2.16216221e-02 0. 0. 1.08108111e-02
      5.40540554e-03 0. 5.40540554e-03 0. 0. 0. 0. 5.40540554e-03 0.
      5.40540554e-03 1.08108111e-02 0. 5.40540554e-03 2.16216221e-02
      1.08108111e-02 1.08108111e-02 5.40540554e-03 1.62162166e-02 0. 0.
      0. 0. 5.40540554e-03 0. 0. 5.40540554e-03 1.62162166e-02 0. 0.
      5.40540554e-03 0. 0. 5.40540554e-03 1.62162166e-02 1.08108111e-02
      5.40540554e-03 0. 1.08108111e-02 0. 1.62162166e-02 0. 0.
      3.78378406e-02 5.40540554e-03 1.08108111e-02 5.40540554e-03
      1.62162166e-02 0. 5.40540554e-03 5.40540554e-03 1.08108111e-02 0.
      0. 0. 0. 0. 5.40540554e-03 0. 0. 0. 5.40540554e-03 0. 0. 0. 0. 0.
      1.08108111e-02 0. 0. 1.08108111e-02 5.40540554e-03 1.62162166e-02
      1.08108111e-02 1.62162166e-02 1.62162166e-02 5.40540554e-03 0. 0.
      0. 5.40540554e-03 0. 5.40540554e-03 5.40540554e-03 1.08108111e-02
      0. 0. 0. 0. 0. 4.86486480e-02 0. 0. 5.40540554e-03 0. 0. 0. 0. 0.
      0. 0. 5.40540554e-03 1.62162166e-02 0. 0. 0. 5.40540554e-03</_>
    <_>
      0. 2.86123040e-03 2.28898432e-02 2.86123040e-03 5.72246080e-03
      1.71673819e-02 2.86123040e-03 1.43061522e-02 2.86123040e-03
      4.29184549e-03 4.29184549e-03 5.72246080e-03 0. 0. 5.72246080e-03
      1.43061520e-03 1.43061520e-03 7.15307612e-03 5.72246080e-03 0.
      4.29184549e-03 1.43061520e-03 0. 4.29184549e-03 4.29184549e-03 0.
      1.43061520e-03 0. 1.43061520e-03 0. 1.43061520e-03 0.
      1.43061520e-03 7.15307612e-03 1.00143068e-02 1.43061520e-03
      2.86123040e-03 1.43061520e-03 5.72246080e-03 2.86123040e-03
      1.43061520e-03 2.86123040e-03 4.29184549e-03 0. 4.29184549e-03
      5.72246080e-03 7.15307612e-03 7.15307612e-03 2.86123040e-03
      2.14592274e-02 0. 1.43061520e-03 0. 4.29184549e-03 1.14449216e-02
      2.86123040e-03 1.43061520e-03 5.72246080e-03 1.14449216e-02
      2.86123040e-03 2.86123040e-03 2.86123040e-03 2.86123040e-03 0.
      1.00143068e-02 1.43061520e-03 0. 1.43061520e-03 0. 2.86123040e-03
      1.43061520e-03 0. 4.29184549e-03 5.72246080e-03 0. 4.29184549e-03
      0. 1.43061520e-03 1.00143068e-02 1.43061520e-03 5.72246080e-03 0.
      1.43061520e-03 0. 2.86123040e-03 8.58369097e-03 2.86123040e-03 0.
      3.57653797e-02 4.29184549e-03 2.86123040e-03 4.29184549e-03 0.
      4.29184549e-03 5.72246080e-03 8.58369097e-03 1.00143068e-02
      2.86123040e-03 2.86123040e-03 1.43061520e-03 7.15307612e-03 0.
      5.72246080e-03 1.43061520e-03 2.86123040e-03 1.43061520e-03
      2.86123040e-03 2.86123040e-03 4.29184549e-03 1.43061520e-03 0.
      7.15307612e-03 6.58082962e-02 2.86123040e-03 1.00143068e-02
      1.43061520e-03 5.72246080e-03 4.29184549e-03 8.58369097e-03
      1.14449216e-02 1.43061520e-03 1.43061520e-03 1.14449216e-02
      1.43061520e-03 4.72103022e-02 5.72246080e-03 0. 2.86123040e-03 0.
      0. 1.43061520e-03 1.57367680e-02 2.86123040e-03 8.58369097e-03
      2.86123040e-03 0. 1.57367680e-02 5.72246080e-03 3.00429184e-02
      2.86123040e-03 4.29184549e-03 7.15307612e-03 2.86123040e-03
      4.29184549e-03 2.86123040e-03 0. 7.15307612e-03 1.43061522e-02 0.
      5.72246080e-03 5.72246080e-03 5.72246080e-03 0. 1.00143068e-02
      1.43061520e-03 5.72246080e-03 2.86123040e-03 0. 0. 1.00143068e-02
      2.00286135e-02 0. 4.29184549e-03 2.86123040e-03 2.86123040e-03
      1.43061520e-03 2.28898432e-02 1.43061520e-03 2.86123040e-03
      2.86123040e-03 0. 1.43061520e-03 0. 1.43061520e-03 0.
      2.86123040e-03 4.29184549e-03 2.86123040e-03 2.86123040e-03 0. 0.
      0. 2.86123040e-03 3.00429184e-02 4.29184549e-03 4.29184549e-03
      1.28755365e-02 1.43061520e-03 7.15307612e-03 7.15307612e-03
      2.86123040e-03 0. 5.72246080e-03 0. 7.15307612e-03 2.86123040e-03
      0. 7.15307612e-03 0. 1.71673819e-02</_>
    <_>
      9.78154596e-04 1.30420609e-03 9.12944227e-03 3.26051516e-03
      3.26051516e-03 4.23866976e-03 1.30420607e-02 4.23866976e-03
      2.60841218e-03 1.63025758e-03 5.86892758e-03 1.40202157e-02
      6.52103045e-04 1.63025758e-03 1.14118028e-02 2.28236057e-03
      1.63025758e-03 5.21682436e-03 3.91261838e-03 0. 7.49918493e-03
      2.93446379e-03 3.58656677e-03 6.19497895e-03 3.26051516e-03
      4.89077298e-03 6.84708217e-03 0. 1.30420609e-03 1.63025758e-03
      9.78154596e-04 1.95630919e-03 4.23866976e-03 4.56472114e-03
      6.84708217e-03 3.58656677e-03 1.95630919e-03 3.26051516e-03
      9.45549458e-03 2.60841218e-03 4.56472114e-03 1.95630919e-03
      3.58656677e-03 1.30420609e-03 1.30420609e-03 3.26051516e-03
      8.15128814e-03 4.23866976e-03 1.63025758e-03 3.58656677e-03
      1.95630919e-03 2.60841218e-03 1.63025758e-03 2.28236057e-03
      5.86892758e-03 4.89077298e-03 1.30420609e-03 3.58656677e-03
      3.81480269e-02 3.91261838e-03 4.23866976e-03 3.91261838e-03
      1.01075973e-02 3.26051522e-04 4.89077298e-03 2.93446379e-03
      1.63025758e-03 3.91261838e-03 1.63025758e-03 4.56472114e-03
      3.26051516e-03 2.93446379e-03 3.91261838e-03 4.23866976e-03
      1.07597001e-02 4.23866976e-03 3.26051522e-04 9.78154596e-04
      5.21682436e-03 2.93446379e-03 2.28236057e-03 6.52103045e-04
      1.10857515e-02 6.84708217e-03 5.86892758e-03 1.04336487e-02
      1.33681120e-02 4.23866976e-03 1.43462671e-02 2.15194002e-02
      5.86892758e-03 3.26051516e-03 2.28236057e-03 2.60841218e-03
      8.80339090e-03 6.84708217e-03 7.82523677e-03 4.56472114e-03
      3.26051516e-03 3.26051522e-04 5.86892758e-03 1.63025758e-03
      9.78154596e-04 5.86892758e-03 9.78154596e-04 9.12944227e-03
      4.89077298e-03 1.17378552e-02 3.58656677e-03 3.26051516e-03
      3.58656677e-03 4.23866976e-03 1.53244212e-02 1.95630919e-03
      1.95630919e-03 1.63025758e-03 6.52103033e-03 4.56472114e-03
      2.28236057e-03 3.58656677e-03 6.84708217e-03 6.19497895e-03
      6.19497895e-03 9.78154596e-04 8.47733952e-03 1.30420607e-02
      2.60841218e-03 2.28236057e-03 6.19497895e-03 2.60841218e-03
      3.26051522e-04 7.82523677e-03 3.58656677e-03 3.91261838e-03
      2.93446379e-03 6.52103045e-04 4.89077298e-03 3.58656677e-03
      4.56472114e-03 4.23866976e-03 6.52103033e-03 4.56472114e-03
      2.93446379e-03 5.86892758e-03 4.23866976e-03 6.19497895e-03
      1.95630919e-03 1.01075973e-02 1.95630919e-03 2.93446379e-03
      2.93446379e-03 4.23866976e-03 8.47733952e-03 1.53244212e-02
      3.26051516e-03 1.01075973e-02 4.56472114e-03 0. 9.78154596e-03
      6.52103033e-03 4.89077298e-03 1.30420607e-02 7.17313355e-03
      1.43462671e-02 2.28236057e-03 5.21682436e-03 5.86892758e-03
      5.21682436e-03 5.21682436e-03 3.91261838e-03 6.52103045e-04
      3.91261838e-03 2.60841218e-03 6.84708217e-03 6.84708217e-03
      5.86892758e-03 2.93446379e-03 4.23866976e-03 2.93446379e-03
      1.30420609e-03 1.30420609e-03 3.26051522e-04 1.82588845e-02
      1.07597001e-02 5.86892758e-03 3.26051516e-03 7.49918493e-03
      3.58656677e-03 7.17313355e-03 2.28236057e-03 9.45549458e-03
      2.28236057e-03 6.19497895e-03 0. 7.49918493e-03 1.30420609e-03
      6.84708217e-03 5.21682436e-03 6.52103045e-04 1.59765240e-02</_>
    <_>
      6.41436840e-04 3.20718414e-03 6.41436828e-03 1.92431058e-03
      3.20718414e-03 4.49005794e-03 6.41436828e-03 8.33867863e-03
      3.20718414e-03 5.13149472e-03 1.92431058e-03 1.15458630e-02 0.
      6.41436840e-04 8.98011588e-03 4.49005794e-03 3.20718414e-03
      3.84862116e-03 1.28287368e-03 0. 8.98011588e-03 1.92431058e-03
      4.49005794e-03 8.33867863e-03 1.92431058e-03 1.60359219e-02
      6.41436828e-03 0. 6.41436840e-04 1.28287368e-03 4.49005794e-03
      1.28287368e-03 1.28287368e-03 2.56574736e-03 7.69724231e-03
      2.56574736e-03 1.28287368e-03 3.20718414e-03 3.84862116e-03
      1.28287368e-03 7.69724231e-03 1.09044267e-02 3.20718414e-03 0.
      1.73187945e-02 5.77293150e-03 4.49005794e-03 5.13149472e-03
      2.56574736e-03 8.98011588e-03 6.41436840e-04 6.41436828e-03
      3.84862116e-03 1.28287368e-03 3.20718414e-03 1.92431058e-03
      7.69724231e-03 6.41436828e-03 4.23348323e-02 1.92431058e-03
      1.92431058e-03 1.92431058e-03 3.84862116e-03 0. 7.05580506e-03
      1.92431058e-03 1.92431058e-03 3.84862116e-03 0. 4.49005794e-03
      1.92431058e-03 3.20718414e-03 1.34701738e-02 1.60359219e-02
      3.20718414e-03 2.56574736e-03 6.41436840e-04 3.84862116e-03
      5.13149472e-03 3.20718414e-03 0. 0. 7.05580506e-03 1.28287368e-03
      1.92431058e-03 5.77293150e-03 7.05580506e-03 1.28287368e-03
      3.65618989e-02 1.53944846e-02 1.28287368e-03 6.41436828e-03 0.
      1.28287368e-03 3.20718414e-03 1.92431058e-03 4.49005794e-03
      3.84862116e-03 6.41436828e-03 1.28287368e-03 6.41436828e-03
      1.92431058e-03 5.13149472e-03 1.21873002e-02 0. 5.13149472e-03
      1.92431058e-03 1.09044267e-02 1.92431058e-03 4.49005794e-03
      6.41436828e-03 5.13149472e-03 6.41436828e-03 2.56574736e-03
      2.56574736e-03 2.56574736e-03 1.09044267e-02 0. 1.28287368e-03
      4.49005794e-03 2.56574736e-03 7.05580506e-03 3.84862116e-03
      1.28287368e-03 2.56574736e-03 7.05580506e-03 5.13149472e-03
      9.62155219e-03 3.20718414e-03 2.56574736e-03 0. 1.15458630e-02
      2.56574736e-03 3.84862116e-03 5.13149472e-03 0. 2.37331633e-02
      4.49005794e-03 2.88646575e-02 3.84862116e-03 3.20718414e-03
      5.77293150e-03 1.92431058e-03 5.77293150e-03 1.28287368e-03
      1.02629894e-02 1.28287368e-03 8.33867863e-03 2.56574736e-03
      1.92431058e-03 5.13149472e-03 3.84862116e-03 8.98011588e-03
      9.62155219e-03 4.49005794e-03 5.77293150e-03 5.77293150e-03 0.
      1.02629894e-02 8.98011588e-03 2.05259789e-02 7.05580506e-03
      9.62155219e-03 2.56574736e-03 3.84862116e-03 2.56574736e-03
      8.98011588e-03 1.09044267e-02 1.28287368e-03 5.13149472e-03 0.
      1.28287368e-03 1.28287368e-03 5.77293150e-03 0. 3.84862116e-03
      1.92431058e-03 3.84862116e-03 7.69724231e-03 5.77293150e-03
      2.56574736e-03 0. 1.98845416e-02 1.92431058e-03 3.20718414e-03
      3.20718414e-03 4.49005794e-03 2.56574736e-03 4.49005794e-03
      1.28287368e-03 5.13149472e-03 1.28287368e-03 7.69724231e-03
      6.41436840e-04 9.62155219e-03 2.56574736e-03 0. 1.92431058e-03 0.
      1.02629894e-02</_>
    <_>
      1.31406039e-02 6.57030195e-03 3.94218136e-03 2.62812083e-03
      1.05124833e-02 1.31406041e-03 3.94218136e-03 3.94218136e-03 0.
      1.31406041e-03 5.25624165e-03 9.19842254e-03 6.57030195e-03
      3.94218136e-03 6.57030195e-03 2.62812083e-03 1.31406041e-03
      5.25624165e-03 1.31406041e-03 1.31406041e-03 1.97109058e-02 0.
      3.94218136e-03 6.57030195e-03 3.94218136e-03 6.57030195e-03
      1.83968451e-02 0. 5.25624165e-03 1.31406041e-03 1.31406041e-03
      3.94218136e-03 1.31406041e-03 1.31406041e-03 1.31406041e-03
      5.25624165e-03 1.31406039e-02 2.62812083e-03 1.31406041e-03
      3.94218136e-03 2.62812083e-03 2.62812083e-03 9.19842254e-03
      1.05124833e-02 2.62812083e-03 2.62812083e-03 7.88436271e-03 0. 0.
      1.31406041e-03 6.57030195e-03 2.62812083e-03 5.25624165e-03
      3.94218136e-03 3.94218136e-03 2.62812083e-03 1.31406041e-03
      1.31406041e-03 1.31406039e-02 1.18265441e-02 3.94218136e-03
      2.62812083e-03 2.62812083e-03 0. 2.62812083e-03 6.57030195e-03
      1.31406041e-03 3.94218136e-03 2.62812083e-03 2.62812083e-03
      2.62812083e-03 9.19842254e-03 9.19842254e-03 9.19842254e-03
      1.44546647e-02 0. 0. 6.57030195e-03 9.19842254e-03 5.25624165e-03
      6.57030195e-03 1.31406041e-03 1.18265441e-02 1.44546647e-02
      2.62812083e-03 6.57030195e-03 1.57687254e-02 7.88436271e-03
      2.62812083e-03 2.75952686e-02 7.88436271e-03 1.31406041e-03 0.
      2.62812083e-03 3.94218136e-03 3.94218136e-03 6.57030195e-03
      2.62812083e-03 0. 0. 3.94218136e-03 7.88436271e-03 7.88436271e-03
      6.57030195e-03 2.62812083e-03 1.31406039e-02 1.31406041e-03
      7.88436271e-03 3.94218136e-03 5.25624165e-03 3.94218136e-03
      7.88436271e-03 1.05124833e-02 1.31406041e-03 9.19842254e-03
      5.25624165e-03 3.94218136e-03 5.25624165e-03 0. 3.94218136e-03
      2.62812083e-03 3.94218136e-03 5.25624165e-03 6.57030195e-03 0.
      1.31406041e-03 5.25624165e-03 1.31406041e-03 1.31406041e-03
      5.25624165e-03 1.31406041e-03 1.31406041e-03 1.31406041e-03
      3.94218136e-03 7.88436271e-03 1.18265441e-02 7.88436271e-03 0.
      2.10249666e-02 2.62812083e-03 6.57030195e-03 3.94218136e-03 0. 0.
      1.31406041e-03 7.88436271e-03 2.62812083e-03 9.19842254e-03
      2.62812083e-03 0. 9.19842254e-03 0. 2.62812083e-03 7.88436271e-03
      2.62812083e-03 1.31406041e-03 1.31406041e-03 0. 0. 5.25624165e-03
      2.62812083e-03 5.25624165e-03 2.10249666e-02 6.57030195e-03
      2.62812083e-03 2.62812083e-03 1.57687254e-02 0. 2.62812083e-03
      2.62812083e-03 0. 1.31406041e-03 5.25624165e-03 7.88436271e-03
      1.18265441e-02 5.25624165e-03 3.94218136e-03 3.94218136e-03
      6.57030195e-03 1.31406041e-03 3.94218136e-03 0. 2.62812078e-02 0.
      2.10249666e-02 2.62812083e-03 5.25624165e-03 1.44546647e-02
      3.94218136e-03 6.57030195e-03 3.94218136e-03 2.62812083e-03
      5.25624165e-03 0. 2.62812083e-03 2.62812083e-03 3.94218136e-03
      7.88436271e-03 0. 5.25624165e-03</_>
    <_>
      7.20461074e-04 2.88184430e-03 7.92507175e-03 2.16138316e-03
      8.64553265e-03 7.20461074e-04 1.51296826e-02 1.44092215e-03
      4.32276633e-03 3.60230543e-03 1.44092215e-03 9.36599355e-03 0.
      7.20461074e-04 7.20461085e-03 4.32276633e-03 5.76368859e-03
      3.60230543e-03 4.32276633e-03 0. 9.36599355e-03 1.44092215e-03
      1.44092215e-03 1.44092215e-03 7.20461085e-03 1.44092215e-03
      6.48414949e-03 0. 2.16138316e-03 1.15273772e-02 2.88184430e-03 0.
      5.76368859e-03 1.44092217e-02 7.20461085e-03 5.04322769e-03
      4.32276633e-03 1.44092215e-03 2.88184430e-03 7.20461074e-04
      5.04322769e-03 0. 2.16138316e-03 2.88184430e-03 2.16138316e-03
      7.20461074e-04 4.32276633e-03 1.44092215e-03 7.20461074e-04 0.
      2.16138316e-03 1.44092215e-03 1.44092215e-03 2.16138316e-03
      2.88184430e-03 2.88184430e-03 1.44092215e-03 7.20461085e-03
      8.64553265e-03 1.44092215e-03 6.48414949e-03 7.20461085e-03
      5.04322769e-03 0. 7.20461085e-03 1.44092215e-03 2.16138316e-03
      4.32276633e-03 0. 2.16138316e-03 2.88184430e-03 2.16138316e-03
      6.48414949e-03 9.36599355e-03 1.36887608e-02 4.32276633e-03
      7.20461074e-04 8.64553265e-03 3.60230543e-03 7.20461074e-04
      2.88184430e-03 7.20461074e-04 7.92507175e-03 4.32276633e-03
      3.60230543e-03 2.16138316e-03 7.92507175e-03 5.04322769e-03
      7.92507175e-03 1.22478381e-02 4.32276633e-03 7.20461074e-04 0.
      1.44092215e-03 1.44092215e-03 5.04322769e-03 5.04322769e-03
      2.88184430e-03 2.16138316e-03 0. 5.76368859e-03 0. 6.48414949e-03
      1.44092215e-03 0. 1.08069163e-02 2.88184430e-03 4.32276633e-03
      2.88184430e-03 4.32276633e-03 2.16138316e-03 4.32276633e-03
      1.36887608e-02 0. 1.08069163e-02 2.16138316e-03 4.32276633e-03
      2.88184430e-03 1.44092215e-03 6.48414949e-03 5.04322769e-03
      4.32276633e-03 1.08069163e-02 6.48414949e-03 2.52161380e-02
      3.38616706e-02 3.60230543e-03 0. 2.16138316e-03 2.16138316e-03 0.
      9.36599355e-03 5.04322769e-03 3.60230543e-03 2.88184430e-03
      7.20461074e-04 1.80115271e-02 7.20461074e-04 2.52161380e-02
      2.16138316e-03 2.88184430e-03 9.36599355e-03 1.22478381e-02
      2.88184430e-03 7.20461074e-04 7.20461074e-04 1.44092215e-03
      6.48414949e-03 7.20461085e-03 3.60230543e-03 7.20461074e-04
      3.60230543e-03 2.01729108e-02 2.88184430e-03 4.32276633e-03
      1.58501435e-02 2.16138316e-03 0. 2.88184430e-03 5.76368859e-03
      1.87319871e-02 1.29682990e-02 2.01729108e-02 1.08069163e-02
      1.44092215e-03 2.16138316e-03 1.00864554e-02 7.20461085e-03
      7.20461085e-03 1.44092215e-03 7.20461074e-04 2.16138316e-03
      3.60230543e-03 5.04322769e-03 2.88184430e-03 5.04322769e-03
      5.04322769e-03 4.32276633e-03 7.92507175e-03 0. 0. 1.44092215e-03
      7.20461085e-03 1.51296826e-02 1.08069163e-02 4.32276633e-03
      3.60230543e-03 2.88184430e-03 1.72910653e-02 6.48414949e-03
      1.51296826e-02 0. 2.88184430e-03 0. 1.22478381e-02 6.48414949e-03
      5.04322769e-03 7.92507175e-03 3.60230543e-03 5.04322769e-03</_>
    <_>
      0. 3.15457433e-02 6.30914839e-03 0. 6.30914839e-03 3.15457419e-03
      3.15457419e-03 6.30914839e-03 2.83911675e-02 0. 3.15457419e-03
      6.30914839e-03 0. 3.15457419e-03 3.15457419e-03 0. 0. 0.
      9.46372282e-03 0. 9.46372282e-03 0. 6.30914839e-03 3.78548913e-02
      0. 0. 9.46372282e-03 0. 0. 0. 1.57728717e-02 0. 0. 2.52365936e-02
      9.46372282e-03 9.46372282e-03 0. 0. 0. 3.15457419e-03
      6.30914839e-03 0. 0. 0. 3.47003154e-02 3.15457419e-03
      3.15457419e-03 6.30914839e-03 1.26182968e-02 0. 0. 0. 0.
      3.15457419e-03 6.30914839e-03 1.26182968e-02 0. 3.15457419e-03
      3.15457419e-03 3.15457419e-03 0. 3.15457419e-03 6.30914839e-03 0.
      6.30914839e-03 0. 6.30914839e-03 0. 0. 0. 1.26182968e-02 0.
      6.30914839e-03 0. 0. 0. 0. 9.46372282e-03 3.15457419e-03 0. 0. 0.
      0. 3.15457419e-03 0. 0. 3.15457419e-03 0. 2.52365936e-02
      6.30914839e-03 6.30914839e-03 0. 0. 0. 3.15457419e-03
      3.15457419e-03 9.46372282e-03 3.15457419e-03 6.30914839e-03 0.
      1.89274456e-02 3.15457419e-03 1.26182968e-02 0. 3.15457419e-03 0.
      0. 6.30914839e-03 0. 0. 0. 9.46372282e-03 0. 6.30914839e-03 0.
      6.30914839e-03 3.15457419e-03 0. 0. 0. 0. 7.25552067e-02 0. 0.
      3.15457419e-03 0. 6.30914839e-03 2.20820196e-02 0. 0. 0.
      3.15457419e-03 9.46372282e-03 6.30914839e-03 9.46372282e-03 0.
      1.89274456e-02 0. 1.57728717e-02 0. 0. 0. 3.15457419e-03
      3.15457419e-03 6.30914839e-03 1.89274456e-02 3.15457419e-03
      6.30914839e-03 0. 1.57728717e-02 3.15457419e-03 0. 6.30914839e-03
      3.15457419e-03 1.26182968e-02 0. 3.47003154e-02 0. 9.46372282e-03
      6.30914839e-03 0. 0. 0. 0. 0. 0. 6.30914839e-03 0. 0.
      2.20820196e-02 3.15457419e-03 3.15457419e-03 0. 3.15457419e-03 0.
      6.30914839e-03 0. 6.30914839e-03 0. 2.20820196e-02 3.15457419e-03
      0. 6.30914839e-03 4.10094634e-02 0. 3.15457419e-03 9.46372282e-03
      3.15457419e-03 6.30914839e-03 6.30914839e-03 3.15457419e-03 0. 0.
      0. 1.26182968e-02 3.15457419e-03 0. 0. 0. 3.15457419e-03</_>
    <_>
      0. 1.54494382e-02 2.80898879e-03 4.21348307e-03 1.54494382e-02
      7.02247210e-03 2.80898879e-03 2.66853943e-02 1.40449440e-03
      8.42696615e-03 1.26404492e-02 9.83146112e-03 0. 1.40449440e-03
      2.80898879e-03 2.80898879e-03 1.40449440e-03 1.40449440e-03
      2.80898879e-03 1.40449440e-03 7.02247210e-03 0. 1.40449440e-03
      4.21348307e-03 9.83146112e-03 4.21348307e-03 2.80898879e-03 0.
      4.21348307e-03 1.40449440e-03 1.40449440e-03 0. 0. 1.40449440e-03
      1.40449442e-02 1.40449440e-03 1.40449440e-03 2.80898879e-03
      5.61797759e-03 1.40449440e-03 2.80898879e-03 0. 0. 1.40449440e-03
      1.40449440e-03 2.80898879e-03 1.68539323e-02 5.61797759e-03
      2.80898879e-03 1.12359552e-02 1.40449440e-03 1.40449440e-03
      5.61797759e-03 2.80898879e-03 9.83146112e-03 0. 0. 0.
      2.66853943e-02 0. 1.40449440e-03 1.40449440e-03 9.83146112e-03 0.
      4.21348307e-03 2.80898879e-03 0. 5.61797759e-03 0. 2.80898879e-03
      4.21348307e-03 1.40449440e-03 1.26404492e-02 8.42696615e-03
      5.61797759e-03 1.96629222e-02 0. 1.40449440e-03 2.80898879e-03
      2.80898879e-03 1.40449440e-03 0. 1.40449440e-03 4.21348307e-03 0.
      4.21348307e-03 5.61797759e-03 0. 0. 5.61797759e-03 8.42696615e-03
      4.21348307e-03 0. 5.61797759e-03 7.02247210e-03 2.80898879e-03
      1.96629222e-02 2.38764044e-02 4.21348307e-03 0. 1.54494382e-02
      2.80898879e-03 4.21348307e-03 4.21348307e-03 4.21348307e-03
      1.40449440e-03 4.21348307e-03 1.40449440e-03 0. 1.40449440e-03
      4.21348307e-03 2.80898879e-03 9.83146112e-03 5.61797759e-03 0.
      1.26404492e-02 1.82584263e-02 4.21348307e-03 4.21348307e-03
      5.61797759e-03 5.61797759e-03 0. 9.83146112e-03 0. 0.
      1.40449440e-03 0. 2.80898879e-03 1.40449440e-03 0. 0.
      1.40449442e-02 0. 7.02247210e-03 0. 0. 8.42696615e-03
      5.61797759e-03 7.30337054e-02 2.80898879e-03 2.80898879e-03
      1.40449442e-02 0. 2.80898879e-03 4.21348307e-03 2.80898879e-03
      2.80898879e-03 9.83146112e-03 0. 2.80898879e-03 1.40449440e-03
      2.80898879e-03 4.21348307e-03 1.82584263e-02 2.80898879e-03
      8.42696615e-03 1.40449440e-03 0. 2.24719103e-02 5.61797759e-03
      1.54494382e-02 2.80898879e-03 1.54494382e-02 5.61797759e-03
      2.80898879e-03 4.21348307e-03 2.80898879e-03 1.12359552e-02
      1.12359552e-02 5.61797759e-03 0. 1.40449440e-03 0. 8.42696615e-03
      0. 5.61797759e-03 0. 1.40449440e-03 4.21348307e-03 0.
      1.26404492e-02 0. 5.61797759e-03 0. 9.83146112e-03 5.61797759e-03
      7.02247210e-03 4.21348307e-03 1.40449440e-03 2.80898879e-03
      2.80898879e-03 1.40449440e-03 4.21348307e-03 0. 5.61797759e-03
      1.40449440e-03 1.40449440e-03 0. 0. 2.38764044e-02</_>
    <_>
      1.09677427e-02 9.03225876e-03 5.16129052e-03 4.51612938e-03
      1.29032263e-03 2.58064526e-03 1.22580649e-02 1.29032263e-03
      2.58064526e-03 0. 3.22580663e-03 1.03225810e-02 3.22580663e-03
      2.58064526e-03 5.16129052e-03 2.58064526e-03 2.58064526e-03
      1.09677427e-02 2.58064526e-03 4.51612938e-03 1.54838711e-02
      1.74193550e-02 5.80645166e-03 5.16129052e-03 1.61290336e-02
      1.48387104e-02 2.58064526e-03 9.03225876e-03 1.29032263e-03
      5.80645166e-03 0. 2.58064526e-03 1.93548389e-03 1.29032265e-02
      9.03225876e-03 1.29032263e-03 3.22580663e-03 0. 9.03225876e-03
      5.80645166e-03 8.38709716e-03 5.16129052e-03 0. 3.87096778e-03
      1.93548389e-03 4.51612938e-03 3.22580663e-03 1.03225810e-02
      1.29032263e-03 0. 9.03225876e-03 3.87096778e-03 3.22580663e-03
      2.58064526e-03 4.51612938e-03 2.58064526e-03 1.29032263e-03
      2.58064526e-03 4.51612938e-03 1.93548389e-03 1.29032263e-03
      6.45161315e-04 3.22580663e-03 1.61290336e-02 5.16129052e-03 0.
      1.93548389e-03 6.45161315e-04 4.51612938e-03 9.67741944e-03
      6.45161315e-04 1.29032263e-03 5.16129052e-03 3.22580663e-03
      9.03225876e-03 6.45161315e-04 6.45161327e-03 5.80645166e-03
      5.16129052e-03 1.29032263e-03 1.93548389e-03 5.16129052e-03
      6.45161315e-04 7.09677441e-03 8.38709716e-03 5.80645166e-03
      3.87096778e-03 6.45161315e-04 1.48387104e-02 8.38709716e-03
      3.22580663e-03 3.87096778e-03 0. 3.22580663e-03 5.16129052e-03
      3.87096778e-03 5.80645166e-03 8.38709716e-03 1.93548389e-03
      1.93548389e-02 5.16129052e-03 1.29032265e-02 1.93548389e-03
      7.74193555e-03 4.51612938e-03 4.51612938e-03 3.22580663e-03
      3.22580663e-03 1.93548389e-03 0. 3.22580663e-03 3.16129029e-02
      1.35483872e-02 1.29032263e-03 8.38709716e-03 2.58064526e-03
      5.16129052e-03 5.16129052e-03 1.29032263e-03 4.51612938e-03
      3.87096778e-03 0. 3.87096778e-03 5.80645166e-03 1.93548389e-02
      5.16129052e-03 7.74193555e-03 2.58064526e-03 1.93548389e-03
      1.09677427e-02 5.16129052e-03 3.22580663e-03 3.87096778e-03
      2.58064526e-03 1.09677427e-02 3.87096778e-03 1.93548389e-03
      1.29032263e-03 5.16129052e-03 3.22580663e-03 1.93548389e-03
      1.29032263e-03 1.93548389e-03 5.16129052e-03 1.93548389e-03
      5.16129052e-03 1.29032263e-03 6.45161327e-03 3.87096778e-03
      6.45161315e-04 3.87096778e-03 9.03225876e-03 8.38709716e-03
      5.80645166e-03 2.58064526e-03 3.22580663e-03 2.58064526e-03
      4.51612938e-03 2.58064526e-03 1.29032263e-03 5.80645166e-03
      1.93548389e-03 3.22580663e-03 6.45161327e-03 3.22580663e-03
      1.93548389e-03 2.64516138e-02 7.09677441e-03 1.61290336e-02
      2.58064526e-03 3.87096778e-03 1.29032263e-03 1.03225810e-02
      3.22580663e-03 2.58064526e-03 2.58064526e-03 2.58064526e-03
      2.58064526e-03 1.29032263e-03 0. 1.29032263e-03 2.58064526e-03
      4.51612938e-03 3.87096778e-03 1.93548389e-03 1.29032263e-03
      7.09677441e-03 1.93548389e-03 3.22580663e-03 3.87096778e-03
      1.16129033e-02 2.58064526e-03 3.22580663e-03 9.67741944e-03
      1.41935488e-02 2.58064526e-03 1.29032263e-03 1.93548389e-03
      8.38709716e-03 4.51612938e-03</_>
    <_>
      1.94331985e-02 2.42914981e-03 6.47773268e-03 1.61943317e-03 0.
      1.61943317e-03 4.04858310e-03 4.85829962e-03 0. 8.09716585e-04
      4.04858310e-03 1.61943324e-02 1.05263153e-02 3.23886634e-03
      4.85829962e-03 3.23886634e-03 4.04858310e-03 1.61943317e-03
      3.23886634e-03 2.10526306e-02 2.99595129e-02 4.12955470e-02
      3.23886634e-03 1.61943317e-03 1.86234806e-02 4.12955470e-02
      8.09716585e-04 0. 3.23886634e-03 7.28744920e-03 0. 0.
      8.09716585e-04 8.09716585e-04 0. 0. 0. 1.61943317e-03
      3.15789469e-02 4.85829962e-03 8.09716585e-04 8.09716585e-04
      2.42914981e-03 5.66801615e-03 8.09716585e-04 2.42914981e-03
      4.85829962e-03 4.04858310e-03 0. 1.61943317e-03 1.78137645e-02
      2.42914981e-03 1.61943317e-03 1.61943317e-03 3.23886634e-03
      8.09716585e-04 8.09716585e-04 2.42914981e-03 1.61943317e-03
      3.23886634e-03 2.42914981e-03 2.42914981e-03 0. 4.04858310e-03
      2.42914981e-03 4.85829962e-03 2.42914981e-03 2.42914981e-03
      8.09716585e-04 5.66801615e-03 0. 8.09716585e-04 3.23886634e-03
      6.47773268e-03 0. 3.23886634e-03 1.05263153e-02 4.04858310e-03
      5.66801615e-03 2.42914981e-03 1.61943317e-03 7.28744920e-03 0. 0.
      5.66801615e-03 1.78137645e-02 3.23886634e-03 7.28744920e-03
      1.61943317e-03 3.23886634e-03 1.61943317e-03 4.04858310e-03 0. 0.
      4.04858310e-03 4.04858310e-03 4.85829962e-03 2.42914981e-03
      1.61943317e-03 9.71659925e-03 5.66801615e-03 1.78137645e-02
      2.42914981e-03 3.23886634e-03 1.61943317e-03 2.42914981e-03
      2.42914981e-03 3.23886634e-03 1.61943317e-03 2.42914981e-03
      5.66801615e-03 8.09716620e-03 2.83400808e-02 2.42914981e-03
      1.05263153e-02 2.42914981e-03 4.04858310e-03 7.28744920e-03
      3.23886634e-03 0. 4.85829962e-03 8.09716585e-04 6.47773268e-03
      7.28744920e-03 1.37651823e-02 1.61943317e-03 1.70040485e-02
      8.09716585e-04 3.23886634e-03 5.66801615e-03 1.61943317e-03
      1.61943317e-03 1.61943317e-03 2.42914981e-03 1.37651823e-02
      8.90688226e-03 8.09716585e-04 1.61943317e-03 2.42914981e-03
      5.66801615e-03 5.66801615e-03 8.09716585e-04 2.42914981e-03
      3.23886634e-03 8.09716585e-04 8.90688226e-03 4.04858310e-03
      4.85829962e-03 6.47773268e-03 0. 4.04858310e-03 2.42914981e-03
      1.13360323e-02 5.66801615e-03 0. 2.42914981e-03 0. 8.09716585e-04
      7.28744920e-03 3.23886634e-03 0. 2.42914981e-03 8.09716585e-04
      1.61943317e-03 8.09716585e-04 1.61943317e-03 2.51012146e-02
      4.04858310e-03 1.78137645e-02 2.42914981e-03 1.45748984e-02
      1.61943317e-03 9.71659925e-03 1.61943317e-03 8.09716585e-04
      7.28744920e-03 2.42914981e-03 0. 0. 2.42914981e-03 2.42914981e-03
      1.13360323e-02 8.09716585e-04 8.09716585e-04 8.09716585e-04
      8.09716585e-04 4.85829962e-03 1.61943317e-03 4.85829962e-03
      1.61943317e-03 1.05263153e-02 0. 1.29554654e-02 7.28744920e-03
      4.85829962e-03 6.47773268e-03 8.09716585e-04 0. 2.51012146e-02
      9.71659925e-03</_>
    <_>
      1.24362241e-02 9.56632663e-03 4.14540805e-03 1.59438769e-03
      2.86989799e-03 3.50765302e-03 3.82653065e-03 2.55102036e-03
      1.91326533e-03 1.59438769e-03 1.27551018e-03 7.01530604e-03
      9.56632663e-03 6.05867337e-03 3.18877539e-03 1.59438769e-03
      2.86989799e-03 4.14540805e-03 1.91326533e-03 1.24362241e-02
      1.46683669e-02 9.88520402e-03 5.42091811e-03 4.78316331e-03
      4.14540805e-03 3.38010192e-02 3.18877539e-03 6.69642864e-03
      2.55102036e-03 5.73979598e-03 0. 4.14540805e-03 6.05867337e-03
      6.69642864e-03 6.05867337e-03 2.55102036e-03 3.82653065e-03
      1.91326533e-03 7.65306130e-03 5.10204071e-03 4.78316331e-03
      3.50765302e-03 3.82653065e-03 3.18877539e-03 1.91326533e-03
      3.50765302e-03 6.69642864e-03 5.10204071e-03 1.59438769e-03
      1.27551018e-03 9.24744923e-03 5.42091811e-03 4.46428545e-03
      2.23214272e-03 5.42091811e-03 9.56632663e-04 1.27551018e-03
      4.14540805e-03 4.46428545e-03 2.55102036e-03 7.33418344e-03
      2.55102036e-03 6.37755089e-04 1.75382644e-02 6.05867337e-03
      3.50765302e-03 1.91326533e-03 1.27551018e-03 2.23214272e-03
      4.78316331e-03 2.23214272e-03 3.18877539e-03 5.42091811e-03
      3.18877539e-03 1.59438769e-03 1.91326533e-03 7.01530604e-03
      5.10204071e-03 7.01530604e-03 4.14540805e-03 5.10204071e-03
      4.46428545e-03 2.23214272e-03 1.08418362e-02 2.86989799e-03
      8.92857090e-03 4.78316331e-03 8.92857090e-03 5.73979598e-03
      7.97193870e-03 7.97193870e-03 1.59438769e-03 6.37755089e-04
      5.42091811e-03 1.59438769e-03 6.69642864e-03 4.14540805e-03
      4.46428545e-03 3.18877539e-03 7.01530604e-03 5.42091811e-03
      7.33418344e-03 1.27551018e-03 5.10204071e-03 9.24744923e-03
      5.42091811e-03 1.59438769e-03 6.05867337e-03 3.82653065e-03
      1.59438769e-03 3.50765302e-03 4.46428545e-03 3.02933659e-02
      1.91326533e-03 4.46428545e-03 4.14540805e-03 2.55102036e-03
      5.42091811e-03 4.46428545e-03 1.91326533e-03 4.78316331e-03
      4.14540805e-03 4.46428545e-03 4.14540805e-03 2.42346935e-02
      1.02040814e-02 9.24744923e-03 2.23214272e-03 6.05867337e-03
      9.56632663e-04 3.82653065e-03 3.82653065e-03 3.50765302e-03
      6.05867337e-03 6.05867337e-03 3.50765302e-03 2.55102036e-03
      3.18877539e-03 1.27551018e-03 6.37755077e-03 5.42091811e-03
      2.23214272e-03 7.97193870e-03 2.23214272e-03 3.82653065e-03
      7.33418344e-03 3.82653065e-03 6.05867337e-03 6.37755077e-03
      9.56632663e-04 1.59438769e-03 8.29081610e-03 8.29081610e-03
      4.46428545e-03 1.91326533e-03 3.50765302e-03 2.23214272e-03
      8.92857090e-03 2.55102036e-03 1.59438769e-03 1.27551018e-03
      4.78316331e-03 2.86989799e-03 4.14540805e-03 4.46428545e-03
      8.60969350e-03 7.97193870e-03 8.29081610e-03 1.05229588e-02
      3.18877539e-03 3.18877544e-04 3.18877539e-03 6.37755077e-03
      3.82653065e-03 9.24744923e-03 2.86989799e-03 4.14540805e-03
      2.23214272e-03 1.27551018e-03 3.18877544e-04 3.82653065e-03
      6.37755077e-03 7.33418344e-03 3.82653065e-03 3.82653065e-03
      2.55102036e-03 7.33418344e-03 3.18877539e-03 7.65306130e-03
      3.50765302e-03 1.14795920e-02 1.59438769e-03 5.42091811e-03
      7.33418344e-03 5.42091811e-03 6.37755077e-03 1.27551018e-03
      1.27551018e-03 7.01530604e-03 5.42091811e-03</_>
    <_>
      1.31147541e-03 0. 5.90163935e-03 4.59016394e-03 2.62295082e-03
      1.96721312e-03 1.50819672e-02 8.52459017e-03 1.31147541e-03
      8.52459017e-03 5.90163935e-03 1.11475410e-02 0. 1.31147541e-03
      5.24590164e-03 3.27868853e-03 0. 3.27868853e-03 2.62295082e-03 0.
      3.93442623e-03 6.55737706e-03 2.62295082e-03 5.90163935e-03
      1.37704918e-02 3.93442623e-03 5.24590164e-03 0. 4.59016394e-03
      3.93442623e-03 0. 1.96721312e-03 7.86885247e-03 3.93442623e-03
      1.57377049e-02 2.62295082e-03 1.31147541e-03 5.24590164e-03
      5.24590164e-03 3.93442623e-03 9.83606558e-03 1.96721312e-03
      6.55737706e-04 0. 3.27868853e-03 4.59016394e-03 9.83606558e-03
      1.31147541e-03 1.96721312e-03 2.62295082e-03 8.52459017e-03
      1.11475410e-02 6.55737706e-04 1.96721312e-03 8.52459017e-03
      6.55737706e-04 2.62295082e-03 1.50819672e-02 4.91803288e-02
      1.96721312e-03 3.27868853e-03 6.55737706e-04 5.90163935e-03
      1.31147541e-03 4.59016394e-03 1.31147541e-03 0. 3.93442623e-03
      1.96721312e-03 1.31147541e-03 1.31147541e-03 1.96721312e-03
      6.55737706e-03 3.27868853e-03 1.11475410e-02 9.83606558e-03
      2.62295082e-03 6.55737706e-04 5.24590164e-03 2.62295082e-03
      1.31147541e-03 3.27868853e-03 7.86885247e-03 9.83606558e-03
      6.55737706e-04 7.21311476e-03 1.57377049e-02 2.62295082e-03
      4.59016394e-03 2.09836066e-02 6.55737706e-03 3.27868853e-03
      1.63934417e-02 1.96721312e-03 2.62295082e-03 5.24590164e-03
      5.90163935e-03 3.27868853e-03 1.31147541e-03 0. 1.63934417e-02
      9.18032788e-03 5.24590164e-03 3.27868853e-03 1.31147541e-03
      7.21311476e-03 3.93442623e-03 7.21311476e-03 1.96721312e-03
      5.24590164e-03 1.31147541e-03 5.90163935e-03 1.57377049e-02
      1.96721312e-03 0. 3.93442623e-03 3.93442623e-03 1.31147541e-03 0.
      1.96721312e-03 2.62295082e-03 1.96721312e-03 7.21311476e-03
      2.62295082e-03 6.55737706e-04 9.18032788e-03 1.31147541e-03
      5.24590164e-03 7.21311476e-03 6.55737706e-04 6.55737706e-04
      7.21311476e-03 2.62295082e-03 9.83606558e-03 1.31147541e-03
      1.96721312e-03 1.57377049e-02 1.31147541e-03 1.31147541e-02
      1.31147541e-03 3.93442623e-03 3.27868853e-03 3.27868853e-03
      3.93442623e-03 6.55737706e-03 3.27868853e-03 3.93442623e-03
      4.59016394e-03 6.55737706e-03 4.59016394e-03 6.55737706e-04
      1.31147541e-03 1.31147541e-03 1.24590164e-02 1.31147541e-03
      3.27868853e-03 0. 6.55737706e-04 5.24590164e-03 3.27868853e-03
      1.11475410e-02 1.18032787e-02 8.52459017e-03 5.90163935e-03
      1.31147541e-03 1.31147541e-03 1.24590164e-02 4.59016394e-03
      1.37704918e-02 5.24590164e-03 6.55737706e-04 1.31147541e-03
      6.55737706e-04 1.50819672e-02 3.93442623e-03 2.62295082e-03
      3.27868853e-03 3.93442623e-03 6.55737706e-03 0. 4.59016394e-03
      1.31147541e-03 1.57377049e-02 1.96721312e-03 5.24590164e-03
      2.62295082e-03 7.86885247e-03 2.62295082e-03 5.24590164e-03
      2.62295082e-03 8.52459017e-03 0. 6.55737706e-03 1.31147541e-03
      1.96721312e-02 1.18032787e-02 3.27868853e-03 1.31147541e-03
      1.96721312e-03 9.83606558e-03</_>
    <_>
      0. 1.64473685e-03 4.11184225e-03 3.28947371e-03 4.93421033e-03
      2.46710517e-03 4.93421033e-03 5.75657887e-03 2.46710517e-03
      1.64473685e-03 8.22368427e-04 1.15131577e-02 0. 8.22368427e-04
      6.57894742e-03 2.46710517e-03 3.28947371e-03 7.40131596e-03
      4.11184225e-03 0. 2.46710517e-03 1.06907897e-02 2.46710517e-03
      7.40131596e-03 2.46710517e-03 3.28947371e-03 6.57894742e-03 0.
      8.22368427e-04 9.04605258e-03 1.64473685e-03 3.28947371e-03
      6.57894742e-03 8.22368427e-04 9.86842066e-03 4.93421033e-03
      1.64473685e-03 1.64473685e-03 7.40131596e-03 4.93421033e-03
      4.11184225e-03 4.11184225e-03 1.64473685e-03 1.64473685e-03
      3.28947371e-03 1.64473685e-03 1.06907897e-02 3.28947371e-03 0.
      6.57894742e-03 3.28947371e-03 5.75657887e-03 2.46710517e-03
      4.11184225e-03 4.93421033e-03 3.28947371e-03 2.46710517e-03
      2.71381587e-02 4.35855277e-02 2.46710517e-03 1.64473685e-03
      3.28947371e-03 2.46710517e-03 1.64473685e-03 5.75657887e-03
      1.64473685e-03 2.46710517e-03 4.11184225e-03 2.46710517e-03
      4.11184225e-03 8.22368427e-04 2.46710517e-03 1.06907897e-02
      1.64473685e-03 4.93421033e-03 4.93421033e-03 1.64473685e-03
      3.28947371e-03 4.93421033e-03 7.40131596e-03 1.64473685e-03
      3.28947371e-03 9.86842066e-03 9.86842066e-03 2.46710517e-03
      6.57894742e-03 1.39802629e-02 8.22368427e-04 6.57894742e-03
      2.63157897e-02 6.57894742e-03 2.46710517e-03 1.15131577e-02
      8.22368427e-04 1.64473685e-03 1.64473685e-03 5.75657887e-03
      2.46710517e-03 4.11184225e-03 0. 1.31578948e-02 9.04605258e-03
      8.22368450e-03 8.22368450e-03 1.64473685e-03 3.28947371e-03
      8.22368427e-04 9.86842066e-03 8.22368427e-04 3.28947371e-03
      6.57894742e-03 8.22368450e-03 2.05592103e-02 4.93421033e-03
      8.22368427e-04 4.93421033e-03 1.39802629e-02 1.64473685e-03 0.
      1.64473685e-03 1.64473685e-03 5.75657887e-03 4.93421033e-03
      8.22368427e-04 0. 9.86842066e-03 1.64473685e-03 4.11184225e-03
      4.93421033e-03 0. 0. 8.22368450e-03 0. 9.04605258e-03
      2.46710517e-03 2.46710517e-03 8.22368450e-03 2.46710517e-03
      9.86842066e-03 1.64473685e-03 3.28947371e-03 8.22368450e-03
      1.64473685e-03 1.64473685e-03 4.11184225e-03 4.11184225e-03
      1.64473685e-03 4.11184225e-03 6.57894742e-03 6.57894742e-03
      1.64473685e-03 8.22368427e-04 4.93421033e-03 1.23355268e-02
      4.11184225e-03 1.23355268e-02 2.46710517e-03 0. 1.56250000e-02
      1.64473685e-03 1.64473690e-02 4.93421033e-03 4.93421033e-03
      5.75657887e-03 4.11184225e-03 1.64473685e-03 4.11184225e-03
      4.11184225e-03 4.93421033e-03 5.75657887e-03 0. 2.46710517e-03 0.
      9.04605258e-03 2.46710517e-03 4.93421033e-03 1.64473685e-03
      4.11184225e-03 4.11184225e-03 2.46710517e-03 6.57894742e-03
      8.22368427e-04 1.97368413e-02 8.22368427e-04 8.22368450e-03
      3.28947371e-03 4.93421033e-03 4.11184225e-03 7.40131596e-03
      4.93421033e-03 3.28947371e-03 4.11184225e-03 6.57894742e-03 0.
      2.54934207e-02 1.06907897e-02 3.28947371e-03 3.28947371e-03
      8.22368427e-04 1.23355268e-02</_>
    <_>
      0. 9.11577023e-04 2.73473095e-03 3.64630809e-03 1.18505014e-02
      1.82315405e-03 1.00273471e-02 1.18505014e-02 3.64630809e-03
      1.18505014e-02 1.82315405e-03 8.20419285e-03 0. 0. 1.09389238e-02
      2.73473095e-03 9.11577023e-04 5.46946190e-03 2.73473095e-03 0.
      1.09389238e-02 0. 2.73473095e-03 5.46946190e-03 1.00273471e-02
      9.11577023e-04 7.29261618e-03 0. 4.55788523e-03 3.64630809e-03
      9.11577023e-04 1.82315405e-03 3.64630809e-03 4.55788523e-03
      9.11577046e-03 3.64630809e-03 5.46946190e-03 1.82315405e-03
      3.64630809e-03 1.82315405e-03 7.29261618e-03 0. 1.82315405e-03
      4.55788523e-03 1.82315405e-03 9.11577023e-04 4.55788523e-03 0.
      1.82315405e-03 1.09389238e-02 6.38103904e-03 1.82315405e-03
      4.55788523e-03 1.82315405e-03 5.46946190e-03 2.73473095e-03
      1.82315405e-03 5.46946190e-03 3.55515033e-02 1.82315405e-03
      9.11577023e-04 4.55788523e-03 2.73473095e-03 0. 6.38103904e-03 0.
      0. 2.73473095e-03 3.64630809e-03 6.38103904e-03 1.82315405e-03
      8.20419285e-03 1.36736557e-02 1.54968090e-02 5.46946190e-03
      6.38103904e-03 9.11577023e-04 0. 2.73473095e-03 9.11577023e-04
      1.82315405e-03 9.11577023e-04 9.11577046e-03 1.27620781e-02
      2.73473095e-03 7.29261618e-03 1.09389238e-02 4.55788523e-03
      2.09662709e-02 1.82315409e-02 4.55788523e-03 1.00273471e-02
      2.00546943e-02 0. 9.11577023e-04 1.82315405e-03 7.29261618e-03
      6.38103904e-03 5.46946190e-03 0. 1.00273471e-02 1.82315405e-03
      4.55788523e-03 1.09389238e-02 0. 2.73473095e-03 1.82315405e-03
      7.29261618e-03 3.64630809e-03 1.82315405e-03 9.11577023e-04
      3.64630809e-03 2.55241562e-02 1.82315405e-03 1.82315405e-03
      4.55788523e-03 1.45852324e-02 2.73473095e-03 1.82315405e-03
      3.64630809e-03 1.82315405e-03 2.73473095e-03 4.55788523e-03
      9.11577023e-04 1.82315405e-03 0. 2.73473095e-03 2.73473095e-03
      3.64630809e-03 9.11577023e-04 0. 8.20419285e-03 4.55788523e-03
      2.73473095e-03 2.73473095e-03 9.11577023e-04 1.36736557e-02
      4.55788523e-03 2.09662709e-02 0. 5.46946190e-03 6.38103904e-03
      5.46946190e-03 4.55788523e-03 5.46946190e-03 2.73473095e-03
      2.73473095e-03 1.45852324e-02 0. 1.82315405e-03 9.11577023e-04
      2.73473095e-03 5.46946190e-03 1.64083857e-02 3.64630809e-03
      2.73473095e-03 1.82315405e-03 0. 2.73473095e-03 7.29261618e-03
      1.00273471e-02 3.64630809e-03 6.38103904e-03 3.64630809e-03
      9.11577023e-04 9.11577023e-04 1.00273471e-02 9.11577023e-04
      9.11577046e-03 3.64630809e-03 0. 1.82315405e-03 9.11577023e-04
      1.27620781e-02 5.46946190e-03 1.00273471e-02 7.29261618e-03
      6.38103904e-03 4.55788523e-03 0. 1.82315405e-03 0. 2.73473114e-02
      1.18505014e-02 7.29261618e-03 5.46946190e-03 5.46946190e-03
      3.64630809e-03 4.55788523e-03 5.46946190e-03 5.46946190e-03
      2.73473095e-03 9.11577046e-03 0. 4.55788523e-03 2.73473095e-03
      2.73473095e-03 3.64630809e-03 1.82315405e-03 1.36736557e-02</_>
    <_>
      1.19474309e-03 1.07526882e-02 1.19474307e-02 3.58422939e-03
      8.36320128e-03 1.19474309e-03 2.38948618e-03 3.58422939e-03
      3.58422939e-03 7.16845877e-03 3.58422939e-03 5.97371534e-03 0.
      1.19474309e-03 4.77897236e-03 3.58422939e-03 5.97371534e-03
      1.07526882e-02 3.58422939e-03 0. 1.07526882e-02 3.58422939e-03
      8.36320128e-03 1.07526882e-02 1.55316601e-02 4.77897236e-03
      1.19474307e-02 0. 1.19474309e-03 2.38948618e-03 7.16845877e-03 0.
      9.55794472e-03 7.16845877e-03 5.97371534e-03 2.38948618e-03
      2.38948618e-03 5.97371534e-03 1.43369175e-02 0. 7.16845877e-03
      5.97371534e-03 7.16845877e-03 1.19474309e-03 4.77897236e-03
      1.19474309e-03 1.19474307e-02 4.77897236e-03 1.19474309e-03
      1.19474307e-02 4.77897236e-03 2.38948618e-03 3.58422939e-03
      1.19474309e-03 8.36320128e-03 1.19474309e-03 3.58422939e-03
      2.38948618e-03 3.58422939e-03 2.38948618e-03 4.77897236e-03
      1.07526882e-02 7.16845877e-03 0. 5.97371534e-03 4.77897236e-03
      5.97371534e-03 5.97371534e-03 1.19474309e-03 3.58422939e-03
      1.19474309e-03 1.19474309e-03 2.38948613e-02 1.19474309e-03
      5.97371534e-03 5.97371534e-03 1.19474309e-03 7.16845877e-03
      1.55316601e-02 1.19474309e-03 1.19474309e-03 0. 5.97371534e-03
      9.55794472e-03 2.38948618e-03 1.55316601e-02 5.97371534e-03 0.
      5.97371534e-03 2.38948618e-03 9.55794472e-03 3.58422939e-03 0.
      7.16845877e-03 3.58422939e-03 3.58422939e-03 1.07526882e-02
      1.19474309e-03 2.38948618e-03 2.38948618e-03 1.19474309e-03 0.
      3.58422939e-03 5.97371534e-03 1.19474309e-03 2.38948618e-03
      3.58422939e-03 1.19474307e-02 2.38948618e-03 1.43369175e-02
      2.38948618e-03 2.38948618e-03 0. 4.77897236e-03 2.38948618e-03
      2.38948618e-03 1.67264026e-02 4.77897236e-03 1.19474309e-03
      5.97371534e-03 1.19474309e-03 3.58422939e-03 4.77897236e-03
      4.77897236e-03 1.79211460e-02 2.38948618e-03 1.07526882e-02
      7.16845877e-03 3.58422939e-03 3.58422939e-03 0. 4.77897236e-03
      4.77897236e-03 4.77897236e-03 1.19474307e-02 0. 1.07526882e-02
      7.16845877e-03 1.19474307e-02 4.77897236e-03 1.31421741e-02
      3.58422939e-03 1.19474309e-03 2.38948618e-03 3.58422939e-03
      1.19474307e-02 2.38948618e-03 8.36320128e-03 2.38948618e-03
      2.38948618e-03 1.19474309e-03 5.97371534e-03 1.19474309e-03
      8.36320128e-03 0. 4.77897236e-03 2.38948618e-03 0. 1.19474309e-03
      3.58422939e-03 8.36320128e-03 0. 1.07526882e-02 5.97371534e-03
      2.38948618e-03 4.77897236e-03 1.55316601e-02 9.55794472e-03
      5.97371534e-03 2.38948618e-03 0. 3.58422939e-03 2.38948618e-03
      5.97371534e-03 0. 3.58422939e-03 5.97371534e-03 2.38948618e-03
      2.38948618e-03 9.55794472e-03 4.77897236e-03 0. 2.38948618e-03
      5.97371534e-03 1.43369175e-02 2.38948618e-03 8.36320128e-03
      7.16845877e-03 1.19474309e-03 3.58422939e-03 2.38948618e-03
      3.58422939e-03 8.36320128e-03 0. 4.77897236e-03 5.97371534e-03
      2.38948618e-03 5.97371534e-03 0. 8.36320128e-03</_>
    <_>
      3.09837330e-03 7.74593325e-03 2.32377998e-03 4.64755995e-03
      4.64755995e-03 4.64755995e-03 1.00697130e-02 3.87296663e-03
      2.32377998e-03 2.32377998e-03 6.97133970e-03 1.39426794e-02 0.
      7.74593325e-04 1.31680863e-02 3.09837330e-03 3.09837330e-03
      5.42215351e-03 0. 0. 7.74593325e-03 7.74593325e-04 3.87296663e-03
      6.97133970e-03 1.31680863e-02 5.42215351e-03 7.74593325e-03 0.
      1.54918665e-03 3.09837330e-03 6.97133970e-03 2.32377998e-03
      2.32377998e-03 1.47172734e-02 1.08443070e-02 7.74593325e-03
      1.54918665e-03 0. 2.32377998e-03 5.42215351e-03 9.29511990e-03
      4.64755995e-03 5.42215351e-03 1.54918665e-03 2.32377998e-03
      4.64755995e-03 1.62664596e-02 7.74593325e-04 2.32377998e-03
      5.42215351e-03 7.74593325e-04 1.54918665e-03 6.19674660e-03
      7.74593325e-04 7.74593325e-03 7.74593325e-04 0. 1.23934932e-02
      1.85902398e-02 1.54918665e-03 0. 3.87296663e-03 4.64755995e-03 0.
      7.74593325e-03 6.19674660e-03 4.64755995e-03 8.52052681e-03
      4.64755995e-03 5.42215351e-03 3.87296663e-03 7.74593325e-04
      9.29511990e-03 1.54918665e-03 2.32377998e-03 3.87296663e-03 0.
      2.32377998e-03 8.52052681e-03 6.19674660e-03 4.64755995e-03
      7.74593325e-04 6.97133970e-03 3.09837330e-03 2.32377998e-03
      3.87296663e-03 7.74593325e-03 3.09837330e-03 1.54918665e-03
      7.74593325e-03 9.29511990e-03 1.54918665e-03 9.29511990e-03
      6.97133970e-03 1.54918665e-03 3.09837330e-03 8.52052681e-03
      1.54918665e-03 1.54918665e-03 7.74593325e-04 1.31680863e-02 0.
      3.09837330e-03 5.42215351e-03 2.32377998e-03 3.87296663e-03
      2.32377998e-03 8.52052681e-03 7.74593325e-04 1.00697130e-02
      4.64755995e-03 2.32377998e-03 1.62664596e-02 3.87296663e-03
      2.32377998e-03 4.64755995e-03 1.16189001e-02 3.09837330e-03
      1.54918665e-03 4.64755995e-03 2.32377998e-03 9.29511990e-03
      2.32377998e-03 1.54918665e-03 2.01394260e-02 1.54918665e-03
      5.42215351e-03 5.42215351e-03 3.87296663e-03 7.74593325e-04
      7.74593325e-04 8.52052681e-03 4.64755995e-03 6.97133970e-03
      1.00697130e-02 7.74593325e-04 4.64755995e-03 3.09837330e-03
      1.39426794e-02 2.32377998e-03 6.19674660e-03 6.19674660e-03
      2.32377998e-03 6.19674660e-03 3.09837330e-03 1.08443070e-02
      4.64755995e-03 7.74593325e-03 1.54918665e-03 2.32377998e-03
      7.74593325e-04 3.87296663e-03 2.32377998e-03 7.74593325e-03
      3.87296663e-03 0. 6.97133970e-03 0. 9.29511990e-03 8.52052681e-03
      1.16189001e-02 1.54918665e-03 6.97133970e-03 2.01394260e-02
      3.09837330e-03 3.09837330e-03 1.00697130e-02 6.97133970e-03
      1.08443070e-02 2.32377998e-03 0. 1.54918665e-03 3.87296663e-03
      3.09837330e-03 1.54918665e-03 6.97133970e-03 3.87296663e-03
      4.64755995e-03 6.19674660e-03 7.74593325e-03 2.32377998e-03 0.
      5.42215351e-03 6.97133970e-03 3.87296663e-03 3.09837330e-03
      6.19674660e-03 3.09837330e-03 5.42215351e-03 3.09837330e-03
      1.00697130e-02 5.42215351e-03 1.16189001e-02 4.64755995e-03
      1.85902398e-02 2.32377998e-03 4.64755995e-03 5.42215351e-03 0.
      3.87296663e-03</_>
    <_>
      1.22249394e-03 3.66748171e-03 4.88997577e-03 3.66748171e-03
      6.11246983e-03 2.44498788e-03 8.55745748e-03 9.77995154e-03
      3.66748171e-03 7.33496342e-03 6.11246983e-03 8.55745748e-03 0. 0.
      7.33496342e-03 4.88997577e-03 4.88997577e-03 0. 0. 0.
      6.11246983e-03 0. 4.88997577e-03 1.34474337e-02 3.66748171e-03
      8.55745748e-03 6.11246983e-03 0. 2.44498788e-03 3.66748171e-03
      2.44498788e-03 0. 1.22249394e-03 0. 7.33496342e-03 0. 0.
      4.88997577e-03 3.66748171e-03 3.66748171e-03 7.33496342e-03
      6.11246983e-03 4.88997577e-03 1.22249394e-03 2.44498788e-03
      4.88997577e-03 1.22249397e-02 1.22249394e-03 1.22249394e-03
      1.22249394e-03 2.44498788e-03 2.44498788e-03 6.11246983e-03
      3.66748171e-03 8.55745748e-03 1.22249394e-03 0. 1.71149150e-02
      1.83374099e-02 2.44498788e-03 0. 2.44498788e-03 1.58924218e-02 0.
      6.11246983e-03 1.22249394e-03 4.88997577e-03 1.58924218e-02 0.
      3.66748171e-03 0. 0. 1.46699268e-02 1.10024456e-02 4.88997577e-03
      9.77995154e-03 0. 6.11246983e-03 9.77995154e-03 3.66748171e-03
      8.55745748e-03 0. 6.11246983e-03 1.10024456e-02 3.66748171e-03
      9.77995154e-03 4.88997577e-03 0. 7.33496342e-03 1.22249397e-02
      3.66748171e-03 7.33496342e-03 1.34474337e-02 2.44498788e-03
      2.44498788e-03 4.88997577e-03 7.33496342e-03 2.44498788e-03
      6.11246983e-03 0. 1.22249397e-02 0. 1.22249394e-03 1.22249397e-02
      1.22249394e-03 2.44498788e-03 0. 7.33496342e-03 2.44498788e-03
      1.34474337e-02 2.44498788e-03 4.88997577e-03 3.66748171e-03 0.
      3.66748171e-03 1.22249394e-03 3.66748171e-03 1.10024456e-02
      4.88997577e-03 7.33496342e-03 2.44498788e-03 1.22249394e-03
      8.55745748e-03 0. 3.30073349e-02 4.88997577e-03 4.88997577e-03
      1.22249394e-03 3.66748171e-03 0. 0. 1.10024456e-02 4.88997577e-03
      2.44498788e-03 7.33496342e-03 2.44498788e-03 9.77995154e-03
      4.88997577e-03 1.83374099e-02 4.88997577e-03 4.88997577e-03
      6.11246983e-03 3.66748171e-03 3.66748171e-03 1.22249394e-03
      9.77995154e-03 3.66748171e-03 1.22249397e-02 3.66748171e-03
      1.22249394e-03 6.11246983e-03 1.22249394e-03 1.22249394e-03
      8.55745748e-03 0. 7.33496342e-03 2.44498788e-03 0. 2.44498788e-03
      6.11246983e-03 1.22249397e-02 0. 7.33496342e-03 4.88997577e-03
      1.22249394e-03 6.11246983e-03 1.10024456e-02 6.11246983e-03
      7.33496342e-03 1.58924218e-02 0. 2.44498788e-03 0. 8.55745748e-03
      1.22249394e-03 3.66748171e-03 4.88997577e-03 8.55745748e-03
      2.44498788e-03 3.66748171e-03 1.22249394e-03 0. 1.22249397e-02
      2.44498788e-03 1.22249394e-03 3.66748171e-03 1.10024456e-02
      2.44498788e-03 1.10024456e-02 1.22249394e-03 8.55745748e-03
      3.66748171e-03 7.33496342e-03 1.22249394e-03 1.71149150e-02
      1.22249394e-03 3.66748171e-03 1.22249394e-03 2.44498788e-03
      8.55745748e-03</_>
    <_>
      1.86046516e-03 7.44186062e-03 4.65116277e-03 3.72093031e-03
      5.58139570e-03 1.86046516e-03 8.37209355e-03 2.79069785e-03
      2.79069785e-03 3.72093031e-03 3.72093031e-03 4.65116277e-03 0.
      9.30232578e-04 1.20930234e-02 0. 1.86046516e-03 2.79069785e-03
      8.37209355e-03 9.30232578e-04 1.02325585e-02 9.30232578e-04
      6.51162816e-03 5.58139570e-03 8.37209355e-03 1.86046516e-03
      6.51162816e-03 0. 3.72093031e-03 1.86046516e-03 1.02325585e-02
      9.30232578e-04 4.65116277e-03 6.51162816e-03 8.37209355e-03
      4.65116277e-03 2.79069785e-03 1.86046516e-03 5.58139570e-03
      3.72093031e-03 1.02325585e-02 2.79069785e-03 3.72093031e-03
      3.72093031e-03 8.37209355e-03 9.30232578e-04 1.02325585e-02
      1.86046516e-03 3.72093031e-03 2.79069785e-03 2.79069785e-03
      3.72093031e-03 9.30232578e-04 2.79069785e-03 4.65116277e-03
      1.86046516e-03 9.30232578e-04 6.51162816e-03 1.02325585e-02
      1.86046516e-03 0. 8.37209355e-03 1.02325585e-02 0. 1.11627914e-02
      1.86046516e-03 1.86046516e-03 5.58139570e-03 9.30232578e-04
      3.72093031e-03 7.44186062e-03 9.30232578e-04 7.44186062e-03 0.
      1.48837212e-02 5.58139570e-03 0. 1.30232563e-02 1.11627914e-02
      2.79069785e-03 2.79069785e-03 0. 7.44186062e-03 3.72093031e-03
      5.58139570e-03 5.58139570e-03 7.44186062e-03 1.86046516e-03
      1.39534883e-02 1.30232563e-02 5.58139570e-03 9.30232578e-04
      5.58139570e-03 4.65116277e-03 1.86046516e-03 2.79069785e-03
      6.51162816e-03 1.86046516e-03 9.30232578e-04 0. 6.51162816e-03
      2.79069785e-03 4.65116277e-03 1.30232563e-02 3.72093031e-03
      2.79069785e-03 3.72093031e-03 7.44186062e-03 1.86046516e-03
      8.37209355e-03 1.86046516e-03 6.51162816e-03 3.72093031e-03
      3.72093031e-03 1.86046516e-03 3.72093031e-03 4.65116277e-03
      1.86046516e-03 1.86046516e-03 3.72093031e-03 1.86046516e-03
      1.11627914e-02 0. 1.86046516e-03 1.20930234e-02 1.86046516e-03
      9.30232555e-03 5.58139570e-03 2.79069785e-03 0. 0. 8.37209355e-03
      5.58139570e-03 6.51162816e-03 9.30232555e-03 1.86046516e-03
      1.67441871e-02 0. 1.39534883e-02 5.58139570e-03 9.30232555e-03
      2.79069785e-03 9.30232578e-04 4.65116277e-03 2.79069785e-03
      8.37209355e-03 3.72093031e-03 4.65116277e-03 9.30232578e-04
      3.72093031e-03 2.79069785e-03 4.65116277e-03 3.72093031e-03
      9.30232555e-03 8.37209355e-03 1.86046516e-03 8.37209355e-03 0.
      1.86046516e-03 6.51162816e-03 1.67441871e-02 4.65116277e-03
      1.02325585e-02 1.11627914e-02 4.65116277e-03 4.65116277e-03
      9.30232555e-03 3.72093031e-03 1.20930234e-02 8.37209355e-03
      9.30232578e-04 2.79069785e-03 4.65116277e-03 4.65116277e-03
      9.30232578e-04 5.58139570e-03 6.51162816e-03 2.79069785e-03
      7.44186062e-03 7.44186062e-03 5.58139570e-03 9.30232578e-04
      1.67441871e-02 7.44186062e-03 1.20930234e-02 5.58139570e-03
      3.72093031e-03 3.72093031e-03 9.30232578e-04 2.79069785e-03
      4.65116277e-03 1.86046516e-03 1.20930234e-02 3.72093031e-03
      7.44186062e-03 8.37209355e-03 4.65116277e-03 1.39534883e-02 0.
      5.58139570e-03</_>
    <_>
      0. 4.90196096e-03 1.22549022e-02 2.45098048e-03 2.45098048e-03
      2.45098048e-03 7.35294167e-03 1.96078438e-02 0. 4.90196096e-03
      1.22549022e-02 7.35294167e-03 0. 0. 1.47058833e-02 2.45098048e-03
      7.35294167e-03 0. 0. 0. 4.90196096e-03 7.35294167e-03
      2.45098048e-03 9.80392192e-03 2.45098043e-02 7.35294167e-03
      1.71568636e-02 0. 2.45098048e-03 0. 1.22549022e-02 2.45098048e-03
      2.45098048e-03 2.45098048e-03 9.80392192e-03 2.45098048e-03 0.
      2.45098048e-03 4.90196096e-03 2.45098048e-03 2.20588241e-02 0.
      4.90196096e-03 0. 7.35294167e-03 0. 1.47058833e-02 2.45098048e-03
      4.90196096e-03 9.80392192e-03 0. 2.45098048e-03 0. 4.90196096e-03
      9.80392192e-03 0. 2.45098048e-03 4.90196096e-03 1.96078438e-02 0.
      4.90196096e-03 7.35294167e-03 0. 0. 1.47058833e-02 0.
      7.35294167e-03 1.22549022e-02 0. 9.80392192e-03 0. 2.45098048e-03
      1.22549022e-02 4.90196096e-03 4.90196096e-03 9.80392192e-03 0.
      2.45098048e-03 4.90196096e-03 0. 0. 0. 7.35294167e-03
      9.80392192e-03 2.45098048e-03 9.80392192e-03 7.35294167e-03 0.
      2.45098048e-03 2.45098048e-03 2.45098048e-03 2.45098048e-03 0.
      2.45098048e-03 4.90196096e-03 7.35294167e-03 7.35294167e-03
      4.90196096e-03 0. 2.45098048e-03 4.90196096e-03 0. 4.90196096e-03
      1.47058833e-02 0. 4.90196096e-03 0. 2.45098048e-03 4.90196096e-03
      1.71568636e-02 2.45098048e-03 4.90196096e-03 1.96078438e-02
      2.45098048e-03 0. 0. 7.35294167e-03 7.35294167e-03 0.
      1.22549022e-02 2.45098048e-03 4.90196096e-03 2.45098048e-03
      2.45098048e-03 4.16666679e-02 2.45098048e-03 1.71568636e-02
      7.35294167e-03 4.90196096e-03 0. 0. 2.45098048e-03 0. 0.
      1.47058833e-02 0. 1.22549022e-02 0. 1.22549022e-02 0. 0.
      1.71568636e-02 2.45098048e-03 4.90196096e-03 2.45098048e-03
      9.80392192e-03 2.45098048e-03 4.90196096e-03 0. 4.90196096e-03 0.
      7.35294167e-03 0. 4.90196096e-03 0. 2.45098048e-03 2.45098048e-03
      0. 0. 4.90196096e-03 2.45098048e-03 4.90196096e-03 7.35294167e-03
      9.80392192e-03 0. 2.45098048e-03 1.22549022e-02 7.35294167e-03
      1.71568636e-02 4.90196096e-03 0. 0. 2.45098048e-03 4.90196096e-03
      0. 0. 0. 4.90196096e-03 4.90196096e-03 1.96078438e-02 0. 0.
      1.22549022e-02 0. 4.90196096e-03 7.35294167e-03 2.45098048e-03
      4.90196096e-03 0. 7.35294167e-03 9.80392192e-03 2.45098048e-03
      1.22549022e-02 0. 4.90196096e-03 4.90196096e-03 0. 9.80392192e-03
      0. 0.</_></support_vectors>
  <decision_functions>
    <_>
      <sv_count>25</sv_count>
      <rho>-1.0100049283157577e+00</rho>
      <alpha>
        7.7313633705537455e-02 1.3999633391146321e-01
        4.0706736853591663e-01 3.6628682088775971e-01
        7.7909018105218353e-01 1.1100242372489673e-01
        2.1871897598026227e-01 8.5713507628791374e-02
        5.0379305269535790e-01 3.4288593301214809e-01
        2.8304427663879728e-01 2.6566170656154986e-01
        2.5310593098380657e-01 1.5736691923209628e-01
        6.6934346281387502e-02 6.9350142211518542e-02
        4.7352318914670166e-01 6.6895082342874931e-02
        9.4698915979977927e-02 2.3755125948697228e-01 -1. -1. -1. -1.
        -1.</alpha>
      <index>
        0 1 2 3 4 5 6 7 8 9 10 11 12 13 14 15 16 17 18 19 20 21 22 23 24</index></_></decision_functions></my_svm>
</opencv_storage>
