<?xml version="1.0"?>
<opencv_storage>
<my_svm type_id="opencv-ml-svm">
  <svm_type>C_SVC</svm_type>
  <kernel><type>RBF</type>
    <gamma>1.</gamma></kernel>
  <C>1.</C>
  <term_criteria><epsilon>1.1920928955078125e-07</epsilon>
    <iterations>1000</iterations></term_criteria>
  <var_all>200</var_all>
  <var_count>200</var_count>
  <class_count>2</class_count>
  <class_labels type_id="opencv-matrix">
    <rows>1</rows>
    <cols>2</cols>
    <dt>i</dt>
    <data>
      0 1</data></class_labels>
  <sv_total>18</sv_total>
  <support_vectors>
    <_>
      2.52206810e-03 8.82723834e-03 1.00882724e-02 1.26103405e-03
      3.78310215e-03 1.26103405e-03 2.52206810e-03 1.26103405e-03 0.
      5.04413620e-03 7.56620429e-03 2.14375779e-02 2.52206810e-03
      2.52206810e-03 7.56620429e-03 2.52206810e-03 1.26103405e-03
      1.26103405e-02 2.52206810e-03 0. 3.27868834e-02 6.30517025e-03 0.
      1.26103405e-03 5.04413620e-03 7.56620429e-03 6.30517025e-03
      6.30517025e-03 2.52206810e-03 0. 0. 6.30517025e-03 0.
      7.56620429e-03 1.13493064e-02 0. 0. 1.26103405e-03 1.26103405e-03
      1.26103405e-03 2.52206810e-03 0. 0. 1.26103405e-03 0.
      3.78310215e-03 2.52206810e-03 1.26103405e-03 1.26103405e-03
      1.26103405e-03 8.82723834e-03 3.78310215e-03 2.52206810e-03
      1.26103405e-03 1.26103405e-02 2.52206810e-03 0. 1.00882724e-02
      2.01765448e-02 2.52206810e-03 0. 3.78310215e-03 7.56620429e-03 0.
      8.82723834e-03 1.26103405e-03 0. 3.78310215e-03 1.26103405e-03
      1.26103405e-02 0. 2.52206810e-03 5.04413620e-03 2.01765448e-02
      6.30517025e-03 1.26103405e-03 2.52206810e-03 2.52206810e-03
      6.30517025e-03 1.26103405e-03 2.52206810e-03 1.26103405e-03
      8.82723834e-03 3.78310215e-03 3.78310215e-03 6.30517025e-03
      7.56620429e-03 0. 8.82723834e-03 6.30517025e-03 8.82723834e-03
      2.52206810e-03 5.04413620e-03 1.26103405e-03 0. 1.26103405e-03
      5.04413620e-03 1.13493064e-02 2.52206810e-03 1.26103405e-03
      7.56620429e-03 7.56620429e-03 1.26103405e-03 1.26103405e-03
      7.56620429e-03 2.52206810e-03 3.78310215e-03 5.04413620e-03 0.
      1.26103405e-03 2.52206810e-03 1.26103405e-02 3.27868834e-02
      3.78310215e-03 1.89155117e-02 2.52206810e-03 3.78310215e-03
      5.04413620e-03 0. 2.52206810e-03 2.52206810e-03 0. 2.52206810e-03
      7.56620429e-03 2.52206810e-03 3.78310215e-03 5.04413620e-03
      1.26103405e-03 3.78310215e-03 1.00882724e-02 3.78310215e-03
      3.78310215e-03 2.52206810e-03 2.52206810e-03 5.04413620e-03
      3.78310215e-03 7.56620429e-03 5.04413620e-03 1.00882724e-02
      1.26103405e-03 2.52206810e-03 3.78310215e-03 2.52206810e-03
      5.04413620e-03 1.26103405e-03 6.30517025e-03 1.26103405e-03
      1.51324086e-02 1.00882724e-02 7.56620429e-03 1.13493064e-02 0.
      6.30517025e-03 2.64817141e-02 1.26103405e-03 1.38713745e-02
      1.26103405e-03 0. 2.01765448e-02 6.30517025e-03 8.82723834e-03
      1.26103405e-03 3.78310215e-03 2.52206810e-03 1.26103405e-03
      3.78310215e-03 1.51324086e-02 1.26103405e-03 6.30517025e-03 0. 0.
      1.26103405e-03 1.00882724e-02 1.76544767e-02 3.78310215e-03
      7.56620429e-03 1.26103405e-02 2.52206810e-03 1.26103405e-03
      2.52206810e-03 0. 0. 8.82723834e-03 1.26103405e-03 5.04413620e-03
      0. 2.52206810e-03 2.52206810e-03 7.56620429e-03 3.78310215e-03
      2.01765448e-02 1.26103405e-03 1.26103405e-03 0. 1.26103405e-02
      2.52206810e-03 2.52206810e-03 5.04413620e-03 1.26103405e-03
      2.14375779e-02</_>
    <_>
      1.19474309e-03 1.07526882e-02 1.19474307e-02 3.58422939e-03
      8.36320128e-03 1.19474309e-03 2.38948618e-03 3.58422939e-03
      3.58422939e-03 7.16845877e-03 3.58422939e-03 5.97371534e-03 0.
      1.19474309e-03 4.77897236e-03 3.58422939e-03 5.97371534e-03
      1.07526882e-02 3.58422939e-03 0. 1.07526882e-02 3.58422939e-03
      8.36320128e-03 1.07526882e-02 1.55316601e-02 4.77897236e-03
      1.19474307e-02 0. 1.19474309e-03 2.38948618e-03 7.16845877e-03 0.
      9.55794472e-03 7.16845877e-03 5.97371534e-03 2.38948618e-03
      2.38948618e-03 5.97371534e-03 1.43369175e-02 0. 7.16845877e-03
      5.97371534e-03 7.16845877e-03 1.19474309e-03 4.77897236e-03
      1.19474309e-03 1.19474307e-02 4.77897236e-03 1.19474309e-03
      1.19474307e-02 4.77897236e-03 2.38948618e-03 3.58422939e-03
      1.19474309e-03 8.36320128e-03 1.19474309e-03 3.58422939e-03
      2.38948618e-03 3.58422939e-03 2.38948618e-03 4.77897236e-03
      1.07526882e-02 7.16845877e-03 0. 5.97371534e-03 4.77897236e-03
      5.97371534e-03 5.97371534e-03 1.19474309e-03 3.58422939e-03
      1.19474309e-03 1.19474309e-03 2.38948613e-02 1.19474309e-03
      5.97371534e-03 5.97371534e-03 1.19474309e-03 7.16845877e-03
      1.55316601e-02 1.19474309e-03 1.19474309e-03 0. 5.97371534e-03
      9.55794472e-03 2.38948618e-03 1.55316601e-02 5.97371534e-03 0.
      5.97371534e-03 2.38948618e-03 9.55794472e-03 3.58422939e-03 0.
      7.16845877e-03 3.58422939e-03 3.58422939e-03 1.07526882e-02
      1.19474309e-03 2.38948618e-03 2.38948618e-03 1.19474309e-03 0.
      3.58422939e-03 5.97371534e-03 1.19474309e-03 2.38948618e-03
      3.58422939e-03 1.19474307e-02 2.38948618e-03 1.43369175e-02
      2.38948618e-03 2.38948618e-03 0. 4.77897236e-03 2.38948618e-03
      2.38948618e-03 1.67264026e-02 4.77897236e-03 1.19474309e-03
      5.97371534e-03 1.19474309e-03 3.58422939e-03 4.77897236e-03
      4.77897236e-03 1.79211460e-02 2.38948618e-03 1.07526882e-02
      7.16845877e-03 3.58422939e-03 3.58422939e-03 0. 4.77897236e-03
      4.77897236e-03 4.77897236e-03 1.19474307e-02 0. 1.07526882e-02
      7.16845877e-03 1.19474307e-02 4.77897236e-03 1.31421741e-02
      3.58422939e-03 1.19474309e-03 2.38948618e-03 3.58422939e-03
      1.19474307e-02 2.38948618e-03 8.36320128e-03 2.38948618e-03
      2.38948618e-03 1.19474309e-03 5.97371534e-03 1.19474309e-03
      8.36320128e-03 0. 4.77897236e-03 2.38948618e-03 0. 1.19474309e-03
      3.58422939e-03 8.36320128e-03 0. 1.07526882e-02 5.97371534e-03
      2.38948618e-03 4.77897236e-03 1.55316601e-02 9.55794472e-03
      5.97371534e-03 2.38948618e-03 0. 3.58422939e-03 2.38948618e-03
      5.97371534e-03 0. 3.58422939e-03 5.97371534e-03 2.38948618e-03
      2.38948618e-03 9.55794472e-03 4.77897236e-03 0. 2.38948618e-03
      5.97371534e-03 1.43369175e-02 2.38948618e-03 8.36320128e-03
      7.16845877e-03 1.19474309e-03 3.58422939e-03 2.38948618e-03
      3.58422939e-03 8.36320128e-03 0. 4.77897236e-03 5.97371534e-03
      2.38948618e-03 5.97371534e-03 0. 8.36320128e-03</_>
    <_>
      1.86046516e-03 7.44186062e-03 4.65116277e-03 3.72093031e-03
      5.58139570e-03 1.86046516e-03 8.37209355e-03 2.79069785e-03
      2.79069785e-03 3.72093031e-03 3.72093031e-03 4.65116277e-03 0.
      9.30232578e-04 1.20930234e-02 0. 1.86046516e-03 2.79069785e-03
      8.37209355e-03 9.30232578e-04 1.02325585e-02 9.30232578e-04
      6.51162816e-03 5.58139570e-03 8.37209355e-03 1.86046516e-03
      6.51162816e-03 0. 3.72093031e-03 1.86046516e-03 1.02325585e-02
      9.30232578e-04 4.65116277e-03 6.51162816e-03 8.37209355e-03
      4.65116277e-03 2.79069785e-03 1.86046516e-03 5.58139570e-03
      3.72093031e-03 1.02325585e-02 2.79069785e-03 3.72093031e-03
      3.72093031e-03 8.37209355e-03 9.30232578e-04 1.02325585e-02
      1.86046516e-03 3.72093031e-03 2.79069785e-03 2.79069785e-03
      3.72093031e-03 9.30232578e-04 2.79069785e-03 4.65116277e-03
      1.86046516e-03 9.30232578e-04 6.51162816e-03 1.02325585e-02
      1.86046516e-03 0. 8.37209355e-03 1.02325585e-02 0. 1.11627914e-02
      1.86046516e-03 1.86046516e-03 5.58139570e-03 9.30232578e-04
      3.72093031e-03 7.44186062e-03 9.30232578e-04 7.44186062e-03 0.
      1.48837212e-02 5.58139570e-03 0. 1.30232563e-02 1.11627914e-02
      2.79069785e-03 2.79069785e-03 0. 7.44186062e-03 3.72093031e-03
      5.58139570e-03 5.58139570e-03 7.44186062e-03 1.86046516e-03
      1.39534883e-02 1.30232563e-02 5.58139570e-03 9.30232578e-04
      5.58139570e-03 4.65116277e-03 1.86046516e-03 2.79069785e-03
      6.51162816e-03 1.86046516e-03 9.30232578e-04 0. 6.51162816e-03
      2.79069785e-03 4.65116277e-03 1.30232563e-02 3.72093031e-03
      2.79069785e-03 3.72093031e-03 7.44186062e-03 1.86046516e-03
      8.37209355e-03 1.86046516e-03 6.51162816e-03 3.72093031e-03
      3.72093031e-03 1.86046516e-03 3.72093031e-03 4.65116277e-03
      1.86046516e-03 1.86046516e-03 3.72093031e-03 1.86046516e-03
      1.11627914e-02 0. 1.86046516e-03 1.20930234e-02 1.86046516e-03
      9.30232555e-03 5.58139570e-03 2.79069785e-03 0. 0. 8.37209355e-03
      5.58139570e-03 6.51162816e-03 9.30232555e-03 1.86046516e-03
      1.67441871e-02 0. 1.39534883e-02 5.58139570e-03 9.30232555e-03
      2.79069785e-03 9.30232578e-04 4.65116277e-03 2.79069785e-03
      8.37209355e-03 3.72093031e-03 4.65116277e-03 9.30232578e-04
      3.72093031e-03 2.79069785e-03 4.65116277e-03 3.72093031e-03
      9.30232555e-03 8.37209355e-03 1.86046516e-03 8.37209355e-03 0.
      1.86046516e-03 6.51162816e-03 1.67441871e-02 4.65116277e-03
      1.02325585e-02 1.11627914e-02 4.65116277e-03 4.65116277e-03
      9.30232555e-03 3.72093031e-03 1.20930234e-02 8.37209355e-03
      9.30232578e-04 2.79069785e-03 4.65116277e-03 4.65116277e-03
      9.30232578e-04 5.58139570e-03 6.51162816e-03 2.79069785e-03
      7.44186062e-03 7.44186062e-03 5.58139570e-03 9.30232578e-04
      1.67441871e-02 7.44186062e-03 1.20930234e-02 5.58139570e-03
      3.72093031e-03 3.72093031e-03 9.30232578e-04 2.79069785e-03
      4.65116277e-03 1.86046516e-03 1.20930234e-02 3.72093031e-03
      7.44186062e-03 8.37209355e-03 4.65116277e-03 1.39534883e-02 0.
      5.58139570e-03</_>
    <_>
      7.28597445e-03 9.10746807e-04 7.28597445e-03 6.37522759e-03
      7.28597445e-03 2.73224036e-03 1.27504552e-02 5.46448072e-03
      1.82149361e-03 9.10746807e-04 5.46448072e-03 1.00182146e-02
      1.82149361e-03 1.82149361e-03 6.37522759e-03 2.73224036e-03
      3.64298723e-03 3.64298723e-03 2.73224036e-03 4.55373386e-03
      6.37522759e-03 9.10746807e-04 9.10746807e-04 3.64298723e-03
      1.27504552e-02 7.28597445e-03 5.46448072e-03 5.46448072e-03
      1.82149361e-03 1.82149361e-03 3.64298723e-03 2.73224036e-03 0.
      4.55373386e-03 1.00182146e-02 2.73224036e-03 2.27686707e-02
      2.73224036e-03 6.37522759e-03 2.73224036e-03 9.10746772e-03
      1.82149361e-03 1.82149361e-03 1.82149361e-03 1.82149361e-03
      5.46448072e-03 1.27504552e-02 4.55373386e-03 9.10746807e-04
      9.10746807e-04 7.28597445e-03 1.82149361e-03 1.82149361e-03
      3.64298723e-03 5.46448072e-03 2.73224036e-03 2.73224036e-03
      9.10746807e-04 9.10746772e-03 3.64298723e-03 9.10746807e-04
      9.10746807e-04 1.82149361e-03 1.18397083e-02 6.37522759e-03
      2.73224036e-03 9.10746807e-04 3.64298723e-03 2.73224036e-03
      1.82149361e-03 1.82149361e-03 2.73224036e-03 3.64298723e-03
      1.82149361e-03 2.00364292e-02 4.55373386e-03 5.46448072e-03
      2.73224036e-03 8.19672085e-03 4.55373386e-03 3.64298723e-03
      7.28597445e-03 2.73224036e-03 7.28597445e-03 5.46448072e-03
      6.37522759e-03 7.28597445e-03 2.73224036e-03 1.00182146e-02
      8.19672085e-03 1.18397083e-02 6.37522759e-03 0. 1.82149361e-03
      5.46448072e-03 5.46448072e-03 1.36612020e-02 1.82149361e-03
      1.82149361e-03 9.10746772e-03 1.09289614e-02 8.19672085e-03
      9.10746807e-04 2.73224036e-03 9.10746807e-04 2.73224036e-03
      1.82149361e-03 6.37522759e-03 3.64298723e-03 3.64298723e-03
      5.46448072e-03 8.19672085e-03 2.09471770e-02 1.82149361e-03
      3.64298723e-03 4.55373386e-03 7.28597445e-03 9.10746807e-04
      2.73224036e-03 9.10746807e-04 3.64298723e-03 5.46448072e-03
      2.73224036e-03 5.46448072e-03 1.82149361e-03 1.82149361e-03
      1.82149361e-03 9.10746807e-04 2.73224036e-03 1.82149361e-03
      5.46448072e-03 8.19672085e-03 3.64298723e-03 1.45719489e-02
      2.73224036e-03 5.46448072e-03 1.45719489e-02 9.10746807e-04
      1.45719489e-02 3.64298723e-03 4.55373386e-03 7.28597445e-03
      9.10746807e-04 3.64298723e-03 1.82149361e-03 8.19672085e-03
      1.82149361e-03 8.19672085e-03 6.37522759e-03 0. 0. 1.82149361e-03
      9.10746807e-04 8.19672085e-03 1.82149361e-03 1.82149361e-03 0.
      8.19672085e-03 7.28597445e-03 2.73224036e-03 1.00182146e-02 0.
      9.10746772e-03 1.54826958e-02 3.64298723e-03 4.55373386e-03
      1.54826958e-02 1.18397083e-02 2.27686707e-02 6.37522759e-03
      9.10746807e-04 9.10746807e-04 2.73224036e-03 1.00182146e-02 0.
      5.46448072e-03 2.73224036e-03 5.46448072e-03 9.10746807e-04
      1.82149361e-03 4.55373386e-03 9.10746772e-03 2.73224036e-03 0.
      1.18397083e-02 4.55373386e-03 4.55373386e-03 5.46448072e-03
      6.37522759e-03 4.55373386e-03 9.10746772e-03 1.82149361e-03
      3.64298723e-03 5.46448072e-03 8.19672085e-03 9.10746807e-04
      2.73224036e-03 1.09289614e-02 2.73224036e-03 6.37522759e-03</_>
    <_>
      4.48179292e-03 1.28851542e-02 5.60224103e-03 5.04201697e-03
      3.92156886e-03 3.92156886e-03 2.80112051e-03 2.80112051e-03
      1.12044823e-03 2.80112051e-03 5.60224114e-04 1.73669476e-02
      1.12044823e-03 1.12044823e-03 6.16246508e-03 5.60224114e-04
      2.80112051e-03 3.92156886e-03 2.24089646e-03 3.36134480e-03
      3.36134480e-03 0. 3.36134480e-03 3.92156886e-03 3.41736712e-02
      3.36134480e-03 1.17647061e-02 1.12044823e-03 1.68067240e-03
      6.16246508e-03 5.60224114e-04 5.60224114e-04 2.24089646e-03
      6.16246508e-03 1.68067235e-02 2.24089646e-03 1.06442580e-02
      1.12044823e-03 1.68067240e-03 2.24089646e-03 1.40056033e-02
      1.68067240e-03 1.12044823e-03 5.60224114e-04 2.24089646e-03
      1.12044823e-03 3.92156886e-03 5.04201697e-03 1.68067240e-03 0.
      1.12044821e-02 2.80112051e-03 5.60224114e-04 1.68067240e-03
      3.36134480e-03 3.36134480e-03 1.68067240e-03 1.56862754e-02
      2.96918787e-02 3.36134480e-03 1.12044823e-03 1.68067240e-03
      6.16246508e-03 3.92156886e-03 1.73669476e-02 2.24089646e-03
      4.48179292e-03 7.28291366e-03 3.92156886e-03 2.24089646e-03 0.
      3.36134480e-03 3.36134480e-03 8.40336177e-03 2.18487401e-02
      1.12044823e-03 1.68067240e-03 5.04201697e-03 5.60224114e-04
      5.60224114e-04 5.60224114e-04 0. 9.52380989e-03 1.06442580e-02
      1.56862754e-02 2.80112051e-03 3.36134480e-03 1.12044823e-03
      6.16246508e-03 8.40336177e-03 1.68067240e-03 0. 0. 3.92156886e-03
      0. 1.12044823e-03 5.04201697e-03 1.06442580e-02 2.80112051e-03
      1.12044823e-03 9.52380989e-03 9.52380989e-03 2.24089646e-03
      2.80112051e-03 2.24089646e-03 2.24089646e-03 1.68067240e-03
      3.36134480e-03 1.68067240e-03 1.68067240e-03 2.24089646e-03
      1.73669476e-02 4.81792726e-02 1.68067240e-03 4.48179292e-03
      1.68067240e-03 5.60224114e-04 2.24089646e-03 2.24089646e-03
      3.92156886e-03 2.24089646e-03 3.36134480e-03 2.80112051e-03
      2.80112051e-03 3.41736712e-02 1.68067240e-03 3.36134480e-03
      1.68067240e-03 1.12044823e-03 0. 2.80112051e-03 4.48179292e-03
      9.52380989e-03 1.12044823e-03 5.60224103e-03 2.24089646e-03
      7.84313772e-03 1.12044823e-03 1.06442580e-02 0. 2.80112051e-03
      3.92156886e-03 1.68067240e-03 2.80112051e-03 1.12044823e-03
      1.68067240e-03 1.12044823e-03 5.60224103e-03 2.80112051e-03 0.
      1.68067240e-03 1.68067240e-03 5.60224114e-04 4.48179292e-03
      1.12044823e-03 5.60224114e-04 5.60224114e-04 2.24089646e-03
      3.36134480e-03 1.68067240e-03 1.45658273e-02 1.12044823e-03
      2.01680679e-02 8.40336177e-03 3.92156886e-03 1.68067240e-03
      6.72268961e-03 5.60224103e-03 2.63305325e-02 3.36134480e-03
      2.80112051e-03 2.24089646e-03 5.60224114e-04 5.60224103e-03
      1.68067240e-03 3.92156886e-03 8.96358583e-03 1.68067240e-03
      2.24089646e-03 0. 5.60224114e-04 6.72268961e-03 4.48179292e-03
      6.72268961e-03 1.68067235e-02 7.28291366e-03 4.48179292e-03
      1.28851542e-02 7.84313772e-03 2.24089646e-03 6.72268961e-03
      1.68067240e-03 1.68067240e-03 1.68067240e-03 2.07282919e-02
      7.84313772e-03 4.48179292e-03 6.72268961e-03 7.28291366e-03
      4.48179292e-03</_>
    <_>
      6.73997914e-03 1.24157509e-02 2.12841434e-03 7.09471467e-04
      4.25682869e-03 2.12841434e-03 7.09471479e-03 3.54735740e-03
      1.77367870e-03 1.77367870e-03 2.48315022e-03 7.80418608e-03
      2.83788587e-03 3.54735734e-04 5.32103609e-03 1.06420717e-03
      1.77367870e-03 6.38524303e-03 4.96630045e-03 1.77367870e-03
      1.17062796e-02 2.48315022e-03 4.96630045e-03 7.80418608e-03
      1.98652018e-02 5.67577174e-03 8.51365738e-03 1.41894293e-03
      3.54735740e-03 2.83788587e-03 3.54735734e-04 1.41894293e-03
      4.96630045e-03 1.20610148e-02 1.13515435e-02 1.41894293e-03
      1.66725796e-02 2.48315022e-03 8.51365738e-03 3.90209304e-03
      9.22312867e-03 2.83788587e-03 3.90209304e-03 3.54735740e-03
      7.09471467e-04 4.25682869e-03 7.09471479e-03 2.83788587e-03
      2.48315022e-03 2.12841434e-03 1.38346935e-02 1.41894293e-03
      3.54735740e-03 2.83788587e-03 6.03050739e-03 3.19262152e-03
      1.77367870e-03 1.41894293e-03 7.80418608e-03 4.25682869e-03
      3.54735734e-04 4.61156433e-03 1.34799583e-02 5.32103609e-03
      1.02873361e-02 3.90209304e-03 3.19262152e-03 2.48315022e-03
      1.41894293e-03 3.90209304e-03 2.83788587e-03 2.12841434e-03
      1.20610148e-02 4.96630045e-03 6.38524303e-03 2.12841434e-03
      2.12841434e-03 2.48315022e-03 6.03050739e-03 2.12841434e-03
      6.38524303e-03 7.09471467e-04 8.51365738e-03 1.02873361e-02
      3.19262152e-03 7.44945044e-03 6.73997914e-03 1.77367870e-03
      1.88009944e-02 1.06420722e-02 8.15892220e-03 5.67577174e-03
      3.54735734e-04 5.32103609e-03 6.38524303e-03 5.67577174e-03
      1.09968074e-02 7.09471467e-04 4.96630045e-03 1.06420717e-03
      1.13515435e-02 9.93260089e-03 1.41894293e-03 3.19262152e-03
      2.83788587e-03 3.19262152e-03 1.41894293e-03 9.57786478e-03
      4.25682869e-03 1.41894293e-03 4.25682869e-03 6.73997914e-03
      4.96630045e-03 1.77367870e-03 7.09471467e-04 3.19262152e-03
      4.96630045e-03 2.12841434e-03 5.32103609e-03 3.19262152e-03
      3.90209304e-03 3.90209304e-03 2.48315022e-03 3.54735734e-04
      2.48315022e-03 2.12841434e-03 7.09471467e-04 2.48315022e-03
      1.77367870e-03 2.12841434e-03 2.12841434e-03 7.09471479e-03
      5.67577174e-03 9.22312867e-03 4.25682869e-03 3.90209304e-03
      6.03050739e-03 2.48315022e-03 1.20610148e-02 3.90209304e-03
      4.96630045e-03 2.48315022e-03 2.83788587e-03 1.41894293e-03
      2.83788587e-03 1.38346935e-02 3.54735740e-03 5.32103609e-03
      3.19262152e-03 7.09471467e-04 2.12841434e-03 2.12841434e-03
      1.77367870e-03 8.15892220e-03 1.41894293e-03 1.41894293e-03
      1.77367870e-03 2.48315022e-03 1.77367870e-03 4.96630045e-03
      1.24157509e-02 2.48315022e-03 2.23483518e-02 3.90209304e-03
      1.77367870e-03 7.09471479e-03 8.86839349e-03 8.51365738e-03
      1.70273148e-02 4.25682869e-03 1.77367870e-03 4.96630045e-03
      2.83788587e-03 8.86839349e-03 1.77367870e-03 1.06420722e-02
      3.19262152e-03 4.61156433e-03 1.77367870e-03 3.54735734e-04
      5.32103609e-03 7.44945044e-03 3.54735740e-03 7.09471467e-04
      1.95104647e-02 7.80418608e-03 7.44945044e-03 9.22312867e-03
      3.90209304e-03 2.83788587e-03 7.44945044e-03 3.19262152e-03
      8.86839349e-03 7.09471467e-04 4.96630045e-03 2.12841434e-03
      6.03050739e-03 1.02873361e-02 9.22312867e-03 5.32103609e-03</_>
    <_>
      0. 0. 1.95121951e-02 0. 0. 0. 1.46341464e-02 0. 0. 0.
      1.46341464e-02 9.75609757e-03 0. 0. 0. 0. 9.75609757e-03
      9.75609757e-03 1.46341464e-02 0. 0. 4.87804879e-03 0. 0. 0. 0. 0.
      0. 9.75609757e-03 0. 0. 0. 4.87804879e-03 3.41463424e-02
      9.75609757e-03 0. 0. 0. 9.75609757e-03 0. 0. 0. 0. 0.
      4.87804879e-03 1.46341464e-02 4.87804879e-03 9.75609757e-03
      4.87804879e-03 1.46341464e-02 0. 0. 4.87804879e-03 1.46341464e-02
      2.92682927e-02 0. 4.87804879e-03 4.87804879e-03 9.75609757e-03 0.
      0. 0. 4.87804879e-03 0. 9.75609757e-03 0. 4.87804879e-03
      1.95121951e-02 0. 0. 0. 0. 4.87804879e-03 0. 4.87804879e-03 0. 0.
      0. 4.87804879e-03 0. 0. 0. 1.46341464e-02 9.75609757e-03 0.
      1.46341464e-02 4.87804879e-03 0. 0. 9.75609757e-03 0. 0. 0. 0. 0.
      0. 1.95121951e-02 0. 4.87804879e-03 4.87804879e-03 9.75609757e-03
      0. 9.75609757e-03 4.87804879e-03 0. 4.87804879e-03 0. 0. 0. 0.
      4.87804879e-03 4.87804879e-03 7.31707290e-02 0. 2.92682927e-02
      4.87804879e-03 0. 4.87804879e-03 4.87804879e-03 0. 9.75609757e-03
      0. 1.46341464e-02 1.46341464e-02 2.43902430e-02 4.87804879e-03 0.
      4.87804879e-03 1.95121951e-02 0. 0. 1.46341464e-02 0.
      1.46341464e-02 4.87804879e-03 0. 1.46341464e-02 0. 2.92682927e-02
      0. 0. 0. 4.87804879e-03 0. 9.75609757e-03 0. 0. 4.39024381e-02 0.
      0. 0. 0. 0. 1.46341464e-02 0. 4.87804879e-03 4.87804879e-03 0.
      4.87804879e-03 0. 4.87804879e-03 0. 9.75609757e-03 1.46341464e-02
      0. 4.87804879e-03 0. 4.87804879e-03 0. 4.87804879e-03 0.
      4.87804879e-03 0. 4.87804879e-03 0. 0. 0. 2.43902430e-02 0.
      4.87804879e-03 0. 0. 4.87804879e-03 9.75609757e-03 1.95121951e-02
      0. 4.87804879e-03 0. 9.75609757e-03 4.87804879e-03 9.75609757e-03
      4.87804879e-03 0. 0. 9.75609757e-03 0. 0. 0. 0. 0.</_>
    <_>
      0. 0. 1.30718956e-02 1.63398695e-03 8.16993508e-03 1.14379087e-02
      1.63398695e-03 4.90196096e-03 3.26797389e-03 1.30718956e-02
      4.90196096e-03 8.16993508e-03 0. 0. 3.26797389e-03 6.53594779e-03
      1.63398695e-03 3.26797389e-03 1.63398695e-03 3.26797389e-03
      9.80392192e-03 1.63398695e-03 0. 9.80392192e-03 4.90196096e-03
      1.63398695e-03 1.63398695e-03 0. 4.90196096e-03 0. 0. 0.
      3.26797389e-03 1.63398695e-03 8.16993508e-03 3.26797389e-03 0.
      4.90196096e-03 3.26797389e-03 1.63398695e-03 3.26797389e-03
      6.53594779e-03 3.26797389e-03 0. 4.90196096e-03 6.53594779e-03
      4.90196096e-03 1.63398695e-03 4.90196096e-03 3.26797389e-03
      1.63398695e-03 3.26797389e-03 1.63398695e-03 3.26797389e-03
      4.90196096e-03 0. 4.90196096e-03 4.90196096e-03 1.14379087e-02 0.
      0. 3.26797389e-03 6.53594779e-03 0. 1.30718956e-02 1.63398695e-03
      1.63398695e-03 1.14379087e-02 1.63398695e-03 3.26797389e-03
      8.16993508e-03 0. 3.26797389e-03 8.16993508e-03 6.53594779e-03
      9.80392192e-03 1.63398695e-03 6.53594779e-03 3.26797389e-03 0.
      1.63398695e-03 0. 3.26797389e-03 0. 1.63398695e-03 9.80392192e-03
      1.14379087e-02 1.63398695e-03 2.45098043e-02 2.12418307e-02
      3.26797389e-03 4.90196096e-03 0. 0. 0. 1.63398695e-03
      8.16993508e-03 6.53594779e-03 3.26797389e-03 0. 3.26797389e-03
      1.63398695e-03 4.90196096e-03 4.90196096e-03 0. 8.16993508e-03
      4.90196096e-03 8.16993508e-03 0. 8.16993508e-03 6.53594779e-03
      4.90196096e-03 4.41176482e-02 3.26797389e-03 1.63398695e-03
      1.63398695e-03 0. 3.26797389e-03 0. 4.90196096e-03 1.63398695e-03
      1.63398695e-03 8.16993508e-03 0. 2.61437912e-02 1.79738570e-02
      3.26797389e-03 1.63398695e-03 4.90196096e-03 0. 1.63398695e-03
      1.30718956e-02 1.63398695e-03 4.90196096e-03 6.53594779e-03 0.
      1.63398695e-03 3.26797389e-03 3.75817008e-02 4.90196096e-03
      4.90196096e-03 1.14379087e-02 6.53594779e-03 4.90196096e-03
      3.26797389e-03 3.26797389e-03 1.63398695e-03 1.63398702e-02 0.
      9.80392192e-03 3.26797389e-03 6.53594779e-03 4.90196096e-03
      6.53594779e-03 4.90196096e-03 1.47058824e-02 1.63398695e-03 0.
      2.28758175e-02 1.14379087e-02 1.79738570e-02 8.16993508e-03
      3.26797389e-03 0. 0. 4.90196096e-03 8.16993508e-03 3.26797389e-03
      1.63398695e-03 4.90196096e-03 0. 1.63398695e-03 0. 3.26797389e-03
      4.90196096e-03 6.53594779e-03 9.80392192e-03 0. 1.30718956e-02
      1.63398695e-03 3.26797389e-03 0. 8.16993508e-03 2.45098043e-02
      1.63398695e-03 3.26797389e-03 1.14379087e-02 1.63398695e-03
      1.14379087e-02 0. 9.80392192e-03 4.90196096e-03 4.90196096e-03 0.
      3.26797389e-03 0. 0. 0. 0. 6.53594779e-03</_>
    <_>
      9.78154596e-04 1.30420609e-03 9.12944227e-03 3.26051516e-03
      3.26051516e-03 4.23866976e-03 1.30420607e-02 4.23866976e-03
      2.60841218e-03 1.63025758e-03 5.86892758e-03 1.40202157e-02
      6.52103045e-04 1.63025758e-03 1.14118028e-02 2.28236057e-03
      1.63025758e-03 5.21682436e-03 3.91261838e-03 0. 7.49918493e-03
      2.93446379e-03 3.58656677e-03 6.19497895e-03 3.26051516e-03
      4.89077298e-03 6.84708217e-03 0. 1.30420609e-03 1.63025758e-03
      9.78154596e-04 1.95630919e-03 4.23866976e-03 4.56472114e-03
      6.84708217e-03 3.58656677e-03 1.95630919e-03 3.26051516e-03
      9.45549458e-03 2.60841218e-03 4.56472114e-03 1.95630919e-03
      3.58656677e-03 1.30420609e-03 1.30420609e-03 3.26051516e-03
      8.15128814e-03 4.23866976e-03 1.63025758e-03 3.58656677e-03
      1.95630919e-03 2.60841218e-03 1.63025758e-03 2.28236057e-03
      5.86892758e-03 4.89077298e-03 1.30420609e-03 3.58656677e-03
      3.81480269e-02 3.91261838e-03 4.23866976e-03 3.91261838e-03
      1.01075973e-02 3.26051522e-04 4.89077298e-03 2.93446379e-03
      1.63025758e-03 3.91261838e-03 1.63025758e-03 4.56472114e-03
      3.26051516e-03 2.93446379e-03 3.91261838e-03 4.23866976e-03
      1.07597001e-02 4.23866976e-03 3.26051522e-04 9.78154596e-04
      5.21682436e-03 2.93446379e-03 2.28236057e-03 6.52103045e-04
      1.10857515e-02 6.84708217e-03 5.86892758e-03 1.04336487e-02
      1.33681120e-02 4.23866976e-03 1.43462671e-02 2.15194002e-02
      5.86892758e-03 3.26051516e-03 2.28236057e-03 2.60841218e-03
      8.80339090e-03 6.84708217e-03 7.82523677e-03 4.56472114e-03
      3.26051516e-03 3.26051522e-04 5.86892758e-03 1.63025758e-03
      9.78154596e-04 5.86892758e-03 9.78154596e-04 9.12944227e-03
      4.89077298e-03 1.17378552e-02 3.58656677e-03 3.26051516e-03
      3.58656677e-03 4.23866976e-03 1.53244212e-02 1.95630919e-03
      1.95630919e-03 1.63025758e-03 6.52103033e-03 4.56472114e-03
      2.28236057e-03 3.58656677e-03 6.84708217e-03 6.19497895e-03
      6.19497895e-03 9.78154596e-04 8.47733952e-03 1.30420607e-02
      2.60841218e-03 2.28236057e-03 6.19497895e-03 2.60841218e-03
      3.26051522e-04 7.82523677e-03 3.58656677e-03 3.91261838e-03
      2.93446379e-03 6.52103045e-04 4.89077298e-03 3.58656677e-03
      4.56472114e-03 4.23866976e-03 6.52103033e-03 4.56472114e-03
      2.93446379e-03 5.86892758e-03 4.23866976e-03 6.19497895e-03
      1.95630919e-03 1.01075973e-02 1.95630919e-03 2.93446379e-03
      2.93446379e-03 4.23866976e-03 8.47733952e-03 1.53244212e-02
      3.26051516e-03 1.01075973e-02 4.56472114e-03 0. 9.78154596e-03
      6.52103033e-03 4.89077298e-03 1.30420607e-02 7.17313355e-03
      1.43462671e-02 2.28236057e-03 5.21682436e-03 5.86892758e-03
      5.21682436e-03 5.21682436e-03 3.91261838e-03 6.52103045e-04
      3.91261838e-03 2.60841218e-03 6.84708217e-03 6.84708217e-03
      5.86892758e-03 2.93446379e-03 4.23866976e-03 2.93446379e-03
      1.30420609e-03 1.30420609e-03 3.26051522e-04 1.82588845e-02
      1.07597001e-02 5.86892758e-03 3.26051516e-03 7.49918493e-03
      3.58656677e-03 7.17313355e-03 2.28236057e-03 9.45549458e-03
      2.28236057e-03 6.19497895e-03 0. 7.49918493e-03 1.30420609e-03
      6.84708217e-03 5.21682436e-03 6.52103045e-04 1.59765240e-02</_>
    <_>
      0. 0. 4.40528616e-03 1.32158585e-02 0. 4.40528616e-03
      2.64317170e-02 1.76211447e-02 0. 4.40528616e-03 4.40528616e-03
      1.32158585e-02 0. 0. 0. 4.40528616e-03 0. 0. 4.40528616e-03 0.
      1.32158585e-02 0. 0. 4.40528616e-03 0. 4.40528616e-03 0. 0.
      4.40528616e-03 0. 0. 0. 0. 4.40528616e-03 4.40528616e-03
      4.40528616e-03 4.40528616e-03 4.40528616e-03 8.81057233e-03 0.
      8.81057233e-03 8.81057233e-03 0. 0. 8.81057233e-03 4.40528616e-03
      4.40528616e-03 0. 0. 8.81057233e-03 0. 0. 4.40528616e-03 0.
      8.81057233e-03 0. 0. 8.81057233e-03 3.52422893e-02 4.40528616e-03
      0. 0. 3.96475755e-02 0. 8.81057233e-03 4.40528616e-03
      8.81057233e-03 0. 0. 4.40528616e-03 0. 0. 4.40528616e-03 0.
      8.81057233e-03 0. 0. 8.81057233e-03 4.40528616e-03 4.40528616e-03
      0. 0. 0. 4.40528616e-03 4.40528616e-03 1.32158585e-02
      1.76211447e-02 8.81057233e-03 8.81057233e-03 4.40528616e-03
      4.40528616e-03 8.81057233e-03 4.40528616e-03 0. 4.40528616e-03 0.
      1.76211447e-02 0. 0. 0. 4.40528616e-03 0. 8.81057233e-03
      8.81057233e-03 0. 4.40528616e-03 4.40528616e-03 0. 0. 0. 0.
      1.76211447e-02 4.40528616e-03 0. 0. 4.40528616e-03 8.81057233e-03
      0. 4.40528616e-03 1.32158585e-02 1.76211447e-02 4.40528616e-03
      4.40528616e-03 0. 0. 0. 0. 4.40528616e-03 0. 0. 0. 1.32158585e-02
      0. 4.40528616e-03 4.40528616e-03 0. 6.60792887e-02 0.
      7.04845786e-02 4.40528616e-03 4.40528616e-03 0. 0. 0. 0. 0.
      8.81057233e-03 1.32158585e-02 0. 8.81057233e-03 0. 8.81057233e-03
      0. 8.81057233e-03 0. 4.40528616e-03 0. 0. 8.81057233e-03
      1.76211447e-02 3.08370031e-02 4.40528616e-03 1.76211447e-02
      8.81057233e-03 4.40528616e-03 0. 0. 4.40528616e-03 1.32158585e-02
      0. 0. 0. 0. 8.81057233e-03 0. 0. 0. 8.81057233e-03 4.40528616e-03
      0. 4.40528616e-03 0. 4.40528616e-03 0. 1.76211447e-02 0.
      4.40528616e-03 1.32158585e-02 0. 0. 0. 0. 1.76211447e-02 0.
      4.40528616e-03 0. 0. 0. 0. 8.81057233e-03</_>
    <_>
      2.52027810e-02 3.47624556e-03 3.76593275e-03 2.31749704e-03
      8.69061390e-04 3.76593275e-03 1.73812278e-03 3.47624556e-03
      5.21436846e-03 3.76593275e-03 1.44843571e-03 6.66280417e-03
      9.84936208e-03 4.34530713e-03 4.34530713e-03 2.89687142e-03
      2.60718423e-03 5.21436846e-03 5.79374260e-04 1.39049822e-02
      6.08342979e-03 8.69061425e-03 2.31749704e-03 1.73812278e-03
      6.08342979e-03 5.09849340e-02 7.53186550e-03 8.40092637e-03
      1.44843571e-03 5.79374284e-03 2.89687130e-04 3.18655837e-03
      4.63499408e-03 7.24217808e-03 6.66280417e-03 2.89687142e-03
      1.10081108e-02 2.60718423e-03 8.98030121e-03 3.76593275e-03
      4.63499408e-03 2.60718423e-03 2.02780985e-03 4.63499408e-03
      1.44843571e-03 8.69061390e-04 5.21436846e-03 2.31749704e-03
      5.79374260e-04 1.44843571e-03 1.33256083e-02 3.76593275e-03
      3.47624556e-03 5.79374260e-04 3.18655837e-03 3.47624556e-03
      1.44843571e-03 4.05561971e-03 1.18771726e-02 4.34530713e-03
      4.92468104e-03 8.69061390e-04 8.69061390e-04 1.73812285e-02
      5.79374284e-03 2.02780985e-03 2.89687142e-03 5.79374260e-04
      5.21436846e-03 5.21436846e-03 1.73812278e-03 1.21668596e-02
      4.34530713e-03 2.46234052e-02 2.89687142e-03 5.21436846e-03
      3.18655837e-03 4.34530713e-03 3.47624556e-03 8.69061390e-04
      2.60718423e-03 6.66280417e-03 5.50405541e-03 8.40092637e-03
      3.76593275e-03 4.92468104e-03 9.26998816e-03 7.53186550e-03
      1.07184239e-02 1.15874857e-02 2.60718423e-03 8.69061390e-04
      2.02780985e-03 2.60718423e-03 2.60718423e-03 2.89687142e-03
      2.02780985e-03 4.05561971e-03 1.44843571e-03 1.44843562e-02
      4.05561971e-03 6.66280417e-03 5.79374260e-04 1.73812278e-03
      5.21436846e-03 2.60718423e-03 2.31749704e-03 1.73812278e-03
      5.79374260e-04 5.79374260e-04 1.44843571e-03 5.50405541e-03
      4.08458859e-02 8.69061390e-04 4.05561971e-03 1.44843571e-03
      5.50405541e-03 1.44843571e-03 2.31749704e-03 2.89687130e-04
      1.44843571e-03 4.34530713e-03 2.89687142e-03 6.95249112e-03
      6.95249112e-03 6.95249112e-03 2.89687142e-03 3.18655837e-03
      2.31749704e-03 7.82155246e-03 5.79374284e-03 4.05561971e-03
      4.05561971e-03 1.73812278e-03 4.92468104e-03 1.10081108e-02
      7.82155246e-03 2.02780985e-03 8.11123941e-03 2.31749704e-03
      1.73812278e-03 2.60718423e-03 1.73812278e-03 1.44843571e-03
      2.60718423e-03 3.18655837e-03 2.60718423e-03 6.08342979e-03
      5.50405541e-03 1.15874852e-03 1.15874852e-03 5.79374284e-03
      5.79374284e-03 3.76593275e-03 2.60718423e-03 4.92468104e-03
      1.73812278e-03 1.70915406e-02 3.18655837e-03 8.69061390e-04
      8.69061390e-04 6.66280417e-03 6.95249112e-03 2.31749704e-03
      4.05561971e-03 2.89687142e-03 6.37311675e-03 7.53186550e-03
      6.95249112e-03 1.73812278e-03 4.05561971e-03 5.79374260e-04
      1.07184239e-02 1.65121667e-02 2.60718423e-03 4.63499408e-03
      8.69061390e-04 5.79374260e-04 1.15874852e-03 5.79374260e-04
      1.73812278e-03 1.27462335e-02 1.15874857e-02 2.31749704e-03
      7.53186550e-03 4.92468104e-03 1.73812278e-03 3.47624556e-03
      4.92468104e-03 1.73812278e-03 7.82155246e-03 8.69061390e-04
      6.37311675e-03 1.53534180e-02 2.89687142e-03 3.47624556e-03
      2.31749704e-03 2.02780985e-03 4.63499408e-03 3.47624556e-03</_>
    <_>
      0. 9.11577023e-04 2.73473095e-03 3.64630809e-03 1.18505014e-02
      1.82315405e-03 1.00273471e-02 1.18505014e-02 3.64630809e-03
      1.18505014e-02 1.82315405e-03 8.20419285e-03 0. 0. 1.09389238e-02
      2.73473095e-03 9.11577023e-04 5.46946190e-03 2.73473095e-03 0.
      1.09389238e-02 0. 2.73473095e-03 5.46946190e-03 1.00273471e-02
      9.11577023e-04 7.29261618e-03 0. 4.55788523e-03 3.64630809e-03
      9.11577023e-04 1.82315405e-03 3.64630809e-03 4.55788523e-03
      9.11577046e-03 3.64630809e-03 5.46946190e-03 1.82315405e-03
      3.64630809e-03 1.82315405e-03 7.29261618e-03 0. 1.82315405e-03
      4.55788523e-03 1.82315405e-03 9.11577023e-04 4.55788523e-03 0.
      1.82315405e-03 1.09389238e-02 6.38103904e-03 1.82315405e-03
      4.55788523e-03 1.82315405e-03 5.46946190e-03 2.73473095e-03
      1.82315405e-03 5.46946190e-03 3.55515033e-02 1.82315405e-03
      9.11577023e-04 4.55788523e-03 2.73473095e-03 0. 6.38103904e-03 0.
      0. 2.73473095e-03 3.64630809e-03 6.38103904e-03 1.82315405e-03
      8.20419285e-03 1.36736557e-02 1.54968090e-02 5.46946190e-03
      6.38103904e-03 9.11577023e-04 0. 2.73473095e-03 9.11577023e-04
      1.82315405e-03 9.11577023e-04 9.11577046e-03 1.27620781e-02
      2.73473095e-03 7.29261618e-03 1.09389238e-02 4.55788523e-03
      2.09662709e-02 1.82315409e-02 4.55788523e-03 1.00273471e-02
      2.00546943e-02 0. 9.11577023e-04 1.82315405e-03 7.29261618e-03
      6.38103904e-03 5.46946190e-03 0. 1.00273471e-02 1.82315405e-03
      4.55788523e-03 1.09389238e-02 0. 2.73473095e-03 1.82315405e-03
      7.29261618e-03 3.64630809e-03 1.82315405e-03 9.11577023e-04
      3.64630809e-03 2.55241562e-02 1.82315405e-03 1.82315405e-03
      4.55788523e-03 1.45852324e-02 2.73473095e-03 1.82315405e-03
      3.64630809e-03 1.82315405e-03 2.73473095e-03 4.55788523e-03
      9.11577023e-04 1.82315405e-03 0. 2.73473095e-03 2.73473095e-03
      3.64630809e-03 9.11577023e-04 0. 8.20419285e-03 4.55788523e-03
      2.73473095e-03 2.73473095e-03 9.11577023e-04 1.36736557e-02
      4.55788523e-03 2.09662709e-02 0. 5.46946190e-03 6.38103904e-03
      5.46946190e-03 4.55788523e-03 5.46946190e-03 2.73473095e-03
      2.73473095e-03 1.45852324e-02 0. 1.82315405e-03 9.11577023e-04
      2.73473095e-03 5.46946190e-03 1.64083857e-02 3.64630809e-03
      2.73473095e-03 1.82315405e-03 0. 2.73473095e-03 7.29261618e-03
      1.00273471e-02 3.64630809e-03 6.38103904e-03 3.64630809e-03
      9.11577023e-04 9.11577023e-04 1.00273471e-02 9.11577023e-04
      9.11577046e-03 3.64630809e-03 0. 1.82315405e-03 9.11577023e-04
      1.27620781e-02 5.46946190e-03 1.00273471e-02 7.29261618e-03
      6.38103904e-03 4.55788523e-03 0. 1.82315405e-03 0. 2.73473114e-02
      1.18505014e-02 7.29261618e-03 5.46946190e-03 5.46946190e-03
      3.64630809e-03 4.55788523e-03 5.46946190e-03 5.46946190e-03
      2.73473095e-03 9.11577046e-03 0. 4.55788523e-03 2.73473095e-03
      2.73473095e-03 3.64630809e-03 1.82315405e-03 1.36736557e-02</_>
    <_>
      1.32860942e-03 8.85739573e-04 1.15146143e-02 4.87156771e-03
      4.42869775e-03 4.42869775e-03 1.59433130e-02 3.98582825e-03
      3.54295829e-03 3.10008856e-03 6.64304662e-03 1.77147910e-02
      8.85739573e-04 8.85739573e-04 6.64304662e-03 3.10008856e-03
      4.42869787e-04 3.10008856e-03 3.10008856e-03 4.42869787e-04
      4.87156771e-03 8.85739573e-04 8.85739573e-04 1.77147915e-03
      7.97165651e-03 1.32860942e-03 5.75730717e-03 0. 2.65721884e-03
      2.65721884e-03 3.54295829e-03 3.54295829e-03 7.52878655e-03
      1.06288753e-02 1.32860932e-02 3.10008856e-03 2.65721884e-03
      2.65721884e-03 4.87156771e-03 1.77147915e-03 3.10008856e-03
      2.21434887e-03 2.65721884e-03 4.42869787e-04 3.54295829e-03
      6.64304662e-03 6.20017713e-03 3.10008856e-03 4.42869787e-04
      3.10008856e-03 3.10008856e-03 1.32860942e-03 1.77147915e-03
      8.85739573e-04 3.54295829e-03 3.54295829e-03 2.65721884e-03
      4.87156771e-03 4.96014170e-02 4.87156771e-03 1.32860942e-03
      3.54295829e-03 2.17006188e-02 1.32860942e-03 6.64304662e-03
      2.21434887e-03 8.85739573e-04 2.21434887e-03 2.65721884e-03
      4.87156771e-03 4.42869775e-03 4.87156771e-03 5.75730717e-03
      1.55004421e-02 6.20017713e-03 2.65721884e-03 8.85739573e-04 0.
      1.77147915e-03 3.10008856e-03 8.85739573e-04 4.42869787e-04
      7.52878655e-03 8.85739550e-03 1.24003543e-02 5.31443767e-03
      1.15146143e-02 1.77147915e-03 9.30026546e-03 2.87865363e-02
      6.20017713e-03 1.77147915e-03 8.85739550e-03 4.42869787e-04
      1.77147915e-03 3.54295829e-03 6.64304662e-03 2.21434887e-03
      2.65721884e-03 0. 1.46147031e-02 2.21434887e-03 4.87156771e-03
      2.21434887e-03 0. 4.42869775e-03 5.31443767e-03 5.31443767e-03
      8.85739573e-04 1.77147915e-03 3.10008856e-03 3.54295829e-03
      2.03720108e-02 4.87156771e-03 4.42869787e-04 2.65721884e-03
      1.06288753e-02 1.77147915e-03 3.10008856e-03 3.54295829e-03
      4.42869775e-03 3.54295829e-03 3.10008856e-03 1.77147915e-03
      4.42869775e-03 3.54295829e-03 2.65721884e-03 1.32860942e-03
      1.77147915e-03 8.85739573e-04 0. 9.74313542e-03 2.21434887e-03
      6.20017713e-03 8.85739573e-04 4.42869787e-04 1.77147910e-02 0.
      2.87865363e-02 2.21434887e-03 8.85739573e-04 5.31443767e-03
      3.54295829e-03 3.98582825e-03 1.77147915e-03 1.32860942e-03
      1.77147915e-03 5.31443767e-03 3.10008856e-03 3.98582825e-03
      3.10008856e-03 3.98582825e-03 1.32860942e-03 1.06288753e-02
      3.98582825e-03 2.21434887e-03 1.32860942e-03 0. 7.08591659e-03
      7.97165651e-03 2.65721865e-02 5.31443767e-03 1.68290511e-02
      7.97165651e-03 8.85739573e-04 3.54295829e-03 3.54295829e-03
      4.42869775e-03 6.64304662e-03 2.21434887e-03 8.85739573e-04
      8.85739573e-04 8.85739573e-04 2.21434887e-02 2.65721884e-03
      7.08591659e-03 3.10008856e-03 1.77147915e-03 2.21434887e-03
      2.21434887e-03 4.87156771e-03 0. 2.65721865e-02 5.75730717e-03
      5.31443767e-03 4.87156771e-03 6.64304662e-03 3.54295829e-03
      2.65721884e-03 3.98582825e-03 2.65721884e-03 8.85739573e-04
      5.31443767e-03 8.85739573e-04 2.08148807e-02 1.77147915e-03
      2.65721884e-03 4.87156771e-03 1.77147915e-03 7.97165651e-03</_>
    <_>
      1.31406039e-02 6.57030195e-03 3.94218136e-03 2.62812083e-03
      1.05124833e-02 1.31406041e-03 3.94218136e-03 3.94218136e-03 0.
      1.31406041e-03 5.25624165e-03 9.19842254e-03 6.57030195e-03
      3.94218136e-03 6.57030195e-03 2.62812083e-03 1.31406041e-03
      5.25624165e-03 1.31406041e-03 1.31406041e-03 1.97109058e-02 0.
      3.94218136e-03 6.57030195e-03 3.94218136e-03 6.57030195e-03
      1.83968451e-02 0. 5.25624165e-03 1.31406041e-03 1.31406041e-03
      3.94218136e-03 1.31406041e-03 1.31406041e-03 1.31406041e-03
      5.25624165e-03 1.31406039e-02 2.62812083e-03 1.31406041e-03
      3.94218136e-03 2.62812083e-03 2.62812083e-03 9.19842254e-03
      1.05124833e-02 2.62812083e-03 2.62812083e-03 7.88436271e-03 0. 0.
      1.31406041e-03 6.57030195e-03 2.62812083e-03 5.25624165e-03
      3.94218136e-03 3.94218136e-03 2.62812083e-03 1.31406041e-03
      1.31406041e-03 1.31406039e-02 1.18265441e-02 3.94218136e-03
      2.62812083e-03 2.62812083e-03 0. 2.62812083e-03 6.57030195e-03
      1.31406041e-03 3.94218136e-03 2.62812083e-03 2.62812083e-03
      2.62812083e-03 9.19842254e-03 9.19842254e-03 9.19842254e-03
      1.44546647e-02 0. 0. 6.57030195e-03 9.19842254e-03 5.25624165e-03
      6.57030195e-03 1.31406041e-03 1.18265441e-02 1.44546647e-02
      2.62812083e-03 6.57030195e-03 1.57687254e-02 7.88436271e-03
      2.62812083e-03 2.75952686e-02 7.88436271e-03 1.31406041e-03 0.
      2.62812083e-03 3.94218136e-03 3.94218136e-03 6.57030195e-03
      2.62812083e-03 0. 0. 3.94218136e-03 7.88436271e-03 7.88436271e-03
      6.57030195e-03 2.62812083e-03 1.31406039e-02 1.31406041e-03
      7.88436271e-03 3.94218136e-03 5.25624165e-03 3.94218136e-03
      7.88436271e-03 1.05124833e-02 1.31406041e-03 9.19842254e-03
      5.25624165e-03 3.94218136e-03 5.25624165e-03 0. 3.94218136e-03
      2.62812083e-03 3.94218136e-03 5.25624165e-03 6.57030195e-03 0.
      1.31406041e-03 5.25624165e-03 1.31406041e-03 1.31406041e-03
      5.25624165e-03 1.31406041e-03 1.31406041e-03 1.31406041e-03
      3.94218136e-03 7.88436271e-03 1.18265441e-02 7.88436271e-03 0.
      2.10249666e-02 2.62812083e-03 6.57030195e-03 3.94218136e-03 0. 0.
      1.31406041e-03 7.88436271e-03 2.62812083e-03 9.19842254e-03
      2.62812083e-03 0. 9.19842254e-03 0. 2.62812083e-03 7.88436271e-03
      2.62812083e-03 1.31406041e-03 1.31406041e-03 0. 0. 5.25624165e-03
      2.62812083e-03 5.25624165e-03 2.10249666e-02 6.57030195e-03
      2.62812083e-03 2.62812083e-03 1.57687254e-02 0. 2.62812083e-03
      2.62812083e-03 0. 1.31406041e-03 5.25624165e-03 7.88436271e-03
      1.18265441e-02 5.25624165e-03 3.94218136e-03 3.94218136e-03
      6.57030195e-03 1.31406041e-03 3.94218136e-03 0. 2.62812078e-02 0.
      2.10249666e-02 2.62812083e-03 5.25624165e-03 1.44546647e-02
      3.94218136e-03 6.57030195e-03 3.94218136e-03 2.62812083e-03
      5.25624165e-03 0. 2.62812083e-03 2.62812083e-03 3.94218136e-03
      7.88436271e-03 0. 5.25624165e-03</_>
    <_>
      3.48432036e-03 6.38792105e-03 6.96864072e-03 1.74216018e-03
      5.22648077e-03 1.74216018e-03 1.80023219e-02 2.90360046e-03
      4.64576064e-03 1.74216018e-03 3.48432036e-03 6.38792105e-03
      4.64576064e-03 1.74216018e-03 4.64576064e-03 0. 4.06504050e-03
      6.38792105e-03 4.06504050e-03 5.80720080e-04 1.21951215e-02
      1.16144016e-03 2.90360046e-03 8.13008100e-03 4.06504050e-03
      3.48432036e-03 8.13008100e-03 0. 5.80720080e-04 8.71080160e-03
      1.16144016e-03 5.80720080e-04 1.16144016e-03 5.22648077e-03
      8.71080160e-03 7.54936086e-03 1.33565618e-02 5.80720080e-04
      3.48432036e-03 1.16144016e-03 3.48432036e-03 1.16144016e-03
      1.16144018e-02 6.38792105e-03 3.48432036e-03 1.16144016e-03
      2.32288032e-03 2.90360046e-03 2.90360046e-03 0. 3.48432036e-03 0.
      2.32288032e-03 1.74216018e-03 5.80720091e-03 4.06504050e-03
      2.32288032e-03 2.32288032e-03 1.50987217e-02 5.22648077e-03
      1.74216018e-03 4.06504050e-03 4.06504050e-03 0. 9.87224095e-03
      7.54936086e-03 4.06504050e-03 2.90360046e-03 2.32288032e-03
      1.74216018e-03 2.32288032e-03 5.80720091e-03 6.96864072e-03
      4.64576064e-03 2.09059231e-02 1.16144016e-03 2.32288032e-03
      5.22648077e-03 9.87224095e-03 1.74216018e-03 4.64576064e-03
      5.80720080e-04 6.38792105e-03 1.16144018e-02 3.48432036e-03
      3.48432036e-03 1.85830425e-02 1.74216018e-03 6.38792105e-03
      1.16144018e-02 4.64576064e-03 0. 0. 1.16144016e-03 1.74216018e-03
      4.64576064e-03 9.87224095e-03 3.48432036e-03 1.74216018e-03
      3.48432036e-03 6.96864072e-03 2.32288032e-03 6.38792105e-03
      5.22648077e-03 4.06504050e-03 4.06504050e-03 5.80720080e-04
      5.22648077e-03 5.80720080e-04 2.90360046e-03 1.16144016e-03
      6.96864072e-03 1.80023219e-02 5.80720080e-04 9.87224095e-03
      1.74216018e-03 3.48432036e-03 2.32288032e-03 3.48432036e-03
      5.80720080e-04 2.32288032e-03 5.22648077e-03 3.48432036e-03
      1.27758421e-02 5.80720091e-03 5.80720080e-04 4.06504050e-03
      4.64576064e-03 1.74216018e-03 3.48432036e-03 1.74216018e-03
      9.87224095e-03 3.48432036e-03 3.48432036e-03 1.16144016e-03
      5.80720091e-03 2.84552835e-02 5.80720080e-04 2.55516842e-02
      1.16144016e-03 2.32288032e-03 6.96864072e-03 2.32288032e-03
      2.32288032e-03 2.32288032e-03 3.48432036e-03 5.80720080e-04
      1.04529615e-02 1.74216018e-03 4.06504050e-03 3.48432036e-03
      2.90360046e-03 1.74216018e-03 4.64576064e-03 1.04529615e-02
      1.16144016e-03 1.16144016e-03 2.32288032e-03 2.32288032e-03
      4.64576064e-03 1.04529615e-02 2.32288032e-03 4.52961661e-02
      4.06504050e-03 1.16144016e-03 1.74216018e-03 1.27758421e-02
      5.80720080e-04 1.16144016e-03 6.38792105e-03 0. 5.80720080e-04
      5.80720091e-03 5.22648077e-03 1.16144016e-03 9.29152127e-03
      2.90360046e-03 5.22648077e-03 5.22648077e-03 5.80720080e-04
      4.06504050e-03 0. 1.62601620e-02 4.64576064e-03 3.83275263e-02
      1.56794414e-02 5.22648077e-03 1.16144016e-03 4.64576064e-03
      5.22648077e-03 5.22648077e-03 2.32288032e-03 5.80720091e-03
      1.74216018e-03 5.80720091e-03 2.32288032e-03 2.32288032e-03
      1.16144018e-02 0. 4.64576064e-03</_>
    <_>
      1.31406039e-02 6.57030195e-03 3.94218136e-03 2.62812083e-03
      1.05124833e-02 1.31406041e-03 3.94218136e-03 3.94218136e-03 0.
      1.31406041e-03 5.25624165e-03 9.19842254e-03 6.57030195e-03
      3.94218136e-03 6.57030195e-03 2.62812083e-03 1.31406041e-03
      5.25624165e-03 1.31406041e-03 1.31406041e-03 1.97109058e-02 0.
      3.94218136e-03 6.57030195e-03 3.94218136e-03 6.57030195e-03
      1.83968451e-02 0. 5.25624165e-03 1.31406041e-03 1.31406041e-03
      3.94218136e-03 1.31406041e-03 1.31406041e-03 1.31406041e-03
      5.25624165e-03 1.31406039e-02 2.62812083e-03 1.31406041e-03
      3.94218136e-03 2.62812083e-03 2.62812083e-03 9.19842254e-03
      1.05124833e-02 2.62812083e-03 2.62812083e-03 7.88436271e-03 0. 0.
      1.31406041e-03 6.57030195e-03 2.62812083e-03 5.25624165e-03
      3.94218136e-03 3.94218136e-03 2.62812083e-03 1.31406041e-03
      1.31406041e-03 1.31406039e-02 1.18265441e-02 3.94218136e-03
      2.62812083e-03 2.62812083e-03 0. 2.62812083e-03 6.57030195e-03
      1.31406041e-03 3.94218136e-03 2.62812083e-03 2.62812083e-03
      2.62812083e-03 9.19842254e-03 9.19842254e-03 9.19842254e-03
      1.44546647e-02 0. 0. 6.57030195e-03 9.19842254e-03 5.25624165e-03
      6.57030195e-03 1.31406041e-03 1.18265441e-02 1.44546647e-02
      2.62812083e-03 6.57030195e-03 1.57687254e-02 7.88436271e-03
      2.62812083e-03 2.75952686e-02 7.88436271e-03 1.31406041e-03 0.
      2.62812083e-03 3.94218136e-03 3.94218136e-03 6.57030195e-03
      2.62812083e-03 0. 0. 3.94218136e-03 7.88436271e-03 7.88436271e-03
      6.57030195e-03 2.62812083e-03 1.31406039e-02 1.31406041e-03
      7.88436271e-03 3.94218136e-03 5.25624165e-03 3.94218136e-03
      7.88436271e-03 1.05124833e-02 1.31406041e-03 9.19842254e-03
      5.25624165e-03 3.94218136e-03 5.25624165e-03 0. 3.94218136e-03
      2.62812083e-03 3.94218136e-03 5.25624165e-03 6.57030195e-03 0.
      1.31406041e-03 5.25624165e-03 1.31406041e-03 1.31406041e-03
      5.25624165e-03 1.31406041e-03 1.31406041e-03 1.31406041e-03
      3.94218136e-03 7.88436271e-03 1.18265441e-02 7.88436271e-03 0.
      2.10249666e-02 2.62812083e-03 6.57030195e-03 3.94218136e-03 0. 0.
      1.31406041e-03 7.88436271e-03 2.62812083e-03 9.19842254e-03
      2.62812083e-03 0. 9.19842254e-03 0. 2.62812083e-03 7.88436271e-03
      2.62812083e-03 1.31406041e-03 1.31406041e-03 0. 0. 5.25624165e-03
      2.62812083e-03 5.25624165e-03 2.10249666e-02 6.57030195e-03
      2.62812083e-03 2.62812083e-03 1.57687254e-02 0. 2.62812083e-03
      2.62812083e-03 0. 1.31406041e-03 5.25624165e-03 7.88436271e-03
      1.18265441e-02 5.25624165e-03 3.94218136e-03 3.94218136e-03
      6.57030195e-03 1.31406041e-03 3.94218136e-03 0. 2.62812078e-02 0.
      2.10249666e-02 2.62812083e-03 5.25624165e-03 1.44546647e-02
      3.94218136e-03 6.57030195e-03 3.94218136e-03 2.62812083e-03
      5.25624165e-03 0. 2.62812083e-03 2.62812083e-03 3.94218136e-03
      7.88436271e-03 0. 5.25624165e-03</_>
    <_>
      0. 1.16448328e-02 5.82241639e-03 2.91120820e-03 4.36681230e-03 0.
      2.03784574e-02 0. 1.45560410e-03 5.82241639e-03 5.82241639e-03
      8.73362459e-03 1.45560410e-03 0. 2.32896656e-02 1.45560410e-03
      1.45560410e-03 4.36681230e-03 1.45560410e-03 2.91120820e-03
      1.60116442e-02 0. 0. 7.27802049e-03 2.91120820e-03 2.91120820e-03
      1.01892287e-02 2.91120820e-03 4.36681230e-03 4.36681230e-03
      1.45560410e-03 0. 0. 1.45560410e-03 1.01892287e-02 7.27802049e-03
      4.36681230e-03 1.45560410e-03 2.91120820e-03 1.45560410e-03
      2.91120820e-03 0. 5.82241639e-03 2.91120820e-03 0. 2.91120820e-03
      1.01892287e-02 1.01892287e-02 4.36681230e-03 0. 1.01892287e-02
      4.36681230e-03 4.36681230e-03 7.27802049e-03 4.36681230e-03
      4.36681230e-03 0. 2.91120820e-03 2.18340605e-02 1.45560410e-03
      1.45560410e-03 2.91120820e-03 2.91120820e-03 5.82241639e-03
      2.32896656e-02 5.82241639e-03 1.45560410e-03 4.36681230e-03
      2.91120820e-03 1.45560410e-03 0. 4.36681230e-03 1.45560410e-03
      1.45560410e-02 1.31004369e-02 7.27802049e-03 2.91120820e-03
      4.36681230e-03 5.82241639e-03 0. 1.16448328e-02 0. 1.31004369e-02
      7.27802049e-03 4.36681230e-03 1.45560410e-03 1.45560410e-02 0.
      2.91120820e-03 1.89228542e-02 2.91120820e-03 0. 2.91120820e-03
      2.91120820e-03 2.91120820e-03 1.45560410e-03 8.73362459e-03
      7.27802049e-03 0. 0. 4.36681230e-03 0. 1.45560410e-03 0.
      1.45560410e-03 4.36681230e-03 1.45560410e-03 4.36681230e-03
      2.91120820e-03 2.91120820e-03 4.36681230e-03 1.01892287e-02
      2.91120820e-02 0. 5.82241639e-03 0. 1.45560410e-03 1.45560410e-03
      2.91120820e-03 2.91120820e-03 5.82241639e-03 7.27802049e-03
      1.45560410e-03 4.36681230e-03 4.36681230e-03 1.45560410e-03
      7.27802049e-03 2.91120820e-03 1.45560410e-03 0. 0. 4.36681230e-03
      5.82241639e-03 1.45560410e-03 1.01892287e-02 2.91120820e-03
      3.49344984e-02 0. 2.47452706e-02 1.45560410e-03 2.91120820e-03
      1.45560410e-03 1.45560410e-03 0. 0. 8.73362459e-03 2.91120820e-03
      8.73362459e-03 0. 1.45560410e-03 4.36681230e-03 7.27802049e-03
      2.91120820e-03 1.16448328e-02 5.82241639e-03 0. 2.91120820e-03 0.
      0. 2.91120820e-03 2.47452706e-02 5.82241639e-03 2.62008738e-02
      1.01892287e-02 1.45560410e-03 0. 1.45560410e-02 1.60116442e-02
      1.45560410e-03 7.27802049e-03 0. 2.91120820e-03 1.45560410e-03
      5.82241639e-03 1.60116442e-02 2.91120820e-03 7.27802049e-03 0.
      2.91120820e-03 0. 1.45560410e-03 0. 1.31004369e-02 1.45560410e-03
      2.03784574e-02 8.73362459e-03 2.91120820e-03 2.91120820e-03
      2.91120820e-03 1.45560410e-03 4.36681230e-03 0. 7.27802049e-03 0.
      2.91120820e-03 4.36681230e-03 5.82241639e-03 2.91120820e-03
      1.45560410e-03 4.36681230e-03</_>
    <_>
      7.20461074e-04 2.88184430e-03 7.92507175e-03 2.16138316e-03
      8.64553265e-03 7.20461074e-04 1.51296826e-02 1.44092215e-03
      4.32276633e-03 3.60230543e-03 1.44092215e-03 9.36599355e-03 0.
      7.20461074e-04 7.20461085e-03 4.32276633e-03 5.76368859e-03
      3.60230543e-03 4.32276633e-03 0. 9.36599355e-03 1.44092215e-03
      1.44092215e-03 1.44092215e-03 7.20461085e-03 1.44092215e-03
      6.48414949e-03 0. 2.16138316e-03 1.15273772e-02 2.88184430e-03 0.
      5.76368859e-03 1.44092217e-02 7.20461085e-03 5.04322769e-03
      4.32276633e-03 1.44092215e-03 2.88184430e-03 7.20461074e-04
      5.04322769e-03 0. 2.16138316e-03 2.88184430e-03 2.16138316e-03
      7.20461074e-04 4.32276633e-03 1.44092215e-03 7.20461074e-04 0.
      2.16138316e-03 1.44092215e-03 1.44092215e-03 2.16138316e-03
      2.88184430e-03 2.88184430e-03 1.44092215e-03 7.20461085e-03
      8.64553265e-03 1.44092215e-03 6.48414949e-03 7.20461085e-03
      5.04322769e-03 0. 7.20461085e-03 1.44092215e-03 2.16138316e-03
      4.32276633e-03 0. 2.16138316e-03 2.88184430e-03 2.16138316e-03
      6.48414949e-03 9.36599355e-03 1.36887608e-02 4.32276633e-03
      7.20461074e-04 8.64553265e-03 3.60230543e-03 7.20461074e-04
      2.88184430e-03 7.20461074e-04 7.92507175e-03 4.32276633e-03
      3.60230543e-03 2.16138316e-03 7.92507175e-03 5.04322769e-03
      7.92507175e-03 1.22478381e-02 4.32276633e-03 7.20461074e-04 0.
      1.44092215e-03 1.44092215e-03 5.04322769e-03 5.04322769e-03
      2.88184430e-03 2.16138316e-03 0. 5.76368859e-03 0. 6.48414949e-03
      1.44092215e-03 0. 1.08069163e-02 2.88184430e-03 4.32276633e-03
      2.88184430e-03 4.32276633e-03 2.16138316e-03 4.32276633e-03
      1.36887608e-02 0. 1.08069163e-02 2.16138316e-03 4.32276633e-03
      2.88184430e-03 1.44092215e-03 6.48414949e-03 5.04322769e-03
      4.32276633e-03 1.08069163e-02 6.48414949e-03 2.52161380e-02
      3.38616706e-02 3.60230543e-03 0. 2.16138316e-03 2.16138316e-03 0.
      9.36599355e-03 5.04322769e-03 3.60230543e-03 2.88184430e-03
      7.20461074e-04 1.80115271e-02 7.20461074e-04 2.52161380e-02
      2.16138316e-03 2.88184430e-03 9.36599355e-03 1.22478381e-02
      2.88184430e-03 7.20461074e-04 7.20461074e-04 1.44092215e-03
      6.48414949e-03 7.20461085e-03 3.60230543e-03 7.20461074e-04
      3.60230543e-03 2.01729108e-02 2.88184430e-03 4.32276633e-03
      1.58501435e-02 2.16138316e-03 0. 2.88184430e-03 5.76368859e-03
      1.87319871e-02 1.29682990e-02 2.01729108e-02 1.08069163e-02
      1.44092215e-03 2.16138316e-03 1.00864554e-02 7.20461085e-03
      7.20461085e-03 1.44092215e-03 7.20461074e-04 2.16138316e-03
      3.60230543e-03 5.04322769e-03 2.88184430e-03 5.04322769e-03
      5.04322769e-03 4.32276633e-03 7.92507175e-03 0. 0. 1.44092215e-03
      7.20461085e-03 1.51296826e-02 1.08069163e-02 4.32276633e-03
      3.60230543e-03 2.88184430e-03 1.72910653e-02 6.48414949e-03
      1.51296826e-02 0. 2.88184430e-03 0. 1.22478381e-02 6.48414949e-03
      5.04322769e-03 7.92507175e-03 3.60230543e-03 5.04322769e-03</_></support_vectors>
  <decision_functions>
    <_>
      <sv_count>18</sv_count>
      <rho>-1.0002351601158534e+00</rho>
      <alpha>
        2.5876229413986745e-01 1.6468438700042243e-01 1.
        1.6675647045911932e-01 1.2995898340030260e-01 1.
        2.3887703783309680e-01 4.0147013462599669e-02
        5.4822853707473163e-01 4.0650711015928781e-01
        4.6232345608485570e-01 2.8576196017520683e-01
        2.9799275021050958e-01 -1. -1. -1. -1. -1.</alpha>
      <index>
        0 1 2 3 4 5 6 7 8 9 10 11 12 13 14 15 16 17</index></_></decision_functions></my_svm>
</opencv_storage>
