<?xml version="1.0"?>
<opencv_storage>
<my_svm type_id="opencv-ml-svm">
  <svm_type>C_SVC</svm_type>
  <kernel><type>RBF</type>
    <gamma>1.</gamma></kernel>
  <C>1.</C>
  <term_criteria><epsilon>1.1920928955078125e-07</epsilon>
    <iterations>1000</iterations></term_criteria>
  <var_all>200</var_all>
  <var_count>200</var_count>
  <class_count>2</class_count>
  <class_labels type_id="opencv-matrix">
    <rows>1</rows>
    <cols>2</cols>
    <dt>i</dt>
    <data>
      0 1</data></class_labels>
  <sv_total>18</sv_total>
  <support_vectors>
    <_>
      0. 2.94985250e-03 2.94985250e-03 5.89970499e-03 0. 2.94985250e-03
      1.17994100e-02 2.94985250e-03 0. 2.94985250e-03 1.47492625e-02
      1.17994100e-02 2.94985250e-03 0. 8.84955749e-03 0. 0.
      5.89970499e-03 2.94985250e-02 0. 1.17994100e-02 0. 0. 0.
      2.94985250e-03 8.84955749e-03 2.94985250e-03 0. 0. 0. 0. 0.
      2.94985250e-03 0. 1.47492625e-02 0. 0. 0. 2.94985250e-03
      5.89970499e-03 2.94985250e-03 2.94985250e-03 0. 0. 2.94985250e-03
      0. 1.17994100e-02 5.89970499e-03 0. 1.17994100e-02 0. 0.
      2.94985250e-03 0. 1.47492625e-02 5.89970499e-03 1.17994100e-02 0.
      8.84955749e-03 1.47492625e-02 2.94985250e-03 8.84955749e-03
      2.94985250e-03 0. 5.89970499e-03 2.94985250e-03 2.94985250e-03 0.
      0. 8.84955749e-03 0. 2.94985250e-03 0. 2.94985250e-03 0. 0.
      2.94985250e-03 0. 5.89970499e-03 2.94985250e-03 5.89970499e-03 0.
      5.89970499e-03 0. 2.94985250e-03 2.94985250e-03 5.89970499e-03 0.
      0. 0. 1.17994100e-02 0. 2.94985250e-03 5.89970499e-03
      1.47492625e-02 5.89970499e-03 1.76991150e-02 0. 0. 5.89970499e-03
      8.84955749e-03 0. 2.94985250e-03 2.94985250e-03 1.17994100e-02 0.
      5.89970499e-03 0. 1.47492625e-02 2.94985250e-03 0. 0.
      1.47492625e-02 0. 2.94985250e-03 0. 5.89970499e-03 8.84955749e-03
      5.89970499e-03 5.89970499e-03 1.17994100e-02 0. 8.84955749e-03 0.
      2.06489675e-02 1.47492625e-02 8.84955749e-03 2.94985250e-03
      5.89970499e-03 5.89970499e-03 2.94985250e-03 3.24483775e-02 0. 0.
      2.94985250e-03 0. 1.76991150e-02 0. 1.47492625e-02 0.
      2.94985250e-03 2.94985250e-03 5.89970499e-03 0. 8.84955749e-03 0.
      2.94985250e-03 1.47492625e-02 0. 0. 8.84955749e-03 2.94985250e-03
      0. 1.76991150e-02 0. 1.47492625e-02 0. 0. 1.76991150e-02
      1.17994100e-02 3.24483775e-02 0. 2.94985250e-03 2.94985250e-03
      2.94985250e-03 2.06489675e-02 2.35988200e-02 5.89970499e-03
      8.84955749e-03 0. 0. 2.94985250e-03 5.89970499e-03 2.94985250e-03
      5.89970499e-03 5.89970499e-03 1.17994100e-02 2.65486725e-02 0. 0.
      0. 0. 0. 0. 2.94985250e-03 2.94985250e-03 1.17994100e-02
      1.47492625e-02 5.89970499e-03 2.94985250e-03 5.89970499e-03 0. 0.
      2.94985250e-03 5.89970499e-03 0. 5.89970499e-03 0. 0.
      2.06489675e-02</_>
    <_>
      0. 3.87596898e-02 7.75193796e-03 0. 1.55038759e-02 0.
      1.55038759e-02 0. 0. 0. 0. 7.75193796e-03 7.75193796e-03 0.
      7.75193796e-03 0. 0. 7.75193796e-03 1.55038759e-02 0.
      7.75193796e-03 7.75193796e-03 7.75193796e-03 2.32558139e-02
      1.55038759e-02 0. 0. 0. 1.55038759e-02 7.75193796e-03 0. 0.
      7.75193796e-03 0. 7.75193796e-03 0. 0. 0. 0. 7.75193796e-03
      7.75193796e-03 1.55038759e-02 0. 0. 1.55038759e-02 0.
      3.10077518e-02 0. 0. 0. 0. 1.55038759e-02 0. 0. 1.55038759e-02
      7.75193796e-03 1.55038759e-02 0. 0. 0. 0. 0. 0. 0. 0. 0. 0. 0. 0.
      0. 0. 0. 7.75193796e-03 0. 0. 0. 7.75193796e-03 2.32558139e-02
      7.75193796e-03 0. 0. 0. 0. 0. 0. 0. 7.75193796e-03 0.
      7.75193796e-03 0. 7.75193796e-03 0. 0. 0. 0. 0. 2.32558139e-02
      2.32558139e-02 7.75193796e-03 1.55038759e-02 7.75193796e-03 0.
      7.75193796e-03 7.75193796e-03 0. 0. 0. 7.75193796e-03 0. 0. 0.
      1.55038759e-02 3.87596898e-02 0. 7.75193796e-03 7.75193796e-03 0.
      0. 0. 0. 7.75193796e-03 0. 7.75193796e-03 2.32558139e-02
      1.55038759e-02 0. 0. 7.75193796e-03 0. 0. 0. 2.32558139e-02
      7.75193796e-03 0. 0. 0. 1.55038759e-02 7.75193796e-03 0. 0.
      7.75193796e-03 0. 7.75193796e-03 0. 7.75193796e-03 7.75193796e-03
      1.55038759e-02 0. 7.75193796e-03 0. 7.75193796e-03 0. 0. 0. 0.
      7.75193796e-03 0. 0. 0. 7.75193796e-03 0. 0. 0. 0. 0.
      1.55038759e-02 2.32558139e-02 7.75193796e-03 7.75193796e-03
      1.55038759e-02 0. 0. 7.75193796e-03 7.75193796e-03 0.
      7.75193796e-03 2.32558139e-02 7.75193796e-03 0. 0. 7.75193796e-03
      0. 0. 0. 0. 7.75193796e-03 7.75193796e-03 0. 0. 7.75193796e-03 0.
      0. 1.55038759e-02 1.55038759e-02 2.32558139e-02 0. 0. 0. 0. 0.</_>
    <_>
      1.19474309e-03 1.07526882e-02 1.19474307e-02 3.58422939e-03
      8.36320128e-03 1.19474309e-03 2.38948618e-03 3.58422939e-03
      3.58422939e-03 7.16845877e-03 3.58422939e-03 5.97371534e-03 0.
      1.19474309e-03 4.77897236e-03 3.58422939e-03 5.97371534e-03
      1.07526882e-02 3.58422939e-03 0. 1.07526882e-02 3.58422939e-03
      8.36320128e-03 1.07526882e-02 1.55316601e-02 4.77897236e-03
      1.19474307e-02 0. 1.19474309e-03 2.38948618e-03 7.16845877e-03 0.
      9.55794472e-03 7.16845877e-03 5.97371534e-03 2.38948618e-03
      2.38948618e-03 5.97371534e-03 1.43369175e-02 0. 7.16845877e-03
      5.97371534e-03 7.16845877e-03 1.19474309e-03 4.77897236e-03
      1.19474309e-03 1.19474307e-02 4.77897236e-03 1.19474309e-03
      1.19474307e-02 4.77897236e-03 2.38948618e-03 3.58422939e-03
      1.19474309e-03 8.36320128e-03 1.19474309e-03 3.58422939e-03
      2.38948618e-03 3.58422939e-03 2.38948618e-03 4.77897236e-03
      1.07526882e-02 7.16845877e-03 0. 5.97371534e-03 4.77897236e-03
      5.97371534e-03 5.97371534e-03 1.19474309e-03 3.58422939e-03
      1.19474309e-03 1.19474309e-03 2.38948613e-02 1.19474309e-03
      5.97371534e-03 5.97371534e-03 1.19474309e-03 7.16845877e-03
      1.55316601e-02 1.19474309e-03 1.19474309e-03 0. 5.97371534e-03
      9.55794472e-03 2.38948618e-03 1.55316601e-02 5.97371534e-03 0.
      5.97371534e-03 2.38948618e-03 9.55794472e-03 3.58422939e-03 0.
      7.16845877e-03 3.58422939e-03 3.58422939e-03 1.07526882e-02
      1.19474309e-03 2.38948618e-03 2.38948618e-03 1.19474309e-03 0.
      3.58422939e-03 5.97371534e-03 1.19474309e-03 2.38948618e-03
      3.58422939e-03 1.19474307e-02 2.38948618e-03 1.43369175e-02
      2.38948618e-03 2.38948618e-03 0. 4.77897236e-03 2.38948618e-03
      2.38948618e-03 1.67264026e-02 4.77897236e-03 1.19474309e-03
      5.97371534e-03 1.19474309e-03 3.58422939e-03 4.77897236e-03
      4.77897236e-03 1.79211460e-02 2.38948618e-03 1.07526882e-02
      7.16845877e-03 3.58422939e-03 3.58422939e-03 0. 4.77897236e-03
      4.77897236e-03 4.77897236e-03 1.19474307e-02 0. 1.07526882e-02
      7.16845877e-03 1.19474307e-02 4.77897236e-03 1.31421741e-02
      3.58422939e-03 1.19474309e-03 2.38948618e-03 3.58422939e-03
      1.19474307e-02 2.38948618e-03 8.36320128e-03 2.38948618e-03
      2.38948618e-03 1.19474309e-03 5.97371534e-03 1.19474309e-03
      8.36320128e-03 0. 4.77897236e-03 2.38948618e-03 0. 1.19474309e-03
      3.58422939e-03 8.36320128e-03 0. 1.07526882e-02 5.97371534e-03
      2.38948618e-03 4.77897236e-03 1.55316601e-02 9.55794472e-03
      5.97371534e-03 2.38948618e-03 0. 3.58422939e-03 2.38948618e-03
      5.97371534e-03 0. 3.58422939e-03 5.97371534e-03 2.38948618e-03
      2.38948618e-03 9.55794472e-03 4.77897236e-03 0. 2.38948618e-03
      5.97371534e-03 1.43369175e-02 2.38948618e-03 8.36320128e-03
      7.16845877e-03 1.19474309e-03 3.58422939e-03 2.38948618e-03
      3.58422939e-03 8.36320128e-03 0. 4.77897236e-03 5.97371534e-03
      2.38948618e-03 5.97371534e-03 0. 8.36320128e-03</_>
    <_>
      5.83941583e-03 1.45985391e-02 7.29926955e-03 4.37956210e-03 0.
      1.45985396e-03 8.75912420e-03 2.91970791e-03 2.91970791e-03
      2.91970791e-03 1.45985396e-03 4.23357636e-02 0. 0. 1.75182484e-02
      0. 0. 1.45985396e-03 0. 2.91970791e-03 7.29926955e-03 0.
      4.37956210e-03 1.45985396e-03 1.31386854e-02 5.83941583e-03
      1.02189779e-02 2.91970791e-03 1.45985396e-03 4.37956210e-03 0.
      4.37956210e-03 0. 1.45985396e-03 1.60583928e-02 7.29926955e-03
      2.91970791e-03 1.45985396e-03 4.37956210e-03 1.45985396e-03
      1.31386854e-02 1.45985396e-03 4.37956210e-03 0. 1.45985396e-03
      2.91970791e-03 4.37956210e-03 8.75912420e-03 1.45985396e-03 0.
      5.83941583e-03 4.37956210e-03 4.37956210e-03 1.45985396e-03
      7.29926955e-03 1.45985391e-02 0. 1.89781021e-02 2.33576633e-02
      2.91970791e-03 0. 0. 4.37956210e-03 0. 1.31386854e-02 0. 0.
      2.91970791e-03 1.45985396e-03 2.91970791e-03 0. 2.91970791e-03
      4.37956210e-03 2.18978096e-02 1.16788317e-02 1.45985396e-03
      1.45985396e-03 0. 4.37956210e-03 1.45985396e-03 1.45985396e-03
      1.45985396e-03 4.37956210e-03 8.75912420e-03 2.91970791e-03 0.
      1.16788317e-02 1.45985396e-03 7.29926955e-03 2.91970791e-03
      4.37956210e-03 0. 0. 1.45985396e-03 0. 0. 2.91970791e-03
      4.37956210e-03 1.45985396e-03 2.91970791e-03 1.45985391e-02
      2.91970791e-03 0. 0. 2.91970791e-03 2.91970791e-03 1.45985396e-03
      4.37956210e-03 2.91970791e-03 1.45985396e-03 0. 4.37956210e-03
      1.72262773e-01 0. 4.37956210e-03 0. 4.37956210e-03 1.45985396e-03
      4.37956210e-03 1.45985396e-03 5.83941583e-03 4.37956210e-03
      2.91970791e-03 5.83941583e-03 4.96350341e-02 1.45985396e-03
      5.83941583e-03 0. 2.91970791e-03 1.16788317e-02 2.91970791e-03 0.
      2.91970791e-03 0. 1.45985396e-03 5.83941583e-03 2.91970791e-03
      1.45985396e-03 4.37956210e-03 0. 0. 0. 1.45985396e-03
      4.37956210e-03 0. 1.02189779e-02 1.45985396e-03 8.75912420e-03 0.
      0. 0. 1.45985396e-03 0. 1.45985396e-03 1.45985396e-03
      1.45985396e-03 1.45985396e-03 2.91970791e-03 0. 0. 5.83941583e-03
      1.45985396e-03 1.02189779e-02 2.91970791e-03 1.45985396e-03
      1.45985396e-03 5.83941583e-03 0. 1.31386854e-02 1.45985396e-03
      5.83941583e-03 0. 5.83941583e-03 7.29926955e-03 0. 1.45985396e-03
      1.45985396e-03 1.45985396e-03 0. 0. 0. 2.91970791e-03
      2.91970791e-03 5.83941583e-03 1.16788317e-02 4.37956210e-03 0.
      1.02189779e-02 1.02189779e-02 0. 1.16788317e-02 0. 2.91970791e-03
      0. 1.16788317e-02 0. 8.75912420e-03 8.75912420e-03 0.
      2.91970791e-03</_>
    <_>
      1.51745067e-03 7.58725312e-03 2.57966612e-02 3.03490134e-03
      6.82852790e-03 4.55235224e-03 6.06980268e-03 2.27617612e-03
      5.31107746e-03 1.28983306e-02 3.03490134e-03 1.21396054e-02 0. 0.
      2.27617612e-03 2.27617612e-03 7.58725335e-04 6.82852790e-03
      3.79362656e-03 0. 6.06980268e-03 1.51745067e-03 7.58725335e-04
      1.21396054e-02 5.31107746e-03 2.27617612e-03 3.79362656e-03 0.
      1.51745067e-03 3.03490134e-03 7.58725335e-04 0. 2.27617612e-03
      9.86342970e-03 8.34597833e-03 5.31107746e-03 7.58725335e-04
      2.27617612e-03 5.31107746e-03 3.03490134e-03 6.06980268e-03
      1.51745067e-03 2.27617612e-03 0. 6.06980268e-03 1.51745067e-03
      3.79362656e-03 6.06980268e-03 3.03490134e-03 7.58725335e-04 0.
      1.51745067e-03 3.79362656e-03 7.58725335e-04 6.06980268e-03
      1.51745067e-03 7.58725335e-04 9.10470448e-03 6.06980268e-03
      2.27617612e-03 0. 9.86342970e-03 1.59332324e-02 0. 6.82852790e-03
      1.51745067e-03 7.58725335e-04 3.03490134e-03 1.51745067e-03
      7.58725335e-04 3.79362656e-03 0. 6.06980268e-03 4.55235224e-03
      9.10470448e-03 1.06221549e-02 7.58725335e-04 1.51745067e-03
      6.06980268e-03 1.51745067e-03 0. 0. 2.27617612e-03 0.
      5.31107746e-03 9.86342970e-03 2.27617612e-03 7.58725335e-04
      5.23520485e-02 6.82852790e-03 6.06980268e-03 2.27617612e-03 0.
      1.51745067e-03 3.03490134e-03 3.03490134e-03 9.86342970e-03
      7.58725335e-04 3.03490134e-03 7.58725335e-04 8.34597833e-03
      3.03490134e-03 5.31107746e-03 1.51745067e-03 2.27617612e-03
      7.58725335e-04 1.51745067e-03 5.31107746e-03 3.79362656e-03
      1.51745067e-03 7.58725335e-04 9.86342970e-03 3.79362656e-03 0.
      3.03490134e-03 2.27617612e-03 6.82852790e-03 1.51745067e-03
      7.58725335e-04 1.21396054e-02 7.58725335e-04 1.13808801e-02
      5.31107746e-03 2.27617612e-03 3.79362656e-03 3.03490134e-03
      1.51745067e-03 6.06980268e-03 5.31107746e-03 7.58725335e-04 0.
      1.59332324e-02 7.58725312e-03 6.82852790e-03 3.03490134e-03
      7.58725335e-04 1.51745062e-02 7.58725335e-04 3.26251909e-02
      1.51745067e-03 2.27617612e-03 9.10470448e-03 0. 3.03490134e-03
      2.27617612e-03 3.03490134e-03 1.51745067e-03 5.31107746e-03 0.
      3.79362656e-03 1.51745067e-03 6.06980268e-03 3.03490134e-03
      6.82852790e-03 3.03490134e-03 3.03490134e-03 4.55235224e-03 0.
      1.13808801e-02 1.51745062e-02 3.79362665e-02 1.51745067e-03
      2.27617612e-03 6.82852790e-03 2.27617612e-03 2.27617612e-03
      8.34597833e-03 5.31107746e-03 4.55235224e-03 1.13808801e-02 0.
      1.51745067e-03 1.51745067e-03 1.06221549e-02 1.51745067e-03
      4.55235224e-03 1.51745067e-03 1.28983306e-02 3.79362656e-03
      6.82852790e-03 3.03490134e-03 0. 6.06980268e-03 4.77996953e-02
      3.79362656e-03 4.55235224e-03 6.82852790e-03 3.79362656e-03
      5.31107746e-03 4.55235224e-03 1.59332324e-02 2.27617612e-03
      6.82852790e-03 1.51745067e-03 1.82094090e-02 3.03490134e-03
      7.58725335e-04 6.82852790e-03 2.27617612e-03 6.82852790e-03</_>
    <_>
      0. 0. 1.30718956e-02 1.63398695e-03 8.16993508e-03 1.14379087e-02
      1.63398695e-03 4.90196096e-03 3.26797389e-03 1.30718956e-02
      4.90196096e-03 8.16993508e-03 0. 0. 3.26797389e-03 6.53594779e-03
      1.63398695e-03 3.26797389e-03 1.63398695e-03 3.26797389e-03
      9.80392192e-03 1.63398695e-03 0. 9.80392192e-03 4.90196096e-03
      1.63398695e-03 1.63398695e-03 0. 4.90196096e-03 0. 0. 0.
      3.26797389e-03 1.63398695e-03 8.16993508e-03 3.26797389e-03 0.
      4.90196096e-03 3.26797389e-03 1.63398695e-03 3.26797389e-03
      6.53594779e-03 3.26797389e-03 0. 4.90196096e-03 6.53594779e-03
      4.90196096e-03 1.63398695e-03 4.90196096e-03 3.26797389e-03
      1.63398695e-03 3.26797389e-03 1.63398695e-03 3.26797389e-03
      4.90196096e-03 0. 4.90196096e-03 4.90196096e-03 1.14379087e-02 0.
      0. 3.26797389e-03 6.53594779e-03 0. 1.30718956e-02 1.63398695e-03
      1.63398695e-03 1.14379087e-02 1.63398695e-03 3.26797389e-03
      8.16993508e-03 0. 3.26797389e-03 8.16993508e-03 6.53594779e-03
      9.80392192e-03 1.63398695e-03 6.53594779e-03 3.26797389e-03 0.
      1.63398695e-03 0. 3.26797389e-03 0. 1.63398695e-03 9.80392192e-03
      1.14379087e-02 1.63398695e-03 2.45098043e-02 2.12418307e-02
      3.26797389e-03 4.90196096e-03 0. 0. 0. 1.63398695e-03
      8.16993508e-03 6.53594779e-03 3.26797389e-03 0. 3.26797389e-03
      1.63398695e-03 4.90196096e-03 4.90196096e-03 0. 8.16993508e-03
      4.90196096e-03 8.16993508e-03 0. 8.16993508e-03 6.53594779e-03
      4.90196096e-03 4.41176482e-02 3.26797389e-03 1.63398695e-03
      1.63398695e-03 0. 3.26797389e-03 0. 4.90196096e-03 1.63398695e-03
      1.63398695e-03 8.16993508e-03 0. 2.61437912e-02 1.79738570e-02
      3.26797389e-03 1.63398695e-03 4.90196096e-03 0. 1.63398695e-03
      1.30718956e-02 1.63398695e-03 4.90196096e-03 6.53594779e-03 0.
      1.63398695e-03 3.26797389e-03 3.75817008e-02 4.90196096e-03
      4.90196096e-03 1.14379087e-02 6.53594779e-03 4.90196096e-03
      3.26797389e-03 3.26797389e-03 1.63398695e-03 1.63398702e-02 0.
      9.80392192e-03 3.26797389e-03 6.53594779e-03 4.90196096e-03
      6.53594779e-03 4.90196096e-03 1.47058824e-02 1.63398695e-03 0.
      2.28758175e-02 1.14379087e-02 1.79738570e-02 8.16993508e-03
      3.26797389e-03 0. 0. 4.90196096e-03 8.16993508e-03 3.26797389e-03
      1.63398695e-03 4.90196096e-03 0. 1.63398695e-03 0. 3.26797389e-03
      4.90196096e-03 6.53594779e-03 9.80392192e-03 0. 1.30718956e-02
      1.63398695e-03 3.26797389e-03 0. 8.16993508e-03 2.45098043e-02
      1.63398695e-03 3.26797389e-03 1.14379087e-02 1.63398695e-03
      1.14379087e-02 0. 9.80392192e-03 4.90196096e-03 4.90196096e-03 0.
      3.26797389e-03 0. 0. 0. 0. 6.53594779e-03</_>
    <_>
      3.48432036e-03 6.38792105e-03 6.96864072e-03 1.74216018e-03
      5.22648077e-03 1.74216018e-03 1.80023219e-02 2.90360046e-03
      4.64576064e-03 1.74216018e-03 3.48432036e-03 6.38792105e-03
      4.64576064e-03 1.74216018e-03 4.64576064e-03 0. 4.06504050e-03
      6.38792105e-03 4.06504050e-03 5.80720080e-04 1.21951215e-02
      1.16144016e-03 2.90360046e-03 8.13008100e-03 4.06504050e-03
      3.48432036e-03 8.13008100e-03 0. 5.80720080e-04 8.71080160e-03
      1.16144016e-03 5.80720080e-04 1.16144016e-03 5.22648077e-03
      8.71080160e-03 7.54936086e-03 1.33565618e-02 5.80720080e-04
      3.48432036e-03 1.16144016e-03 3.48432036e-03 1.16144016e-03
      1.16144018e-02 6.38792105e-03 3.48432036e-03 1.16144016e-03
      2.32288032e-03 2.90360046e-03 2.90360046e-03 0. 3.48432036e-03 0.
      2.32288032e-03 1.74216018e-03 5.80720091e-03 4.06504050e-03
      2.32288032e-03 2.32288032e-03 1.50987217e-02 5.22648077e-03
      1.74216018e-03 4.06504050e-03 4.06504050e-03 0. 9.87224095e-03
      7.54936086e-03 4.06504050e-03 2.90360046e-03 2.32288032e-03
      1.74216018e-03 2.32288032e-03 5.80720091e-03 6.96864072e-03
      4.64576064e-03 2.09059231e-02 1.16144016e-03 2.32288032e-03
      5.22648077e-03 9.87224095e-03 1.74216018e-03 4.64576064e-03
      5.80720080e-04 6.38792105e-03 1.16144018e-02 3.48432036e-03
      3.48432036e-03 1.85830425e-02 1.74216018e-03 6.38792105e-03
      1.16144018e-02 4.64576064e-03 0. 0. 1.16144016e-03 1.74216018e-03
      4.64576064e-03 9.87224095e-03 3.48432036e-03 1.74216018e-03
      3.48432036e-03 6.96864072e-03 2.32288032e-03 6.38792105e-03
      5.22648077e-03 4.06504050e-03 4.06504050e-03 5.80720080e-04
      5.22648077e-03 5.80720080e-04 2.90360046e-03 1.16144016e-03
      6.96864072e-03 1.80023219e-02 5.80720080e-04 9.87224095e-03
      1.74216018e-03 3.48432036e-03 2.32288032e-03 3.48432036e-03
      5.80720080e-04 2.32288032e-03 5.22648077e-03 3.48432036e-03
      1.27758421e-02 5.80720091e-03 5.80720080e-04 4.06504050e-03
      4.64576064e-03 1.74216018e-03 3.48432036e-03 1.74216018e-03
      9.87224095e-03 3.48432036e-03 3.48432036e-03 1.16144016e-03
      5.80720091e-03 2.84552835e-02 5.80720080e-04 2.55516842e-02
      1.16144016e-03 2.32288032e-03 6.96864072e-03 2.32288032e-03
      2.32288032e-03 2.32288032e-03 3.48432036e-03 5.80720080e-04
      1.04529615e-02 1.74216018e-03 4.06504050e-03 3.48432036e-03
      2.90360046e-03 1.74216018e-03 4.64576064e-03 1.04529615e-02
      1.16144016e-03 1.16144016e-03 2.32288032e-03 2.32288032e-03
      4.64576064e-03 1.04529615e-02 2.32288032e-03 4.52961661e-02
      4.06504050e-03 1.16144016e-03 1.74216018e-03 1.27758421e-02
      5.80720080e-04 1.16144016e-03 6.38792105e-03 0. 5.80720080e-04
      5.80720091e-03 5.22648077e-03 1.16144016e-03 9.29152127e-03
      2.90360046e-03 5.22648077e-03 5.22648077e-03 5.80720080e-04
      4.06504050e-03 0. 1.62601620e-02 4.64576064e-03 3.83275263e-02
      1.56794414e-02 5.22648077e-03 1.16144016e-03 4.64576064e-03
      5.22648077e-03 5.22648077e-03 2.32288032e-03 5.80720091e-03
      1.74216018e-03 5.80720091e-03 2.32288032e-03 2.32288032e-03
      1.16144018e-02 0. 4.64576064e-03</_>
    <_>
      0. 9.19842254e-03 3.41655724e-02 2.62812083e-03 7.88436271e-03
      1.31406041e-03 6.57030195e-03 0. 9.19842254e-03 0. 0.
      2.62812083e-03 0. 0. 1.31406041e-03 0. 0. 1.31406041e-03 0. 0.
      3.94218136e-03 0. 1.31406041e-03 1.83968451e-02 0. 0.
      3.94218136e-03 0. 0. 2.62812083e-03 2.62812083e-03 0. 0.
      3.94218136e-03 7.88436271e-03 2.62812083e-03 1.31406041e-03 0. 0.
      0. 0. 0. 0. 0. 1.05124833e-02 1.31406041e-03 2.62812083e-03
      2.62812083e-03 1.31406041e-03 0. 0. 0. 0. 1.31406041e-03
      1.31406041e-03 2.62812083e-03 2.62812083e-03 1.31406041e-03
      1.57687254e-02 0. 1.31406041e-03 0. 2.23390274e-02 0.
      5.25624165e-03 0. 0. 0. 0. 0. 1.44546647e-02 1.31406041e-03
      2.62812083e-03 2.62812083e-03 3.41655724e-02 0. 0. 3.94218136e-03
      1.31406041e-03 0. 1.31406041e-03 0. 1.31406041e-03 0.
      2.62812083e-03 0. 0. 0. 6.83311448e-02 3.94218136e-03
      1.31406041e-03 2.62812083e-03 0. 0. 2.62812083e-03 1.31406041e-03
      5.25624165e-03 0. 0. 0. 1.83968451e-02 0. 2.62812083e-03 0.
      2.62812083e-03 2.62812083e-03 0. 1.31406041e-03 0. 0. 0.
      2.10249666e-02 0. 0. 1.31406041e-03 1.31406039e-02 0. 0.
      3.94218136e-03 1.31406041e-03 0. 5.25624165e-03 0. 1.31406041e-03
      0. 0. 1.31406041e-03 2.62812083e-03 0. 0. 0. 3.94218136e-03
      1.31406041e-03 1.31406041e-03 2.62812083e-03 0. 9.19842254e-03
      1.31406041e-03 3.15374509e-02 0. 0. 1.05124833e-02 0.
      1.31406041e-03 0. 0. 0. 1.31406041e-03 0. 6.57030195e-03 0.
      2.62812083e-03 0. 1.31406041e-03 0. 0. 3.94218117e-02 0.
      9.19842254e-03 1.31406041e-03 7.88436234e-02 2.62812083e-03
      3.94218136e-03 2.62812078e-02 1.31406041e-03 1.31406041e-03
      3.94218136e-03 0. 0. 2.10249666e-02 0. 2.62812083e-03
      2.62812083e-03 9.19842254e-03 0. 1.31406041e-03 0. 1.31406041e-03
      6.57030195e-03 2.36530881e-02 3.94218136e-03 0. 1.31406041e-03
      2.02365309e-01 0. 1.44546647e-02 5.25624165e-03 0. 0. 0.
      1.31406041e-03 1.31406041e-03 2.62812083e-03 1.31406041e-03
      1.31406039e-02 3.94218136e-03 1.31406041e-03 9.19842254e-03 0. 0.</_>
    <_>
      0. 6.22406695e-03 1.03734443e-02 4.14937781e-03 6.22406695e-03
      2.07468891e-03 1.03734443e-02 2.07468891e-03 0. 1.03734443e-02
      4.14937781e-03 1.45228226e-02 0. 0. 0. 0. 0. 6.22406695e-03
      2.07468891e-03 0. 8.29875562e-03 0. 0. 4.14937781e-03 0. 0. 0. 0.
      4.14937781e-03 0. 3.52697112e-02 2.07468891e-03 2.07468891e-03
      6.22406695e-03 2.07468886e-02 0. 0. 0. 4.14937781e-03
      2.07468891e-03 0. 8.29875562e-03 0. 2.07468891e-03 1.45228226e-02
      8.29875562e-03 1.03734443e-02 6.22406695e-03 2.07468891e-03
      2.07468891e-03 0. 0. 0. 2.07468891e-03 6.22406695e-03
      4.14937781e-03 2.07468891e-03 0. 1.03734443e-02 0. 0.
      8.29875562e-03 2.07468891e-03 0. 2.90456451e-02 0. 2.07468891e-03
      0. 0. 4.14937781e-03 4.14937781e-03 0. 8.29875562e-03 0.
      2.07468891e-03 1.03734443e-02 0. 4.14937781e-03 2.07468891e-03 0.
      2.07468891e-03 0. 0. 2.07468891e-03 0. 2.07468891e-03 0. 0.
      1.78423241e-01 2.07468891e-03 6.22406695e-03 0. 0. 0. 0.
      2.07468891e-03 8.29875562e-03 4.14937781e-03 0. 0. 1.45228226e-02
      0. 6.22406695e-03 2.07468891e-03 0. 0. 0. 1.03734443e-02 0. 0. 0.
      4.14937781e-03 2.07468891e-03 2.07468891e-03 0. 4.14937781e-03 0.
      0. 2.07468891e-03 8.29875562e-03 2.07468891e-03 0. 0.
      2.07468891e-03 2.07468891e-03 2.07468891e-03 8.29875562e-03
      2.07468886e-02 2.07468891e-03 0. 0. 6.22406695e-03 4.14937781e-03
      4.14937781e-03 6.22406695e-03 0. 1.65975112e-02 2.07468891e-03
      2.69709565e-02 0. 6.22406695e-03 6.22406695e-03 0. 0. 0. 0.
      2.07468891e-03 6.22406695e-03 0. 6.22406695e-03 0. 0.
      4.14937781e-03 1.45228226e-02 2.07468891e-03 6.22406695e-03
      8.29875562e-03 0. 1.03734443e-02 2.07468886e-02 3.11203338e-02
      4.14937781e-03 2.07468891e-03 1.45228226e-02 2.07468891e-03
      8.29875562e-03 4.14937781e-03 2.07468891e-03 0. 4.14937781e-03 0.
      2.07468891e-03 2.07468891e-03 8.29875562e-03 2.07468891e-03
      2.07468891e-03 6.22406695e-03 6.22406695e-03 4.14937781e-03
      2.07468886e-02 4.14937781e-03 0. 2.07468891e-03 1.86721999e-02
      2.07468891e-03 2.07468891e-03 4.14937781e-03 2.07468891e-03
      4.14937781e-03 2.07468891e-03 4.14937781e-03 0. 6.22406695e-03 0.
      2.69709565e-02 0. 2.07468891e-03 0. 0. 6.22406695e-03</_>
    <_>
      0. 3.15457433e-02 6.30914839e-03 0. 6.30914839e-03 3.15457419e-03
      3.15457419e-03 6.30914839e-03 2.83911675e-02 0. 3.15457419e-03
      6.30914839e-03 0. 3.15457419e-03 3.15457419e-03 0. 0. 0.
      9.46372282e-03 0. 9.46372282e-03 0. 6.30914839e-03 3.78548913e-02
      0. 0. 9.46372282e-03 0. 0. 0. 1.57728717e-02 0. 0. 2.52365936e-02
      9.46372282e-03 9.46372282e-03 0. 0. 0. 3.15457419e-03
      6.30914839e-03 0. 0. 0. 3.47003154e-02 3.15457419e-03
      3.15457419e-03 6.30914839e-03 1.26182968e-02 0. 0. 0. 0.
      3.15457419e-03 6.30914839e-03 1.26182968e-02 0. 3.15457419e-03
      3.15457419e-03 3.15457419e-03 0. 3.15457419e-03 6.30914839e-03 0.
      6.30914839e-03 0. 6.30914839e-03 0. 0. 0. 1.26182968e-02 0.
      6.30914839e-03 0. 0. 0. 0. 9.46372282e-03 3.15457419e-03 0. 0. 0.
      0. 3.15457419e-03 0. 0. 3.15457419e-03 0. 2.52365936e-02
      6.30914839e-03 6.30914839e-03 0. 0. 0. 3.15457419e-03
      3.15457419e-03 9.46372282e-03 3.15457419e-03 6.30914839e-03 0.
      1.89274456e-02 3.15457419e-03 1.26182968e-02 0. 3.15457419e-03 0.
      0. 6.30914839e-03 0. 0. 0. 9.46372282e-03 0. 6.30914839e-03 0.
      6.30914839e-03 3.15457419e-03 0. 0. 0. 0. 7.25552067e-02 0. 0.
      3.15457419e-03 0. 6.30914839e-03 2.20820196e-02 0. 0. 0.
      3.15457419e-03 9.46372282e-03 6.30914839e-03 9.46372282e-03 0.
      1.89274456e-02 0. 1.57728717e-02 0. 0. 0. 3.15457419e-03
      3.15457419e-03 6.30914839e-03 1.89274456e-02 3.15457419e-03
      6.30914839e-03 0. 1.57728717e-02 3.15457419e-03 0. 6.30914839e-03
      3.15457419e-03 1.26182968e-02 0. 3.47003154e-02 0. 9.46372282e-03
      6.30914839e-03 0. 0. 0. 0. 0. 0. 6.30914839e-03 0. 0.
      2.20820196e-02 3.15457419e-03 3.15457419e-03 0. 3.15457419e-03 0.
      6.30914839e-03 0. 6.30914839e-03 0. 2.20820196e-02 3.15457419e-03
      0. 6.30914839e-03 4.10094634e-02 0. 3.15457419e-03 9.46372282e-03
      3.15457419e-03 6.30914839e-03 6.30914839e-03 3.15457419e-03 0. 0.
      0. 1.26182968e-02 3.15457419e-03 0. 0. 0. 3.15457419e-03</_>
    <_>
      0. 3.44827585e-03 2.06896551e-02 3.44827585e-03 0. 6.89655170e-03
      3.44827585e-03 0. 3.44827585e-03 1.03448275e-02 3.44827585e-03
      1.37931034e-02 0. 3.44827585e-03 6.89655170e-03 3.44827585e-03 0.
      6.89655170e-03 3.44827585e-03 0. 2.06896551e-02 0. 3.44827585e-03
      3.44827585e-03 1.03448275e-02 1.37931034e-02 0. 0. 3.44827585e-03
      0. 0. 0. 0. 1.37931034e-02 1.37931034e-02 0. 0. 0. 0.
      3.44827585e-03 1.03448275e-02 6.89655170e-03 3.44827585e-03 0. 0.
      0. 3.44827585e-03 3.44827585e-03 0. 0. 0. 0. 3.44827585e-03 0.
      3.44827585e-03 0. 0. 0. 3.79310325e-02 3.44827585e-03 0. 0.
      1.03448275e-02 0. 2.06896551e-02 0. 3.44827585e-03 0. 0.
      3.44827585e-03 3.44827585e-03 3.44827585e-03 1.37931034e-02 0.
      1.03448275e-02 3.44827585e-03 0. 0. 1.37931034e-02 3.44827585e-03
      0. 0. 1.03448275e-02 1.03448275e-02 3.44827585e-03 6.89655170e-03
      3.44827585e-03 0. 3.79310325e-02 3.44827585e-03 6.89655170e-03
      3.44827585e-03 0. 0. 0. 3.44827585e-03 1.03448275e-02
      6.89655170e-03 0. 0. 1.37931034e-02 0. 3.44827585e-03 0. 0.
      1.03448275e-02 6.89655170e-03 0. 3.44827585e-03 0. 6.89655170e-03
      1.03448275e-02 2.41379309e-02 0. 0. 0. 3.44827585e-03 0. 0.
      1.03448275e-02 1.37931034e-02 3.44827585e-03 0. 0. 0. 0. 0. 0.
      6.89655170e-03 0. 0. 6.89655170e-03 6.89655170e-03 6.89655170e-03
      6.89655170e-03 0. 6.89655170e-02 6.89655170e-03 2.75862068e-02
      3.44827585e-03 6.89655170e-03 6.89655170e-03 0. 6.89655170e-03 0.
      6.89655170e-03 6.89655170e-03 1.37931034e-02 0. 0. 0. 0. 0.
      3.44827585e-03 3.44827585e-03 3.44827585e-03 0. 0. 3.44827585e-03
      1.03448275e-02 2.41379309e-02 6.89655170e-03 1.03448275e-02
      1.72413792e-02 0. 3.44827585e-03 2.06896551e-02 3.44827585e-03
      6.89655170e-03 3.44827585e-03 0. 3.44827585e-03 0. 3.44827585e-03
      0. 6.89655170e-03 1.37931034e-02 6.89655170e-03 0. 3.44827585e-03
      3.44827585e-03 0. 3.44827585e-03 0. 1.37931034e-02 1.37931034e-02
      3.44827585e-03 6.89655170e-03 0. 3.44827585e-03 0. 0.
      1.03448275e-02 0. 2.06896551e-02 0. 3.44827585e-03 0. 0.
      6.89655170e-03</_>
    <_>
      0. 1.06382975e-02 5.31914877e-03 5.31914877e-03 5.31914877e-03
      1.06382975e-02 1.59574468e-02 0. 1.06382975e-02 0. 0.
      1.59574468e-02 0. 1.06382975e-02 5.31914877e-03 0. 0. 0. 0. 0.
      5.31914877e-03 0. 0. 5.31914877e-03 5.31914877e-03 0. 0. 0. 0. 0.
      0. 0. 0. 3.72340418e-02 1.59574468e-02 0. 0. 5.31914877e-03 0. 0.
      5.31914877e-03 0. 0. 5.31914877e-03 0. 5.31914877e-03
      1.06382975e-02 0. 0. 1.59574468e-02 5.31914877e-03 0.
      5.31914877e-03 0. 3.72340418e-02 5.31914877e-03 0. 2.65957434e-02
      2.12765951e-02 0. 5.31914877e-03 5.31914877e-03 7.44680837e-02 0.
      1.06382975e-02 1.06382975e-02 0. 0. 0. 1.59574468e-02 0. 0. 0.
      5.31914877e-03 5.31914867e-02 0. 0. 5.31914877e-03 0. 0. 0. 0. 0.
      5.31914877e-03 5.31914877e-03 0. 0. 0. 0. 0. 5.31914877e-03 0. 0.
      0. 0. 1.06382975e-02 2.12765951e-02 1.06382975e-02 0. 0. 0. 0. 0.
      1.06382975e-02 0. 0. 0. 1.06382975e-02 0. 0. 0. 2.12765951e-02
      5.31914877e-03 0. 0. 0. 1.06382975e-02 0. 5.31914877e-03 0.
      1.59574468e-02 0. 2.12765951e-02 0. 0. 0. 0. 5.31914877e-03 0. 0.
      0. 0. 0. 5.31914877e-03 0. 0. 5.31914877e-03 0. 5.85106350e-02 0.
      0. 0. 0. 0. 0. 0. 0. 0. 0. 0. 5.31914877e-03 0. 0. 1.06382975e-02
      1.06382975e-02 0. 0. 0. 1.06382975e-02 1.06382975e-02
      6.91489354e-02 0. 5.31914877e-03 3.19148935e-02 0. 0.
      5.31914877e-03 0. 0. 5.31914877e-03 0. 0. 5.31914877e-03 0. 0.
      5.31914877e-03 0. 5.31914877e-03 0. 0. 5.31914877e-03 0. 0. 0.
      1.06382975e-02 0. 0. 5.31914877e-03 5.31914877e-03 5.31914877e-03
      2.65957434e-02 0. 0. 0. 1.59574468e-02 0. 5.31914877e-03
      5.31914877e-03 0. 0.</_>
    <_>
      0. 0. 4.40528616e-03 1.32158585e-02 0. 4.40528616e-03
      2.64317170e-02 1.76211447e-02 0. 4.40528616e-03 4.40528616e-03
      1.32158585e-02 0. 0. 0. 4.40528616e-03 0. 0. 4.40528616e-03 0.
      1.32158585e-02 0. 0. 4.40528616e-03 0. 4.40528616e-03 0. 0.
      4.40528616e-03 0. 0. 0. 0. 4.40528616e-03 4.40528616e-03
      4.40528616e-03 4.40528616e-03 4.40528616e-03 8.81057233e-03 0.
      8.81057233e-03 8.81057233e-03 0. 0. 8.81057233e-03 4.40528616e-03
      4.40528616e-03 0. 0. 8.81057233e-03 0. 0. 4.40528616e-03 0.
      8.81057233e-03 0. 0. 8.81057233e-03 3.52422893e-02 4.40528616e-03
      0. 0. 3.96475755e-02 0. 8.81057233e-03 4.40528616e-03
      8.81057233e-03 0. 0. 4.40528616e-03 0. 0. 4.40528616e-03 0.
      8.81057233e-03 0. 0. 8.81057233e-03 4.40528616e-03 4.40528616e-03
      0. 0. 0. 4.40528616e-03 4.40528616e-03 1.32158585e-02
      1.76211447e-02 8.81057233e-03 8.81057233e-03 4.40528616e-03
      4.40528616e-03 8.81057233e-03 4.40528616e-03 0. 4.40528616e-03 0.
      1.76211447e-02 0. 0. 0. 4.40528616e-03 0. 8.81057233e-03
      8.81057233e-03 0. 4.40528616e-03 4.40528616e-03 0. 0. 0. 0.
      1.76211447e-02 4.40528616e-03 0. 0. 4.40528616e-03 8.81057233e-03
      0. 4.40528616e-03 1.32158585e-02 1.76211447e-02 4.40528616e-03
      4.40528616e-03 0. 0. 0. 0. 4.40528616e-03 0. 0. 0. 1.32158585e-02
      0. 4.40528616e-03 4.40528616e-03 0. 6.60792887e-02 0.
      7.04845786e-02 4.40528616e-03 4.40528616e-03 0. 0. 0. 0. 0.
      8.81057233e-03 1.32158585e-02 0. 8.81057233e-03 0. 8.81057233e-03
      0. 8.81057233e-03 0. 4.40528616e-03 0. 0. 8.81057233e-03
      1.76211447e-02 3.08370031e-02 4.40528616e-03 1.76211447e-02
      8.81057233e-03 4.40528616e-03 0. 0. 4.40528616e-03 1.32158585e-02
      0. 0. 0. 0. 8.81057233e-03 0. 0. 0. 8.81057233e-03 4.40528616e-03
      0. 4.40528616e-03 0. 4.40528616e-03 0. 1.76211447e-02 0.
      4.40528616e-03 1.32158585e-02 0. 0. 0. 0. 1.76211447e-02 0.
      4.40528616e-03 0. 0. 0. 0. 8.81057233e-03</_>
    <_>
      0. 0. 0. 0. 4.83091781e-03 4.83091781e-03 0. 0. 4.83091781e-03
      1.44927539e-02 0. 0. 0. 0. 0. 0. 9.66183562e-03 0. 2.41545886e-02
      0. 1.44927539e-02 0. 0. 4.83091781e-03 0. 0. 0. 0. 4.83091781e-03
      0. 0. 0. 4.83091781e-03 2.41545886e-02 9.66183562e-03 0.
      4.83091781e-03 4.83091781e-03 0. 0. 0. 9.66183562e-03 0. 0.
      9.66183562e-03 9.66183562e-03 1.44927539e-02 0. 0. 3.38164233e-02
      4.83091781e-03 0. 0. 1.93236712e-02 2.41545886e-02 4.83091781e-03
      0. 0. 9.66183562e-03 0. 0. 0. 9.66183562e-03 0. 4.83091781e-03
      4.83091781e-03 0. 1.44927539e-02 0. 0. 4.83091781e-03 0.
      9.66183562e-03 0. 9.66183562e-03 4.83091781e-03 0. 9.66183562e-03
      4.83091781e-03 0. 0. 0. 0. 4.83091781e-03 9.66183562e-03
      4.83091781e-03 4.83091781e-03 0. 4.83091781e-03 0. 4.83091781e-03
      0. 0. 0. 0. 4.83091781e-03 1.93236712e-02 4.83091781e-03 0. 0.
      4.83091781e-03 0. 4.83091781e-03 4.83091781e-03 0. 0. 0. 0. 0.
      4.83091781e-03 0. 0. 4.34782617e-02 9.66183562e-03 0.
      1.93236712e-02 0. 0. 0. 4.83091781e-03 0. 0. 4.83091781e-03 0.
      2.89855078e-02 9.66183562e-03 0. 4.83091781e-03 1.44927539e-02
      4.83091781e-03 0. 3.38164233e-02 0. 9.66183562e-03 0. 0. 0. 0.
      6.28019348e-02 0. 0. 4.83091781e-03 0. 0. 1.44927539e-02 0.
      4.83091781e-03 3.38164233e-02 0. 0. 0. 4.83091781e-03 0. 0. 0.
      1.44927539e-02 0. 0. 4.83091781e-03 1.44927539e-02 1.44927539e-02
      0. 1.44927539e-02 2.89855078e-02 0. 9.66183562e-03 4.83091781e-03
      0. 0. 4.83091781e-03 0. 0. 0. 4.83091781e-03 0. 0. 0.
      2.41545886e-02 0. 0. 4.83091781e-03 0. 4.83091781e-03
      4.83091781e-03 1.44927539e-02 1.44927539e-02 9.66183562e-03 0.
      1.44927539e-02 1.44927539e-02 4.83091781e-03 0. 4.83091781e-03 0.
      9.66183562e-03 0. 0. 9.66183562e-03 0. 0.</_>
    <_>
      0. 2.17391308e-02 1.69082116e-02 0. 9.66183562e-03 4.83091781e-03
      1.20772943e-02 0. 1.44927539e-02 4.83091781e-03 2.41545890e-03
      2.41545890e-03 0. 0. 4.83091781e-03 7.24637695e-03 7.24637695e-03
      7.24637695e-03 4.83091781e-03 0. 4.83091781e-03 0. 7.24637695e-03
      7.24637695e-03 0. 0. 1.44927539e-02 0. 4.83091781e-03 0. 0. 0.
      7.24637695e-03 4.83091781e-03 1.20772943e-02 4.83091781e-03
      2.41545890e-03 7.24637695e-03 4.83091781e-03 0. 1.20772943e-02
      2.41545890e-03 0. 2.41545890e-03 2.17391308e-02 2.41545890e-03
      1.44927539e-02 9.66183562e-03 2.41545890e-03 0. 0. 0.
      4.83091781e-03 0. 2.41545890e-03 0. 7.24637695e-03 2.41545890e-03
      0. 0. 0. 7.24637695e-03 9.66183562e-03 0. 2.17391308e-02
      2.41545890e-03 2.41545890e-03 2.41545890e-03 2.41545890e-03
      2.41545890e-03 1.20772943e-02 0. 9.66183562e-03 0. 1.93236712e-02
      0. 0. 2.41545890e-03 0. 0. 0. 0. 2.41545890e-03 0. 1.69082116e-02
      4.83091781e-03 4.83091781e-03 0. 5.79710156e-02 0. 1.44927539e-02
      0. 0. 2.41545890e-03 4.83091781e-03 0. 4.83091781e-03
      2.41545890e-03 4.83091781e-03 0. 1.69082116e-02 0. 4.83091781e-03
      9.66183562e-03 0. 0. 2.41545890e-03 1.20772943e-02 2.41545890e-03
      0. 0. 9.66183562e-03 0. 4.83091781e-03 0. 4.83091781e-03
      2.41545890e-03 2.41545890e-03 2.41545890e-03 0. 4.83091781e-03
      7.24637695e-03 2.41545890e-03 2.41545890e-03 4.83091781e-03
      2.41545890e-03 0. 1.20772943e-02 0. 4.83091781e-03 0.
      4.83091781e-03 7.24637695e-03 7.24637695e-03 0. 0. 7.24637695e-03
      7.24637695e-03 4.10628021e-02 0. 1.69082116e-02 4.83091781e-03 0.
      4.83091781e-03 0. 4.83091781e-03 9.66183562e-03 0. 0.
      4.83091781e-03 2.41545890e-03 2.41545890e-03 0. 0. 4.83091781e-03
      7.24637695e-03 2.41545890e-03 0. 0. 4.83091781e-03 6.76328465e-02
      0. 7.24637695e-03 1.69082116e-02 0. 4.83091781e-03 4.83091781e-03
      7.24637695e-03 0. 1.20772943e-02 0. 9.66183562e-03 2.41545890e-03
      4.83091781e-03 0. 7.24637695e-03 0. 1.20772943e-02 7.24637695e-03
      0. 2.41545890e-03 0. 0. 7.24637695e-03 1.20772943e-02
      2.41545890e-03 1.20772943e-02 7.24637695e-03 2.41545890e-03
      7.24637695e-03 0. 2.41545890e-03 2.41545890e-03 0. 0.
      4.83091781e-03 2.41545890e-03 2.41545890e-03 2.41545890e-03
      2.41545890e-03</_>
    <_>
      0. 5.40540554e-03 2.16216221e-02 5.40540554e-03 0. 5.40540554e-03
      1.62162166e-02 0. 5.40540554e-03 0. 0. 1.08108111e-02 0. 0.
      1.62162166e-02 0. 0. 0. 5.40540554e-03 0. 1.62162166e-02 0.
      5.40540554e-03 1.08108111e-02 1.08108111e-02 5.40540554e-03
      1.08108111e-02 0. 0. 5.40540554e-03 0. 0. 0. 1.08108111e-02
      1.08108111e-02 0. 5.40540554e-03 5.40540554e-03 5.40540554e-03
      5.40540554e-03 5.40540554e-03 1.62162166e-02 0. 0. 2.16216221e-02
      0. 0. 5.40540554e-03 1.08108111e-02 0. 0. 0. 5.40540554e-03 0.
      3.78378406e-02 5.40540554e-03 0. 5.40540554e-03 0. 1.62162166e-02
      0. 0. 1.62162166e-02 0. 0. 1.08108111e-02 5.40540554e-03 0. 0.
      5.40540554e-03 1.08108111e-02 5.40540554e-03 5.40540554e-03
      5.40540554e-03 0. 0. 0. 1.08108111e-02 1.08108111e-02 0.
      5.40540554e-03 0. 0. 1.62162166e-02 0. 1.62162166e-02 0. 0.
      5.40540554e-03 0. 2.16216221e-02 0. 0. 1.08108111e-02
      5.40540554e-03 0. 5.40540554e-03 0. 0. 0. 0. 5.40540554e-03 0.
      5.40540554e-03 1.08108111e-02 0. 5.40540554e-03 2.16216221e-02
      1.08108111e-02 1.08108111e-02 5.40540554e-03 1.62162166e-02 0. 0.
      0. 0. 5.40540554e-03 0. 0. 5.40540554e-03 1.62162166e-02 0. 0.
      5.40540554e-03 0. 0. 5.40540554e-03 1.62162166e-02 1.08108111e-02
      5.40540554e-03 0. 1.08108111e-02 0. 1.62162166e-02 0. 0.
      3.78378406e-02 5.40540554e-03 1.08108111e-02 5.40540554e-03
      1.62162166e-02 0. 5.40540554e-03 5.40540554e-03 1.08108111e-02 0.
      0. 0. 0. 0. 5.40540554e-03 0. 0. 0. 5.40540554e-03 0. 0. 0. 0. 0.
      1.08108111e-02 0. 0. 1.08108111e-02 5.40540554e-03 1.62162166e-02
      1.08108111e-02 1.62162166e-02 1.62162166e-02 5.40540554e-03 0. 0.
      0. 5.40540554e-03 0. 5.40540554e-03 5.40540554e-03 1.08108111e-02
      0. 0. 0. 0. 0. 4.86486480e-02 0. 0. 5.40540554e-03 0. 0. 0. 0. 0.
      0. 0. 5.40540554e-03 1.62162166e-02 0. 0. 0. 5.40540554e-03</_>
    <_>
      0. 2.86123040e-03 2.28898432e-02 2.86123040e-03 5.72246080e-03
      1.71673819e-02 2.86123040e-03 1.43061522e-02 2.86123040e-03
      4.29184549e-03 4.29184549e-03 5.72246080e-03 0. 0. 5.72246080e-03
      1.43061520e-03 1.43061520e-03 7.15307612e-03 5.72246080e-03 0.
      4.29184549e-03 1.43061520e-03 0. 4.29184549e-03 4.29184549e-03 0.
      1.43061520e-03 0. 1.43061520e-03 0. 1.43061520e-03 0.
      1.43061520e-03 7.15307612e-03 1.00143068e-02 1.43061520e-03
      2.86123040e-03 1.43061520e-03 5.72246080e-03 2.86123040e-03
      1.43061520e-03 2.86123040e-03 4.29184549e-03 0. 4.29184549e-03
      5.72246080e-03 7.15307612e-03 7.15307612e-03 2.86123040e-03
      2.14592274e-02 0. 1.43061520e-03 0. 4.29184549e-03 1.14449216e-02
      2.86123040e-03 1.43061520e-03 5.72246080e-03 1.14449216e-02
      2.86123040e-03 2.86123040e-03 2.86123040e-03 2.86123040e-03 0.
      1.00143068e-02 1.43061520e-03 0. 1.43061520e-03 0. 2.86123040e-03
      1.43061520e-03 0. 4.29184549e-03 5.72246080e-03 0. 4.29184549e-03
      0. 1.43061520e-03 1.00143068e-02 1.43061520e-03 5.72246080e-03 0.
      1.43061520e-03 0. 2.86123040e-03 8.58369097e-03 2.86123040e-03 0.
      3.57653797e-02 4.29184549e-03 2.86123040e-03 4.29184549e-03 0.
      4.29184549e-03 5.72246080e-03 8.58369097e-03 1.00143068e-02
      2.86123040e-03 2.86123040e-03 1.43061520e-03 7.15307612e-03 0.
      5.72246080e-03 1.43061520e-03 2.86123040e-03 1.43061520e-03
      2.86123040e-03 2.86123040e-03 4.29184549e-03 1.43061520e-03 0.
      7.15307612e-03 6.58082962e-02 2.86123040e-03 1.00143068e-02
      1.43061520e-03 5.72246080e-03 4.29184549e-03 8.58369097e-03
      1.14449216e-02 1.43061520e-03 1.43061520e-03 1.14449216e-02
      1.43061520e-03 4.72103022e-02 5.72246080e-03 0. 2.86123040e-03 0.
      0. 1.43061520e-03 1.57367680e-02 2.86123040e-03 8.58369097e-03
      2.86123040e-03 0. 1.57367680e-02 5.72246080e-03 3.00429184e-02
      2.86123040e-03 4.29184549e-03 7.15307612e-03 2.86123040e-03
      4.29184549e-03 2.86123040e-03 0. 7.15307612e-03 1.43061522e-02 0.
      5.72246080e-03 5.72246080e-03 5.72246080e-03 0. 1.00143068e-02
      1.43061520e-03 5.72246080e-03 2.86123040e-03 0. 0. 1.00143068e-02
      2.00286135e-02 0. 4.29184549e-03 2.86123040e-03 2.86123040e-03
      1.43061520e-03 2.28898432e-02 1.43061520e-03 2.86123040e-03
      2.86123040e-03 0. 1.43061520e-03 0. 1.43061520e-03 0.
      2.86123040e-03 4.29184549e-03 2.86123040e-03 2.86123040e-03 0. 0.
      0. 2.86123040e-03 3.00429184e-02 4.29184549e-03 4.29184549e-03
      1.28755365e-02 1.43061520e-03 7.15307612e-03 7.15307612e-03
      2.86123040e-03 0. 5.72246080e-03 0. 7.15307612e-03 2.86123040e-03
      0. 7.15307612e-03 0. 1.71673819e-02</_>
    <_>
      0. 0. 1.95121951e-02 0. 0. 0. 1.46341464e-02 0. 0. 0.
      1.46341464e-02 9.75609757e-03 0. 0. 0. 0. 9.75609757e-03
      9.75609757e-03 1.46341464e-02 0. 0. 4.87804879e-03 0. 0. 0. 0. 0.
      0. 9.75609757e-03 0. 0. 0. 4.87804879e-03 3.41463424e-02
      9.75609757e-03 0. 0. 0. 9.75609757e-03 0. 0. 0. 0. 0.
      4.87804879e-03 1.46341464e-02 4.87804879e-03 9.75609757e-03
      4.87804879e-03 1.46341464e-02 0. 0. 4.87804879e-03 1.46341464e-02
      2.92682927e-02 0. 4.87804879e-03 4.87804879e-03 9.75609757e-03 0.
      0. 0. 4.87804879e-03 0. 9.75609757e-03 0. 4.87804879e-03
      1.95121951e-02 0. 0. 0. 0. 4.87804879e-03 0. 4.87804879e-03 0. 0.
      0. 4.87804879e-03 0. 0. 0. 1.46341464e-02 9.75609757e-03 0.
      1.46341464e-02 4.87804879e-03 0. 0. 9.75609757e-03 0. 0. 0. 0. 0.
      0. 1.95121951e-02 0. 4.87804879e-03 4.87804879e-03 9.75609757e-03
      0. 9.75609757e-03 4.87804879e-03 0. 4.87804879e-03 0. 0. 0. 0.
      4.87804879e-03 4.87804879e-03 7.31707290e-02 0. 2.92682927e-02
      4.87804879e-03 0. 4.87804879e-03 4.87804879e-03 0. 9.75609757e-03
      0. 1.46341464e-02 1.46341464e-02 2.43902430e-02 4.87804879e-03 0.
      4.87804879e-03 1.95121951e-02 0. 0. 1.46341464e-02 0.
      1.46341464e-02 4.87804879e-03 0. 1.46341464e-02 0. 2.92682927e-02
      0. 0. 0. 4.87804879e-03 0. 9.75609757e-03 0. 0. 4.39024381e-02 0.
      0. 0. 0. 0. 1.46341464e-02 0. 4.87804879e-03 4.87804879e-03 0.
      4.87804879e-03 0. 4.87804879e-03 0. 9.75609757e-03 1.46341464e-02
      0. 4.87804879e-03 0. 4.87804879e-03 0. 4.87804879e-03 0.
      4.87804879e-03 0. 4.87804879e-03 0. 0. 0. 2.43902430e-02 0.
      4.87804879e-03 0. 0. 4.87804879e-03 9.75609757e-03 1.95121951e-02
      0. 4.87804879e-03 0. 9.75609757e-03 4.87804879e-03 9.75609757e-03
      4.87804879e-03 0. 0. 9.75609757e-03 0. 0. 0. 0. 0.</_></support_vectors>
  <decision_functions>
    <_>
      <sv_count>18</sv_count>
      <rho>-1.0095736103220505e+00</rho>
      <alpha>
        8.1993016044907752e-01 2.3939945060045273e-01
        7.0936403694256589e-01 4.8827848147974445e-01
        4.0558444925556186e-01 9.6350892540340294e-01
        2.2690054571536919e-01 1.8205010056539761e-01
        1.4252894853144060e-01 1.2177091894943075e-01
        1.9861540974951023e-02 3.8871458864191438e-01
        2.9210785249069110e-01 -1. -1. -1. -1. -1.</alpha>
      <index>
        0 1 2 3 4 5 6 7 8 9 10 11 12 13 14 15 16 17</index></_></decision_functions></my_svm>
</opencv_storage>
