<?xml version="1.0"?>
<opencv_storage>
<my_svm type_id="opencv-ml-svm">
  <svm_type>C_SVC</svm_type>
  <kernel><type>RBF</type>
    <gamma>1.</gamma></kernel>
  <C>1.</C>
  <term_criteria><epsilon>1.1920928955078125e-07</epsilon>
    <iterations>1000</iterations></term_criteria>
  <var_all>200</var_all>
  <var_count>200</var_count>
  <class_count>2</class_count>
  <class_labels type_id="opencv-matrix">
    <rows>1</rows>
    <cols>2</cols>
    <dt>i</dt>
    <data>
      0 1</data></class_labels>
  <sv_total>16</sv_total>
  <support_vectors>
    <_>
      5.86166466e-03 3.51699861e-03 3.51699861e-03 1.17233291e-03 0.
      2.34466582e-03 1.17233291e-03 1.28956623e-02 2.34466582e-03
      8.20633024e-03 5.86166466e-03 7.03399722e-03 1.17233291e-03
      3.51699861e-03 5.86166466e-03 9.37866326e-03 2.34466582e-03
      7.03399722e-03 2.34466582e-03 5.86166466e-03 5.86166466e-03
      2.34466582e-03 7.03399722e-03 2.34466582e-03 5.86166466e-03
      1.17233291e-03 2.34466582e-03 5.86166466e-03 5.86166466e-03
      3.51699861e-03 4.68933163e-03 5.86166466e-03 4.68933163e-03
      2.34466582e-03 9.37866326e-03 5.86166466e-03 1.75849944e-02
      3.51699861e-03 1.17233291e-03 1.17233291e-03 5.86166466e-03
      1.17233291e-03 2.34466582e-03 2.34466582e-03 3.51699861e-03
      3.51699861e-03 1.17233291e-03 2.34466582e-03 0. 4.68933163e-03
      1.17233291e-03 3.51699861e-03 2.34466582e-03 1.17233291e-03
      7.03399722e-03 3.51699861e-03 9.37866326e-03 1.40679944e-02
      7.03399722e-03 2.34466582e-03 4.68933163e-03 2.34466582e-03
      1.52403275e-02 8.20633024e-03 2.34466582e-03 9.37866326e-03
      1.17233291e-03 3.51699861e-03 8.20633024e-03 5.86166466e-03 0.
      2.34466582e-03 1.17233291e-03 2.34466582e-03 0. 1.17233291e-03
      2.34466582e-03 1.17233291e-03 2.34466582e-03 1.17233293e-02
      8.20633024e-03 2.34466582e-03 4.68933163e-03 2.34466582e-03
      2.11019926e-02 1.17233293e-02 3.51699861e-03 0. 1.17233291e-03
      3.51699861e-03 1.17233291e-03 3.51699861e-03 1.17233291e-03
      4.68933163e-03 3.51699861e-03 3.51699861e-03 7.03399722e-03
      2.34466582e-03 1.05509963e-02 5.86166466e-03 3.51699861e-03
      1.17233291e-03 1.17233291e-03 1.17233291e-03 1.17233291e-03
      4.68933163e-03 5.86166466e-03 0. 3.51699861e-03 1.17233291e-03
      9.37866326e-03 5.86166466e-03 1.75849944e-02 1.17233291e-03
      1.17233291e-03 5.86166466e-03 5.86166466e-03 3.51699861e-03
      7.03399722e-03 3.51699861e-03 1.40679944e-02 0. 2.34466582e-03
      1.52403275e-02 9.37866326e-03 3.28253210e-02 3.51699861e-03
      8.20633024e-03 5.86166466e-03 2.34466582e-03 1.17233291e-03
      3.51699861e-03 4.68933163e-03 3.51699861e-03 2.34466582e-03
      9.37866326e-03 5.86166466e-03 1.17233293e-02 8.20633024e-03 0.
      2.34466582e-03 0. 2.34466582e-03 1.17233291e-03 1.17233291e-03
      3.51699861e-03 4.68933163e-03 3.51699861e-03 1.17233291e-03
      2.34466582e-03 4.68933163e-03 1.05509963e-02 2.34466582e-03
      5.86166466e-03 1.17233291e-03 2.34466582e-03 1.17233291e-03
      2.34466582e-03 0. 3.51699861e-03 4.68933163e-03 3.51699861e-03
      1.52403275e-02 1.40679944e-02 3.51699861e-03 1.17233291e-03
      7.03399722e-03 1.17233291e-03 1.05509963e-02 4.68933163e-03
      4.68933163e-03 2.34466582e-03 9.37866326e-03 8.20633024e-03
      4.68933163e-03 2.34466582e-03 1.52403275e-02 0. 8.20633024e-03
      1.05509963e-02 3.51699861e-03 2.34466582e-03 7.03399722e-03
      1.17233291e-03 2.34466582e-03 3.51699861e-03 9.37866326e-03
      1.52403275e-02 9.37866326e-03 1.17233291e-03 3.51699861e-03
      1.17233291e-03 1.17233291e-03 1.17233293e-02 9.37866326e-03
      1.17233291e-03 1.17233291e-03 7.03399722e-03 5.86166466e-03
      3.04806549e-02</_>
    <_>
      1.17924530e-03 0. 4.71698120e-03 1.17924530e-02 1.17924530e-03
      3.53773590e-03 1.17924530e-03 0. 3.53773590e-03 5.89622650e-03
      1.17924530e-03 2.00471692e-02 0. 0. 2.35849060e-03 4.71698120e-03
      5.89622650e-03 1.06132077e-02 8.25471710e-03 5.89622650e-03
      2.35849060e-03 1.17924530e-03 2.35849060e-03 5.89622650e-03
      1.17924530e-03 1.17924530e-03 2.35849060e-03 1.29716983e-02
      5.89622650e-03 3.53773590e-03 8.25471710e-03 4.71698120e-03
      3.53773590e-03 1.41509436e-02 2.35849060e-03 1.17924530e-03
      2.35849060e-02 2.35849060e-03 4.71698120e-03 1.17924530e-03
      9.43396240e-03 8.25471710e-03 2.35849060e-03 1.53301889e-02
      4.71698120e-03 3.53773590e-03 0. 4.71698120e-03 2.35849060e-03
      2.35849060e-03 2.35849060e-03 2.35849060e-03 0. 0. 2.35849060e-03
      2.35849060e-03 7.07547180e-03 3.53773609e-02 8.25471710e-03
      2.35849060e-03 8.25471710e-03 4.71698120e-03 1.29716983e-02
      9.43396240e-03 1.17924530e-03 0. 1.17924530e-03 1.17924530e-02
      3.53773590e-03 0. 4.71698120e-03 2.35849060e-03 2.35849060e-03
      2.35849060e-03 3.53773590e-03 2.35849060e-03 1.29716983e-02 0.
      3.53773590e-03 1.17924530e-03 2.35849060e-03 0. 0. 7.07547180e-03
      2.24056616e-02 1.06132077e-02 3.53773590e-03 5.89622650e-03
      3.53773590e-03 1.29716983e-02 2.35849060e-03 3.53773590e-03
      7.07547180e-03 2.35849060e-03 0. 2.35849060e-03 1.17924530e-03
      2.35849060e-03 8.25471710e-03 5.89622650e-03 9.43396240e-03
      5.89622650e-03 2.35849060e-03 0. 2.35849060e-03 1.17924530e-03
      5.89622650e-03 1.17924530e-03 3.53773590e-03 1.17924530e-03
      3.53773590e-03 1.41509436e-02 1.53301889e-02 0. 2.35849060e-03
      2.35849060e-03 7.07547180e-03 1.06132077e-02 0. 1.41509436e-02
      1.29716983e-02 0. 0. 2.47641504e-02 1.29716983e-02 1.65094342e-02
      4.71698120e-03 1.17924530e-03 7.07547180e-03 4.71698120e-03
      1.17924530e-03 0. 3.53773590e-03 0. 2.35849060e-03 7.07547180e-03
      4.71698120e-03 1.17924530e-02 2.35849060e-03 2.35849060e-03
      2.35849060e-03 5.89622650e-03 2.35849060e-03 3.53773590e-03
      1.17924530e-03 7.07547180e-03 7.07547180e-03 3.53773590e-03
      1.17924530e-03 2.35849060e-03 3.53773590e-03 2.35849060e-03 0. 0.
      1.17924530e-03 4.71698120e-03 2.35849060e-03 4.71698120e-03 0.
      1.29716983e-02 0. 1.17924530e-03 1.88679248e-02 1.17924530e-02
      2.35849060e-03 0. 5.89622650e-03 0. 5.89622650e-03 1.17924530e-03
      0. 1.06132077e-02 3.53773590e-03 1.76886804e-02 1.17924530e-03
      5.89622650e-03 7.07547180e-03 4.71698120e-03 5.89622650e-03
      2.35849060e-03 0. 5.89622650e-03 0. 4.71698120e-03 2.35849060e-03
      5.89622650e-03 1.06132077e-02 1.65094342e-02 4.71698120e-03
      3.53773590e-03 4.71698120e-03 3.53773590e-03 3.53773590e-03
      1.17924530e-03 2.35849060e-03 8.25471710e-03 3.53773590e-03
      3.53773590e-03 5.89622650e-03 7.07547180e-03</_>
    <_>
      4.13116440e-03 6.45494461e-03 2.84017553e-03 4.90575749e-03
      7.74593325e-04 5.68035105e-03 2.06558220e-03 1.65246576e-02
      2.06558220e-03 6.19674660e-03 2.58197775e-03 9.03692190e-03
      5.16395550e-04 1.54918665e-03 7.48773571e-03 5.68035105e-03
      5.68035105e-03 2.58197775e-03 6.97133970e-03 2.06558220e-03
      2.84017553e-03 5.16395550e-04 3.61476885e-03 4.13116440e-03
      3.35657108e-03 1.29098888e-03 5.93854859e-03 5.68035105e-03
      7.22953770e-03 4.64755995e-03 4.38936241e-03 2.84017553e-03
      7.48773571e-03 8.77872482e-03 3.61476885e-03 1.80738443e-03
      1.54918665e-02 2.06558220e-03 4.90575749e-03 3.61476885e-03
      8.77872482e-03 7.48773571e-03 5.16395550e-03 4.38936241e-03
      3.35657108e-03 2.58197775e-03 4.38936241e-03 5.42215351e-03
      4.38936241e-03 6.97133970e-03 2.32377998e-03 5.42215351e-03
      2.06558220e-03 5.16395550e-03 1.80738443e-03 2.84017553e-03
      6.19674660e-03 1.18770972e-02 5.16395550e-03 3.61476885e-03
      5.68035105e-03 4.90575749e-03 5.68035105e-03 3.61476885e-03
      1.29098888e-03 6.19674660e-03 4.90575749e-03 8.26232880e-03
      4.90575749e-03 3.61476885e-03 2.06558220e-03 1.54918665e-03
      9.03692190e-03 5.42215351e-03 7.74593325e-04 2.84017553e-03
      1.44590754e-02 5.68035105e-03 6.19674660e-03 1.29098888e-03
      4.64755995e-03 4.13116440e-03 1.29098888e-03 1.31680863e-02
      9.81151499e-03 6.97133970e-03 8.52052681e-03 4.90575749e-03
      5.16395550e-03 5.93854859e-03 2.58197775e-03 4.38936241e-03
      3.35657108e-03 1.80738443e-03 1.00697130e-02 4.64755995e-03
      7.48773571e-03 3.09837330e-03 6.97133970e-03 1.13607021e-02
      6.97133970e-03 2.32377998e-03 4.64755995e-03 1.03279110e-03
      6.45494461e-03 1.05861090e-02 6.45494461e-03 3.09837330e-03
      3.35657108e-03 5.16395550e-04 3.09837330e-03 1.00697130e-02
      1.23934932e-02 2.84017553e-03 5.16395550e-03 1.03279110e-03
      4.38936241e-03 6.45494461e-03 2.32377998e-03 1.26516912e-02
      5.68035105e-03 7.74593325e-04 1.29098888e-03 1.54918665e-02
      5.68035105e-03 1.05861090e-02 2.58197775e-03 2.58197775e-03
      2.32377998e-03 2.58197775e-03 3.61476885e-03 1.29098888e-03
      5.42215351e-03 4.90575749e-03 5.16395550e-03 4.13116440e-03
      4.13116440e-03 1.60082616e-02 6.19674660e-03 3.35657108e-03
      2.32377998e-03 3.61476885e-03 2.58197775e-03 9.29511990e-03
      1.03279110e-03 4.90575749e-03 3.61476885e-03 3.35657108e-03
      2.84017553e-03 4.38936241e-03 4.13116440e-03 1.54918665e-03
      2.84017553e-03 3.87296663e-03 2.06558220e-03 3.87296663e-03
      4.38936241e-03 3.87296663e-03 0. 8.52052681e-03 2.84017553e-03
      7.22953770e-03 8.00413080e-03 1.16189001e-02 4.64755995e-03
      2.06558220e-03 4.38936241e-03 2.32377998e-03 7.74593325e-03
      7.74593325e-03 4.38936241e-03 7.74593325e-03 4.90575749e-03
      4.90575749e-03 2.06558220e-03 2.58197775e-03 5.68035105e-03
      8.00413080e-03 8.00413080e-03 7.74593325e-03 1.03279110e-03
      3.35657108e-03 9.81151499e-03 8.52052681e-03 5.42215351e-03
      2.32377998e-03 1.31680863e-02 4.64755995e-03 5.16395550e-03
      7.74593325e-03 3.09837330e-03 3.09837330e-03 4.38936241e-03
      3.09837330e-03 2.84017553e-03 4.13116440e-03 4.13116440e-03
      7.74593325e-04 4.13116440e-03 3.61476885e-03</_>
    <_>
      9.10746807e-04 5.46448072e-03 7.28597445e-03 4.55373386e-03
      1.82149361e-03 9.10746807e-04 1.54826958e-02 1.18397083e-02
      5.46448072e-03 7.28597445e-03 1.18397083e-02 2.73224036e-03
      5.46448072e-03 6.37522759e-03 1.82149361e-03 6.37522759e-03
      3.64298723e-03 1.82149361e-03 9.10746772e-03 2.73224036e-03
      2.73224036e-03 3.64298723e-03 1.09289614e-02 8.19672085e-03
      4.55373386e-03 2.73224036e-03 9.10746807e-04 6.37522759e-03
      7.28597445e-03 4.55373386e-03 4.55373386e-03 1.82149361e-03
      3.64298723e-03 3.64298723e-03 1.18397083e-02 5.46448072e-03
      1.45719489e-02 1.82149361e-03 3.64298723e-03 3.64298723e-03
      8.19672085e-03 7.28597445e-03 4.55373386e-03 2.73224036e-03
      5.46448072e-03 5.46448072e-03 3.64298723e-03 4.55373386e-03
      9.10746807e-04 0. 5.46448072e-03 3.64298723e-03 5.46448072e-03
      3.64298723e-03 9.10746807e-04 6.37522759e-03 3.64298723e-03
      9.10746772e-03 5.46448072e-03 2.73224041e-02 8.19672085e-03
      1.82149361e-03 3.64298723e-03 0. 1.82149361e-03 4.55373386e-03
      5.46448072e-03 7.28597445e-03 1.82149361e-03 4.55373386e-03 0.
      1.82149361e-03 1.82149361e-03 1.82149361e-03 1.63934417e-02
      3.64298723e-03 7.28597445e-03 2.73224036e-03 1.45719489e-02
      1.45719489e-02 1.82149361e-03 2.73224036e-03 3.64298723e-03
      8.19672085e-03 3.64298723e-03 4.55373386e-03 2.73224036e-03
      5.46448072e-03 2.73224036e-03 4.55373386e-03 1.82149361e-03 0.
      1.82149361e-03 5.46448072e-03 2.73224036e-03 3.64298723e-03
      1.54826958e-02 7.28597445e-03 5.46448072e-03 1.45719489e-02
      4.55373386e-03 1.82149361e-03 3.64298723e-03 2.73224036e-03
      1.82149361e-03 2.73224036e-03 4.55373386e-03 3.64298723e-03
      5.46448072e-03 3.64298723e-03 4.55373386e-03 3.64298723e-03
      1.63934417e-02 3.64298723e-03 2.73224036e-03 4.55373386e-03
      5.46448072e-03 1.82149361e-03 2.73224036e-03 6.37522759e-03
      1.00182146e-02 2.73224036e-03 1.82149361e-03 2.73224036e-03
      7.28597445e-03 7.28597445e-03 1.82149361e-03 5.46448072e-03
      2.73224036e-03 4.55373386e-03 0. 1.82149361e-03 5.46448072e-03
      8.19672085e-03 5.46448072e-03 3.64298723e-03 5.46448072e-03
      7.28597445e-03 1.36612020e-02 2.73224036e-03 0. 2.73224036e-03
      5.46448072e-03 1.82149361e-03 3.64298723e-03 4.55373386e-03
      4.55373386e-03 6.37522759e-03 3.64298723e-03 9.10746807e-04
      2.73224036e-03 1.82149361e-03 2.73224036e-03 0. 7.28597445e-03
      5.46448072e-03 1.27504552e-02 3.64298723e-03 0. 1.27504552e-02
      2.73224036e-03 4.55373386e-03 4.55373386e-03 7.28597445e-03
      3.64298723e-03 3.64298723e-03 2.73224036e-03 6.37522759e-03
      8.19672085e-03 1.82149361e-03 7.28597445e-03 9.10746807e-04
      2.73224036e-03 9.10746772e-03 9.10746807e-04 7.28597445e-03
      1.00182146e-02 1.82149361e-03 1.00182146e-02 9.10746772e-03
      4.55373386e-03 1.82149361e-03 2.45901644e-02 9.10746807e-04
      4.55373386e-03 7.28597445e-03 5.46448072e-03 3.64298723e-03
      2.73224036e-03 9.10746807e-04 2.73224036e-03 4.55373386e-03
      3.64298723e-03 1.09289614e-02 2.73224036e-03 9.10746807e-04
      1.82149361e-03 0. 1.82149361e-03 4.55373386e-03</_>
    <_>
      0. 2.10748147e-03 7.37618515e-03 5.26870368e-03 0. 2.10748147e-03
      1.47523703e-02 1.15911476e-02 1.15911476e-02 6.32244442e-03
      9.48366709e-03 5.26870368e-03 8.42992589e-03 6.32244442e-03
      3.16122221e-03 4.21496294e-03 5.26870368e-03 1.05374074e-03
      2.10748147e-03 3.16122221e-03 2.10748147e-03 0. 8.42992589e-03 0.
      4.21496294e-03 4.21496294e-03 2.10748147e-03 7.37618515e-03
      1.15911476e-02 1.05374074e-03 0. 5.26870368e-03 6.32244442e-03
      2.10748147e-03 1.79135930e-02 1.05374074e-03 1.15911476e-02
      3.16122221e-03 0. 6.32244442e-03 6.32244442e-03 3.16122221e-03
      3.16122221e-03 5.26870368e-03 4.21496294e-03 3.16122221e-03
      1.05374074e-02 1.05374074e-03 1.05374074e-03 0. 3.16122221e-03
      1.05374074e-03 6.32244442e-03 8.42992589e-03 5.26870368e-03 0.
      7.37618515e-03 2.63435189e-02 2.00210735e-02 2.00210735e-02
      4.21496294e-03 3.16122221e-03 3.16122221e-03 0. 2.10748147e-03
      1.05374074e-02 6.32244442e-03 3.16122221e-03 5.26870368e-03
      4.21496294e-03 0. 2.10748147e-03 1.05374074e-03 1.05374074e-03
      1.47523703e-02 2.10748147e-03 7.37618515e-03 3.16122221e-03
      2.10748147e-02 1.89673342e-02 6.32244442e-03 2.10748147e-03
      3.16122221e-03 4.21496294e-03 3.16122221e-03 9.48366709e-03
      1.05374074e-03 5.26870368e-03 1.05374074e-03 5.26870368e-03
      1.05374074e-03 1.05374074e-03 4.21496294e-03 5.26870368e-03
      2.10748147e-03 3.16122221e-03 1.47523703e-02 1.05374074e-02
      6.32244442e-03 1.26448888e-02 7.37618515e-03 3.16122221e-03
      2.10748147e-03 3.16122221e-03 2.10748147e-03 5.26870368e-03
      6.32244442e-03 4.21496294e-03 0. 1.05374074e-03 2.10748147e-03
      1.15911476e-02 1.47523703e-02 4.21496294e-03 5.26870368e-03
      9.48366709e-03 5.26870368e-03 2.10748147e-03 4.21496294e-03
      5.26870368e-03 6.32244442e-03 1.05374074e-03 3.16122221e-03
      2.10748147e-03 7.37618515e-03 4.21496294e-03 3.16122221e-03
      3.16122221e-03 3.16122221e-03 5.26870368e-03 2.10748147e-03
      3.16122221e-03 2.10748147e-03 4.21496294e-03 2.10748147e-03 0.
      1.05374074e-03 7.37618515e-03 1.58061106e-02 1.05374074e-03 0.
      7.37618515e-03 5.26870368e-03 3.16122221e-03 4.21496294e-03
      9.48366709e-03 5.26870368e-03 3.16122221e-03 4.21496294e-03
      2.10748147e-03 0. 3.16122221e-03 0. 3.16122221e-03 1.36986300e-02
      3.16122221e-03 7.37618515e-03 2.10748147e-03 0. 6.32244442e-03
      1.05374074e-03 5.26870368e-03 4.21496294e-03 9.48366709e-03
      5.26870368e-03 4.21496294e-03 1.05374074e-03 1.05374074e-03
      7.37618515e-03 4.21496294e-03 8.42992589e-03 1.05374074e-03
      6.32244442e-03 7.37618515e-03 1.05374074e-03 9.48366709e-03
      1.05374074e-02 5.26870368e-03 2.10748147e-03 4.21496294e-03
      5.26870368e-03 2.10748147e-03 2.84509994e-02 2.10748147e-03
      3.16122221e-03 1.05374074e-03 3.16122221e-03 0. 0. 4.21496294e-03
      2.10748147e-03 2.10748147e-03 4.21496294e-03 4.21496294e-03
      8.42992589e-03 1.05374074e-03 0. 4.21496294e-03 0. 8.42992589e-03</_>
    <_>
      1.45985396e-03 1.45985396e-03 5.83941583e-03 4.37956210e-03
      5.83941583e-03 1.45985396e-03 2.91970791e-03 4.37956210e-03
      2.91970791e-03 4.37956210e-03 1.02189779e-02 1.45985396e-03
      5.83941583e-03 0. 4.37956210e-03 1.02189779e-02 4.37956210e-03
      1.02189779e-02 1.45985396e-03 5.83941583e-03 8.75912420e-03
      4.37956210e-03 1.16788317e-02 5.83941583e-03 2.91970791e-03
      4.37956210e-03 1.45985396e-03 5.83941583e-03 1.45985396e-03
      1.45985396e-03 2.91970791e-03 2.91970791e-03 2.91970791e-03
      1.45985391e-02 1.45985396e-03 4.37956210e-03 1.02189779e-02
      4.37956210e-03 4.37956210e-03 1.02189779e-02 4.37956210e-03
      1.45985396e-03 2.91970791e-03 2.91970791e-03 0. 1.45985396e-03
      2.91970791e-03 1.45985396e-03 1.45985396e-03 0. 7.29926955e-03 0.
      2.91970791e-03 8.75912420e-03 7.29926955e-03 1.45985396e-03
      1.45985396e-03 2.91970791e-03 1.16788317e-02 4.37956210e-03
      5.83941583e-03 5.83941583e-03 7.29926955e-03 2.91970791e-03
      1.45985396e-03 2.91970791e-03 0. 8.75912420e-03 2.91970791e-03
      2.91970791e-03 1.45985396e-03 1.45985396e-03 0. 0. 8.75912420e-03
      1.45985396e-03 2.91970791e-03 0. 5.83941583e-03 2.91970791e-03
      1.31386854e-02 0. 1.45985396e-03 1.45985396e-03 5.69343045e-02 0.
      0. 1.02189779e-02 0. 7.29926955e-03 1.02189779e-02 0. 0.
      2.91970791e-03 0. 0. 2.91970791e-03 2.91970791e-03 0.
      4.37956210e-03 1.02189779e-02 4.37956210e-03 1.45985396e-03
      4.37956210e-03 0. 1.45985396e-03 0. 1.45985396e-03 0.
      5.83941583e-03 2.91970791e-03 1.45985391e-02 1.06569342e-01
      4.37956210e-03 8.75912420e-03 1.45985396e-03 8.75912420e-03 0.
      2.91970791e-03 1.45985396e-03 5.83941583e-03 1.45985396e-03
      4.37956210e-03 2.91970791e-03 0. 4.37956192e-02 0. 0.
      1.45985396e-03 0. 2.91970791e-03 5.83941583e-03 1.45985396e-03 0.
      4.37956210e-03 0. 2.91970791e-03 1.45985396e-03 7.29926955e-03 0.
      0. 0. 7.29926955e-03 0. 2.91970791e-03 4.37956210e-03
      2.91970791e-03 5.83941583e-03 0. 1.45985396e-03 5.83941583e-03
      1.45985396e-03 0. 1.45985396e-03 2.91970791e-03 7.44525492e-02
      7.29926955e-03 4.37956210e-03 0. 4.37956210e-03 0. 0.
      1.31386854e-02 2.62773708e-02 1.45985396e-03 5.83941583e-03 0.
      1.45985396e-03 1.16788317e-02 0. 8.75912420e-03 0. 8.75912420e-03
      5.83941583e-03 0. 0. 1.45985391e-02 0. 0. 5.83941583e-03
      1.45985396e-03 1.45985396e-03 2.91970791e-03 0. 0. 4.37956210e-03
      1.45985396e-03 7.29926955e-03 2.91970791e-03 1.45985396e-03 0.
      1.45985396e-03 1.45985396e-03 2.04379559e-02 1.45985396e-03
      2.91970791e-03 0. 1.45985396e-03 2.91970791e-03 4.37956210e-03</_>
    <_>
      1.31406041e-03 3.94218136e-03 2.10249666e-02 0. 1.18265441e-02
      3.94218136e-03 3.94218136e-03 2.62812083e-03 1.31406041e-03
      2.62812083e-03 1.18265441e-02 7.88436271e-03 7.88436271e-03
      7.88436271e-03 1.31406041e-03 3.94218136e-03 1.31406041e-03
      5.25624165e-03 1.05124833e-02 1.05124833e-02 0. 1.31406041e-03
      1.18265441e-02 1.31406041e-03 7.88436271e-03 1.31406039e-02
      1.31406041e-03 3.94218136e-03 2.62812083e-03 2.62812083e-03
      2.62812083e-03 6.57030195e-03 1.18265441e-02 1.31406041e-03
      3.94218136e-03 1.31406041e-03 1.05124833e-02 5.25624165e-03
      5.25624165e-03 5.25624165e-03 9.19842254e-03 1.31406041e-03
      2.62812083e-03 2.62812083e-03 7.88436271e-03 3.94218136e-03
      7.88436271e-03 6.57030195e-03 2.62812083e-03 6.57030195e-03
      5.25624165e-03 3.94218136e-03 5.25624165e-03 2.62812083e-03
      2.62812083e-03 0. 2.62812083e-03 2.62812083e-03 6.57030195e-03
      2.10249666e-02 2.62812083e-03 1.31406041e-03 1.44546647e-02
      9.19842254e-03 1.18265441e-02 1.05124833e-02 6.57030195e-03
      1.31406041e-03 2.62812083e-03 5.25624165e-03 1.31406041e-03 0.
      1.31406041e-03 0. 6.57030195e-03 6.57030195e-03 3.94218136e-03
      2.62812083e-03 6.57030195e-03 1.31406041e-03 6.57030195e-03
      3.94218136e-03 1.05124833e-02 6.57030195e-03 1.31406041e-03
      6.57030195e-03 1.18265441e-02 6.57030195e-03 5.25624165e-03
      1.05124833e-02 1.31406041e-03 3.94218136e-03 1.31406041e-03
      7.88436271e-03 3.94218136e-03 5.25624165e-03 1.18265441e-02
      2.62812083e-03 1.05124833e-02 9.19842254e-03 1.31406041e-03
      1.31406041e-03 1.31406041e-03 5.25624165e-03 1.31406041e-03
      9.19842254e-03 2.62812083e-03 3.94218136e-03 1.31406041e-03
      1.70827862e-02 2.62812083e-03 1.83968451e-02 5.25624165e-03
      1.31406039e-02 6.57030195e-03 0. 5.25624165e-03 0. 3.94218136e-03
      3.94218136e-03 6.57030195e-03 1.31406041e-03 1.31406041e-03
      1.31406041e-03 7.88436271e-03 6.57030195e-03 5.25624165e-03 0.
      5.25624165e-03 5.25624165e-03 2.62812083e-03 7.88436271e-03
      1.31406041e-03 1.31406041e-03 3.94218136e-03 6.57030195e-03
      1.31406041e-03 5.25624165e-03 2.62812083e-03 0. 2.62812083e-03
      6.57030195e-03 6.57030195e-03 0. 2.62812083e-03 2.62812083e-03 0.
      2.62812083e-03 5.25624165e-03 1.31406041e-03 0. 2.62812083e-03 0.
      1.31406041e-03 2.36530881e-02 3.94218136e-03 9.19842254e-03
      1.31406041e-03 0. 2.62812083e-03 1.31406041e-03 1.31406041e-03
      5.25624165e-03 3.94218136e-03 1.31406041e-03 6.57030195e-03 0.
      2.62812083e-03 0. 5.25624165e-03 5.25624165e-03 1.31406041e-03
      7.88436271e-03 1.57687254e-02 2.62812083e-03 0. 1.31406041e-03
      2.62812083e-03 6.57030195e-03 1.05124833e-02 3.28515097e-02
      1.31406041e-03 2.62812083e-03 1.05124833e-02 1.31406041e-03
      7.88436271e-03 5.25624165e-03 2.62812083e-03 0. 9.19842254e-03
      2.62812083e-03 3.94218136e-03 7.88436271e-03 7.88436271e-03 0.
      3.94218136e-03 5.25624165e-03 0. 3.94218136e-03 9.19842254e-03</_>
    <_>
      1.31406041e-03 3.94218136e-03 2.10249666e-02 0. 1.18265441e-02
      3.94218136e-03 3.94218136e-03 2.62812083e-03 1.31406041e-03
      2.62812083e-03 1.18265441e-02 7.88436271e-03 7.88436271e-03
      7.88436271e-03 1.31406041e-03 3.94218136e-03 1.31406041e-03
      5.25624165e-03 1.05124833e-02 1.05124833e-02 0. 1.31406041e-03
      1.18265441e-02 1.31406041e-03 7.88436271e-03 1.31406039e-02
      1.31406041e-03 3.94218136e-03 2.62812083e-03 2.62812083e-03
      2.62812083e-03 6.57030195e-03 1.18265441e-02 1.31406041e-03
      3.94218136e-03 1.31406041e-03 1.05124833e-02 5.25624165e-03
      5.25624165e-03 5.25624165e-03 9.19842254e-03 1.31406041e-03
      2.62812083e-03 2.62812083e-03 7.88436271e-03 3.94218136e-03
      7.88436271e-03 6.57030195e-03 2.62812083e-03 6.57030195e-03
      5.25624165e-03 3.94218136e-03 5.25624165e-03 2.62812083e-03
      2.62812083e-03 0. 2.62812083e-03 2.62812083e-03 6.57030195e-03
      2.10249666e-02 2.62812083e-03 1.31406041e-03 1.44546647e-02
      9.19842254e-03 1.18265441e-02 1.05124833e-02 6.57030195e-03
      1.31406041e-03 2.62812083e-03 5.25624165e-03 1.31406041e-03 0.
      1.31406041e-03 0. 6.57030195e-03 6.57030195e-03 3.94218136e-03
      2.62812083e-03 6.57030195e-03 1.31406041e-03 6.57030195e-03
      3.94218136e-03 1.05124833e-02 6.57030195e-03 1.31406041e-03
      6.57030195e-03 1.18265441e-02 6.57030195e-03 5.25624165e-03
      1.05124833e-02 1.31406041e-03 3.94218136e-03 1.31406041e-03
      7.88436271e-03 3.94218136e-03 5.25624165e-03 1.18265441e-02
      2.62812083e-03 1.05124833e-02 9.19842254e-03 1.31406041e-03
      1.31406041e-03 1.31406041e-03 5.25624165e-03 1.31406041e-03
      9.19842254e-03 2.62812083e-03 3.94218136e-03 1.31406041e-03
      1.70827862e-02 2.62812083e-03 1.83968451e-02 5.25624165e-03
      1.31406039e-02 6.57030195e-03 0. 5.25624165e-03 0. 3.94218136e-03
      3.94218136e-03 6.57030195e-03 1.31406041e-03 1.31406041e-03
      1.31406041e-03 7.88436271e-03 6.57030195e-03 5.25624165e-03 0.
      5.25624165e-03 5.25624165e-03 2.62812083e-03 7.88436271e-03
      1.31406041e-03 1.31406041e-03 3.94218136e-03 6.57030195e-03
      1.31406041e-03 5.25624165e-03 2.62812083e-03 0. 2.62812083e-03
      6.57030195e-03 6.57030195e-03 0. 2.62812083e-03 2.62812083e-03 0.
      2.62812083e-03 5.25624165e-03 1.31406041e-03 0. 2.62812083e-03 0.
      1.31406041e-03 2.36530881e-02 3.94218136e-03 9.19842254e-03
      1.31406041e-03 0. 2.62812083e-03 1.31406041e-03 1.31406041e-03
      5.25624165e-03 3.94218136e-03 1.31406041e-03 6.57030195e-03 0.
      2.62812083e-03 0. 5.25624165e-03 5.25624165e-03 1.31406041e-03
      7.88436271e-03 1.57687254e-02 2.62812083e-03 0. 1.31406041e-03
      2.62812083e-03 6.57030195e-03 1.05124833e-02 3.28515097e-02
      1.31406041e-03 2.62812083e-03 1.05124833e-02 1.31406041e-03
      7.88436271e-03 5.25624165e-03 2.62812083e-03 0. 9.19842254e-03
      2.62812083e-03 3.94218136e-03 7.88436271e-03 7.88436271e-03 0.
      3.94218136e-03 5.25624165e-03 0. 3.94218136e-03 9.19842254e-03</_>
    <_>
      0. 2.99700303e-03 9.99000971e-04 1.39860138e-02 0. 5.99400606e-03
      0. 9.99000971e-04 4.99500474e-03 1.99800194e-03 6.99300691e-03
      1.49850147e-02 0. 9.99000971e-04 3.99600388e-03 1.99800194e-03
      9.99000971e-04 2.39760242e-02 9.99000948e-03 0. 7.99200777e-03
      1.29870130e-02 5.99400606e-03 9.99000967e-02 9.99000971e-04
      5.99400606e-03 2.99700303e-03 3.99600388e-03 3.99600388e-03
      9.99000971e-04 1.39860138e-02 3.99600388e-03 5.99400606e-03
      5.09490483e-02 9.99000971e-04 1.29870130e-02 7.99200777e-03
      1.99800194e-03 1.99800194e-03 0. 2.99700303e-03 4.99500474e-03
      1.99800194e-03 4.99500474e-03 0. 9.99000948e-03 1.99800194e-03
      3.99600388e-03 0. 1.99800194e-03 9.99000971e-04 0. 9.99000971e-04
      0. 9.99000971e-04 9.99000971e-04 9.99000971e-04 6.99300691e-03
      3.99600388e-03 5.99400606e-03 1.29870130e-02 4.99500474e-03
      8.99100862e-03 8.99100862e-03 0. 9.99000971e-04 0. 1.69830173e-02
      9.99000971e-04 2.99700303e-03 0. 3.99600388e-03 3.99600388e-03 0.
      4.99500474e-03 0. 9.99000948e-03 0. 2.99700303e-03 9.99000971e-04
      1.09890103e-02 0. 0. 4.99500474e-03 2.99700303e-03 5.99400606e-03
      0. 4.99500474e-03 9.99000971e-04 3.99600388e-03 4.99500474e-03
      9.99000971e-04 0. 0. 0. 9.99000971e-04 3.09690293e-02 0.
      5.99400606e-03 6.89310655e-02 3.99600388e-03 4.99500474e-03
      2.99700303e-03 1.99800194e-03 1.09890103e-02 5.99400606e-03
      9.99000971e-04 9.99000971e-04 6.99300691e-03 0. 3.99600388e-03
      9.99000971e-04 9.99000971e-04 4.99500474e-03 0. 9.99000971e-04 0.
      0. 9.99000971e-04 2.99700303e-03 5.69430552e-02 2.99700303e-03
      1.99800194e-03 1.99800194e-03 2.99700303e-03 8.99100862e-03
      2.99700303e-03 9.99000971e-04 1.99800194e-03 6.99300691e-03
      1.99800194e-03 1.99800194e-03 9.99000971e-04 9.99000971e-04
      2.99700303e-03 5.99400606e-03 0. 1.19880121e-02 2.09790207e-02 0.
      1.99800194e-03 9.99000971e-04 0. 1.99800194e-03 1.29870130e-02
      1.99800194e-03 2.99700303e-03 2.99700303e-03 9.99000971e-04 0.
      9.99000971e-04 1.99800194e-03 9.99000971e-04 0. 0. 0.
      4.99500474e-03 2.99700303e-03 0. 4.99500474e-03 9.99000971e-04
      9.99000971e-04 5.99400606e-03 9.99000971e-04 9.99000971e-04
      2.99700303e-03 0. 2.99700303e-03 0. 9.99000971e-04 9.99000971e-04
      9.99000971e-04 1.19880121e-02 1.59840155e-02 9.99000971e-04
      9.99000971e-04 2.99700303e-03 9.99000971e-04 4.99500474e-03
      4.99500474e-03 9.99000971e-04 1.19880121e-02 1.99800194e-03
      3.99600388e-03 6.99300691e-03 9.99000971e-04 3.99600388e-03
      8.99100862e-03 9.99000971e-04 0. 9.99000971e-04 1.99800194e-03
      9.99000971e-04 9.99000948e-03 2.99700303e-03 9.99000971e-04
      9.99000971e-04 9.99000971e-04 6.99300691e-03 1.99800194e-03</_>
    <_>
      1.40646973e-03 9.37646488e-04 9.37646441e-03 5.62587893e-03
      1.87529298e-03 3.28176282e-03 7.03234877e-03 1.12517579e-02
      1.87529298e-03 9.84528847e-03 3.75058595e-03 1.07829347e-02
      1.87529298e-03 3.75058595e-03 5.62587893e-03 9.37646441e-03
      1.40646973e-03 1.87529298e-03 1.87529298e-03 5.62587893e-03
      4.21940908e-03 2.81293946e-03 6.09470205e-03 1.87529288e-02
      2.81293946e-03 9.37646441e-03 4.21940908e-03 2.34411610e-03
      4.21940908e-03 1.87529298e-03 7.03234877e-03 3.75058595e-03
      5.15705580e-03 1.59399901e-02 7.03234877e-03 3.28176282e-03
      2.20346916e-02 1.40646973e-03 7.03234877e-03 9.37646488e-04
      3.28176282e-03 5.62587893e-03 6.09470205e-03 2.81293946e-03
      1.40646973e-03 4.21940908e-03 6.56352565e-03 1.40646973e-03
      9.37646488e-04 1.87529298e-03 4.21940908e-03 1.87529298e-03
      2.81293946e-03 1.87529298e-03 4.68823244e-04 3.28176282e-03
      9.37646441e-03 6.56352565e-03 1.40646973e-03 3.28176282e-03
      6.09470205e-03 3.75058595e-03 9.37646441e-03 6.56352565e-03
      1.87529298e-03 4.68823221e-03 1.40646973e-03 1.64088141e-02
      6.56352565e-03 8.90764128e-03 4.68823244e-04 9.37646488e-04
      1.40646973e-03 1.40646973e-03 7.03234877e-03 3.75058595e-03
      6.56352565e-03 9.37646488e-04 5.62587893e-03 3.75058595e-03
      9.84528847e-03 1.40646973e-03 2.34411610e-03 7.50117190e-03
      1.73464604e-02 3.75058595e-03 4.68823221e-03 3.28176282e-03
      9.37646488e-04 1.07829347e-02 6.09470205e-03 9.37646488e-04
      3.28176282e-03 7.50117190e-03 2.34411610e-03 1.40646973e-03
      1.40646973e-03 5.62587893e-03 5.62587893e-03 1.35958744e-02
      3.75058595e-03 5.15705580e-03 2.34411610e-03 4.21940908e-03
      1.40646973e-03 4.21940908e-03 2.81293946e-03 9.37646488e-04
      9.37646488e-04 1.40646973e-03 9.37646488e-04 1.17205810e-02
      1.03141116e-02 9.37646488e-04 1.87529298e-03 1.87529298e-03
      1.87529298e-03 2.81293946e-03 2.34411610e-03 3.75058595e-03
      1.54711669e-02 3.28176282e-03 1.87529298e-03 3.28176282e-03
      2.34411610e-03 9.84528847e-03 9.37646441e-03 2.81293946e-03
      1.50023438e-02 7.96999503e-03 1.87529298e-03 2.34411610e-03
      5.15705580e-03 1.87529298e-03 6.09470205e-03 1.40646975e-02
      1.64088141e-02 8.90764128e-03 5.62587893e-03 1.40646973e-03
      1.87529298e-03 1.87529298e-03 3.28176282e-03 1.87529298e-03
      1.87529298e-03 5.15705580e-03 2.81293946e-03 6.09470205e-03 0.
      1.40646973e-03 4.68823221e-03 2.34411610e-03 2.34411610e-03
      2.81293946e-03 1.59399901e-02 1.40646973e-03 4.68823221e-03
      5.15705580e-03 0. 3.28176282e-03 9.37646488e-04 4.21940908e-03
      7.50117190e-03 8.90764128e-03 1.40646973e-03 4.68823244e-04
      2.81293946e-03 4.68823221e-03 6.56352565e-03 8.43881816e-03
      4.21940908e-03 2.81293946e-03 7.50117190e-03 1.45335207e-02
      4.68823244e-04 1.40646973e-03 7.96999503e-03 1.87529298e-03
      8.43881816e-03 6.56352565e-03 4.21940908e-03 6.56352565e-03
      2.01593991e-02 6.56352565e-03 2.81293946e-03 3.75058595e-03
      1.12517579e-02 9.37646441e-03 7.03234877e-03 1.40646973e-03
      9.37646488e-04 6.56352565e-03 4.21940908e-03 1.17205810e-02
      1.87529298e-03 2.34411610e-03 4.21940908e-03 3.75058595e-03
      1.12517579e-02 3.28176282e-03</_>
    <_>
      1.73535792e-03 3.25379614e-03 4.33839485e-03 5.42299356e-03
      6.50759204e-04 2.60303682e-03 1.30151841e-03 4.18655090e-02
      2.16919743e-03 5.85683296e-03 3.68763553e-03 1.21475058e-02
      8.67678958e-04 1.30151841e-03 5.42299356e-03 8.89370963e-03
      8.67678958e-04 6.29067235e-03 4.33839485e-03 4.12147492e-03
      3.68763553e-03 1.08459871e-03 1.34490235e-02 4.55531431e-03
      3.68763553e-03 2.23427340e-02 1.51843822e-03 3.03687644e-03
      9.54446848e-03 1.08459871e-03 5.63991303e-03 1.95227761e-03
      7.80911045e-03 5.20607363e-03 1.58351418e-02 8.67678958e-04
      7.15835160e-03 1.73535792e-03 4.77223424e-03 2.16919743e-03
      2.81995651e-03 7.37527106e-03 4.77223424e-03 4.33839485e-03
      2.60303682e-03 1.51843822e-03 4.92407791e-02 2.60303682e-03
      1.30151841e-03 1.95227761e-03 4.33839479e-04 1.73535792e-03
      8.67678958e-04 8.67678958e-04 2.16919740e-04 1.95227761e-03
      1.34490235e-02 3.68763553e-03 4.33839479e-04 5.42299356e-03
      4.77223424e-03 4.33839485e-03 2.36442517e-02 6.07375288e-03
      1.08459871e-03 5.63991303e-03 8.67678958e-04 9.97830834e-03
      8.89370963e-03 1.38828633e-02 8.67678958e-04 2.16919743e-03
      2.38611712e-03 1.30151841e-03 4.33839479e-04 6.50759204e-04
      1.14967460e-02 2.60303682e-03 8.89370963e-03 7.80911045e-03
      9.76138841e-03 3.47071583e-03 4.33839479e-04 6.07375288e-03
      7.37527106e-03 1.08459871e-02 5.85683296e-03 2.60303682e-03
      1.51843822e-03 7.15835160e-03 1.51843822e-03 1.95227761e-03
      1.30151841e-03 2.38611712e-03 1.73535792e-03 1.30151841e-03
      4.33839479e-04 3.90455523e-03 3.90455523e-03 3.94793935e-02
      2.16919743e-03 3.47071583e-03 2.38611712e-03 1.51843822e-03
      1.30151841e-03 6.94143167e-03 8.67678958e-04 2.81995651e-03
      1.51843822e-03 4.33839479e-04 3.47071583e-03 6.29067235e-03
      1.95227761e-03 6.50759204e-04 1.30151841e-03 4.33839479e-04
      3.90455523e-03 3.03687644e-03 2.60303682e-03 5.42299356e-03
      3.70932743e-02 1.51843822e-03 1.30151841e-03 1.51843822e-03
      4.55531431e-03 2.60303682e-03 5.85683296e-03 2.16919743e-03
      5.42299356e-03 4.12147492e-03 2.16919743e-03 6.50759204e-04
      1.51843822e-03 2.60303682e-03 3.47071583e-03 2.81995651e-03
      2.16919743e-03 1.97396968e-02 2.81995651e-03 8.67678958e-04
      1.30151841e-03 1.73535792e-03 1.51843822e-03 1.95227761e-03
      1.30151841e-03 1.51843822e-03 2.60303682e-03 4.33839485e-03
      1.08459871e-03 2.81995651e-03 3.25379614e-03 1.51843822e-03
      1.51843822e-03 1.30151841e-03 4.12147492e-03 1.08459871e-03
      1.73535792e-03 2.60303682e-03 0. 1.30151841e-03 1.95227761e-03
      1.30151841e-03 1.30151841e-03 5.20607363e-03 1.08459871e-03
      1.08459871e-03 2.60303682e-03 1.51843822e-03 5.20607363e-03
      6.29067235e-03 3.47071583e-03 1.95227761e-03 8.89370963e-03
      8.67678970e-03 1.30151841e-03 2.60303682e-03 4.98915417e-03
      2.38611712e-03 6.07375288e-03 8.89370963e-03 6.50759204e-04
      3.90455523e-03 7.00650737e-02 4.98915417e-03 2.16919743e-03
      7.59219099e-03 8.02602991e-03 8.02602991e-03 2.60303682e-03
      8.67678958e-04 3.25379614e-03 4.33839485e-03 1.73535792e-03
      1.75704993e-02 1.51843822e-03 3.03687644e-03 2.60303682e-03
      3.25379614e-03 6.07375288e-03 2.16919743e-03</_>
    <_>
      6.60066027e-04 1.32013205e-03 5.28052822e-03 1.98019808e-03 0.
      1.98019808e-03 6.60066027e-04 9.24092438e-03 0. 7.92079233e-03
      1.98019808e-03 7.92079233e-03 2.64026411e-03 1.32013205e-03
      1.32013205e-03 1.58415847e-02 3.30033014e-03 1.32013205e-03
      8.58085789e-03 3.30033014e-03 1.98019808e-03 6.60066027e-04
      1.84818488e-02 5.94059424e-03 1.98019808e-03 3.96039635e-02
      2.64026411e-03 4.62046219e-03 7.26072630e-03 0. 7.92079233e-03
      5.28052822e-03 7.92079233e-03 1.98019808e-03 1.18811885e-02 0.
      1.38613861e-02 6.60066027e-04 1.98019808e-03 0. 5.94059424e-03
      3.96039616e-03 5.28052822e-03 7.26072630e-03 3.30033014e-03
      2.64026411e-03 7.26072630e-03 1.32013205e-03 6.60066027e-04
      1.32013205e-03 6.60066027e-04 3.30033014e-03 3.30033014e-03
      1.32013205e-03 6.60066027e-04 6.60066027e-04 2.24422440e-02
      1.25412550e-02 6.60066027e-04 1.32013205e-03 2.64026411e-03
      6.60066027e-04 2.31023114e-02 5.28052822e-03 6.60066027e-04
      9.24092438e-03 6.60066027e-04 1.12211220e-02 1.12211220e-02
      7.26072630e-03 1.98019808e-03 1.32013205e-03 2.64026411e-03
      3.30033014e-03 0. 1.98019808e-03 1.05610564e-02 5.94059424e-03
      4.62046219e-03 5.28052822e-03 7.26072630e-03 1.32013205e-03
      6.60066027e-04 6.60066027e-03 1.91419143e-02 7.26072630e-03
      3.96039616e-03 1.32013205e-03 2.64026411e-03 2.64026411e-03
      6.60066027e-04 6.60066027e-04 6.60066027e-04 3.96039616e-03 0.
      6.60066027e-04 1.32013205e-03 1.25412550e-02 7.26072630e-03
      1.38613861e-02 4.62046219e-03 1.32013205e-03 3.30033014e-03
      6.60066027e-04 6.60066027e-04 1.98019808e-03 6.60066027e-03
      1.32013205e-03 1.98019808e-03 0. 3.96039616e-03 7.92079233e-03
      2.24422440e-02 1.32013205e-03 6.60066027e-04 1.98019808e-03
      3.96039616e-03 1.58415847e-02 1.32013205e-03 7.92079233e-03
      9.24092438e-03 1.98019808e-03 6.60066027e-04 9.24092438e-03
      1.98019808e-03 8.58085789e-03 1.32013205e-03 4.62046219e-03
      5.28052822e-03 2.64026411e-03 1.38613861e-02 0. 8.58085789e-03
      3.30033014e-03 3.30033014e-03 1.98019808e-03 1.12211220e-02
      6.60066027e-03 1.98019808e-03 3.96039616e-03 3.30033014e-03
      1.32013205e-03 1.32013205e-03 6.60066027e-04 0. 3.30033014e-03
      2.04620473e-02 5.28052822e-03 6.60066027e-04 2.64026411e-03 0.
      6.60066027e-04 0. 2.64026411e-03 1.25412550e-02 6.60066027e-04
      2.64026411e-03 2.64026411e-03 0. 1.32013205e-03 0. 3.96039616e-03
      3.96039616e-03 9.24092438e-03 3.96039616e-03 0. 3.96039616e-03
      1.98019808e-03 1.18811885e-02 7.92079233e-03 5.28052822e-03
      6.60066027e-04 9.90099087e-03 2.70627066e-02 1.32013205e-03
      1.32013205e-03 1.32013205e-02 3.30033014e-03 4.62046219e-03
      9.24092438e-03 0. 2.64026411e-03 2.11221129e-02 1.98019808e-03
      1.32013205e-03 3.30033014e-03 2.64026411e-03 3.30033004e-02
      2.64026411e-03 4.62046219e-03 1.98019808e-03 1.12211220e-02
      1.98019808e-03 1.91419143e-02 2.64026411e-03 1.32013205e-03
      1.98019808e-03 1.32013205e-03 3.96039616e-03 5.28052822e-03</_>
    <_>
      5.73979598e-03 4.14540805e-03 1.33928573e-02 5.73979598e-03
      6.37755089e-04 4.46428545e-03 5.73979598e-03 1.59438774e-02
      3.50765302e-03 7.65306130e-03 3.18877539e-03 7.33418344e-03
      2.55102036e-03 4.78316331e-03 3.82653065e-03 1.43494895e-02
      3.18877544e-04 3.18877539e-03 9.56632663e-03 8.60969350e-03
      2.86989799e-03 9.56632663e-04 1.11607136e-02 1.91326533e-03
      6.37755089e-04 1.37117347e-02 1.91326533e-03 1.91326533e-03
      8.60969350e-03 2.55102036e-03 6.37755077e-03 5.42091811e-03
      1.11607136e-02 8.60969350e-03 5.73979598e-03 2.86989799e-03
      1.59438774e-02 2.55102036e-03 3.82653065e-03 1.91326533e-03
      7.01530604e-03 7.01530604e-03 3.82653065e-03 9.24744923e-03
      2.23214272e-03 2.86989799e-03 7.97193870e-03 1.27551018e-03
      3.18877544e-04 1.59438769e-03 6.05867337e-03 3.18877539e-03
      1.59438769e-03 1.91326533e-03 1.27551018e-03 1.91326533e-03
      2.16836724e-02 8.92857090e-03 2.23214272e-03 7.97193870e-03
      6.05867337e-03 1.91326533e-03 2.00892854e-02 4.46428545e-03
      1.91326533e-03 8.92857090e-03 3.18877539e-03 9.88520402e-03
      6.69642864e-03 4.46428545e-03 2.86989799e-03 1.59438769e-03
      2.86989799e-03 1.59438769e-03 0. 3.82653065e-03 1.69005096e-02
      1.91326533e-03 5.73979598e-03 6.37755077e-03 7.65306130e-03
      1.91326533e-03 2.86989799e-03 6.05867337e-03 2.55102031e-02
      6.05867337e-03 1.91326533e-03 5.73979598e-03 1.59438769e-03
      7.65306130e-03 9.56632663e-04 1.27551018e-03 6.37755089e-04
      1.02040814e-02 2.23214272e-03 1.91326533e-03 6.37755089e-04
      1.11607136e-02 7.33418344e-03 1.11607136e-02 5.10204071e-03
      1.91326533e-03 1.59438769e-03 1.59438769e-03 1.27551018e-03
      5.73979598e-03 2.86989799e-03 2.86989799e-03 9.56632663e-04
      3.18877544e-04 1.27551018e-03 7.01530604e-03 2.55102031e-02
      1.27551018e-03 5.10204071e-03 9.56632663e-04 1.91326533e-03
      4.78316331e-03 9.56632663e-04 5.73979598e-03 1.69005096e-02
      2.55102036e-03 6.37755089e-04 5.73979598e-03 2.86989799e-03
      4.78316331e-03 2.86989799e-03 2.86989799e-03 4.14540805e-03
      3.50765302e-03 1.27551018e-03 9.56632663e-04 2.23214272e-03
      1.91326533e-03 6.05867337e-03 2.86989799e-03 5.73979598e-03
      1.49872443e-02 2.23214272e-03 1.27551018e-03 2.23214272e-03
      3.18877544e-04 4.78316331e-03 4.46428545e-03 6.37755089e-04
      4.14540805e-03 1.08418362e-02 4.46428545e-03 9.56632663e-04
      1.59438769e-03 2.23214272e-03 5.73979598e-03 3.82653065e-03
      2.23214272e-03 2.32780613e-02 2.86989799e-03 1.27551018e-03
      3.18877539e-03 0. 2.55102036e-03 6.37755089e-04 3.50765302e-03
      5.42091811e-03 1.21173467e-02 2.86989799e-03 9.56632663e-04
      3.82653065e-03 3.82653065e-03 2.86989799e-03 4.14540805e-03
      2.86989799e-03 6.37755089e-04 7.01530604e-03 8.29081610e-03
      9.56632663e-04 2.23214272e-03 1.91326533e-03 9.56632663e-04
      4.14540805e-03 6.37755077e-03 6.37755089e-04 3.50765302e-03
      2.71045920e-02 3.18877539e-03 9.56632663e-04 5.10204071e-03
      1.27551015e-02 1.94515307e-02 4.14540805e-03 2.55102036e-03
      2.55102036e-03 4.14540805e-03 2.23214272e-03 5.10204071e-03
      1.27551018e-03 3.50765302e-03 4.78316331e-03 2.55102036e-03
      6.37755077e-03 4.46428545e-03</_>
    <_>
      1.73812278e-03 5.79374260e-04 8.11123941e-03 5.79374284e-03
      6.66280417e-03 2.89687130e-04 2.31749704e-03 2.14368477e-02
      6.08342979e-03 2.02780985e-03 6.66280417e-03 8.40092637e-03
      5.79374284e-03 5.21436846e-03 4.34530713e-03 1.15874857e-02
      2.60718423e-03 1.15874852e-03 2.89687142e-03 8.40092637e-03
      3.18655837e-03 1.44843571e-03 2.23059095e-02 4.63499408e-03
      3.47624556e-03 2.20162217e-02 3.47624556e-03 6.66280417e-03
      6.37311675e-03 2.02780985e-03 5.21436846e-03 2.02780985e-03
      6.08342979e-03 8.69061425e-03 1.73812278e-03 2.31749704e-03
      1.12977978e-02 1.73812278e-03 6.66280417e-03 4.34530713e-03
      2.89687142e-03 2.60718423e-03 1.73812278e-03 4.92468104e-03
      2.31749704e-03 1.73812278e-03 1.70915406e-02 1.73812278e-03
      3.76593275e-03 8.69061390e-04 3.76593275e-03 1.15874852e-03
      1.44843571e-03 5.79374284e-03 1.15874852e-03 2.31749704e-03
      1.68018527e-02 7.82155246e-03 6.08342979e-03 1.47740440e-02
      7.53186550e-03 2.60718423e-03 1.27462335e-02 7.82155246e-03
      6.08342979e-03 4.92468104e-03 5.79374260e-04 5.50405541e-03
      7.53186550e-03 8.98030121e-03 5.79374260e-04 3.47624556e-03
      2.60718423e-03 2.31749704e-03 1.15874852e-03 4.05561971e-03
      1.12977978e-02 2.89687130e-04 2.89687142e-03 3.76593275e-03
      7.53186550e-03 1.73812278e-03 5.79374284e-03 2.89687142e-03
      7.53186550e-03 9.26998816e-03 2.31749704e-03 5.50405541e-03
      2.31749704e-03 4.63499408e-03 3.76593275e-03 1.15874852e-03
      2.89687130e-04 1.21668596e-02 1.15874852e-03 1.15874852e-03
      7.24217808e-03 2.14368477e-02 4.92468104e-03 1.96987242e-02
      2.60718423e-03 1.73812278e-03 8.69061390e-04 1.01390500e-02
      2.89687130e-04 5.50405541e-03 1.44843571e-03 8.69061390e-04
      8.69061390e-04 1.73812278e-03 4.34530713e-03 3.04171480e-02
      3.21552716e-02 4.63499408e-03 3.76593275e-03 2.89687130e-04
      3.18655837e-03 2.02780985e-03 8.69061390e-04 8.69061425e-03
      1.99884120e-02 5.50405541e-03 3.76593275e-03 3.47624556e-03
      2.31749704e-03 4.05561971e-03 3.18655837e-03 1.15874852e-03
      2.60718423e-03 2.60718423e-03 6.37311675e-03 4.92468104e-03
      8.69061390e-04 8.69061390e-04 3.76593275e-03 2.31749704e-03
      2.31749704e-03 8.40092637e-03 2.89687142e-03 8.69061390e-04
      4.92468104e-03 2.89687130e-04 6.37311675e-03 8.69061390e-04
      1.15874852e-03 3.76593275e-03 8.98030121e-03 5.79374284e-03
      5.79374260e-04 1.44843571e-03 1.44843571e-03 2.89687142e-03
      2.89687130e-04 1.44843571e-03 1.82502884e-02 2.31749704e-03
      5.79374260e-04 1.44843571e-03 0. 6.66280417e-03 8.69061390e-04
      1.73812278e-03 1.15874852e-03 1.01390500e-02 8.69061390e-04
      2.31749704e-03 8.69061390e-04 2.02780985e-03 4.63499408e-03
      1.15874852e-03 2.60718423e-03 8.69061390e-04 1.12977978e-02
      6.95249112e-03 1.73812278e-03 1.73812278e-03 4.34530713e-03
      1.44843571e-03 2.02780985e-03 4.92468104e-03 4.34530713e-03
      2.31749704e-03 3.67902666e-02 1.44843571e-03 2.89687130e-04
      3.76593275e-03 8.98030121e-03 1.24565465e-02 5.79374260e-04
      2.89687142e-03 2.89687130e-04 2.02780985e-03 8.69061390e-04
      1.56431049e-02 1.73812278e-03 1.73812278e-03 8.69061390e-04
      1.15874852e-03 4.92468104e-03 6.95249112e-03</_>
    <_>
      2.33009714e-03 1.55339809e-03 1.35922330e-02 1.16504857e-03
      2.33009714e-03 3.88349523e-03 1.55339809e-03 2.87378654e-02
      5.43689355e-03 5.43689355e-03 2.71844678e-03 4.27184487e-03
      3.88349523e-03 6.21359237e-03 3.49514559e-03 1.04854368e-02 0.
      3.49514559e-03 5.04854368e-03 1.24271847e-02 1.94174761e-03
      3.88349523e-04 6.60194177e-03 2.33009714e-03 2.33009714e-03
      5.20388372e-02 1.16504857e-03 3.49514559e-03 8.54368974e-03
      2.33009714e-03 5.04854368e-03 3.10679618e-03 5.82524296e-03
      2.71844678e-03 8.54368974e-03 1.94174761e-03 6.21359237e-03
      1.55339809e-03 4.66019427e-03 2.71844678e-03 5.04854368e-03
      5.43689355e-03 1.55339809e-03 6.99029118e-03 1.55339809e-03
      1.94174761e-03 3.18446606e-02 2.71844678e-03 0. 3.10679618e-03
      1.16504857e-03 1.16504857e-03 2.71844678e-03 1.94174761e-03
      1.16504857e-03 7.76699046e-04 2.25242730e-02 1.51456315e-02
      1.74757279e-02 6.21359237e-03 2.33009714e-03 2.33009714e-03
      1.74757279e-02 5.04854368e-03 5.04854368e-03 3.49514559e-03
      1.55339809e-03 6.21359237e-03 6.60194177e-03 5.43689355e-03 0.
      1.94174761e-03 1.16504857e-03 1.55339809e-03 1.94174761e-03
      7.37864105e-03 3.88349523e-03 2.33009714e-03 4.66019427e-03
      1.12621365e-02 6.60194177e-03 7.76699046e-04 3.88349523e-03
      3.49514559e-03 2.71844678e-03 4.66019427e-03 4.66019427e-03
      3.88349523e-03 3.88349523e-04 2.71844678e-03 4.66019427e-03
      3.88349523e-04 1.55339809e-03 2.21359227e-02 3.88349523e-04 0.
      4.27184487e-03 1.20388353e-02 5.43689355e-03 3.30097079e-02
      3.49514559e-03 7.76699046e-04 0. 3.10679618e-03 7.76699046e-04
      5.04854368e-03 3.49514559e-03 2.71844678e-03 3.88349523e-04
      2.33009714e-03 2.71844678e-03 3.49514559e-03 1.16504859e-02
      1.94174761e-03 2.71844678e-03 3.10679618e-03 5.43689355e-03
      3.49514559e-03 3.88349523e-04 2.71844678e-03 2.36893203e-02
      1.43689327e-02 2.33009714e-03 6.99029118e-03 5.04854368e-03
      5.82524296e-03 3.88349523e-03 1.16504857e-03 3.49514559e-03
      3.49514559e-03 2.33009714e-03 1.16504857e-03 3.10679618e-03
      2.71844678e-03 1.94174761e-03 3.10679618e-03 5.04854368e-03
      8.93203914e-03 3.88349523e-04 3.88349523e-04 1.55339809e-03
      1.55339809e-03 5.43689355e-03 2.71844678e-03 1.16504857e-03
      6.21359237e-03 4.66019427e-03 9.70873795e-03 3.88349523e-04
      2.33009714e-03 1.16504857e-03 5.04854368e-03 1.94174761e-03
      1.55339809e-03 1.55339809e-02 1.94174761e-03 2.33009714e-03
      1.55339809e-03 0. 3.88349523e-03 1.94174761e-03 7.76699046e-04
      9.32038855e-03 1.24271847e-02 2.71844678e-03 1.55339809e-03
      1.16504857e-03 3.49514559e-03 1.16504857e-03 3.10679618e-03
      5.04854368e-03 0. 6.60194177e-03 7.37864105e-03 7.76699046e-04
      1.55339809e-03 1.16504857e-03 1.55339809e-03 2.33009714e-03
      5.04854368e-03 2.33009714e-03 6.60194177e-03 2.91262139e-02
      5.04854368e-03 3.88349523e-03 3.88349523e-03 3.10679618e-03
      1.82524268e-02 7.76699046e-04 7.76699046e-04 1.55339809e-03
      2.33009714e-03 7.76699046e-04 9.32038855e-03 2.71844678e-03
      4.27184487e-03 1.94174761e-03 1.94174761e-03 4.66019427e-03
      1.63106807e-02</_>
    <_>
      1.93861080e-03 6.46203582e-04 8.72374792e-03 2.90791621e-03
      3.23101791e-04 6.13893382e-03 1.29240716e-03 2.71405503e-02
      6.46203582e-04 3.87722161e-03 1.29240716e-03 1.22778676e-02
      6.46203582e-04 2.26171245e-03 3.55411973e-03 1.93861071e-02
      1.61550893e-03 1.61550893e-03 2.90791621e-03 8.72374792e-03
      1.93861080e-03 3.23101791e-04 1.22778676e-02 3.23101791e-04
      3.55411973e-03 1.97092090e-02 3.23101785e-03 3.23101785e-03
      6.78513758e-03 9.69305402e-04 5.16962865e-03 6.13893382e-03
      5.81583241e-03 8.40064697e-03 7.75444321e-03 9.69305402e-04
      1.51857845e-02 1.93861080e-03 2.58481433e-03 1.29240716e-03
      4.20032348e-03 6.46203570e-03 3.87722161e-03 6.13893382e-03
      3.23101785e-03 1.93861080e-03 2.32633296e-02 3.23101785e-03
      9.69305402e-04 9.69305402e-04 9.69305402e-04 1.29240716e-03
      2.90791621e-03 9.69305402e-04 1.93861080e-03 2.26171245e-03
      1.58319883e-02 1.22778676e-02 9.04684979e-03 5.81583241e-03
      2.58481433e-03 1.61550893e-03 2.19709221e-02 1.61550893e-03
      1.93861080e-03 7.43134134e-03 3.23101791e-04 7.43134134e-03
      7.43134134e-03 7.43134134e-03 6.46203582e-04 9.69305402e-04
      1.61550893e-03 1.29240716e-03 9.69305402e-04 1.61550893e-03
      1.09854611e-02 1.93861080e-03 2.26171245e-03 6.78513758e-03
      5.16962865e-03 9.69305402e-04 1.61550893e-03 7.75444321e-03
      2.22940240e-02 8.40064697e-03 2.26171245e-03 3.87722161e-03
      9.69305402e-04 5.81583241e-03 4.84652678e-03 1.29240716e-03
      1.29240716e-03 1.29240714e-02 2.26171245e-03 1.61550893e-03
      3.23101791e-04 2.10016165e-02 8.07754509e-03 1.42164789e-02
      6.78513758e-03 9.69305402e-04 1.29240716e-03 1.61550893e-03
      6.46203582e-04 4.20032348e-03 2.90791621e-03 6.46203582e-04 0.
      3.23101791e-04 1.61550893e-03 3.23101785e-03 5.65428138e-02 0.
      2.26171245e-03 1.29240716e-03 7.43134134e-03 4.20032348e-03
      2.26171245e-03 2.90791621e-03 6.78513758e-03 3.23101785e-03
      9.69305402e-04 3.87722161e-03 3.87722161e-03 9.36995167e-03
      3.23101785e-03 2.26171245e-03 4.52342490e-03 6.46203582e-04
      4.84652678e-03 6.46203582e-04 3.23101785e-03 1.93861080e-03
      4.20032348e-03 5.16962865e-03 1.09854611e-02 9.69305355e-03
      1.61550893e-03 1.61550893e-03 3.23101785e-03 1.61550893e-03
      1.61550893e-03 1.93861080e-03 6.46203582e-04 8.40064697e-03
      8.72374792e-03 8.40064697e-03 1.29240716e-03 2.58481433e-03
      2.58481433e-03 1.29240716e-03 1.29240716e-03 6.46203582e-04
      1.64781921e-02 3.23101785e-03 6.46203582e-04 2.58481433e-03 0.
      2.90791621e-03 9.69305402e-04 2.26171245e-03 8.40064697e-03
      1.55088864e-02 4.52342490e-03 9.69305402e-04 3.23101785e-03
      1.29240716e-03 9.69305355e-03 5.81583241e-03 2.58481433e-03
      1.29240716e-03 8.40064697e-03 8.40064697e-03 1.61550893e-03
      1.29240716e-03 1.16316648e-02 6.46203582e-04 3.55411973e-03
      4.52342490e-03 0. 3.55411973e-03 2.58481428e-02 2.58481433e-03
      9.69305402e-04 2.90791621e-03 5.49273053e-03 1.87399033e-02
      5.81583241e-03 2.58481433e-03 9.69305402e-04 3.23101785e-03
      2.26171245e-03 1.26009695e-02 1.61550893e-03 1.61550893e-03
      5.81583241e-03 3.23101785e-03 3.87722161e-03 6.78513758e-03</_></support_vectors>
  <decision_functions>
    <_>
      <sv_count>16</sv_count>
      <rho>-9.9333213736547710e-01</rho>
      <alpha>
        1. 6.8637007905607450e-01 1. 1. 1. 4.9190721712148594e-01
        8.9884074732115526e-01 4.1357265937808008e-01
        5.0930929712320416e-01 -1. -1. -1. -1. -1. -1. -1.</alpha>
      <index>
        0 1 2 3 4 5 6 7 8 9 10 11 12 13 14 15</index></_></decision_functions></my_svm>
</opencv_storage>
