<?xml version="1.0"?>
<opencv_storage>
<my_svm type_id="opencv-ml-svm">
  <svm_type>C_SVC</svm_type>
  <kernel><type>RBF</type>
    <gamma>1.</gamma></kernel>
  <C>1.</C>
  <term_criteria><epsilon>1.1920928955078125e-07</epsilon>
    <iterations>1000</iterations></term_criteria>
  <var_all>200</var_all>
  <var_count>200</var_count>
  <class_count>2</class_count>
  <class_labels type_id="opencv-matrix">
    <rows>1</rows>
    <cols>2</cols>
    <dt>i</dt>
    <data>
      0 1</data></class_labels>
  <sv_total>17</sv_total>
  <support_vectors>
    <_>
      2.52206810e-03 8.82723834e-03 1.00882724e-02 1.26103405e-03
      3.78310215e-03 1.26103405e-03 2.52206810e-03 1.26103405e-03 0.
      5.04413620e-03 7.56620429e-03 2.14375779e-02 2.52206810e-03
      2.52206810e-03 7.56620429e-03 2.52206810e-03 1.26103405e-03
      1.26103405e-02 2.52206810e-03 0. 3.27868834e-02 6.30517025e-03 0.
      1.26103405e-03 5.04413620e-03 7.56620429e-03 6.30517025e-03
      6.30517025e-03 2.52206810e-03 0. 0. 6.30517025e-03 0.
      7.56620429e-03 1.13493064e-02 0. 0. 1.26103405e-03 1.26103405e-03
      1.26103405e-03 2.52206810e-03 0. 0. 1.26103405e-03 0.
      3.78310215e-03 2.52206810e-03 1.26103405e-03 1.26103405e-03
      1.26103405e-03 8.82723834e-03 3.78310215e-03 2.52206810e-03
      1.26103405e-03 1.26103405e-02 2.52206810e-03 0. 1.00882724e-02
      2.01765448e-02 2.52206810e-03 0. 3.78310215e-03 7.56620429e-03 0.
      8.82723834e-03 1.26103405e-03 0. 3.78310215e-03 1.26103405e-03
      1.26103405e-02 0. 2.52206810e-03 5.04413620e-03 2.01765448e-02
      6.30517025e-03 1.26103405e-03 2.52206810e-03 2.52206810e-03
      6.30517025e-03 1.26103405e-03 2.52206810e-03 1.26103405e-03
      8.82723834e-03 3.78310215e-03 3.78310215e-03 6.30517025e-03
      7.56620429e-03 0. 8.82723834e-03 6.30517025e-03 8.82723834e-03
      2.52206810e-03 5.04413620e-03 1.26103405e-03 0. 1.26103405e-03
      5.04413620e-03 1.13493064e-02 2.52206810e-03 1.26103405e-03
      7.56620429e-03 7.56620429e-03 1.26103405e-03 1.26103405e-03
      7.56620429e-03 2.52206810e-03 3.78310215e-03 5.04413620e-03 0.
      1.26103405e-03 2.52206810e-03 1.26103405e-02 3.27868834e-02
      3.78310215e-03 1.89155117e-02 2.52206810e-03 3.78310215e-03
      5.04413620e-03 0. 2.52206810e-03 2.52206810e-03 0. 2.52206810e-03
      7.56620429e-03 2.52206810e-03 3.78310215e-03 5.04413620e-03
      1.26103405e-03 3.78310215e-03 1.00882724e-02 3.78310215e-03
      3.78310215e-03 2.52206810e-03 2.52206810e-03 5.04413620e-03
      3.78310215e-03 7.56620429e-03 5.04413620e-03 1.00882724e-02
      1.26103405e-03 2.52206810e-03 3.78310215e-03 2.52206810e-03
      5.04413620e-03 1.26103405e-03 6.30517025e-03 1.26103405e-03
      1.51324086e-02 1.00882724e-02 7.56620429e-03 1.13493064e-02 0.
      6.30517025e-03 2.64817141e-02 1.26103405e-03 1.38713745e-02
      1.26103405e-03 0. 2.01765448e-02 6.30517025e-03 8.82723834e-03
      1.26103405e-03 3.78310215e-03 2.52206810e-03 1.26103405e-03
      3.78310215e-03 1.51324086e-02 1.26103405e-03 6.30517025e-03 0. 0.
      1.26103405e-03 1.00882724e-02 1.76544767e-02 3.78310215e-03
      7.56620429e-03 1.26103405e-02 2.52206810e-03 1.26103405e-03
      2.52206810e-03 0. 0. 8.82723834e-03 1.26103405e-03 5.04413620e-03
      0. 2.52206810e-03 2.52206810e-03 7.56620429e-03 3.78310215e-03
      2.01765448e-02 1.26103405e-03 1.26103405e-03 0. 1.26103405e-02
      2.52206810e-03 2.52206810e-03 5.04413620e-03 1.26103405e-03
      2.14375779e-02</_>
    <_>
      1.22249394e-03 3.66748171e-03 4.88997577e-03 3.66748171e-03
      6.11246983e-03 2.44498788e-03 8.55745748e-03 9.77995154e-03
      3.66748171e-03 7.33496342e-03 6.11246983e-03 8.55745748e-03 0. 0.
      7.33496342e-03 4.88997577e-03 4.88997577e-03 0. 0. 0.
      6.11246983e-03 0. 4.88997577e-03 1.34474337e-02 3.66748171e-03
      8.55745748e-03 6.11246983e-03 0. 2.44498788e-03 3.66748171e-03
      2.44498788e-03 0. 1.22249394e-03 0. 7.33496342e-03 0. 0.
      4.88997577e-03 3.66748171e-03 3.66748171e-03 7.33496342e-03
      6.11246983e-03 4.88997577e-03 1.22249394e-03 2.44498788e-03
      4.88997577e-03 1.22249397e-02 1.22249394e-03 1.22249394e-03
      1.22249394e-03 2.44498788e-03 2.44498788e-03 6.11246983e-03
      3.66748171e-03 8.55745748e-03 1.22249394e-03 0. 1.71149150e-02
      1.83374099e-02 2.44498788e-03 0. 2.44498788e-03 1.58924218e-02 0.
      6.11246983e-03 1.22249394e-03 4.88997577e-03 1.58924218e-02 0.
      3.66748171e-03 0. 0. 1.46699268e-02 1.10024456e-02 4.88997577e-03
      9.77995154e-03 0. 6.11246983e-03 9.77995154e-03 3.66748171e-03
      8.55745748e-03 0. 6.11246983e-03 1.10024456e-02 3.66748171e-03
      9.77995154e-03 4.88997577e-03 0. 7.33496342e-03 1.22249397e-02
      3.66748171e-03 7.33496342e-03 1.34474337e-02 2.44498788e-03
      2.44498788e-03 4.88997577e-03 7.33496342e-03 2.44498788e-03
      6.11246983e-03 0. 1.22249397e-02 0. 1.22249394e-03 1.22249397e-02
      1.22249394e-03 2.44498788e-03 0. 7.33496342e-03 2.44498788e-03
      1.34474337e-02 2.44498788e-03 4.88997577e-03 3.66748171e-03 0.
      3.66748171e-03 1.22249394e-03 3.66748171e-03 1.10024456e-02
      4.88997577e-03 7.33496342e-03 2.44498788e-03 1.22249394e-03
      8.55745748e-03 0. 3.30073349e-02 4.88997577e-03 4.88997577e-03
      1.22249394e-03 3.66748171e-03 0. 0. 1.10024456e-02 4.88997577e-03
      2.44498788e-03 7.33496342e-03 2.44498788e-03 9.77995154e-03
      4.88997577e-03 1.83374099e-02 4.88997577e-03 4.88997577e-03
      6.11246983e-03 3.66748171e-03 3.66748171e-03 1.22249394e-03
      9.77995154e-03 3.66748171e-03 1.22249397e-02 3.66748171e-03
      1.22249394e-03 6.11246983e-03 1.22249394e-03 1.22249394e-03
      8.55745748e-03 0. 7.33496342e-03 2.44498788e-03 0. 2.44498788e-03
      6.11246983e-03 1.22249397e-02 0. 7.33496342e-03 4.88997577e-03
      1.22249394e-03 6.11246983e-03 1.10024456e-02 6.11246983e-03
      7.33496342e-03 1.58924218e-02 0. 2.44498788e-03 0. 8.55745748e-03
      1.22249394e-03 3.66748171e-03 4.88997577e-03 8.55745748e-03
      2.44498788e-03 3.66748171e-03 1.22249394e-03 0. 1.22249397e-02
      2.44498788e-03 1.22249394e-03 3.66748171e-03 1.10024456e-02
      2.44498788e-03 1.10024456e-02 1.22249394e-03 8.55745748e-03
      3.66748171e-03 7.33496342e-03 1.22249394e-03 1.71149150e-02
      1.22249394e-03 3.66748171e-03 1.22249394e-03 2.44498788e-03
      8.55745748e-03</_>
    <_>
      4.48179292e-03 1.28851542e-02 5.60224103e-03 5.04201697e-03
      3.92156886e-03 3.92156886e-03 2.80112051e-03 2.80112051e-03
      1.12044823e-03 2.80112051e-03 5.60224114e-04 1.73669476e-02
      1.12044823e-03 1.12044823e-03 6.16246508e-03 5.60224114e-04
      2.80112051e-03 3.92156886e-03 2.24089646e-03 3.36134480e-03
      3.36134480e-03 0. 3.36134480e-03 3.92156886e-03 3.41736712e-02
      3.36134480e-03 1.17647061e-02 1.12044823e-03 1.68067240e-03
      6.16246508e-03 5.60224114e-04 5.60224114e-04 2.24089646e-03
      6.16246508e-03 1.68067235e-02 2.24089646e-03 1.06442580e-02
      1.12044823e-03 1.68067240e-03 2.24089646e-03 1.40056033e-02
      1.68067240e-03 1.12044823e-03 5.60224114e-04 2.24089646e-03
      1.12044823e-03 3.92156886e-03 5.04201697e-03 1.68067240e-03 0.
      1.12044821e-02 2.80112051e-03 5.60224114e-04 1.68067240e-03
      3.36134480e-03 3.36134480e-03 1.68067240e-03 1.56862754e-02
      2.96918787e-02 3.36134480e-03 1.12044823e-03 1.68067240e-03
      6.16246508e-03 3.92156886e-03 1.73669476e-02 2.24089646e-03
      4.48179292e-03 7.28291366e-03 3.92156886e-03 2.24089646e-03 0.
      3.36134480e-03 3.36134480e-03 8.40336177e-03 2.18487401e-02
      1.12044823e-03 1.68067240e-03 5.04201697e-03 5.60224114e-04
      5.60224114e-04 5.60224114e-04 0. 9.52380989e-03 1.06442580e-02
      1.56862754e-02 2.80112051e-03 3.36134480e-03 1.12044823e-03
      6.16246508e-03 8.40336177e-03 1.68067240e-03 0. 0. 3.92156886e-03
      0. 1.12044823e-03 5.04201697e-03 1.06442580e-02 2.80112051e-03
      1.12044823e-03 9.52380989e-03 9.52380989e-03 2.24089646e-03
      2.80112051e-03 2.24089646e-03 2.24089646e-03 1.68067240e-03
      3.36134480e-03 1.68067240e-03 1.68067240e-03 2.24089646e-03
      1.73669476e-02 4.81792726e-02 1.68067240e-03 4.48179292e-03
      1.68067240e-03 5.60224114e-04 2.24089646e-03 2.24089646e-03
      3.92156886e-03 2.24089646e-03 3.36134480e-03 2.80112051e-03
      2.80112051e-03 3.41736712e-02 1.68067240e-03 3.36134480e-03
      1.68067240e-03 1.12044823e-03 0. 2.80112051e-03 4.48179292e-03
      9.52380989e-03 1.12044823e-03 5.60224103e-03 2.24089646e-03
      7.84313772e-03 1.12044823e-03 1.06442580e-02 0. 2.80112051e-03
      3.92156886e-03 1.68067240e-03 2.80112051e-03 1.12044823e-03
      1.68067240e-03 1.12044823e-03 5.60224103e-03 2.80112051e-03 0.
      1.68067240e-03 1.68067240e-03 5.60224114e-04 4.48179292e-03
      1.12044823e-03 5.60224114e-04 5.60224114e-04 2.24089646e-03
      3.36134480e-03 1.68067240e-03 1.45658273e-02 1.12044823e-03
      2.01680679e-02 8.40336177e-03 3.92156886e-03 1.68067240e-03
      6.72268961e-03 5.60224103e-03 2.63305325e-02 3.36134480e-03
      2.80112051e-03 2.24089646e-03 5.60224114e-04 5.60224103e-03
      1.68067240e-03 3.92156886e-03 8.96358583e-03 1.68067240e-03
      2.24089646e-03 0. 5.60224114e-04 6.72268961e-03 4.48179292e-03
      6.72268961e-03 1.68067235e-02 7.28291366e-03 4.48179292e-03
      1.28851542e-02 7.84313772e-03 2.24089646e-03 6.72268961e-03
      1.68067240e-03 1.68067240e-03 1.68067240e-03 2.07282919e-02
      7.84313772e-03 4.48179292e-03 6.72268961e-03 7.28291366e-03
      4.48179292e-03</_>
    <_>
      1.15911476e-02 2.10748147e-03 0. 1.05374074e-03 6.32244442e-03
      3.16122221e-03 6.32244442e-03 9.48366709e-03 2.10748147e-03
      1.05374074e-03 8.42992589e-03 7.37618515e-03 0. 2.10748147e-03
      8.42992589e-03 1.05374074e-03 3.16122221e-03 6.32244442e-03
      1.05374074e-03 6.32244442e-03 5.26870368e-03 1.05374074e-03
      3.16122221e-03 6.32244442e-03 1.68598518e-02 1.36986300e-02
      3.16122221e-03 5.26870368e-03 2.10748147e-03 1.05374074e-03 0.
      3.16122221e-03 1.05374074e-03 3.16122221e-03 8.42992589e-03
      1.05374074e-03 1.89673342e-02 0. 8.42992589e-03 1.05374074e-03
      8.42992589e-03 3.16122221e-03 1.05374074e-03 1.05374074e-03
      1.05374074e-03 3.16122221e-03 1.05374074e-02 3.16122221e-03
      2.10748147e-03 0. 8.42992589e-03 0. 5.26870368e-03 4.21496294e-03
      7.37618515e-03 1.05374074e-03 1.05374074e-03 7.37618515e-03
      2.63435189e-02 1.05374074e-03 1.05374074e-03 3.16122221e-03
      3.16122221e-03 1.36986300e-02 4.21496294e-03 1.05374074e-03
      6.32244442e-03 7.37618515e-03 0. 3.16122221e-03 0. 3.16122221e-03
      3.16122221e-03 9.48366709e-03 1.89673342e-02 1.05374074e-03
      6.32244442e-03 5.26870368e-03 9.48366709e-03 4.21496294e-03
      2.10748147e-03 3.16122221e-03 6.32244442e-03 9.48366709e-03
      1.05374074e-03 2.10748147e-03 1.36986300e-02 1.05374074e-03
      1.05374074e-03 1.05374074e-02 7.37618515e-03 4.21496294e-03 0.
      2.10748147e-03 2.10748147e-03 3.16122221e-03 4.21496294e-03
      2.10748147e-03 2.10748147e-03 4.21496294e-03 1.26448888e-02
      1.47523703e-02 2.10748147e-03 1.05374074e-03 4.21496294e-03
      2.10748147e-03 3.16122221e-03 8.42992589e-03 2.10748147e-03
      4.21496294e-03 1.05374074e-03 3.16122221e-03 2.10748147e-02
      5.26870368e-03 2.10748147e-03 2.10748147e-03 9.48366709e-03
      4.21496294e-03 0. 2.10748147e-03 5.26870368e-03 2.10748147e-03
      3.16122221e-03 3.16122221e-03 4.21496294e-03 4.21496294e-03
      2.10748147e-03 0. 4.21496294e-03 3.16122221e-03 1.05374074e-03
      4.21496294e-03 1.05374074e-03 8.42992589e-03 1.05374074e-03
      5.26870368e-03 1.15911476e-02 2.10748147e-03 1.68598518e-02
      3.16122221e-03 5.26870368e-03 2.10748147e-03 2.10748147e-03
      1.05374074e-03 1.05374074e-03 5.26870368e-03 5.26870368e-03
      8.42992589e-03 7.37618515e-03 0. 1.05374074e-03 1.05374074e-03 0.
      1.05374074e-02 0. 6.32244442e-03 4.21496294e-03 7.37618515e-03
      1.79135930e-02 5.26870368e-03 1.89673342e-02 0. 1.47523703e-02
      1.68598518e-02 5.26870368e-03 1.05374074e-03 4.21496294e-03
      6.32244442e-03 2.52897777e-02 3.16122221e-03 2.10748147e-03
      7.37618515e-03 1.05374074e-03 1.05374074e-02 6.32244442e-03
      3.16122221e-03 2.10748147e-03 8.42992589e-03 0. 1.05374074e-03
      1.05374074e-03 1.58061106e-02 8.42992589e-03 0. 8.42992589e-03
      7.37618515e-03 3.16122221e-03 6.32244442e-03 3.16122221e-03
      2.10748147e-03 8.42992589e-03 0. 4.21496294e-03 4.21496294e-03
      6.32244442e-03 5.26870368e-03 3.16122221e-03 6.32244442e-03
      3.16122221e-03 8.42992589e-03</_>
    <_>
      5.83941583e-03 1.45985391e-02 7.29926955e-03 4.37956210e-03 0.
      1.45985396e-03 8.75912420e-03 2.91970791e-03 2.91970791e-03
      2.91970791e-03 1.45985396e-03 4.23357636e-02 0. 0. 1.75182484e-02
      0. 0. 1.45985396e-03 0. 2.91970791e-03 7.29926955e-03 0.
      4.37956210e-03 1.45985396e-03 1.31386854e-02 5.83941583e-03
      1.02189779e-02 2.91970791e-03 1.45985396e-03 4.37956210e-03 0.
      4.37956210e-03 0. 1.45985396e-03 1.60583928e-02 7.29926955e-03
      2.91970791e-03 1.45985396e-03 4.37956210e-03 1.45985396e-03
      1.31386854e-02 1.45985396e-03 4.37956210e-03 0. 1.45985396e-03
      2.91970791e-03 4.37956210e-03 8.75912420e-03 1.45985396e-03 0.
      5.83941583e-03 4.37956210e-03 4.37956210e-03 1.45985396e-03
      7.29926955e-03 1.45985391e-02 0. 1.89781021e-02 2.33576633e-02
      2.91970791e-03 0. 0. 4.37956210e-03 0. 1.31386854e-02 0. 0.
      2.91970791e-03 1.45985396e-03 2.91970791e-03 0. 2.91970791e-03
      4.37956210e-03 2.18978096e-02 1.16788317e-02 1.45985396e-03
      1.45985396e-03 0. 4.37956210e-03 1.45985396e-03 1.45985396e-03
      1.45985396e-03 4.37956210e-03 8.75912420e-03 2.91970791e-03 0.
      1.16788317e-02 1.45985396e-03 7.29926955e-03 2.91970791e-03
      4.37956210e-03 0. 0. 1.45985396e-03 0. 0. 2.91970791e-03
      4.37956210e-03 1.45985396e-03 2.91970791e-03 1.45985391e-02
      2.91970791e-03 0. 0. 2.91970791e-03 2.91970791e-03 1.45985396e-03
      4.37956210e-03 2.91970791e-03 1.45985396e-03 0. 4.37956210e-03
      1.72262773e-01 0. 4.37956210e-03 0. 4.37956210e-03 1.45985396e-03
      4.37956210e-03 1.45985396e-03 5.83941583e-03 4.37956210e-03
      2.91970791e-03 5.83941583e-03 4.96350341e-02 1.45985396e-03
      5.83941583e-03 0. 2.91970791e-03 1.16788317e-02 2.91970791e-03 0.
      2.91970791e-03 0. 1.45985396e-03 5.83941583e-03 2.91970791e-03
      1.45985396e-03 4.37956210e-03 0. 0. 0. 1.45985396e-03
      4.37956210e-03 0. 1.02189779e-02 1.45985396e-03 8.75912420e-03 0.
      0. 0. 1.45985396e-03 0. 1.45985396e-03 1.45985396e-03
      1.45985396e-03 1.45985396e-03 2.91970791e-03 0. 0. 5.83941583e-03
      1.45985396e-03 1.02189779e-02 2.91970791e-03 1.45985396e-03
      1.45985396e-03 5.83941583e-03 0. 1.31386854e-02 1.45985396e-03
      5.83941583e-03 0. 5.83941583e-03 7.29926955e-03 0. 1.45985396e-03
      1.45985396e-03 1.45985396e-03 0. 0. 0. 2.91970791e-03
      2.91970791e-03 5.83941583e-03 1.16788317e-02 4.37956210e-03 0.
      1.02189779e-02 1.02189779e-02 0. 1.16788317e-02 0. 2.91970791e-03
      0. 1.16788317e-02 0. 8.75912420e-03 8.75912420e-03 0.
      2.91970791e-03</_>
    <_>
      9.78154596e-04 1.30420609e-03 9.12944227e-03 3.26051516e-03
      3.26051516e-03 4.23866976e-03 1.30420607e-02 4.23866976e-03
      2.60841218e-03 1.63025758e-03 5.86892758e-03 1.40202157e-02
      6.52103045e-04 1.63025758e-03 1.14118028e-02 2.28236057e-03
      1.63025758e-03 5.21682436e-03 3.91261838e-03 0. 7.49918493e-03
      2.93446379e-03 3.58656677e-03 6.19497895e-03 3.26051516e-03
      4.89077298e-03 6.84708217e-03 0. 1.30420609e-03 1.63025758e-03
      9.78154596e-04 1.95630919e-03 4.23866976e-03 4.56472114e-03
      6.84708217e-03 3.58656677e-03 1.95630919e-03 3.26051516e-03
      9.45549458e-03 2.60841218e-03 4.56472114e-03 1.95630919e-03
      3.58656677e-03 1.30420609e-03 1.30420609e-03 3.26051516e-03
      8.15128814e-03 4.23866976e-03 1.63025758e-03 3.58656677e-03
      1.95630919e-03 2.60841218e-03 1.63025758e-03 2.28236057e-03
      5.86892758e-03 4.89077298e-03 1.30420609e-03 3.58656677e-03
      3.81480269e-02 3.91261838e-03 4.23866976e-03 3.91261838e-03
      1.01075973e-02 3.26051522e-04 4.89077298e-03 2.93446379e-03
      1.63025758e-03 3.91261838e-03 1.63025758e-03 4.56472114e-03
      3.26051516e-03 2.93446379e-03 3.91261838e-03 4.23866976e-03
      1.07597001e-02 4.23866976e-03 3.26051522e-04 9.78154596e-04
      5.21682436e-03 2.93446379e-03 2.28236057e-03 6.52103045e-04
      1.10857515e-02 6.84708217e-03 5.86892758e-03 1.04336487e-02
      1.33681120e-02 4.23866976e-03 1.43462671e-02 2.15194002e-02
      5.86892758e-03 3.26051516e-03 2.28236057e-03 2.60841218e-03
      8.80339090e-03 6.84708217e-03 7.82523677e-03 4.56472114e-03
      3.26051516e-03 3.26051522e-04 5.86892758e-03 1.63025758e-03
      9.78154596e-04 5.86892758e-03 9.78154596e-04 9.12944227e-03
      4.89077298e-03 1.17378552e-02 3.58656677e-03 3.26051516e-03
      3.58656677e-03 4.23866976e-03 1.53244212e-02 1.95630919e-03
      1.95630919e-03 1.63025758e-03 6.52103033e-03 4.56472114e-03
      2.28236057e-03 3.58656677e-03 6.84708217e-03 6.19497895e-03
      6.19497895e-03 9.78154596e-04 8.47733952e-03 1.30420607e-02
      2.60841218e-03 2.28236057e-03 6.19497895e-03 2.60841218e-03
      3.26051522e-04 7.82523677e-03 3.58656677e-03 3.91261838e-03
      2.93446379e-03 6.52103045e-04 4.89077298e-03 3.58656677e-03
      4.56472114e-03 4.23866976e-03 6.52103033e-03 4.56472114e-03
      2.93446379e-03 5.86892758e-03 4.23866976e-03 6.19497895e-03
      1.95630919e-03 1.01075973e-02 1.95630919e-03 2.93446379e-03
      2.93446379e-03 4.23866976e-03 8.47733952e-03 1.53244212e-02
      3.26051516e-03 1.01075973e-02 4.56472114e-03 0. 9.78154596e-03
      6.52103033e-03 4.89077298e-03 1.30420607e-02 7.17313355e-03
      1.43462671e-02 2.28236057e-03 5.21682436e-03 5.86892758e-03
      5.21682436e-03 5.21682436e-03 3.91261838e-03 6.52103045e-04
      3.91261838e-03 2.60841218e-03 6.84708217e-03 6.84708217e-03
      5.86892758e-03 2.93446379e-03 4.23866976e-03 2.93446379e-03
      1.30420609e-03 1.30420609e-03 3.26051522e-04 1.82588845e-02
      1.07597001e-02 5.86892758e-03 3.26051516e-03 7.49918493e-03
      3.58656677e-03 7.17313355e-03 2.28236057e-03 9.45549458e-03
      2.28236057e-03 6.19497895e-03 0. 7.49918493e-03 1.30420609e-03
      6.84708217e-03 5.21682436e-03 6.52103045e-04 1.59765240e-02</_>
    <_>
      6.41436840e-04 3.20718414e-03 6.41436828e-03 1.92431058e-03
      3.20718414e-03 4.49005794e-03 6.41436828e-03 8.33867863e-03
      3.20718414e-03 5.13149472e-03 1.92431058e-03 1.15458630e-02 0.
      6.41436840e-04 8.98011588e-03 4.49005794e-03 3.20718414e-03
      3.84862116e-03 1.28287368e-03 0. 8.98011588e-03 1.92431058e-03
      4.49005794e-03 8.33867863e-03 1.92431058e-03 1.60359219e-02
      6.41436828e-03 0. 6.41436840e-04 1.28287368e-03 4.49005794e-03
      1.28287368e-03 1.28287368e-03 2.56574736e-03 7.69724231e-03
      2.56574736e-03 1.28287368e-03 3.20718414e-03 3.84862116e-03
      1.28287368e-03 7.69724231e-03 1.09044267e-02 3.20718414e-03 0.
      1.73187945e-02 5.77293150e-03 4.49005794e-03 5.13149472e-03
      2.56574736e-03 8.98011588e-03 6.41436840e-04 6.41436828e-03
      3.84862116e-03 1.28287368e-03 3.20718414e-03 1.92431058e-03
      7.69724231e-03 6.41436828e-03 4.23348323e-02 1.92431058e-03
      1.92431058e-03 1.92431058e-03 3.84862116e-03 0. 7.05580506e-03
      1.92431058e-03 1.92431058e-03 3.84862116e-03 0. 4.49005794e-03
      1.92431058e-03 3.20718414e-03 1.34701738e-02 1.60359219e-02
      3.20718414e-03 2.56574736e-03 6.41436840e-04 3.84862116e-03
      5.13149472e-03 3.20718414e-03 0. 0. 7.05580506e-03 1.28287368e-03
      1.92431058e-03 5.77293150e-03 7.05580506e-03 1.28287368e-03
      3.65618989e-02 1.53944846e-02 1.28287368e-03 6.41436828e-03 0.
      1.28287368e-03 3.20718414e-03 1.92431058e-03 4.49005794e-03
      3.84862116e-03 6.41436828e-03 1.28287368e-03 6.41436828e-03
      1.92431058e-03 5.13149472e-03 1.21873002e-02 0. 5.13149472e-03
      1.92431058e-03 1.09044267e-02 1.92431058e-03 4.49005794e-03
      6.41436828e-03 5.13149472e-03 6.41436828e-03 2.56574736e-03
      2.56574736e-03 2.56574736e-03 1.09044267e-02 0. 1.28287368e-03
      4.49005794e-03 2.56574736e-03 7.05580506e-03 3.84862116e-03
      1.28287368e-03 2.56574736e-03 7.05580506e-03 5.13149472e-03
      9.62155219e-03 3.20718414e-03 2.56574736e-03 0. 1.15458630e-02
      2.56574736e-03 3.84862116e-03 5.13149472e-03 0. 2.37331633e-02
      4.49005794e-03 2.88646575e-02 3.84862116e-03 3.20718414e-03
      5.77293150e-03 1.92431058e-03 5.77293150e-03 1.28287368e-03
      1.02629894e-02 1.28287368e-03 8.33867863e-03 2.56574736e-03
      1.92431058e-03 5.13149472e-03 3.84862116e-03 8.98011588e-03
      9.62155219e-03 4.49005794e-03 5.77293150e-03 5.77293150e-03 0.
      1.02629894e-02 8.98011588e-03 2.05259789e-02 7.05580506e-03
      9.62155219e-03 2.56574736e-03 3.84862116e-03 2.56574736e-03
      8.98011588e-03 1.09044267e-02 1.28287368e-03 5.13149472e-03 0.
      1.28287368e-03 1.28287368e-03 5.77293150e-03 0. 3.84862116e-03
      1.92431058e-03 3.84862116e-03 7.69724231e-03 5.77293150e-03
      2.56574736e-03 0. 1.98845416e-02 1.92431058e-03 3.20718414e-03
      3.20718414e-03 4.49005794e-03 2.56574736e-03 4.49005794e-03
      1.28287368e-03 5.13149472e-03 1.28287368e-03 7.69724231e-03
      6.41436840e-04 9.62155219e-03 2.56574736e-03 0. 1.92431058e-03 0.
      1.02629894e-02</_>
    <_>
      0. 2.84697511e-03 1.42348753e-02 2.84697511e-03 3.55871883e-03
      3.55871883e-03 1.31672602e-02 2.13523139e-03 4.27046278e-03
      2.84697511e-03 3.20284697e-03 2.31316723e-02 7.11743778e-04
      3.55871889e-04 8.18505324e-03 1.06761570e-03 1.42348756e-03
      6.76156580e-03 3.91459092e-03 1.06761570e-03 7.82918185e-03 0.
      2.13523139e-03 9.25266929e-03 4.98220650e-03 5.69395022e-03
      3.55871883e-03 0. 1.42348756e-03 1.06761570e-03 7.11743778e-04
      1.06761570e-03 1.77935942e-03 1.35231316e-02 8.89679696e-03
      3.55871883e-03 1.06761570e-03 0. 8.89679696e-03 3.20284697e-03
      7.11743766e-03 3.55871889e-04 1.42348756e-03 1.77935942e-03
      8.89679696e-03 4.27046278e-03 6.40569394e-03 4.62633464e-03
      2.49110325e-03 3.55871889e-04 1.77935942e-03 3.55871883e-03
      2.13523139e-03 1.06761570e-03 3.91459092e-03 2.84697511e-03
      5.33807836e-03 8.54092557e-03 4.59074751e-02 3.91459092e-03
      2.49110325e-03 3.91459092e-03 4.62633464e-03 0. 5.33807836e-03
      1.42348756e-03 3.20284697e-03 2.13523139e-03 2.84697511e-03
      2.13523139e-03 3.91459092e-03 2.49110325e-03 3.55871883e-03
      4.62633464e-03 3.55871883e-03 2.49110325e-03 7.11743778e-04
      3.55871883e-03 2.84697511e-03 1.77935942e-03 1.77935942e-03
      3.55871889e-04 8.18505324e-03 6.04982208e-03 3.91459092e-03
      6.40569394e-03 6.76156580e-03 2.84697511e-03 2.20640562e-02
      2.24199295e-02 7.82918185e-03 2.13523139e-03 2.13523139e-03
      1.06761570e-03 4.62633464e-03 4.62633464e-03 7.47330952e-03
      9.60854068e-03 3.55871889e-04 0. 6.04982208e-03 2.49110325e-03
      5.33807836e-03 3.20284697e-03 1.42348756e-03 3.55871883e-03
      3.55871883e-03 7.47330952e-03 2.49110325e-03 2.49110325e-03
      3.91459092e-03 7.47330952e-03 1.95729546e-02 2.13523139e-03
      1.42348756e-03 1.42348756e-03 2.84697511e-03 3.20284697e-03
      1.06761570e-03 3.91459092e-03 6.04982208e-03 4.27046278e-03
      4.98220650e-03 1.77935942e-03 1.70818511e-02 6.04982208e-03
      3.55871883e-03 4.98220650e-03 1.77935942e-03 1.77935942e-03
      3.55871889e-04 7.47330952e-03 7.11743766e-03 4.27046278e-03
      2.84697511e-03 1.06761570e-03 1.53024914e-02 2.13523139e-03
      6.76156580e-03 3.55871883e-03 5.33807836e-03 1.77935942e-03
      2.49110325e-03 5.69395022e-03 2.49110325e-03 6.04982208e-03
      7.11743778e-04 5.33807836e-03 2.49110325e-03 1.77935942e-03
      2.84697511e-03 4.62633464e-03 4.98220650e-03 1.28113879e-02
      3.91459092e-03 5.33807836e-03 2.84697511e-03 0. 6.40569394e-03
      8.18505324e-03 1.85053386e-02 3.20284697e-03 4.27046278e-03
      5.69395022e-03 2.13523139e-03 4.27046278e-03 6.04982208e-03
      7.11743766e-03 6.40569394e-03 9.96441301e-03 0. 3.91459092e-03
      1.06761570e-03 1.70818511e-02 1.42348756e-03 7.11743766e-03
      6.40569394e-03 4.62633464e-03 2.49110325e-03 1.77935942e-03
      1.06761570e-03 0. 1.92170814e-02 3.23843434e-02 1.77935942e-03
      2.13523139e-03 6.04982208e-03 3.91459092e-03 4.98220650e-03
      3.91459092e-03 1.85053386e-02 2.13523139e-03 5.33807836e-03 0.
      1.92170814e-02 2.49110325e-03 1.06761570e-03 5.33807836e-03 0.
      9.60854068e-03</_>
    <_>
      1.31406039e-02 6.57030195e-03 3.94218136e-03 2.62812083e-03
      1.05124833e-02 1.31406041e-03 3.94218136e-03 3.94218136e-03 0.
      1.31406041e-03 5.25624165e-03 9.19842254e-03 6.57030195e-03
      3.94218136e-03 6.57030195e-03 2.62812083e-03 1.31406041e-03
      5.25624165e-03 1.31406041e-03 1.31406041e-03 1.97109058e-02 0.
      3.94218136e-03 6.57030195e-03 3.94218136e-03 6.57030195e-03
      1.83968451e-02 0. 5.25624165e-03 1.31406041e-03 1.31406041e-03
      3.94218136e-03 1.31406041e-03 1.31406041e-03 1.31406041e-03
      5.25624165e-03 1.31406039e-02 2.62812083e-03 1.31406041e-03
      3.94218136e-03 2.62812083e-03 2.62812083e-03 9.19842254e-03
      1.05124833e-02 2.62812083e-03 2.62812083e-03 7.88436271e-03 0. 0.
      1.31406041e-03 6.57030195e-03 2.62812083e-03 5.25624165e-03
      3.94218136e-03 3.94218136e-03 2.62812083e-03 1.31406041e-03
      1.31406041e-03 1.31406039e-02 1.18265441e-02 3.94218136e-03
      2.62812083e-03 2.62812083e-03 0. 2.62812083e-03 6.57030195e-03
      1.31406041e-03 3.94218136e-03 2.62812083e-03 2.62812083e-03
      2.62812083e-03 9.19842254e-03 9.19842254e-03 9.19842254e-03
      1.44546647e-02 0. 0. 6.57030195e-03 9.19842254e-03 5.25624165e-03
      6.57030195e-03 1.31406041e-03 1.18265441e-02 1.44546647e-02
      2.62812083e-03 6.57030195e-03 1.57687254e-02 7.88436271e-03
      2.62812083e-03 2.75952686e-02 7.88436271e-03 1.31406041e-03 0.
      2.62812083e-03 3.94218136e-03 3.94218136e-03 6.57030195e-03
      2.62812083e-03 0. 0. 3.94218136e-03 7.88436271e-03 7.88436271e-03
      6.57030195e-03 2.62812083e-03 1.31406039e-02 1.31406041e-03
      7.88436271e-03 3.94218136e-03 5.25624165e-03 3.94218136e-03
      7.88436271e-03 1.05124833e-02 1.31406041e-03 9.19842254e-03
      5.25624165e-03 3.94218136e-03 5.25624165e-03 0. 3.94218136e-03
      2.62812083e-03 3.94218136e-03 5.25624165e-03 6.57030195e-03 0.
      1.31406041e-03 5.25624165e-03 1.31406041e-03 1.31406041e-03
      5.25624165e-03 1.31406041e-03 1.31406041e-03 1.31406041e-03
      3.94218136e-03 7.88436271e-03 1.18265441e-02 7.88436271e-03 0.
      2.10249666e-02 2.62812083e-03 6.57030195e-03 3.94218136e-03 0. 0.
      1.31406041e-03 7.88436271e-03 2.62812083e-03 9.19842254e-03
      2.62812083e-03 0. 9.19842254e-03 0. 2.62812083e-03 7.88436271e-03
      2.62812083e-03 1.31406041e-03 1.31406041e-03 0. 0. 5.25624165e-03
      2.62812083e-03 5.25624165e-03 2.10249666e-02 6.57030195e-03
      2.62812083e-03 2.62812083e-03 1.57687254e-02 0. 2.62812083e-03
      2.62812083e-03 0. 1.31406041e-03 5.25624165e-03 7.88436271e-03
      1.18265441e-02 5.25624165e-03 3.94218136e-03 3.94218136e-03
      6.57030195e-03 1.31406041e-03 3.94218136e-03 0. 2.62812078e-02 0.
      2.10249666e-02 2.62812083e-03 5.25624165e-03 1.44546647e-02
      3.94218136e-03 6.57030195e-03 3.94218136e-03 2.62812083e-03
      5.25624165e-03 0. 2.62812083e-03 2.62812083e-03 3.94218136e-03
      7.88436271e-03 0. 5.25624165e-03</_>
    <_>
      0. 1.54494382e-02 2.80898879e-03 4.21348307e-03 1.54494382e-02
      7.02247210e-03 2.80898879e-03 2.66853943e-02 1.40449440e-03
      8.42696615e-03 1.26404492e-02 9.83146112e-03 0. 1.40449440e-03
      2.80898879e-03 2.80898879e-03 1.40449440e-03 1.40449440e-03
      2.80898879e-03 1.40449440e-03 7.02247210e-03 0. 1.40449440e-03
      4.21348307e-03 9.83146112e-03 4.21348307e-03 2.80898879e-03 0.
      4.21348307e-03 1.40449440e-03 1.40449440e-03 0. 0. 1.40449440e-03
      1.40449442e-02 1.40449440e-03 1.40449440e-03 2.80898879e-03
      5.61797759e-03 1.40449440e-03 2.80898879e-03 0. 0. 1.40449440e-03
      1.40449440e-03 2.80898879e-03 1.68539323e-02 5.61797759e-03
      2.80898879e-03 1.12359552e-02 1.40449440e-03 1.40449440e-03
      5.61797759e-03 2.80898879e-03 9.83146112e-03 0. 0. 0.
      2.66853943e-02 0. 1.40449440e-03 1.40449440e-03 9.83146112e-03 0.
      4.21348307e-03 2.80898879e-03 0. 5.61797759e-03 0. 2.80898879e-03
      4.21348307e-03 1.40449440e-03 1.26404492e-02 8.42696615e-03
      5.61797759e-03 1.96629222e-02 0. 1.40449440e-03 2.80898879e-03
      2.80898879e-03 1.40449440e-03 0. 1.40449440e-03 4.21348307e-03 0.
      4.21348307e-03 5.61797759e-03 0. 0. 5.61797759e-03 8.42696615e-03
      4.21348307e-03 0. 5.61797759e-03 7.02247210e-03 2.80898879e-03
      1.96629222e-02 2.38764044e-02 4.21348307e-03 0. 1.54494382e-02
      2.80898879e-03 4.21348307e-03 4.21348307e-03 4.21348307e-03
      1.40449440e-03 4.21348307e-03 1.40449440e-03 0. 1.40449440e-03
      4.21348307e-03 2.80898879e-03 9.83146112e-03 5.61797759e-03 0.
      1.26404492e-02 1.82584263e-02 4.21348307e-03 4.21348307e-03
      5.61797759e-03 5.61797759e-03 0. 9.83146112e-03 0. 0.
      1.40449440e-03 0. 2.80898879e-03 1.40449440e-03 0. 0.
      1.40449442e-02 0. 7.02247210e-03 0. 0. 8.42696615e-03
      5.61797759e-03 7.30337054e-02 2.80898879e-03 2.80898879e-03
      1.40449442e-02 0. 2.80898879e-03 4.21348307e-03 2.80898879e-03
      2.80898879e-03 9.83146112e-03 0. 2.80898879e-03 1.40449440e-03
      2.80898879e-03 4.21348307e-03 1.82584263e-02 2.80898879e-03
      8.42696615e-03 1.40449440e-03 0. 2.24719103e-02 5.61797759e-03
      1.54494382e-02 2.80898879e-03 1.54494382e-02 5.61797759e-03
      2.80898879e-03 4.21348307e-03 2.80898879e-03 1.12359552e-02
      1.12359552e-02 5.61797759e-03 0. 1.40449440e-03 0. 8.42696615e-03
      0. 5.61797759e-03 0. 1.40449440e-03 4.21348307e-03 0.
      1.26404492e-02 0. 5.61797759e-03 0. 9.83146112e-03 5.61797759e-03
      7.02247210e-03 4.21348307e-03 1.40449440e-03 2.80898879e-03
      2.80898879e-03 1.40449440e-03 4.21348307e-03 0. 5.61797759e-03
      1.40449440e-03 1.40449440e-03 0. 0. 2.38764044e-02</_>
    <_>
      0. 1.06382975e-02 5.31914877e-03 5.31914877e-03 5.31914877e-03
      1.06382975e-02 1.59574468e-02 0. 1.06382975e-02 0. 0.
      1.59574468e-02 0. 1.06382975e-02 5.31914877e-03 0. 0. 0. 0. 0.
      5.31914877e-03 0. 0. 5.31914877e-03 5.31914877e-03 0. 0. 0. 0. 0.
      0. 0. 0. 3.72340418e-02 1.59574468e-02 0. 0. 5.31914877e-03 0. 0.
      5.31914877e-03 0. 0. 5.31914877e-03 0. 5.31914877e-03
      1.06382975e-02 0. 0. 1.59574468e-02 5.31914877e-03 0.
      5.31914877e-03 0. 3.72340418e-02 5.31914877e-03 0. 2.65957434e-02
      2.12765951e-02 0. 5.31914877e-03 5.31914877e-03 7.44680837e-02 0.
      1.06382975e-02 1.06382975e-02 0. 0. 0. 1.59574468e-02 0. 0. 0.
      5.31914877e-03 5.31914867e-02 0. 0. 5.31914877e-03 0. 0. 0. 0. 0.
      5.31914877e-03 5.31914877e-03 0. 0. 0. 0. 0. 5.31914877e-03 0. 0.
      0. 0. 1.06382975e-02 2.12765951e-02 1.06382975e-02 0. 0. 0. 0. 0.
      1.06382975e-02 0. 0. 0. 1.06382975e-02 0. 0. 0. 2.12765951e-02
      5.31914877e-03 0. 0. 0. 1.06382975e-02 0. 5.31914877e-03 0.
      1.59574468e-02 0. 2.12765951e-02 0. 0. 0. 0. 5.31914877e-03 0. 0.
      0. 0. 0. 5.31914877e-03 0. 0. 5.31914877e-03 0. 5.85106350e-02 0.
      0. 0. 0. 0. 0. 0. 0. 0. 0. 0. 5.31914877e-03 0. 0. 1.06382975e-02
      1.06382975e-02 0. 0. 0. 1.06382975e-02 1.06382975e-02
      6.91489354e-02 0. 5.31914877e-03 3.19148935e-02 0. 0.
      5.31914877e-03 0. 0. 5.31914877e-03 0. 0. 5.31914877e-03 0. 0.
      5.31914877e-03 0. 5.31914877e-03 0. 0. 5.31914877e-03 0. 0. 0.
      1.06382975e-02 0. 0. 5.31914877e-03 5.31914877e-03 5.31914877e-03
      2.65957434e-02 0. 0. 0. 1.59574468e-02 0. 5.31914877e-03
      5.31914877e-03 0. 0.</_>
    <_>
      0. 0. 4.40528616e-03 1.32158585e-02 0. 4.40528616e-03
      2.64317170e-02 1.76211447e-02 0. 4.40528616e-03 4.40528616e-03
      1.32158585e-02 0. 0. 0. 4.40528616e-03 0. 0. 4.40528616e-03 0.
      1.32158585e-02 0. 0. 4.40528616e-03 0. 4.40528616e-03 0. 0.
      4.40528616e-03 0. 0. 0. 0. 4.40528616e-03 4.40528616e-03
      4.40528616e-03 4.40528616e-03 4.40528616e-03 8.81057233e-03 0.
      8.81057233e-03 8.81057233e-03 0. 0. 8.81057233e-03 4.40528616e-03
      4.40528616e-03 0. 0. 8.81057233e-03 0. 0. 4.40528616e-03 0.
      8.81057233e-03 0. 0. 8.81057233e-03 3.52422893e-02 4.40528616e-03
      0. 0. 3.96475755e-02 0. 8.81057233e-03 4.40528616e-03
      8.81057233e-03 0. 0. 4.40528616e-03 0. 0. 4.40528616e-03 0.
      8.81057233e-03 0. 0. 8.81057233e-03 4.40528616e-03 4.40528616e-03
      0. 0. 0. 4.40528616e-03 4.40528616e-03 1.32158585e-02
      1.76211447e-02 8.81057233e-03 8.81057233e-03 4.40528616e-03
      4.40528616e-03 8.81057233e-03 4.40528616e-03 0. 4.40528616e-03 0.
      1.76211447e-02 0. 0. 0. 4.40528616e-03 0. 8.81057233e-03
      8.81057233e-03 0. 4.40528616e-03 4.40528616e-03 0. 0. 0. 0.
      1.76211447e-02 4.40528616e-03 0. 0. 4.40528616e-03 8.81057233e-03
      0. 4.40528616e-03 1.32158585e-02 1.76211447e-02 4.40528616e-03
      4.40528616e-03 0. 0. 0. 0. 4.40528616e-03 0. 0. 0. 1.32158585e-02
      0. 4.40528616e-03 4.40528616e-03 0. 6.60792887e-02 0.
      7.04845786e-02 4.40528616e-03 4.40528616e-03 0. 0. 0. 0. 0.
      8.81057233e-03 1.32158585e-02 0. 8.81057233e-03 0. 8.81057233e-03
      0. 8.81057233e-03 0. 4.40528616e-03 0. 0. 8.81057233e-03
      1.76211447e-02 3.08370031e-02 4.40528616e-03 1.76211447e-02
      8.81057233e-03 4.40528616e-03 0. 0. 4.40528616e-03 1.32158585e-02
      0. 0. 0. 0. 8.81057233e-03 0. 0. 0. 8.81057233e-03 4.40528616e-03
      0. 4.40528616e-03 0. 4.40528616e-03 0. 1.76211447e-02 0.
      4.40528616e-03 1.32158585e-02 0. 0. 0. 0. 1.76211447e-02 0.
      4.40528616e-03 0. 0. 0. 0. 8.81057233e-03</_>
    <_>
      1.31147541e-03 0. 5.90163935e-03 4.59016394e-03 2.62295082e-03
      1.96721312e-03 1.50819672e-02 8.52459017e-03 1.31147541e-03
      8.52459017e-03 5.90163935e-03 1.11475410e-02 0. 1.31147541e-03
      5.24590164e-03 3.27868853e-03 0. 3.27868853e-03 2.62295082e-03 0.
      3.93442623e-03 6.55737706e-03 2.62295082e-03 5.90163935e-03
      1.37704918e-02 3.93442623e-03 5.24590164e-03 0. 4.59016394e-03
      3.93442623e-03 0. 1.96721312e-03 7.86885247e-03 3.93442623e-03
      1.57377049e-02 2.62295082e-03 1.31147541e-03 5.24590164e-03
      5.24590164e-03 3.93442623e-03 9.83606558e-03 1.96721312e-03
      6.55737706e-04 0. 3.27868853e-03 4.59016394e-03 9.83606558e-03
      1.31147541e-03 1.96721312e-03 2.62295082e-03 8.52459017e-03
      1.11475410e-02 6.55737706e-04 1.96721312e-03 8.52459017e-03
      6.55737706e-04 2.62295082e-03 1.50819672e-02 4.91803288e-02
      1.96721312e-03 3.27868853e-03 6.55737706e-04 5.90163935e-03
      1.31147541e-03 4.59016394e-03 1.31147541e-03 0. 3.93442623e-03
      1.96721312e-03 1.31147541e-03 1.31147541e-03 1.96721312e-03
      6.55737706e-03 3.27868853e-03 1.11475410e-02 9.83606558e-03
      2.62295082e-03 6.55737706e-04 5.24590164e-03 2.62295082e-03
      1.31147541e-03 3.27868853e-03 7.86885247e-03 9.83606558e-03
      6.55737706e-04 7.21311476e-03 1.57377049e-02 2.62295082e-03
      4.59016394e-03 2.09836066e-02 6.55737706e-03 3.27868853e-03
      1.63934417e-02 1.96721312e-03 2.62295082e-03 5.24590164e-03
      5.90163935e-03 3.27868853e-03 1.31147541e-03 0. 1.63934417e-02
      9.18032788e-03 5.24590164e-03 3.27868853e-03 1.31147541e-03
      7.21311476e-03 3.93442623e-03 7.21311476e-03 1.96721312e-03
      5.24590164e-03 1.31147541e-03 5.90163935e-03 1.57377049e-02
      1.96721312e-03 0. 3.93442623e-03 3.93442623e-03 1.31147541e-03 0.
      1.96721312e-03 2.62295082e-03 1.96721312e-03 7.21311476e-03
      2.62295082e-03 6.55737706e-04 9.18032788e-03 1.31147541e-03
      5.24590164e-03 7.21311476e-03 6.55737706e-04 6.55737706e-04
      7.21311476e-03 2.62295082e-03 9.83606558e-03 1.31147541e-03
      1.96721312e-03 1.57377049e-02 1.31147541e-03 1.31147541e-02
      1.31147541e-03 3.93442623e-03 3.27868853e-03 3.27868853e-03
      3.93442623e-03 6.55737706e-03 3.27868853e-03 3.93442623e-03
      4.59016394e-03 6.55737706e-03 4.59016394e-03 6.55737706e-04
      1.31147541e-03 1.31147541e-03 1.24590164e-02 1.31147541e-03
      3.27868853e-03 0. 6.55737706e-04 5.24590164e-03 3.27868853e-03
      1.11475410e-02 1.18032787e-02 8.52459017e-03 5.90163935e-03
      1.31147541e-03 1.31147541e-03 1.24590164e-02 4.59016394e-03
      1.37704918e-02 5.24590164e-03 6.55737706e-04 1.31147541e-03
      6.55737706e-04 1.50819672e-02 3.93442623e-03 2.62295082e-03
      3.27868853e-03 3.93442623e-03 6.55737706e-03 0. 4.59016394e-03
      1.31147541e-03 1.57377049e-02 1.96721312e-03 5.24590164e-03
      2.62295082e-03 7.86885247e-03 2.62295082e-03 5.24590164e-03
      2.62295082e-03 8.52459017e-03 0. 6.55737706e-03 1.31147541e-03
      1.96721312e-02 1.18032787e-02 3.27868853e-03 1.31147541e-03
      1.96721312e-03 9.83606558e-03</_>
    <_>
      0. 1.64473685e-03 4.11184225e-03 3.28947371e-03 4.93421033e-03
      2.46710517e-03 4.93421033e-03 5.75657887e-03 2.46710517e-03
      1.64473685e-03 8.22368427e-04 1.15131577e-02 0. 8.22368427e-04
      6.57894742e-03 2.46710517e-03 3.28947371e-03 7.40131596e-03
      4.11184225e-03 0. 2.46710517e-03 1.06907897e-02 2.46710517e-03
      7.40131596e-03 2.46710517e-03 3.28947371e-03 6.57894742e-03 0.
      8.22368427e-04 9.04605258e-03 1.64473685e-03 3.28947371e-03
      6.57894742e-03 8.22368427e-04 9.86842066e-03 4.93421033e-03
      1.64473685e-03 1.64473685e-03 7.40131596e-03 4.93421033e-03
      4.11184225e-03 4.11184225e-03 1.64473685e-03 1.64473685e-03
      3.28947371e-03 1.64473685e-03 1.06907897e-02 3.28947371e-03 0.
      6.57894742e-03 3.28947371e-03 5.75657887e-03 2.46710517e-03
      4.11184225e-03 4.93421033e-03 3.28947371e-03 2.46710517e-03
      2.71381587e-02 4.35855277e-02 2.46710517e-03 1.64473685e-03
      3.28947371e-03 2.46710517e-03 1.64473685e-03 5.75657887e-03
      1.64473685e-03 2.46710517e-03 4.11184225e-03 2.46710517e-03
      4.11184225e-03 8.22368427e-04 2.46710517e-03 1.06907897e-02
      1.64473685e-03 4.93421033e-03 4.93421033e-03 1.64473685e-03
      3.28947371e-03 4.93421033e-03 7.40131596e-03 1.64473685e-03
      3.28947371e-03 9.86842066e-03 9.86842066e-03 2.46710517e-03
      6.57894742e-03 1.39802629e-02 8.22368427e-04 6.57894742e-03
      2.63157897e-02 6.57894742e-03 2.46710517e-03 1.15131577e-02
      8.22368427e-04 1.64473685e-03 1.64473685e-03 5.75657887e-03
      2.46710517e-03 4.11184225e-03 0. 1.31578948e-02 9.04605258e-03
      8.22368450e-03 8.22368450e-03 1.64473685e-03 3.28947371e-03
      8.22368427e-04 9.86842066e-03 8.22368427e-04 3.28947371e-03
      6.57894742e-03 8.22368450e-03 2.05592103e-02 4.93421033e-03
      8.22368427e-04 4.93421033e-03 1.39802629e-02 1.64473685e-03 0.
      1.64473685e-03 1.64473685e-03 5.75657887e-03 4.93421033e-03
      8.22368427e-04 0. 9.86842066e-03 1.64473685e-03 4.11184225e-03
      4.93421033e-03 0. 0. 8.22368450e-03 0. 9.04605258e-03
      2.46710517e-03 2.46710517e-03 8.22368450e-03 2.46710517e-03
      9.86842066e-03 1.64473685e-03 3.28947371e-03 8.22368450e-03
      1.64473685e-03 1.64473685e-03 4.11184225e-03 4.11184225e-03
      1.64473685e-03 4.11184225e-03 6.57894742e-03 6.57894742e-03
      1.64473685e-03 8.22368427e-04 4.93421033e-03 1.23355268e-02
      4.11184225e-03 1.23355268e-02 2.46710517e-03 0. 1.56250000e-02
      1.64473685e-03 1.64473690e-02 4.93421033e-03 4.93421033e-03
      5.75657887e-03 4.11184225e-03 1.64473685e-03 4.11184225e-03
      4.11184225e-03 4.93421033e-03 5.75657887e-03 0. 2.46710517e-03 0.
      9.04605258e-03 2.46710517e-03 4.93421033e-03 1.64473685e-03
      4.11184225e-03 4.11184225e-03 2.46710517e-03 6.57894742e-03
      8.22368427e-04 1.97368413e-02 8.22368427e-04 8.22368450e-03
      3.28947371e-03 4.93421033e-03 4.11184225e-03 7.40131596e-03
      4.93421033e-03 3.28947371e-03 4.11184225e-03 6.57894742e-03 0.
      2.54934207e-02 1.06907897e-02 3.28947371e-03 3.28947371e-03
      8.22368427e-04 1.23355268e-02</_>
    <_>
      0. 8.19000823e-04 4.91400482e-03 4.09500394e-03 4.91400482e-03
      3.27600329e-03 1.22850128e-02 9.00900923e-03 1.63800165e-03
      1.06470110e-02 8.19000823e-04 1.71990171e-02 0. 8.19000823e-04
      4.91400482e-03 6.55200658e-03 8.19000823e-04 4.91400482e-03
      5.73300570e-03 0. 8.19000823e-04 7.37100746e-03 8.19000823e-04
      1.63800165e-03 4.91400482e-03 2.45700241e-03 7.37100746e-03 0.
      9.82800964e-03 5.73300570e-03 8.19000823e-04 2.45700241e-03
      1.14660114e-02 1.63800165e-03 9.00900923e-03 3.27600329e-03 0.
      3.27600329e-03 4.09500394e-03 6.55200658e-03 4.09500394e-03
      4.09500394e-03 0. 8.19000823e-04 5.73300570e-03 6.55200658e-03
      9.00900923e-03 0. 3.27600329e-03 1.22850128e-02 4.91400482e-03
      1.14660114e-02 8.19000823e-04 1.63800165e-03 2.45700241e-03
      2.45700241e-03 8.19000823e-04 9.82800964e-03 5.32350540e-02
      8.19000823e-04 0. 4.09500394e-03 1.31040132e-02 8.19000823e-04
      8.19000823e-04 8.19000823e-04 0. 8.19000823e-04 1.63800165e-03
      1.63800165e-03 1.63800165e-03 3.27600329e-03 7.37100746e-03
      7.37100746e-03 1.80180185e-02 7.37100746e-03 3.27600329e-03
      1.63800165e-03 2.45700241e-03 9.00900923e-03 0. 2.45700241e-03
      7.37100746e-03 9.00900923e-03 4.09500394e-03 9.00900923e-03
      1.22850128e-02 0. 1.06470110e-02 2.29320228e-02 4.91400482e-03
      4.91400482e-03 2.45700241e-03 1.63800165e-03 3.27600329e-03
      5.73300570e-03 5.73300570e-03 8.19000823e-04 2.45700241e-03 0.
      1.14660114e-02 7.37100746e-03 1.63800165e-03 2.45700241e-03 0.
      1.63800165e-03 4.09500394e-03 4.91400482e-03 1.63800165e-03
      1.63800165e-03 3.27600329e-03 3.27600315e-02 1.71990171e-02
      5.73300570e-03 8.19000823e-04 3.27600329e-03 1.47420149e-02 0.
      8.19000823e-04 3.27600329e-03 2.45700241e-03 4.09500394e-03
      5.73300570e-03 0. 8.19000788e-03 4.09500394e-03 8.19000823e-04
      1.63800165e-03 2.45700241e-03 8.19000823e-04 0. 8.19000788e-03
      8.19000823e-04 3.27600329e-03 1.63800165e-03 2.45700241e-03
      1.63800165e-03 0. 1.06470110e-02 1.63800165e-03 1.63800165e-03
      8.19000788e-03 8.19000823e-04 8.19000823e-04 4.09500394e-03
      4.09500394e-03 3.27600329e-03 3.27600329e-03 2.45700241e-03
      1.63800165e-03 1.63800165e-03 8.19000823e-04 1.63800165e-03
      1.31040132e-02 1.63800165e-03 4.91400482e-03 1.63800165e-03 0.
      2.12940220e-02 4.09500394e-03 8.19000788e-03 7.37100746e-03
      4.91400482e-03 1.31040132e-02 1.63800165e-03 4.91400482e-03
      1.06470110e-02 5.73300570e-03 8.19000788e-03 2.45700241e-03
      8.19000823e-04 8.19000823e-04 0. 2.53890250e-02 3.27600329e-03
      6.55200658e-03 1.63800165e-03 2.45700241e-03 3.27600329e-03
      1.63800165e-03 4.09500394e-03 2.45700241e-03 1.47420149e-02
      3.27600329e-03 7.37100746e-03 4.09500394e-03 4.91400482e-03
      2.45700241e-03 4.91400482e-03 8.19000823e-04 1.47420149e-02
      2.45700241e-03 9.00900923e-03 0. 1.63800158e-02 5.73300570e-03
      4.91400482e-03 1.63800165e-03 1.63800165e-03 1.47420149e-02</_>
    <_>
      0. 9.11577023e-04 2.73473095e-03 3.64630809e-03 1.18505014e-02
      1.82315405e-03 1.00273471e-02 1.18505014e-02 3.64630809e-03
      1.18505014e-02 1.82315405e-03 8.20419285e-03 0. 0. 1.09389238e-02
      2.73473095e-03 9.11577023e-04 5.46946190e-03 2.73473095e-03 0.
      1.09389238e-02 0. 2.73473095e-03 5.46946190e-03 1.00273471e-02
      9.11577023e-04 7.29261618e-03 0. 4.55788523e-03 3.64630809e-03
      9.11577023e-04 1.82315405e-03 3.64630809e-03 4.55788523e-03
      9.11577046e-03 3.64630809e-03 5.46946190e-03 1.82315405e-03
      3.64630809e-03 1.82315405e-03 7.29261618e-03 0. 1.82315405e-03
      4.55788523e-03 1.82315405e-03 9.11577023e-04 4.55788523e-03 0.
      1.82315405e-03 1.09389238e-02 6.38103904e-03 1.82315405e-03
      4.55788523e-03 1.82315405e-03 5.46946190e-03 2.73473095e-03
      1.82315405e-03 5.46946190e-03 3.55515033e-02 1.82315405e-03
      9.11577023e-04 4.55788523e-03 2.73473095e-03 0. 6.38103904e-03 0.
      0. 2.73473095e-03 3.64630809e-03 6.38103904e-03 1.82315405e-03
      8.20419285e-03 1.36736557e-02 1.54968090e-02 5.46946190e-03
      6.38103904e-03 9.11577023e-04 0. 2.73473095e-03 9.11577023e-04
      1.82315405e-03 9.11577023e-04 9.11577046e-03 1.27620781e-02
      2.73473095e-03 7.29261618e-03 1.09389238e-02 4.55788523e-03
      2.09662709e-02 1.82315409e-02 4.55788523e-03 1.00273471e-02
      2.00546943e-02 0. 9.11577023e-04 1.82315405e-03 7.29261618e-03
      6.38103904e-03 5.46946190e-03 0. 1.00273471e-02 1.82315405e-03
      4.55788523e-03 1.09389238e-02 0. 2.73473095e-03 1.82315405e-03
      7.29261618e-03 3.64630809e-03 1.82315405e-03 9.11577023e-04
      3.64630809e-03 2.55241562e-02 1.82315405e-03 1.82315405e-03
      4.55788523e-03 1.45852324e-02 2.73473095e-03 1.82315405e-03
      3.64630809e-03 1.82315405e-03 2.73473095e-03 4.55788523e-03
      9.11577023e-04 1.82315405e-03 0. 2.73473095e-03 2.73473095e-03
      3.64630809e-03 9.11577023e-04 0. 8.20419285e-03 4.55788523e-03
      2.73473095e-03 2.73473095e-03 9.11577023e-04 1.36736557e-02
      4.55788523e-03 2.09662709e-02 0. 5.46946190e-03 6.38103904e-03
      5.46946190e-03 4.55788523e-03 5.46946190e-03 2.73473095e-03
      2.73473095e-03 1.45852324e-02 0. 1.82315405e-03 9.11577023e-04
      2.73473095e-03 5.46946190e-03 1.64083857e-02 3.64630809e-03
      2.73473095e-03 1.82315405e-03 0. 2.73473095e-03 7.29261618e-03
      1.00273471e-02 3.64630809e-03 6.38103904e-03 3.64630809e-03
      9.11577023e-04 9.11577023e-04 1.00273471e-02 9.11577023e-04
      9.11577046e-03 3.64630809e-03 0. 1.82315405e-03 9.11577023e-04
      1.27620781e-02 5.46946190e-03 1.00273471e-02 7.29261618e-03
      6.38103904e-03 4.55788523e-03 0. 1.82315405e-03 0. 2.73473114e-02
      1.18505014e-02 7.29261618e-03 5.46946190e-03 5.46946190e-03
      3.64630809e-03 4.55788523e-03 5.46946190e-03 5.46946190e-03
      2.73473095e-03 9.11577046e-03 0. 4.55788523e-03 2.73473095e-03
      2.73473095e-03 3.64630809e-03 1.82315405e-03 1.36736557e-02</_>
    <_>
      1.32860942e-03 8.85739573e-04 1.15146143e-02 4.87156771e-03
      4.42869775e-03 4.42869775e-03 1.59433130e-02 3.98582825e-03
      3.54295829e-03 3.10008856e-03 6.64304662e-03 1.77147910e-02
      8.85739573e-04 8.85739573e-04 6.64304662e-03 3.10008856e-03
      4.42869787e-04 3.10008856e-03 3.10008856e-03 4.42869787e-04
      4.87156771e-03 8.85739573e-04 8.85739573e-04 1.77147915e-03
      7.97165651e-03 1.32860942e-03 5.75730717e-03 0. 2.65721884e-03
      2.65721884e-03 3.54295829e-03 3.54295829e-03 7.52878655e-03
      1.06288753e-02 1.32860932e-02 3.10008856e-03 2.65721884e-03
      2.65721884e-03 4.87156771e-03 1.77147915e-03 3.10008856e-03
      2.21434887e-03 2.65721884e-03 4.42869787e-04 3.54295829e-03
      6.64304662e-03 6.20017713e-03 3.10008856e-03 4.42869787e-04
      3.10008856e-03 3.10008856e-03 1.32860942e-03 1.77147915e-03
      8.85739573e-04 3.54295829e-03 3.54295829e-03 2.65721884e-03
      4.87156771e-03 4.96014170e-02 4.87156771e-03 1.32860942e-03
      3.54295829e-03 2.17006188e-02 1.32860942e-03 6.64304662e-03
      2.21434887e-03 8.85739573e-04 2.21434887e-03 2.65721884e-03
      4.87156771e-03 4.42869775e-03 4.87156771e-03 5.75730717e-03
      1.55004421e-02 6.20017713e-03 2.65721884e-03 8.85739573e-04 0.
      1.77147915e-03 3.10008856e-03 8.85739573e-04 4.42869787e-04
      7.52878655e-03 8.85739550e-03 1.24003543e-02 5.31443767e-03
      1.15146143e-02 1.77147915e-03 9.30026546e-03 2.87865363e-02
      6.20017713e-03 1.77147915e-03 8.85739550e-03 4.42869787e-04
      1.77147915e-03 3.54295829e-03 6.64304662e-03 2.21434887e-03
      2.65721884e-03 0. 1.46147031e-02 2.21434887e-03 4.87156771e-03
      2.21434887e-03 0. 4.42869775e-03 5.31443767e-03 5.31443767e-03
      8.85739573e-04 1.77147915e-03 3.10008856e-03 3.54295829e-03
      2.03720108e-02 4.87156771e-03 4.42869787e-04 2.65721884e-03
      1.06288753e-02 1.77147915e-03 3.10008856e-03 3.54295829e-03
      4.42869775e-03 3.54295829e-03 3.10008856e-03 1.77147915e-03
      4.42869775e-03 3.54295829e-03 2.65721884e-03 1.32860942e-03
      1.77147915e-03 8.85739573e-04 0. 9.74313542e-03 2.21434887e-03
      6.20017713e-03 8.85739573e-04 4.42869787e-04 1.77147910e-02 0.
      2.87865363e-02 2.21434887e-03 8.85739573e-04 5.31443767e-03
      3.54295829e-03 3.98582825e-03 1.77147915e-03 1.32860942e-03
      1.77147915e-03 5.31443767e-03 3.10008856e-03 3.98582825e-03
      3.10008856e-03 3.98582825e-03 1.32860942e-03 1.06288753e-02
      3.98582825e-03 2.21434887e-03 1.32860942e-03 0. 7.08591659e-03
      7.97165651e-03 2.65721865e-02 5.31443767e-03 1.68290511e-02
      7.97165651e-03 8.85739573e-04 3.54295829e-03 3.54295829e-03
      4.42869775e-03 6.64304662e-03 2.21434887e-03 8.85739573e-04
      8.85739573e-04 8.85739573e-04 2.21434887e-02 2.65721884e-03
      7.08591659e-03 3.10008856e-03 1.77147915e-03 2.21434887e-03
      2.21434887e-03 4.87156771e-03 0. 2.65721865e-02 5.75730717e-03
      5.31443767e-03 4.87156771e-03 6.64304662e-03 3.54295829e-03
      2.65721884e-03 3.98582825e-03 2.65721884e-03 8.85739573e-04
      5.31443767e-03 8.85739573e-04 2.08148807e-02 1.77147915e-03
      2.65721884e-03 4.87156771e-03 1.77147915e-03 7.97165651e-03</_></support_vectors>
  <decision_functions>
    <_>
      <sv_count>17</sv_count>
      <rho>-1.0021273182614334e+00</rho>
      <alpha>
        2.0599542820888778e-01 1.4209666619170361e-01
        4.1516241677692850e-01 5.4008974565374535e-01
        6.1504088668058567e-03 1. 9.0666735025573675e-01 1.
        2.4561254962234241e-01 4.0485098673053471e-01
        2.9538811829606872e-03 1.3042056651035416e-01 -1. -1. -1. -1.
        -1.</alpha>
      <index>
        0 1 2 3 4 5 6 7 8 9 10 11 12 13 14 15 16</index></_></decision_functions></my_svm>
</opencv_storage>
